
        #include <petsc.h>
        #include <stdbool.h>
        #include <math.h>
        
        


        
            #include <immintrin.h>

            
            // This code is generated visiting a COFFEE AST

#include "firedrake_geometry.h"


void form_cell_integral_0_otherwise(double A[105][105], double *coordinate_dofs)
{
// Section for quadrature weights and points
static const double weights64[64] = { 0.00261345900751, 0.00338108957856, 0.00161758872343, 0.000243985421621, 0.00392412678076, 0.00507672939399, 0.00242882065938, 0.000366345798555, 0.00250430944301, 0.00323988037881, 0.00155003109035, 0.000233795515279, 0.00060137292872, 0.000778009425932, 0.000372217075256, 5.6142540267e-05, 0.00489961445989, 0.00633873932659, 0.00303259438037, 0.00045741467394, 0.00735680500908, 0.00951766095289, 0.00455346144287, 0.000686811297505, 0.00469498496963, 0.00607400564032, 0.00290593987576, 0.000438311021534, 0.00112743130421, 0.00145858275269, 0.000697818545806, 0.000105253918778, 0.00489961445989, 0.00633873932659, 0.00303259438037, 0.00045741467394, 0.00735680500908, 0.00951766095289, 0.00455346144287, 0.000686811297505, 0.00469498496963, 0.00607400564032, 0.00290593987576, 0.000438311021534, 0.00112743130421, 0.00145858275269, 0.000697818545806, 0.000105253918778, 0.00261345900751, 0.00338108957856, 0.00161758872343, 0.000243985421621, 0.00392412678076, 0.00507672939399, 0.00242882065938, 0.000366345798555, 0.00250430944301, 0.00323988037881, 0.00155003109035, 0.000233795515279, 0.00060137292872, 0.000778009425932, 0.000372217075256, 5.6142540267e-05 };
static const double points64[192] = { 0.0622918093485, 0.0543346112272, 0.048500549447, 0.0498465213689, 0.0434790928043, 0.238600737552, 0.0316174621017, 0.0275786259744, 0.517047295104, 0.013364994113, 0.0116577406689, 0.795851417897, 0.0477749046478, 0.263415975366, 0.048500549447, 0.0382299507806, 0.210788066398, 0.238600737552, 0.0242491148181, 0.133702082268, 0.517047295104, 0.0102503254608, 0.0565171086994, 0.795851417897, 0.0275098322538, 0.555285975747, 0.048500549447, 0.0220136396043, 0.444345324777, 0.238600737552, 0.0139631692803, 0.281846577864, 0.517047295104, 0.00590236100006, 0.119139159297, 0.795851417897, 0.00923314621657, 0.818518016421, 0.048500549447, 0.00738845483861, 0.654986204817, 0.238600737552, 0.00468646927478, 0.415455300375, 0.517047295104, 0.0019810139747, 0.175616803963, 0.795851417897, 0.296072900492, 0.0543346112272, 0.048500549447, 0.236920460579, 0.0434790928043, 0.238600737552, 0.150277762174, 0.0275786259744, 0.517047295104, 0.0635238021415, 0.0116577406689, 0.795851417897, 0.22707406861, 0.263415975366, 0.048500549447, 0.181706913504, 0.210788066398, 0.238600737552, 0.115256015737, 0.133702082268, 0.517047295104, 0.048719785505, 0.0565171086994, 0.795851417897, 0.13075420208, 0.555285975747, 0.048500549447, 0.104630804534, 0.444345324777, 0.238600737552, 0.0663669280461, 0.281846577864, 0.517047295104, 0.028053915263, 0.119139159297, 0.795851417897, 0.0438851336894, 0.818518016421, 0.048500549447, 0.0351173176233, 0.654986204817, 0.238600737552, 0.0222747832462, 0.415455300375, 0.517047295104, 0.00941575721655, 0.175616803963, 0.795851417897, 0.601091938834, 0.0543346112272, 0.048500549447, 0.480999709065, 0.0434790928043, 0.238600737552, 0.305096316747, 0.0275786259744, 0.517047295104, 0.128967039293, 0.0116577406689, 0.795851417897, 0.461009406577, 0.263415975366, 0.048500549447, 0.368904282546, 0.210788066398, 0.238600737552, 0.233994606891, 0.133702082268, 0.517047295104, 0.0989116878988, 0.0565171086994, 0.795851417897, 0.265459272726, 0.555285975747, 0.048500549447, 0.212423133136, 0.444345324777, 0.238600737552, 0.134739198986, 0.281846577864, 0.517047295104, 0.0569555075431, 0.119139159297, 0.795851417897, 0.0890963004431, 0.818518016421, 0.048500549447, 0.0712957400079, 0.654986204817, 0.238600737552, 0.0452226212744, 0.415455300375, 0.517047295104, 0.0191160209242, 0.175616803963, 0.795851417897, 0.834873029977, 0.0543346112272, 0.048500549447, 0.668073648275, 0.0434790928043, 0.238600737552, 0.42375661682, 0.0275786259744, 0.517047295104, 0.179125847321, 0.0116577406689, 0.795851417897, 0.640308570539, 0.263415975366, 0.048500549447, 0.51238124527, 0.210788066398, 0.238600737552, 0.32500150781, 0.133702082268, 0.517047295104, 0.137381147943, 0.0565171086994, 0.795851417897, 0.368703642552, 0.555285975747, 0.048500549447, 0.295040298066, 0.444345324777, 0.238600737552, 0.187142957752, 0.281846577864, 0.517047295104, 0.079107061806, 0.119139159297, 0.795851417897, 0.123748287916, 0.818518016421, 0.048500549447, 0.0990246027926, 0.654986204817, 0.238600737552, 0.0628109352459, 0.415455300375, 0.517047295104, 0.026550764166, 0.175616803963, 0.795851417897 };
// Section for precomputed element basis function values
// Table dimensions: num_entities, num_points, num_dofs
// Definitions of 6 tables for 64 quadrature points
static const double FE0_C0_D001_Q64[1][64][4] =
    { { { -1.0, 1.11022302463e-16, 5.55111512313e-17, 1.0 },
        { -1.0, 5.55111512313e-17, 0.0, 1.0 },
        { -1.0, -2.77555756156e-16, -5.55111512313e-17, 1.0 },
        { -1.0, -3.33066907388e-16, -1.11022302463e-16, 1.0 },
        { -1.0, 1.11022302463e-16, 5.55111512313e-17, 1.0 },
        { -1.0, 5.55111512313e-17, 0.0, 1.0 },
        { -1.0, -2.77555756156e-16, -5.55111512313e-17, 1.0 },
        { -1.0, -3.33066907388e-16, -1.11022302463e-16, 1.0 },
        { -1.0, 1.11022302463e-16, 5.55111512313e-17, 1.0 },
        { -1.0, 5.55111512313e-17, 0.0, 1.0 },
        { -1.0, -2.77555756156e-16, -5.55111512313e-17, 1.0 },
        { -1.0, -3.33066907388e-16, -1.11022302463e-16, 1.0 },
        { -1.0, 1.11022302463e-16, 5.55111512313e-17, 1.0 },
        { -1.0, -5.55111512313e-17, 0.0, 1.0 },
        { -1.0, -2.77555756156e-16, -5.55111512313e-17, 1.0 },
        { -1.0, -2.77555756156e-16, -1.11022302463e-16, 1.0 },
        { -1.0, 1.11022302463e-16, 5.55111512313e-17, 1.0 },
        { -1.0, -5.55111512313e-17, 0.0, 1.0 },
        { -1.0, -2.77555756156e-16, -5.55111512313e-17, 1.0 },
        { -1.0, -3.33066907388e-16, -1.11022302463e-16, 1.0 },
        { -1.0, 1.11022302463e-16, 5.55111512313e-17, 1.0 },
        { -1.0, 5.55111512313e-17, 0.0, 1.0 },
        { -1.0, -2.77555756156e-16, -5.55111512313e-17, 1.0 },
        { -1.0, -3.33066907388e-16, -1.11022302463e-16, 1.0 },
        { -1.0, 1.11022302463e-16, 5.55111512313e-17, 1.0 },
        { -1.0, 5.55111512313e-17, 0.0, 1.0 },
        { -1.0, -2.77555756156e-16, -5.55111512313e-17, 1.0 },
        { -1.0, -3.33066907388e-16, -1.11022302463e-16, 1.0 },
        { -1.0, 1.11022302463e-16, 5.55111512313e-17, 1.0 },
        { -1.0, -5.55111512313e-17, 0.0, 1.0 },
        { -1.0, -2.77555756156e-16, -5.55111512313e-17, 1.0 },
        { -1.0, -3.33066907388e-16, -1.11022302463e-16, 1.0 },
        { -1.0, 1.11022302463e-16, 5.55111512313e-17, 1.0 },
        { -1.0, -5.55111512313e-17, 0.0, 1.0 },
        { -1.0, -2.77555756156e-16, -5.55111512313e-17, 1.0 },
        { -1.0, -3.33066907388e-16, -1.11022302463e-16, 1.0 },
        { -1.0, 1.11022302463e-16, 5.55111512313e-17, 1.0 },
        { -1.0, 5.55111512313e-17, 0.0, 1.0 },
        { -1.0, -2.77555756156e-16, -5.55111512313e-17, 1.0 },
        { -1.0, -3.33066907388e-16, -1.11022302463e-16, 1.0 },
        { -1.0, 1.11022302463e-16, 5.55111512313e-17, 1.0 },
        { -1.0, 5.55111512313e-17, 0.0, 1.0 },
        { -1.0, -2.77555756156e-16, -5.55111512313e-17, 1.0 },
        { -1.0, -3.33066907388e-16, -1.11022302463e-16, 1.0 },
        { -1.0, 1.11022302463e-16, 5.55111512313e-17, 1.0 },
        { -1.0, 5.55111512313e-17, 0.0, 1.0 },
        { -1.0, -2.77555756156e-16, -5.55111512313e-17, 1.0 },
        { -1.0, -3.33066907388e-16, -1.11022302463e-16, 1.0 },
        { -1.0, 1.11022302463e-16, 5.55111512313e-17, 1.0 },
        { -1.0, -5.55111512313e-17, 0.0, 1.0 },
        { -1.0, -2.77555756156e-16, -5.55111512313e-17, 1.0 },
        { -1.0, -3.33066907388e-16, -1.11022302463e-16, 1.0 },
        { -1.0, 1.11022302463e-16, 5.55111512313e-17, 1.0 },
        { -1.0, 5.55111512313e-17, 0.0, 1.0 },
        { -1.0, -2.77555756156e-16, -5.55111512313e-17, 1.0 },
        { -1.0, -3.33066907388e-16, -1.11022302463e-16, 1.0 },
        { -1.0, 1.11022302463e-16, 5.55111512313e-17, 1.0 },
        { -1.0, 5.55111512313e-17, 0.0, 1.0 },
        { -1.0, -2.77555756156e-16, -5.55111512313e-17, 1.0 },
        { -1.0, -3.33066907388e-16, -1.11022302463e-16, 1.0 },
        { -1.0, 1.11022302463e-16, 5.55111512313e-17, 1.0 },
        { -1.0, -5.55111512313e-17, 0.0, 1.0 },
        { -1.0, -2.77555756156e-16, -5.55111512313e-17, 1.0 },
        { -1.0, -3.33066907388e-16, -1.11022302463e-16, 1.0 } } };
static const double FE0_C0_D010_Q64[1][64][3] =
    { { { -1.0, -5.55111512313e-17, 1.0 },
        { -1.0, -1.11022302463e-16, 1.0 },
        { -1.0, -2.77555756156e-16, 1.0 },
        { -1.0, -2.77555756156e-16, 1.0 },
        { -1.0, -5.55111512313e-17, 1.0 },
        { -1.0, -1.11022302463e-16, 1.0 },
        { -1.0, -2.77555756156e-16, 1.0 },
        { -1.0, -2.77555756156e-16, 1.0 },
        { -1.0, -5.55111512313e-17, 1.0 },
        { -1.0, -1.11022302463e-16, 1.0 },
        { -1.0, -2.77555756156e-16, 1.0 },
        { -1.0, -2.77555756156e-16, 1.0 },
        { -1.0, -5.55111512313e-17, 1.0 },
        { -1.0, -1.11022302463e-16, 1.0 },
        { -1.0, -2.77555756156e-16, 1.0 },
        { -1.0, -2.77555756156e-16, 1.0 },
        { -1.0, -5.55111512313e-17, 1.0 },
        { -1.0, -1.11022302463e-16, 1.0 },
        { -1.0, -2.77555756156e-16, 1.0 },
        { -1.0, -2.77555756156e-16, 1.0 },
        { -1.0, -5.55111512313e-17, 1.0 },
        { -1.0, -1.11022302463e-16, 1.0 },
        { -1.0, -2.77555756156e-16, 1.0 },
        { -1.0, -2.77555756156e-16, 1.0 },
        { -1.0, -5.55111512313e-17, 1.0 },
        { -1.0, -1.11022302463e-16, 1.0 },
        { -1.0, -2.77555756156e-16, 1.0 },
        { -1.0, -2.77555756156e-16, 1.0 },
        { -1.0, -5.55111512313e-17, 1.0 },
        { -1.0, -1.11022302463e-16, 1.0 },
        { -1.0, -2.77555756156e-16, 1.0 },
        { -1.0, -2.77555756156e-16, 1.0 },
        { -1.0, -5.55111512313e-17, 1.0 },
        { -1.0, -1.11022302463e-16, 1.0 },
        { -1.0, -2.77555756156e-16, 1.0 },
        { -1.0, -2.77555756156e-16, 1.0 },
        { -1.0, -5.55111512313e-17, 1.0 },
        { -1.0, -1.11022302463e-16, 1.0 },
        { -1.0, -2.77555756156e-16, 1.0 },
        { -1.0, -2.77555756156e-16, 1.0 },
        { -1.0, -5.55111512313e-17, 1.0 },
        { -1.0, -1.11022302463e-16, 1.0 },
        { -1.0, -2.77555756156e-16, 1.0 },
        { -1.0, -2.77555756156e-16, 1.0 },
        { -1.0, -1.11022302463e-16, 1.0 },
        { -1.0, -1.11022302463e-16, 1.0 },
        { -1.0, -2.77555756156e-16, 1.0 },
        { -1.0, -2.77555756156e-16, 1.0 },
        { -1.0, -5.55111512313e-17, 1.0 },
        { -1.0, -1.11022302463e-16, 1.0 },
        { -1.0, -2.77555756156e-16, 1.0 },
        { -1.0, -2.77555756156e-16, 1.0 },
        { -1.0, -5.55111512313e-17, 1.0 },
        { -1.0, -1.11022302463e-16, 1.0 },
        { -1.0, -2.77555756156e-16, 1.0 },
        { -1.0, -2.77555756156e-16, 1.0 },
        { -1.0, -5.55111512313e-17, 1.0 },
        { -1.0, -1.11022302463e-16, 1.0 },
        { -1.0, -2.77555756156e-16, 1.0 },
        { -1.0, -2.77555756156e-16, 1.0 },
        { -1.0, -5.55111512313e-17, 1.0 },
        { -1.0, -1.11022302463e-16, 1.0 },
        { -1.0, -2.77555756156e-16, 1.0 },
        { -1.0, -2.77555756156e-16, 1.0 } } };
static const double FE0_C0_D100_Q64[1][64][2] =
    { { { -1.0, 1.0 },
        { -1.0, 1.0 },
        { -1.0, 1.0 },
        { -1.0, 1.0 },
        { -1.0, 1.0 },
        { -1.0, 1.0 },
        { -1.0, 1.0 },
        { -1.0, 1.0 },
        { -1.0, 1.0 },
        { -1.0, 1.0 },
        { -1.0, 1.0 },
        { -1.0, 1.0 },
        { -1.0, 1.0 },
        { -1.0, 1.0 },
        { -1.0, 1.0 },
        { -1.0, 1.0 },
        { -1.0, 1.0 },
        { -1.0, 1.0 },
        { -1.0, 1.0 },
        { -1.0, 1.0 },
        { -1.0, 1.0 },
        { -1.0, 1.0 },
        { -1.0, 1.0 },
        { -1.0, 1.0 },
        { -1.0, 1.0 },
        { -1.0, 1.0 },
        { -1.0, 1.0 },
        { -1.0, 1.0 },
        { -1.0, 1.0 },
        { -1.0, 1.0 },
        { -1.0, 1.0 },
        { -1.0, 1.0 },
        { -1.0, 1.0 },
        { -1.0, 1.0 },
        { -1.0, 1.0 },
        { -1.0, 1.0 },
        { -1.0, 1.0 },
        { -1.0, 1.0 },
        { -1.0, 1.0 },
        { -1.0, 1.0 },
        { -1.0, 1.0 },
        { -1.0, 1.0 },
        { -1.0, 1.0 },
        { -1.0, 1.0 },
        { -1.0, 1.0 },
        { -1.0, 1.0 },
        { -1.0, 1.0 },
        { -1.0, 1.0 },
        { -1.0, 1.0 },
        { -1.0, 1.0 },
        { -1.0, 1.0 },
        { -1.0, 1.0 },
        { -1.0, 1.0 },
        { -1.0, 1.0 },
        { -1.0, 1.0 },
        { -1.0, 1.0 },
        { -1.0, 1.0 },
        { -1.0, 1.0 },
        { -1.0, 1.0 },
        { -1.0, 1.0 },
        { -1.0, 1.0 },
        { -1.0, 1.0 },
        { -1.0, 1.0 },
        { -1.0, 1.0 } } };
static const double FE1_C0_D001_Q64[1][64][35] =
    { { { -2.61665455821, -1.72778458207e-15, -1.66533453694e-16, -0.396701411583, 0.202156726411, 0.104101948809, 0.137487919402, 0.218367276513, 0.114493927887, 0.157622757753, 6.09234884763e-15, -6.97358837343e-15, 6.86950496487e-16, 4.98241396682, -3.89335121388, 1.92429321685, -2.23419141911, 0.966009105863, -0.202156726411, -2.56138440643, 1.06244098377, -0.218367276513, -0.0813206240654, -0.0847679127255, -0.0662835546818, 2.91710794676, -1.07011105467, -0.820404447055, 3.34431273113, -1.17693491166, -0.940551082455, -0.615075107853, 0.0813206240654, 0.0847679127255, 0.681358662535 },
        { -0.0971243045951, -1.32185928869e-15, 4.16333634234e-16, 0.346390058705, 0.174901641145, -0.130567659355, -0.115221071571, 0.191622862578, -0.14507384406, -0.132094973372, 3.30291349826e-15, -4.25701141005e-15, 2.34534613952e-15, -2.69891052173, 4.25039744227, -1.80075267465, -0.856794088891, 0.624184812888, -0.174901641145, -0.982269916552, 0.693532308513, -0.191622862578, -0.0555249839509, -0.0572913852709, 0.0630284237128, 0.112132602069, -0.493617153533, 0.859882558393, 0.128554203519, -0.548458464452, 0.985810686406, -0.301310332559, 0.0555249839509, 0.0572913852708, 0.238281908846 },
        { 0.157576792955, -3.1918911958e-16, -3.08780778724e-16, -0.351201920067, 0.123642391766, -0.307820525809, 0.178200900522, 0.137985777757, -0.346492107767, 0.204298075763, -1.04083408559e-16, -1.00267016911e-15, 1.00613961607e-15, -0.858857374219, -1.58521578631, 2.63769828764, -0.0330344408809, 0.234572257038, -0.123642391766, -0.0378722704886, 0.264041637741, -0.137985777757, -0.0243740394654, -0.0248248207051, 0.0875141056162, -0.830666749897, 0.0732482687709, 0.685500290256, -0.952316279586, 0.0824504700264, 0.785890474312, -0.0666894490649, 0.0243740394654, 0.0248248207051, -0.0208246565513 },
        { -0.332272064837, 4.16333634234e-17, -1.19348975147e-15, 1.77751327295, 0.0578933212355, -0.238589734323, 0.413516568271, 0.0656658884112, -0.271571427139, 0.474075265311, 1.80411241502e-16, 2.63677968348e-16, -1.48492329544e-15, 1.78437565996, -4.09982592948, 0.870209061407, 0.0235918168933, 0.0192499727777, -0.0578933212355, 0.027046792586, 0.0219110122003, -0.0656658884112, -0.00471924063394, -0.00475328859651, 0.0267577424465, -0.147499565414, 0.219339761546, -0.28960881975, -0.16910058985, 0.249660414938, -0.332021468048, -0.0021588766807, 0.00471924063392, 0.0047532885965, -0.0245988657657 },
        { 0.0875743252959, -2.49800180541e-16, -1.87350135405e-16, -0.396701411583, -0.0356729062617, -0.0346045055181, 0.666545937704, 0.1864138825, 0.0946026198011, 0.120889283852, -8.46545056277e-16, 4.73926453637e-15, -2.19269047363e-15, 0.679725918577, -1.80256750474, 1.43196867245, -4.43406878641, -0.233099690832, 0.0356729062617, -0.804192734242, 0.637253476026, -0.1864138825, -0.325751900007, 0.0216109650404, -0.246456467964, 6.74117053529, 0.267704196351, -2.97364768659, 1.22262432675, -0.731856095827, -0.539320876364, -1.66015741667, 0.325751900007, -0.0216109650404, 1.90661388463 },
        { 0.347307955877, -6.59194920871e-16, -5.96744875736e-16, 0.346390058705, 0.101992726717, -0.120186420066, -0.558595529905, 0.159508103766, -0.117722478519, -0.101310667057, -1.6826817717e-15, 2.15799600412e-15, -6.0368376964e-16, -1.39526645637, 2.08973096442, -1.38816252263, -1.29536745996, 0.409838580918, -0.101992726717, -0.23493661232, 0.401436481027, -0.159508103766, -0.218436025622, -0.040446224405, 0.234353193099, -1.36036675472, -0.289652160853, 3.21432974458, -0.24672532447, -0.283714002508, 0.582972603847, -0.799150020782, 0.218436025622, 0.040446224405, 0.564796827684 },
        { -0.161328789786, -3.95516952523e-16, -1.02348685083e-15, -0.351201920067, 0.243015108355, -0.780294492172, 0.863923804035, 0.11112036818, -0.274709566285, 0.15668706996, -1.70349845341e-15, 9.36750677027e-16, 1.28369537222e-16, 0.824500830648, -2.31155651073, 1.99958638993, 0.260269516108, 0.398064409368, -0.243015108355, 0.0472042414949, 0.140142090387, -0.11112036818, -0.0936857401897, -0.0482631839803, 0.325396208317, -3.12233722506, 0.382230082804, 1.99814390491, -0.566288217706, 0.134567475897, 0.362396906251, -0.16599969726, 0.0936857401897, 0.0482631839803, -0.159396511057 },
        { -0.219620965509, -9.71445146547e-17, -1.44328993201e-15, 1.77751327295, 0.206913148842, -0.938985349862, 2.0047418708, 0.0513521406623, -0.211024069027, 0.363593558014, 7.07767178199e-16, 2.49800180541e-16, -4.71844785466e-16, 1.0696397557, -2.01699752931, -0.610534533828, 0.058961016954, 0.0173297934875, -0.206913148842, 0.0106935692074, 0.0038946332205, -0.0513521406623, -0.0177781099201, -0.0143472983469, 0.099491023463, -0.25449023202, 0.921655556375, -1.80921265574, -0.0461560714063, 0.207129435807, -0.328131055815, -0.00183619360059, 0.0177781099201, 0.0143472983469, -0.0976548298624 },
        { -0.0209772079822, -5.34294830601e-16, 2.80331313718e-15, -0.396701411583, 0.399877762195, -1.65993791461, 1.40509174086, 0.123390082929, 0.0599331426904, 0.0696106867104, 7.56339435526e-16, -2.42861286637e-15, 1.52655665886e-16, -0.203319129044, -0.123703717825, 0.744701466434, 0.4792538089, -5.28804995692, -0.399877762195, 0.0237430665742, 0.190928497887, -0.123390082929, -0.435036243762, 0.596927340689, -0.299159589438, 1.43055486501, 6.94798787154, -3.31490041477, 0.0708721741321, -0.250861640577, -0.164225927417, -0.953030134509, 0.435036243762, -0.596927340689, 1.25218972395 },
        { -0.244720001995, -2.35922392733e-16, -4.75314232418e-16, 0.346390058705, -0.205061948774, 1.25569982386, -1.17753019133, 0.102354027565, -0.0729779800399, -0.0583368920738, -1.28022592527e-15, -1.9567680809e-15, 9.2287288922e-16, 0.458103499298, 0.25242808018, -0.812201636188, 1.06954018544, -1.87956149698, 0.205061948774, 0.0529868795096, 0.109235184082, -0.102354027565, -0.285450824891, 0.243330492119, 0.284468107532, -3.85932203668, 0.623861673119, 3.96731204257, -0.191197520701, -0.0362572040416, 0.196547533265, -0.425798659741, 0.285450824891, -0.243330492119, 0.141330552209 },
        { -0.343330389268, -1.5959455979e-16, -1.94635974005e-15, -0.351201920067, -0.0835461193906, 0.450426536556, 1.82116810428, 0.0683473488315, -0.165391128059, 0.0902238328411, -1.82145964978e-15, -1.38777878078e-16, 1.49186218934e-16, 1.27432954866, -1.68860256613, 1.1088053268, 0.609052888213, -0.0713965829656, 0.0835461193906, 0.0301735385374, 0.0262159540744, -0.0683473488315, -0.118901275521, 0.0160424062526, 0.394980082645, -2.74270358699, -0.379029953591, 0.312482594501, -0.135878302164, 0.139175173984, 0.015480930786, -0.0626078304709, 0.118901275521, -0.0160424062526, -0.332372252174 },
        { 0.119021627701, -5.41233724505e-16, -2.09554595898e-15, 1.77751327295, 0.253349046364, -1.33875328319, 4.22603467501, 0.0303732203364, -0.123715939849, 0.209365102103, 9.29811783124e-16, 2.22044604925e-16, 4.30211422042e-16, -0.609979029828, 1.39104301131, -2.67759888213, -0.127657140121, -0.0915840975261, -0.253349046364, -0.00632435657325, -0.00846340609806, -0.0303732203364, -0.0219712035662, -0.011778770912, 0.120766535274, 0.907807326796, 1.43033738071, -5.00618486169, 0.0449743526214, 0.132179345947, -0.248015098151, 0.00826163736318, 0.0219712035662, 0.011778770912, -0.129028172637 },
        { -0.160775122871, -1.72084568817e-15, 8.31973379078e-15, -0.396701411583, 6.32404851007, -4.55659847811, 2.07117225151, 0.0465489992587, 0.021767807909, 0.0233634884685, 1.46896383946e-14, -2.58959520494e-14, 1.10050857316e-14, 0.281190616285, 0.15141776414, 0.124868154029, 0.512728960714, 0.0745567365025, -6.32404851007, 0.00578374741762, -0.000356172861462, -0.0465489992587, -0.232908116629, 0.549961335598, -0.14800494895, -1.62415093733, 4.48204174161, -0.95975027489, -0.0183209444159, -0.0214116350475, -0.0108262914703, 0.00242171129033, 0.232908116629, -0.549961335598, 0.145583237659 },
        { -0.0231092835261, -7.35522753814e-16, 2.35575448038e-15, 0.346390058705, 1.75409916439, 3.85712313653, -1.73573567239, 0.037675444756, -0.0260649086724, -0.0195796560796, 8.2607531926e-15, -1.69343705725e-14, 6.02642935554e-15, 0.195906210583, -0.22643359464, -0.292753391122, -0.164342827891, 0.881951188948, -1.75409916439, -0.00185383990227, -0.00595987641042, -0.037675444756, -0.150282084238, 0.25086263272, 0.14073654738, -0.214188317466, -4.73907432548, 2.11426681774, -0.00241611304011, 0.0320247850829, 0.023849609022, 0.0321801407154, 0.150282084238, -0.25086263272, -0.172916688095 },
        { 0.257570292859, -6.55725473919e-16, -2.23779328401e-15, -0.351201920067, -0.247959121417, 3.44947832137, 2.6844886588, 0.0242960786154, -0.0576920151295, 0.0302818946024, 2.39391839685e-16, -3.79210551849e-15, -1.07552855511e-15, -0.720891835721, 0.509096752407, 0.305426710522, -0.755472566595, 0.547178448556, 0.247959121417, -0.00852197328592, -0.00915147868505, -0.0242960786154, -0.0611366377836, 0.0412344999418, 0.195410774155, 2.79461718918, -3.99665676993, -4.72363328138, 0.0315241798096, 0.0668434938145, -0.0532841011261, 0.030997314455, 0.0611366377836, -0.0412344999418, -0.22640808861 },
        { 0.643627477463, -9.43689570931e-16, -2.69229083472e-15, 1.77751327295, 0.180795646006, -1.12170128066, 6.22937670065, 0.0104401582458, -0.0421899274452, 0.0702693706936, 9.57567358739e-16, 3.74700270811e-16, 4.57966997658e-16, -2.84415859753, 4.96486302348, -4.54184517636, -0.654052673187, -0.164612656348, -0.180795646006, -0.00737792430188, -0.0061914844421, -0.0104401582458, -0.0110445622081, -0.00331236672254, 0.0597475244623, 3.38913299318, 1.286313937, -8.96445702064, 0.0382305090978, 0.0483814118873, -0.101121955489, 0.00876810865919, 0.0110445622081, 0.00331236672254, -0.0685156331215 },
        { 0.260529637804, -1.94289029309e-15, -2.22044604925e-16, -0.396701411583, 0.202156726411, 0.104101948809, 0.137487919402, -0.118688289052, -0.133571098516, 0.749180792141, 9.99200722163e-16, -1.21430643318e-15, 5.6898930012e-16, 0.274356833948, -1.47092024263, 1.33273518247, -0.712398674345, 0.647875223765, -0.202156726411, -3.8819076286, -0.831275555643, 0.118688289052, 0.0948704030764, -0.402901794823, -0.315045661618, 1.14655309506, -0.751977172574, -0.571642340119, 6.24764386375, 0.96484665416, -3.11491702729, -1.96067682547, -0.0948704030764, 0.402901794823, 2.27572248709 },
        { 0.302516099307, -1.05124242644e-15, 2.28983498829e-16, 0.346390058705, 0.174901641145, -0.130567659355, -0.115221071571, 0.0347833019775, -0.0450594763222, -0.627847261394, 1.63064006742e-16, -2.77902700851e-15, 1.83533743758e-15, -1.08349512322, 1.73958935183, -1.30500038662, -0.181026251981, 0.409170307742, -0.174901641145, -0.986424054182, 0.141206481639, -0.0347833019775, -0.0172458840932, -0.272305890418, 0.299574027746, -0.327089630808, -0.278602648386, 0.62333695436, -1.78233309353, -0.096147005317, 3.3966044091, -0.938799069611, 0.0172458840932, 0.272305890418, 0.639225041866 },
        { -0.218437937624, -1.97758476261e-16, -4.54497550706e-16, -0.351201920067, 0.123642391766, -0.307820525809, 0.178200900522, 0.223613849823, -0.752030001146, 0.971028526684, -2.08513761812e-15, -1.4224732503e-15, 1.02001740387e-15, 1.03810278643, -2.33943076546, 1.87096783672, 0.0628271254007, 0.141404732566, -0.123642391766, 0.342349173516, 0.345462996381, -0.223613849823, -0.0529016636057, -0.117992345177, 0.415954446576, -0.598087975219, 0.166415793243, 0.357059949296, -3.25902104704, 0.406567004765, 1.94564334684, -0.191078639487, 0.0529016636057, 0.117992345177, -0.22487580709 },
        { -0.184678583594, -5.55111512313e-17, -1.29063426613e-15, 1.77751327295, 0.0578933212355, -0.238589734323, 0.413516568271, 0.220601860279, -1.01717622738, 2.2532792083, -1.5959455979e-15, -1.2490009027e-16, -1.80411241502e-15, 0.877100194463, -1.56094000223, -0.908994881582, 0.00922823879749, 0.00141088596622, -0.0578933212355, 0.0502852852996, 0.00601501011116, -0.220601860279, -0.0176760104503, -0.022592375408, 0.127179520062, -0.0327142097028, 0.237178848357, -0.390030597365, -0.178261898544, 1.01116121726, -2.12530259506, -0.000752068401239, 0.0176760104503, 0.022592375408, -0.126427451661 },
        { 0.259550726523, -9.02056207508e-17, -3.95516952523e-16, -0.396701411583, -0.0356729062617, -0.0346045055181, 0.666545937704, 0.0606216909073, 0.0509756550693, 0.574586631579, -1.85962356625e-15, 1.97758476261e-15, -1.47798440153e-15, -0.308909765223, -0.532210874441, 0.978271324724, -0.798816702986, -0.151993763092, 0.0356729062617, -0.688608800466, 0.22390094943, -0.0606216909073, -0.17552808292, 0.102716892781, -1.17140731789, 2.18096760194, 0.18659826861, -2.04869683666, 1.88007271082, -0.274876604499, -1.76605054193, -5.14518568301, 0.17552808292, -0.102716892781, 6.31659300089 },
        { -0.020309394039, 9.36750677027e-17, -7.21644966006e-16, 0.346390058705, 0.101992726717, -0.120186420066, -0.558595529905, 0.168524913554, -0.180442698455, -0.481529487748, -2.59167687311e-15, 1.83880688454e-16, -5.23886489745e-16, -0.0408768355937, 0.722739872862, -1.00794370193, 0.180639772361, 0.258043945749, -0.101992726717, 0.155717997003, 0.387416031408, -0.168524913554, -0.334814441548, -0.192240859574, 1.11388046592, -1.95684671422, -0.137857525684, 2.33480247176, -1.68687242459, -0.206973332953, 2.01268391534, -2.39153566903, 0.334814441548, 0.192240859574, 1.27765520311 },
        { -0.350400156294, 9.36750677027e-17, -1.08593689596e-15, -0.351201920067, 0.243015108355, -0.780294492172, 0.863923804035, 0.254937392994, -0.779330043606, 0.744733469101, -2.86229373536e-15, -4.12864187282e-16, 8.32667268469e-17, 1.40434486643, -2.11428278086, 1.41153999079, 0.352154782216, 0.216932733615, -0.243015108355, 0.30357011972, 0.216664603484, -0.254937392994, -0.265779284554, -0.229394859733, 1.54660781591, -1.99301088357, 0.563361758557, 0.776932297319, -1.71804724253, 0.562665440121, 0.669743653707, -0.429978507732, 0.265779284554, 0.229394859733, -1.11662930818 },
        { -0.0223844325018, -2.77555756156e-16, -1.55431223448e-15, 1.77751327295, 0.206913148842, -0.938985349862, 2.0047418708, 0.188817160484, -0.842059472797, 1.7281597765, -8.04911692853e-16, -1.52655665886e-16, -7.6327832943e-16, 0.0525831654337, 0.167388746438, -1.97510075232, -0.0144274684593, -0.0365156012377, -0.206913148842, -0.0124369980152, -0.0327463127423, -0.188817160484, -0.0709408454478, -0.0681926930721, 0.47288072377, 0.1922879537, 0.9755009511, -2.18260235604, 0.16575914931, 0.87480578554, -1.8814819278, 0.0183895562851, 0.0709408454478, 0.0681926930721, -0.491270280055 },
        { -0.309054780063, 6.93889390391e-18, 2.28289609439e-15, -0.396701411583, 0.399877762195, -1.65993791461, 1.40509174086, 0.245642220945, 0.152674682074, 0.330859516446, 9.57567358739e-16, -5.80785419757e-15, 1.87350135405e-16, 0.0867840462081, 0.13551950874, 0.483452636698, 1.46377606722, -3.0477823118, -0.399877762195, 0.344678021869, 0.280323252688, -0.245642220945, -1.10821854529, 2.83719498582, -1.42190519558, -0.676712999456, 4.70772022641, -2.19215480862, -0.159346844951, -0.432997934762, -0.516190693364, -2.61073469435, 1.10821854529, -2.83719498582, 4.03263988994 },
        { -0.358579623297, -2.42861286637e-17, -5.34294830601e-16, 0.346390058705, -0.205061948774, 1.25569982386, -1.17753019133, 0.256580410431, -0.221168398049, -0.277275183088, -1.90819582357e-16, -4.72538674856e-15, 7.07767178199e-16, 0.691085365441, -0.0856324556759, -0.593263345174, 1.10461047942, -0.966342430922, 0.205061948774, 0.26010464545, 0.170203422309, -0.256580410431, -0.86509247897, 1.15654955817, 1.35207659844, -2.82678383975, -0.289357392936, 2.89970355166, -0.665627949491, 0.0509649757397, 0.68279848713, -1.04051060779, 0.86509247897, -1.15654955817, -0.311565990646 },
        { -0.209120412752, -3.3653635434e-16, -1.92554305833e-15, -0.351201920067, -0.0835461193906, 0.450426536556, 1.82116810428, 0.225482960006, -0.61157686265, 0.42883377706, -1.87350135405e-15, -1.3287981826e-15, 3.46944695195e-18, 0.741589727969, -0.951462777735, 0.770195382585, 0.272314520571, -0.0111894501575, 0.0835461193906, 0.0641223971199, 0.0151927301496, -0.225482960006, -0.439668499161, 0.0762495390607, 1.87733989313, -0.923605408866, -0.439237086399, -1.16987721599, -0.217483051161, 0.596384132501, -0.275473123018, -0.0466366864696, 0.439668499161, -0.0762495390607, -1.83070320666 },
        { 0.312478109058, -7.07767178199e-16, -2.04003480775e-15, 1.77751327295, 0.253349046364, -1.33875328319, 4.22603467501, 0.125378211828, -0.534659491189, 0.995112097237, -2.77555756156e-17, -1.66533453694e-16, 4.16333634234e-17, -1.46615692107, 2.83951141633, -3.46334587726, -0.250597768737, -0.135789811647, -0.253349046364, -0.0590087139336, -0.0542305386031, -0.125378211828, -0.0949522958306, -0.0559844850329, 0.574003207725, 1.48398462786, 1.47454309483, -5.45942153414, 0.349436568524, 0.588890029792, -1.28553995183, 0.0582211737149, 0.0949522958306, 0.0559844850329, -0.63222438144 },
        { 0.0441090754129, -1.43635103811e-15, 7.79931674799e-15, -0.396701411583, 6.32404851007, -4.55659847811, 2.07117225151, 0.176031214445, 0.0885717097593, 0.111046634683, 1.48353551666e-14, -2.76514922071e-14, 1.0401401962e-14, 0.219943720232, 0.0954636081247, 0.0371850078138, -0.529788570164, 2.1385610168, -6.32404851007, -0.0284048020475, -0.0415696064932, -0.176031214445, -0.947687070418, 2.6139656159, -0.703467357603, -1.13709581511, 2.41803746131, -0.404287866236, -0.0609657953309, -0.0470021032661, -0.021676037305, 0.33016028838, 0.947687070418, -2.6139656159, 0.373307069224 },
        { 0.182854617687, -1.11716191853e-15, 2.08513761812e-15, 0.346390058705, 1.75409916439, 3.85712313653, -1.73573567239, 0.149676919218, -0.109727092849, -0.0930620835509, 8.9615814769e-15, -1.82770465429e-14, 5.4227455859e-15, -0.10601352428, -0.203960188461, -0.219270963651, -0.930761949117, 1.8234383703, -1.75409916439, -0.0499031319415, -0.0518730111223, -0.149676919218, -0.632651985008, 1.19234981407, 0.668920653034, 1.08041490941, -5.68056150683, 1.58608271209, 0.0579268284734, 0.161600103971, 0.085038387019, 0.316229361171, 0.632651985008, -1.19234981407, -0.985150014205 },
        { 0.4309530014, -1.02001740387e-15, -2.18228213278e-15, -0.351201920067, -0.247959121417, 3.44947832137, 2.6844886588, 0.103393084531, -0.254549965343, 0.143929811337, 5.6898930012e-16, -4.01761957036e-15, -1.54390389362e-15, -1.21677998665, 0.945250111526, 0.191778793788, -1.1220851537, 0.701931480937, 0.247959121417, -0.0601609933965, -0.0517981611998, -0.103393084531, -0.269748404421, 0.195987532322, 0.928787192034, 3.89460619415, -4.15140980231, -5.45700969926, 0.208810692091, 0.306348126543, -0.292579510031, 0.188998134918, 0.269748404421, -0.195987532322, -1.11778532695 },
        { 0.736873916834, -9.29811783124e-16, -2.65065747129e-15, 1.77751327295, 0.180795646006, -1.12170128066, 6.22937670065, 0.0474159810998, -0.194517528557, 0.333990240685, 5.27355936697e-16, 2.22044604925e-16, 3.60822483003e-16, -3.21754465366, 5.50872351023, -4.80556604635, -0.729983215471, -0.17704396497, -0.180795646006, -0.0391383089428, -0.0307017163178, -0.0474159810998, -0.0509211813057, -0.0157436753451, 0.28397991726, 3.68929592826, 1.29874524563, -9.18868941344, 0.197802909384, 0.225219244875, -0.492654841126, 0.0448220318464, 0.0509211813057, 0.0157436753451, -0.328801949107 },
        { -0.242112183715, -3.35842464949e-15, -2.01227923213e-16, -0.396701411583, 0.202156726411, 0.104101948809, 0.137487919402, 0.910263235975, -2.06647448493, 1.52099882879, -2.39391839685e-15, 1.20042864538e-15, -1.52655665886e-16, -0.00253143690262, 0.080427886385, 0.560917145816, 0.130129193893, 0.23279934955, -0.202156726411, 1.43959085543, -4.62118069312, -0.910263235975, 1.467737179, -0.817977669038, -0.639610741977, -0.0205398535345, -0.336901298359, -0.24707725976, -0.227227914318, 6.68765517805, -2.7333617699, -1.43033791779, -1.467737179, 0.817977669038, 2.06994865976 },
        { -0.347940059792, -1.38777878078e-15, 2.56739074445e-16, 0.346390058705, 0.174901641145, -0.130567659355, -0.115221071571, -0.0900751953174, 1.61565030633, -1.2746655537, -2.39391839685e-15, -2.52228793407e-15, 1.11369247158e-15, 0.665827171745, -0.00609507634509, -0.658182094313, 0.114992163305, 0.128636423378, -0.174901641145, 1.27213319154, -1.59175310228, 0.0900751953174, 0.618367548681, -0.552839774781, 0.608199983391, -0.314482090449, 0.00193123597752, 0.314710998715, -3.47904669246, -0.0238972040557, 3.48157905462, -0.599204052122, -0.618367548681, 0.552839774781, -0.00899593126854 },
        { -0.264871803916, -3.05311331772e-16, -4.7878367937e-16, -0.351201920067, 0.123642391766, -0.307820525809, 0.178200900522, -0.139787485467, 0.84354443157, 1.97139764834, -3.47985529281e-15, -2.24820162487e-15, 3.74700270811e-16, 0.944257567196, -1.19878255828, 0.870598715063, 0.0384381926574, 0.0198471310499, -0.123642391766, 0.425233331533, -0.0543886306339, 0.139787485467, 0.0593392599861, -0.239549946693, 0.844477371429, -0.145176117622, 0.287973394759, -0.0714629755574, -1.60605168681, -0.789155800936, -0.790579293058, -0.0544487831517, -0.0593392599861, 0.239549946693, -0.790028588278 },
        { 0.25107369475, -3.1918911958e-16, -1.36002320517e-15, 1.77751327295, 0.0578933212355, -0.238589734323, 0.413516568271, 0.247106172444, -1.34035148122, 4.57464349422, -3.40005801291e-15, -4.02455846427e-16, -2.38697950294e-15, -1.1994557181, 2.40122791791, -3.2303591675, -0.0208011980772, -0.0218641405876, -0.0578933212355, -0.230119111923, -0.122828558845, -0.247106172444, -0.0232919981331, -0.0458674019618, 0.258201896111, 0.128337603221, 0.260453874911, -0.521052973414, 1.41977087906, 1.46318004006, -5.76429526135, 0.0236613807906, 0.0232919981331, 0.0458674019618, -0.281863276902 },
        { -0.354977542438, -1.58900670399e-15, -9.71445146547e-17, -0.396701411583, -0.0356729062617, -0.0346045055181, 0.666545937704, -0.161830420667, -0.952532688814, 1.16653497105, -1.35308431126e-15, -2.78943534937e-15, 7.77156117238e-16, 0.186693538034, 0.178662430733, 0.386322985255, 0.684720873389, -0.0461731769957, 0.0356729062617, 1.19834327843, -1.27097497208, 0.161830420667, 3.2799232606, 0.208537478877, -2.37820987568, -0.509372532227, 0.0807776825139, -0.841894278866, -0.89146274626, 2.2235076609, -1.47341550322, -3.17327191586, -3.2799232606, -0.208537478877, 5.55148179155 },
        { -0.336177667615, 9.02056207508e-17, -4.7878367937e-16, 0.346390058705, 0.101992726717, -0.120186420066, -0.558595529905, -0.245351328164, 0.637826140627, -0.977608869016, -4.25701141005e-15, -2.50494069931e-15, -3.05311331772e-16, 0.662352475008, -0.160700545431, -0.511864320668, 0.436264187114, 0.0599943369547, -0.101992726717, 0.763514413782, -0.318388353513, 0.245351328164, 1.18349705977, -0.390290468368, 2.26141794058, -1.06493365432, 0.0601920831109, 1.18726499711, -1.86376103932, -0.319437787114, 2.07785549455, -1.12884858246, -1.18349705977, 0.390290468368, -1.13256935811 },
        { -0.118117019922, 1.80411241502e-16, -9.19403442268e-16, -0.351201920067, 0.243015108355, -0.780294492172, 0.863923804035, 0.042506108844, -0.1879406068, 1.51196980241, -4.01761957036e-15, -1.7694179455e-15, -4.57966997658e-16, 0.432132696843, -0.607117414333, 0.64430365748, 0.0458205299923, -0.019393520494, -0.243015108355, 0.0801913980784, -0.00467109539564, -0.042506108844, -0.0640944365277, -0.465721113842, 3.13994792883, -0.0933365184319, 0.799688012666, -0.816407815595, -0.163350050863, 0.192611702196, -1.42881114963, 0.0780405925181, 0.0640944365277, 0.465721113842, -3.21798852134 },
        { 0.394442721464, -3.46944695195e-16, -1.54043444667e-15, 1.77751327295, 0.206913148842, -0.938985349862, 2.0047418708, 0.255745030827, -1.28326040456, 3.50853762349, -2.06779038336e-15, -5.6898930012e-16, -1.49880108324e-15, -1.81600426818, 3.39952687307, -3.7554785993, -0.14237168906, -0.106768804514, -0.206913148842, -0.249167453856, -0.145915140524, -0.255745030827, -0.108110627539, -0.138445896348, 0.960050010032, 0.807401460563, 1.04575415438, -2.66977164231, 1.41304895304, 1.42917554509, -4.67241912267, 0.109163994795, 0.108110627539, 0.138445896348, -1.06921400483 },
        { -0.192468191904, -3.88578058619e-16, 2.57432963835e-15, -0.396701411583, 0.399877762195, -1.65993791461, 1.40509174086, -0.0410670910943, -0.0401841924136, 0.671716283023, 1.52655665886e-15, -1.04638520071e-14, 1.04777297949e-15, 0.286700988942, 0.159872744423, 0.142595870122, 0.470084531218, -0.124858651024, -0.399877762195, 0.224727983827, -0.00302260946815, 0.0410670910943, 0.291684689663, 5.76011864659, -2.88677467418, -1.14789094205, 1.78479656564, -0.727285330029, -0.54875921229, 0.0432068018817, -0.34768505456, -0.217139923401, -0.291684689663, -5.76011864659, 3.10391459758 },
        { -0.0579729019651, -5.6898930012e-16, -3.08780778724e-16, 0.346390058705, -0.205061948774, 1.25569982386, -1.17753019133, 0.0979411138875, -0.116068266154, -0.562928512254, 6.27969898304e-16, -7.5460471205e-15, 1.7694179455e-16, 0.247452663796, -0.228259804528, -0.307610016007, -0.016998570855, 0.225153425141, 0.205061948774, -0.00812631410416, -0.0208116360122, -0.0979411138875, -0.453996976885, 2.34804541424, 2.74500753921, -0.312243848703, -1.480853249, 1.50677261089, -0.149270877729, 0.136879902166, 0.720325704087, 0.492193944563, 0.453996976885, -2.34804541424, -3.23720148378 },
        { 0.225565484443, -5.27355936697e-16, -1.72778458207e-15, -0.351201920067, -0.0835461193906, 0.450426536556, 1.82116810428, 0.242028983445, -0.779334722201, 0.870625194206, -1.99493199737e-15, -2.8449465006e-15, -8.63892291036e-16, -0.627456245082, 0.424688715268, 0.328403965439, -0.464943919746, 0.0673640447406, 0.0835461193906, -0.222270469965, -0.116554276521, -0.242028983445, -0.560271240755, 0.154803033959, 3.81140548269, 1.74771862101, -0.517790581297, -3.10394280555, 0.835512032228, 0.895888998722, -1.48386675647, 0.570019012254, 0.560271240755, -0.154803033959, -4.38142449495 },
        { 0.625377600303, -7.35522753814e-16, -2.06779038336e-15, 1.77751327295, 0.253349046364, -1.33875328319, 4.22603467501, 0.207840031305, -0.94412490441, 2.02029249854, -5.96744875736e-16, -7.21644966006e-16, -5.82867087928e-16, -2.7704239423, 4.85605934762, -4.48852627856, -0.433502317613, -0.193465923707, -0.253349046364, -0.207239539597, -0.136437384708, -0.207840031305, -0.167670879694, -0.113660597093, 1.16535049461, 2.25823646362, 1.53221920689, -6.05076882102, 1.07956951095, 1.08056228912, -2.8926224699, 0.168407138726, 0.167670879694, 0.113660597093, -1.33375763333 },
        { 0.445188683797, -1.2420620088e-15, 7.64666108211e-15, -0.396701411583, 6.32404851007, -4.55659847811, 2.07117225151, 0.251335865827, 0.14037636308, 0.225448654138, 1.33296151894e-14, -2.76098588436e-14, 8.50014503229e-15, 0.0416264621376, -0.0128967227099, -0.0772170116412, -2.268277628, 4.8315102097, -6.32404851007, -0.246903722311, -0.148845643232, -0.251335865827, -1.50197918325, 5.3069148088, -1.42819068272, -0.123330082386, -0.274911731589, 0.320435458878, -0.0134245720357, 0.00846928015141, 0.0348796402084, 1.51435723338, 1.50197918325, -5.3069148088, -0.0861665506652 },
        { 0.542293065584, -1.59941504485e-15, 2.23779328401e-15, 0.346390058705, 1.75409916439, 3.85712313653, -1.73573567239, 0.233047796266, -0.185263390252, -0.188936130732, 9.06913433241e-15, -1.81105130892e-14, 3.82333054105e-15, -0.624267027992, -0.141019179827, -0.12339691647, -2.12456429903, 3.05181622267, -1.75409916439, -0.231260418585, -0.146583295328, -0.233047796266, -1.06817057255, 2.42072766644, 1.35805341046, 2.96335001675, -6.9089393592, 0.896949954664, 0.322562873527, 0.331846685581, 0.0976336757896, 1.07451312354, 1.06817057255, -2.42072766644, -2.432566534 },
        { 0.696647594003, -1.30451205393e-15, -2.10248485288e-15, -0.351201920067, -0.247959121417, 3.44947832137, 2.6844886588, 0.179690567638, -0.464714413867, 0.292208605409, 8.36136715421e-16, -5.08967867852e-15, -1.6826817717e-15, -1.94993432088, 1.56098864723, 0.0434999997156, -1.64987954112, 0.903840971932, 0.247959121417, -0.179590626402, -0.12176563769, -0.179690567638, -0.492461161734, 0.397897023318, 1.885638615, 5.37925200455, -4.35331929331, -6.41386112223, 0.585535618205, 0.586480051558, -0.698153597212, 0.494079765029, 0.492461161734, -0.397897023318, -2.37971838003 },
        { 0.866122121956, -1.16573417586e-15, -2.6645352591e-15, 1.77751327295, 0.180795646006, -1.12170128066, 6.22937670065, 0.0905566439694, -0.378989874794, 0.678072329454, 5.41233724505e-16, 2.63677968348e-16, 2.63677968348e-16, -3.72656946127, 6.23258220148, -5.14964813512, -0.832787687105, -0.193263351161, -0.180795646006, -0.0906495648075, -0.0652980027053, -0.0905566439694, -0.0992127150214, -0.0319630615359, 0.576540570826, 4.08466105346, 1.31496463182, -9.48125006701, 0.444618421497, 0.4442878775, -1.03204118614, 0.099334969764, 0.0992127150214, 0.0319630615359, -0.67587554059 },
        { 0.262326815091, -4.32293090213e-15, -1.52655665886e-16, -0.396701411583, 0.202156726411, 0.104101948809, 0.137487919402, 6.97671389736, -4.78134754402, 2.11255686318, -3.63598040565e-15, 4.57966997658e-16, 2.08166817117e-17, 0.128964660121, 0.036050824942, -0.0306408885714, -0.100156729352, -0.085334532548, -0.202156726411, -1.53894819927, 3.91937002415, -6.97671389736, 3.39600687415, -1.13611155114, -0.888372848913, -0.0390160372262, -0.0187674162611, 0.00168484717614, -0.599497014537, 0.861977519866, 0.0258883506338, 0.728217700605, -3.39600687415, 1.13611155114, 0.160155148307 },
        { 0.38289774906, -1.14491749414e-15, 2.671474153e-16, 0.346390058705, 0.174901641145, -0.130567659355, -0.115221071571, 2.00292864634, 4.06132978887, -1.77041784173, -3.61863317089e-15, -2.60555466092e-15, 6.31439345256e-16, -0.395619949494, -0.17123805198, -0.162429806291, -0.107010502091, -0.086378081769, -0.174901641145, -1.64425915825, 2.68680528031, -2.00292864634, 1.55441715084, -0.767854279928, 0.844745587424, 0.14406617898, 0.216945741124, 0.0781653946822, 2.21363445226, -6.74813506919, 1.20104254772, 0.558848215437, -1.55441715084, 0.767854279928, -1.40359380286 },
        { 0.582912531849, -7.6327832943e-17, -3.81639164715e-16, -0.351201920067, 0.123642391766, -0.307820525809, 0.178200900522, -0.239523825164, 3.69493051796, 2.73812809926, -3.43128303548e-15, -2.44942954808e-15, -5.89805981832e-16, -1.63950531827, 1.30392644234, 0.103868264142, -0.0948090485613, -0.0733203934223, -0.123642391766, -1.45677894539, 0.880102970824, 0.239523825164, 0.259920443346, -0.332717471165, 1.17291771239, 0.316511464557, 0.381140919231, -0.399903316517, 4.86332522619, -4.57503348879, -6.14467438007, 0.279379641427, -0.259920443346, 0.332717471165, -1.45229735382 },
        { 0.812452135617, -3.46944695195e-16, -1.38777878078e-15, 1.77751327295, 0.0578933212355, -0.238589734323, 0.413516568271, 0.173807930029, -1.09014043663, 6.35384743721, -4.01068067646e-15, -8.74300631892e-16, -3.28903571045e-15, -3.51633198805, 5.93592968998, -5.00956311049, -0.0524695959338, -0.0397032273991, -0.0578933212355, -0.806216324173, -0.181408029877, -0.173807930029, -0.0189439481887, -0.0637064887734, 0.358623673727, 0.260427778693, 0.278292961722, -0.62147475103, 4.00157696498, 1.27154846651, -9.54920807801, 0.0596778285917, 0.0189439481887, 0.0637064887734, -0.418301502319 },
        { 0.404206071679, -2.93515212135e-15, 6.66133814775e-16, -0.396701411583, -0.0356729062617, -0.0346045055181, 0.666545937704, 1.49613339777, -2.44717872422, 1.62023231878, 2.08860706508e-15, -7.06379399418e-15, 2.40779618466e-15, 0.0618697120202, -0.00200000964366, -0.0673743624725, -0.676423762559, 0.0349327507444, 0.0356729062617, -1.6442432236, 2.47039173426, -1.49613339777, 8.42654379706, 0.289643406617, -3.30316072561, -0.0731787462011, -0.000328245226283, 0.0830565710562, -0.17788206774, -0.023213010042, 0.201892972562, 3.33449325655, -8.42654379706, -0.289643406617, -0.0313325309406 },
        { 0.507063488469, 2.39391839685e-16, 1.38777878078e-17, 0.346390058705, 0.101992726717, -0.120186420066, -0.558595529905, 0.0710197363376, 1.95486663571, -1.35782768971, -3.20576898361e-15, -4.62477278695e-15, -4.85722573274e-17, -0.573877125233, -0.147930921965, -0.131645499977, -0.647897638254, -0.0918002982141, -0.101992726717, -1.57490224361, 1.49315821229, -0.0710197363376, 3.62728770154, -0.542085103537, 3.1409452134, 0.898755443876, 0.21198671828, 0.307737724283, 2.18468455732, -3.44802484801, 0.748045375998, 2.39910388467, -3.62728770154, 0.542085103537, -5.54004909807 },
        { 0.671962873296, 3.74700270811e-16, -6.97358837343e-16, -0.351201920067, 0.243015108355, -0.780294492172, 0.863923804035, -0.182002935181, 1.22321782683, 2.10001620155, -4.16333634234e-15, -2.79290479632e-15, -1.16573417586e-15, -1.88295343805, 1.50593522649, 0.0562572583389, -0.515643003288, -0.200525196247, -0.243015108355, -1.25341917431, 0.31435053975, 0.182002935181, 0.417160818496, -0.646852789595, 4.36115953642, 1.68933862244, 0.980819688419, -2.03761942319, 4.10642519684, -1.53756836658, -4.95302222408, 1.12075938082, -0.417160818496, 0.646852789595, -5.48191891724 },
        { 0.854659261789, -6.52256026967e-16, -1.60982338571e-15, 1.77751327295, 0.206913148842, -0.938985349862, 2.0047418708, 0.239374195003, -1.32853973709, 4.87310384197, -3.16413562018e-15, -1.02695629778e-15, -2.3037127761e-15, -3.68179693701, 6.16966922006, -5.12004481779, -0.265108269545, -0.160614199239, -0.206913148842, -0.64442218007, -0.22724779046, -0.239374195003, -0.111925267995, -0.192291291073, 1.33343971034, 1.30352774136, 1.0995995491, -3.04316134261, 3.16860047522, 1.55578752755, -7.39728213712, 0.228085934824, 0.111925267995, 0.192291291073, -1.56152564516 },
        { 0.631960136632, -1.34614541736e-15, 2.77555756156e-15, -0.396701411583, 0.399877762195, -1.65993791461, 1.40509174086, -0.245178772672, -0.428558151069, 0.932965112759, 5.78009862195e-15, -1.68615121865e-14, 1.72084568817e-15, -0.0545862383823, -0.0620195270517, -0.118652959614, -2.03766259076, 2.1154089941, -0.399877762195, -1.35298504252, 0.546150406763, 0.245178772672, 3.11077176843, 8.00038629172, -4.00952028032, 0.237110573779, -0.455471079491, 0.395460276117, 0.157438754188, -0.117592255694, 0.26258117557, 5.10969427734, -3.11077176843, -8.00038629172, -1.10017399702 },
        { 0.699938941386, -1.00613961607e-15, 1.73472347598e-17, 0.346390058705, -0.205061948774, 1.25569982386, -1.17753019133, -0.116209006895, 0.193229626637, -0.781866803269, 1.42594269725e-15, -1.05679354157e-14, 2.87964097012e-16, -0.848825245514, -0.108832029584, -0.0886717249931, -1.77137785639, 1.1383724912, 0.205061948774, -1.17617497382, 0.175175059571, 0.116209006895, 0.755810948547, 3.26126448029, 3.81261603012, 2.50974392774, -2.39407231505, 0.439164119977, 1.66644174074, -0.368404686208, 0.291600036352, 3.45638115553, -0.755810948547, -3.26126448029, -7.26899718565 },
        { 0.804449259427, -9.67975699595e-16, -1.516148318e-15, -0.351201920067, -0.0835461193906, 0.450426536556, 1.82116810428, 0.157022569763, -0.590304184654, 1.20923513842, -1.93942084614e-15, -4.01068067646e-15, -1.3287981826e-15, -2.24008613638, 1.7970447758, -0.0102059787799, -1.2583453858, 0.127571177549, 0.0835461193906, -0.835527183462, -0.16718775169, -0.157022569763, -0.424375365985, 0.215010166767, 5.29376529318, 4.02347989755, -0.577997714105, -4.58630261603, 2.67154539959, 0.757491936344, -3.04525335455, 1.49931635307, 0.424375365985, -0.215010166767, -6.79308164625 },
        { 0.915095482842, -9.02056207508e-16, -1.98452365652e-15, 1.77751327295, 0.253349046364, -1.33875328319, 4.22603467501, 0.242772631084, -1.16084886923, 2.80603949367, -1.2351231149e-15, -1.05471187339e-15, -8.46545056277e-16, -3.91708282124, 6.49874733915, -5.2742732737, -0.590935171541, -0.237671637828, -0.253349046364, -0.39237430761, -0.206087899455, -0.242772631084, -0.206159746646, -0.157866311214, 1.61858716706, 2.86890599, 1.57642492101, -6.50400549347, 1.90492131055, 1.36693676868, -4.31858649662, 0.287351125703, 0.206159746646, 0.157866311214, -1.90593829276 },
        { 0.868638985211, -1.22124532709e-15, 7.23726634178e-15, -0.396701411583, 6.32404851007, -4.55659847811, 2.07117225151, 0.250809322516, 0.152983559276, 0.313131800353, 1.24622534514e-14, -2.8019253584e-14, 7.86870568703e-15, -0.183989831391, -0.123047584381, -0.164900157856, -3.89068141543, 6.89551449, -6.32404851007, -0.588215719541, -0.231510490728, -0.250809322516, -1.63687188049, 7.3709190891, -1.98365309137, 0.943611296389, -2.33891601189, 0.875897867532, 0.142660613503, 0.0785269314522, 0.132423305684, 3.00186832357, 1.63687188049, -7.3709190891, -1.0182152322 },
        { 0.894239071655, -1.99146255042e-15, 2.17881268583e-15, 0.346390058705, 1.75409916439, 3.85712313653, -1.73573567239, 0.255773608794, -0.217390424507, -0.262418558203, 1.0325074129e-14, -1.99111560573e-14, 4.0002723356e-15, -1.12370401764, -0.0670106237266, -0.0499144889989, -3.18811892297, 3.99330340402, -1.75409916439, -0.481998258408, -0.225065649049, -0.255773608794, -1.2534049706, 3.36221484779, 1.88623751611, 4.55508874635, -7.85042654055, 0.36876584901, 0.688664662667, 0.442456073556, 0.0557521539433, 1.95283334943, 1.2534049706, -3.36221484779, -3.83907086555 },
        { 0.932314949395, -1.66533453694e-15, -1.96370697481e-15, -0.351201920067, -0.247959121417, 3.44947832137, 2.6844886588, 0.219317728896, -0.590016512173, 0.405856522143, 1.19348975147e-15, -5.76622083415e-15, -2.28636554134e-15, -2.57966297057, 2.06869785826, -0.0701479170186, -2.09232037221, 1.05859400431, 0.247959121417, -0.316329095558, -0.181067362668, -0.219317728896, -0.625244684383, 0.552650055699, 2.61901503288, 6.55506925351, -4.50807232569, -7.14723754011, 0.991033283348, 0.771083874841, -1.08056070993, 0.803737073468, 0.625244684383, -0.552650055699, -3.42275210635 },
        { 0.971133168652, -1.37390099297e-15, -2.65065747129e-15, 1.77751327295, 0.180795646006, -1.12170128066, 6.22937670065, 0.119844479565, -0.509439025085, 0.941793199446, 2.77555756156e-16, -5.55111512313e-17, -2.77555756156e-17, -4.13359857554, 6.79832113905, -5.41336900511, -0.914445613288, -0.205694659783, -0.180795646006, -0.138251176842, -0.0934196017714, -0.119844479565, -0.133361950221, -0.0443943701584, 0.800772963624, 4.39055137244, 1.32739594044, -9.7054824598, 0.663788950819, 0.602858626856, -1.46733097342, 0.146843660747, 0.133361950221, 0.0443943701584, -0.947616624372 } } };
static const double FE1_C0_D010_Q64[1][64][35] =
    { { { -2.61665455821, -2.53638256231e-15, -0.337956235104, 1.06527911927e-16, 0.108340828634, 0.0883969431835, 0.188263646325, -4.6143644461e-16, -4.33680868994e-16, -6.24500451352e-16, 0.218367276513, 0.105762301138, 0.139147830671, -1.99429993054, 0.887996330144, -0.188263646325, 4.74252247825, -3.45069951902, 1.66278783408, -2.56138440643, 1.06244098377, -0.218367276513, -0.0725889973161, -0.0546542982292, -0.0779222420962, 2.55246902762, -0.666509925711, -0.976393273328, -0.549032743738, 0.0725889973161, 0.0779222420962, 3.27827036702, -1.16820328491, -0.856033791259, 0.603687041968 },
        { -0.0971243045951, -2.80418049892e-15, -0.449540396859, 1.68813935524e-16, 0.66632754499, 0.0283809878733, 0.0303348329193, 3.88925003314e-15, -1.36002320517e-15, 3.1918911958e-16, 0.191622862578, 0.104106290443, 0.139203719782, -4.70183916807, 0.189067653394, -0.0303348329193, 1.14613455745, -2.29026183548, 1.69079197948, -0.982269916552, 0.693532308513, -0.191622862578, -0.304705118455, -0.248207903789, -0.0173537509231, 7.08790903931, -3.05239741623, -0.217448641267, -1.65350431538, 0.304705118455, 0.0173537509231, 1.48074818634, -0.797638598956, -0.637681989567, 1.90171221917 },
        { 0.157576792955, -2.46330733589e-16, -0.63112638891, -1.48616315058e-16, 1.89531730715, -1.72179988344, 0.100429811621, 4.30211422042e-16, 6.93889390391e-16, 7.49400541622e-16, 0.137985777757, 0.0861011863854, 0.115898726667, -0.619333549055, -5.28014630427, -0.100429811621, -0.272558266045, -0.683595557111, 1.42970341911, -0.0378722704885, 0.264041637741, -0.137985777757, -0.456967333618, -0.407710121462, 0.558798755469, 3.78243158221, -5.0584153403, 7.00194618771, -1.25030156626, 0.456967333618, -0.558798755469, 0.231295837606, -0.350142824126, -0.309322293785, 1.65801168772 },
        { -0.332272064837, 6.10622663544e-16, -0.835475545868, 1.02327777844e-16, 3.66460410302, -6.30243350483, 5.4836383758, 2.6645352591e-15, -3.5527136788e-15, 5.10702591328e-15, 0.0656658884112, 0.0458827667357, 0.0615408996728, 1.61056772993, -3.00968549285, -5.4836383758, 0.197399746922, 0.203432307017, 0.766915556766, 0.027046792586, 0.0219110122003, -0.0656658884112, -0.322173434508, -0.3086260617, 0.743164881188, -1.42182233628, -3.85334949667, 9.31211899768, -0.147382337299, 0.322173434508, -0.743164881188, -0.0238771292314, -0.067793778936, -0.0647105630274, 0.456008398999 },
        { 0.0875743252959, -1.35546955604e-15, 0.312668579906, 2.42240780896e-17, -0.128217417911, -0.173147693979, 0.188263646325, -1.50573997715e-15, -5.23886489745e-16, -1.96023752785e-16, 0.1864138825, -0.171171345641, -0.126299082891, -0.816407479189, 0.644611219481, -0.188263646325, -2.93793538865, 4.19475734029, -1.65706485685, -0.804192734242, 0.637253476026, -0.1864138825, -0.0599779345644, 0.082105579416, -0.0597627155966, -0.133865220054, 1.07849011715, -0.471463525502, -0.305670704919, 0.0599779345644, 0.0597627155966, -0.131862384997, -0.466082130385, 1.06235420213, 0.223565125503 },
        { 0.347307955877, -1.60201713006e-15, 0.358442270125, -3.51685508558e-17, -0.589309695252, -0.0298665723417, 0.0303348329193, 2.94902990916e-16, -1.47104550763e-15, 4.99600361081e-16, 0.159508103766, -0.0889006886871, -0.0944225104882, -1.46628619271, 0.134864328705, -0.0303348329193, -1.22434772362, 1.88609861547, -1.36750111785, -0.23493661232, 0.401436481027, -0.159508103766, -0.247257815454, 0.200328327521, -0.013309515397, -0.881760153559, 2.93735604152, -0.104997756363, -0.904594779162, 0.247257815454, 0.013309515397, -0.14128056609, -0.31253579234, 0.470639688899, 0.70426645164 },
        { -0.161328789786, -5.58580959265e-16, 0.204881260678, -1.87355838999e-16, -0.483666898077, 0.153798325928, 0.100429811621, 4.99600361081e-16, -9.43689570931e-16, 8.60422844084e-16, 0.11112036818, -0.00609759402875, -0.0226836002358, 1.00650376583, -3.53477433756, -0.100429811621, 0.0782665809276, 0.425215577846, -0.547034629665, 0.047204241495, 0.140142090387, -0.11112036818, -0.362297712446, 0.0279311817242, 0.428572512808, -1.9262705667, 1.40343369895, 3.38097601163, -0.641947327974, 0.362297712446, -0.428572512808, -0.0903405869926, -0.134044496359, 0.0658199457334, 0.614016146249 },
        { -0.219620965509, 3.60822483003e-16, -0.316700773842, 2.34544502074e-16, 1.691258973, -3.80801363223, 5.4836383758, 3.5527136788e-15, -4.4408920985e-15, 5.3290705182e-15, 0.0513521406623, 0.0215420851704, 0.021782903846, 0.830265560701, -0.688457792219, -5.4836383758, 0.298335211957, 0.152951840302, 0.0850346870916, 0.0106935692074, 0.0038946332205, -0.0513521406623, -0.250344264118, -0.143018329933, 0.569972709217, -1.71865201593, -0.802872517771, 4.49647142445, -0.0258565470562, 0.250344264118, -0.569972709217, -0.0221357179506, -0.0254367183909, -0.0103407551028, 0.168874876989 },
        { -0.0209772079822, -2.59341159659e-16, -0.350933368614, -4.08048217524e-17, 0.449254419665, -0.538254520513, 0.188263646325, -9.29811783124e-16, -1.42594269725e-15, -2.74086309204e-16, 0.123390082929, -0.337105568677, 0.25482007658, 0.0418596436277, 0.304854433244, -0.188263646325, 0.234075036229, -2.87754163479, 3.01537717515, 0.0237430665742, 0.190928497887, -0.123390082929, -0.0379975323948, 0.146971036681, -0.0344126752992, -1.4085116082, 0.917397544908, 0.233400087269, -0.0832408653956, 0.0379975323948, 0.0344126752992, -0.798917094981, 0.14617707079, 0.520353951827, -0.0637301712852 },
        { -0.244720001995, -4.08527378593e-16, -0.216923199944, -1.6284016458e-16, 0.517264163089, -0.111178053602, 0.0303348329193, -7.52869988574e-16, -1.03389519168e-15, 5.13478148889e-16, 0.102354027565, -0.205149871732, 0.0477235191445, 0.574312506193, 0.0591984535429, -0.0303348329193, 0.953331178548, -1.33636979589, 0.844681819286, 0.0529868795096, 0.109235184082, -0.102354027565, -0.153278933199, 0.429402097731, -0.00766390929823, -4.20928411113, 3.11770744185, 0.0519796000595, -0.228641708594, 0.153278933199, 0.00766390929823, -0.388354471848, 0.0959146876508, 0.287644073194, -0.200760389137 },
        { -0.343330389268, -4.12864187282e-16, 0.276022045415, -1.04483820687e-16, -1.31167064876, 2.7720653931, 0.100429811621, 5.82867087928e-16, -2.19269047363e-15, 8.60422844084e-16, 0.0683473488315, -0.0661681199411, -0.0354224448751, 1.1173069789, -1.09829838148, -0.100429811621, 0.766075457976, -0.307559904121, -0.391207210002, 0.0301735385374, 0.0262159540744, -0.0683473488315, -0.218124283639, 0.289887364895, 0.246781401719, -3.09684445049, 3.29120812035, -1.67376701162, -0.114854009024, 0.218124283639, -0.246781401719, -0.0836321236114, 0.0399521658668, 0.0888810299492, -0.175033355871 },
        { 0.119021627701, 8.32667268469e-17, 0.138208304689, 4.56780333329e-16, -0.377808999793, -0.32589396956, 5.4836383758, 4.21884749358e-15, -4.88498130835e-15, 4.4408920985e-15, 0.0303732203364, 0.00108083458799, -0.00280198672227, -0.852751660912, 2.55189188054, -5.4836383758, 0.115115490963, -0.0814424325894, -0.290902990763, -0.00632435657324, -0.00846340609806, -0.0303732203364, -0.146767978004, -0.00704786611528, 0.328202719303, -0.263183207368, 1.49374386807, -2.22599791098, 0.0551878647493, 0.146767978004, -0.328202719303, -0.00195187476469, 0.00738257151007, 0.0110782180602, -0.048139998634 },
        { -0.160775122871, -2.48542506021e-15, 2.24400210538, -4.96202779787e-17, 1.87719259162, -0.86753747144, 0.188263646325, 1.73472347598e-17, -2.671474153e-16, -2.77555756156e-16, 0.0465489992587, -0.197339547588, 0.357364893238, 0.0303812937689, -0.00156579513539, -0.188263646325, 0.76353828323, -1.31234021252, -1.53442505322, 0.00578374741761, -0.000356172861466, -0.0465489992587, -0.0138007611324, 0.0795049346306, -0.0115499527518, -0.0842704290369, -1.82330345635, 0.869103266576, 0.000143496326057, 0.0138007611324, 0.0115499527518, -0.0160427294516, 0.197695720449, -0.347105911204, -0.0796484309567 },
        { -0.0231092835261, -4.92661467177e-16, 0.00319288667626, -1.21003115914e-16, 4.37286031043, -0.184511342788, 0.0303348329193, 3.64291929955e-16, 7.21644966006e-16, 3.67761376907e-16, 0.037675444756, -0.121601693122, 0.135408973378, -0.0598673982107, -0.00904317013276, -0.0303348329193, 0.0914307809021, -0.132249321813, 0.0607349377612, -0.00185383990227, -0.00595987641042, -0.037675444756, -0.0547452997885, 0.239182794431, -0.00257224378862, 0.582621768789, -4.89561468101, 0.19355451292, 0.0117226977496, 0.0547452997885, 0.00257224378862, 0.0180413299257, 0.127561569532, -0.151596463402, -0.25090549218 },
        { 0.257570292859, -1.63064006742e-16, -0.132026023671, 1.07121673691e-16, 0.432971142057, 5.13343100868, 0.100429811621, -2.63677968348e-16, -1.49880108324e-15, 4.99600361081e-16, 0.0242960786154, -0.0427421685927, 0.00392441073251, -0.940209564617, 1.09911326458, -0.100429811621, -0.536154837699, 0.110054087773, 0.300556480739, -0.00852197328592, -0.00915147868506, -0.0242960786154, -0.0760864843204, 0.180175325775, 0.0828274321913, 2.64172503779, -2.13448661523, -6.23254427326, 0.0385771407417, 0.0760864843204, -0.0828274321913, 0.0239443535229, 0.0518936472778, -0.0193467909694, -0.218752466517 },
        { 0.643627477463, 1.11022302463e-16, 0.326425626979, 6.94853003685e-16, -1.55864364979, 2.81456398596, 5.4836383758, 3.77475828373e-15, -3.99680288865e-15, 4.66293670343e-15, 0.0104401582458, -0.00318329697115, -0.00387973782842, -2.9640030771, 5.47430204856, -5.4836383758, -0.534208193621, -0.203050639149, -0.232794271672, -0.00737792430188, -0.0061914844421, -0.0104401582458, -0.0500511926821, 0.0204293344528, 0.110154931809, 2.91813195089, 1.604514776, -8.28886603452, 0.0397348747457, 0.0500511926821, -0.110154931809, 0.00726374301125, 0.00937478141326, 0.00399391911904, -0.0601642091985 },
        { 0.260529637804, -1.66988818606e-15, -0.337956235104, 5.87360469029e-17, 0.108340828634, 0.0883969431835, 0.188263646325, -5.65519853168e-16, -9.78384040451e-16, -4.7878367937e-16, -0.118688289052, -0.123384593448, 0.661369484287, -0.635906402027, 0.595554242297, -0.188263646325, 0.19786456163, -1.26100414479, 1.14056618046, -3.8819076286, -0.831275555643, 0.118688289052, 0.0846838980079, -0.259771818644, -0.370364329943, 0.988957978689, -0.461392405296, -0.683951185481, -1.75015337693, -0.0846838980079, 0.370364329943, 6.03712041521, 0.954660149091, -2.81658227089, 2.00992519557 },
        { 0.302516099307, -4.98732999343e-16, -0.449540396859, 7.03896702312e-17, 0.66632754499, 0.0283809878733, 0.0303348329193, 9.88792381307e-16, -2.25514051877e-15, 4.09394740331e-16, 0.0347833019775, 0.0323350839678, 0.661635125169, -0.993419927902, 0.123939045497, -0.0303348329193, -0.271101447298, -0.750234829247, 1.1683605741, -0.986424054182, 0.141206481639, -0.0347833019775, -0.0946404443832, -1.17973189041, -0.0824823588198, 2.44796581251, -2.1208734296, -0.15232003337, -5.15185888148, 0.0946404443832, 0.0824823588198, 2.43072671834, -0.173541565607, -2.10593778932, 6.33159077189 },
        { -0.218437937624, 5.27355936697e-16, -0.63112638891, -1.03275378483e-16, 1.89531730715, -1.72179988344, 0.100429811621, -6.93889390391e-17, -1.11022302463e-15, 7.21644966006e-16, 0.223613849823, 0.186874892226, 0.550866518836, 1.1778902719, -3.18297519703, -0.100429811621, -0.0769603600664, -0.0682109403426, 0.994735626943, 0.342349173516, 0.345462996381, -0.223613849823, -0.991806556977, -1.93784575346, 2.65596986271, 0.45507212926, -3.5282797083, 4.90477508048, -3.58236461057, 0.991806556977, -2.65596986271, 0.132264924042, -0.532337888607, -1.02548061639, 5.52021036403 },
        { -0.184678583594, 5.55111512313e-16, -0.835475545868, 2.49503349294e-16, 3.66460410302, -6.30243350483, 5.4836383758, 3.10862446895e-15, -5.3290705182e-15, 5.3290705182e-15, 0.220601860279, 0.171854823099, 0.29250382764, 0.629994022019, -0.220588521013, -5.4836383758, 0.256334411241, 0.227867089421, 0.535952628799, 0.0502852852996, 0.00601501011117, -0.220601860279, -1.20670706093, -1.46689932771, 3.53226185302, -1.59952189438, -2.69507623067, 6.52302202584, -0.0513422558011, 1.20670706093, -3.53226185302, -0.127671711144, -0.177869833211, -0.215117401795, 1.51824158351 },
        { 0.259550726523, -5.1304446802e-16, 0.312668579906, -3.08679058435e-17, -0.128217417911, -0.173147693979, 0.188263646325, 2.79290479632e-16, -1.18308141062e-15, -1.2490009027e-16, 0.0606216909073, -0.0922339306404, -0.600299400389, -0.147079344555, 0.420321814373, -0.188263646325, -0.960647123654, 1.57149235658, -1.18306453935, -0.688608800466, 0.22390094943, -0.0606216909073, -0.0323184972102, 0.390247727567, -0.284052120705, -0.495051206536, 0.770347969002, -0.247174120394, -0.947339402198, 0.0323184972102, 0.284052120705, -2.31777356999, -0.13166701879, 3.60668177085, 0.557091674631 },
        { -0.020309394039, -3.76434994287e-16, 0.358442270125, -1.68737607921e-16, -0.589309695252, -0.0298665723417, 0.0303348329193, 1.66533453694e-16, -2.08860706508e-15, 6.73072708679e-16, 0.168524913554, -0.136265226174, -0.448790087242, 0.20447449257, 0.0849137322354, -0.0303348329193, -0.0647115558027, 0.739712220812, -1.0131335411, 0.155717997003, 0.387416031408, -0.168524913554, -0.378991913829, 0.95216031771, -0.0632601118664, -1.80068884865, 2.18552405133, -0.0550471598938, -2.70708956282, 0.378991913829, 0.0632601118664, -1.37131853081, -0.251150805233, 1.66439062105, 1.75492924511 },
        { -0.350400156294, 1.49186218934e-16, 0.204881260678, -2.03220588167e-16, -0.483666898077, 0.153798325928, 0.100429811621, 1.38777878078e-16, -1.72084568817e-15, 7.21644966006e-16, 0.254937392994, -0.0172984082228, -0.10781512667, 1.36183875759, -1.92634217406, -0.100429811621, 0.39466089106, 0.212761107787, -0.461903103231, 0.30357011972, 0.216664603484, -0.254937392994, -1.02781091994, 0.132756875643, 2.03700467631, -2.17677986454, 1.29860800503, 1.77254384813, -1.66279552722, 1.02781091994, -2.03700467631, -0.485230223036, -0.199366195261, 0.289475229986, 1.53003865158 },
        { -0.0223844325018, 3.33066907388e-16, -0.316700773842, 3.33493837183e-16, 1.691258973, -3.80801363223, 5.4836383758, 3.5527136788e-15, -3.99680288865e-15, 4.88498130835e-15, 0.188817160484, 0.0859604165778, 0.103534117732, -0.203161865394, 1.450649151, -5.4836383758, 0.241317562368, 0.0944841707707, 0.00328347320542, -0.0124369980152, -0.0327463127423, -0.188817160484, -0.998960734823, -0.679765962969, 2.70907965244, -1.22197222287, -0.266124884735, 2.35736448123, 0.258954408333, 0.998960734823, -2.70907965244, -0.0748057027386, -0.0532141038354, -0.0162914169784, 0.420811554636 },
        { -0.309054780063, -2.78423117894e-16, -0.350933368614, -8.7348824645e-17, 0.449254419665, -0.538254520513, 0.188263646325, -8.13585310233e-16, -1.30451205393e-15, -2.20309881449e-16, 0.245642220945, -0.858748318755, 1.21115954033, 0.127851137302, 0.175703701153, -0.188263646325, 1.42270897612, -2.82175853885, 2.0590377114, 0.344678021869, 0.280323252688, -0.245642220945, -0.0967955444609, 0.698553173741, -0.16356340739, -0.942920964815, 0.365815407848, 0.36255081936, -0.228030371136, 0.0967955444609, 0.16356340739, -2.54205116817, 0.578425066067, 0.986213605969, -0.470522802604 },
        { -0.358579623297, -4.81385764584e-16, -0.216923199944, -2.86440183994e-16, 0.517264163089, -0.111178053602, 0.0303348329193, -3.46944695195e-18, -1.16573417586e-15, 5.27355936697e-16, 0.256580410431, -0.621730944953, 0.22682983337, 0.593144251553, 0.0304358104779, -0.0303348329193, 1.2025515933, -1.29262427512, 0.665575505061, 0.26010464545, 0.170203422309, -0.256580410431, -0.464529932066, 2.04094769252, -0.0364265523633, -2.6165702617, 1.50616184706, 0.0807422431245, -0.558724452822, 0.464529932066, 0.0364265523633, -1.14741410446, 0.451527522644, 0.660479625644, -1.4822232397 },
        { -0.209120412752, -4.40619762898e-16, 0.276022045415, -1.54324154839e-16, -1.31167064876, 2.7720653931, 0.100429811621, 7.77156117238e-16, -1.74860126378e-15, 5.82867087928e-16, 0.225482960006, -0.244673893189, -0.16836284106, 0.499560744524, -0.172128055534, -0.100429811621, 0.514343504016, -0.322978322862, -0.258266813817, 0.0641223971199, 0.0151927301496, -0.225482960006, -0.806571468622, 1.37783432265, 1.17295172766, -1.39115125836, 2.2032611626, -2.59993733757, -0.0855549596327, 0.806571468622, -1.17295172766, -0.178564777998, 0.229481163039, 0.282805221939, -1.29227936302 },
        { 0.312478109058, 0.0, 0.138208304689, 5.02562271124e-16, -0.377808999793, -0.32589396956, 5.4836383758, 4.4408920985e-15, -4.88498130835e-15, 4.66293670343e-15, 0.125378211828, 0.00467101063595, -0.0133178397719, -1.67399695237, 3.78363632074, -5.4836383758, -0.0427577374324, -0.127541538601, -0.280387137713, -0.0590087139336, -0.0542305386031, -0.125378211828, -0.634282797656, -0.0334984998004, 1.5599471595, 0.531611450406, 1.52019450176, -3.45774235118, 0.388918336557, 0.634282797656, -1.5599471595, 0.018739405682, 0.0495595279672, 0.0535871480235, -0.355419836756 },
        { 0.0441090754129, -2.96941291e-15, 2.24400210538, -6.97281308285e-17, 1.87719259162, -0.86753747144, 0.188263646325, -6.86950496487e-16, -5.41233724505e-16, -2.89698820488e-16, 0.176031214445, -0.802961015003, 1.69855493975, -0.0313921455951, -0.0449127549558, -0.188263646325, -0.278452704337, 0.865956623279, -2.87561509974, -0.0284048020475, -0.0415696064932, -0.176031214445, -0.0561543456552, 0.377886865797, -0.0548969125722, 0.275884941494, -2.12168538752, 0.912450226396, 0.0195633511673, 0.0561543456552, 0.0548969125722, 0.249631141881, 0.844530621497, -1.91978127959, -0.397450216965 },
        { 0.182854617687, -9.315465066e-16, 0.00319288667626, -1.76619512085e-16, 4.37286031043, -0.184511342788, 0.0303348329193, 7.18175519054e-16, 8.95117313604e-16, 2.91433543964e-16, 0.149676919218, -0.511914330467, 0.643598699734, -0.339061320546, -0.0186967982081, -0.0303348329193, -0.697714152852, 0.959121437083, -0.447454788595, -0.0499031319415, -0.0518730111223, -0.149676919218, -0.230464747389, 1.13683555568, -0.012225871864, 1.75946845237, -5.79326744226, 0.203208140996, 0.115197172484, 0.230464747389, 0.012225871864, 0.258959017161, 0.563787341589, -0.852654584953, -1.25203272816 },
        { 0.4309530014, -2.91433543964e-16, -0.132026023671, 7.80723391021e-17, 0.432971142057, 5.13343100868, 0.100429811621, -2.35922392733e-16, -5.55111512313e-16, 3.33066907388e-16, 0.103393084531, -0.188587926935, 0.0186527198431, -1.39647055428, 1.40996452539, -0.100429811621, -0.942394586057, 0.357639436701, 0.285828171628, -0.0601609933965, -0.0517981611998, -0.103393084531, -0.335710442829, 0.856373122845, 0.393678693005, 3.77418382452, -2.8106844123, -6.54339553408, 0.2352141719, 0.335710442829, -0.393678693005, 0.162594655109, 0.240386088135, -0.121086381556, -1.09158729474 },
        { 0.736873916834, -1.11022302463e-16, 0.326425626979, 7.06830039856e-16, -1.55864364979, 2.81456398596, 5.4836383758, 3.5527136788e-15, -3.99680288865e-15, 5.10702591328e-15, 0.0474159810998, -0.0146766561829, -0.0184403895797, -3.30810129763, 5.88771338502, -5.4836383758, -0.639426571502, -0.20563935239, -0.21823361992, -0.0391383089428, -0.0307017163178, -0.0474159810998, -0.23076205368, 0.097100603913, 0.523566268267, 3.33890144089, 1.52784350654, -8.70227737098, 0.20312223428, 0.23076205368, -0.523566268267, 0.0395027069506, 0.0453783725006, 0.0180759915719, -0.300222838193 },
        { -0.242112183715, -2.53573204101e-15, -0.337956235104, 8.15366421784e-17, 0.108340828634, 0.0883969431835, 0.188263646325, -9.36750677027e-16, -1.60982338571e-15, -3.1918911958e-16, 0.910263235975, -1.90887936856, 1.34272290687, 0.116156852149, 0.213998984901, -0.188263646325, 0.0114409048412, 0.109414756102, 0.459212757876, 1.43959085543, -4.62118069312, -0.910263235975, 1.31014206263, -0.527392901761, -0.751919587339, -0.0307263586031, -0.19377132218, -0.302395928085, -1.27675846649, -1.31014206263, 0.751919587339, -0.38080736562, 6.53006006168, -2.40150639668, 1.80415136825 },
        { -0.347940059792, -5.03937169771e-16, -0.449540396859, 2.10227562273e-16, 0.66632754499, 0.0283809878733, 0.0303348329193, -3.57353036051e-15, -1.29063426613e-15, 6.10622663544e-16, -0.0900751953174, -1.15940513699, 1.34326221524, 0.631043869768, 0.0389643999771, -0.0303348329193, 0.149775465282, 0.160971507346, 0.486733484024, 1.27213319154, -1.59175310228, 0.0900751953174, 3.393422992, -2.395110556, -0.16745700434, -0.391876650739, -0.905494764019, -0.0673453878504, -3.28825924276, -3.393422992, 0.16745700434, -0.789991501823, 2.75115823927, -1.82540390496, 5.68336979876 },
        { -0.264871803916, 9.29811783124e-16, -0.63112638891, 1.89759743464e-16, 1.89531730715, -1.72179988344, 0.100429811621, -2.05391259556e-15, -1.88737914186e-15, 4.71844785466e-16, -0.139787485467, -0.209615672908, 1.11837801871, 0.720643717373, -0.44675255713, -0.100429811621, 0.26205204248, 0.206722023276, 0.42722412707, 0.425233331533, -0.0543886306339, 0.139787485467, 1.11249936446, -3.93424544824, 5.39219250261, -1.08408101099, -1.53188001352, 2.16855244057, -1.0208121346, -1.11249936446, -5.39219250261, -0.639688335364, 0.264004303542, -0.903923014878, 4.95505758284 },
        { 0.25107369475, 5.55111512313e-16, -0.835475545868, 5.05850566132e-16, 3.66460410302, -6.30243350483, 5.4836383758, 2.6645352591e-15, -5.3290705182e-15, 5.10702591328e-15, 0.247106172444, 0.226456203455, 0.593845950035, -1.42005757838, 3.41840414528, -5.4836383758, 0.199800662202, 0.149990682512, 0.234610506404, -0.230119111923, -0.122828558845, -0.247106172444, -1.59009968281, -2.97812248098, 7.17125451932, -1.06069344725, -1.18385307739, 2.88402935955, 1.61531672272, 1.59009968281, -7.17125451932, -0.17188446287, -0.10362764461, -0.191842375241, 1.36280575827 },
        { -0.354977542438, -1.51831672235e-15, 0.312668579906, -5.26575466142e-17, -0.128217417911, -0.173147693979, 0.188263646325, 2.09901540593e-16, -1.60982338571e-15, -1.04083408559e-16, -0.161830420667, 1.72348611967, -1.21873744561, 0.126071847127, 0.127686775663, -0.188263646325, 0.745342564296, -0.138407107636, -0.564626494128, 1.19834327843, -1.27097497208, 0.161830420667, 0.60390445212, 0.792287179269, -0.576687159414, -0.366162946517, 0.368308517301, 0.0454609183155, -0.58426764455, -0.60390445212, 0.576687159414, -3.48046701757, -0.452511147585, 3.50086118475, -0.208019534719 },
        { -0.336177667615, -2.02095284951e-16, 0.358442270125, -1.85216250595e-16, -0.589309695252, -0.0298665723417, 0.0303348329193, -2.88657986403e-15, -1.22818422099e-15, 5.20417042793e-16, -0.245351328164, 0.481668275063, -0.911140814379, 0.493827561454, 0.0197421530237, -0.0303348329193, 0.604789100668, -0.0762708892195, -0.550782813959, 0.763514413782, -0.318388353513, 0.245351328164, 1.33965492534, 1.93309110865, -0.128431691078, -1.1091111266, 1.20459326039, 0.010124419318, -1.27779579253, -1.33965492534, 0.128431691078, -1.71481382924, -0.16327992155, 1.86244022984, -0.655295316114 },
        { -0.118117019922, 6.00214322688e-16, 0.204881260678, -8.63486596922e-17, -0.483666898077, 0.153798325928, 0.100429811621, -1.56819002228e-15, -1.02695629778e-15, 3.05311331772e-16, 0.042506108844, -0.00417162582753, -0.218887994876, 0.177195303849, 0.172212629273, -0.100429811621, 0.300757922986, -0.0366919287168, -0.350830235025, 0.0801913980784, -0.00467109539564, -0.042506108844, -0.2478634175, 0.269525132632, 4.13555947964, -0.855368153815, 1.16183974804, -0.326010955201, 0.301795428952, 0.2478634175, -4.13555947964, -0.387104887297, 0.00884272122318, 0.525801484095, -0.571320561584 },
        { 0.394442721464, 4.16333634234e-16, -0.316700773842, 5.00431689669e-16, 1.691258973, -3.80801363223, 5.4836383758, 2.88657986403e-15, -4.4408920985e-15, 4.66293670343e-15, 0.255745030827, 0.130999772008, 0.210196622047, -2.00482142867, 4.24158634587, -5.4836383758, 0.0464454714238, -0.0208083879359, -0.103379031109, -0.249167453856, -0.145915140524, -0.255745030827, -1.52237080411, -1.38007173218, 5.50001684731, -0.120618428812, 0.434180884479, -0.433572713641, 1.53720390232, 1.52237080411, -5.50001684731, -0.0149909544887, 0.0149153685153, 0.0539617862976, -0.157132170136 },
        { -0.192468191904, -1.42138904813e-15, -0.350933368614, -1.31467366716e-16, 0.449254419665, -0.538254520513, 0.188263646325, -1.41206490945e-15, -1.14144804719e-15, -2.25514051877e-16, -0.0410670910943, 0.226023772946, 2.4589154736, 0.0410587679978, 0.00719806234884, -0.188263646325, 0.715726752163, -0.983606969779, 0.811281778134, 0.224727983827, -0.00302260946816, 0.0410670910943, 0.0254767243039, 1.41821382803, -0.332069046195, -0.136467941223, -0.353845246439, 0.531056458164, -0.0189657330669, -0.0254767243039, 0.332069046195, -0.746933402624, -0.223001163478, -1.9367100548, -1.39924809496 },
        { -0.0579729019651, -1.20042864538e-15, -0.216923199944, -3.95384586573e-16, 0.517264163089, -0.111178053602, 0.0303348329193, -4.85722573274e-16, -3.88578058619e-16, 3.67761376907e-16, 0.0979411138875, -0.326281844203, 0.460513556286, -0.00912774663571, -0.00709140647947, -0.0303348329193, 0.239581839576, -0.396577519812, 0.431891782144, -0.00812631410416, -0.0208116360122, -0.0979411138875, -0.243783398836, 4.14356465423, -0.0739537693206, 0.0883186982004, -0.596455114654, 0.118269460082, 0.264294078598, 0.243783398836, 0.0739537693206, 0.0786289882368, 0.347093480215, -0.531016230419, -4.40785873283 },
        { 0.225565484443, -6.210310044e-16, 0.276022045415, -1.73737352712e-16, -1.31167064876, 2.7720653931, 0.100429811621, 1.66533453694e-16, -6.93889390391e-16, 2.22044604925e-16, 0.242028983445, -0.311788872705, -0.341812933207, -0.852939205087, 1.03626557792, -0.100429811621, -0.23946095974, -0.177309848448, -0.0848167216696, -0.222270469965, -0.116554276521, -0.242028983445, -1.02781709025, 2.79730128295, 2.38134536111, 1.38081565155, 0.783794202294, -3.80833097102, 1.04569936835, 1.02781709025, -2.38134536111, 0.359831676132, 0.428343149226, 0.204251727041, -3.8430006513 },
        { 0.625377600303, 8.32667268469e-17, 0.138208304689, 5.74840426074e-16, -0.377808999793, -0.32589396956, 5.4836383758, 3.77475828373e-15, -3.99680288865e-15, 4.21884749358e-15, 0.207840031305, 0.00824827304638, -0.0270380913493, -2.89580215413, 5.3907188388, -5.4836383758, -0.308124105785, -0.188794913071, -0.266666886136, -0.207239539597, -0.136437384708, -0.207840031305, -1.12004405715, -0.0680091901677, 3.16702967757, 1.71890596179, 1.55470519213, -5.06482486924, 1.12496227882, 1.12004405715, -3.16702967757, 0.123014370863, 0.128189111661, 0.111263260084, -1.05695308865 },
        { 0.445188683797, -3.51238135798e-15, 2.24400210538, -9.40923620214e-17, 1.87719259162, -0.86753747144, 0.188263646325, -1.87697080101e-15, -6.41847686111e-16, -2.9316826744e-16, 0.251335865827, -1.27260439352, 3.44843341033, -0.134404752308, -0.101468432469, -0.188263646325, -2.09224641356, 4.0285491947, -4.62549357032, -0.246903722311, -0.148845643232, -0.251335865827, -0.0889984266496, 0.767191959968, -0.111452590086, 0.768202642377, -2.51099048169, 0.96900590391, 0.0897318768856, 0.0889984266496, 0.111452590086, 1.41120078446, 1.42145003676, -4.61273047248, -0.856923836853 },
        { 0.542293065584, -1.62370117351e-15, 0.00319288667626, -2.43289734232e-16, 4.37286031043, -0.184511342788, 0.0303348329193, 3.74700270811e-16, 8.881784197e-16, 1.73472347598e-16, 0.233047796266, -0.864316933212, 1.3066443758, -0.773943947209, -0.0312920869787, -0.0303348329193, -1.97488737981, 2.53990189221, -1.11050046466, -0.231260418585, -0.146583295328, -0.233047796266, -0.389117029592, 2.30802173101, -0.0248211606346, 3.36553725437, -6.96445361759, 0.215803429766, 0.391427516945, 0.389117029592, 0.0248211606346, 1.00564848012, 1.01090022854, -2.08103243733, -2.69944924795 },
        { 0.696647594003, -6.76542155631e-16, -0.132026023671, 4.53094548609e-17, 0.432971142057, 5.13343100868, 0.100429811621, -3.33066907388e-16, -1.38777878078e-16, 1.66533453694e-16, 0.179690567638, -0.344292044235, 0.0378690502115, -2.05332740541, 1.81553861257, -0.100429811621, -1.54648645659, 0.715253044997, 0.26661184126, -0.179590626402, -0.12176563769, -0.179690567638, -0.612883531366, 1.73862241333, 0.799252780185, 5.31328996614, -3.69293370278, -6.94896962126, 0.614897934491, 0.612883531366, -0.799252780185, 0.464717448742, 0.466057681926, -0.322995872551, -2.35352034782 },
        { 0.866122121956, -2.22044604925e-16, 0.326425626979, 7.23869954282e-16, -1.55864364979, 2.81456398596, 5.4836383758, 4.4408920985e-15, -4.4408920985e-15, 4.88498130835e-15, 0.0905566439694, -0.0285953874203, -0.0374379739142, -3.77398544237, 6.42709973004, -5.4836383758, -0.785371706005, -0.207940007344, -0.199236035586, -0.0906495648075, -0.0652980027053, -0.0905566439694, -0.449607202395, 0.197135199375, 1.06295261328, 3.90482018109, 1.42780891107, -9.241663716, 0.450161230302, 0.449607202395, -1.06295261328, 0.0937921609589, 0.0938933901256, 0.0342953777628, -0.647296429676 },
        { 0.262326815091, -4.27674388959e-15, -0.337956235104, 1.64279427455e-16, 0.108340828634, 0.0883969431835, 0.188263646325, -5.24753851483e-15, -6.59194920871e-16, -3.29597460436e-17, 6.97671389736, -4.41670862488, 1.86494456049, -0.0894026163922, -0.0784431029452, -0.188263646325, 0.118210547162, 0.0204277685899, -0.0630088957393, -1.53894819927, 3.91937002415, -6.97671389736, 3.03136795501, -0.732510422175, -1.04436167519, -0.0302844104769, 0.0113461982351, -0.0099538402383, 0.650026894435, -3.03136795501, 1.04436167519, -0.521306208367, 0.497338600724, 0.195309847152, 0.0824835277402 },
        { 0.38289774906, -2.01921812604e-15, -0.449540396859, 5.23008643865e-16, 0.66632754499, 0.0283809878733, 0.0303348329193, -6.68562427641e-15, -2.77555756156e-17, 6.0368376964e-16, 2.00292864634, -2.91444664837, 1.86569362063, -0.587242812072, -0.0261642079197, -0.0303348329193, 0.0846123604873, 0.0177282086745, -0.0356979213626, -1.64425915825, 2.68680528031, -2.00292864634, 8.53019358808, -3.32663454262, -0.232585612237, -0.105113955523, 0.0260292226056, -0.00221677995367, 3.06679803516, -8.53019358808, 0.232585612237, -0.29431536747, 0.227641368051, 0.07288090509, 0.25983650746 },
        { 0.582912531849, 6.97358837343e-16, -0.63112638891, 5.9361090273e-16, 1.89531730715, -1.72179988344, 0.100429811621, -4.0800696155e-15, -1.19348975147e-15, 5.55111512313e-17, -0.239523825164, -0.918167814149, 1.55334581088, -1.77749109602, 1.65041855011, -0.100429811621, 0.0431767291958, 0.0127807929631, -0.00774366509821, -1.45677894539, 0.880102970824, 0.239523825164, 4.87301877546, -5.46438108024, 7.48936360985, -0.116081829596, -0.00174438152606, 0.0713813333352, 5.23784208979, -4.87301877546, -7.48936360985, -0.0951372221642, 0.0380648433245, -0.00142964332456, 0.226538990454 },
        { 0.812452135617, 8.04911692853e-16, -0.835475545868, 7.51628381393e-16, 3.66460410302, -6.30243350483, 5.4836383758, 1.7763568394e-15, -5.77315972805e-15, 4.88498130835e-15, 0.173807930029, 0.184182334239, 0.824808878002, -3.58199787646, 6.20750111712, -5.4836383758, 0.0131962924774, 0.00617953933657, 0.00364757843737, -0.806216324173, -0.181408029877, -0.173807930029, -1.29326671906, -4.13639574699, 9.96035149115, -0.0570264151812, -0.0255798113809, 0.094932387712, 4.07408998455, 1.29326671906, -9.96035149115, -0.0128351909783, -0.00277430436201, -0.00575736285052, 0.062305762446 },
        { 0.404206071679, -2.72438321902e-15, 0.312668579906, -3.09667957496e-17, -0.128217417911, -0.173147693979, 0.188263646325, 1.69309011255e-15, -1.80758186197e-15, -2.13370987545e-16, 1.49613339777, 4.42785703113, -1.69273776311, -0.12454417048, -0.0966026294448, -0.188263646325, -0.490009880059, -0.136238594897, -0.0906261766294, -1.6442432236, 2.47039173426, -1.49613339777, 1.55150804171, 1.10042932742, -0.800976564523, 0.192595219241, 0.0601663691493, 0.269750323424, 0.613951962652, -1.55150804171, 0.800976564523, 2.54265922616, -6.89824876539, 0.794321760553, -1.71438129007 },
        { 0.507063488469, -8.41340885849e-16, 0.358442270125, -7.69072237605e-17, -0.589309695252, -0.0298665723417, 0.0303348329193, -4.43742265155e-15, -6.52256026967e-16, 5.48172618409e-16, 0.0710197363376, 1.47626003455, -1.26550839113, -0.733385228999, -0.0302084434457, -0.0303348329193, -0.488389534488, -0.180700986901, -0.196415237205, -1.57490224361, 1.49315821229, -0.0710197363376, 4.1058943027, 2.68492309884, -0.178382287548, 0.869933654044, 0.452761270206, 0.0600750157874, 2.71565637528, -4.1058943027, 0.178382287548, 1.86813206671, -2.96941824685, 0.972278568031, -5.40057947412 },
        { 0.671962873296, 5.30825383649e-16, 0.204881260678, 1.08668493283e-16, -0.483666898077, 0.153798325928, 0.100429811621, -2.51187959321e-15, -5.82867087928e-16, -2.77555756156e-17, -0.182002935181, 0.0271511684781, -0.30401952131, -1.99407380623, 1.78064479277, -0.100429811621, -0.404522635108, -0.206622790276, -0.265698708591, -1.25341917431, 0.31435053975, 0.182002935181, 1.61322747685, 0.374350826551, 5.74399164314, 1.42072665019, 1.05701405412, -1.9344431187, 4.33415543338, -1.61322747685, -5.74399164314, 0.893029144273, -0.341501708228, 0.664409551348, -4.70850625993 },
        { 0.854659261789, 3.33066907388e-16, -0.316700773842, 6.57380566812e-16, 1.691258973, -3.80801363223, 5.4836383758, 2.88657986403e-15, -4.88498130835e-15, 4.4408920985e-15, 0.239374195003, 0.135622046815, 0.291947835933, -3.73314907767, 6.38069328909, -5.4836383758, -0.213756128883, -0.139072114068, -0.185130244996, -0.64442218007, -0.22724779046, -0.239374195003, -1.5760870519, -1.91681936522, 7.63912379052, 1.07096158716, 0.970928517515, -2.57267965686, 3.21181530353, 1.5760870519, -7.63912379052, 0.184871106513, 0.0916257436448, 0.167603237623, -1.29499593831 },
        { 0.631960136632, -2.91108283312e-15, -0.350933368614, -1.52552459771e-16, 0.449254419665, -0.538254520513, 0.188263646325, -2.04697370165e-16, -1.34961486431e-15, -2.9316826744e-16, -0.245178772672, 2.41050832214, 3.41525493735, -0.177976321312, -0.121952669742, -0.188263646325, -1.91427250783, 1.77830342543, -0.145057685615, -1.35298504252, 0.546150406763, 0.245178772672, 0.271705295222, 1.96979596509, -0.461219778286, 0.634149285146, -0.905427383499, 0.660207190256, 0.446297927161, -0.271705295222, 0.461219778286, 4.82083510437, -2.9566587289, -6.8831049992, -2.41609389225 },
        { 0.699938941386, -2.20223145275e-15, -0.216923199944, -4.38784905547e-16, 0.517264163089, -0.111178053602, 0.0303348329193, -1.11369247158e-15, -1.87350135405e-16, 1.87350135405e-16, -0.116209006895, 0.543191701083, 0.639619870512, -0.951179273079, -0.0358540495445, -0.0303348329193, -1.66902382883, 0.933222619464, 0.252785467919, -1.17617497382, 0.175175059571, 0.116209006895, 0.405848874101, 5.75511024902, -0.102716412386, 2.64191581943, -2.20800070944, 0.147032103147, 1.85597787798, -0.405848874101, 0.102716412386, 3.26684501829, -0.718366760654, -2.73028991498, -7.611088127 },
        { 0.804449259427, -9.08995101412e-16, 0.276022045415, -1.53655414009e-16, -1.31167064876, 2.7720653931, 0.100429811621, -3.74700270811e-16, 2.77555756156e-17, -2.77555756156e-17, 0.157022569763, -0.236163321155, -0.474753329393, -2.30843348521, 1.96243590386, -0.100429811621, -1.18999803696, 0.0614030576076, 0.0481236745156, -0.835527183462, -0.16718775169, -0.157022569763, -0.778516229485, 3.88524824071, 3.30751568705, 3.92425688943, -0.304152755463, -4.73450129696, 2.75049450924, 0.778516229485, -3.30751568705, 1.42036724342, 0.403351072845, -0.110086730565, -6.63574274995 },
        { 0.915095482842, -8.32667268469e-17, 0.138208304689, 6.39853316181e-16, -0.377808999793, -0.32589396956, 5.4836383758, 3.33066907388e-15, -3.99680288865e-15, 3.99680288865e-15, 0.242772631084, 0.0101416649368, -0.0375539443989, -3.94745604158, 6.622463279, -5.4836383758, -0.560561951205, -0.23659080324, -0.256151033086, -0.39237430761, -0.206087899455, -0.242772631084, -1.37715028081, -0.0944598238529, 4.39877411777, 2.74410921556, 1.58115582581, -6.29656930944, 1.91950994261, 1.37715028081, -4.39877411777, 0.272762493647, 0.195946234518, 0.157165758362, -1.82505011876 },
        { 0.868638985211, -4.32379826387e-15, 2.24400210538, -1.11332319224e-16, 1.87719259162, -0.86753747144, 0.188263646325, -2.86402845884e-15, -1.22471477404e-15, -3.52148865623e-16, 0.250809322516, -1.38689694902, 4.78962345685, -0.23053883065, -0.14481539229, -0.188263646325, -3.84413241617, 6.69817494241, -5.96668361683, -0.588215719541, -0.231510490728, -0.250809322516, -0.0969913721941, 1.06557389113, -0.154799549906, 1.16271865189, -2.80937241286, 1.01235286373, 0.177873009683, 0.0969913721941, 0.154799549906, 2.96665592739, 1.61840743975, -7.1680636647, -1.24344690082 },
        { 0.894239071655, -2.34968294821e-15, 0.00319288667626, -2.89871793376e-16, 4.37286031043, -0.184511342788, 0.0303348329193, 2.91433543964e-16, 1.16573417586e-15, -6.93889390391e-18, 0.255773608794, -1.01420051076, 1.81483410215, -1.16137946239, -0.0409457150541, -0.0303348329193, -3.15044347822, 3.8717017109, -1.61869019101, -0.481998258408, -0.225065649049, -0.255773608794, -0.456594884346, 3.20567449226, -0.03447478871, 4.6506255308, -7.86210637884, 0.225457057842, 0.711385177373, 0.456594884346, 0.03447478871, 1.93011283473, 1.23926615981, -3.26294867847, -3.91705966963 },
        { 0.932314949395, -9.85322934355e-16, -0.132026023671, 2.41367254861e-17, 0.432971142057, 5.13343100868, 0.100429811621, -4.85722573274e-16, 5.27355936697e-16, -8.32667268469e-17, 0.219317728896, -0.437124360783, 0.052597359322, -2.60395904918, 2.12638987339, -0.100429811621, -2.06802429359, 1.01585183572, 0.251883532149, -0.316329095558, -0.181067362668, -0.219317728896, -0.778136835773, 2.4148202104, 1.110104041, 6.54011940698, -4.36913149985, -7.25982088207, 1.00027627385, 0.778136835773, -1.110104041, 0.794494082962, 0.618191723451, -0.530762346726, -3.41509648426 },
        { 0.971133168652, -2.22044604925e-16, 0.326425626979, 7.3801331905e-16, -1.55864364979, 2.81456398596, 5.4836383758, 3.10862446895e-15, -3.5527136788e-15, 4.4408920985e-15, 0.119844479565, -0.0384379828016, -0.0519986256655, -4.14403873379, 6.8405110665, -5.4836383758, -0.904005455042, -0.208877956755, -0.184675383835, -0.138251176842, -0.0934196017714, -0.119844479565, -0.604362992504, 0.273806468835, 1.47636394974, 4.35154474197, 1.35113764161, -9.65507505246, 0.665458731614, 0.604362992504, -1.47636394974, 0.145173879953, 0.131857584573, 0.0450759225549, -0.939265200449 } } };
static const double FE1_C0_D100_Q64[1][64][35] =
    { { { -2.61665455821, -0.262326815091, -2.16117352742e-17, -3.65397515406e-17, -3.51010005038e-17, 5.306682977e-17, 1.17711209368e-16, 0.0894026163922, 0.0784431029452, 0.188263646325, 0.100156729352, 0.085334532548, 0.202156726411, -1.99429993054, 0.887996330144, -0.188263646325, -2.23419141911, 0.966009105863, -0.202156726411, 4.41532949093, -2.85692904039, 1.32058092276, -0.0423045868392, -0.0660004964643, -0.0679684018579, -0.478898927388, 0.0660004964643, 0.0679684018579, 2.48233521127, -0.577437897119, -0.966439433089, 2.7809317663, -0.64689707654, -1.05134363841, 0.521203514228 },
        { -0.0971243045951, -0.38289774906, -1.59832140047e-17, -2.04227100265e-16, -1.5349932896e-16, 3.70712637921e-16, 2.11242776408e-16, 0.587242812072, 0.0261642079197, 0.0303348329193, 0.107010502091, 0.086378081769, 0.174901641145, -4.70183916807, 0.189067653394, -0.0303348329193, -0.856794088891, 0.624184812888, -0.174901641145, 1.02065872979, -1.9932729718, 1.45263629567, -0.199591162931, -0.274237126395, -0.0151369709694, -1.44228454878, 0.274237126395, 0.0151369709694, 6.87668927271, -2.76209291671, -0.215231861313, 1.25310681829, -0.503323231486, -0.710562894657, 1.64187571171 },
        { 0.157576792955, -0.582912531849, -1.59960195574e-16, -5.87398153381e-16, -5.70439372961e-16, 2.49441656537e-16, 5.86160489595e-17, 1.77749109602, -1.65041855011, 0.100429811621, 0.0948090485613, 0.0733203934223, 0.123642391766, -0.619333549055, -5.28014630427, -0.100429811621, -0.0330344408809, 0.234572257038, -0.123642391766, -0.277396095653, -0.616061333084, 1.31879316763, -0.340885504022, -0.405965739936, 0.487417422134, -1.09058719324, 0.405965739936, -0.487417422134, 3.6227172092, -4.78087475617, 6.93056485438, 0.193230994281, -0.255005601962, -0.30789265046, 1.43147269727 },
        { -0.332272064837, -0.812452135617, -4.39493388276e-16, -1.25049207172e-15, -6.3992507515e-16, -1.51432970188e-15, 8.83547283755e-16, 3.58199787646, -6.20750111712, 5.4836383758, 0.0524695959338, 0.0397032273991, 0.0578933212355, 1.61056772993, -3.00968549285, -5.4836383758, 0.0235918168933, 0.0192499727777, -0.0578933212355, 0.200854722615, 0.203319042078, 0.740550435762, -0.265147019327, -0.283046250319, 0.648232493476, -0.128555617226, 0.283046250319, -0.648232493476, -1.44064905636, -3.75191655004, 9.21718660996, -0.0211028248694, -0.0549585879578, -0.0589532001769, 0.393702636553 },
        { 0.0875743252959, -0.404206071679, -1.10921948997e-16, -1.25537270217e-16, -4.64303580842e-16, 1.77233116205e-16, 2.12091056444e-16, 0.12454417048, 0.0966026294448, 0.188263646325, 0.676423762559, -0.0349327507444, -0.0356729062617, -0.816407479189, 0.644611219481, -0.188263646325, -4.43406878641, -0.233099690832, 0.0356729062617, 0.691940663524, -1.83313825824, 1.4578293411, -0.252573153806, 0.0219392102667, -0.32951303902, -1.68537326177, -0.0219392102667, 0.32951303902, 1.2458373368, -0.553974028087, -0.741213848926, 6.76638638039, -3.00874135654, 0.268032441577, 1.93794641557 },
        { 0.347307955877, -0.507063488469, -3.85035419958e-16, -4.40675126639e-16, -5.74872411745e-16, 1.07035602411e-15, 4.44662506365e-16, 0.733385228999, 0.0302084434457, 0.0303348329193, 0.647897638254, 0.0918002982141, 0.101992726717, -1.46628619271, 0.134864328705, -0.0303348329193, -1.29536745996, 0.409838580918, -0.101992726717, -0.163916875983, -1.09172173127, 1.41539413984, -1.1171914695, -0.252432942685, -0.0733845311844, -4.98765445626, 0.252432942685, 0.0733845311844, 3.20129952354, -2.46839855982, -0.165072772151, 2.82813768076, -2.18066785905, -0.501638879132, 6.10484592576 },
        { -0.161328789786, -0.671962873296, -4.90282991198e-16, -6.83072955302e-16, -1.10422375383e-15, 1.13481348619e-15, 1.01372658611e-16, 1.99407380623, -1.78064479277, 0.100429811621, 0.515643003288, 0.200525196247, 0.243015108355, 1.00650376583, -3.53477433756, -0.100429811621, 0.260269516108, 0.398064409368, -0.243015108355, -0.134798693686, -0.174208449363, 1.14229880613, -1.78302436263, -1.0290828724, 2.36301563151, -3.53949804355, 1.0290828724, -2.36301563151, 0.971280148876, -3.97185772094, 5.31541913033, 0.251161121236, -1.02707364063, -0.598589605615, 5.32252240618 },
        { -0.219620965509, -0.854659261789, -5.29123322432e-16, -1.16334017663e-15, -1.07607471554e-15, -1.01162294471e-15, 7.30201107639e-16, 3.73314907767, -6.38069328909, 5.4836383758, 0.265108269545, 0.160614199239, 0.206913148842, 0.830265560701, -0.688457792219, -5.4836383758, 0.058961016954, 0.0173297934875, -0.206913148842, 0.25006776421, 0.23114242368, 0.593070039408, -1.32130585128, -1.11394684745, 3.14265236608, -0.142564964025, 1.11394684745, -3.14265236608, -1.60194359896, -2.96147103941, 7.06915108131, -0.113761461595, -0.210307824904, -0.177943992726, 1.4638708153 },
        { -0.0209772079822, -0.631960136632, -6.05334025755e-17, -2.82020109983e-16, -1.09318185972e-15, 1.8852264515e-16, 3.30536161962e-16, 0.177976321312, 0.121952669742, 0.188263646325, 2.03766259076, -2.1154089941, 0.399877762195, 0.0418596436277, 0.304854433244, -0.188263646325, 0.4792538089, -5.28804995692, -0.399877762195, -0.221435706098, -0.355221908876, 1.22959495959, -0.672146817541, 1.05239842018, -0.694619865555, -1.68021690342, -1.05239842018, 0.694619865555, 0.188464429826, -0.408300394766, -0.426807102986, 2.15774163392, -4.67465803358, 7.40345895103, 2.35236372096 },
        { -0.244720001995, -0.699938941386, -6.31401034126e-16, -8.72326656831e-16, -8.89554255237e-16, 1.09744233638e-15, 7.28592748405e-16, 0.951179273079, 0.0358540495445, 0.0303348329193, 1.77137785639, -1.1383724912, -0.205061948774, 0.574312506193, 0.0591984535429, -0.0303348329193, 1.06954018544, -1.87956149698, 0.205061948774, -0.0632221273853, -0.0659398754896, 1.07382094626, -2.79519475263, 2.63740280717, -0.154696012445, -4.61513298523, -2.63740280717, 0.154696012445, 0.177207165507, -1.70269894478, -0.0950525030874, 0.330012288806, -3.17093033064, 3.01793398817, 7.41032773786 },
        { -0.343330389268, -0.804449259427, -7.50891534793e-16, -9.05193072608e-16, -1.5668963981e-15, 1.49025473121e-15, 1.24515452118e-16, 2.30843348521, -1.96243590386, 0.100429811621, 1.2583453858, -0.127571177549, -0.0835461193906, 1.1173069789, -1.09829838148, -0.100429811621, 0.609052888213, -0.0713965829656, 0.0835461193906, 0.1871961083, 0.193403705764, 0.76717983463, -4.14238117307, 0.594040120358, 4.98128269868, -2.31832822101, -0.594040120358, -4.98128269868, -0.893370238508, -2.5323702256, 3.06073428534, -0.486983196456, -1.38041507755, 0.198967760514, 6.46070939408 },
        { 0.119021627701, -0.915095482842, -6.01892016063e-16, -1.06603667013e-15, -1.60360337426e-15, -5.56373980889e-16, 5.06084624018e-16, 3.94745604158, -6.622463279, 5.4836383758, 0.590935171541, 0.237671637828, 0.253349046364, -0.852751660912, 2.55189188054, -5.4836383758, -0.127657140121, -0.0915840975261, -0.253349046364, 0.236448274511, 0.197624493357, 0.362001087274, -2.89087719357, -1.58820369193, 6.62477202875, 1.11396707344, 1.58820369193, -6.62477202875, -1.32196241606, -1.77274196461, 4.07057139847, -0.197898109283, -0.265379922137, -0.146087540302, 1.77691012012 },
        { -0.160775122871, -0.868638985211, -2.86287025698e-16, -4.55374262906e-16, -1.15129299934e-15, 1.75446778152e-16, 4.24062203066e-16, 0.23053883065, 0.14481539229, 0.188263646325, 3.89068141543, -6.89551449, 6.32404851007, 0.0303812937689, -0.0015657951354, -0.188263646325, 0.512728960714, 0.0745567365025, -6.32404851007, 0.256593069934, 0.231154317866, 0.541666720282, -1.17651941302, 2.88887734749, -1.02390281648, 0.0127209431571, -2.88887734749, 1.02390281648, -0.096847875868, -0.164072248551, -0.143249597154, -1.6344501692, -2.76896020694, 6.8209577535, 1.16379846986 },
        { -0.0231092835261, -0.894239071655, -8.13553628366e-16, -1.36313974359e-15, -6.23924614914e-16, 2.43939504625e-16, 9.42775219857e-16, 1.16137946239, 0.0409457150541, 0.0303348329193, 3.18811892297, -3.99330340402, 1.75409916439, -0.0598673982107, -0.00904317013277, -0.0303348329193, -0.164342827891, 0.881951188948, -1.75409916439, 0.253919768891, 0.219105772639, 0.444322813652, -4.70537083059, 8.10128917327, -0.22802930163, 1.03921665313, -8.10128917327, 0.22802930163, -0.444872186596, -0.656639877585, -0.0319025449214, -1.22122482988, -1.80255126519, 3.11135221507, 3.66615417745 },
        { 0.257570292859, -0.932314949395, -8.43885962213e-16, -1.19402483127e-15, -1.6314271247e-15, 9.49003655074e-16, 1.08866619939e-16, 2.60395904918, -2.12638987339, 0.100429811621, 2.09232037221, -1.05859400431, -0.247959121417, -0.940209564617, 1.09911326458, -0.100429811621, -0.755472566595, 0.547178448556, 0.247959121417, 0.21079575561, 0.171915883983, 0.292033016943, -6.6162058913, 4.54930682563, 7.34264831426, 3.41986187356, -4.54930682563, -7.34264831426, -0.739559695031, -0.924189789533, 1.02727660881, -0.594247369928, -0.742600435684, 0.511415555757, 3.19634401774 },
        { 0.643627477463, -0.971133168652, -6.19608743951e-16, -1.00262252178e-15, -1.99278097947e-15, -3.90780079871e-16, 2.93913742722e-16, 4.14403873379, -6.8405110665, 5.4836383758, 0.914445613288, 0.205694659783, 0.180795646006, -2.9640030771, 5.47430204856, -5.4836383758, -0.654052673187, -0.164612656348, -0.180795646006, 0.112466555263, 0.0872281173293, 0.127811018596, -4.40159593465, -1.33070830716, 9.76522998427, 3.5224949434, 1.33070830716, -9.76522998427, -0.564628117759, -0.615407538932, 1.36620901793, -0.124593841562, -0.135799098539, -0.0410820034359, 0.87910099125 },
        { 0.260529637804, 0.242112183715, 1.13768220296e-17, 7.54413413253e-17, -2.14421515107e-17, 1.473023806e-16, 1.45203247684e-17, -0.116156852149, -0.213998984901, 0.188263646325, -0.130129193893, -0.23279934955, 0.202156726411, -0.635906402027, 0.595554242297, -0.188263646325, -0.712398674345, 0.647875223765, -0.202156726411, -2.97164439263, 3.78990513748, -1.32090256637, 0.115410256611, -0.0660004964643, -0.0679684018579, -0.321184083938, 0.0660004964643, 0.0679684018579, -0.440011314302, 1.19207456848, -0.381555257396, -0.492939646473, 1.33546751471, -0.415075874215, 0.205773827327 },
