
        #include <petsc.h>
        #include <stdbool.h>
        #include <math.h>
        
        


        
            #include <immintrin.h>

            
            // This code is generated visiting a COFFEE AST

#include "firedrake_geometry.h"


void form_cell_integral_0_otherwise(double A[30][30], double *coordinate_dofs, double **w0, double **w1, double **w2)
{
// Section for quadrature weights and points
static const double weights125[125] = { 0.000937439821767, 0.00144688123847, 0.00102268701578, 0.000367520038007, 4.71653365059e-05, 0.00161927658527, 0.00249925473264, 0.00176652740822, 0.000634831781565, 8.14705363129e-05, 0.00141792453255, 0.00218848010942, 0.0015468651695, 0.000555892406099, 7.13399262171e-05, 0.000715891501944, 0.0011049349077, 0.000780991938625, 0.000280662785914, 3.60185932013e-05, 0.000152536470499, 0.00023543074683, 0.000166407554053, 5.98013953893e-05, 7.6745555218e-06, 0.00189377231486, 0.00292292216384, 0.0020659847302, 0.000742446882428, 9.52812185081e-05, 0.00327118722299, 0.00504887813656, 0.00356865648488, 0.00128245763046, 0.000164582987157, 0.00286442517371, 0.00442106570108, 0.0031249050497, 0.00112298797669, 0.000144117599954, 0.00144621070638, 0.002232138095, 0.00157772357985, 0.00056698190266, 7.27630862707e-05, 0.000308147081156, 0.000475606241661, 0.000336168798819, 0.000120807996789, 1.55037800172e-05, 0.00225090157446, 0.00347412941301, 0.00245558995954, 0.000882458172768, 0.000113249435042, 0.00388807060532, 0.00600100004509, 0.00424163688396, 0.00152430462571, 0.000195620192572, 0.0034046010087, 0.00525479418474, 0.0037142024103, 0.00133476204346, 0.000171295424533, 0.00171893840165, 0.00265307667296, 0.00187525208923, 0.000673903851785, 8.64848134933e-05, 0.000366257730508, 0.000565296487744, 0.000399563808495, 0.000143590075769, 1.84274965776e-05, 0.00189377231486, 0.00292292216384, 0.0020659847302, 0.000742446882428, 9.52812185081e-05, 0.00327118722299, 0.00504887813656, 0.00356865648488, 0.00128245763046, 0.000164582987157, 0.00286442517371, 0.00442106570108, 0.0031249050497, 0.00112298797669, 0.000144117599954, 0.00144621070638, 0.002232138095, 0.00157772357985, 0.00056698190266, 7.27630862707e-05, 0.000308147081156, 0.000475606241661, 0.000336168798819, 0.000120807996789, 1.55037800172e-05, 0.000937439821767, 0.00144688123847, 0.00102268701578, 0.000367520038007, 4.71653365059e-05, 0.00161927658527, 0.00249925473264, 0.00176652740822, 0.000634831781565, 8.14705363129e-05, 0.00141792453255, 0.00218848010942, 0.0015468651695, 0.000555892406099, 7.13399262171e-05, 0.000715891501944, 0.0011049349077, 0.000780991938625, 0.000280662785914, 3.60185932013e-05, 0.000152536470499, 0.00023543074683, 0.000166407554053, 5.98013953893e-05, 7.6745555218e-06 };
static const double points125[375] = { 0.043485068433, 0.0384332743963, 0.0345789399182, 0.0372285899889, 0.0329036302803, 0.173480320772, 0.0274810994988, 0.0242885357161, 0.389886387066, 0.0164705687744, 0.0145571321831, 0.634333472631, 0.00670890455016, 0.005929510491, 0.851054212947, 0.0363203493206, 0.191166323794, 0.0345789399182, 0.0310947054204, 0.163661986624, 0.173480320772, 0.0229532381914, 0.120810681788, 0.389886387066, 0.0137568327003, 0.0724068788863, 0.634333472631, 0.00560352704046, 0.0294932643722, 0.851054212947, 0.025452983471, 0.422830105598, 0.0345789399182, 0.0217908978825, 0.361994799676, 0.173480320772, 0.0160854287808, 0.267214393854, 0.389886387066, 0.00964066816216, 0.160152727938, 0.634333472631, 0.00392690279163, 0.0652345028217, 0.851054212947, 0.0137918067695, 0.67141585603, 0.0345789399182, 0.0118074902013, 0.574814908127, 0.173480320772, 0.00871595763232, 0.424312220483, 0.389886387066, 0.00522383682734, 0.254308005747, 0.634333472631, 0.00212780888993, 0.103586473562, 0.851054212947, 0.00446245462993, 0.870293213095, 0.0345789399182, 0.00382041237943, 0.745078491721, 0.173480320772, 0.00282012111543, 0.549996015737, 0.389886387066, 0.00169021617151, 0.329635544721, 0.634333472631, 0.000688470393412, 0.134269401146, 0.851054212947, 0.213916656126, 0.0384332743963, 0.0345789399182, 0.183139081291, 0.0329036302803, 0.173480320772, 0.135188126023, 0.0242885357161, 0.389886387066, 0.0810238806943, 0.0145571321831, 0.634333472631, 0.0330032003939, 0.005929510491, 0.851054212947, 0.178671161296, 0.191166323794, 0.0345789399182, 0.152964584085, 0.163661986624, 0.173480320772, 0.11291415969, 0.120810681788, 0.389886387066, 0.0676741639412, 0.0724068788863, 0.634333472631, 0.0275655026012, 0.0294932643722, 0.851054212947, 0.125211188777, 0.422830105598, 0.0345789399182, 0.107196244066, 0.361994799676, 0.173480320772, 0.0791292565731, 0.267214393854, 0.389886387066, 0.0474254628171, 0.160152727938, 0.634333472631, 0.0193176633816, 0.0652345028217, 0.851054212947, 0.0678462123293, 0.67141585603, 0.0345789399182, 0.058084738328, 0.574814908127, 0.173480320772, 0.0428765224208, 0.424312220483, 0.389886387066, 0.025697687655, 0.254308005747, 0.634333472631, 0.0104673576243, 0.103586473562, 0.851054212947, 0.0219522104241, 0.870293213095, 0.0345789399182, 0.018793803728, 0.745078491721, 0.173480320772, 0.0138730580547, 0.549996015737, 0.389886387066, 0.00831470213957, 0.329635544721, 0.634333472631, 0.00338680125632, 0.134269401146, 0.851054212947, 0.463493892843, 0.0384332743963, 0.0345789399182, 0.396808024474, 0.0329036302803, 0.173480320772, 0.292912538609, 0.0242885357161, 0.389886387066, 0.175554697593, 0.0145571321831, 0.634333472631, 0.071508138281, 0.005929510491, 0.851054212947, 0.387127368144, 0.191166323794, 0.0345789399182, 0.331428846302, 0.163661986624, 0.173480320772, 0.244651465573, 0.120810681788, 0.389886387066, 0.146629824241, 0.0724068788863, 0.634333472631, 0.0597262613404, 0.0294932643722, 0.851054212947, 0.271295477242, 0.422830105598, 0.0345789399182, 0.232262439776, 0.361994799676, 0.173480320772, 0.17144960954, 0.267214393854, 0.389886387066, 0.102756899715, 0.160152727938, 0.634333472631, 0.0418556421157, 0.0652345028217, 0.851054212947, 0.147002602026, 0.67141585603, 0.0345789399182, 0.125852385551, 0.574814908127, 0.173480320772, 0.0929006962259, 0.424312220483, 0.389886387066, 0.0556792608113, 0.254308005747, 0.634333472631, 0.0226796567455, 0.103586473562, 0.851054212947, 0.0475639234936, 0.870293213095, 0.0345789399182, 0.0407205937536, 0.745078491721, 0.173480320772, 0.0300587985988, 0.549996015737, 0.389886387066, 0.018015491324, 0.329635544721, 0.634333472631, 0.00733819295332, 0.134269401146, 0.851054212947, 0.71307112956, 0.0384332743963, 0.0345789399182, 0.610476967657, 0.0329036302803, 0.173480320772, 0.450636951195, 0.0242885357161, 0.389886387066, 0.270085514492, 0.0145571321831, 0.634333472631, 0.110013076168, 0.005929510491, 0.851054212947, 0.595583574991, 0.191166323794, 0.0345789399182, 0.50989310852, 0.163661986624, 0.173480320772, 0.376388771457, 0.120810681788, 0.389886387066, 0.225585484542, 0.0724068788863, 0.634333472631, 0.0918870200795, 0.0294932643722, 0.851054212947, 0.417379765707, 0.422830105598, 0.0345789399182, 0.357328635486, 0.361994799676, 0.173480320772, 0.263769962507, 0.267214393854, 0.389886387066, 0.158088336614, 0.160152727938, 0.634333472631, 0.0643936208497, 0.0652345028217, 0.851054212947, 0.226158991722, 0.67141585603, 0.0345789399182, 0.193620032773, 0.574814908127, 0.173480320772, 0.142924870031, 0.424312220483, 0.389886387066, 0.0856608339676, 0.254308005747, 0.634333472631, 0.0348919558668, 0.103586473562, 0.851054212947, 0.0731756365631, 0.870293213095, 0.0345789399182, 0.0626473837792, 0.745078491721, 0.173480320772, 0.0462445391428, 0.549996015737, 0.389886387066, 0.0277162805085, 0.329635544721, 0.634333472631, 0.0112895846503, 0.134269401146, 0.851054212947, 0.883502717252, 0.0384332743963, 0.0345789399182, 0.756387458959, 0.0329036302803, 0.173480320772, 0.55834397772, 0.0242885357161, 0.389886387066, 0.334638826412, 0.0145571321831, 0.634333472631, 0.136307372012, 0.005929510491, 0.851054212947, 0.737934386967, 0.191166323794, 0.0345789399182, 0.631762987184, 0.163661986624, 0.173480320772, 0.466349692955, 0.120810681788, 0.389886387066, 0.279502815782, 0.0724068788863, 0.634333472631, 0.11384899564, 0.0294932643722, 0.851054212947, 0.517137971013, 0.422830105598, 0.0345789399182, 0.44273398167, 0.361994799676, 0.173480320772, 0.326813790299, 0.267214393854, 0.389886387066, 0.195873131269, 0.160152727938, 0.634333472631, 0.0797843814397, 0.0652345028217, 0.851054212947, 0.280213397282, 0.67141585603, 0.0345789399182, 0.2398972809, 0.574814908127, 0.173480320772, 0.17708543482, 0.424312220483, 0.389886387066, 0.106134684795, 0.254308005747, 0.634333472631, 0.0432315046012, 0.103586473562, 0.851054212947, 0.0906653923572, 0.870293213095, 0.0345789399182, 0.0776207751277, 0.745078491721, 0.173480320772, 0.0572974760821, 0.549996015737, 0.389886387066, 0.0343407664766, 0.329635544721, 0.634333472631, 0.0139879155132, 0.134269401146, 0.851054212947 };
// Section for precomputed element basis function values
// Table dimensions: num_entities, num_points, num_dofs
// Definitions of 7 tables for 125 quadrature points
static const double FE0_C0_D001_Q125[1][125][4] =
    { { { -1.0, 1.66533453694e-16, 1.11022302463e-16, 1.0 },
        { -1.0, -5.55111512313e-17, 0.0, 1.0 },
        { -1.0, -1.66533453694e-16, -5.55111512313e-17, 1.0 },
        { -1.0, -3.33066907388e-16, -1.11022302463e-16, 1.0 },
        { -1.0, -4.4408920985e-16, -1.66533453694e-16, 1.0 },
        { -1.0, 1.11022302463e-16, 5.55111512313e-17, 1.0 },
        { -1.0, -5.55111512313e-17, 0.0, 1.0 },
        { -1.0, -1.66533453694e-16, -5.55111512313e-17, 1.0 },
        { -1.0, -3.33066907388e-16, -1.11022302463e-16, 1.0 },
        { -1.0, -4.4408920985e-16, -1.66533453694e-16, 1.0 },
        { -1.0, 1.66533453694e-16, 1.11022302463e-16, 1.0 },
        { -1.0, 5.55111512313e-17, 0.0, 1.0 },
        { -1.0, -1.66533453694e-16, -5.55111512313e-17, 1.0 },
        { -1.0, -3.33066907388e-16, -1.11022302463e-16, 1.0 },
        { -1.0, -4.4408920985e-16, -1.66533453694e-16, 1.0 },
        { -1.0, 1.11022302463e-16, 5.55111512313e-17, 1.0 },
        { -1.0, -5.55111512313e-17, 0.0, 1.0 },
        { -1.0, -1.66533453694e-16, -5.55111512313e-17, 1.0 },
        { -1.0, -3.33066907388e-16, -1.11022302463e-16, 1.0 },
        { -1.0, -4.4408920985e-16, -1.66533453694e-16, 1.0 },
        { -1.0, 1.11022302463e-16, 5.55111512313e-17, 1.0 },
        { -1.0, 5.55111512313e-17, 0.0, 1.0 },
        { -1.0, -1.66533453694e-16, -5.55111512313e-17, 1.0 },
        { -1.0, -3.33066907388e-16, -1.11022302463e-16, 1.0 },
        { -1.0, -4.4408920985e-16, -1.66533453694e-16, 1.0 },
        { -1.0, 1.66533453694e-16, 1.11022302463e-16, 1.0 },
        { -1.0, -5.55111512313e-17, 0.0, 1.0 },
        { -1.0, -1.66533453694e-16, -5.55111512313e-17, 1.0 },
        { -1.0, -3.33066907388e-16, -1.11022302463e-16, 1.0 },
        { -1.0, -4.4408920985e-16, -1.66533453694e-16, 1.0 },
        { -1.0, 1.11022302463e-16, 5.55111512313e-17, 1.0 },
        { -1.0, -5.55111512313e-17, 0.0, 1.0 },
        { -1.0, -1.66533453694e-16, -5.55111512313e-17, 1.0 },
        { -1.0, -3.33066907388e-16, -1.11022302463e-16, 1.0 },
        { -1.0, -4.4408920985e-16, -1.66533453694e-16, 1.0 },
        { -1.0, 1.66533453694e-16, 1.11022302463e-16, 1.0 },
        { -1.0, -5.55111512313e-17, 0.0, 1.0 },
        { -1.0, -1.66533453694e-16, -5.55111512313e-17, 1.0 },
        { -1.0, -3.33066907388e-16, -1.11022302463e-16, 1.0 },
        { -1.0, -4.4408920985e-16, -1.66533453694e-16, 1.0 },
        { -1.0, 1.11022302463e-16, 5.55111512313e-17, 1.0 },
        { -1.0, -5.55111512313e-17, 0.0, 1.0 },
        { -1.0, -1.66533453694e-16, -5.55111512313e-17, 1.0 },
        { -1.0, -3.33066907388e-16, -1.11022302463e-16, 1.0 },
        { -1.0, -4.4408920985e-16, -1.66533453694e-16, 1.0 },
        { -1.0, 1.11022302463e-16, 5.55111512313e-17, 1.0 },
        { -1.0, -5.55111512313e-17, 0.0, 1.0 },
        { -1.0, -1.66533453694e-16, -5.55111512313e-17, 1.0 },
        { -1.0, -3.33066907388e-16, -1.11022302463e-16, 1.0 },
        { -1.0, -4.4408920985e-16, -1.66533453694e-16, 1.0 },
        { -1.0, 1.66533453694e-16, 1.11022302463e-16, 1.0 },
        { -1.0, -5.55111512313e-17, 0.0, 1.0 },
        { -1.0, -1.66533453694e-16, -5.55111512313e-17, 1.0 },
        { -1.0, -3.33066907388e-16, -1.11022302463e-16, 1.0 },
        { -1.0, -4.4408920985e-16, -1.66533453694e-16, 1.0 },
        { -1.0, 1.11022302463e-16, 5.55111512313e-17, 1.0 },
        { -1.0, -5.55111512313e-17, 0.0, 1.0 },
        { -1.0, -1.66533453694e-16, -5.55111512313e-17, 1.0 },
        { -1.0, -3.33066907388e-16, -1.11022302463e-16, 1.0 },
        { -1.0, -4.4408920985e-16, -1.66533453694e-16, 1.0 },
        { -1.0, 1.66533453694e-16, 1.11022302463e-16, 1.0 },
        { -1.0, 5.55111512313e-17, 0.0, 1.0 },
        { -1.0, -1.66533453694e-16, -5.55111512313e-17, 1.0 },
        { -1.0, -3.33066907388e-16, -1.11022302463e-16, 1.0 },
        { -1.0, -4.4408920985e-16, -1.66533453694e-16, 1.0 },
        { -1.0, 1.66533453694e-16, 1.11022302463e-16, 1.0 },
        { -1.0, 5.55111512313e-17, 0.0, 1.0 },
        { -1.0, -1.66533453694e-16, -5.55111512313e-17, 1.0 },
        { -1.0, -3.33066907388e-16, -1.11022302463e-16, 1.0 },
        { -1.0, -4.4408920985e-16, -1.66533453694e-16, 1.0 },
        { -1.0, 1.11022302463e-16, 5.55111512313e-17, 1.0 },
        { -1.0, -5.55111512313e-17, 0.0, 1.0 },
        { -1.0, -1.66533453694e-16, -5.55111512313e-17, 1.0 },
        { -1.0, -3.33066907388e-16, -1.11022302463e-16, 1.0 },
        { -1.0, -4.4408920985e-16, -1.66533453694e-16, 1.0 },
        { -1.0, 1.66533453694e-16, 1.11022302463e-16, 1.0 },
        { -1.0, -5.55111512313e-17, 0.0, 1.0 },
        { -1.0, -1.66533453694e-16, -5.55111512313e-17, 1.0 },
        { -1.0, -3.33066907388e-16, -1.11022302463e-16, 1.0 },
        { -1.0, -4.4408920985e-16, -1.66533453694e-16, 1.0 },
        { -1.0, 1.11022302463e-16, 5.55111512313e-17, 1.0 },
        { -1.0, -5.55111512313e-17, 0.0, 1.0 },
        { -1.0, -1.66533453694e-16, -5.55111512313e-17, 1.0 },
        { -1.0, -3.33066907388e-16, -1.11022302463e-16, 1.0 },
        { -1.0, -4.4408920985e-16, -1.66533453694e-16, 1.0 },
        { -1.0, 1.66533453694e-16, 1.11022302463e-16, 1.0 },
        { -1.0, -5.55111512313e-17, 0.0, 1.0 },
        { -1.0, -1.66533453694e-16, -5.55111512313e-17, 1.0 },
        { -1.0, -3.33066907388e-16, -1.11022302463e-16, 1.0 },
        { -1.0, -4.4408920985e-16, -1.66533453694e-16, 1.0 },
        { -1.0, 1.11022302463e-16, 5.55111512313e-17, 1.0 },
        { -1.0, -5.55111512313e-17, 0.0, 1.0 },
        { -1.0, -1.66533453694e-16, -5.55111512313e-17, 1.0 },
        { -1.0, -3.33066907388e-16, -1.11022302463e-16, 1.0 },
        { -1.0, -4.4408920985e-16, -1.66533453694e-16, 1.0 },
        { -1.0, 1.11022302463e-16, 5.55111512313e-17, 1.0 },
        { -1.0, -5.55111512313e-17, 0.0, 1.0 },
        { -1.0, -1.66533453694e-16, -5.55111512313e-17, 1.0 },
        { -1.0, -3.33066907388e-16, -1.11022302463e-16, 1.0 },
        { -1.0, -4.4408920985e-16, -1.66533453694e-16, 1.0 },
        { -1.0, 1.66533453694e-16, 1.11022302463e-16, 1.0 },
        { -1.0, -5.55111512313e-17, 0.0, 1.0 },
        { -1.0, -1.66533453694e-16, -5.55111512313e-17, 1.0 },
        { -1.0, -3.33066907388e-16, -1.11022302463e-16, 1.0 },
        { -1.0, -4.4408920985e-16, -1.66533453694e-16, 1.0 },
        { -1.0, 1.11022302463e-16, 5.55111512313e-17, 1.0 },
        { -1.0, 5.55111512313e-17, 0.0, 1.0 },
        { -1.0, -1.66533453694e-16, -5.55111512313e-17, 1.0 },
        { -1.0, -3.33066907388e-16, -1.11022302463e-16, 1.0 },
        { -1.0, -4.4408920985e-16, -1.66533453694e-16, 1.0 },
        { -1.0, 1.66533453694e-16, 1.11022302463e-16, 1.0 },
        { -1.0, 5.55111512313e-17, 0.0, 1.0 },
        { -1.0, -1.66533453694e-16, -5.55111512313e-17, 1.0 },
        { -1.0, -3.33066907388e-16, -1.11022302463e-16, 1.0 },
        { -1.0, -4.4408920985e-16, -1.66533453694e-16, 1.0 },
        { -1.0, 1.11022302463e-16, 5.55111512313e-17, 1.0 },
        { -1.0, -5.55111512313e-17, 0.0, 1.0 },
        { -1.0, -1.66533453694e-16, -5.55111512313e-17, 1.0 },
        { -1.0, -3.33066907388e-16, -1.11022302463e-16, 1.0 },
        { -1.0, -4.4408920985e-16, -1.66533453694e-16, 1.0 },
        { -1.0, 1.11022302463e-16, 5.55111512313e-17, 1.0 },
        { -1.0, -5.55111512313e-17, 0.0, 1.0 },
        { -1.0, -1.66533453694e-16, -5.55111512313e-17, 1.0 },
        { -1.0, -3.33066907388e-16, -1.11022302463e-16, 1.0 },
        { -1.0, -4.4408920985e-16, -1.66533453694e-16, 1.0 } } };
static const double FE0_C0_D010_Q125[1][125][3] =
    { { { -1.0, -5.55111512313e-17, 1.0 },
        { -1.0, -1.11022302463e-16, 1.0 },
        { -1.0, -2.22044604925e-16, 1.0 },
        { -1.0, -3.33066907388e-16, 1.0 },
        { -1.0, -3.33066907388e-16, 1.0 },
        { -1.0, -5.55111512313e-17, 1.0 },
        { -1.0, -1.11022302463e-16, 1.0 },
        { -1.0, -2.22044604925e-16, 1.0 },
        { -1.0, -3.33066907388e-16, 1.0 },
        { -1.0, -3.33066907388e-16, 1.0 },
        { -1.0, -5.55111512313e-17, 1.0 },
        { -1.0, -1.11022302463e-16, 1.0 },
        { -1.0, -1.66533453694e-16, 1.0 },
        { -1.0, -3.33066907388e-16, 1.0 },
        { -1.0, -3.33066907388e-16, 1.0 },
        { -1.0, -5.55111512313e-17, 1.0 },
        { -1.0, -1.11022302463e-16, 1.0 },
        { -1.0, -1.66533453694e-16, 1.0 },
        { -1.0, -3.33066907388e-16, 1.0 },
        { -1.0, -3.33066907388e-16, 1.0 },
        { -1.0, -5.55111512313e-17, 1.0 },
        { -1.0, -1.11022302463e-16, 1.0 },
        { -1.0, -1.66533453694e-16, 1.0 },
        { -1.0, -3.33066907388e-16, 1.0 },
        { -1.0, -3.33066907388e-16, 1.0 },
        { -1.0, -5.55111512313e-17, 1.0 },
        { -1.0, -1.11022302463e-16, 1.0 },
        { -1.0, -2.22044604925e-16, 1.0 },
        { -1.0, -3.33066907388e-16, 1.0 },
        { -1.0, -3.33066907388e-16, 1.0 },
        { -1.0, -5.55111512313e-17, 1.0 },
        { -1.0, -1.11022302463e-16, 1.0 },
        { -1.0, -2.22044604925e-16, 1.0 },
        { -1.0, -3.33066907388e-16, 1.0 },
        { -1.0, -3.33066907388e-16, 1.0 },
        { -1.0, -5.55111512313e-17, 1.0 },
        { -1.0, -1.11022302463e-16, 1.0 },
        { -1.0, -1.66533453694e-16, 1.0 },
        { -1.0, -3.33066907388e-16, 1.0 },
        { -1.0, -3.33066907388e-16, 1.0 },
        { -1.0, -5.55111512313e-17, 1.0 },
        { -1.0, -1.11022302463e-16, 1.0 },
        { -1.0, -2.22044604925e-16, 1.0 },
        { -1.0, -3.33066907388e-16, 1.0 },
        { -1.0, -3.33066907388e-16, 1.0 },
        { -1.0, -5.55111512313e-17, 1.0 },
        { -1.0, -1.11022302463e-16, 1.0 },
        { -1.0, -1.66533453694e-16, 1.0 },
        { -1.0, -3.33066907388e-16, 1.0 },
        { -1.0, -3.33066907388e-16, 1.0 },
        { -1.0, -5.55111512313e-17, 1.0 },
        { -1.0, -1.11022302463e-16, 1.0 },
        { -1.0, -2.22044604925e-16, 1.0 },
        { -1.0, -3.33066907388e-16, 1.0 },
        { -1.0, -3.33066907388e-16, 1.0 },
        { -1.0, -5.55111512313e-17, 1.0 },
        { -1.0, -1.11022302463e-16, 1.0 },
        { -1.0, -2.22044604925e-16, 1.0 },
        { -1.0, -3.33066907388e-16, 1.0 },
        { -1.0, -3.33066907388e-16, 1.0 },
        { -1.0, -5.55111512313e-17, 1.0 },
        { -1.0, -1.11022302463e-16, 1.0 },
        { -1.0, -1.66533453694e-16, 1.0 },
        { -1.0, -3.33066907388e-16, 1.0 },
        { -1.0, -3.88578058619e-16, 1.0 },
        { -1.0, -5.55111512313e-17, 1.0 },
        { -1.0, -1.11022302463e-16, 1.0 },
        { -1.0, -1.66533453694e-16, 1.0 },
        { -1.0, -3.33066907388e-16, 1.0 },
        { -1.0, -3.33066907388e-16, 1.0 },
        { -1.0, -5.55111512313e-17, 1.0 },
        { -1.0, -1.11022302463e-16, 1.0 },
        { -1.0, -1.66533453694e-16, 1.0 },
        { -1.0, -3.33066907388e-16, 1.0 },
        { -1.0, -3.33066907388e-16, 1.0 },
        { -1.0, -5.55111512313e-17, 1.0 },
        { -1.0, -1.11022302463e-16, 1.0 },
        { -1.0, -2.22044604925e-16, 1.0 },
        { -1.0, -3.33066907388e-16, 1.0 },
        { -1.0, -3.33066907388e-16, 1.0 },
        { -1.0, -5.55111512313e-17, 1.0 },
        { -1.0, -1.11022302463e-16, 1.0 },
        { -1.0, -2.22044604925e-16, 1.0 },
        { -1.0, -3.33066907388e-16, 1.0 },
        { -1.0, -3.33066907388e-16, 1.0 },
        { -1.0, -5.55111512313e-17, 1.0 },
        { -1.0, -1.11022302463e-16, 1.0 },
        { -1.0, -1.66533453694e-16, 1.0 },
        { -1.0, -3.33066907388e-16, 1.0 },
        { -1.0, -3.33066907388e-16, 1.0 },
        { -1.0, -5.55111512313e-17, 1.0 },
        { -1.0, -1.11022302463e-16, 1.0 },
        { -1.0, -1.66533453694e-16, 1.0 },
        { -1.0, -3.33066907388e-16, 1.0 },
        { -1.0, -3.33066907388e-16, 1.0 },
        { -1.0, -5.55111512313e-17, 1.0 },
        { -1.0, -1.11022302463e-16, 1.0 },
        { -1.0, -2.22044604925e-16, 1.0 },
        { -1.0, -3.33066907388e-16, 1.0 },
        { -1.0, -3.33066907388e-16, 1.0 },
        { -1.0, -5.55111512313e-17, 1.0 },
        { -1.0, -1.11022302463e-16, 1.0 },
        { -1.0, -2.22044604925e-16, 1.0 },
        { -1.0, -3.33066907388e-16, 1.0 },
        { -1.0, -3.33066907388e-16, 1.0 },
        { -1.0, -5.55111512313e-17, 1.0 },
        { -1.0, -1.11022302463e-16, 1.0 },
        { -1.0, -2.22044604925e-16, 1.0 },
        { -1.0, -3.33066907388e-16, 1.0 },
        { -1.0, -3.33066907388e-16, 1.0 },
        { -1.0, -5.55111512313e-17, 1.0 },
        { -1.0, -1.11022302463e-16, 1.0 },
        { -1.0, -1.66533453694e-16, 1.0 },
        { -1.0, -3.33066907388e-16, 1.0 },
        { -1.0, -3.33066907388e-16, 1.0 },
        { -1.0, -5.55111512313e-17, 1.0 },
        { -1.0, -1.11022302463e-16, 1.0 },
        { -1.0, -1.66533453694e-16, 1.0 },
        { -1.0, -3.33066907388e-16, 1.0 },
        { -1.0, -3.33066907388e-16, 1.0 },
        { -1.0, -5.55111512313e-17, 1.0 },
        { -1.0, -1.11022302463e-16, 1.0 },
        { -1.0, -1.66533453694e-16, 1.0 },
        { -1.0, -3.33066907388e-16, 1.0 },
        { -1.0, -3.33066907388e-16, 1.0 } } };
static const double FE0_C0_D100_Q125[1][125][2] =
    { { { -1.0, 1.0 },
        { -1.0, 1.0 },
        { -1.0, 1.0 },
        { -1.0, 1.0 },
        { -1.0, 1.0 },
        { -1.0, 1.0 },
        { -1.0, 1.0 },
        { -1.0, 1.0 },
        { -1.0, 1.0 },
        { -1.0, 1.0 },
        { -1.0, 1.0 },
        { -1.0, 1.0 },
        { -1.0, 1.0 },
        { -1.0, 1.0 },
        { -1.0, 1.0 },
        { -1.0, 1.0 },
        { -1.0, 1.0 },
        { -1.0, 1.0 },
        { -1.0, 1.0 },
        { -1.0, 1.0 },
        { -1.0, 1.0 },
        { -1.0, 1.0 },
        { -1.0, 1.0 },
        { -1.0, 1.0 },
        { -1.0, 1.0 },
        { -1.0, 1.0 },
        { -1.0, 1.0 },
        { -1.0, 1.0 },
        { -1.0, 1.0 },
        { -1.0, 1.0 },
        { -1.0, 1.0 },
        { -1.0, 1.0 },
        { -1.0, 1.0 },
        { -1.0, 1.0 },
        { -1.0, 1.0 },
        { -1.0, 1.0 },
        { -1.0, 1.0 },
        { -1.0, 1.0 },
        { -1.0, 1.0 },
        { -1.0, 1.0 },
        { -1.0, 1.0 },
        { -1.0, 1.0 },
        { -1.0, 1.0 },
        { -1.0, 1.0 },
        { -1.0, 1.0 },
        { -1.0, 1.0 },
        { -1.0, 1.0 },
        { -1.0, 1.0 },
        { -1.0, 1.0 },
        { -1.0, 1.0 },
        { -1.0, 1.0 },
        { -1.0, 1.0 },
        { -1.0, 1.0 },
        { -1.0, 1.0 },
        { -1.0, 1.0 },
        { -1.0, 1.0 },
        { -1.0, 1.0 },
        { -1.0, 1.0 },
        { -1.0, 1.0 },
        { -1.0, 1.0 },
        { -1.0, 1.0 },
        { -1.0, 1.0 },
        { -1.0, 1.0 },
        { -1.0, 1.0 },
        { -1.0, 1.0 },
        { -1.0, 1.0 },
        { -1.0, 1.0 },
        { -1.0, 1.0 },
        { -1.0, 1.0 },
        { -1.0, 1.0 },
        { -1.0, 1.0 },
        { -1.0, 1.0 },
        { -1.0, 1.0 },
        { -1.0, 1.0 },
        { -1.0, 1.0 },
        { -1.0, 1.0 },
        { -1.0, 1.0 },
        { -1.0, 1.0 },
        { -1.0, 1.0 },
        { -1.0, 1.0 },
        { -1.0, 1.0 },
        { -1.0, 1.0 },
        { -1.0, 1.0 },
        { -1.0, 1.0 },
        { -1.0, 1.0 },
        { -1.0, 1.0 },
        { -1.0, 1.0 },
        { -1.0, 1.0 },
        { -1.0, 1.0 },
        { -1.0, 1.0 },
        { -1.0, 1.0 },
        { -1.0, 1.0 },
        { -1.0, 1.0 },
        { -1.0, 1.0 },
        { -1.0, 1.0 },
        { -1.0, 1.0 },
        { -1.0, 1.0 },
        { -1.0, 1.0 },
        { -1.0, 1.0 },
        { -1.0, 1.0 },
        { -1.0, 1.0 },
        { -1.0, 1.0 },
        { -1.0, 1.0 },
        { -1.0, 1.0 },
        { -1.0, 1.0 },
        { -1.0, 1.0 },
        { -1.0, 1.0 },
        { -1.0, 1.0 },
        { -1.0, 1.0 },
        { -1.0, 1.0 },
        { -1.0, 1.0 },
        { -1.0, 1.0 },
        { -1.0, 1.0 },
        { -1.0, 1.0 },
        { -1.0, 1.0 },
        { -1.0, 1.0 },
        { -1.0, 1.0 },
        { -1.0, 1.0 },
        { -1.0, 1.0 },
        { -1.0, 1.0 },
        { -1.0, 1.0 },
        { -1.0, 1.0 },
        { -1.0, 1.0 },
        { -1.0, 1.0 },
        { -1.0, 1.0 } } };
static const double FE1_C0_Q125[1][125][10] =
    { { { 0.677651385532, -0.0397031660797, -0.0354790412347, -0.0321875337465, 0.00531592754484, 0.00601467027474, 0.00668509426891, 0.12220234951, 0.135823609448, 0.153676704482 },
        { 0.387856517182, -0.0344566541638, -0.0307383325091, -0.113289477382, 0.0228325293423, 0.0258337109326, 0.00489982304341, 0.524873356032, 0.099551573193, 0.112636954329 },
        { 0.0651520171919, -0.0259706778395, -0.0231086697816, -0.0858635974275, 0.0378790777498, 0.0428580263847, 0.00266990266678, 0.870762864852, 0.0542454305788, 0.0613756256251 },
        { -0.110672538127, -0.0159280095029, -0.0141333119883, 0.170424436369, 0.0369363048369, 0.0417913323474, 0.000959056987115, 0.849090435339, 0.0194855265187, 0.0220467672199 },
        { -0.0991479726823, -0.00661888574964, -0.00585919230167, 0.597532333803, 0.0201853395363, 0.0228385659267, 0.000159122079653, 0.464019852826, 0.00323294396938, 0.00365789259324 },
        { 0.35115993197, -0.0336820137711, -0.118077197088, -0.0321875337465, 0.0264413152994, 0.00502367670787, 0.0277729106341, 0.102067955322, 0.564272815831, 0.107208138841 },
        { 0.166485956767, -0.0291609440101, -0.110091494893, -0.113289477382, 0.113568535751, 0.0215772778826, 0.0203560850504, 0.438393782674, 0.413582342232, 0.0785779359281 },
        { -0.0313856207168, -0.0218995359045, -0.09162024012, -0.0858635974275, 0.188409760966, 0.0357966204396, 0.0110919854206, 0.727293587581, 0.225360097431, 0.0428169423315 },
        { -0.123259167722, -0.0133783318084, -0.0619213666662, 0.170424436369, 0.183720427705, 0.0349056778368, 0.00398435727676, 0.709191966982, 0.080951706123, 0.0153802939039 },
        { -0.0879258080237, -0.00554072800988, -0.0277535590856, 0.597532333803, 0.10040146759, 0.0190756211806, 0.000661065217685, 0.387566669518, 0.0134311141077, 0.0025518237024 },
        { 0.0177253911135, -0.0241572747358, -0.0652595091979, -0.0321875337465, 0.0584840672684, 0.00352054874473, 0.0430491507553, 0.0715283313163, 0.874646011568, 0.0526508169136 },
        { -0.0507072246192, -0.0208412114214, -0.0999143296912, -0.113289477382, 0.251195895862, 0.0151211678182, 0.0315527668549, 0.307222532627, 0.641069596017, 0.0385902839347 },
        { -0.11319928324, -0.0155679467427, -0.124407329288, -0.0858635974275, 0.416733018367, 0.025085958847, 0.0171930324062, 0.509680991772, 0.349317395512, 0.0210277597938 },
        { -0.119140564163, -0.00945478319694, -0.108854935406, 0.170424436369, 0.406360944258, 0.0244615940552, 0.00617591722127, 0.496995534211, 0.12547846521, 0.00755339144178 },
        { -0.0670532863963, -0.00389606166056, -0.0567234221049, 0.597532333803, 0.222072393824, 0.0133680286586, 0.00102467820496, 0.271603335806, 0.0208187778246, 0.00125322204081 },
        { -0.123174301249, -0.0134113789015, 0.230182647427, -0.0321875337465, 0.0928673941832, 0.00190762423058, 0.0370401509933, 0.0387579289156, 0.752558872029, 0.0154585961181 },
        { -0.124795870134, -0.0115286565516, 0.0860094490831, -0.113289477382, 0.398876298585, 0.00819346875055, 0.0271484855812, 0.166469828971, 0.551586133922, 0.0113303391742 },
        { -0.114366932369, -0.00856402179742, -0.0642304995808, -0.0858635974275, 0.661734234527, 0.0135929329243, 0.0147931493464, 0.276172801535, 0.300558056254, 0.00617387658875 },
        { -0.0836055421621, -0.00516925988494, -0.124962882173, 0.170424436369, 0.645264321612, 0.0132546182206, 0.00531385410362, 0.269299132691, 0.107963600123, 0.00221772110037 },
        { -0.039493578621, -0.00211875374858, -0.0821261585519, 0.597532333803, 0.352630818917, 0.00724352288047, 0.000881648877284, 0.147169416491, 0.0179127964336, 0.000367953519261 },
        { -0.0742249656146, -0.00442262762728, 0.644527340423, -0.0321875337465, 0.120375266907, 0.000617227802144, 0.0155345759127, 0.0125404526199, 0.315621902524, 0.0016183607996 },
        { -0.0655708056649, -0.00379122127793, 0.36520542593, -0.113289477382, 0.517025822975, 0.00265106546026, 0.0113860283737, 0.0538627078708, 0.231334280234, 0.0011861734808 },
        { -0.0507314745513, -0.00280421494922, 0.0549952189161, -0.0858635974275, 0.857743837904, 0.00439810733114, 0.00620422150954, 0.0893580237505, 0.126053534228, 0.000646343288641 },
        { -0.0319821899922, -0.0016845025101, -0.112316360034, 0.170424436369, 0.836395439142, 0.00428864277429, 0.00222862131357, 0.0871339906075, 0.0452797490546, 0.000232173275363 },
        { -0.0135965919524, -0.000687522410447, -0.0982128569779, 0.597532333803, 0.457082158062, 0.00234370251521, 0.000369762029722, 0.0476178977115, 0.00751259615699, 3.85210627857e-05 },
        { 0.303869742064, -0.12239598459, -0.0354790412347, -0.0321875337465, 0.00531592754484, 0.0295880447987, 0.0328860701713, 0.0986289749859, 0.109622633546, 0.61015116646 },
        { 0.134887288422, -0.116059235099, -0.0307383325091, -0.113289477382, 0.0228325293423, 0.127084106273, 0.0241037624827, 0.423622960691, 0.0803476337537, 0.447208764024 },
        { -0.04448962763, -0.0986364671878, -0.0231086697816, -0.0858635974275, 0.0378790777498, 0.210832040117, 0.0131340865092, 0.702788851119, 0.0437812467364, 0.243683059795 },
        { -0.124193144215, -0.0678941422088, -0.0141333119883, 0.170424436369, 0.0369363048369, 0.205584638427, 0.00471790136501, 0.685297129259, 0.0157266821408, 0.0875335060137 },
        { -0.0858073223122, -0.0308247779214, -0.00585919230167, 0.597532333803, 0.0201853395363, 0.112350050944, 0.000782771291888, 0.374508367808, 0.00260929475714, 0.0145231343949 },
        { 0.113856014608, -0.114824393538, -0.118077197088, -0.0321875337465, 0.0264413152994, 0.0247130374063, 0.136623636292, 0.0823785946236, 0.455422090173, 0.425654435971 },
        { 0.0100888557121, -0.106168256116, -0.110091494893, -0.113289477382, 0.113568535751, 0.106145380455, 0.100137950858, 0.353825680101, 0.333800476424, 0.31198234909 },
        { -0.0930517568994, -0.0874149447728, -0.09162024012, -0.0858635974275, 0.188409760966, 0.17609477508, 0.0545649464626, 0.586995432941, 0.181887136389, 0.169998487382 },
        { -0.12380786287, -0.0585145790109, -0.0619213666662, 0.170424436369, 0.183720427705, 0.171711949681, 0.0196002999689, 0.572385695138, 0.0653357634309, 0.0610652362545 },
        { -0.0750005711613, -0.0260457887339, -0.0277535590856, 0.597532333803, 0.10040146759, 0.0938389484831, 0.00325198662309, 0.312803342215, 0.0108401927023, 0.0101316475641 },
        { -0.0689680280637, -0.0938555051869, -0.0652595091979, -0.0321875337465, 0.0584840672684, 0.0173186806952, 0.21177224069, 0.0577301993658, 0.705922921634, 0.209042466542 },
        { -0.101961128009, -0.0842141745826, -0.0999143296912, -0.113289477382, 0.251195895862, 0.0743857552247, 0.155217931587, 0.24795794522, 0.517404431285, 0.153217150486 },
        { -0.124620776265, -0.0666063780815, -0.124407329288, -0.0858635974275, 0.416733018367, 0.123405679826, 0.0845779053253, 0.411361270793, 0.281932522593, 0.083487684158 },
        { -0.108104492267, -0.0429271137702, -0.108854935406, 0.170424436369, 0.406360944258, 0.120334234079, 0.0303812689756, 0.401122894187, 0.101273113456, 0.0299896501195 },
        { -0.0561005440374, -0.0185713191446, -0.0567234221049, 0.597532333803, 0.222072393824, 0.0657615152208, 0.0050407126655, 0.219209849244, 0.0168027433641, 0.00497573716599 },
        { -0.123863212649, -0.0586399952744, 0.230182647427, -0.0321875337465, 0.0928673941832, 0.00938420039925, 0.182212090918, 0.0312813527469, 0.607386932105, 0.0613761238903 },
        { -0.118642598591, -0.0513370646748, 0.0860094490831, -0.113289477382, 0.398876298585, 0.0403062361484, 0.133551894102, 0.134357061573, 0.4451827254, 0.0449854757548 },
        { -0.102069833084, -0.039199730071, -0.0642304995808, -0.0858635974275, 0.661734234527, 0.0668678896663, 0.0727721297398, 0.222897844793, 0.24257907586, 0.0245124855775 },
        { -0.0709852770155, -0.0243769453534, -0.124962882173, 0.170424436369, 0.645264321612, 0.0652036137952, 0.0261405107994, 0.217350137116, 0.0871369434275, 0.00880514142228 },
        { -0.0324570586983, -0.0102482264731, -0.0821261585519, 0.597532333803, 0.352630818917, 0.0356331552185, 0.00433710665527, 0.118779784153, 0.0144573386557, 0.00146090632108 },
        { -0.0624662889903, -0.0209884113391, 0.644527340423, -0.0321875337465, 0.120375266907, 0.0030363366613, 0.076419438978, 0.0101213437608, 0.254737039459, 0.00642546788699 },
        { -0.0547979943904, -0.0180873896109, 0.36520542593, -0.113289477382, 0.517025822975, 0.013041420397, 0.0560114357414, 0.0434723529341, 0.186708872866, 0.00470953053927 },
        { -0.0419674243418, -0.0134881345751, 0.0549952189161, -0.0858635974275, 0.857743837904, 0.02163566593, 0.0305205066247, 0.0721204651517, 0.101737249113, 0.00256621270496 },
        { -0.0261798960981, -0.00817643359623, -0.112316360034, 0.170424436369, 0.836395439142, 0.0210971755283, 0.0109632854759, 0.0703254578535, 0.0365450848923, 0.00092181046738 },
        { -0.0110346752072, -0.00336386041082, -0.0982128569779, 0.597532333803, 0.457082158062, 0.0115294059104, 0.00181897510595, 0.0384321943163, 0.00606338308076, 0.000152942317908 },
        { -0.0338407154377, -0.0338407154377, -0.0354790412347, -0.0321875337465, 0.00531592754484, 0.0641085098923, 0.0712543518586, 0.0641085098923, 0.0712543518586, 0.85930635481 },
        { -0.0818948079001, -0.0818948079001, -0.0307383325091, -0.113289477382, 0.0228325293423, 0.275353533482, 0.0522256981182, 0.275353533482, 0.0522256981182, 0.629826433148 },
        { -0.12131702806, -0.12131702806, -0.0231086697816, -0.0858635974275, 0.0378790777498, 0.456810445618, 0.0284576666228, 0.456810445618, 0.0284576666228, 0.343191021098 },
        { -0.113915793899, -0.113915793899, -0.0141333119883, 0.170424436369, 0.0369363048369, 0.445440883843, 0.0102222917529, 0.445440883843, 0.0102222917529, 0.123277807388 },
        { -0.0612813106002, -0.0612813106002, -0.00585919230167, 0.597532333803, 0.0201853395363, 0.243429209376, 0.00169603302452, 0.243429209376, 0.00169603302452, 0.0204536553617 },
        { -0.0873921698118, -0.0873921698118, -0.118077197088, -0.0321875337465, 0.0264413152994, 0.053545816015, 0.296022863232, 0.053545816015, 0.296022863232, 0.599470396664 },
        { -0.11173868598, -0.11173868598, -0.110091494893, -0.113289477382, 0.113568535751, 0.229985530278, 0.216969213641, 0.229985530278, 0.216969213641, 0.439380320645 },
        { -0.124942786359, -0.124942786359, -0.09162024012, -0.0858635974275, 0.188409760966, 0.38154510401, 0.118226041426, 0.38154510401, 0.118226041426, 0.239417358428 },
        { -0.103629213527, -0.103629213527, -0.0619213666662, 0.170424436369, 0.183720427705, 0.372048822409, 0.0424680316999, 0.372048822409, 0.0424680316999, 0.0860012214282 },
        { -0.052591808753, -0.052591808753, -0.0277535590856, 0.597532333803, 0.10040146759, 0.203321145349, 0.00704608966271, 0.203321145349, 0.00704608966271, 0.0142689051748 },
        { -0.124093005298, -0.124093005298, -0.0652595091979, -0.0321875337465, 0.0584840672684, 0.0375244400305, 0.458847581162, 0.0375244400305, 0.458847581162, 0.294404943887 },
        { -0.124370757915, -0.124370757915, -0.0999143296912, -0.113289477382, 0.251195895862, 0.161171850222, 0.336311181436, 0.161171850222, 0.336311181436, 0.215783363723 },
        { -0.112659672317, -0.112659672317, -0.124407329288, -0.0858635974275, 0.416733018367, 0.267383475309, 0.183255213959, 0.267383475309, 0.183255213959, 0.117579874446 },
        { -0.0816389388372, -0.0816389388372, -0.108854935406, 0.170424436369, 0.406360944258, 0.260728564133, 0.0658271912156, 0.260728564133, 0.0658271912156, 0.0422359217565 },
        { -0.0383518525618, -0.0383518525618, -0.0567234221049, 0.597532333803, 0.222072393824, 0.142485682233, 0.0109217280148, 0.142485682233, 0.0109217280148, 0.00700757910765 },
        { -0.103783072021, -0.103783072021, 0.230182647427, -0.0321875337465, 0.0928673941832, 0.0203327765731, 0.394799511511, 0.0203327765731, 0.394799511511, 0.0864390600095 },
        { -0.0941747396531, -0.0941747396531, 0.0860094490831, -0.113289477382, 0.398876298585, 0.0873316488608, 0.289367309751, 0.0873316488608, 0.289367309751, 0.0633552917952 },
        { -0.0756396175074, -0.0756396175074, -0.0642304995808, -0.0858635974275, 0.661734234527, 0.14488286723, 0.1576756028, 0.14488286723, 0.1576756028, 0.034522157437 },
        { -0.0494789006423, -0.0494789006423, -0.124962882173, 0.170424436369, 0.645264321612, 0.141276875456, 0.0566387271134, 0.141276875456, 0.0566387271134, 0.012400720338 },
        { -0.0216509230854, -0.0216509230854, -0.0821261585519, 0.597532333803, 0.352630818917, 0.077206469686, 0.00939722265546, 0.077206469686, 0.00939722265546, 0.00205746732038 },
        { -0.0430392698574, -0.0430392698574, 0.644527340423, -0.0321875337465, 0.120375266907, 0.00657884021104, 0.165578239218, 0.00657884021104, 0.165578239218, 0.00904930727241 },
        { -0.0374042602423, -0.0374042602423, 0.36520542593, -0.113289477382, 0.517025822975, 0.0282568866655, 0.121360154304, 0.0282568866655, 0.121360154304, 0.00663266702258 },
        { -0.0282517358524, -0.0282517358524, 0.0549952189161, -0.0858635974275, 0.857743837904, 0.0468780655408, 0.0661288778686, 0.0468780655408, 0.0661288778686, 0.0036141254928 },
        { -0.0173663754687, -0.0173663754687, -0.112316360034, 0.170424436369, 0.836395439142, 0.0457113166909, 0.0237541851841, 0.0457113166909, 0.0237541851841, 0.00129823171059 },
        { -0.00723049480168, -0.00723049480168, -0.0982128569779, 0.597532333803, 0.457082158062, 0.0249808001134, 0.00394117909335, 0.0249808001134, 0.00394117909335, 0.000215396303281 },
        { -0.12239598459, 0.303869742064, -0.0354790412347, -0.0321875337465, 0.00531592754484, 0.0986289749859, 0.109622633546, 0.0295880447987, 0.0328860701713, 0.61015116646 },
        { -0.116059235099, 0.134887288422, -0.0307383325091, -0.113289477382, 0.0228325293423, 0.423622960691, 0.0803476337537, 0.127084106273, 0.0241037624827, 0.447208764024 },
        { -0.0986364671878, -0.04448962763, -0.0231086697816, -0.0858635974275, 0.0378790777498, 0.702788851119, 0.0437812467364, 0.210832040117, 0.0131340865092, 0.243683059795 },
        { -0.0678941422088, -0.124193144215, -0.0141333119883, 0.170424436369, 0.0369363048369, 0.685297129259, 0.0157266821408, 0.205584638427, 0.00471790136501, 0.0875335060137 },
        { -0.0308247779214, -0.0858073223122, -0.00585919230167, 0.597532333803, 0.0201853395363, 0.374508367808, 0.00260929475714, 0.112350050944, 0.000782771291888, 0.0145231343949 },
        { -0.114824393538, 0.113856014608, -0.118077197088, -0.0321875337465, 0.0264413152994, 0.0823785946236, 0.455422090173, 0.0247130374063, 0.136623636292, 0.425654435971 },
        { -0.106168256116, 0.0100888557121, -0.110091494893, -0.113289477382, 0.113568535751, 0.353825680101, 0.333800476424, 0.106145380455, 0.100137950858, 0.31198234909 },
        { -0.0874149447728, -0.0930517568994, -0.09162024012, -0.0858635974275, 0.188409760966, 0.586995432941, 0.181887136389, 0.17609477508, 0.0545649464626, 0.169998487382 },
        { -0.0585145790109, -0.12380786287, -0.0619213666662, 0.170424436369, 0.183720427705, 0.572385695138, 0.0653357634309, 0.171711949681, 0.0196002999689, 0.0610652362545 },
        { -0.0260457887339, -0.0750005711613, -0.0277535590856, 0.597532333803, 0.10040146759, 0.312803342215, 0.0108401927023, 0.0938389484831, 0.00325198662309, 0.0101316475641 },
        { -0.0938555051869, -0.0689680280637, -0.0652595091979, -0.0321875337465, 0.0584840672684, 0.0577301993658, 0.705922921634, 0.0173186806952, 0.21177224069, 0.209042466542 },
        { -0.0842141745826, -0.101961128009, -0.0999143296912, -0.113289477382, 0.251195895862, 0.24795794522, 0.517404431285, 0.0743857552247, 0.155217931587, 0.153217150486 },
        { -0.0666063780815, -0.124620776265, -0.124407329288, -0.0858635974275, 0.416733018367, 0.411361270793, 0.281932522593, 0.123405679826, 0.0845779053253, 0.083487684158 },
        { -0.0429271137702, -0.108104492267, -0.108854935406, 0.170424436369, 0.406360944258, 0.401122894187, 0.101273113456, 0.120334234079, 0.0303812689755, 0.0299896501195 },
        { -0.0185713191446, -0.0561005440374, -0.0567234221049, 0.597532333803, 0.222072393824, 0.219209849244, 0.0168027433641, 0.0657615152208, 0.0050407126655, 0.00497573716599 },
        { -0.0586399952744, -0.123863212649, 0.230182647427, -0.0321875337465, 0.0928673941832, 0.0312813527469, 0.607386932105, 0.00938420039925, 0.182212090918, 0.0613761238903 },
        { -0.0513370646748, -0.118642598591, 0.0860094490831, -0.113289477382, 0.398876298585, 0.134357061573, 0.4451827254, 0.0403062361484, 0.133551894102, 0.0449854757548 },
        { -0.039199730071, -0.102069833084, -0.0642304995808, -0.0858635974275, 0.661734234527, 0.222897844793, 0.24257907586, 0.0668678896663, 0.0727721297398, 0.0245124855775 },
        { -0.0243769453534, -0.0709852770155, -0.124962882173, 0.170424436369, 0.645264321612, 0.217350137116, 0.0871369434275, 0.0652036137952, 0.0261405107994, 0.00880514142228 },
        { -0.0102482264731, -0.0324570586983, -0.0821261585519, 0.597532333803, 0.352630818917, 0.118779784153, 0.0144573386557, 0.0356331552185, 0.00433710665527, 0.00146090632108 },
        { -0.0209884113391, -0.0624662889903, 0.644527340423, -0.0321875337465, 0.120375266907, 0.0101213437608, 0.254737039459, 0.0030363366613, 0.076419438978, 0.00642546788699 },
        { -0.0180873896109, -0.0547979943904, 0.36520542593, -0.113289477382, 0.517025822975, 0.0434723529341, 0.186708872866, 0.013041420397, 0.0560114357414, 0.00470953053927 },
        { -0.0134881345751, -0.0419674243418, 0.0549952189161, -0.0858635974275, 0.857743837904, 0.0721204651517, 0.101737249113, 0.02163566593, 0.0305205066247, 0.00256621270496 },
        { -0.00817643359623, -0.0261798960981, -0.112316360034, 0.170424436369, 0.836395439142, 0.0703254578535, 0.0365450848923, 0.0210971755283, 0.0109632854759, 0.00092181046738 },
        { -0.00336386041082, -0.0110346752072, -0.0982128569779, 0.597532333803, 0.457082158062, 0.0384321943163, 0.00606338308076, 0.0115294059104, 0.00181897510595, 0.000152942317908 },
        { -0.0397031660797, 0.677651385532, -0.0354790412347, -0.0321875337465, 0.00531592754484, 0.12220234951, 0.135823609448, 0.00601467027474, 0.00668509426891, 0.153676704482 },
        { -0.0344566541638, 0.387856517182, -0.0307383325091, -0.113289477382, 0.0228325293423, 0.524873356032, 0.099551573193, 0.0258337109326, 0.00489982304341, 0.112636954329 },
        { -0.0259706778395, 0.0651520171919, -0.0231086697816, -0.0858635974275, 0.0378790777498, 0.870762864852, 0.0542454305788, 0.0428580263847, 0.00266990266678, 0.0613756256251 },
        { -0.0159280095029, -0.110672538127, -0.0141333119883, 0.170424436369, 0.0369363048369, 0.849090435339, 0.0194855265187, 0.0417913323474, 0.000959056987115, 0.0220467672199 },
        { -0.00661888574964, -0.0991479726823, -0.00585919230167, 0.597532333803, 0.0201853395363, 0.464019852826, 0.00323294396938, 0.0228385659267, 0.000159122079653, 0.00365789259324 },
        { -0.0336820137711, 0.35115993197, -0.118077197088, -0.0321875337465, 0.0264413152994, 0.102067955322, 0.564272815831, 0.00502367670787, 0.0277729106341, 0.107208138841 },
        { -0.0291609440101, 0.166485956767, -0.110091494893, -0.113289477382, 0.113568535751, 0.438393782674, 0.413582342232, 0.0215772778826, 0.0203560850504, 0.0785779359281 },
        { -0.0218995359045, -0.0313856207168, -0.09162024012, -0.0858635974275, 0.188409760966, 0.727293587581, 0.225360097431, 0.0357966204396, 0.0110919854206, 0.0428169423315 },
        { -0.0133783318084, -0.123259167722, -0.0619213666662, 0.170424436369, 0.183720427705, 0.709191966982, 0.080951706123, 0.0349056778368, 0.00398435727676, 0.0153802939039 },
        { -0.00554072800988, -0.0879258080237, -0.0277535590856, 0.597532333803, 0.10040146759, 0.387566669518, 0.0134311141077, 0.0190756211806, 0.000661065217685, 0.0025518237024 },
        { -0.0241572747358, 0.0177253911135, -0.0652595091979, -0.0321875337465, 0.0584840672684, 0.0715283313163, 0.874646011568, 0.00352054874473, 0.0430491507553, 0.0526508169136 },
        { -0.0208412114214, -0.0507072246192, -0.0999143296912, -0.113289477382, 0.251195895862, 0.307222532627, 0.641069596017, 0.0151211678182, 0.0315527668549, 0.0385902839347 },
        { -0.0155679467427, -0.11319928324, -0.124407329288, -0.0858635974275, 0.416733018367, 0.509680991772, 0.349317395512, 0.025085958847, 0.0171930324062, 0.0210277597938 },
        { -0.00945478319694, -0.119140564163, -0.108854935406, 0.170424436369, 0.406360944258, 0.496995534211, 0.12547846521, 0.0244615940552, 0.00617591722127, 0.00755339144178 },
        { -0.00389606166056, -0.0670532863963, -0.0567234221049, 0.597532333803, 0.222072393824, 0.271603335806, 0.0208187778246, 0.0133680286586, 0.00102467820496, 0.00125322204081 },
        { -0.0134113789015, -0.123174301249, 0.230182647427, -0.0321875337465, 0.0928673941832, 0.0387579289156, 0.752558872029, 0.00190762423058, 0.0370401509933, 0.0154585961181 },
        { -0.0115286565516, -0.124795870134, 0.0860094490831, -0.113289477382, 0.398876298585, 0.166469828971, 0.551586133922, 0.00819346875056, 0.0271484855812, 0.0113303391742 },
        { -0.00856402179742, -0.114366932369, -0.0642304995808, -0.0858635974275, 0.661734234527, 0.276172801535, 0.300558056254, 0.0135929329243, 0.0147931493464, 0.00617387658875 },
        { -0.00516925988494, -0.0836055421621, -0.124962882173, 0.170424436369, 0.645264321612, 0.269299132691, 0.107963600123, 0.0132546182206, 0.00531385410362, 0.00221772110037 },
        { -0.00211875374858, -0.039493578621, -0.0821261585519, 0.597532333803, 0.352630818917, 0.147169416491, 0.0179127964336, 0.00724352288047, 0.000881648877284, 0.000367953519261 },
        { -0.00442262762728, -0.0742249656146, 0.644527340423, -0.0321875337465, 0.120375266907, 0.0125404526199, 0.315621902524, 0.000617227802144, 0.0155345759127, 0.0016183607996 },
        { -0.00379122127793, -0.0655708056649, 0.36520542593, -0.113289477382, 0.517025822975, 0.0538627078708, 0.231334280234, 0.00265106546026, 0.0113860283737, 0.0011861734808 },
        { -0.00280421494922, -0.0507314745513, 0.0549952189161, -0.0858635974275, 0.857743837904, 0.0893580237505, 0.126053534228, 0.00439810733114, 0.00620422150954, 0.000646343288641 },
        { -0.0016845025101, -0.0319821899922, -0.112316360034, 0.170424436369, 0.836395439142, 0.0871339906075, 0.0452797490546, 0.00428864277429, 0.00222862131357, 0.000232173275363 },
        { -0.000687522410447, -0.0135965919524, -0.0982128569779, 0.597532333803, 0.457082158062, 0.0476178977115, 0.00751259615699, 0.00234370251521, 0.000369762029722, 3.85210627857e-05 } } };
static const double FE2_C0_D001_Q125[1][125][10] =
    { { { -2.53401086901, -1.19348975147e-15, -3.05311331772e-16, -0.861684240327, 0.153733097585, 0.173940273732, -1.58206781009e-15, 3.39569510934, -0.153733097585, -0.173940273732 },
        { -2.02554983584, -1.66533453694e-15, -1.11022302463e-16, -0.306078716913, 0.131614521121, 0.148914359956, -1.19348975147e-15, 2.33162855275, -0.131614521121, -0.148914359956 },
        { -1.23337591088, -2.05391259556e-15, 6.24500451352e-16, 0.559545548262, 0.0971541428643, 0.109924397995, -9.2287288922e-16, 0.673830362616, -0.0971541428643, -0.109924397995 },
        { -0.338555305647, -2.35922392733e-15, 1.19348975147e-15, 1.53733389052, 0.0582285287323, 0.0658822750975, -6.93889390391e-16, -1.19877858488, -0.0582285287323, -0.0658822750975 },
        { 0.454770511953, -2.44249065418e-15, 1.49880108324e-15, 2.40421685179, 0.023718041964, 0.0268356182007, -2.22044604925e-16, -2.85898736374, -0.023718041964, -0.0268356182007 },
        { -1.95173754787, -1.7763568394e-15, -1.11022302463e-16, -0.861684240327, 0.764665295176, 0.145281397282, -2.08166817117e-15, 2.8134217882, -0.764665295176, -0.145281397282 },
        { -1.52705194874, -1.85962356625e-15, 3.1918911958e-16, -0.306078716913, 0.654647946495, 0.124378821682, -1.66533453694e-15, 1.83313066565, -0.654647946495, -0.124378821682 },
        { -0.865398771819, -2.32452945781e-15, 7.91033905045e-16, 0.559545548262, 0.483242727153, 0.0918129527656, -1.36696209907e-15, 0.305853223557, -0.483242727153, -0.0918129527656 },
        { -0.11801126313, -2.41473507856e-15, 1.22124532709e-15, 1.53733389052, 0.289627515545, 0.0550273308013, -9.71445146547e-16, -1.41932262739, -0.289627515545, -0.0550273308013 },
        { 0.544604017439, -2.44249065418e-15, 1.49880108324e-15, 2.40421685179, 0.117973057489, 0.0224141081619, -4.4408920985e-16, -2.94882086923, -0.117973057489, -0.0224141081618 },
        { -1.06855188405, -1.52655665886e-15, 3.05311331772e-16, -0.861684240327, 1.69132042239, 0.101811933884, -2.85882428841e-15, 1.93023612438, -1.69132042239, -0.101811933884 },
        { -0.77093592668, -1.81799020282e-15, 6.38378239159e-16, -0.306078716913, 1.4479791987, 0.0871635915299, -2.59514632006e-15, 1.07701464359, -1.4479791987, -0.0871635915299 },
        { -0.307255161197, -2.10942374679e-15, 1.02695629778e-15, 0.559545548262, 1.06885757542, 0.0643417151232, -2.18575157973e-15, -0.252290387065, -1.06885757542, -0.0643417151232 },
        { 0.216507474925, -2.38697950294e-15, 1.36002320517e-15, 1.53733389052, 0.640610911753, 0.0385626726487, -1.4155343564e-15, -1.75384136545, -0.640610911753, -0.0385626726487 },
        { 0.680862474241, -2.44249065418e-15, 1.55431223448e-15, 2.40421685179, 0.260938011287, 0.0157076111665, -6.10622663544e-16, -3.08507932603, -0.260938011287, -0.0157076111665 },
        { -0.120853589129, -5.82867087928e-16, 8.32667268469e-16, -0.861684240327, 2.68566342412, 0.0551672270779, -4.0800696155e-15, 0.982537829456, -2.68566342412, -0.0551672270779 },
        { 0.0404108764002, -9.85322934355e-16, 1.09634523682e-15, -0.306078716913, 2.29925963251, 0.0472299608054, -3.83026943496e-15, 0.265667840513, -2.29925963251, -0.0472299608054 },
        { 0.291658260722, -1.75554015769e-15, 1.29757316003e-15, 0.559545548262, 1.69724888193, 0.0348638305293, -3.08780778724e-15, -0.851203808984, -1.69724888193, -0.0348638305293 },
        { 0.575461260819, -2.19269047363e-15, 1.36002320517e-15, 1.53733389052, 1.01723202299, 0.0208953473094, -2.02615701994e-15, -2.11279515134, -1.01723202299, -0.0208953473094 },
        { 0.827073981595, -2.22044604925e-15, 1.55431223448e-15, 2.40421685179, 0.414345894248, 0.00851123555971, -8.32667268469e-16, -3.23129083338, -0.414345894248, -0.0085112355597 },
        { 0.637338430571, 9.99200722163e-16, 1.60982338571e-15, -0.861684240327, 3.48117285238, 0.0178498185197, -5.10702591328e-15, 0.224345809756, -3.48117285238, -0.0178498185197 },
        { 0.689516899489, 1.38777878078e-17, 1.62370117351e-15, -0.306078716913, 2.98031396688, 0.0152816495177, -4.46864767412e-15, -0.383438182576, -2.98031396688, -0.0152816495177 },
        { 0.770810095672, -9.08995101412e-16, 1.47798440153e-15, 0.559545548262, 2.19998406295, 0.0112804844617, -3.75394160201e-15, -1.33035564393, -2.19998406295, -0.0112804844617 },
        { 0.862636934094, -1.85962356625e-15, 1.58206781009e-15, 1.53733389052, 1.31854217888, 0.00676086468605, -2.63677968348e-15, -2.39997082462, -1.31854217888, -0.00676086468605 },
        { 0.944048337947, -2.22044604925e-15, 1.60982338571e-15, 2.40421685179, 0.537077604585, 0.00275388157366, -1.05471187339e-15, -3.34826518974, -0.537077604585, -0.00275388157365 },
        { -1.85228451824, -4.16333634234e-16, -3.60822483003e-16, -0.861684240327, 0.153733097585, 0.855666624502, -1.36002320517e-15, 2.71396875857, -0.153733097585, -0.855666624502 },
        { -1.44190787063, -1.2351231149e-15, -1.38777878078e-17, -0.306078716913, 0.131614521121, 0.732556325164, -1.01307850997e-15, 1.74798658754, -0.131614521121, -0.732556325164 },
        { -0.802547804782, -2.03309591384e-15, 6.17561557448e-16, 0.559545548262, 0.0971541428643, 0.540752504092, -8.67361737988e-16, 0.24300225652, -0.0971541428643, -0.540752504092 },
        { -0.080342057967, -2.38697950294e-15, 1.13797860024e-15, 1.53733389052, 0.0582285287323, 0.324095522777, -6.10622663544e-16, -1.45699183256, -0.0582285287323, -0.324095522777 },
        { 0.559947695328, -2.49800180541e-15, 1.44328993201e-15, 2.40421685179, 0.023718041964, 0.132012801576, -2.22044604925e-16, -2.96416454712, -0.023718041964, -0.132012801576 },
        { -1.38233429997, -1.27675647832e-15, -1.94289029309e-16, -0.861684240327, 0.764665295176, 0.714684645186, -2.08166817117e-15, 2.24401854029, -0.764665295176, -0.714684645186 },
        { -1.03957243408, -1.73472347598e-15, 2.91433543964e-16, -0.306078716913, 0.654647946495, 0.611858336339, -1.70696790036e-15, 1.34565115099, -0.654647946495, -0.611858336339 },
        { -0.505555085826, -2.1371793224e-15, 7.6327832943e-16, 0.559545548262, 0.483242727153, 0.451656638758, -1.38777878078e-15, -0.053990462436, -0.483242727153, -0.451656638758 },
        { 0.0976580618337, -2.47024622979e-15, 1.22124532709e-15, 1.53733389052, 0.289627515545, 0.270696655765, -9.43689570931e-16, -1.63499195236, -0.289627515545, -0.270696655765 },
        { 0.632451919682, -2.44249065418e-15, 1.49880108324e-15, 2.40421685179, 0.117973057489, 0.110262010405, -4.4408920985e-16, -3.03666877147, -0.117973057489, -0.110262010405 },
        { -0.669519062828, -1.27675647832e-15, 2.22044604925e-16, -0.861684240327, 1.69132042239, 0.500844755107, -3.08086889333e-15, 1.53120330316, -1.69132042239, -0.500844755106 },
        { -0.429314541944, -1.52655665886e-15, 6.52256026967e-16, -0.306078716913, 1.4479791987, 0.428784976266, -2.74780198595e-15, 0.735393258858, -1.4479791987, -0.428784976266 },
        { -0.055079850028, -2.07472927727e-15, 9.64506252643e-16, 0.559545548262, 1.06885757542, 0.316517026293, -2.28983498829e-15, -0.504465698234, -1.06885757542, -0.316517026293 },
        { 0.367646653545, -2.33146835171e-15, 1.33226762955e-15, 1.53733389052, 0.640610911753, 0.189701851268, -1.47104550763e-15, -1.90498054407, -0.640610911753, -0.189701851268 },
        { 0.742425516601, -2.55351295664e-15, 1.55431223448e-15, 2.40421685179, 0.260938011287, 0.0772706535264, -5.55111512313e-16, -3.14664236839, -0.260938011287, -0.0772706535264 },
        { 0.0953640331102, -2.49800180541e-16, 8.881784197e-16, -0.861684240327, 2.68566342412, 0.271384849317, -4.24660306919e-15, 0.766320207217, -2.68566342412, -0.271384849317 },
        { 0.225519868907, -7.77156117238e-16, 8.881784197e-16, -0.306078716913, 2.29925963251, 0.232338953312, -3.94129173742e-15, 0.0805588480063, -2.29925963251, -0.232338953312 },
        { 0.428300519876, -1.72084568817e-15, 1.30451205393e-15, 0.559545548262, 1.69724888193, 0.171506089683, -3.10862446895e-15, -0.987846068138, -1.69724888193, -0.171506089683 },
        { 0.65735666413, -2.19269047363e-15, 1.36002320517e-15, 1.53733389052, 1.01723202299, 0.10279075062, -2.02615701994e-15, -2.19469055465, -1.01723202299, -0.10279075062 },
        { 0.860432176533, -2.22044604925e-15, 1.55431223448e-15, 2.40421685179, 0.414345894248, 0.0418694304974, -7.77156117238e-16, -3.26464902832, -0.414345894248, -0.0418694304974 },
        { 0.707297453748, 1.02695629778e-15, 1.63757896132e-15, -0.861684240327, 3.48117285238, 0.0878088416963, -4.85722573274e-15, 0.154386786579, -3.48117285238, -0.0878088416963 },
        { 0.749410464883, 1.52655665886e-16, 1.48492329544e-15, -0.306078716913, 2.98031396688, 0.075175214912, -4.4408920985e-15, -0.44333174797, -2.98031396688, -0.075175214912 },
        { 0.815021843429, -1.02001740387e-15, 1.47798440153e-15, 0.559545548262, 2.19998406295, 0.0554922322187, -3.75394160201e-15, -1.37456739169, -2.19998406295, -0.0554922322187 },
        { 0.889134877966, -1.85962356625e-15, 1.58206781009e-15, 1.53733389052, 1.31854217888, 0.0332588085583, -2.52575738102e-15, -2.42646876849, -1.31854217888, -0.0332588085583 },
        { 0.954841661399, -2.22044604925e-15, 1.60982338571e-15, 2.40421685179, 0.537077604585, 0.0135472050253, -1.11022302463e-15, -3.35905851319, -0.537077604585, -0.0135472050253 },
        { -0.853975571371, -1.11022302463e-15, -4.4408920985e-16, -0.861684240327, 0.153733097585, 1.85397557137, -1.44328993201e-15, 1.7156598117, -0.153733097585, -1.85397557137 },
        { -0.587232097896, -1.47104550763e-15, -8.32667268469e-17, -0.306078716913, 0.131614521121, 1.5872320979, -1.02695629778e-15, 0.893310814809, -0.131614521121, -1.5872320979 },
        { -0.171650154437, -2.19269047363e-15, 5.6898930012e-16, 0.559545548262, 0.0971541428643, 1.17165015444, -8.53483950181e-16, -0.387895393825, -0.0971541428643, -1.17165015444 },
        { 0.297781209628, -2.38697950294e-15, 1.13797860024e-15, 1.53733389052, 0.0582285287323, 0.702218790372, -4.71844785466e-16, -1.83511510015, -0.0582285287323, -0.702218790372 },
        { 0.713967446876, -2.44249065418e-15, 1.44328993201e-15, 2.40421685179, 0.023718041964, 0.286032553124, -2.22044604925e-16, -3.11818429866, -0.023718041964, -0.286032553124 },
        { -0.548509472576, -1.2490009027e-15, -2.22044604925e-16, -0.861684240327, 0.764665295176, 1.54850947258, -2.3037127761e-15, 1.4101937129, -0.764665295176, -1.54850947258 },
        { -0.325715385209, -1.69309011255e-15, 2.22044604925e-16, -0.306078716913, 0.654647946495, 1.32571538521, -1.85962356625e-15, 0.631794102122, -0.654647946495, -1.32571538521 },
        { 0.0213941377078, -2.15799600412e-15, 7.14706072102e-16, 0.559545548262, 0.483242727153, 0.978605862292, -1.38777878078e-15, -0.58093968597, -0.483242727153, -0.978605862292 },
        { 0.413480703034, -2.33146835171e-15, 1.16573417586e-15, 1.53733389052, 0.289627515545, 0.586519296966, -8.60422844084e-16, -1.95081459356, -0.289627515545, -0.586519296966 },
        { 0.761094954639, -2.44249065418e-15, 1.44328993201e-15, 2.40421685179, 0.117973057489, 0.238905045362, -3.33066907388e-16, -3.16531180643, -0.117973057489, -0.238905045361 },
        { -0.0851819089673, -9.71445146547e-16, 1.94289029309e-16, -0.861684240327, 1.69132042239, 1.08518190897, -3.38618022511e-15, 0.946866149294, -1.69132042239, -1.08518190897 },
        { 0.0709502408949, -1.45716771982e-15, 5.55111512313e-16, -0.306078716913, 1.4479791987, 0.929049759105, -2.92821322745e-15, 0.235128476018, -1.4479791987, -0.929049759105 },
        { 0.31420156184, -1.949829187e-15, 9.78384040451e-16, 0.559545548262, 1.06885757542, 0.68579843816, -2.3037127761e-15, -0.873747110102, -1.06885757542, -0.68579843816 },
        { 0.588972401138, -2.38697950294e-15, 1.33226762955e-15, 1.53733389052, 0.640610911753, 0.411027598862, -1.44328993201e-15, -2.12630629166, -0.640610911753, -0.411027598862 },
        { 0.832577431537, -2.49800180541e-15, 1.60982338571e-15, 2.40421685179, 0.260938011287, 0.167422568463, -6.10622663544e-16, -3.23679428333, -0.260938011287, -0.167422568463 },
        { 0.411989591897, 5.55111512313e-17, 9.43689570931e-16, -0.861684240327, 2.68566342412, 0.588010408103, -4.63518112781e-15, 0.449694648431, -2.68566342412, -0.588010408103 },
        { 0.496590457797, -6.80011602583e-16, 9.29811783124e-16, -0.306078716913, 2.29925963251, 0.503409542203, -3.88578058619e-15, -0.190511740884, -2.29925963251, -0.503409542203 },
        { 0.628397215096, -1.63064006742e-15, 1.31145094784e-15, 0.559545548262, 1.69724888193, 0.371602784904, -3.07392999943e-15, -1.18794276336, -1.69724888193, -0.371602784904 },
        { 0.777282956755, -2.08166817117e-15, 1.36002320517e-15, 1.53733389052, 1.01723202299, 0.222717043245, -2.02615701994e-15, -2.31461684728, -1.01723202299, -0.222717043245 },
        { 0.909281373018, -2.22044604925e-15, 1.55431223448e-15, 2.40421685179, 0.414345894248, 0.0907186269822, -7.77156117238e-16, -3.31349822481, -0.414345894248, -0.0907186269822 },
        { 0.809744306026, 1.13797860024e-15, 1.63757896132e-15, -0.861684240327, 3.48117285238, 0.190255693974, -5.07927033766e-15, 0.0519399343014, -3.48117285238, -0.190255693974 },
        { 0.837117624986, 1.66533453694e-16, 1.49880108324e-15, -0.306078716913, 2.98031396688, 0.162882375014, -4.42701431069e-15, -0.531038908072, -2.98031396688, -0.162882375014 },
        { 0.879764805605, -1.01307850997e-15, 1.48492329544e-15, 0.559545548262, 2.19998406295, 0.120235194395, -3.85802501057e-15, -1.43931035387, -2.19998406295, -0.120235194395 },
        { 0.927938034704, -1.85962356625e-15, 1.58206781009e-15, 1.53733389052, 1.31854217888, 0.0720619652962, -2.52575738102e-15, -2.46527192523, -1.31854217888, -0.0720619652961 },
        { 0.970647228187, -2.22044604925e-15, 1.60982338571e-15, 2.40421685179, 0.537077604585, 0.0293527718133, -1.05471187339e-15, -3.37486407997, -0.537077604585, -0.0293527718133 },
        { 0.144333375498, -2.41473507856e-15, -5.27355936697e-16, -0.861684240327, 0.153733097585, 2.85228451824, -1.97064586871e-15, 0.717350864829, -0.153733097585, -2.85228451824 },
        { 0.267443674836, -2.58126853225e-15, -1.38777878078e-16, -0.306078716913, 0.131614521121, 2.44190787063, -1.47104550763e-15, 0.0386350420776, -0.131614521121, -2.44190787063 },
        { 0.459247495908, -2.75474087985e-15, 5.48172618409e-16, 0.559545548262, 0.0971541428643, 1.80254780478, -9.64506252643e-16, -1.01879304417, -0.0971541428643, -1.80254780478 },
        { 0.675904477223, -2.63677968348e-15, 1.11022302463e-15, 1.53733389052, 0.0582285287323, 1.08034205797, -4.4408920985e-16, -2.21323836775, -0.0582285287323, -1.08034205797 },
        { 0.867987198424, -2.44249065418e-15, 1.38777878078e-15, 2.40421685179, 0.023718041964, 0.440052304672, -1.11022302463e-16, -3.27220405021, -0.023718041964, -0.440052304672 },
        { 0.285315354814, -1.91513471748e-15, -2.77555756156e-16, -0.861684240327, 0.764665295176, 2.38233429997, -2.80331313718e-15, 0.576368885513, -0.764665295176, -2.38233429997 },
        { 0.388141663661, -2.35922392733e-15, 1.66533453694e-16, -0.306078716913, 0.654647946495, 2.03957243408, -2.1233015346e-15, -0.0820629467478, -0.654647946495, -2.03957243408 },
        { 0.548343361242, -2.47024622979e-15, 6.66133814775e-16, 0.559545548262, 0.483242727153, 1.50555508583, -1.48492329544e-15, -1.1078889095, -0.483242727153, -1.50555508583 },
        { 0.729303344235, -2.49800180541e-15, 1.11022302463e-15, 1.53733389052, 0.289627515545, 0.902341938166, -8.881784197e-16, -2.26663723476, -0.289627515545, -0.902341938166 },
        { 0.889737989595, -2.55351295664e-15, 1.38777878078e-15, 2.40421685179, 0.117973057489, 0.367548080318, -2.77555756156e-16, -3.29395484138, -0.117973057489, -0.367548080318 },
        { 0.499155244894, -1.16573417586e-15, 1.38777878078e-16, -0.861684240327, 1.69132042239, 1.66951906283, -3.94129173742e-15, 0.362528995434, -1.69132042239, -1.66951906283 },
        { 0.571215023734, -1.60982338571e-15, 5.55111512313e-16, -0.306078716913, 1.4479791987, 1.42931454194, -3.27515792264e-15, -0.265136306821, -1.4479791987, -1.42931454194 },
        { 0.683482973707, -2.01921812604e-15, 9.36750677027e-16, 0.559545548262, 1.06885757542, 1.05507985003, -2.41473507856e-15, -1.24302852197, -1.06885757542, -1.05507985003 },
        { 0.810298148732, -2.38697950294e-15, 1.33226762955e-15, 1.53733389052, 0.640610911753, 0.632353346455, -1.36002320517e-15, -2.34763203926, -0.640610911753, -0.632353346455 },
        { 0.922729346474, -2.55351295664e-15, 1.49880108324e-15, 2.40421685179, 0.260938011287, 0.257574483399, -5.55111512313e-16, -3.32694619826, -0.260938011287, -0.257574483399 },
        { 0.728615150683, 2.22044604925e-16, 7.77156117238e-16, -0.861684240327, 2.68566342412, 0.90463596689, -4.91273688397e-15, 0.133069089644, -2.68566342412, -0.90463596689 },
        { 0.767661046688, -6.93889390391e-16, 9.15933995316e-16, -0.306078716913, 2.29925963251, 0.774480131093, -4.24660306919e-15, -0.461582329775, -2.29925963251, -0.774480131093 },
        { 0.828493910317, -1.56819002228e-15, 1.31838984174e-15, 0.559545548262, 1.69724888193, 0.571699480124, -3.28903571045e-15, -1.38803945858, -1.69724888193, -0.571699480124 },
        { 0.89720924938, -1.97064586871e-15, 1.36002320517e-15, 1.53733389052, 1.01723202299, 0.34264333587, -2.1371793224e-15, -2.4345431399, -1.01723202299, -0.34264333587 },
        { 0.958130569503, -2.33146835171e-15, 1.55431223448e-15, 2.40421685179, 0.414345894248, 0.139567823467, -7.77156117238e-16, -3.36234742129, -0.414345894248, -0.139567823467 },
        { 0.912191158304, 1.36002320517e-15, 1.63757896132e-15, -0.861684240327, 3.48117285238, 0.292702546252, -5.30131494259e-15, -0.0505069179766, -3.48117285238, -0.292702546252 },
        { 0.924824785088, 2.91433543964e-16, 1.51267887105e-15, -0.306078716913, 2.98031396688, 0.250589535117, -4.41313652288e-15, -0.618746068175, -2.98031396688, -0.250589535117 },
        { 0.944507767781, -9.50628464835e-16, 1.6028844918e-15, 0.559545548262, 2.19998406295, 0.184978156571, -4.04537514598e-15, -1.50405331604, -2.19998406295, -0.184978156571 },
        { 0.966741191442, -1.85962356625e-15, 1.58206781009e-15, 1.53733389052, 1.31854217888, 0.110865122034, -2.52575738102e-15, -2.50407508197, -1.31854217888, -0.110865122034 },
        { 0.986452794975, -2.33146835171e-15, 1.60982338571e-15, 2.40421685179, 0.537077604585, 0.0451583386013, -9.99200722163e-16, -3.39066964676, -0.537077604585, -0.0451583386013 },
        { 0.826059726268, -4.05231403988e-15, -5.55111512313e-16, -0.861684240327, 0.153733097585, 3.53401086901, -2.38697950294e-15, 0.0356245140591, -0.153733097585, -3.53401086901 },
        { 0.851085640044, -3.49720252757e-15, -1.38777878078e-16, -0.306078716913, 0.131614521121, 3.02554983584, -1.79023462721e-15, -0.545006923131, -0.131614521121, -3.02554983584 },
        { 0.890075602005, -3.38618022511e-15, 5.13478148889e-16, 0.559545548262, 0.0971541428643, 2.23337591088, -9.08995101412e-16, -1.44962115027, -0.0971541428643, -2.23337591088 },
        { 0.934117724903, -2.94209101526e-15, 1.08246744901e-15, 1.53733389052, 0.0582285287323, 1.33855530565, -3.88578058619e-16, -2.47145161543, -0.0582285287323, -1.33855530565 },
        { 0.973164381799, -2.33146835171e-15, 1.38777878078e-15, 2.40421685179, 0.023718041964, 0.545229488047, -1.11022302463e-16, -3.37738123359, -0.023718041964, -0.545229488047 },
        { 0.854718602718, -2.96984659087e-15, -3.05311331772e-16, -0.861684240327, 0.764665295176, 2.95173754787, -3.30291349826e-15, 0.00696563760962, -0.764665295176, -2.95173754787 },
        { 0.875621178318, -2.80331313718e-15, 1.11022302463e-16, -0.306078716913, 0.654647946495, 2.52705194874, -2.45636844198e-15, -0.569542461405, -0.654647946495, -2.52705194874 },
        { 0.908187047234, -2.96984659087e-15, 6.38378239159e-16, 0.559545548262, 0.483242727153, 1.86539877182, -1.67921232475e-15, -1.4677325955, -0.483242727153, -1.86539877182 },
        { 0.944972669199, -2.6645352591e-15, 1.11022302463e-15, 1.53733389052, 0.289627515545, 1.11801126313, -8.60422844084e-16, -2.48230655972, -0.289627515545, -1.11801126313 },
        { 0.977585891838, -2.55351295664e-15, 1.38777878078e-15, 2.40421685179, 0.117973057489, 0.455395982561, -2.22044604925e-16, -3.38180274363, -0.117973057489, -0.455395982561 },
        { 0.898188066116, -1.49880108324e-15, 2.77555756156e-17, -0.861684240327, 1.69132042239, 2.06855188405, -4.16333634234e-15, -0.036503825789, -1.69132042239, -2.06855188405 },
        { 0.91283640847, -1.69309011255e-15, 4.71844785466e-16, -0.306078716913, 1.4479791987, 1.77093592668, -3.41393580072e-15, -0.606757691557, -1.4479791987, -1.77093592668 },
        { 0.935658284877, -2.15799600412e-15, 8.67361737988e-16, 0.559545548262, 1.06885757542, 1.3072551612, -2.54657406273e-15, -1.49520383314, -1.06885757542, -1.3072551612 },
        { 0.961437327351, -2.33146835171e-15, 1.27675647832e-15, 1.53733389052, 0.640610911753, 0.783492525075, -1.4155343564e-15, -2.49877121787, -0.640610911753, -0.783492525075 },
        { 0.984292388833, -2.44249065418e-15, 1.49880108324e-15, 2.40421685179, 0.260938011287, 0.319137525759, -5.55111512313e-16, -3.38850924062, -0.260938011287, -0.319137525759 },
        { 0.944832772922, 1.66533453694e-16, 7.77156117238e-16, -0.861684240327, 2.68566342412, 1.12085358913, -5.13478148889e-15, -0.0831485325949, -2.68566342412, -1.12085358913 },
        { 0.952770039195, -6.10622663544e-16, 8.881784197e-16, -0.306078716913, 2.29925963251, 0.9595891236, -4.24660306919e-15, -0.646691322281, -2.29925963251, -0.9595891236 },
        { 0.965136169471, -1.61676227961e-15, 1.32532873565e-15, 0.559545548262, 1.69724888193, 0.708341739278, -3.28209681655e-15, -1.52468171773, -1.69724888193, -0.708341739278 },
        { 0.979104652691, -2.19269047363e-15, 1.36002320517e-15, 1.53733389052, 1.01723202299, 0.424538739181, -2.19269047363e-15, -2.51643854321, -1.01723202299, -0.424538739181 },
        { 0.99148876444, -2.33146835171e-15, 1.55431223448e-15, 2.40421685179, 0.414345894248, 0.172926018405, -6.66133814775e-16, -3.39570561623, -0.414345894248, -0.172926018405 },
        { 0.98215018148, 1.38777878078e-15, 1.66533453694e-15, -0.861684240327, 3.48117285238, 0.362661569429, -5.49560397189e-15, -0.120465941153, -3.48117285238, -0.362661569429 },
        { 0.984718350482, 2.91433543964e-16, 1.51267887105e-15, -0.306078716913, 2.98031396688, 0.310483100511, -4.85722573274e-15, -0.678639633569, -2.98031396688, -0.310483100511 },
        { 0.988719515538, -1.00613961607e-15, 1.49186218934e-15, 0.559545548262, 2.19998406295, 0.229189904328, -3.85108611667e-15, -1.5482650638, -2.19998406295, -0.229189904328 },
        { 0.993239135314, -1.85962356625e-15, 1.58206781009e-15, 1.53733389052, 1.31854217888, 0.137363065906, -2.52575738102e-15, -2.53057302584, -1.31854217888, -0.137363065906 },
        { 0.997246118426, -2.33146835171e-15, 1.60982338571e-15, 2.40421685179, 0.537077604585, 0.0559516620529, -1.11022302463e-15, -3.40146297021, -0.537077604585, -0.0559516620529 } } };
static const double FE2_C0_D010_Q125[1][125][10] =
    { { { -2.53401086901, -2.44249065418e-15, -0.846266902415, -3.83903352643e-18, 0.138315759673, -3.33066907388e-16, 0.173940273732, -0.138315759673, 3.38027777142, -0.173940273732 },
        { -2.02554983584, -2.15626128064e-15, -0.868385478879, -1.9260184644e-17, 0.693921283087, -3.12250225676e-16, 0.148914359956, -0.693921283087, 2.89393531472, -0.148914359956 },
        { -1.23337591088, -1.19348975147e-15, -0.902845857136, -4.32860843908e-17, 1.55954554826, -3.88578058619e-16, 0.109924397995, -1.55954554826, 2.13622176801, -0.109924397995 },
        { -0.338555305647, -5.55111512313e-16, -0.941771471268, -7.04251626605e-17, 2.53733389052, -6.66133814775e-16, 0.0658822750975, -2.53733389052, 1.28032677691, -0.0658822750975 },
        { 0.454770511953, -6.66133814775e-16, -0.976281958036, -9.44859982418e-17, 3.40421685179, -4.4408920985e-16, 0.0268356182007, -3.40421685179, 0.521511446083, -0.0268356182006 },
        { -1.95173754787, -3.06699110553e-15, -0.235334704824, -3.83903352643e-18, 0.138315759673, -2.77555756156e-16, 0.145281397282, -0.138315759673, 2.18707225269, -0.145281397282 },
        { -1.52705194874, -2.32279473433e-15, -0.345352053505, -1.9260184644e-17, 0.693921283087, -3.13984949152e-16, 0.124378821682, -0.693921283087, 1.87240400224, -0.124378821682 },
        { -0.865398771819, -1.85962356625e-15, -0.516757272847, -4.32860843908e-17, 1.55954554826, -3.33066907388e-16, 0.0918129527656, -1.55954554826, 1.38215604467, -0.0918129527656 },
        { -0.11801126313, -9.99200722163e-16, -0.710372484455, -7.04251626605e-17, 2.53733389052, -4.4408920985e-16, 0.0550273308013, -2.53733389052, 0.828383747585, -0.0550273308013 },
        { 0.544604017439, -7.77156117238e-16, -0.882026942511, -9.44859982418e-17, 3.40421685179, -4.4408920985e-16, 0.0224141081618, -3.40421685179, 0.337422925072, -0.0224141081618 },
        { -1.06855188405, -3.23352455922e-15, 0.691320422393, -3.83903352643e-18, 0.138315759673, -2.22044604925e-16, 0.101811933884, -0.138315759673, 0.377231461658, -0.101811933884 },
        { -0.77093592668, -2.78162909373e-15, 0.447979198703, -1.9260184644e-17, 0.693921283087, -2.27248775353e-16, 0.0871635915299, -0.693921283087, 0.322956727977, -0.0871635915299 },
        { -0.307255161197, -2.08166817117e-15, 0.0688575754173, -4.32860843908e-17, 1.55954554826, -2.77555756156e-16, 0.0643417151232, -1.55954554826, 0.23839758578, -0.0643417151232 },
        { 0.216507474925, -1.33226762955e-15, -0.359389088247, -7.04251626605e-17, 2.53733389052, -4.4408920985e-16, 0.0385626726487, -2.53733389052, 0.142881613321, -0.0385626726487 },
        { 0.680862474241, -9.99200722163e-16, -0.739061988713, -9.44859982418e-17, 3.40421685179, -4.4408920985e-16, 0.0157076111665, -3.40421685179, 0.058199514472, -0.0157076111665 },
        { -0.120853589129, -3.27515792264e-15, 1.68566342412, -3.83903352643e-18, 0.138315759673, -2.77555756156e-16, 0.0551672270779, -0.138315759673, -1.56480983499, -0.0551672270779 },
        { 0.0404108764002, -3.04704178555e-15, 1.29925963251, -1.9260184644e-17, 0.693921283087, -3.12250225676e-16, 0.0472299608054, -0.693921283087, -1.33967050891, -0.0472299608054 },
        { 0.291658260722, -2.58126853225e-15, 0.697248881931, -4.32860843908e-17, 1.55954554826, -3.88578058619e-16, 0.0348638305293, -1.55954554826, -0.988907142652, -0.0348638305293 },
        { 0.575461260819, -1.83186799063e-15, 0.017232022986, -7.04251626605e-17, 2.53733389052, -2.22044604925e-16, 0.0208953473094, -2.53733389052, -0.592693283805, -0.0208953473094 },
        { 0.827073981595, -1.22124532709e-15, -0.585654105752, -9.44859982418e-17, 3.40421685179, -2.22044604925e-16, 0.00851123555971, -3.40421685179, -0.241419875843, -0.0085112355597 },
        { 0.637338430571, -3.08086889333e-15, 2.48117285238, -3.83903352643e-18, 0.138315759673, -3.88578058619e-16, 0.0178498185197, -0.138315759673, -3.11851128295, -0.0178498185197 },
        { 0.689516899489, -2.93601948309e-15, 1.98031396688, -1.9260184644e-17, 0.693921283087, -3.38271077815e-16, 0.0152816495177, -0.693921283087, -2.66983086637, -0.0152816495177 },
        { 0.770810095672, -2.77555756156e-15, 1.19998406295, -4.32860843908e-17, 1.55954554826, -3.88578058619e-16, 0.0112804844617, -1.55954554826, -1.97079415862, -0.0112804844617 },
        { 0.862636934094, -2.05391259556e-15, 0.318542178884, -7.04251626605e-17, 2.53733389052, -3.33066907388e-16, 0.00676086468605, -2.53733389052, -1.18117911298, -0.00676086468605 },
        { 0.944048337947, -1.33226762955e-15, -0.462922395415, -9.44859982418e-17, 3.40421685179, -2.22044604925e-16, 0.00275388157365, -3.40421685179, -0.481125942532, -0.00275388157365 },
        { -1.85228451824, -2.44249065418e-15, -0.846266902415, -3.83903352643e-18, 0.138315759673, -2.22044604925e-16, 0.855666624502, -0.138315759673, 2.69855142065, -0.855666624502 },
        { -1.44190787063, -1.98972782695e-15, -0.868385478879, -1.9260184644e-17, 0.693921283087, -2.44596010113e-16, 0.732556325164, -0.693921283087, 2.31029334951, -0.732556325164 },
        { -0.802547804782, -1.52655665886e-15, -0.902845857136, -4.32860843908e-17, 1.55954554826, -2.77555756156e-16, 0.540752504092, -1.55954554826, 1.70539366192, -0.540752504092 },
        { -0.080342057967, -7.21644966006e-16, -0.941771471268, -7.04251626605e-17, 2.53733389052, -5.55111512313e-16, 0.324095522777, -2.53733389052, 1.02211352923, -0.324095522777 },
        { 0.559947695328, -6.66133814775e-16, -0.976281958036, -9.44859982418e-17, 3.40421685179, -4.4408920985e-16, 0.132012801576, -3.40421685179, 0.416334262708, -0.132012801576 },
        { -1.38233429997, -3.06699110553e-15, -0.235334704824, -3.83903352643e-18, 0.138315759673, -2.77555756156e-16, 0.714684645186, -0.138315759673, 1.61766900479, -0.714684645186 },
        { -1.03957243408, -2.4338170368e-15, -0.345352053505, -1.9260184644e-17, 0.693921283087, -3.0184188482e-16, 0.611858336339, -0.693921283087, 1.38492448758, -0.611858336339 },
        { -0.505555085826, -1.74860126378e-15, -0.516757272847, -4.32860843908e-17, 1.55954554826, -2.77555756156e-16, 0.451656638758, -1.55954554826, 1.02231235867, -0.451656638758 },
        { 0.0976580618337, -1.11022302463e-15, -0.710372484455, -7.04251626605e-17, 2.53733389052, -4.4408920985e-16, 0.270696655765, -2.53733389052, 0.612714422621, -0.270696655765 },
        { 0.632451919682, -7.77156117238e-16, -0.882026942511, -9.44859982418e-17, 3.40421685179, -4.4408920985e-16, 0.110262010405, -3.40421685179, 0.249575022829, -0.110262010405 },
        { -0.669519062828, -3.13638004457e-15, 0.691320422393, -3.83903352643e-18, 0.138315759673, -2.22044604925e-16, 0.500844755107, -0.138315759673, -0.0218013595646, -0.500844755106 },
        { -0.429314541944, -2.81632356325e-15, 0.447979198703, -1.9260184644e-17, 0.693921283087, -2.51534904017e-16, 0.428784976266, -0.693921283087, -0.0186646567587, -0.428784976266 },
        { -0.055079850028, -2.22044604925e-15, 0.0688575754173, -4.32860843908e-17, 1.55954554826, -3.33066907388e-16, 0.316517026293, -1.55954554826, -0.0137777253893, -0.316517026293 },
        { 0.367646653545, -1.44328993201e-15, -0.359389088247, -7.04251626605e-17, 2.53733389052, -4.4408920985e-16, 0.189701851268, -2.53733389052, -0.00825756529822, -0.189701851268 },
        { 0.742425516601, -9.99200722163e-16, -0.739061988713, -9.44859982418e-17, 3.40421685179, -2.22044604925e-16, 0.0772706535264, -3.40421685179, -0.00336352788792, -0.0772706535264 },
        { 0.0953640331102, -3.21964677141e-15, 1.68566342412, -3.83903352643e-18, 0.138315759673, -3.33066907388e-16, 0.271384849317, -0.138315759673, -1.78102745723, -0.271384849317 },
        { 0.225519868907, -3.10255293678e-15, 1.29925963251, -1.9260184644e-17, 0.693921283087, -3.64291929955e-16, 0.232338953312, -0.693921283087, -1.52477950141, -0.232338953312 },
        { 0.428300519876, -2.52575738102e-15, 0.697248881931, -4.32860843908e-17, 1.55954554826, -3.33066907388e-16, 0.171506089683, -1.55954554826, -1.12554940181, -0.171506089683 },
        { 0.65735666413, -1.7763568394e-15, 0.017232022986, -7.04251626605e-17, 2.53733389052, -3.33066907388e-16, 0.10279075062, -2.53733389052, -0.674588687116, -0.10279075062 },
        { 0.860432176533, -1.22124532709e-15, -0.585654105752, -9.44859982418e-17, 3.40421685179, -2.22044604925e-16, 0.0418694304974, -3.40421685179, -0.274778070781, -0.0418694304974 },
        { 0.707297453748, -2.96984659087e-15, 2.48117285238, -3.83903352643e-18, 0.138315759673, -4.4408920985e-16, 0.0878088416963, -0.138315759673, -3.18847030613, -0.0878088416963 },
        { 0.749410464883, -2.93601948309e-15, 1.98031396688, -1.9260184644e-17, 0.693921283087, -4.25007251614e-16, 0.075175214912, -0.693921283087, -2.72972443177, -0.075175214912 },
        { 0.815021843429, -2.77555756156e-15, 1.19998406295, -4.32860843908e-17, 1.55954554826, -3.88578058619e-16, 0.0554922322187, -1.55954554826, -2.01500590638, -0.0554922322187 },
        { 0.889134877966, -2.05391259556e-15, 0.318542178884, -7.04251626605e-17, 2.53733389052, -3.33066907388e-16, 0.0332588085583, -2.53733389052, -1.20767705685, -0.0332588085583 },
        { 0.954841661399, -1.33226762955e-15, -0.462922395415, -9.44859982418e-17, 3.40421685179, -2.22044604925e-16, 0.0135472050253, -3.40421685179, -0.491919265984, -0.0135472050253 },
        { -0.853975571371, -2.77555756156e-15, -0.846266902415, -3.83903352643e-18, 0.138315759673, -1.66533453694e-16, 1.85397557137, -0.138315759673, 1.70024247379, -1.85397557137 },
        { -0.587232097896, -2.2672835831e-15, -0.868385478879, -1.9260184644e-17, 0.693921283087, -1.6826817717e-16, 1.5872320979, -0.693921283087, 1.45561757677, -1.5872320979 },
        { -0.171650154437, -1.69309011255e-15, -0.902845857136, -4.32860843908e-17, 1.55954554826, -3.33066907388e-16, 1.17165015444, -1.55954554826, 1.07449601157, -1.17165015444 },
        { 0.297781209628, -9.99200722163e-16, -0.941771471268, -7.04251626605e-17, 2.53733389052, -5.55111512313e-16, 0.702218790372, -2.53733389052, 0.64399026164, -0.702218790372 },
        { 0.713967446876, -7.77156117238e-16, -0.976281958036, -9.44859982418e-17, 3.40421685179, -4.4408920985e-16, 0.286032553124, -3.40421685179, 0.26231451116, -0.286032553124 },
        { -0.548509472576, -3.12250225676e-15, -0.235334704824, -3.83903352643e-18, 0.138315759673, -2.22044604925e-16, 1.54850947258, -0.138315759673, 0.7838441774, -1.54850947258 },
        { -0.325715385209, -2.57259491487e-15, -0.345352053505, -1.9260184644e-17, 0.693921283087, -2.86229373536e-16, 1.32571538521, -0.693921283087, 0.671067438714, -1.32571538521 },
        { 0.0213941377078, -1.88737914186e-15, -0.516757272847, -4.32860843908e-17, 1.55954554826, -2.77555756156e-16, 0.978605862292, -1.55954554826, 0.495363135139, -0.978605862292 },
        { 0.413480703034, -1.27675647832e-15, -0.710372484455, -7.04251626605e-17, 2.53733389052, -4.4408920985e-16, 0.586519296966, -2.53733389052, 0.29689178142, -0.586519296966 },
        { 0.761094954639, -8.881784197e-16, -0.882026942511, -9.44859982418e-17, 3.40421685179, -4.4408920985e-16, 0.238905045361, -3.40421685179, 0.120931987873, -0.238905045361 },
        { -0.0851819089673, -3.1918911958e-15, 0.691320422393, -3.83903352643e-18, 0.138315759673, -3.33066907388e-16, 1.08518190897, -0.138315759673, -0.606138513425, -1.08518190897 },
        { 0.0709502408949, -2.83020135106e-15, 0.447979198703, -1.9260184644e-17, 0.693921283087, -2.63677968348e-16, 0.929049759105, -0.693921283087, -0.518929439598, -0.929049759105 },
        { 0.31420156184, -2.24820162487e-15, 0.0688575754173, -4.32860843908e-17, 1.55954554826, -3.33066907388e-16, 0.68579843816, -1.55954554826, -0.383059137257, -0.68579843816 },
        { 0.588972401138, -1.55431223448e-15, -0.359389088247, -7.04251626605e-17, 2.53733389052, -4.4408920985e-16, 0.411027598862, -2.53733389052, -0.229583312892, -0.411027598862 },
        { 0.832577431537, -9.99200722163e-16, -0.739061988713, -9.44859982418e-17, 3.40421685179, 0.0, 0.167422568463, -3.40421685179, -0.0935154428241, -0.167422568463 },
        { 0.411989591897, -3.23352455922e-15, 1.68566342412, -3.83903352643e-18, 0.138315759673, -4.4408920985e-16, 0.588010408103, -0.138315759673, -2.09765301602, -0.588010408103 },
        { 0.496590457797, -2.88050833186e-15, 1.29925963251, -1.9260184644e-17, 0.693921283087, -3.79904441239e-16, 0.503409542203, -0.693921283087, -1.79585009031, -0.503409542203 },
        { 0.628397215096, -2.63677968348e-15, 0.697248881931, -4.32860843908e-17, 1.55954554826, -4.4408920985e-16, 0.371602784904, -1.55954554826, -1.32564609703, -0.371602784904 },
        { 0.777282956755, -1.88737914186e-15, 0.017232022986, -7.04251626605e-17, 2.53733389052, -3.33066907388e-16, 0.222717043245, -2.53733389052, -0.794514979741, -0.222717043245 },
        { 0.909281373018, -1.22124532709e-15, -0.585654105752, -9.44859982418e-17, 3.40421685179, -2.22044604925e-16, 0.0907186269822, -3.40421685179, -0.323627267265, -0.0907186269822 },
        { 0.809744306026, -3.08086889333e-15, 2.48117285238, -3.83903352643e-18, 0.138315759673, -4.4408920985e-16, 0.190255693974, -0.138315759673, -3.2909171584, -0.190255693974 },
        { 0.837117624986, -3.04704178555e-15, 1.98031396688, -1.9260184644e-17, 0.693921283087, -4.23272528138e-16, 0.162882375014, -0.693921283087, -2.81743159187, -0.162882375014 },
        { 0.879764805605, -2.99760216649e-15, 1.19998406295, -4.32860843908e-17, 1.55954554826, -4.4408920985e-16, 0.120235194395, -1.55954554826, -2.07974886855, -0.120235194395 },
        { 0.927938034704, -2.05391259556e-15, 0.318542178884, -7.04251626605e-17, 2.53733389052, -3.33066907388e-16, 0.0720619652962, -2.53733389052, -1.24648021359, -0.0720619652961 },
        { 0.970647228187, -1.33226762955e-15, -0.462922395415, -9.44859982418e-17, 3.40421685179, -2.22044604925e-16, 0.0293527718133, -3.40421685179, -0.507724832772, -0.0293527718133 },
        { 0.144333375498, -3.16413562018e-15, -0.846266902415, -3.83903352643e-18, 0.138315759673, -1.11022302463e-16, 2.85228451824, -0.138315759673, 0.701933526917, -2.85228451824 },
        { 0.267443674836, -2.65586164172e-15, -0.868385478879, -1.9260184644e-17, 0.693921283087, -9.36750677027e-17, 2.44190787063, -0.693921283087, 0.600941804043, -2.44190787063 },
        { 0.459247495908, -2.02615701994e-15, -0.902845857136, -4.32860843908e-17, 1.55954554826, -2.77555756156e-16, 1.80254780478, -1.55954554826, 0.443598361228, -1.80254780478 },
        { 0.675904477223, -1.27675647832e-15, -0.941771471268, -7.04251626605e-17, 2.53733389052, -5.55111512313e-16, 1.08034205797, -2.53733389052, 0.265866994045, -1.08034205797 },
        { 0.867987198424, -9.99200722163e-16, -0.976281958036, -9.44859982418e-17, 3.40421685179, -4.4408920985e-16, 0.440052304672, -3.40421685179, 0.108294759612, -0.440052304672 },
        { 0.285315354814, -3.40005801291e-15, -0.235334704824, -3.83903352643e-18, 0.138315759673, -2.22044604925e-16, 2.38233429997, -0.138315759673, -0.0499806499901, -2.38233429997 },
        { 0.388141663661, -3.01668412472e-15, -0.345352053505, -1.9260184644e-17, 0.693921283087, -2.68882138776e-16, 2.03957243408, -0.693921283087, -0.0427896101562, -2.03957243408 },
        { 0.548343361242, -2.24820162487e-15, -0.516757272847, -4.32860843908e-17, 1.55954554826, -2.77555756156e-16, 1.50555508583, -1.55954554826, -0.0315860883951, -1.50555508583 },
        { 0.729303344235, -1.49880108324e-15, -0.710372484455, -7.04251626605e-17, 2.53733389052, -4.4408920985e-16, 0.902341938166, -2.53733389052, -0.0189308597805, -0.902341938166 },
        { 0.889737989595, -9.99200722163e-16, -0.882026942511, -9.44859982418e-17, 3.40421685179, -4.4408920985e-16, 0.367548080318, -3.40421685179, -0.00771104708402, -0.367548080318 },
        { 0.499155244894, -3.46944695195e-15, 0.691320422393, -3.83903352643e-18, 0.138315759673, -3.33066907388e-16, 1.66951906283, -0.138315759673, -1.19047566729, -1.66951906283 },
        { 0.571215023734, -2.98285701694e-15, 0.447979198703, -1.9260184644e-17, 0.693921283087, -3.40005801291e-16, 1.42931454194, -0.693921283087, -1.01919422244, -1.42931454194 },
        { 0.683482973707, -2.47024622979e-15, 0.0688575754173, -4.32860843908e-17, 1.55954554826, -3.33066907388e-16, 1.05507985003, -1.55954554826, -0.752340549125, -1.05507985003 },
        { 0.810298148732, -1.66533453694e-15, -0.359389088247, -7.04251626605e-17, 2.53733389052, -4.4408920985e-16, 0.632353346455, -2.53733389052, -0.450909060485, -0.632353346455 },
        { 0.922729346474, -1.11022302463e-15, -0.739061988713, -9.44859982418e-17, 3.40421685179, -2.22044604925e-16, 0.257574483399, -3.40421685179, -0.18366735776, -0.257574483399 },
        { 0.728615150683, -3.21964677141e-15, 1.68566342412, -3.83903352643e-18, 0.138315759673, -4.4408920985e-16, 0.90463596689, -0.138315759673, -2.4142785748, -0.90463596689 },
        { 0.767661046688, -3.04704178555e-15, 1.29925963251, -1.9260184644e-17, 0.693921283087, -4.6143644461e-16, 0.774480131093, -0.693921283087, -2.0669206792, -0.774480131093 },
        { 0.828493910317, -2.69229083472e-15, 0.697248881931, -4.32860843908e-17, 1.55954554826, -4.4408920985e-16, 0.571699480124, -1.55954554826, -1.52574279225, -0.571699480124 },
        { 0.89720924938, -1.88737914186e-15, 0.017232022986, -7.04251626605e-17, 2.53733389052, -3.33066907388e-16, 0.34264333587, -2.53733389052, -0.914441272366, -0.34264333587 },
        { 0.958130569503, -1.33226762955e-15, -0.585654105752, -9.44859982418e-17, 3.40421685179, -2.22044604925e-16, 0.139567823467, -3.40421685179, -0.37247646375, -0.139567823467 },
        { 0.912191158304, -3.1918911958e-15, 2.48117285238, -3.83903352643e-18, 0.138315759673, -4.4408920985e-16, 0.292702546252, -0.138315759673, -3.39336401068, -0.292702546252 },
        { 0.924824785088, -3.04704178555e-15, 1.98031396688, -1.9260184644e-17, 0.693921283087, -4.19803081186e-16, 0.250589535117, -0.693921283087, -2.90513875197, -0.250589535117 },
        { 0.944507767781, -2.85882428841e-15, 1.19998406295, -4.32860843908e-17, 1.55954554826, -4.4408920985e-16, 0.184978156571, -1.55954554826, -2.14449183073, -0.184978156571 },
        { 0.966741191442, -2.05391259556e-15, 0.318542178884, -7.04251626605e-17, 2.53733389052, -3.33066907388e-16, 0.110865122034, -2.53733389052, -1.28528337033, -0.110865122034 },
        { 0.986452794975, -1.33226762955e-15, -0.462922395415, -9.44859982418e-17, 3.40421685179, -2.22044604925e-16, 0.0451583386013, -3.40421685179, -0.52353039956, -0.0451583386013 },
        { 0.826059726268, -4.27435864481e-15, -0.846266902415, -3.83903352643e-18, 0.138315759673, -5.55111512313e-17, 3.53401086901, -0.138315759673, 0.0202071761466, -3.53401086901 },
        { 0.851085640044, -3.26648430526e-15, -0.868385478879, -1.9260184644e-17, 0.693921283087, -2.42861286637e-17, 3.02554983584, -0.693921283087, 0.0172998388345, -3.02554983584 },
        { 0.890075602005, -2.69229083472e-15, -0.902845857136, -4.32860843908e-17, 1.55954554826, -2.22044604925e-16, 2.23337591088, -1.55954554826, 0.0127702551309, -2.23337591088 },
        { 0.934117724903, -1.49880108324e-15, -0.941771471268, -7.04251626605e-17, 2.53733389052, -5.55111512313e-16, 1.33855530565, -2.53733389052, 0.00765374636519, -1.33855530565 },
        { 0.973164381799, -9.99200722163e-16, -0.976281958036, -9.44859982418e-17, 3.40421685179, -4.4408920985e-16, 0.545229488047, -3.40421685179, 0.00311757623665, -0.545229488047 },
        { 0.854718602718, -3.78863607153e-15, -0.235334704824, -3.83903352643e-18, 0.138315759673, -2.22044604925e-16, 2.95173754787, -0.138315759673, -0.619383897893, -2.95173754787 },
        { 0.875621178318, -3.23872872965e-15, -0.345352053505, -1.9260184644e-17, 0.693921283087, -1.70002900646e-16, 2.52705194874, -0.693921283087, -0.530269124813, -2.52705194874 },
        { 0.908187047234, -2.69229083472e-15, -0.516757272847, -4.32860843908e-17, 1.55954554826, -2.22044604925e-16, 1.86539877182, -1.55954554826, -0.391429774388, -1.86539877182 },
        { 0.944972669199, -1.7763568394e-15, -0.710372484455, -7.04251626605e-17, 2.53733389052, -4.4408920985e-16, 1.11801126313, -2.53733389052, -0.234600184744, -1.11801126313 },
        { 0.977585891838, -1.11022302463e-15, -0.882026942511, -9.44859982418e-17, 3.40421685179, -2.22044604925e-16, 0.455395982561, -3.40421685179, -0.0955589493271, -0.455395982561 },
        { 0.898188066116, -3.66373598126e-15, 0.691320422393, -3.83903352643e-18, 0.138315759673, -3.33066907388e-16, 2.06855188405, -0.138315759673, -1.58950848851, -2.06855188405 },
        { 0.91283640847, -3.10081821331e-15, 0.447979198703, -1.9260184644e-17, 0.693921283087, -2.44596010113e-16, 1.77093592668, -0.693921283087, -1.36081560717, -1.77093592668 },
        { 0.935658284877, -2.72004641033e-15, 0.0688575754173, -4.32860843908e-17, 1.55954554826, -3.88578058619e-16, 1.3072551612, -1.55954554826, -1.00451586029, -1.3072551612 },
        { 0.961437327351, -1.88737914186e-15, -0.359389088247, -7.04251626605e-17, 2.53733389052, -4.4408920985e-16, 0.783492525075, -2.53733389052, -0.602048239105, -0.783492525075 },
        { 0.984292388833, -1.22124532709e-15, -0.739061988713, -9.44859982418e-17, 3.40421685179, -2.22044604925e-16, 0.319137525759, -3.40421685179, -0.24523040012, -0.319137525759 },
        { 0.944832772922, -3.38618022511e-15, 1.68566342412, -3.83903352643e-18, 0.138315759673, -4.99600361081e-16, 1.12085358913, -0.138315759673, -2.63049619704, -1.12085358913 },
        { 0.952770039195, -2.99153063432e-15, 1.29925963251, -1.9260184644e-17, 0.693921283087, -5.13478148889e-16, 0.9595891236, -0.693921283087, -2.2520296717, -0.9595891236 },
        { 0.965136169471, -2.80331313718e-15, 0.697248881931, -4.32860843908e-17, 1.55954554826, -4.99600361081e-16, 0.708341739278, -1.55954554826, -1.6623850514, -0.708341739278 },
        { 0.979104652691, -2.05391259556e-15, 0.017232022986, -7.04251626605e-17, 2.53733389052, -3.33066907388e-16, 0.424538739181, -2.53733389052, -0.996336675677, -0.424538739181 },
        { 0.99148876444, -1.33226762955e-15, -0.585654105752, -9.44859982418e-17, 3.40421685179, -2.22044604925e-16, 0.172926018405, -3.40421685179, -0.405834658688, -0.172926018405 },
        { 0.98215018148, -3.08086889333e-15, 2.48117285238, -3.83903352643e-18, 0.138315759673, -4.99600361081e-16, 0.362661569429, -0.138315759673, -3.46332303386, -0.362661569429 },
        { 0.984718350482, -2.93601948309e-15, 1.98031396688, -1.9260184644e-17, 0.693921283087, -4.75314232418e-16, 0.310483100511, -0.693921283087, -2.96503231737, -0.310483100511 },
        { 0.988719515538, -2.99760216649e-15, 1.19998406295, -4.32860843908e-17, 1.55954554826, -4.99600361081e-16, 0.229189904328, -1.55954554826, -2.18870357849, -0.229189904328 },
        { 0.993239135314, -2.05391259556e-15, 0.318542178884, -7.04251626605e-17, 2.53733389052, -3.33066907388e-16, 0.137363065906, -2.53733389052, -1.3117813142, -0.137363065906 },
        { 0.997246118426, -1.33226762955e-15, -0.462922395415, -9.44859982418e-17, 3.40421685179, -2.22044604925e-16, 0.0559516620529, -3.40421685179, -0.534323723012, -0.0559516620529 } } };
static const double FE2_C0_D100_Q125[1][125][10] =
    { { { -2.53401086901, -0.826059726268, 8.62192870047e-18, 1.53561341057e-17, -1.1179407e-33, 0.138315759673, 0.153733097585, -0.138315759673, -0.153733097585, 3.36007059528 },
        { -2.02554983584, -0.851085640044, -2.77602590444e-17, 7.7040738576e-17, -1.66646112951e-33, 0.693921283087, 0.131614521121, -0.693921283087, -0.131614521121, 2.87663547588 },
        { -1.23337591088, -0.890075602005, -8.44431090252e-17, 1.73144337563e-16, -2.52104693495e-33, 1.55954554826, 0.0971541428643, -1.55954554826, -0.0971541428643, 2.12345151288 },
        { -0.338555305647, -0.934117724903, -1.48470692524e-16, 2.81700650642e-16, -3.48636649868e-33, 2.53733389052, 0.0582285287323, -2.53733389052, -0.0582285287323, 1.27267303055 },
        { 0.454770511953, -0.973164381799, -2.05235964503e-16, 3.77943992967e-16, -4.34219494928e-33, 3.40421685179, 0.023718041964, -3.40421685179, -0.023718041964, 0.518393869847 },
        { -1.95173754787, -0.854718602718, 7.64490279254e-17, 1.53561341057e-17, -4.88310106266e-33, 0.138315759673, 0.764665295176, -0.138315759673, -0.764665295176, 2.80645615059 },
        { -1.52705194874, -0.875621178318, 3.03081161054e-17, 7.7040738576e-17, -4.88990348421e-33, 0.693921283087, 0.654647946495, -0.693921283087, -0.654647946495, 2.40267312705 },
        { -0.865398771819, -0.908187047234, -4.15786654429e-17, 1.73144337563e-16, -4.90050154508e-33, 1.55954554826, 0.483242727153, -1.55954554826, -0.483242727153, 1.77358581905 },
        { -0.11801126313, -0.944972669199, -1.22780244221e-16, 2.81700650642e-16, -4.91247285965e-33, 2.53733389052, 0.289627515545, -2.53733389052, -0.289627515545, 1.06298393233 },
        { 0.544604017439, -0.977585891838, -1.94771555661e-16, 3.77943992967e-16, -4.92308633107e-33, 3.40421685179, 0.117973057489, -3.40421685179, -0.117973057489, 0.432981874399 },
        { -1.06855188405, -0.898188066116, 1.79328413738e-16, 1.53561341057e-17, -1.05940542071e-32, 0.138315759673, 1.69132042239, -0.138315759673, -1.69132042239, 1.96673995017 },
        { -0.77093592668, -0.91283640847, 1.18385578341e-16, 7.7040738576e-17, -9.77918481043e-33, 0.693921283087, 1.4479791987, -0.693921283087, -1.4479791987, 1.68377233515 },
        { -0.307255161197, -0.935658284877, 2.34376433676e-17, 1.73144337563e-16, -8.50963169596e-33, 1.55954554826, 1.06885757542, -1.55954554826, -1.06885757542, 1.24291344607 },
        { 0.216507474925, -0.961437327351, -8.38132594477e-17, 2.81700650642e-16, -7.07557504442e-33, 2.53733389052, 0.640610911753, -2.53733389052, -0.640610911753, 0.744929852426 },
        { 0.680862474241, -0.984292388833, -1.78899257319e-16, 3.77943992967e-16, -5.80417588472e-33, 3.40421685179, 0.260938011287, -3.40421685179, -0.260938011287, 0.303429914592 },
        { -0.120853589129, -0.944832772922, 2.89722663227e-16, 1.53561341057e-17, -1.67221660855e-32, 0.138315759673, 2.68566342412, -0.138315759673, -2.68566342412, 1.06568636205 },
        { 0.0404108764002, -0.952770039195, 2.12896692143e-16, 7.7040738576e-17, -1.50256055417e-32, 0.693921283087, 2.29925963251, -0.693921283087, -2.29925963251, 0.912359162794 },
        { 0.291658260722, -0.965136169471, 9.32030930641e-17, 1.73144337563e-16, -1.23823921248e-32, 1.55954554826, 1.69724888193, -1.55954554826, -1.69724888193, 0.673477908749 },
        { 0.575461260819, -0.979104652691, -4.19999165226e-17, 2.81700650642e-16, -9.39668184701e-33, 2.53733389052, 1.01723202299, -2.53733389052, -1.01723202299, 0.403643391872 },
        { 0.827073981595, -0.99148876444, -1.61867560937e-16, 3.77943992967e-16, -6.74962495832e-33, 3.40421685179, 0.414345894248, -3.40421685179, -0.414345894248, 0.164414782845 },
        { 0.637338430571, -0.98215018148, 3.78041951583e-16, 1.53561341057e-17, -2.16248714581e-32, 0.138315759673, 3.48117285238, -0.138315759673, -3.48117285238, 0.344811750909 },
        { 0.689516899489, -0.984718350482, 2.88508912448e-16, 7.7040738576e-17, -1.9222926938e-32, 0.693921283087, 2.98031396688, -0.693921283087, -2.98031396688, 0.295201450993 },
        { 0.770810095672, -0.988719515538, 1.4901791039e-16, 1.73144337563e-16, -1.54807368903e-32, 1.55954554826, 2.19998406295, -1.55954554826, -2.19998406295, 0.217909419867 },
        { 0.862636934094, -0.993239135314, -8.54776925949e-18, 2.81700650642e-16, -1.12536490527e-32, 2.53733389052, 1.31854217888, -2.53733389052, -1.31854217888, 0.13060220122 },
        { 0.944048337947, -0.997246118426, -1.4824160387e-16, 3.77943992967e-16, -7.50601752173e-33, 3.40421685179, 0.537077604585, -3.40421685179, -0.537077604585, 0.0531977804793 },
        { -1.85228451824, -0.144333375498, 8.62192870047e-18, 1.53561341057e-17, -1.1179407e-33, 0.138315759673, 0.153733097585, -0.138315759673, -0.153733097585, 1.99661789374 },
        { -1.44190787063, -0.267443674836, -2.77602590444e-17, 7.7040738576e-17, -1.66646112951e-33, 0.693921283087, 0.131614521121, -0.693921283087, -0.131614521121, 1.70935154546 },
        { -0.802547804782, -0.459247495908, -8.44431090252e-17, 1.73144337563e-16, -2.52104693495e-33, 1.55954554826, 0.0971541428643, -1.55954554826, -0.0971541428643, 1.26179530069 },
        { -0.080342057967, -0.675904477223, -1.48470692524e-16, 2.81700650642e-16, -3.48636649868e-33, 2.53733389052, 0.0582285287323, -2.53733389052, -0.0582285287323, 0.75624653519 },
        { 0.559947695328, -0.867987198424, -2.05235964503e-16, 3.77943992967e-16, -4.34219494928e-33, 3.40421685179, 0.023718041964, -3.40421685179, -0.023718041964, 0.308039503097 },
        { -1.38233429997, -0.285315354814, 7.64490279254e-17, 1.53561341057e-17, -4.88310106266e-33, 0.138315759673, 0.764665295176, -0.138315759673, -0.764665295176, 1.66764965478 },
        { -1.03957243408, -0.388141663661, 3.03081161054e-17, 7.7040738576e-17, -4.88990348421e-33, 0.693921283087, 0.654647946495, -0.693921283087, -0.654647946495, 1.42771409774 },
