
        #include <petsc.h>
        #include <stdbool.h>
        #include <math.h>
        
        


        
            #include <immintrin.h>

            
            // This code is generated visiting a COFFEE AST

#include "firedrake_geometry.h"


void form_cell_integral_0_otherwise(double A[105][105], double *coordinate_dofs, double **w0)
{
// Section for quadrature weights and points
static const double weights216[216] = { 0.0003873813195, 0.000665118532009, 0.000585836191028, 0.000317701213401, 9.73756921862e-05, 1.13421694286e-05, 0.000726129045449, 0.00124673509136, 0.00109812387115, 0.000595516787239, 0.000182526401914, 2.12603918824e-05, 0.000754254678619, 0.00129502570039, 0.0011406582242, 0.000618583330038, 0.000189596316906, 2.2083884603e-05, 0.000528548084788, 0.000907496331276, 0.00079932247938, 0.000433475646412, 0.000132860654397, 1.54754027287e-05, 0.0002354768656, 0.000404304542544, 0.000356111312226, 0.000193120530504, 5.91916068935e-05, 6.89454646291e-06, 4.68128807154e-05, 8.03758801296e-05, 7.07950496033e-05, 3.83924269381e-05, 1.17673115182e-05, 1.37063817429e-06, 0.000815716960555, 0.00140055402785, 0.00123360754139, 0.000668990101264, 0.000205046035169, 2.38834437973e-05, 0.00152902514424, 0.00262527620242, 0.00231234244244, 0.00125399217565, 0.000384349668649, 4.47684526165e-05, 0.00158824987927, 0.0027269627496, 0.00240190792079, 0.00130256387809, 0.000399236936769, 4.65024984914e-05, 0.00111297477583, 0.00191093403786, 0.00168315009156, 0.000912778750463, 0.000279767463548, 3.25868797533e-05, 0.000495848569406, 0.00085135254588, 0.000749871051096, 0.00040665794718, 0.000124641006768, 1.45179909356e-05, 9.85748637061e-05, 0.000169249174756, 0.000149074619187, 8.0843737769e-05, 2.47786744026e-05, 2.88618152005e-06, 0.0010579988586, 0.0018165425442, 0.00160001009402, 0.000867691610911, 0.000265948216918, 3.09772353632e-05, 0.0019831717809, 0.00340502816537, 0.00299914772292, 0.00162644931353, 0.000498508098271, 5.80654492427e-05, 0.00205998727585, 0.0035369173574, 0.00311531568122, 0.00168944764289, 0.000517817139814, 6.03145364201e-05, 0.00144354733249, 0.00247851415218, 0.00218307447537, 0.00118388966129, 0.00036286318836, 4.22657407549e-05, 0.000643124080824, 0.00110421882266, 0.000972595587096, 0.000527442317325, 0.000161661518972, 1.88300827147e-05, 0.000127853285307, 0.000219519076309, 0.000193352332455, 0.000104855711503, 3.213836478e-05, 3.74342682767e-06, 0.0010579988586, 0.0018165425442, 0.00160001009402, 0.000867691610911, 0.000265948216918, 3.09772353632e-05, 0.0019831717809, 0.00340502816537, 0.00299914772292, 0.00162644931353, 0.000498508098271, 5.80654492427e-05, 0.00205998727585, 0.0035369173574, 0.00311531568122, 0.00168944764289, 0.000517817139814, 6.03145364201e-05, 0.00144354733249, 0.00247851415218, 0.00218307447537, 0.00118388966129, 0.00036286318836, 4.22657407549e-05, 0.000643124080824, 0.00110421882266, 0.000972595587096, 0.000527442317325, 0.000161661518972, 1.88300827147e-05, 0.000127853285307, 0.000219519076309, 0.000193352332455, 0.000104855711503, 3.213836478e-05, 3.74342682767e-06, 0.000815716960555, 0.00140055402785, 0.00123360754139, 0.000668990101264, 0.000205046035169, 2.38834437973e-05, 0.00152902514424, 0.00262527620242, 0.00231234244244, 0.00125399217565, 0.000384349668649, 4.47684526165e-05, 0.00158824987927, 0.0027269627496, 0.00240190792079, 0.00130256387809, 0.000399236936769, 4.65024984914e-05, 0.00111297477583, 0.00191093403786, 0.00168315009156, 0.000912778750463, 0.000279767463548, 3.25868797533e-05, 0.000495848569406, 0.00085135254588, 0.000749871051096, 0.00040665794718, 0.000124641006768, 1.45179909356e-05, 9.85748637061e-05, 0.000169249174756, 0.000149074619187, 8.0843737769e-05, 2.47786744026e-05, 2.88618152005e-06, 0.0003873813195, 0.000665118532009, 0.000585836191028, 0.000317701213401, 9.73756921862e-05, 1.13421694286e-05, 0.000726129045449, 0.00124673509136, 0.00109812387115, 0.000595516787239, 0.000182526401914, 2.12603918824e-05, 0.000754254678619, 0.00129502570039, 0.0011406582242, 0.000618583330038, 0.000189596316906, 2.2083884603e-05, 0.000528548084788, 0.000907496331276, 0.00079932247938, 0.000433475646412, 0.000132860654397, 1.54754027287e-05, 0.0002354768656, 0.000404304542544, 0.000356111312226, 0.000193120530504, 5.91916068935e-05, 6.89454646291e-06, 4.68128807154e-05, 8.03758801296e-05, 7.07950496033e-05, 3.83924269381e-05, 1.17673115182e-05, 1.37063817429e-06 };
static const double points216[648] = { 0.0319263353243, 0.0285569981573, 0.0259045550937, 0.0284633101934, 0.0254594424473, 0.131563941658, 0.0228628857485, 0.0204500572821, 0.302436918023, 0.0160915115529, 0.0143932982316, 0.509036413165, 0.00931865528777, 0.00833521352132, 0.715681127312, 0.00370998742848, 0.00331845490823, 0.886805616178, 0.0280201798587, 0.144242689425, 0.0259045550937, 0.0249808524183, 0.128596795421, 0.131563941658, 0.0200656343503, 0.10329416436, 0.302436918023, 0.0141227310724, 0.0727012004268, 0.509036413165, 0.00817852705463, 0.042101540527, 0.715681127312, 0.0032560741458, 0.0167616658468, 0.886805616178, 0.0218069509936, 0.328255251806, 0.0259045550937, 0.0194415677276, 0.292649656149, 0.131563941658, 0.0156162561104, 0.235068079132, 0.302436918023, 0.0109911394553, 0.165447212249, 0.509036413165, 0.00636501048813, 0.0958111072539, 0.715681127312, 0.00253406829246, 0.038144774374, 0.886805616178, 0.0145155449975, 0.544199381634, 0.0259045550937, 0.0129410549533, 0.48517049167, 0.131563941658, 0.0103947804683, 0.389708626447, 0.302436918023, 0.00731612499995, 0.274287372719, 0.509036413165, 0.00423679569771, 0.15884085642, 0.715681127312, 0.00168677328328, 0.0632384783265, 0.886805616178, 0.0075900296538, 0.749307201071, 0.0259045550937, 0.00676674495268, 0.668030423085, 0.131563941658, 0.00543532413101, 0.536589143559, 0.302436918023, 0.00382552675151, 0.377665816017, 0.509036413165, 0.0022153770312, 0.218707704486, 0.715681127312, 0.000881996455634, 0.0870729530278, 0.886805616178, 0.00240279846038, 0.902933556108, 0.0259045550937, 0.00214216875239, 0.804993045098, 0.131563941658, 0.00172067686812, 0.646603079311, 0.302436918023, 0.00121105848171, 0.455096571593, 0.509036413165, 0.000701328553711, 0.263548148313, 0.715681127312, 0.000279216264273, 0.104925044102, 0.886805616178, 0.160169775247, 0.0285569981573, 0.0259045550937, 0.142796282447, 0.0254594424473, 0.131563941658, 0.114699768534, 0.0204500572821, 0.302436918023, 0.080728770234, 0.0143932982316, 0.509036413165, 0.0467503366072, 0.00833521352132, 0.715681127312, 0.0186124666847, 0.00331845490823, 0.886805616178, 0.140573162086, 0.144242689425, 0.0259045550937, 0.125325298901, 0.128596795421, 0.131563941658, 0.100666365602, 0.10329416436, 0.302436918023, 0.0708516852547, 0.0727012004268, 0.509036413165, 0.0410304792857, 0.042101540527, 0.715681127312, 0.0163352498439, 0.0167616658468, 0.886805616178, 0.109402297633, 0.328255251806, 0.0259045550937, 0.0975355142316, 0.292649656149, 0.131563941658, 0.0783444828852, 0.235068079132, 0.302436918023, 0.0551409461307, 0.165447212249, 0.509036413165, 0.0319323307537, 0.0958111072539, 0.715681127312, 0.0127130516153, 0.038144774374, 0.886805616178, 0.0728223755158, 0.544199381634, 0.0259045550937, 0.0649233882396, 0.48517049167, 0.131563941658, 0.0521490999341, 0.389708626447, 0.302436918023, 0.0367039337593, 0.274287372719, 0.509036413165, 0.0212553870582, 0.15884085642, 0.715681127312, 0.0084622959363, 0.0632384783265, 0.886805616178, 0.038078073522, 0.749307201071, 0.0259045550937, 0.0339477740622, 0.668030423085, 0.131563941658, 0.0272682296798, 0.536589143559, 0.302436918023, 0.0191921106437, 0.377665816017, 0.509036413165, 0.011114223965, 0.218707704486, 0.715681127312, 0.00442484778264, 0.0870729530278, 0.886805616178, 0.0120544899831, 0.902933556108, 0.0259045550937, 0.0107469486907, 0.804993045098, 0.131563941658, 0.00863238528444, 0.646603079311, 0.302436918023, 0.00607570404985, 0.455096571593, 0.509036413165, 0.00351846322734, 0.263548148313, 0.715681127312, 0.00140078733872, 0.104925044102, 0.886805616178, 0.359957416088, 0.0285569981573, 0.0259045550937, 0.320913110961, 0.0254594424473, 0.131563941658, 0.257770432928, 0.0204500572821, 0.302436918023, 0.181425737113, 0.0143932982316, 0.509036413165, 0.105064331522, 0.00833521352132, 0.715681127312, 0.0418287120933, 0.00331845490823, 0.886805616178, 0.3159169832, 0.144242689425, 0.0259045550937, 0.281649710085, 0.128596795421, 0.131563941658, 0.226232476091, 0.10329416436, 0.302436918023, 0.159228478097, 0.0727012004268, 0.509036413165, 0.0922098147529, 0.042101540527, 0.715681127312, 0.0367110106503, 0.0167616658468, 0.886805616178, 0.245865165941, 0.328255251806, 0.0259045550937, 0.219196359772, 0.292649656149, 0.131563941658, 0.176067410849, 0.235068079132, 0.302436918023, 0.123920961113, 0.165447212249, 0.509036413165, 0.071763097938, 0.0958111072539, 0.715681127312, 0.028570666363, 0.038144774374, 0.886805616178, 0.163657307277, 0.544199381634, 0.0259045550937, 0.14590552455, 0.48517049167, 0.131563941658, 0.11719723796, 0.389708626447, 0.302436918023, 0.0824865561302, 0.274287372719, 0.509036413165, 0.0477682770774, 0.15884085642, 0.715681127312, 0.0190177339932, 0.0632384783265, 0.886805616178, 0.0855747280251, 0.749307201071, 0.0259045550937, 0.0762925028429, 0.668030423085, 0.131563941658, 0.0612812341261, 0.536589143559, 0.302436918023, 0.0431313744801, 0.377665816017, 0.509036413165, 0.0249775423239, 0.218707704486, 0.715681127312, 0.00994417811953, 0.0870729530278, 0.886805616178, 0.0270906484065, 0.902933556108, 0.0259045550937, 0.0241521465305, 0.804993045098, 0.131563941658, 0.0193999841535, 0.646603079311, 0.302436918023, 0.0136542286291, 0.455096571593, 0.509036413165, 0.00790721551528, 0.263548148313, 0.715681127312, 0.00314805830348, 0.104925044102, 0.886805616178, 0.585581030661, 0.0285569981573, 0.0259045550937, 0.522063504933, 0.0254594424473, 0.131563941658, 0.419342591767, 0.0204500572821, 0.302436918023, 0.295144551491, 0.0143932982316, 0.509036413165, 0.170919327645, 0.00833521352132, 0.715681127312, 0.0680472168209, 0.00331845490823, 0.886805616178, 0.513935772281, 0.144242689425, 0.0259045550937, 0.458189552836, 0.128596795421, 0.131563941658, 0.368036441527, 0.10329416436, 0.302436918023, 0.259033908311, 0.0727012004268, 0.509036413165, 0.150007517408, 0.042101540527, 0.715681127312, 0.0597217073254, 0.0167616658468, 0.886805616178, 0.399975027159, 0.328255251806, 0.0259045550937, 0.356590042421, 0.292649656149, 0.131563941658, 0.286427591996, 0.235068079132, 0.302436918023, 0.201595413473, 0.165447212249, 0.509036413165, 0.116744667496, 0.0958111072539, 0.715681127312, 0.0464789430855, 0.038144774374, 0.886805616178, 0.266238755995, 0.544199381634, 0.0259045550937, 0.237360042123, 0.48517049167, 0.131563941658, 0.19065721757, 0.389708626447, 0.302436918023, 0.134189657986, 0.274287372719, 0.509036413165, 0.0777097391907, 0.15884085642, 0.715681127312, 0.0309381715027, 0.0632384783265, 0.886805616178, 0.13921351581, 0.749307201071, 0.0259045550937, 0.124113132415, 0.668030423085, 0.131563941658, 0.0996927042921, 0.536589143559, 0.302436918023, 0.0701663963377, 0.377665816017, 0.509036413165, 0.0406336258783, 0.218707704486, 0.715681127312, 0.0161772526751, 0.0870729530278, 0.886805616178, 0.0440712403916, 0.902933556108, 0.0259045550937, 0.0392908667134, 0.804993045098, 0.131563941658, 0.0315600185125, 0.646603079311, 0.302436918023, 0.0222127866136, 0.455096571593, 0.509036413165, 0.0128635088601, 0.263548148313, 0.715681127312, 0.00512128141704, 0.104925044102, 0.886805616178, 0.785368671502, 0.0285569981573, 0.0259045550937, 0.700180333448, 0.0254594424473, 0.131563941658, 0.562413256161, 0.0204500572821, 0.302436918023, 0.39584151837, 0.0143932982316, 0.509036413165, 0.22923332256, 0.00833521352132, 0.715681127312, 0.0912634622295, 0.00331845490823, 0.886805616178, 0.689279593395, 0.144242689425, 0.0259045550937, 0.61451396402, 0.128596795421, 0.131563941658, 0.493602552016, 0.10329416436, 0.302436918023, 0.347410701154, 0.0727012004268, 0.509036413165, 0.201186852876, 0.042101540527, 0.715681127312, 0.0800974681318, 0.0167616658468, 0.886805616178, 0.536437895468, 0.328255251806, 0.0259045550937, 0.478250887961, 0.292649656149, 0.131563941658, 0.38415051996, 0.235068079132, 0.302436918023, 0.270375428456, 0.165447212249, 0.509036413165, 0.156575434681, 0.0958111072539, 0.715681127312, 0.0623365578332, 0.038144774374, 0.886805616178, 0.357073687756, 0.544199381634, 0.0259045550937, 0.318342178433, 0.48517049167, 0.131563941658, 0.255705355596, 0.389708626447, 0.302436918023, 0.179972280357, 0.274287372719, 0.509036413165, 0.10422262921, 0.15884085642, 0.715681127312, 0.0414936095596, 0.0632384783265, 0.886805616178, 0.186710170313, 0.749307201071, 0.0259045550937, 0.166457861195, 0.668030423085, 0.131563941658, 0.133705708738, 0.536589143559, 0.302436918023, 0.0941056601742, 0.377665816017, 0.509036413165, 0.0544969442373, 0.218707704486, 0.715681127312, 0.021696583012, 0.0870729530278, 0.886805616178, 0.0591073988151, 0.902933556108, 0.0259045550937, 0.0526960645532, 0.804993045098, 0.131563941658, 0.0423276173815, 0.646603079311, 0.302436918023, 0.0297913111929, 0.455096571593, 0.509036413165, 0.017252261148, 0.263548148313, 0.715681127312, 0.00686855238181, 0.104925044102, 0.886805616178, 0.913612111425, 0.0285569981573, 0.0259045550937, 0.814513305701, 0.0254594424473, 0.131563941658, 0.654250138946, 0.0204500572821, 0.302436918023, 0.460478777051, 0.0143932982316, 0.509036413165, 0.266665003879, 0.00833521352132, 0.715681127312, 0.106165941486, 0.00331845490823, 0.886805616178, 0.801832575622, 0.144242689425, 0.0259045550937, 0.714858410503, 0.128596795421, 0.131563941658, 0.574203283267, 0.10329416436, 0.302436918023, 0.404139655336, 0.0727012004268, 0.509036413165, 0.234038805107, 0.042101540527, 0.715681127312, 0.0931766438299, 0.0167616658468, 0.886805616178, 0.624033242107, 0.328255251806, 0.0259045550937, 0.556344834465, 0.292649656149, 0.131563941658, 0.446878746735, 0.235068079132, 0.302436918023, 0.314525235131, 0.165447212249, 0.509036413165, 0.182142754946, 0.0958111072539, 0.715681127312, 0.072515541156, 0.038144774374, 0.886805616178, 0.415380518275, 0.544199381634, 0.0259045550937, 0.370324511719, 0.48517049167, 0.131563941658, 0.297459675062, 0.389708626447, 0.302436918023, 0.209360089117, 0.274287372719, 0.509036413165, 0.12124122057, 0.15884085642, 0.715681127312, 0.0482691322127, 0.0632384783265, 0.886805616178, 0.217198214181, 0.749307201071, 0.0259045550937, 0.193638890305, 0.668030423085, 0.131563941658, 0.155538614287, 0.536589143559, 0.302436918023, 0.109472244066, 0.377665816017, 0.509036413165, 0.063395791171, 0.218707704486, 0.715681127312, 0.025239434339, 0.0870729530278, 0.886805616178, 0.0687590903378, 0.902933556108, 0.0259045550937, 0.0613008444915, 0.804993045098, 0.131563941658, 0.0492393257978, 0.646603079311, 0.302436918023, 0.034655956761, 0.455096571593, 0.509036413165, 0.0200693958217, 0.263548148313, 0.715681127312, 0.00799012345625, 0.104925044102, 0.886805616178 };
// Section for precomputed element basis function values
// Table dimensions: num_entities, num_points, num_dofs
// Definitions of 7 tables for 216 quadrature points
static const double FE0_C0_D001_Q216[1][216][4] =
    { { { -1.0, 1.11022302463e-16, 5.55111512313e-17, 1.0 },
        { -1.0, 1.11022302463e-16, 5.55111512313e-17, 1.0 },
        { -1.0, -5.55111512313e-17, 0.0, 1.0 },
        { -1.0, -1.66533453694e-16, -5.55111512313e-17, 1.0 },
        { -1.0, -3.33066907388e-16, -1.11022302463e-16, 1.0 },
        { -1.0, -4.4408920985e-16, -1.66533453694e-16, 1.0 },
        { -1.0, 1.11022302463e-16, 5.55111512313e-17, 1.0 },
        { -1.0, 1.11022302463e-16, 5.55111512313e-17, 1.0 },
        { -1.0, -5.55111512313e-17, 0.0, 1.0 },
        { -1.0, -1.66533453694e-16, -5.55111512313e-17, 1.0 },
        { -1.0, -3.33066907388e-16, -1.11022302463e-16, 1.0 },
        { -1.0, -4.4408920985e-16, -1.66533453694e-16, 1.0 },
        { -1.0, 1.11022302463e-16, 5.55111512313e-17, 1.0 },
        { -1.0, 1.11022302463e-16, 5.55111512313e-17, 1.0 },
        { -1.0, -5.55111512313e-17, 0.0, 1.0 },
        { -1.0, -2.77555756156e-16, -5.55111512313e-17, 1.0 },
        { -1.0, -3.33066907388e-16, -1.11022302463e-16, 1.0 },
        { -1.0, -4.4408920985e-16, -1.66533453694e-16, 1.0 },
        { -1.0, 1.11022302463e-16, 5.55111512313e-17, 1.0 },
        { -1.0, 1.11022302463e-16, 5.55111512313e-17, 1.0 },
        { -1.0, -5.55111512313e-17, 0.0, 1.0 },
        { -1.0, -1.66533453694e-16, -5.55111512313e-17, 1.0 },
        { -1.0, -3.33066907388e-16, -1.11022302463e-16, 1.0 },
        { -1.0, -4.4408920985e-16, -1.66533453694e-16, 1.0 },
        { -1.0, 1.11022302463e-16, 5.55111512313e-17, 1.0 },
        { -1.0, 1.11022302463e-16, 5.55111512313e-17, 1.0 },
        { -1.0, -5.55111512313e-17, 0.0, 1.0 },
        { -1.0, -1.66533453694e-16, -5.55111512313e-17, 1.0 },
        { -1.0, -3.33066907388e-16, -1.11022302463e-16, 1.0 },
        { -1.0, -4.4408920985e-16, -1.66533453694e-16, 1.0 },
        { -1.0, 1.11022302463e-16, 5.55111512313e-17, 1.0 },
        { -1.0, 1.11022302463e-16, 5.55111512313e-17, 1.0 },
        { -1.0, -5.55111512313e-17, 0.0, 1.0 },
        { -1.0, -1.66533453694e-16, -5.55111512313e-17, 1.0 },
        { -1.0, -3.33066907388e-16, -1.11022302463e-16, 1.0 },
        { -1.0, -4.4408920985e-16, -1.66533453694e-16, 1.0 },
        { -1.0, 1.11022302463e-16, 5.55111512313e-17, 1.0 },
        { -1.0, 1.11022302463e-16, 5.55111512313e-17, 1.0 },
        { -1.0, -5.55111512313e-17, 0.0, 1.0 },
        { -1.0, -1.66533453694e-16, -5.55111512313e-17, 1.0 },
        { -1.0, -3.33066907388e-16, -1.11022302463e-16, 1.0 },
        { -1.0, -4.4408920985e-16, -1.66533453694e-16, 1.0 },
        { -1.0, 1.11022302463e-16, 5.55111512313e-17, 1.0 },
        { -1.0, 1.11022302463e-16, 5.55111512313e-17, 1.0 },
        { -1.0, -5.55111512313e-17, 0.0, 1.0 },
        { -1.0, -1.66533453694e-16, -5.55111512313e-17, 1.0 },
        { -1.0, -3.33066907388e-16, -1.11022302463e-16, 1.0 },
        { -1.0, -4.4408920985e-16, -1.66533453694e-16, 1.0 },
        { -1.0, 1.11022302463e-16, 5.55111512313e-17, 1.0 },
        { -1.0, 1.11022302463e-16, 5.55111512313e-17, 1.0 },
        { -1.0, -5.55111512313e-17, 0.0, 1.0 },
        { -1.0, -2.77555756156e-16, -5.55111512313e-17, 1.0 },
        { -1.0, -3.33066907388e-16, -1.11022302463e-16, 1.0 },
        { -1.0, -4.4408920985e-16, -1.66533453694e-16, 1.0 },
        { -1.0, 1.11022302463e-16, 5.55111512313e-17, 1.0 },
        { -1.0, 1.11022302463e-16, 5.55111512313e-17, 1.0 },
        { -1.0, -5.55111512313e-17, 0.0, 1.0 },
        { -1.0, -1.66533453694e-16, -5.55111512313e-17, 1.0 },
        { -1.0, -3.33066907388e-16, -1.11022302463e-16, 1.0 },
        { -1.0, -4.4408920985e-16, -1.66533453694e-16, 1.0 },
        { -1.0, 1.11022302463e-16, 5.55111512313e-17, 1.0 },
        { -1.0, 1.11022302463e-16, 5.55111512313e-17, 1.0 },
        { -1.0, -5.55111512313e-17, 0.0, 1.0 },
        { -1.0, -1.11022302463e-16, 0.0, 1.0 },
        { -1.0, -3.33066907388e-16, -1.11022302463e-16, 1.0 },
        { -1.0, -4.4408920985e-16, -1.66533453694e-16, 1.0 },
        { -1.0, 1.11022302463e-16, 5.55111512313e-17, 1.0 },
        { -1.0, 1.11022302463e-16, 5.55111512313e-17, 1.0 },
        { -1.0, -5.55111512313e-17, 0.0, 1.0 },
        { -1.0, -1.66533453694e-16, -5.55111512313e-17, 1.0 },
        { -1.0, -3.33066907388e-16, -1.11022302463e-16, 1.0 },
        { -1.0, -4.4408920985e-16, -1.66533453694e-16, 1.0 },
        { -1.0, 1.11022302463e-16, 5.55111512313e-17, 1.0 },
        { -1.0, 1.11022302463e-16, 5.55111512313e-17, 1.0 },
        { -1.0, -5.55111512313e-17, 0.0, 1.0 },
        { -1.0, -1.66533453694e-16, -5.55111512313e-17, 1.0 },
        { -1.0, -3.33066907388e-16, -1.11022302463e-16, 1.0 },
        { -1.0, -4.4408920985e-16, -1.66533453694e-16, 1.0 },
        { -1.0, 1.11022302463e-16, 5.55111512313e-17, 1.0 },
        { -1.0, 1.11022302463e-16, 5.55111512313e-17, 1.0 },
        { -1.0, -5.55111512313e-17, 0.0, 1.0 },
        { -1.0, -1.66533453694e-16, -5.55111512313e-17, 1.0 },
        { -1.0, -3.33066907388e-16, -1.11022302463e-16, 1.0 },
        { -1.0, -4.4408920985e-16, -1.66533453694e-16, 1.0 },
        { -1.0, 1.11022302463e-16, 5.55111512313e-17, 1.0 },
        { -1.0, 1.11022302463e-16, 5.55111512313e-17, 1.0 },
        { -1.0, -5.55111512313e-17, 0.0, 1.0 },
        { -1.0, -2.77555756156e-16, -5.55111512313e-17, 1.0 },
        { -1.0, -3.33066907388e-16, -1.11022302463e-16, 1.0 },
        { -1.0, -4.4408920985e-16, -1.66533453694e-16, 1.0 },
        { -1.0, 1.11022302463e-16, 5.55111512313e-17, 1.0 },
        { -1.0, 1.11022302463e-16, 5.55111512313e-17, 1.0 },
        { -1.0, -5.55111512313e-17, 0.0, 1.0 },
        { -1.0, -1.66533453694e-16, -5.55111512313e-17, 1.0 },
        { -1.0, -3.33066907388e-16, -1.11022302463e-16, 1.0 },
        { -1.0, -4.4408920985e-16, -1.66533453694e-16, 1.0 },
        { -1.0, 1.66533453694e-16, 1.11022302463e-16, 1.0 },
        { -1.0, 1.11022302463e-16, 5.55111512313e-17, 1.0 },
        { -1.0, -5.55111512313e-17, 0.0, 1.0 },
        { -1.0, -1.66533453694e-16, -5.55111512313e-17, 1.0 },
        { -1.0, -3.33066907388e-16, -1.11022302463e-16, 1.0 },
        { -1.0, -4.4408920985e-16, -1.66533453694e-16, 1.0 },
        { -1.0, 1.11022302463e-16, 5.55111512313e-17, 1.0 },
        { -1.0, 1.11022302463e-16, 5.55111512313e-17, 1.0 },
        { -1.0, -5.55111512313e-17, 0.0, 1.0 },
        { -1.0, -1.66533453694e-16, -5.55111512313e-17, 1.0 },
        { -1.0, -3.33066907388e-16, -1.11022302463e-16, 1.0 },
        { -1.0, -4.4408920985e-16, -1.66533453694e-16, 1.0 },
        { -1.0, 1.11022302463e-16, 5.55111512313e-17, 1.0 },
        { -1.0, 1.11022302463e-16, 5.55111512313e-17, 1.0 },
        { -1.0, -5.55111512313e-17, 0.0, 1.0 },
        { -1.0, -1.66533453694e-16, -5.55111512313e-17, 1.0 },
        { -1.0, -3.33066907388e-16, -1.11022302463e-16, 1.0 },
        { -1.0, -4.4408920985e-16, -1.66533453694e-16, 1.0 },
        { -1.0, 1.11022302463e-16, 5.55111512313e-17, 1.0 },
        { -1.0, 1.11022302463e-16, 5.55111512313e-17, 1.0 },
        { -1.0, -5.55111512313e-17, 0.0, 1.0 },
        { -1.0, -1.66533453694e-16, -5.55111512313e-17, 1.0 },
        { -1.0, -3.33066907388e-16, -1.11022302463e-16, 1.0 },
        { -1.0, -4.4408920985e-16, -1.66533453694e-16, 1.0 },
        { -1.0, 1.11022302463e-16, 5.55111512313e-17, 1.0 },
        { -1.0, 1.11022302463e-16, 5.55111512313e-17, 1.0 },
        { -1.0, -5.55111512313e-17, 0.0, 1.0 },
        { -1.0, -2.77555756156e-16, -5.55111512313e-17, 1.0 },
        { -1.0, -3.33066907388e-16, -1.11022302463e-16, 1.0 },
        { -1.0, -4.4408920985e-16, -1.66533453694e-16, 1.0 },
        { -1.0, 1.11022302463e-16, 5.55111512313e-17, 1.0 },
        { -1.0, 1.11022302463e-16, 5.55111512313e-17, 1.0 },
        { -1.0, -5.55111512313e-17, 0.0, 1.0 },
        { -1.0, -1.66533453694e-16, -5.55111512313e-17, 1.0 },
        { -1.0, -3.33066907388e-16, -1.11022302463e-16, 1.0 },
        { -1.0, -4.4408920985e-16, -1.66533453694e-16, 1.0 },
        { -1.0, 1.11022302463e-16, 5.55111512313e-17, 1.0 },
        { -1.0, 1.11022302463e-16, 5.55111512313e-17, 1.0 },
        { -1.0, -5.55111512313e-17, 0.0, 1.0 },
        { -1.0, -1.66533453694e-16, -5.55111512313e-17, 1.0 },
        { -1.0, -3.33066907388e-16, -1.11022302463e-16, 1.0 },
        { -1.0, -4.4408920985e-16, -1.66533453694e-16, 1.0 },
        { -1.0, 1.11022302463e-16, 5.55111512313e-17, 1.0 },
        { -1.0, 1.11022302463e-16, 5.55111512313e-17, 1.0 },
        { -1.0, -5.55111512313e-17, 0.0, 1.0 },
        { -1.0, -1.66533453694e-16, -5.55111512313e-17, 1.0 },
        { -1.0, -3.33066907388e-16, -1.11022302463e-16, 1.0 },
        { -1.0, -4.4408920985e-16, -1.66533453694e-16, 1.0 },
        { -1.0, 1.11022302463e-16, 5.55111512313e-17, 1.0 },
        { -1.0, 1.11022302463e-16, 5.55111512313e-17, 1.0 },
        { -1.0, -5.55111512313e-17, 0.0, 1.0 },
        { -1.0, -1.66533453694e-16, -5.55111512313e-17, 1.0 },
        { -1.0, -3.33066907388e-16, -1.11022302463e-16, 1.0 },
        { -1.0, -4.4408920985e-16, -1.66533453694e-16, 1.0 },
        { -1.0, 1.11022302463e-16, 5.55111512313e-17, 1.0 },
        { -1.0, 1.11022302463e-16, 5.55111512313e-17, 1.0 },
        { -1.0, -5.55111512313e-17, 0.0, 1.0 },
        { -1.0, -1.66533453694e-16, -5.55111512313e-17, 1.0 },
        { -1.0, -3.33066907388e-16, -1.11022302463e-16, 1.0 },
        { -1.0, -4.4408920985e-16, -1.66533453694e-16, 1.0 },
        { -1.0, 1.11022302463e-16, 5.55111512313e-17, 1.0 },
        { -1.0, 1.11022302463e-16, 5.55111512313e-17, 1.0 },
        { -1.0, -5.55111512313e-17, 0.0, 1.0 },
        { -1.0, -2.77555756156e-16, -5.55111512313e-17, 1.0 },
        { -1.0, -3.33066907388e-16, -1.11022302463e-16, 1.0 },
        { -1.0, -4.4408920985e-16, -1.66533453694e-16, 1.0 },
        { -1.0, 1.11022302463e-16, 5.55111512313e-17, 1.0 },
        { -1.0, 1.11022302463e-16, 5.55111512313e-17, 1.0 },
        { -1.0, -5.55111512313e-17, 0.0, 1.0 },
        { -1.0, -1.66533453694e-16, -5.55111512313e-17, 1.0 },
        { -1.0, -3.33066907388e-16, -1.11022302463e-16, 1.0 },
        { -1.0, -4.4408920985e-16, -1.66533453694e-16, 1.0 },
        { -1.0, 1.11022302463e-16, 5.55111512313e-17, 1.0 },
        { -1.0, 1.11022302463e-16, 5.55111512313e-17, 1.0 },
        { -1.0, -5.55111512313e-17, 0.0, 1.0 },
        { -1.0, -1.66533453694e-16, -5.55111512313e-17, 1.0 },
        { -1.0, -3.33066907388e-16, -1.11022302463e-16, 1.0 },
        { -1.0, -4.4408920985e-16, -1.66533453694e-16, 1.0 },
        { -1.0, 1.11022302463e-16, 5.55111512313e-17, 1.0 },
        { -1.0, 1.11022302463e-16, 5.55111512313e-17, 1.0 },
        { -1.0, -5.55111512313e-17, 0.0, 1.0 },
        { -1.0, -1.66533453694e-16, -5.55111512313e-17, 1.0 },
        { -1.0, -3.33066907388e-16, -1.11022302463e-16, 1.0 },
        { -1.0, -4.4408920985e-16, -1.66533453694e-16, 1.0 },
        { -1.0, 1.11022302463e-16, 5.55111512313e-17, 1.0 },
        { -1.0, 1.11022302463e-16, 5.55111512313e-17, 1.0 },
        { -1.0, -5.55111512313e-17, 0.0, 1.0 },
        { -1.0, -1.66533453694e-16, -5.55111512313e-17, 1.0 },
        { -1.0, -3.33066907388e-16, -1.11022302463e-16, 1.0 },
        { -1.0, -4.4408920985e-16, -1.66533453694e-16, 1.0 },
        { -1.0, 1.11022302463e-16, 5.55111512313e-17, 1.0 },
        { -1.0, 1.66533453694e-16, 1.66533453694e-16, 1.0 },
        { -1.0, -5.55111512313e-17, 0.0, 1.0 },
        { -1.0, -1.66533453694e-16, -5.55111512313e-17, 1.0 },
        { -1.0, -3.33066907388e-16, -1.11022302463e-16, 1.0 },
        { -1.0, -4.4408920985e-16, -1.66533453694e-16, 1.0 },
        { -1.0, 1.11022302463e-16, 5.55111512313e-17, 1.0 },
        { -1.0, 1.11022302463e-16, 5.55111512313e-17, 1.0 },
        { -1.0, -5.55111512313e-17, 0.0, 1.0 },
        { -1.0, -2.77555756156e-16, -5.55111512313e-17, 1.0 },
        { -1.0, -3.33066907388e-16, -1.11022302463e-16, 1.0 },
        { -1.0, -4.4408920985e-16, -1.66533453694e-16, 1.0 },
        { -1.0, 1.11022302463e-16, 5.55111512313e-17, 1.0 },
        { -1.0, 1.11022302463e-16, 5.55111512313e-17, 1.0 },
        { -1.0, -5.55111512313e-17, 0.0, 1.0 },
        { -1.0, -1.66533453694e-16, -5.55111512313e-17, 1.0 },
        { -1.0, -3.33066907388e-16, -1.11022302463e-16, 1.0 },
        { -1.0, -4.4408920985e-16, -1.66533453694e-16, 1.0 },
        { -1.0, 1.11022302463e-16, 5.55111512313e-17, 1.0 },
        { -1.0, 1.11022302463e-16, 5.55111512313e-17, 1.0 },
        { -1.0, -5.55111512313e-17, 0.0, 1.0 },
        { -1.0, -1.66533453694e-16, -5.55111512313e-17, 1.0 },
        { -1.0, -3.33066907388e-16, -1.11022302463e-16, 1.0 },
        { -1.0, -4.4408920985e-16, -1.66533453694e-16, 1.0 },
        { -1.0, 1.11022302463e-16, 5.55111512313e-17, 1.0 },
        { -1.0, 1.11022302463e-16, 5.55111512313e-17, 1.0 },
        { -1.0, -5.55111512313e-17, 0.0, 1.0 },
        { -1.0, -1.66533453694e-16, -5.55111512313e-17, 1.0 },
        { -1.0, -3.33066907388e-16, -1.11022302463e-16, 1.0 },
        { -1.0, -4.4408920985e-16, -1.66533453694e-16, 1.0 } } };
static const double FE0_C0_D010_Q216[1][216][3] =
    { { { -1.0, -5.55111512313e-17, 1.0 },
        { -1.0, -5.55111512313e-17, 1.0 },
        { -1.0, -1.11022302463e-16, 1.0 },
        { -1.0, -1.66533453694e-16, 1.0 },
        { -1.0, -3.33066907388e-16, 1.0 },
        { -1.0, -3.33066907388e-16, 1.0 },
        { -1.0, -5.55111512313e-17, 1.0 },
        { -1.0, -5.55111512313e-17, 1.0 },
        { -1.0, -1.11022302463e-16, 1.0 },
        { -1.0, -1.66533453694e-16, 1.0 },
        { -1.0, -3.33066907388e-16, 1.0 },
        { -1.0, -3.33066907388e-16, 1.0 },
        { -1.0, -5.55111512313e-17, 1.0 },
        { -1.0, -5.55111512313e-17, 1.0 },
        { -1.0, -1.11022302463e-16, 1.0 },
        { -1.0, -2.77555756156e-16, 1.0 },
        { -1.0, -2.77555756156e-16, 1.0 },
        { -1.0, -3.33066907388e-16, 1.0 },
        { -1.0, -5.55111512313e-17, 1.0 },
        { -1.0, -5.55111512313e-17, 1.0 },
        { -1.0, -1.11022302463e-16, 1.0 },
        { -1.0, -1.66533453694e-16, 1.0 },
        { -1.0, -2.77555756156e-16, 1.0 },
        { -1.0, -3.88578058619e-16, 1.0 },
        { -1.0, -5.55111512313e-17, 1.0 },
        { -1.0, -5.55111512313e-17, 1.0 },
        { -1.0, -1.11022302463e-16, 1.0 },
        { -1.0, -1.66533453694e-16, 1.0 },
        { -1.0, -2.77555756156e-16, 1.0 },
        { -1.0, -3.33066907388e-16, 1.0 },
        { -1.0, -5.55111512313e-17, 1.0 },
        { -1.0, -5.55111512313e-17, 1.0 },
        { -1.0, -1.11022302463e-16, 1.0 },
        { -1.0, -1.66533453694e-16, 1.0 },
        { -1.0, -2.77555756156e-16, 1.0 },
        { -1.0, -3.33066907388e-16, 1.0 },
        { -1.0, -5.55111512313e-17, 1.0 },
        { -1.0, -5.55111512313e-17, 1.0 },
        { -1.0, -1.11022302463e-16, 1.0 },
        { -1.0, -1.66533453694e-16, 1.0 },
        { -1.0, -3.33066907388e-16, 1.0 },
        { -1.0, -3.33066907388e-16, 1.0 },
        { -1.0, -5.55111512313e-17, 1.0 },
        { -1.0, -5.55111512313e-17, 1.0 },
        { -1.0, -1.11022302463e-16, 1.0 },
        { -1.0, -1.66533453694e-16, 1.0 },
        { -1.0, -3.33066907388e-16, 1.0 },
        { -1.0, -3.33066907388e-16, 1.0 },
        { -1.0, -5.55111512313e-17, 1.0 },
        { -1.0, -5.55111512313e-17, 1.0 },
        { -1.0, -1.11022302463e-16, 1.0 },
        { -1.0, -2.77555756156e-16, 1.0 },
        { -1.0, -2.77555756156e-16, 1.0 },
        { -1.0, -3.88578058619e-16, 1.0 },
        { -1.0, -5.55111512313e-17, 1.0 },
        { -1.0, -5.55111512313e-17, 1.0 },
        { -1.0, -1.11022302463e-16, 1.0 },
        { -1.0, -1.66533453694e-16, 1.0 },
        { -1.0, -2.77555756156e-16, 1.0 },
        { -1.0, -3.33066907388e-16, 1.0 },
        { -1.0, -5.55111512313e-17, 1.0 },
        { -1.0, -5.55111512313e-17, 1.0 },
        { -1.0, -1.11022302463e-16, 1.0 },
        { -1.0, -1.66533453694e-16, 1.0 },
        { -1.0, -2.77555756156e-16, 1.0 },
        { -1.0, -3.33066907388e-16, 1.0 },
        { -1.0, -5.55111512313e-17, 1.0 },
        { -1.0, -5.55111512313e-17, 1.0 },
        { -1.0, -1.11022302463e-16, 1.0 },
        { -1.0, -1.66533453694e-16, 1.0 },
        { -1.0, -2.77555756156e-16, 1.0 },
        { -1.0, -3.33066907388e-16, 1.0 },
        { -1.0, -5.55111512313e-17, 1.0 },
        { -1.0, -5.55111512313e-17, 1.0 },
        { -1.0, -1.11022302463e-16, 1.0 },
        { -1.0, -1.66533453694e-16, 1.0 },
        { -1.0, -3.33066907388e-16, 1.0 },
        { -1.0, -3.33066907388e-16, 1.0 },
        { -1.0, -5.55111512313e-17, 1.0 },
        { -1.0, -5.55111512313e-17, 1.0 },
        { -1.0, -1.11022302463e-16, 1.0 },
        { -1.0, -1.66533453694e-16, 1.0 },
        { -1.0, -3.33066907388e-16, 1.0 },
        { -1.0, -3.33066907388e-16, 1.0 },
        { -1.0, -5.55111512313e-17, 1.0 },
        { -1.0, -5.55111512313e-17, 1.0 },
        { -1.0, -1.11022302463e-16, 1.0 },
        { -1.0, -2.77555756156e-16, 1.0 },
        { -1.0, -2.77555756156e-16, 1.0 },
        { -1.0, -3.33066907388e-16, 1.0 },
        { -1.0, -5.55111512313e-17, 1.0 },
        { -1.0, -5.55111512313e-17, 1.0 },
        { -1.0, -1.11022302463e-16, 1.0 },
        { -1.0, -1.66533453694e-16, 1.0 },
        { -1.0, -2.77555756156e-16, 1.0 },
        { -1.0, -3.33066907388e-16, 1.0 },
        { -1.0, -5.55111512313e-17, 1.0 },
        { -1.0, -5.55111512313e-17, 1.0 },
        { -1.0, -1.11022302463e-16, 1.0 },
        { -1.0, -1.66533453694e-16, 1.0 },
        { -1.0, -2.77555756156e-16, 1.0 },
        { -1.0, -3.33066907388e-16, 1.0 },
        { -1.0, -5.55111512313e-17, 1.0 },
        { -1.0, -5.55111512313e-17, 1.0 },
        { -1.0, -1.11022302463e-16, 1.0 },
        { -1.0, -1.66533453694e-16, 1.0 },
        { -1.0, -2.77555756156e-16, 1.0 },
        { -1.0, -3.33066907388e-16, 1.0 },
        { -1.0, -5.55111512313e-17, 1.0 },
        { -1.0, -5.55111512313e-17, 1.0 },
        { -1.0, -1.11022302463e-16, 1.0 },
        { -1.0, -1.66533453694e-16, 1.0 },
        { -1.0, -3.33066907388e-16, 1.0 },
        { -1.0, -3.33066907388e-16, 1.0 },
        { -1.0, -5.55111512313e-17, 1.0 },
        { -1.0, -5.55111512313e-17, 1.0 },
        { -1.0, -1.11022302463e-16, 1.0 },
        { -1.0, -1.66533453694e-16, 1.0 },
        { -1.0, -3.33066907388e-16, 1.0 },
        { -1.0, -3.33066907388e-16, 1.0 },
        { -1.0, -5.55111512313e-17, 1.0 },
        { -1.0, -5.55111512313e-17, 1.0 },
        { -1.0, -1.11022302463e-16, 1.0 },
        { -1.0, -2.77555756156e-16, 1.0 },
        { -1.0, -2.77555756156e-16, 1.0 },
        { -1.0, -3.33066907388e-16, 1.0 },
        { -1.0, -5.55111512313e-17, 1.0 },
        { -1.0, -5.55111512313e-17, 1.0 },
        { -1.0, -1.11022302463e-16, 1.0 },
        { -1.0, -1.66533453694e-16, 1.0 },
        { -1.0, -2.77555756156e-16, 1.0 },
        { -1.0, -3.33066907388e-16, 1.0 },
        { -1.0, -5.55111512313e-17, 1.0 },
        { -1.0, -5.55111512313e-17, 1.0 },
        { -1.0, -1.11022302463e-16, 1.0 },
        { -1.0, -1.66533453694e-16, 1.0 },
        { -1.0, -2.77555756156e-16, 1.0 },
        { -1.0, -3.33066907388e-16, 1.0 },
        { -1.0, -5.55111512313e-17, 1.0 },
        { -1.0, -5.55111512313e-17, 1.0 },
        { -1.0, -1.11022302463e-16, 1.0 },
        { -1.0, -1.66533453694e-16, 1.0 },
        { -1.0, -2.77555756156e-16, 1.0 },
        { -1.0, -3.33066907388e-16, 1.0 },
        { -1.0, -5.55111512313e-17, 1.0 },
        { -1.0, -5.55111512313e-17, 1.0 },
        { -1.0, -1.11022302463e-16, 1.0 },
        { -1.0, -1.66533453694e-16, 1.0 },
        { -1.0, -3.33066907388e-16, 1.0 },
        { -1.0, -3.33066907388e-16, 1.0 },
        { -1.0, -5.55111512313e-17, 1.0 },
        { -1.0, -5.55111512313e-17, 1.0 },
        { -1.0, -1.11022302463e-16, 1.0 },
        { -1.0, -1.66533453694e-16, 1.0 },
        { -1.0, -3.33066907388e-16, 1.0 },
        { -1.0, -3.33066907388e-16, 1.0 },
        { -1.0, -5.55111512313e-17, 1.0 },
        { -1.0, -5.55111512313e-17, 1.0 },
        { -1.0, -1.11022302463e-16, 1.0 },
        { -1.0, -2.77555756156e-16, 1.0 },
        { -1.0, -2.77555756156e-16, 1.0 },
        { -1.0, -3.33066907388e-16, 1.0 },
        { -1.0, -5.55111512313e-17, 1.0 },
        { -1.0, -5.55111512313e-17, 1.0 },
        { -1.0, -1.11022302463e-16, 1.0 },
        { -1.0, -1.66533453694e-16, 1.0 },
        { -1.0, -2.77555756156e-16, 1.0 },
        { -1.0, -3.33066907388e-16, 1.0 },
        { -1.0, -5.55111512313e-17, 1.0 },
        { -1.0, -5.55111512313e-17, 1.0 },
        { -1.0, -1.11022302463e-16, 1.0 },
        { -1.0, -1.66533453694e-16, 1.0 },
        { -1.0, -2.77555756156e-16, 1.0 },
        { -1.0, -3.33066907388e-16, 1.0 },
        { -1.0, -5.55111512313e-17, 1.0 },
        { -1.0, -5.55111512313e-17, 1.0 },
        { -1.0, -1.11022302463e-16, 1.0 },
        { -1.0, -1.66533453694e-16, 1.0 },
        { -1.0, -2.77555756156e-16, 1.0 },
        { -1.0, -3.33066907388e-16, 1.0 },
        { -1.0, -5.55111512313e-17, 1.0 },
        { -1.0, -5.55111512313e-17, 1.0 },
        { -1.0, -1.11022302463e-16, 1.0 },
        { -1.0, -1.66533453694e-16, 1.0 },
        { -1.0, -3.33066907388e-16, 1.0 },
        { -1.0, -3.33066907388e-16, 1.0 },
        { -1.0, -5.55111512313e-17, 1.0 },
        { -1.0, 0.0, 1.0 },
        { -1.0, -1.11022302463e-16, 1.0 },
        { -1.0, -1.66533453694e-16, 1.0 },
        { -1.0, -3.33066907388e-16, 1.0 },
        { -1.0, -3.33066907388e-16, 1.0 },
        { -1.0, -5.55111512313e-17, 1.0 },
        { -1.0, -5.55111512313e-17, 1.0 },
        { -1.0, -1.11022302463e-16, 1.0 },
        { -1.0, -2.77555756156e-16, 1.0 },
        { -1.0, -2.77555756156e-16, 1.0 },
        { -1.0, -3.33066907388e-16, 1.0 },
        { -1.0, -5.55111512313e-17, 1.0 },
        { -1.0, -5.55111512313e-17, 1.0 },
        { -1.0, -1.11022302463e-16, 1.0 },
        { -1.0, -1.66533453694e-16, 1.0 },
        { -1.0, -2.77555756156e-16, 1.0 },
        { -1.0, -3.33066907388e-16, 1.0 },
        { -1.0, -5.55111512313e-17, 1.0 },
        { -1.0, -5.55111512313e-17, 1.0 },
        { -1.0, -1.11022302463e-16, 1.0 },
        { -1.0, -1.66533453694e-16, 1.0 },
        { -1.0, -2.77555756156e-16, 1.0 },
        { -1.0, -3.33066907388e-16, 1.0 },
        { -1.0, -5.55111512313e-17, 1.0 },
        { -1.0, -5.55111512313e-17, 1.0 },
        { -1.0, -1.11022302463e-16, 1.0 },
        { -1.0, -1.66533453694e-16, 1.0 },
        { -1.0, -2.77555756156e-16, 1.0 },
        { -1.0, -3.33066907388e-16, 1.0 } } };
static const double FE0_C0_D100_Q216[1][216][2] =
    { { { -1.0, 1.0 },
        { -1.0, 1.0 },
        { -1.0, 1.0 },
        { -1.0, 1.0 },
        { -1.0, 1.0 },
        { -1.0, 1.0 },
        { -1.0, 1.0 },
        { -1.0, 1.0 },
        { -1.0, 1.0 },
        { -1.0, 1.0 },
        { -1.0, 1.0 },
        { -1.0, 1.0 },
        { -1.0, 1.0 },
        { -1.0, 1.0 },
        { -1.0, 1.0 },
        { -1.0, 1.0 },
        { -1.0, 1.0 },
        { -1.0, 1.0 },
        { -1.0, 1.0 },
        { -1.0, 1.0 },
        { -1.0, 1.0 },
        { -1.0, 1.0 },
        { -1.0, 1.0 },
        { -1.0, 1.0 },
        { -1.0, 1.0 },
        { -1.0, 1.0 },
        { -1.0, 1.0 },
        { -1.0, 1.0 },
        { -1.0, 1.0 },
        { -1.0, 1.0 },
        { -1.0, 1.0 },
        { -1.0, 1.0 },
        { -1.0, 1.0 },
        { -1.0, 1.0 },
        { -1.0, 1.0 },
        { -1.0, 1.0 },
        { -1.0, 1.0 },
        { -1.0, 1.0 },
        { -1.0, 1.0 },
        { -1.0, 1.0 },
        { -1.0, 1.0 },
        { -1.0, 1.0 },
        { -1.0, 1.0 },
        { -1.0, 1.0 },
        { -1.0, 1.0 },
        { -1.0, 1.0 },
        { -1.0, 1.0 },
        { -1.0, 1.0 },
        { -1.0, 1.0 },
        { -1.0, 1.0 },
        { -1.0, 1.0 },
        { -1.0, 1.0 },
        { -1.0, 1.0 },
        { -1.0, 1.0 },
        { -1.0, 1.0 },
        { -1.0, 1.0 },
        { -1.0, 1.0 },
        { -1.0, 1.0 },
        { -1.0, 1.0 },
        { -1.0, 1.0 },
        { -1.0, 1.0 },
        { -1.0, 1.0 },
        { -1.0, 1.0 },
        { -1.0, 1.0 },
        { -1.0, 1.0 },
        { -1.0, 1.0 },
        { -1.0, 1.0 },
        { -1.0, 1.0 },
        { -1.0, 1.0 },
        { -1.0, 1.0 },
        { -1.0, 1.0 },
        { -1.0, 1.0 },
        { -1.0, 1.0 },
        { -1.0, 1.0 },
        { -1.0, 1.0 },
        { -1.0, 1.0 },
        { -1.0, 1.0 },
        { -1.0, 1.0 },
        { -1.0, 1.0 },
        { -1.0, 1.0 },
        { -1.0, 1.0 },
        { -1.0, 1.0 },
        { -1.0, 1.0 },
        { -1.0, 1.0 },
        { -1.0, 1.0 },
        { -1.0, 1.0 },
        { -1.0, 1.0 },
        { -1.0, 1.0 },
        { -1.0, 1.0 },
        { -1.0, 1.0 },
        { -1.0, 1.0 },
        { -1.0, 1.0 },
        { -1.0, 1.0 },
        { -1.0, 1.0 },
        { -1.0, 1.0 },
        { -1.0, 1.0 },
        { -1.0, 1.0 },
        { -1.0, 1.0 },
        { -1.0, 1.0 },
        { -1.0, 1.0 },
        { -1.0, 1.0 },
        { -1.0, 1.0 },
        { -1.0, 1.0 },
        { -1.0, 1.0 },
        { -1.0, 1.0 },
        { -1.0, 1.0 },
        { -1.0, 1.0 },
        { -1.0, 1.0 },
        { -1.0, 1.0 },
        { -1.0, 1.0 },
        { -1.0, 1.0 },
        { -1.0, 1.0 },
        { -1.0, 1.0 },
        { -1.0, 1.0 },
        { -1.0, 1.0 },
        { -1.0, 1.0 },
        { -1.0, 1.0 },
        { -1.0, 1.0 },
        { -1.0, 1.0 },
        { -1.0, 1.0 },
        { -1.0, 1.0 },
        { -1.0, 1.0 },
        { -1.0, 1.0 },
        { -1.0, 1.0 },
        { -1.0, 1.0 },
        { -1.0, 1.0 },
        { -1.0, 1.0 },
        { -1.0, 1.0 },
        { -1.0, 1.0 },
        { -1.0, 1.0 },
        { -1.0, 1.0 },
        { -1.0, 1.0 },
        { -1.0, 1.0 },
        { -1.0, 1.0 },
        { -1.0, 1.0 },
        { -1.0, 1.0 },
        { -1.0, 1.0 },
        { -1.0, 1.0 },
        { -1.0, 1.0 },
        { -1.0, 1.0 },
        { -1.0, 1.0 },
        { -1.0, 1.0 },
        { -1.0, 1.0 },
        { -1.0, 1.0 },
        { -1.0, 1.0 },
        { -1.0, 1.0 },
        { -1.0, 1.0 },
        { -1.0, 1.0 },
        { -1.0, 1.0 },
        { -1.0, 1.0 },
        { -1.0, 1.0 },
        { -1.0, 1.0 },
        { -1.0, 1.0 },
        { -1.0, 1.0 },
        { -1.0, 1.0 },
        { -1.0, 1.0 },
        { -1.0, 1.0 },
        { -1.0, 1.0 },
        { -1.0, 1.0 },
        { -1.0, 1.0 },
        { -1.0, 1.0 },
        { -1.0, 1.0 },
        { -1.0, 1.0 },
        { -1.0, 1.0 },
        { -1.0, 1.0 },
        { -1.0, 1.0 },
        { -1.0, 1.0 },
        { -1.0, 1.0 },
        { -1.0, 1.0 },
        { -1.0, 1.0 },
        { -1.0, 1.0 },
        { -1.0, 1.0 },
        { -1.0, 1.0 },
        { -1.0, 1.0 },
        { -1.0, 1.0 },
        { -1.0, 1.0 },
        { -1.0, 1.0 },
        { -1.0, 1.0 },
        { -1.0, 1.0 },
        { -1.0, 1.0 },
        { -1.0, 1.0 },
        { -1.0, 1.0 },
        { -1.0, 1.0 },
        { -1.0, 1.0 },
        { -1.0, 1.0 },
        { -1.0, 1.0 },
        { -1.0, 1.0 },
        { -1.0, 1.0 },
        { -1.0, 1.0 },
        { -1.0, 1.0 },
        { -1.0, 1.0 },
        { -1.0, 1.0 },
        { -1.0, 1.0 },
        { -1.0, 1.0 },
        { -1.0, 1.0 },
        { -1.0, 1.0 },
        { -1.0, 1.0 },
        { -1.0, 1.0 },
        { -1.0, 1.0 },
        { -1.0, 1.0 },
        { -1.0, 1.0 },
        { -1.0, 1.0 },
        { -1.0, 1.0 },
        { -1.0, 1.0 },
        { -1.0, 1.0 },
        { -1.0, 1.0 },
        { -1.0, 1.0 },
        { -1.0, 1.0 },
        { -1.0, 1.0 },
        { -1.0, 1.0 },
        { -1.0, 1.0 },
        { -1.0, 1.0 },
        { -1.0, 1.0 },
        { -1.0, 1.0 },
        { -1.0, 1.0 },
        { -1.0, 1.0 } } };
static const double FE1_C0_Q216[1][216][35] =
    { { { 0.437636536222, -0.024961128872, -0.0229421679946, -0.0212568784098, 0.00329509970027, 0.00234943618992, 0.00335332940899, 0.0036018975204, 0.00258667242441, 0.00374897664574, 0.00397070632871, 0.00281777803973, 0.00406107951198, 0.277162360778, -0.225250255617, 0.107281666819, 0.305541824493, -0.245375184631, 0.11621288162, 0.341591601842, -0.270152143924, 0.127033148682, -0.000659251237243, -0.000669436968286, -0.000677455480627, 0.0574083166863, -0.0191567781222, -0.0193862379056, 0.064181716819, -0.0210911494093, -0.0216735501625, 0.0707534702798, -0.0232507338049, -0.0236099682025, 0.00552382073014 },
        { 0.0995151974216, -0.0228840928738, -0.0209656555302, -0.0378709741214, 0.0152279910476, 0.0057009138864, 0.00623620743366, 0.0166906077115, 0.00628827988812, 0.00697199504591, 0.00322986344956, 0.0023070378895, 0.00329451236673, 0.811777445618, -0.45853570819, 0.199512379045, 0.157090163888, -0.168227125908, 0.0942766017119, 0.175624665478, -0.185559591596, 0.103331671961, -0.00270350266879, -0.00274016009323, -0.00144532357186, 0.197136980682, -0.0784131164129, -0.0413597460141, 0.22039646168, -0.0864920314058, -0.0462396332031, 0.0426497637652, -0.016737404398, -0.0169643507755, 0.0198796767944 },
        { -0.0416664443757, -0.0192179644378, -0.0175181932261, 0.014957559317, 0.0290488590754, -0.0047645693586, -0.00273376386168, 0.0319731826161, -0.00527073383843, -0.00305631079516, 0.00216194973903, 0.00156016611555, 0.00219596453537, 0.526432973721, 0.26843920086, -0.0874601651074, 0.0355961320403, -0.0794594753039, 0.0628402782655, 0.039795991214, -0.0879008602346, 0.0691663547754, -0.00411110389317, -0.00415477526116, 0.000949090238027, 0.209379087915, -0.11889410295, 0.0271594070378, 0.234082970971, -0.131524829306, 0.0303638474717, 0.0158281277181, -0.00889339274753, -0.00898786533627, 0.0236834064058 },
        { 0.0118292560853, -0.014258593853, -0.0129213245922, -0.00306256905737, 0.0357659858615, -0.0286178897155, 0.000731736614256, 0.039558847382, -0.031763800944, 0.000818071576961, 0.00111854923015, 0.000816903509157, 0.00113062397857, -0.0831928247159, 0.81791386908, 0.023410143793, -0.00235232511053, -0.0210351623541, 0.0323542226127, -0.00262986746215, -0.0233475185097, 0.0357852782097, -0.00352989646798, -0.0035555240852, 0.00390910020401, 0.0908943889515, -0.101745779267, 0.111863803186, 0.101618689919, -0.11293050297, 0.125062209672, 0.00287332707853, -0.00319317511804, -0.00321635808399, 0.0138981053615 },
        { 0.00534599180514, -0.00869471503525, -0.00783493847658, -0.0263137100299, 0.0302417895716, -0.0429653425878, 0.0255638224051, 0.033604969276, -0.0478391938404, 0.0285800055658, 0.000391381836971, 0.00028913838609, 0.000393768679302, -0.0316635498974, 0.0947893662933, 0.817852690084, -0.000368771005921, -0.000572903558534, 0.0112681844269, -0.00041228096623, -0.000637891908637, 0.0125213155976, -0.00171254479497, -0.0017195423796, 0.00331350895371, 0.00339326445186, -0.0492068609866, 0.0948202128643, 0.00379362348022, -0.0547887301539, 0.106007707629, 4.41826122282e-05, -0.000638099492871, -0.000640706814569, 0.0037948580098 },
        { -0.041301221081, -0.0036098663871, -0.00323828259234, 0.318757741487, 0.0153839462541, -0.0295861104677, 0.0309280633742, 0.0171582078377, -0.0330243693339, 0.0345771539704, 6.42065611411e-05, 4.78709221609e-05, 6.4359365978e-05, 0.227550278369, -0.551902351113, 0.98946861032, 0.000851500401382, 0.000800017533215, 0.00184172394495, 0.000951965861173, 0.000892989111202, 0.0020541336862, -0.000344186287693, -0.000344733448024, 0.000889925493632, -0.00575203176413, -0.00986497980832, 0.0254663337019, -0.00643069323625, -0.0110114081071, 0.0284710145223, -2.40638592539e-05, -4.1205040443e-05, -4.12705449801e-05, 0.000296730353764 },
        { 0.0738394840555, -0.0226079730477, -0.0350659355622, -0.0212568784098, 0.00599822697193, 0.00566752376677, 0.0169378185276, 0.00324468616453, 0.00231085957045, 0.003290293071, 0.018067179962, 0.00607251501307, 0.00648810211097, 0.147612111483, -0.164391807584, 0.0941558612747, 0.821939148347, -0.431991511881, 0.185665176054, 0.159667591206, -0.176138956035, 0.100433883345, -0.00297484493239, -0.00141729819957, -0.00300319730968, 0.211626938293, -0.0405577648507, -0.0859402561319, 0.0411100548496, -0.016536904461, -0.0166945128624, 0.228910508306, -0.0920813951674, -0.0438701171155, 0.0214913911787 },
        { -0.0267635184704, -0.0206498092724, -0.0384333424604, -0.0378709741214, 0.0325485416742, 0.0155690134057, 0.0314993658328, 0.0149886816724, 0.00560566995896, 0.00611897836618, 0.0146506436822, 0.00561651599061, 0.00618019121158, 0.400791658316, -0.331391618202, 0.175102237326, 0.391752650774, -0.33203280543, 0.176853919639, 0.0761007700188, -0.119549407164, 0.0814416550676, -0.0121731709582, -0.00656771648148, -0.00640719868203, 0.719644012588, -0.187943441079, -0.183350023006, 0.139796025347, -0.0676695994912, -0.0356170606789, 0.136643221886, -0.0661434549036, -0.0356859737206, 0.077345361366 },
        { -0.0259027387507, -0.0172405518224, -0.0414693538641, 0.014957559317, 0.0775738388854, -0.0153806649597, -0.013808364923, 0.028573414836, -0.00468283348295, -0.00268237420032, 0.00975895081751, 0.00447465884023, 0.00514675356568, 0.178250074784, 0.188944831296, -0.0767595006408, 0.0608794476622, -0.180545317862, 0.147280805779, 0.0118262705721, -0.0549692527529, 0.054249159528, -0.0184491915122, -0.0117712028389, 0.00420736909065, 0.744395330416, -0.336847726818, 0.120399141317, 0.144604146854, -0.102557452356, 0.0233883991487, 0.049388033081, -0.0350274245921, -0.0223486714594, 0.092144437044 },
        { 0.0220299915203, -0.0127047309735, -0.0397912955371, -0.00306256905737, 0.119623530224, -0.108776985439, 0.00369603473761, 0.0351535287638, -0.0281121733308, 0.000717981330802, 0.0050206697876, 0.00274809746202, 0.00331884105654, -0.129694751521, 0.525696992193, 0.0205459359158, -0.018523162353, -0.0513893590879, 0.0949727976715, -0.00359825751136, -0.0132809947271, 0.027909467046, -0.0157799339698, -0.0118610977773, 0.017329255651, 0.295084400886, -0.339420183182, 0.495898376181, 0.0573222672101, -0.0877192816396, 0.0963318262273, 0.00818683600933, -0.0125281746273, -0.0094168901156, 0.0540730109753 },
        { -0.00546785905965, -0.00769671786137, -0.0302634288259, -0.0263137100299, 0.122384585352, -0.186697041101, 0.129124023309, 0.0297020019858, -0.0421850077589, 0.0250832702276, 0.00174728659541, 0.00110789649728, 0.00139856369572, 0.0303375027, -0.0796785549645, 0.717789224518, 0.00178467134408, 0.00209258209594, 0.0400216535356, 0.000346685244495, 0.000472828018232, 0.0097130143422, -0.00762776805686, -0.00655773537777, 0.0146889669653, -0.014407240123, -0.187657819283, 0.420343205303, -0.00279871001521, -0.0424020997643, 0.0816546908682, -0.000164640366544, -0.00249439820827, -0.00214448096149, 0.0147645591594 },
        { -0.041648656523, -0.00317887714401, -0.0147758465975, 0.318757741487, 0.0714818259556, -0.141296825001, 0.156219047087, 0.0151004702246, -0.0290372878624, 0.0303466734723, 0.000285416591209, 0.000201019338562, 0.000262459011471, 0.224926608738, -0.528120591529, 0.868408107105, 0.00425137661167, 0.0036560732701, 0.00751059365871, 0.000825860484028, 0.000751343506757, 0.00158660602743, -0.00152860874302, -0.00144493995368, 0.00394508853308, -0.0278018304397, -0.0413487682991, 0.112893654341, -0.00540070552224, -0.0084974031642, 0.0219304043216, -0.000102079666219, -0.000160610882256, -0.00015181980466, 0.00115448136695 },
        { -0.0388992025311, -0.0184831449935, 0.0198466425926, -0.0212568784098, -0.00487611000413, -0.00954364589555, 0.0385456476718, 0.00263005887487, 0.00184878538569, 0.00256069947144, 0.0333273679132, -0.00818092684587, -0.00410480286247, 0.0319978556857, -0.0867175635839, 0.07327762573, 0.40546784677, 0.38372763514, -0.11746408011, 0.026936408223, -0.0743353275778, 0.0633573578346, -0.00541620569368, 0.00185740337945, -0.00531894827609, 0.254047963198, 0.0531519263339, -0.152208373298, 0.0168771450053, -0.0102965371623, -0.0101116448833, 0.213862444788, -0.130474829107, 0.0447443103573, 0.0296230968792 },
        { -0.0198365681435, -0.0167858051151, 0.0126254261451, -0.0378709741214, -0.0145276010052, -0.0124469902118, 0.0716835792815, 0.01209160876, 0.00447005728454, 0.00476214863841, 0.0268964664734, -0.00358060009882, -0.00214678380188, 0.0539056541398, -0.169963402838, 0.136274853605, 0.11990725536, 0.136143887709, -0.0614329099185, 0.00796578768206, -0.0488930228626, 0.0511318222093, -0.0220905819664, 0.00408640757885, -0.0113477586952, 0.839942363749, 0.116937676007, -0.324730341775, 0.0557998139038, -0.0419955428242, -0.0215727809693, 0.124120607412, -0.0934145101798, 0.0172802039781, 0.10661055461 },
        { 0.0151113046278, -0.0138881931596, -0.00510766217441, 0.014957559317, 0.0119996103852, -0.0035625525079, -0.0314239031656, 0.0228779701133, -0.0037149788525, -0.00208758127277, 0.0177818254601, 0.000822230764393, 0.000619596940165, -0.0603087556507, 0.0892977409724, -0.0597387553258, -0.0468747778489, -0.0197641366838, 0.0177305432329, -0.00311402781147, -0.0206097593384, 0.0338043340705, -0.0333075617636, -0.00212192990998, 0.0074516511118, 0.80062098356, -0.0607216846426, 0.213238338716, 0.0531875802653, -0.063319705137, 0.0141660429704, 0.0413398681892, -0.0492150282282, -0.00313534929873, 0.127009162075 },
        { 0.0174848389968, -0.0101263239588, -0.0291812907406, -0.00306256905737, 0.101645838538, -0.11805299967, 0.00841112168882, 0.0279004374736, -0.0221690131775, 0.000558775274608, 0.00906821099857, 0.00235192830348, 0.00219474198216, -0.0817537129194, 0.171267411277, 0.0159900550208, -0.0265716234511, -0.0181698963693, 0.0628052933726, -0.00176523022017, -0.00341210026998, 0.0172392218507, -0.0283188095737, -0.0100181821284, 0.0306917611353, 0.218777857512, -0.286682841423, 0.878283223219, 0.0145340493137, -0.0538357831402, 0.0583469086994, 0.00472386233963, -0.0174977270966, -0.00619007011686, 0.0745326363172 },
        { -0.0237962287143, -0.00607202090538, -0.0416663265659, -0.0263137100299, 0.182331457463, -0.315106328426, 0.293849476563, 0.023375074212, -0.0330770644545, 0.019521275287, 0.00312931507752, 0.00146618140056, 0.001621590391, 0.119963331914, -0.263630893323, 0.558625766205, 0.0160599731108, 0.0116857622881, 0.04640384203, 0.00106691071859, 0.00122666756435, 0.00594901870619, -0.0136108164331, -0.00861385599577, 0.0260155585734, -0.108480959671, -0.24649628853, 0.744467824345, -0.00720670563002, -0.025874991671, 0.0494571625967, -0.000964790630513, -0.00346398906941, -0.00219224931594, 0.0203510309185 },
        { -0.0397593993097, -0.00248723719753, -0.0283400422935, 0.318757741487, 0.141220336742, -0.292071731246, 0.35551002857, 0.0118035930306, -0.0226646505436, 0.0236175650751, 0.000507715991805, 0.000324330609823, 0.000403540495301, 0.208175158225, -0.465164664459, 0.675846234019, 0.00895437996321, 0.00665649527673, 0.0115478171927, 0.000594865501653, 0.000516541394295, 0.000965199047669, -0.00271523353214, -0.00232450749325, 0.00698712728078, -0.0557268991408, -0.0665186961598, 0.199945406917, -0.00370209997221, -0.00516182444855, 0.0132829548531, -0.000159240949283, -0.000222029073064, -0.000190078767792, 0.0015913029126 },
        { 0.0207482168962, -0.0130188654917, -0.0155342894083, -0.0212568784098, 0.00782133424114, -0.0594824625952, 0.0639030678482, 0.00183415388914, 0.00126994446757, 0.0017045000199, 0.0385316562544, -0.0350247757469, 0.00438266276749, -0.00642488984696, -0.0255222884737, 0.0487764050051, -0.134973214909, 0.703898834295, 0.125415389646, -0.00360016905676, -0.0150281678219, 0.0294107268128, -0.00616793433038, 0.00770582697673, -0.00586962730897, 0.123958018077, 0.220511899752, -0.167966744211, 0.00330635838612, -0.00470790641317, -0.00448021242941, 0.0694595287462, -0.0989030596964, 0.123563226303, 0.0217597357652 },
        { 0.0234010714461, -0.0117473118356, 0.00477968258336, -0.0378709741214, -0.0094979428011, -0.113783162868, 0.118840930354, 0.00838751179599, 0.00305933351553, 0.00316986922499, 0.0309307639363, -0.0224018151291, -0.000934248382826, -0.0324354591592, -0.0444362460198, 0.0907097819453, -0.119612771322, 0.325382166839, -0.0267346887439, -0.00319045670208, -0.008748680765, 0.0236090616566, -0.0250649737368, 0.0248653017341, -0.0125226098987, 0.364064046561, 0.711551782809, -0.358350181877, 0.00971075717496, -0.0191317780444, -0.00955835005595, 0.0358105174844, -0.0705525696732, 0.0699905354567, 0.0783111066193 },
        { 0.0138022652695, -0.00962024929264, 0.0230774264291, 0.014957559317, -0.0774869035168, 0.0552605468134, -0.0520962530749, 0.0157355219776, -0.00252792119979, -0.0013895743568, 0.0202761908051, -0.00867870271992, -0.00266323091934, -0.0368967302123, 0.014328634197, -0.0397644123325, -0.0475437130672, 0.0491921807485, -0.0762116916556, -0.00126814349605, -0.00225032077583, 0.0154765604841, -0.0375747750128, 0.0219090394456, 0.00822313220441, 0.212979426035, 0.62695463115, 0.235315237389, 0.00568084519474, -0.0286803514403, 0.00627661300652, 0.00732011948929, -0.0369564021446, 0.0215484795871, 0.0932949656745 },
        { -0.0142606302481, -0.00692983835949, 0.00762984317046, -0.00306256905737, -0.0326572622022, 0.0562180780482, 0.0139444142835, 0.0189988778864, -0.0149834450595, 0.000371942306121, 0.0102372878743, -0.000756986900268, -0.000469366446581, 0.0537080590968, -0.0718019573303, 0.0106435953946, 0.0289398597871, -0.00362754632841, -0.0134315093147, 0.00077191898987, 0.000966826739719, 0.00781399260355, -0.0317312128394, 0.00317560362447, 0.0338693271619, -0.152058700872, 0.0908738789757, 0.969213258791, -0.00405589383092, -0.0242200341999, 0.0258520298716, -0.00218546342489, -0.0130506371961, 0.00130608467415, 0.0547481743304 },
        { -0.0396554283292, -0.00410637255436, -0.031149609516, -0.0263137100299, 0.150843899792, -0.308852152837, 0.487159619105, 0.0157629302273, -0.0222096932192, 0.0129941113693, 0.00349848171405, 0.000964932232106, 0.000892988177657, 0.180550268746, -0.332977836763, 0.37184278758, 0.0400719792938, 0.0144667035288, 0.025553976245, 0.00106884836368, 0.00104030696992, 0.00267034692908, -0.0151511688358, -0.00561991197676, 0.0287089900361, -0.227153224206, -0.160820826912, 0.82154374241, -0.00605890590573, -0.0115646959109, 0.0219132096852, -0.00134473547829, -0.00256671041421, -0.000952051076322, 0.0149489115585 },
        { -0.0329246312815, -0.00166598515423, -0.0377874741588, 0.318757741487, 0.195177762572, -0.426858671808, 0.589383830566, 0.00789725445704, -0.0151381171149, 0.0157207593431, 0.000563156508833, 0.000316595950773, 0.000371243290966, 0.166432740934, -0.351930690485, 0.449869237756, 0.0118683881658, 0.00736021730541, 0.0106235921996, 0.000316568023194, 0.000261022766829, 0.000429850254159, -0.00300660505107, -0.00226132994135, 0.00771051549474, -0.0698975033426, -0.0647107913064, 0.220646067573, -0.00186439086339, -0.00229490368146, 0.00588533914307, -0.000132950490001, -0.000163650538601, -0.000123084960136, 0.00116889638655 },
        { -0.0114506537286, -0.00717452756245, -0.000689284464118, -0.0212568784098, 0.103092580737, -0.139000664527, 0.0879880252076, 0.00100134939958, 0.000683570153083, 0.000891265584464, 0.0289647250525, -0.0440556548406, 0.0302061063027, 0.00222690012133, 0.00264693257862, 0.0255046820812, 0.0644146286605, -0.170593095009, 0.864385601317, 0.000652481306697, 0.000838933745149, 0.0083958709414, -0.00457130253903, 0.00941580196867, -0.00422593210511, -0.0177010794908, 0.269444977946, -0.120930345249, -0.000179301250605, -0.00132506233297, -0.001224951402, -0.00518641288198, -0.0383283458978, 0.0789473266492, 0.00819173193695 },
        { -0.0198422648742, -0.00643589524436, -0.0410273502508, -0.0378709741214, 0.263401135782, -0.278486999962, 0.16363187446, 0.00455701754837, 0.00164135890282, 0.00165749211763, 0.0231387591651, -0.0294162199663, 0.0135475441342, 0.0187685769747, 0.0108836086267, 0.0474312149476, 0.0952995194513, -0.195054612883, 0.387679959988, 0.000965326607825, 0.00114962143811, 0.00670712514421, -0.0185159434995, 0.0318222427825, -0.00901585337966, -0.122776488467, 0.910633372842, -0.257999947655, -0.00124365171845, -0.00536713093938, -0.00261338373711, -0.00631477875454, -0.0272521992501, 0.0468367221426, 0.0294812216487 },
        { -0.0320911629041, -0.00522123719037, -0.0128085241846, 0.014957559317, 0.072606813794, 0.156082262627, -0.071731242069, 0.00848331883206, -0.00134918378484, -0.000726594184108, 0.0150512603302, -0.0130828019609, 0.00130487233394, 0.0653065288192, -0.0149122945565, -0.020792403511, 0.115868044804, -0.144601942788, 0.0373405577572, 0.00117367335418, 0.00124994725975, 0.00436283924701, -0.0276125065663, 0.0323572673782, 0.00592037561466, -0.305196249752, 0.925943772407, 0.169418970602, -0.00309145378896, -0.00800390962037, 0.00171611190837, -0.00548491418248, -0.0142006836877, 0.0166408405529, 0.0351220877918 },
        { -0.0410473113063, -0.00371909942843, 0.023425656247, -0.00306256905737, -0.128105476692, 0.40688524796, 0.0192000402609, 0.0101486025112, -0.00794737859827, 0.000194484818411, 0.0075294814864, -0.00290600620339, -0.000962742380364, 0.130483501605, -0.129824235485, 0.00556542690489, 0.0968087092321, -0.0474710030488, -0.0275500802065, 0.000980613789335, 0.000927214824229, 0.0021825359882, -0.0231739869067, 0.0120180045875, 0.024384764057, -0.378558174382, 0.34391026827, 0.697800594727, -0.00383456580311, -0.00671733644678, 0.0070682988217, -0.00284495251352, -0.00498374631957, 0.00258456546008, 0.0206106532262 },
        { -0.0378272669198, -0.00217955950682, -0.0109099204545, -0.0263137100299, 0.0587851488583, -0.145978763866, 0.67076924926, 0.00834395122324, -0.0117087403846, 0.00679448760864, 0.00254985963544, 0.000240438206253, 0.000181968286694, 0.157716837061, -0.25233066812, 0.194432781186, 0.048197285182, 0.00518159351325, 0.00520725065782, 0.000488209406291, 0.000415607939254, 0.000739116024027, -0.0109980481568, -0.00138892465915, 0.0206694967691, -0.237014806739, -0.0397458204197, 0.591483563445, -0.00240081692658, -0.0031879533731, 0.00599137146936, -0.000733674731478, -0.000974218737412, -0.000123032415253, 0.00562770970922 },
        { -0.0208208114504, -0.00087630269696, -0.041423257816, 0.318757741487, 0.221649593809, -0.512733570722, 0.811521591795, 0.00414946723725, -0.00794122037893, 0.0082202238783, 0.000407424535037, 0.0001994933339, 0.000220447584641, 0.101904068198, -0.205028874448, 0.235232011991, 0.0100056742782, 0.00515058035889, 0.00630838401015, 0.000101351440864, 7.97722170829e-05, 0.000118098266368, -0.00217166900377, -0.00142030528806, 0.0055513090118, -0.0560688194345, -0.0406438164578, 0.158857667062, -0.000567943296893, -0.000629491654073, 0.00160913227847, -5.57647573615e-05, -6.18080177063e-05, -4.04234044136e-05, 0.000440046054052 },
        { -0.0390513231162, -0.00236068150022, 0.387516081047, -0.0212568784098, 0.262556679557, -0.219035204539, 0.106027728523, 0.000327194397491, 0.000221030505748, 0.000282150620198, 0.0114047432892, -0.0224474923773, 0.0243536622467, 0.00593979097142, 0.00462994142219, 0.00807409372984, 0.207038359276, -0.470209188683, 0.696910577433, 0.000550950230548, 0.000474492559315, 0.000868480043519, -0.00178116838249, 0.00469708299921, -0.00161210110068, -0.0373102583558, 0.134412918766, -0.0461322940907, -9.92864100876e-05, -0.000135637353258, -0.000122762748671, -0.00346074391201, -0.00472779853872, 0.0124675815932, 0.000989280306535 },
        { -0.0372787624424, -0.00210867397276, 0.0799293160801, -0.0378709741214, 0.764883330884, -0.445533602769, 0.197180422245, 0.00148384063353, 0.000529489218046, 0.000524717252761, 0.00907909397496, -0.0151815448979, 0.0124540900036, 0.0284858251259, 0.0115355208832, 0.015015442027, 0.174294649592, -0.330747109176, 0.356389399176, 0.000463815873117, 0.000393072547435, 0.000691380045172, -0.00719772582689, 0.0161168511575, -0.0034393517916, -0.156810589824, 0.461203901606, -0.0984213634399, -0.00041728900344, -0.00054811240208, -0.000261909305443, -0.00255324324684, -0.00335370517215, 0.00750947846385, 0.00356032060303 },
        { -0.0333069763328, -0.00169904627412, -0.0414641981719, 0.014957559317, 0.485132602397, 0.260282989501, -0.086437906099, 0.00274685830726, -0.000433602531326, -0.000230020100912, 0.00587271901696, -0.00701154454318, 0.00276010102329, 0.0574989986829, -0.0100332741504, -0.00658231356433, 0.122931518575, -0.162242476778, 0.0789837511265, 0.000327133332863, 0.000270277933853, 0.000447212106233, -0.0106935625709, 0.0170819695774, 0.00225849441198, -0.24744192473, 0.488821975162, 0.0646296490786, -0.000658468246917, -0.000814323080445, 0.000171986100473, -0.00140778975949, -0.00174100375977, 0.00278109124636, 0.00424154379614 },
        { -0.0264989462192, -0.00120033135212, 0.0131840854935, -0.00306256905737, -0.0910288446184, 0.787683242932, 0.0231365194481, 0.00326400315077, -0.00254264559122, 6.15686424902e-05, 0.00291813435182, -0.00179985751844, -0.000216568503754, 0.0754262437133, -0.0629796725042, 0.00176186389361, 0.0674337317219, -0.0445812965272, -0.00619737924736, 0.000179448050926, 0.000143908656281, 0.000222218193306, -0.00893425968342, 0.00736522298622, 0.0093022566379, -0.221295783759, 0.210765089548, 0.266195735954, -0.000588890694013, -0.000680350801582, 0.000708374054972, -0.000526489125251, -0.000608257698806, 0.000501435344789, 0.00248906012776 },
        { -0.0172432776158, -0.000697727084342, 0.0043807776962, -0.0263137100299, -0.025780474752, 0.0761602021266, 0.808293397817, 0.00266569326922, -0.00372932009737, 0.00215095132822, 0.000981636231924, -3.9954101683e-05, -2.52634621508e-05, 0.0676266389819, -0.0984281348279, 0.0615521689098, 0.0249033749811, -0.00105451063591, -0.000722945642302, 6.62704256123e-05, 5.16359935709e-05, 7.47523601188e-05, -0.00422115197927, 0.000229398707721, 0.00788496304796, -0.111409078678, 0.00656453161914, 0.225638103014, -0.000296470942861, -0.00032144399586, 0.000600446049276, -0.000109174833648, -0.000118371110628, 6.4328837112e-06, 0.000679634347057 },
        { -0.00753006647677, -0.000278644893203, -0.0413799548914, 0.318757741487, 0.227545503414, -0.55015732716, 0.977903422909, 0.00131837804992, -0.00252005892218, 0.00260230093684, 0.000155987820225, 6.7927711463e-05, 7.16441171055e-05, 0.0359979318491, -0.0698878811132, 0.0744681038184, 0.00425920237529, 0.00188381461292, 0.00205018623137, 1.13341727536e-05, 8.62902953128e-06, 1.18785934466e-05, -0.00083044899992, -0.000482448237734, 0.00211770353747, -0.0230305412569, -0.0138058611692, 0.0606007416946, -6.12866236936e-05, -6.3239335187e-05, 0.000161264766224, -7.25130916718e-06, -7.48235003557e-06, -4.34686126278e-06, 5.31424732394e-05 },
        { 0.0452668517938, -0.0307624415951, -0.0229421679946, -0.0212568784098, 0.00329509970027, 0.00234943618992, 0.00335332940899, 0.00540418126894, 0.0053455475011, 0.0188080699102, 0.00595753117475, 0.00582314413558, 0.020373844542, 0.132616533944, -0.156212458535, 0.0922225735541, 0.14619552823, -0.170169222449, 0.09990011659, 0.819977813134, -0.387177002605, 0.163842793223, -0.00136239083487, -0.00335846778728, -0.00339869549604, 0.0398130260292, -0.0164677473032, -0.0166649978902, 0.223302302149, -0.0374681916551, -0.0934702223206, 0.246166877136, -0.0413046692437, -0.10182129648, 0.0238222509849 },
        { -0.0335310671279, -0.0354165181288, -0.0209656555302, -0.0378709741214, 0.0152279910476, 0.0057009138864, 0.00623620743366, 0.0306950474124, 0.0152660803101, 0.0349774838917, 0.00593991623515, 0.00560080440536, 0.0165280888009, 0.354195815801, -0.314338243789, 0.171506890199, 0.0685417894435, -0.115324103164, 0.0810430252777, 0.384435470063, -0.308818385205, 0.163358350788, -0.00656330341437, -0.0137469841689, -0.0072509778937, 0.135142566188, -0.0674062923372, -0.0355540916923, 0.757984236765, -0.180502616375, -0.199414898026, 0.14668043393, -0.034929752904, -0.0731611400356, 0.0857338920343 },
        { -0.0219428336713, -0.0405198741795, -0.0175181932261, 0.014957559317, 0.0290488590754, -0.0047645693586, -0.00273376386168, 0.0771585166103, -0.0157511771854, -0.015333066203, 0.00521727338977, 0.00466243481042, 0.0110168343002, 0.141509423372, 0.178335144389, -0.0751834096996, 0.00956852699345, -0.0527881805488, 0.0540194085006, 0.0536677142865, -0.174512305843, 0.143484376349, -0.0122857134953, -0.0208439024718, 0.00476144751879, 0.1390990949, -0.102204975739, 0.023347049757, 0.780175515805, -0.337879157785, 0.13094834729, 0.0527535926918, -0.0228465763251, -0.0387614287863, 0.102138009023 },
        { 0.0227155644009, -0.0409013298105, -0.0129213245922, -0.00306256905737, 0.0357659858615, -0.0286178897155, 0.000731736614256, 0.124435447361, -0.115319069136, 0.004104145975, 0.00351848405757, 0.00296578335875, 0.00567217586037, -0.13059745877, 0.487183042014, 0.0201240693949, -0.00369271848485, -0.0125294053229, 0.0278126707309, -0.0207116268493, -0.050488675896, 0.096764622625, -0.0128153546723, -0.0178375465842, 0.019611386485, 0.0541404255209, -0.0874637567676, 0.0961615169048, 0.303661461183, -0.35244524016, 0.539348304931, 0.00858620298904, -0.00996559248163, -0.0138709949648, 0.0599375269965 },
        { -0.00715998137977, -0.0323065307779, -0.00783493847658, -0.0263137100299, 0.0302417895716, -0.0429653425878, 0.0255638224051, 0.131510475271, -0.202676200305, 0.143381726137, 0.00153164286417, 0.00122496774613, 0.00197548012393, 0.0393593812153, -0.101539014261, 0.703050969513, 0.000458400863146, 0.000613698190787, 0.0096864729823, 0.0025710672676, 0.00289493833754, 0.0421229260452, -0.00725539132318, -0.00862669372075, 0.0166233919115, -0.00363488797364, -0.0422997096454, 0.0815103299065, -0.020387268528, -0.199536275253, 0.457173094648, -0.000237441270717, -0.0023239085062, -0.00276313792393, 0.0163658569635 },
        { -0.0416061741348, -0.0161739093893, -0.00323828259234, 0.318757741487, 0.0153839462541, -0.0295861104677, 0.0309280633742, 0.0784433041507, -0.155653604978, 0.173468546385, 0.000293537346773, 0.000225629792733, 0.000322881567178, 0.224044587023, -0.523587340888, 0.850577217905, 0.000838381992518, 0.000758973126379, 0.00158320174375, 0.00470229589865, 0.0039929852669, 0.00807280354896, -0.00162225161431, -0.00172947750906, 0.00446462661166, -0.00545692731696, -0.00848023574728, 0.0218916325839, -0.0306066771123, -0.0446148291973, 0.122785239942, -0.000114531162224, -0.00016695011424, -0.000177985008716, 0.00127969123321 },
        { -0.0371196300182, -0.0359407441801, -0.0350659355622, -0.0212568784098, 0.00599822697193, 0.00566752376677, 0.0169378185276, 0.00611084993177, 0.00571498907328, 0.0165069212086, 0.0340266576918, 0.0150179428429, 0.032549863501, 0.06334394347, -0.112493023728, 0.080939233137, 0.352714058661, -0.295611028983, 0.159603414664, 0.343741029343, -0.298086760656, 0.162600135036, -0.00735709192403, -0.00711037868195, -0.0150666035806, 0.144815940287, -0.0348646843683, -0.0738768498609, 0.141131829473, -0.0351566748386, -0.0719974262217, 0.78585540547, -0.195760680376, -0.189196027844, 0.0926846361759 },
        { -0.0370704309535, -0.0390080369717, -0.0384333424604, -0.0378709741214, 0.0325485416742, 0.0155690134057, 0.0314993658328, 0.0328622311184, 0.0155818091423, 0.0306980234248, 0.0321210930515, 0.0156119573309, 0.0310051193564, 0.143989215713, -0.223381252654, 0.150523192267, 0.140741843719, -0.223813457931, 0.152028991495, 0.137161377733, -0.223997403952, 0.153494184323, -0.0338371734185, -0.0329492772045, -0.0321439827791, 0.485090666653, -0.161561880356, -0.157613238909, 0.472749982558, -0.161694663546, -0.15360356541, 0.462088107319, -0.158047982651, -0.15390076256, 0.333562709761 },
        { 0.00210381920529, -0.0415790476486, -0.0414693538641, 0.014957559317, 0.0775738388854, -0.0153806649597, -0.013808364923, 0.0774642701934, -0.0152578717491, -0.0134570807589, 0.0264571108238, 0.0145795854057, 0.0258205131749, -0.00992634835531, 0.122042519826, -0.0659847940823, -0.00339024040189, -0.116617138365, 0.12660704617, -0.00330399284307, -0.115686112765, 0.126428220825, -0.0601121946771, -0.059054410534, 0.0211077580557, 0.480816973119, -0.289564519123, 0.103498752352, 0.46858501159, -0.287252749309, 0.100865748886, 0.160040306984, -0.0981081704372, -0.0963817775221, 0.397385797506 },
        { 0.0221750643566, -0.0394605990659, -0.0397912955371, -0.00306256905737, 0.119623530224, -0.108776985439, 0.00369603473761, 0.118306304374, -0.107115557793, 0.00360200778505, 0.0168966504627, 0.0104710507099, 0.0166501422949, -0.112153157117, 0.285587702719, 0.0176619094615, -0.0160178504782, -0.0279175441824, 0.0816414964331, -0.0156103571039, -0.027491139833, 0.0807425070004, -0.0601261385669, -0.0595054003496, 0.0869383521355, 0.160306179051, -0.29177588061, 0.426289279697, 0.15622799728, -0.287319381724, 0.415444500163, 0.0223126728242, -0.0410353039919, -0.0406116582689, 0.233197437407 },
        { -0.0171786621135, -0.0297597768917, -0.0302634288259, -0.0263137100299, 0.122384585352, -0.186697041101, 0.129124023309, 0.120166015898, -0.182884842748, 0.125839114136, 0.00706903423221, 0.00480306837549, 0.00701639040425, 0.0896075054432, -0.209471326238, 0.617033380609, 0.0052713616134, 0.00550130392168, 0.0344038268271, 0.00513725841807, 0.00538897186958, 0.0337801594014, -0.0330686951528, -0.0328992034606, 0.0736924082749, -0.037875984289, -0.1613163512, 0.361339763994, -0.0369124210027, -0.158022405433, 0.352147297131, -0.00217145559592, -0.00929602088501, -0.00924837466544, 0.0636742304213 },
        { -0.0408326414437, -0.014447403299, -0.0147758465975, 0.318757741487, 0.0714818259556, -0.141296825001, 0.156219047087, 0.0698522772536, -0.137953993268, 0.152244841764, 0.0013202899357, 0.000955027914797, 0.00131671864158, 0.216214234358, -0.491851423678, 0.746509938813, 0.00408670252141, 0.00340498907222, 0.0064563340286, 0.00398273699852, 0.00332443308292, 0.00630915101257, -0.00726230635734, -0.00724905333716, 0.0197919346913, -0.0258925141378, -0.0355446549156, 0.0970468081823, -0.0252338097772, -0.0347037315586, 0.0945779418764, -0.000476948589195, -0.000655941213508, -0.000654744183017, 0.00497886267939 },
        { -0.0127542852383, -0.0410533357513, 0.0198466425926, -0.0212568784098, -0.00487611000413, -0.00954364589555, 0.0385456476718, 0.00664047587943, 0.00571470487757, 0.0128466563622, 0.0841462466363, -0.0252877283167, -0.0205931982245, 0.00618825302102, -0.0570872423944, 0.0629916688392, 0.0784158054948, 0.252612638263, -0.100975684748, 0.0261347510653, -0.151263646181, 0.13751260706, -0.0167418118594, 0.00931832228184, -0.0266843889622, 0.167242909689, 0.0456910074316, -0.130842932612, 0.0557394237627, -0.0273596302595, -0.0436078855646, 0.706314334162, -0.346693555928, 0.192966108705, 0.127753756554 },
        { 0.00688187291762, -0.0416528417151, 0.0126254261451, -0.0378709741214, -0.0145276010052, -0.0124469902118, 0.0716835792815, 0.0335957720724, 0.0148296966387, 0.0238910062605, 0.074730135181, -0.0118788663926, -0.0107701017219, -0.0133270915991, -0.108860182108, 0.117145995983, -0.0296446634603, 0.0871990567462, -0.0528095919985, -0.00988009872577, -0.103891425696, 0.122124706989, -0.0732868972994, 0.0205009117653, -0.0569300529268, 0.537976276958, 0.100523171821, -0.279148047544, 0.179299007243, -0.119766153737, -0.0930356410534, 0.398831109469, -0.266406762124, 0.0745233012343, 0.459772956734 },
        { 0.0232980214253, -0.0406255526619, -0.00510766217441, 0.014957559317, 0.0119996103852, -0.0035625525079, -0.0314239031656, 0.0731724321588, -0.0136495433034, -0.0104730912544, 0.0568730272263, 0.0030210331928, 0.00310842762384, -0.0770391341831, 0.0523053029111, -0.0513532453442, -0.0598784083926, -0.0115766551849, 0.0152417125493, -0.0199565290142, -0.0443547304647, 0.0929424491042, -0.12237835656, -0.0106454133655, 0.0373838485273, 0.468956130425, -0.0521982011871, 0.183306141301, 0.156295681105, -0.19999188949, 0.0610930454826, 0.121480293392, -0.155443024653, -0.0135216332261, 0.547744810006 },
        { 0.00647176110132, -0.0354276773892, -0.0291812907406, -0.00306256905737, 0.101645838538, -0.11805299967, 0.00841112168882, 0.103813731573, -0.090674348752, 0.00280329418452, 0.0337415792619, 0.00961971403605, 0.0110107009288, -0.027474506131, 0.0464904352817, 0.0137455361108, -0.00892977462857, -0.00493220738806, 0.053989334426, -0.00297615302827, -0.00378833823853, 0.0551408139532, -0.115827871767, -0.0502597609025, 0.153976096318, 0.0593871171982, -0.246441262649, 0.754998888036, 0.0197927894086, -0.189287024123, 0.251629220269, 0.00643306008292, -0.0615221419258, -0.0266955448307, 0.321432438824 },
        { -0.0317987693856, -0.0249646017209, -0.0416663265659, -0.0263137100299, 0.182331457463, -0.315106328426, 0.293849476563, 0.0995265213446, -0.148528596512, 0.0979353954499, 0.0133240151895, 0.00658371198436, 0.00813528285757, 0.153399643028, -0.312013143097, 0.480211646042, 0.0205362263863, 0.0138303647764, 0.0398901495635, 0.00684440032263, 0.00651908414454, 0.0217742340088, -0.0611177411154, -0.0432144611913, 0.130516269008, -0.128389676818, -0.211895683335, 0.63996711391, -0.0427902541053, -0.0998792014424, 0.213290944428, -0.00572850319654, -0.0133712298909, -0.00945438238805, 0.0877666727481 },
        { -0.0375549706914, -0.0115604225982, -0.0283400422935, 0.318757741487, 0.141220336742, -0.292071731246, 0.35551002857, 0.0556193091874, -0.109028228365, 0.11848588482, 0.0023923912536, 0.00156019135285, 0.00202450390184, 0.193722433867, -0.422802736009, 0.580977914275, 0.00833271508009, 0.00605029708889, 0.00992685378615, 0.00277716249859, 0.0022585313884, 0.00390966883898, -0.0130616221519, -0.0116617156016, 0.0350534001105, -0.0506519244179, -0.0571814880514, 0.171879134088, -0.0168814874411, -0.0213454287784, 0.0572846042244, -0.000726134924937, -0.000918145476095, -0.000819741322983, 0.00686271680943 },
        { 0.022903013736, -0.0398119578759, -0.0155342894083, -0.0212568784098, 0.00782133424114, -0.0594824625952, 0.0639030678482, 0.00609182004185, 0.00479361175887, 0.00855122839258, 0.127976129596, -0.132206707584, 0.0219871809064, -0.00603973175272, -0.0142046242535, 0.0419296766324, -0.12688186588, 0.391760263345, 0.107810871507, -0.0169787750502, -0.0315714333788, 0.0839708939075, -0.0232818704196, 0.0386590118289, -0.0294470654809, 0.068989780121, 0.1895587149, -0.144389306039, 0.00923190992911, -0.0152762822031, -0.0193215439409, 0.193942712259, -0.320922065581, 0.532883729091, 0.0938419098101 },
        { 0.0181972366057, -0.0382020192824, 0.00477968258336, -0.0378709741214, -0.0094979428011, -0.113783162868, 0.118840930354, 0.0293456711253, 0.011982667616, 0.0159027723092, 0.108218509637, -0.087742478329, -0.0046869880925, -0.0221851666344, -0.0216962060909, 0.0779768788612, -0.0818126005358, 0.158869373144, -0.0229819490343, -0.0109478035426, -0.0167307609031, 0.0710070309225, -0.098173424887, 0.124745597945, -0.0628241103344, 0.177755982829, 0.611671486599, -0.308048681442, 0.0237865263516, -0.0644159990752, -0.0412217240853, 0.0877179608614, -0.237547929538, 0.301843992351, 0.337727621502 },
        { 0.00187910529644, -0.0343961366283, 0.0230774264291, 0.014957559317, -0.0774869035168, 0.0552605468134, -0.0520962530749, 0.0596268432284, -0.0104721724011, -0.00697129219992, 0.0768328659273, -0.0359524146198, -0.0133610417058, -0.00459896396556, 0.00148072523473, -0.0341826944894, -0.00592604878337, 0.00508353429812, -0.0655138808691, -0.000792997868781, -0.000963357234897, 0.0504134986246, -0.155657352729, 0.10991446053, 0.0412542568268, 0.0220093559702, 0.538949210065, 0.202284112767, 0.00294519552835, -0.102133789271, 0.0270687731701, 0.00379506612974, -0.131605688191, 0.0929308379374, 0.402347613456 },
        { -0.0245238075704, -0.0275964122236, 0.00762984317046, -0.00306256905737, -0.0326572622022, 0.0562180780482, 0.0139444142835, 0.0787755848343, -0.0660670781408, 0.00186598038801, 0.042447156313, -0.00333781133064, -0.00235474311391, 0.0875993262265, -0.106356795999, 0.0091495573127, 0.0472017097819, -0.00537331041065, -0.0115461326474, 0.0063163258738, 0.0063146754763, 0.0278514881695, -0.139913652023, 0.0159315409563, 0.16991748236, -0.225237261348, 0.0781179416439, 0.833165103593, -0.0301402628882, -0.0918036392202, 0.111490501622, -0.0162406721933, -0.0494671468612, 0.00563267318675, 0.23610917399 },
        { -0.0414204338155, -0.0180937203573, -0.031149609516, -0.0263137100299, 0.150843899792, -0.308852152837, 0.487159619105, 0.0710774883413, -0.103706999523, 0.0651895645528, 0.0157751946914, 0.00450570053115, 0.00447999165143, 0.183616361351, -0.324071108371, 0.319647334397, 0.0407524789697, 0.0140797378368, 0.0219669727712, 0.00545331807952, 0.00472772280105, 0.0103508146713, -0.0707475895194, -0.0281942800225, 0.144028822442, -0.221077167941, -0.138246458866, 0.706223910004, -0.029583577426, -0.0464206751093, 0.0945037875973, -0.00656588611183, -0.010302772434, -0.00410585368328, 0.0644692759767 },
        { -0.029979091974, -0.00794679374006, -0.0377874741588, 0.318757741487, 0.195177762572, -0.426858671808, 0.589383830566, 0.0380143115079, -0.0738734593397, 0.0788687603862, 0.00271081640727, 0.00154497669155, 0.00186247353077, 0.15009392993, -0.31269135892, 0.386721236713, 0.0107032607391, 0.00653957274371, 0.00913236195977, 0.00143226342971, 0.0011317583385, 0.0017786885543, -0.0146721229797, -0.0113447630236, 0.038682533441, -0.0621041184989, -0.0556273582242, 0.189674049627, -0.00831050087714, -0.00962703971444, 0.0253813498024, -0.000592625283393, -0.000686508216935, -0.000530821139222, 0.00504102947148 },
        { -0.0222437923576, -0.0283061322691, -0.000689284464118, -0.0212568784098, 0.103092580737, -0.139000664527, 0.0879880252076, 0.00411987739431, 0.00299805780387, 0.00447134965222, 0.119170307613, -0.193222888981, 0.151539636743, 0.00409178731268, 0.00439026810676, 0.0219245980134, 0.118357782543, -0.282949943757, 0.743052070877, 0.00601467107099, 0.00610285058617, 0.0296945076717, -0.0200491920093, 0.0472377073589, -0.0212008859961, -0.0293594500183, 0.231623072556, -0.103955391358, -0.00149197991794, -0.00499579885172, -0.00528277458093, -0.0431565526727, -0.14450694255, 0.340471409538, 0.0353279919347 },
        { -0.0288709819702, -0.0261082677265, -0.0410273502508, -0.0378709741214, 0.263401135782, -0.278486999962, 0.16363187446, 0.0191880228148, 0.00731426757479, 0.00831539659209, 0.097429301962, -0.131085348551, 0.0679660561441, 0.0260367156711, 0.0138678998131, 0.0407733104731, 0.132204295237, -0.248538689907, 0.333261447978, 0.00671831909098, 0.00652769601781, 0.0242771476596, -0.0825112441421, 0.159647558123, -0.0452312235279, -0.156441865917, 0.782808057501, -0.221784577507, -0.00795001684728, -0.0205599097733, -0.0112705835955, -0.0403670872968, -0.10439520929, 0.201989927751, 0.127141899741 },
        { -0.0374416832912, -0.0221339932149, -0.0128085241846, 0.014957559317, 0.072606813794, 0.156082262627, -0.071731242069, 0.0370490794308, -0.00616440335591, -0.00364521721589, 0.0657331582778, -0.0597751538515, 0.00654635448542, 0.0734957143738, -0.015781936171, -0.0178737804793, 0.130397448463, -0.15303470721, 0.0320990756057, 0.00662649928167, 0.0060440414357, 0.0163791955552, -0.126161187271, 0.162331698609, 0.0297016623407, -0.322994406726, 0.795969341176, 0.145637683876, -0.0164138350051, -0.0314364745576, 0.00740097309393, -0.0291217280135, -0.0557751714626, 0.0717659568652, 0.151468925471 },
        { -0.0416602330199, -0.016602631325, 0.023425656247, -0.00306256905737, -0.128105476692, 0.40688524796, 0.0192000402609, 0.0462575405758, -0.03738204278, 0.000975702013319, 0.0343195326635, -0.0136689660459, -0.00482993832889, 0.129329218445, -0.123804301673, 0.00478420970999, 0.0959523200222, -0.0452697784835, -0.0236828842579, 0.00487607684965, 0.00415910088752, 0.00855164047471, -0.10900335994, 0.0602925789678, 0.122334810394, -0.361004478456, 0.29563569389, 0.599850548391, -0.0183454196794, -0.0271611374748, 0.0304830291918, -0.0136108885616, -0.0201514722387, 0.0111463007373, 0.0888863303328 },
        { -0.0352130914299, -0.0102301703862, -0.0109099204545, -0.0263137100299, 0.0587851488583, -0.145978763866, 0.67076924926, 0.0396355708123, -0.0566314409285, 0.0340869549274, 0.0121123841017, 0.00116292287873, 0.000912908396339, 0.144938802278, -0.227255225176, 0.167140313867, 0.0442923971688, 0.00466667095758, 0.00447631054817, 0.0022508380454, 0.00181040237406, 0.00301812833948, -0.0531940494076, -0.00696803276141, 0.103695855423, -0.213461382545, -0.0341667123174, 0.508457204791, -0.0108476179157, -0.0132547371897, 0.0258386290685, -0.00331496461614, -0.00405056530582, -0.000530594532049, 0.0242702867658 },
        { -0.0184055291839, -0.00428264848752, -0.041423257816, 0.318757741487, 0.221649593809, -0.512733570722, 0.811521591795, 0.0203755541989, -0.0392733593136, 0.0412396661782, 0.00200061844593, 0.00098659563758, 0.00110595343083, 0.0896446523153, -0.179027211683, 0.202212569691, 0.00880195666091, 0.00449738624711, 0.00542287816396, 0.000447295251391, 0.000344481961277, 0.000498508235657, -0.0107400038061, -0.00712546480702, 0.0278501089372, -0.0489581988525, -0.0349386569389, 0.136558867136, -0.00248794338657, -0.00267616264323, 0.00693960844826, -0.000244284174212, -0.000262764894446, -0.000174331596309, 0.0018977602744 },
        { -0.0366608913176, -0.0110166790909, 0.387516081047, -0.0212568784098, 0.262556679557, -0.219035204539, 0.106027728523, 0.00154690104668, 0.00106565222294, 0.00141550857509, 0.0539190446614, -0.108225876199, 0.12217877714, 0.00549830220959, 0.00419198851345, 0.00694073577494, 0.191649752281, -0.425731416046, 0.599085462539, 0.00255859360138, 0.0020712726561, 0.00352962236808, -0.00858752976115, 0.0235645814234, -0.00808767646985, -0.0337810266263, 0.115545420342, -0.0396567187216, -0.000450988939696, -0.00056215271101, -0.000529431557125, -0.0157197468018, -0.0195944900267, 0.053768192778, 0.00426640995573 },
        { -0.0345913482269, -0.00991968891964, 0.0799293160801, -0.0378709741214, 0.764883330884, -0.445533602769, 0.197180422245, 0.00706157855948, 0.00256415017143, 0.0026324300484, 0.0432072918777, -0.0735194591801, 0.0624803559985, 0.0261061146433, 0.010368471207, 0.0129077292314, 0.159734046104, -0.297285394653, 0.306363133181, 0.00213250736523, 0.00171094703278, 0.00282841479914, -0.0348563281062, 0.0808558953406, -0.0172547271041, -0.140946048472, 0.396464857423, -0.0846059881273, -0.00188168079253, -0.00228174805628, -0.00112952058265, -0.0115133366482, -0.0139612061848, 0.0323856782237, 0.0153543815297 },
        { -0.0303681436979, -0.00809615246443, -0.0414641981719, 0.014957559317, 0.485132602397, 0.260282989501, -0.086437906099, 0.0132111268449, -0.00211476322801, -0.00115397735102, 0.0282450811725, -0.0341966559239, 0.0138470249112, 0.0519135578082, -0.008921841513, -0.00565835631422, 0.110989976211, -0.144270119882, 0.0678968272386, 0.00148175637887, 0.00117217473571, 0.00184896581385, -0.0521545684531, 0.0856977539138, 0.0113305375857, -0.220031627065, 0.420206190826, 0.0555576059049, -0.00293750190861, -0.00341411708174, 0.000741714159734, -0.00628031059173, -0.00729930271943, 0.011993845731, 0.0182922520139 },
        { -0.023697460018, -0.00580857400447, 0.0131840854935, -0.00306256905737, -0.0910288446184, 0.787683242932, 0.0231365194481, 0.0158982611157, -0.0125066591239, 0.000308880913821, 0.0142136081839, -0.00885306412047, -0.00108649264689, 0.066996526069, -0.0553622472973, 0.00151455162228, 0.0598972657634, -0.0391891647739, -0.00532745510423, 0.000799650190509, 0.000622236831334, 0.000930444329864, -0.0439454640359, 0.0369502512068, 0.0466680669688, -0.194529939887, 0.181180061327, 0.228829925623, -0.00259704514901, -0.00287673666718, 0.00305496238078, -0.00232185029011, -0.00257190440752, 0.00216251019355, 0.0107344206079 },
        { -0.0151507786316, -0.00342837489417, 0.0043807776962, -0.0263137100299, -0.025780474752, 0.0761602021266, 0.808293397817, 0.013147669906, -0.0184980345387, 0.0107910095947, 0.00484160323101, -0.000198178845901, -0.000126743110775, 0.0591915921718, -0.085648482069, 0.0529121106433, 0.0217971858098, -0.000917595720461, -0.000621465993678, 0.000291000324693, 0.000222868596139, 0.000316938684074, -0.0209376007065, 0.00115085991187, 0.0395577114127, -0.0969440139668, 0.00564307041499, 0.193965354649, -0.00129423769598, -0.00137060706939, 0.00258950773162, -0.000476600451284, -0.000504723320787, 2.77427124829e-05, 0.00293101836293 },
        { -0.00652774849239, -0.0013864417712, -0.0413799548914, 0.318757741487, 0.227545503414, -0.55015732716, 0.977903422909, 0.00656962672898, -0.0125859861718, 0.0130553648562, 0.000777304926465, 0.000339252876046, 0.000359428102788, 0.0311591928594, -0.0603561660007, 0.0640150398991, 0.00368669257987, 0.00162688903542, 0.00176240224569, 4.92186811247e-05, 3.72184498722e-05, 5.08835583511e-05, -0.00414752986026, -0.00242037255517, 0.01062421027, -0.0198895022863, -0.0118679368518, 0.0520942349621, -0.000265532058761, -0.000271503589483, 0.000695476903342, -3.1417215304e-05, -3.21237547224e-05, -1.87464483482e-05, 0.000229184363018 },
        { -0.0294946034011, 0.0230609139403, -0.0229421679946, -0.0212568784098, 0.00329509970027, 0.00234943618992, 0.00335332940899, -0.00612633328069, -0.0147049919799, 0.0422683008453, -0.00675362644041, -0.0160188058929, 0.0457871432098, 0.0185877476752, -0.0730085198709, 0.068762342619, 0.0204910014547, -0.079531448228, 0.0744868179222, 0.25828652914, 0.497782963146, -0.138487788874, 0.00374778192433, -0.00754764989124, -0.00763805560031, 0.0186072873395, -0.0122785651992, -0.012425637786, 0.234542546602, 0.0768508647112, -0.156623621504, 0.258558043051, 0.0847198492314, -0.170617120672, 0.0399178169154 },
        { -0.00761922356754, 0.0186531318256, -0.0209656555302, -0.0378709741214, 0.0152279910476, 0.0057009138864, 0.00623620743366, -0.0228772270599, -0.0226941956497, 0.0786066204033, -0.00442705986416, -0.008326023995, 0.037144387126, 0.0175911292244, -0.141642772539, 0.127877753688, 0.00340412681794, -0.0519657599274, 0.0604267269526, 0.0429085958781, 0.206865275705, -0.0907799294511, 0.0097568523661, -0.0308942738591, -0.0162954793606, 0.0608960829332, -0.050259002647, -0.0265095902254, 0.767587564413, 0.200071017026, -0.334150093316, 0.148538810659, 0.0387165090918, -0.122592654872, 0.143660219508 },
        { 0.0202016303902, 0.00254742784033, -0.0175181932261, 0.014957559317, 0.0290488590754, -0.0047645693586, -0.00273376386168, -0.00626078786366, 0.00203296664359, -0.0344587540478, -0.000423339423243, -0.000601769273237, 0.0247586737389, -0.0739099585506, 0.0720754086171, -0.0560577218547, -0.00499761370391, -0.0213347161394, 0.040277569062, -0.0629943002257, 0.0091031870873, -0.00868086815067, 0.00158568756066, -0.0468435275218, 0.0107006352669, 0.0562178819972, -0.0762053506889, 0.0174078620089, 0.708619422468, 0.0325156219489, 0.219423939233, 0.0479151416945, 0.00219862818258, -0.064950689112, 0.17114782087 },
        { 0.0132431030118, -0.0240373535784, -0.0129213245922, -0.00306256905737, 0.0357659858615, -0.0286178897155, 0.000731736614256, 0.0860811967491, -0.104990423166, 0.00922344916905, 0.00243399549599, 0.00270015056646, 0.0127473598758, -0.0592823208201, 0.112442308914, 0.0150047662009, -0.00167624181955, -0.00289179865129, 0.0207374867155, -0.0211288200105, -0.0106091387984, 0.0499107638457, -0.0116675370356, -0.0400871960263, 0.0440736337062, 0.0124956616429, -0.0652141073256, 0.0716992696836, 0.157506263526, -0.23925092984, 0.903760392061, 0.0044535804623, -0.00676495805862, -0.0232429688441, 0.100434473238 },
        { -0.0274746202486, -0.0413715753489, -0.00783493847658, -0.0263137100299, 0.0302417895716, -0.0429653425878, 0.0255638224051, 0.183639126391, -0.324802045833, 0.32222880737, 0.00213876162291, 0.00196309201289, 0.00443959367394, 0.135822645311, -0.288303360983, 0.52420388828, 0.00158186475303, 0.00174249525979, 0.00722235943229, 0.0199392088049, 0.0131726175365, 0.0438567887487, -0.0116272455352, -0.0193871932224, 0.0373585664952, -0.010320667649, -0.0315392101438, 0.0607751553228, -0.130090734285, -0.238424724712, 0.766063286898, -0.00151510778478, -0.00277682464075, -0.00463005925969, 0.0274234908509 },
        { -0.0389034732549, -0.0301363207944, -0.00323828259234, 0.318757741487, 0.0153839462541, -0.0295861104677, 0.0309280633742, 0.150952510997, -0.314710052713, 0.389844398752, 0.000564869112115, 0.000456192222305, 0.000725627631334, 0.202358986852, -0.447491060353, 0.634201365539, 0.000757233784826, 0.000648666731564, 0.0011804556796, 0.00954483783831, 0.0068999249329, 0.0115830324686, -0.00327996830607, -0.00388673989449, 0.0100335750391, -0.00466383734028, -0.00632297336186, 0.0163226841565, -0.0587870906044, -0.0672580223813, 0.205745407141, -0.000219983168575, -0.000251681665539, -0.000298241043473, 0.00214431794829 },
        { -0.00475989145273, 0.0177494760598, -0.0350659355622, -0.0212568784098, 0.00599822697193, 0.00566752376677, 0.0169378185276, -0.00423690642278, -0.00773676556108, 0.0370968161544, -0.0235920970291, -0.0203308005484, 0.073150909663, 0.00208931055025, -0.0503960205271, 0.0603493381913, 0.0116337752848, -0.132431496558, 0.119002368502, 0.0254800240195, 0.18078291048, -0.0840584895824, 0.00995979077083, -0.0159795038347, -0.0338599194869, 0.0648764417339, -0.0259955592155, -0.0550835339546, 0.142090873617, 0.0354866702914, -0.120642674788, 0.791195590088, 0.197598173104, -0.317026816877, 0.155307252034 },
        { 0.0124141928321, 0.00972371753749, -0.0384333424604, -0.0378709741214, 0.0325485416742, 0.0155690134057, 0.0314993658328, -0.0109259298807, -0.00888955129824, 0.0689891783512, -0.0106795186579, -0.00890675108979, 0.0696793301471, -0.0223879598193, -0.0951272431353, 0.112232037341, -0.0218830467717, -0.095311298404, 0.113354780704, -0.0479277400255, 0.0544205759469, -0.038051056112, 0.0193043879657, -0.0740485317296, -0.0722387539478, 0.206576591549, -0.120462625831, -0.11751846774, 0.452439245705, 0.0687814098387, -0.257386214489, 0.442235436147, 0.0672301907219, -0.257884213666, 0.55893522348 },
        { 0.0233567065038, -0.00822409477483, -0.0414693538641, 0.014957559317, 0.0775738388854, -0.0153806649597, -0.013808364923, 0.018995220312, -0.00545746330373, -0.0302427596628, 0.00648761871328, 0.00521485261138, 0.0580277095985, -0.0739749138208, 0.0440919054092, -0.0491991151783, -0.0252653576708, -0.0421318065313, 0.0943998497459, -0.0553355986818, -0.0149494699135, 0.0231153436404, -0.021501039067, -0.132715882205, 0.0474365031569, 0.173711068308, -0.215903047452, 0.0771700072512, 0.380457941175, -0.0766080635476, 0.169015954857, 0.12994142833, -0.0261646824041, -0.161502376562, 0.665880546707 },
        { 0.00295303403787, -0.0310371568243, -0.0397912955371, -0.00306256905737, 0.119623530224, -0.108776985439, 0.00369603473761, 0.106972272013, -0.121971960108, 0.00809496931013, 0.0152779101585, 0.0119233340684, 0.037418683948, -0.0122468893884, 0.019747946344, 0.0131689479364, -0.00174911565657, -0.00193045484565, 0.06087295478, -0.00383087242545, -0.00216462480988, 0.0544350953761, -0.0684653389842, -0.133729413805, 0.195380836025, 0.0110849234487, -0.217551867154, 0.317846795808, 0.0242779414947, -0.243941561306, 0.696140658854, 0.00346740516967, -0.0348400308549, -0.0680510309642, 0.390757893427 },
        { -0.0335980153153, -0.0416303456958, -0.0302634288259, -0.0263137100299, 0.122384585352, -0.186697041101, 0.129124023309, 0.181176632952, -0.310345399648, 0.282804432343, 0.0106581200253, 0.00815053971739, 0.0157682793541, 0.16030511164, -0.319940007924, 0.460068062403, 0.00943030617526, 0.00840252101278, 0.0256519378772, 0.02065403723, 0.013967461543, 0.037974812922, -0.0561157352289, -0.0739359985414, 0.165612574701, -0.0578506038566, -0.120279556119, 0.269419597568, -0.126703046924, -0.199940002762, 0.590076535717, -0.00745358968036, -0.0117619171556, -0.0154970630984, 0.106695890065 },
        { -0.0368384776202, -0.0276001218623, -0.0147758465975, 0.318757741487, 0.0714818259556, -0.141296825001, 0.156219047087, 0.137256811419, -0.282995852631, 0.342147323174, 0.00259431465727, 0.00195912370953, 0.00295912658432, 0.189306656122, -0.410711397102, 0.556607457403, 0.003578117746, 0.00284327289023, 0.00481392608586, 0.00783671025792, 0.00569463918122, 0.00924352639458, -0.0148977389562, -0.01629115421, 0.0444793885731, -0.0216210630773, -0.0265025540427, 0.0723593543006, -0.0473539494318, -0.0530805478337, 0.158479774663, -0.000895045162571, -0.0010032845863, -0.00109712379576, 0.00834284421774 },
        { 0.0224020634071, -0.00138929577596, 0.0198466425926, -0.0212568784098, -0.00487611000413, -0.00954364589555, 0.0385456476718, 0.000285551297299, 0.00037769760243, 0.028870922884, 0.0036184258969, -0.00167132241484, -0.0462801075324, -0.00663170380136, -0.0222864536471, 0.0469674023175, -0.0840350893249, 0.0986181783739, -0.0752887754405, -0.0629427893936, -0.00390289517607, 0.00440900789377, -0.00110650371893, 0.0209415241151, -0.0599691401572, 0.0652904431579, 0.0340678055983, -0.0975581814171, 0.0489029362153, -0.00134826130761, -0.0730716670368, 0.619684282681, -0.0170847888887, 0.323344162693, 0.214070914945 },
        { 0.0228738477293, -0.0107349673916, 0.0126254261451, -0.0378709741214, -0.0145276010052, -0.0124469902118, 0.0716835792815, 0.0106429912425, 0.00673342730191, 0.0536914337801, 0.0236741746124, -0.00539360212363, -0.0242041794767, -0.0305978383127, -0.0379041395526, 0.087345568463, -0.0680615581161, 0.0303619298789, -0.0393755142437, -0.0509785180538, -0.0164248419984, 0.0288466934846, -0.0332759332284, 0.0460727076322, -0.127941708838, 0.187318517046, 0.074951375954, -0.208136391633, 0.140302700487, -0.0405463194375, -0.155895414272, 0.312088073198, -0.0901908706288, 0.124875163833, 0.770419752575 },
        { 0.0110188624602, -0.0258142282009, -0.00510766217441, 0.014957559317, 0.0119996103852, -0.0035625525079, -0.0314239031656, 0.0544117951537, -0.013211947196, -0.0235366932405, 0.042291385101, 0.00292418069481, 0.00698572233025, -0.0287550401623, 0.0105900314874, -0.0382896433581, -0.022349758424, -0.0023438759763, 0.0113644178429, -0.0167401040301, -0.00869240960357, 0.0515315377631, -0.118454980424, -0.0239239611988, 0.0840145620393, 0.0949475466349, -0.0389196533538, 0.136675427789, 0.0711162858193, -0.14433595122, 0.102370720799, 0.0552748943873, -0.112184633492, -0.0226575599367, 0.917830017661 },
        { -0.0170334436393, -0.0392396096408, -0.0291812907406, -0.00306256905737, 0.101645838538, -0.11805299967, 0.00841112168882, 0.127615773121, -0.131849140929, 0.00629998093983, 0.0414777280284, 0.0139879806041, 0.0247448899115, 0.0632426735078, -0.0823487106638, 0.0102488493555, 0.0205551582489, 0.00873644044568, 0.0402551454432, 0.0153959376613, 0.00975741548933, 0.050540106528, -0.168424759574, -0.112951233401, 0.346038056709, -0.105192659558, -0.183749790151, 0.562936927645, -0.0787899372693, -0.205223518631, 0.421643158391, -0.0256083359409, -0.0667018275459, -0.0447324592325, 0.538609103388 },
        { -0.0402733202199, -0.0396271675636, -0.0416663265659, -0.0263137100299, 0.182331457463, -0.315106328426, 0.293849476563, 0.167259645519, -0.272826769145, 0.220095032507, 0.0223917205924, 0.0120933807486, 0.0182828214127, 0.182061508123, -0.33182555265, 0.358052008985, 0.0243733053952, 0.0147085740995, 0.0297426110083, 0.0182557529318, 0.0127350433435, 0.0272840388777, -0.112264952592, -0.0971179847388, 0.293315632598, -0.1365422464, -0.157992159787, 0.477167750321, -0.102270967134, -0.136793477682, 0.357401526614, -0.0136914251712, -0.018313092328, -0.0158422604755, 0.147066453806 },
        { -0.0321935503209, -0.0229506317889, -0.0283400422935, 0.318757741487, 0.141220336742, -0.292071731246, 0.35551002857, 0.112846806839, -0.228649795108, 0.26627915833, 0.00485395661368, 0.00327197312576, 0.00454976722195, 0.162323051733, -0.341885661326, 0.433184640765, 0.00698211205602, 0.00489237567613, 0.00740159046605, 0.00522964409505, 0.00383002042398, 0.0059144870271, -0.0273923301663, -0.026207947215, 0.0787772306568, -0.0409580288919, -0.042635256438, 0.128155303541, -0.0306778109862, -0.033377220751, 0.0959890962843, -0.00131956559251, -0.00143567714452, -0.00137360168313, 0.0114995292978 },
        { 0.0052150243102, -0.0297250933673, -0.0155342894083, -0.0212568784098, 0.00782133424114, -0.0594824625952, 0.0639030678482, 0.0052530053046, 0.00524988911442, 0.0192175962776, 0.110354423311, -0.144790731898, 0.0494128733958, -0.00111702114407, -0.00160625011632, 0.0312633087474, -0.0234662287646, 0.0443000080353, 0.0803851790179, -0.00705700877503, -0.00390989410671, 0.0539887132775, -0.0254979427263, 0.0868802992636, -0.0661778390183, 0.00780132162363, 0.141337427465, -0.107658532502, 0.00234609470942, -0.0124743628548, -0.0323761954337, 0.0492864396052, -0.262059723756, 0.892928008715, 0.157246440614 },
