
        #include <petsc.h>
        #include <stdbool.h>
        #include <math.h>
        
        


        
            #include <immintrin.h>

            
            // This code is generated visiting a COFFEE AST

#include "firedrake_geometry.h"


void form_cell_integral_0_otherwise(double A[10][10], double *coordinate_dofs, double **w0, double **w1, double **w2)
{
// Section for quadrature weights and points
static const double weights216[216] = { 0.0003873813195, 0.000665118532009, 0.000585836191028, 0.000317701213401, 9.73756921862e-05, 1.13421694286e-05, 0.000726129045449, 0.00124673509136, 0.00109812387115, 0.000595516787239, 0.000182526401914, 2.12603918824e-05, 0.000754254678619, 0.00129502570039, 0.0011406582242, 0.000618583330038, 0.000189596316906, 2.2083884603e-05, 0.000528548084788, 0.000907496331276, 0.00079932247938, 0.000433475646412, 0.000132860654397, 1.54754027287e-05, 0.0002354768656, 0.000404304542544, 0.000356111312226, 0.000193120530504, 5.91916068935e-05, 6.89454646291e-06, 4.68128807154e-05, 8.03758801296e-05, 7.07950496033e-05, 3.83924269381e-05, 1.17673115182e-05, 1.37063817429e-06, 0.000815716960555, 0.00140055402785, 0.00123360754139, 0.000668990101264, 0.000205046035169, 2.38834437973e-05, 0.00152902514424, 0.00262527620242, 0.00231234244244, 0.00125399217565, 0.000384349668649, 4.47684526165e-05, 0.00158824987927, 0.0027269627496, 0.00240190792079, 0.00130256387809, 0.000399236936769, 4.65024984914e-05, 0.00111297477583, 0.00191093403786, 0.00168315009156, 0.000912778750463, 0.000279767463548, 3.25868797533e-05, 0.000495848569406, 0.00085135254588, 0.000749871051096, 0.00040665794718, 0.000124641006768, 1.45179909356e-05, 9.85748637061e-05, 0.000169249174756, 0.000149074619187, 8.0843737769e-05, 2.47786744026e-05, 2.88618152005e-06, 0.0010579988586, 0.0018165425442, 0.00160001009402, 0.000867691610911, 0.000265948216918, 3.09772353632e-05, 0.0019831717809, 0.00340502816537, 0.00299914772292, 0.00162644931353, 0.000498508098271, 5.80654492427e-05, 0.00205998727585, 0.0035369173574, 0.00311531568122, 0.00168944764289, 0.000517817139814, 6.03145364201e-05, 0.00144354733249, 0.00247851415218, 0.00218307447537, 0.00118388966129, 0.00036286318836, 4.22657407549e-05, 0.000643124080824, 0.00110421882266, 0.000972595587096, 0.000527442317325, 0.000161661518972, 1.88300827147e-05, 0.000127853285307, 0.000219519076309, 0.000193352332455, 0.000104855711503, 3.213836478e-05, 3.74342682767e-06, 0.0010579988586, 0.0018165425442, 0.00160001009402, 0.000867691610911, 0.000265948216918, 3.09772353632e-05, 0.0019831717809, 0.00340502816537, 0.00299914772292, 0.00162644931353, 0.000498508098271, 5.80654492427e-05, 0.00205998727585, 0.0035369173574, 0.00311531568122, 0.00168944764289, 0.000517817139814, 6.03145364201e-05, 0.00144354733249, 0.00247851415218, 0.00218307447537, 0.00118388966129, 0.00036286318836, 4.22657407549e-05, 0.000643124080824, 0.00110421882266, 0.000972595587096, 0.000527442317325, 0.000161661518972, 1.88300827147e-05, 0.000127853285307, 0.000219519076309, 0.000193352332455, 0.000104855711503, 3.213836478e-05, 3.74342682767e-06, 0.000815716960555, 0.00140055402785, 0.00123360754139, 0.000668990101264, 0.000205046035169, 2.38834437973e-05, 0.00152902514424, 0.00262527620242, 0.00231234244244, 0.00125399217565, 0.000384349668649, 4.47684526165e-05, 0.00158824987927, 0.0027269627496, 0.00240190792079, 0.00130256387809, 0.000399236936769, 4.65024984914e-05, 0.00111297477583, 0.00191093403786, 0.00168315009156, 0.000912778750463, 0.000279767463548, 3.25868797533e-05, 0.000495848569406, 0.00085135254588, 0.000749871051096, 0.00040665794718, 0.000124641006768, 1.45179909356e-05, 9.85748637061e-05, 0.000169249174756, 0.000149074619187, 8.0843737769e-05, 2.47786744026e-05, 2.88618152005e-06, 0.0003873813195, 0.000665118532009, 0.000585836191028, 0.000317701213401, 9.73756921862e-05, 1.13421694286e-05, 0.000726129045449, 0.00124673509136, 0.00109812387115, 0.000595516787239, 0.000182526401914, 2.12603918824e-05, 0.000754254678619, 0.00129502570039, 0.0011406582242, 0.000618583330038, 0.000189596316906, 2.2083884603e-05, 0.000528548084788, 0.000907496331276, 0.00079932247938, 0.000433475646412, 0.000132860654397, 1.54754027287e-05, 0.0002354768656, 0.000404304542544, 0.000356111312226, 0.000193120530504, 5.91916068935e-05, 6.89454646291e-06, 4.68128807154e-05, 8.03758801296e-05, 7.07950496033e-05, 3.83924269381e-05, 1.17673115182e-05, 1.37063817429e-06 };
static const double points216[648] = { 0.0319263353243, 0.0285569981573, 0.0259045550937, 0.0284633101934, 0.0254594424473, 0.131563941658, 0.0228628857485, 0.0204500572821, 0.302436918023, 0.0160915115529, 0.0143932982316, 0.509036413165, 0.00931865528777, 0.00833521352132, 0.715681127312, 0.00370998742848, 0.00331845490823, 0.886805616178, 0.0280201798587, 0.144242689425, 0.0259045550937, 0.0249808524183, 0.128596795421, 0.131563941658, 0.0200656343503, 0.10329416436, 0.302436918023, 0.0141227310724, 0.0727012004268, 0.509036413165, 0.00817852705463, 0.042101540527, 0.715681127312, 0.0032560741458, 0.0167616658468, 0.886805616178, 0.0218069509936, 0.328255251806, 0.0259045550937, 0.0194415677276, 0.292649656149, 0.131563941658, 0.0156162561104, 0.235068079132, 0.302436918023, 0.0109911394553, 0.165447212249, 0.509036413165, 0.00636501048813, 0.0958111072539, 0.715681127312, 0.00253406829246, 0.038144774374, 0.886805616178, 0.0145155449975, 0.544199381634, 0.0259045550937, 0.0129410549533, 0.48517049167, 0.131563941658, 0.0103947804683, 0.389708626447, 0.302436918023, 0.00731612499995, 0.274287372719, 0.509036413165, 0.00423679569771, 0.15884085642, 0.715681127312, 0.00168677328328, 0.0632384783265, 0.886805616178, 0.0075900296538, 0.749307201071, 0.0259045550937, 0.00676674495268, 0.668030423085, 0.131563941658, 0.00543532413101, 0.536589143559, 0.302436918023, 0.00382552675151, 0.377665816017, 0.509036413165, 0.0022153770312, 0.218707704486, 0.715681127312, 0.000881996455634, 0.0870729530278, 0.886805616178, 0.00240279846038, 0.902933556108, 0.0259045550937, 0.00214216875239, 0.804993045098, 0.131563941658, 0.00172067686812, 0.646603079311, 0.302436918023, 0.00121105848171, 0.455096571593, 0.509036413165, 0.000701328553711, 0.263548148313, 0.715681127312, 0.000279216264273, 0.104925044102, 0.886805616178, 0.160169775247, 0.0285569981573, 0.0259045550937, 0.142796282447, 0.0254594424473, 0.131563941658, 0.114699768534, 0.0204500572821, 0.302436918023, 0.080728770234, 0.0143932982316, 0.509036413165, 0.0467503366072, 0.00833521352132, 0.715681127312, 0.0186124666847, 0.00331845490823, 0.886805616178, 0.140573162086, 0.144242689425, 0.0259045550937, 0.125325298901, 0.128596795421, 0.131563941658, 0.100666365602, 0.10329416436, 0.302436918023, 0.0708516852547, 0.0727012004268, 0.509036413165, 0.0410304792857, 0.042101540527, 0.715681127312, 0.0163352498439, 0.0167616658468, 0.886805616178, 0.109402297633, 0.328255251806, 0.0259045550937, 0.0975355142316, 0.292649656149, 0.131563941658, 0.0783444828852, 0.235068079132, 0.302436918023, 0.0551409461307, 0.165447212249, 0.509036413165, 0.0319323307537, 0.0958111072539, 0.715681127312, 0.0127130516153, 0.038144774374, 0.886805616178, 0.0728223755158, 0.544199381634, 0.0259045550937, 0.0649233882396, 0.48517049167, 0.131563941658, 0.0521490999341, 0.389708626447, 0.302436918023, 0.0367039337593, 0.274287372719, 0.509036413165, 0.0212553870582, 0.15884085642, 0.715681127312, 0.0084622959363, 0.0632384783265, 0.886805616178, 0.038078073522, 0.749307201071, 0.0259045550937, 0.0339477740622, 0.668030423085, 0.131563941658, 0.0272682296798, 0.536589143559, 0.302436918023, 0.0191921106437, 0.377665816017, 0.509036413165, 0.011114223965, 0.218707704486, 0.715681127312, 0.00442484778264, 0.0870729530278, 0.886805616178, 0.0120544899831, 0.902933556108, 0.0259045550937, 0.0107469486907, 0.804993045098, 0.131563941658, 0.00863238528444, 0.646603079311, 0.302436918023, 0.00607570404985, 0.455096571593, 0.509036413165, 0.00351846322734, 0.263548148313, 0.715681127312, 0.00140078733872, 0.104925044102, 0.886805616178, 0.359957416088, 0.0285569981573, 0.0259045550937, 0.320913110961, 0.0254594424473, 0.131563941658, 0.257770432928, 0.0204500572821, 0.302436918023, 0.181425737113, 0.0143932982316, 0.509036413165, 0.105064331522, 0.00833521352132, 0.715681127312, 0.0418287120933, 0.00331845490823, 0.886805616178, 0.3159169832, 0.144242689425, 0.0259045550937, 0.281649710085, 0.128596795421, 0.131563941658, 0.226232476091, 0.10329416436, 0.302436918023, 0.159228478097, 0.0727012004268, 0.509036413165, 0.0922098147529, 0.042101540527, 0.715681127312, 0.0367110106503, 0.0167616658468, 0.886805616178, 0.245865165941, 0.328255251806, 0.0259045550937, 0.219196359772, 0.292649656149, 0.131563941658, 0.176067410849, 0.235068079132, 0.302436918023, 0.123920961113, 0.165447212249, 0.509036413165, 0.071763097938, 0.0958111072539, 0.715681127312, 0.028570666363, 0.038144774374, 0.886805616178, 0.163657307277, 0.544199381634, 0.0259045550937, 0.14590552455, 0.48517049167, 0.131563941658, 0.11719723796, 0.389708626447, 0.302436918023, 0.0824865561302, 0.274287372719, 0.509036413165, 0.0477682770774, 0.15884085642, 0.715681127312, 0.0190177339932, 0.0632384783265, 0.886805616178, 0.0855747280251, 0.749307201071, 0.0259045550937, 0.0762925028429, 0.668030423085, 0.131563941658, 0.0612812341261, 0.536589143559, 0.302436918023, 0.0431313744801, 0.377665816017, 0.509036413165, 0.0249775423239, 0.218707704486, 0.715681127312, 0.00994417811953, 0.0870729530278, 0.886805616178, 0.0270906484065, 0.902933556108, 0.0259045550937, 0.0241521465305, 0.804993045098, 0.131563941658, 0.0193999841535, 0.646603079311, 0.302436918023, 0.0136542286291, 0.455096571593, 0.509036413165, 0.00790721551528, 0.263548148313, 0.715681127312, 0.00314805830348, 0.104925044102, 0.886805616178, 0.585581030661, 0.0285569981573, 0.0259045550937, 0.522063504933, 0.0254594424473, 0.131563941658, 0.419342591767, 0.0204500572821, 0.302436918023, 0.295144551491, 0.0143932982316, 0.509036413165, 0.170919327645, 0.00833521352132, 0.715681127312, 0.0680472168209, 0.00331845490823, 0.886805616178, 0.513935772281, 0.144242689425, 0.0259045550937, 0.458189552836, 0.128596795421, 0.131563941658, 0.368036441527, 0.10329416436, 0.302436918023, 0.259033908311, 0.0727012004268, 0.509036413165, 0.150007517408, 0.042101540527, 0.715681127312, 0.0597217073254, 0.0167616658468, 0.886805616178, 0.399975027159, 0.328255251806, 0.0259045550937, 0.356590042421, 0.292649656149, 0.131563941658, 0.286427591996, 0.235068079132, 0.302436918023, 0.201595413473, 0.165447212249, 0.509036413165, 0.116744667496, 0.0958111072539, 0.715681127312, 0.0464789430855, 0.038144774374, 0.886805616178, 0.266238755995, 0.544199381634, 0.0259045550937, 0.237360042123, 0.48517049167, 0.131563941658, 0.19065721757, 0.389708626447, 0.302436918023, 0.134189657986, 0.274287372719, 0.509036413165, 0.0777097391907, 0.15884085642, 0.715681127312, 0.0309381715027, 0.0632384783265, 0.886805616178, 0.13921351581, 0.749307201071, 0.0259045550937, 0.124113132415, 0.668030423085, 0.131563941658, 0.0996927042921, 0.536589143559, 0.302436918023, 0.0701663963377, 0.377665816017, 0.509036413165, 0.0406336258783, 0.218707704486, 0.715681127312, 0.0161772526751, 0.0870729530278, 0.886805616178, 0.0440712403916, 0.902933556108, 0.0259045550937, 0.0392908667134, 0.804993045098, 0.131563941658, 0.0315600185125, 0.646603079311, 0.302436918023, 0.0222127866136, 0.455096571593, 0.509036413165, 0.0128635088601, 0.263548148313, 0.715681127312, 0.00512128141704, 0.104925044102, 0.886805616178, 0.785368671502, 0.0285569981573, 0.0259045550937, 0.700180333448, 0.0254594424473, 0.131563941658, 0.562413256161, 0.0204500572821, 0.302436918023, 0.39584151837, 0.0143932982316, 0.509036413165, 0.22923332256, 0.00833521352132, 0.715681127312, 0.0912634622295, 0.00331845490823, 0.886805616178, 0.689279593395, 0.144242689425, 0.0259045550937, 0.61451396402, 0.128596795421, 0.131563941658, 0.493602552016, 0.10329416436, 0.302436918023, 0.347410701154, 0.0727012004268, 0.509036413165, 0.201186852876, 0.042101540527, 0.715681127312, 0.0800974681318, 0.0167616658468, 0.886805616178, 0.536437895468, 0.328255251806, 0.0259045550937, 0.478250887961, 0.292649656149, 0.131563941658, 0.38415051996, 0.235068079132, 0.302436918023, 0.270375428456, 0.165447212249, 0.509036413165, 0.156575434681, 0.0958111072539, 0.715681127312, 0.0623365578332, 0.038144774374, 0.886805616178, 0.357073687756, 0.544199381634, 0.0259045550937, 0.318342178433, 0.48517049167, 0.131563941658, 0.255705355596, 0.389708626447, 0.302436918023, 0.179972280357, 0.274287372719, 0.509036413165, 0.10422262921, 0.15884085642, 0.715681127312, 0.0414936095596, 0.0632384783265, 0.886805616178, 0.186710170313, 0.749307201071, 0.0259045550937, 0.166457861195, 0.668030423085, 0.131563941658, 0.133705708738, 0.536589143559, 0.302436918023, 0.0941056601742, 0.377665816017, 0.509036413165, 0.0544969442373, 0.218707704486, 0.715681127312, 0.021696583012, 0.0870729530278, 0.886805616178, 0.0591073988151, 0.902933556108, 0.0259045550937, 0.0526960645532, 0.804993045098, 0.131563941658, 0.0423276173815, 0.646603079311, 0.302436918023, 0.0297913111929, 0.455096571593, 0.509036413165, 0.017252261148, 0.263548148313, 0.715681127312, 0.00686855238181, 0.104925044102, 0.886805616178, 0.913612111425, 0.0285569981573, 0.0259045550937, 0.814513305701, 0.0254594424473, 0.131563941658, 0.654250138946, 0.0204500572821, 0.302436918023, 0.460478777051, 0.0143932982316, 0.509036413165, 0.266665003879, 0.00833521352132, 0.715681127312, 0.106165941486, 0.00331845490823, 0.886805616178, 0.801832575622, 0.144242689425, 0.0259045550937, 0.714858410503, 0.128596795421, 0.131563941658, 0.574203283267, 0.10329416436, 0.302436918023, 0.404139655336, 0.0727012004268, 0.509036413165, 0.234038805107, 0.042101540527, 0.715681127312, 0.0931766438299, 0.0167616658468, 0.886805616178, 0.624033242107, 0.328255251806, 0.0259045550937, 0.556344834465, 0.292649656149, 0.131563941658, 0.446878746735, 0.235068079132, 0.302436918023, 0.314525235131, 0.165447212249, 0.509036413165, 0.182142754946, 0.0958111072539, 0.715681127312, 0.072515541156, 0.038144774374, 0.886805616178, 0.415380518275, 0.544199381634, 0.0259045550937, 0.370324511719, 0.48517049167, 0.131563941658, 0.297459675062, 0.389708626447, 0.302436918023, 0.209360089117, 0.274287372719, 0.509036413165, 0.12124122057, 0.15884085642, 0.715681127312, 0.0482691322127, 0.0632384783265, 0.886805616178, 0.217198214181, 0.749307201071, 0.0259045550937, 0.193638890305, 0.668030423085, 0.131563941658, 0.155538614287, 0.536589143559, 0.302436918023, 0.109472244066, 0.377665816017, 0.509036413165, 0.063395791171, 0.218707704486, 0.715681127312, 0.025239434339, 0.0870729530278, 0.886805616178, 0.0687590903378, 0.902933556108, 0.0259045550937, 0.0613008444915, 0.804993045098, 0.131563941658, 0.0492393257978, 0.646603079311, 0.302436918023, 0.034655956761, 0.455096571593, 0.509036413165, 0.0200693958217, 0.263548148313, 0.715681127312, 0.00799012345625, 0.104925044102, 0.886805616178 };
// Section for precomputed element basis function values
// Table dimensions: num_entities, num_points, num_dofs
// Definitions of 7 tables for 216 quadrature points
static const double FE0_C0_D001_Q216[1][216][4] =
    { { { -1.0, 1.11022302463e-16, 5.55111512313e-17, 1.0 },
        { -1.0, 1.11022302463e-16, 5.55111512313e-17, 1.0 },
        { -1.0, -5.55111512313e-17, 0.0, 1.0 },
        { -1.0, -1.66533453694e-16, -5.55111512313e-17, 1.0 },
        { -1.0, -3.33066907388e-16, -1.11022302463e-16, 1.0 },
        { -1.0, -4.4408920985e-16, -1.66533453694e-16, 1.0 },
        { -1.0, 1.11022302463e-16, 5.55111512313e-17, 1.0 },
        { -1.0, 1.11022302463e-16, 5.55111512313e-17, 1.0 },
        { -1.0, -5.55111512313e-17, 0.0, 1.0 },
        { -1.0, -1.66533453694e-16, -5.55111512313e-17, 1.0 },
        { -1.0, -3.33066907388e-16, -1.11022302463e-16, 1.0 },
        { -1.0, -4.4408920985e-16, -1.66533453694e-16, 1.0 },
        { -1.0, 1.11022302463e-16, 5.55111512313e-17, 1.0 },
        { -1.0, 1.11022302463e-16, 5.55111512313e-17, 1.0 },
        { -1.0, -5.55111512313e-17, 0.0, 1.0 },
        { -1.0, -2.77555756156e-16, -5.55111512313e-17, 1.0 },
        { -1.0, -3.33066907388e-16, -1.11022302463e-16, 1.0 },
        { -1.0, -4.4408920985e-16, -1.66533453694e-16, 1.0 },
        { -1.0, 1.11022302463e-16, 5.55111512313e-17, 1.0 },
        { -1.0, 1.11022302463e-16, 5.55111512313e-17, 1.0 },
        { -1.0, -5.55111512313e-17, 0.0, 1.0 },
        { -1.0, -1.66533453694e-16, -5.55111512313e-17, 1.0 },
        { -1.0, -3.33066907388e-16, -1.11022302463e-16, 1.0 },
        { -1.0, -4.4408920985e-16, -1.66533453694e-16, 1.0 },
        { -1.0, 1.11022302463e-16, 5.55111512313e-17, 1.0 },
        { -1.0, 1.11022302463e-16, 5.55111512313e-17, 1.0 },
        { -1.0, -5.55111512313e-17, 0.0, 1.0 },
        { -1.0, -1.66533453694e-16, -5.55111512313e-17, 1.0 },
        { -1.0, -3.33066907388e-16, -1.11022302463e-16, 1.0 },
        { -1.0, -4.4408920985e-16, -1.66533453694e-16, 1.0 },
        { -1.0, 1.11022302463e-16, 5.55111512313e-17, 1.0 },
        { -1.0, 1.11022302463e-16, 5.55111512313e-17, 1.0 },
        { -1.0, -5.55111512313e-17, 0.0, 1.0 },
        { -1.0, -1.66533453694e-16, -5.55111512313e-17, 1.0 },
        { -1.0, -3.33066907388e-16, -1.11022302463e-16, 1.0 },
        { -1.0, -4.4408920985e-16, -1.66533453694e-16, 1.0 },
        { -1.0, 1.11022302463e-16, 5.55111512313e-17, 1.0 },
        { -1.0, 1.11022302463e-16, 5.55111512313e-17, 1.0 },
        { -1.0, -5.55111512313e-17, 0.0, 1.0 },
        { -1.0, -1.66533453694e-16, -5.55111512313e-17, 1.0 },
        { -1.0, -3.33066907388e-16, -1.11022302463e-16, 1.0 },
        { -1.0, -4.4408920985e-16, -1.66533453694e-16, 1.0 },
        { -1.0, 1.11022302463e-16, 5.55111512313e-17, 1.0 },
        { -1.0, 1.11022302463e-16, 5.55111512313e-17, 1.0 },
        { -1.0, -5.55111512313e-17, 0.0, 1.0 },
        { -1.0, -1.66533453694e-16, -5.55111512313e-17, 1.0 },
        { -1.0, -3.33066907388e-16, -1.11022302463e-16, 1.0 },
        { -1.0, -4.4408920985e-16, -1.66533453694e-16, 1.0 },
        { -1.0, 1.11022302463e-16, 5.55111512313e-17, 1.0 },
        { -1.0, 1.11022302463e-16, 5.55111512313e-17, 1.0 },
        { -1.0, -5.55111512313e-17, 0.0, 1.0 },
        { -1.0, -2.77555756156e-16, -5.55111512313e-17, 1.0 },
        { -1.0, -3.33066907388e-16, -1.11022302463e-16, 1.0 },
        { -1.0, -4.4408920985e-16, -1.66533453694e-16, 1.0 },
        { -1.0, 1.11022302463e-16, 5.55111512313e-17, 1.0 },
        { -1.0, 1.11022302463e-16, 5.55111512313e-17, 1.0 },
        { -1.0, -5.55111512313e-17, 0.0, 1.0 },
        { -1.0, -1.66533453694e-16, -5.55111512313e-17, 1.0 },
        { -1.0, -3.33066907388e-16, -1.11022302463e-16, 1.0 },
        { -1.0, -4.4408920985e-16, -1.66533453694e-16, 1.0 },
        { -1.0, 1.11022302463e-16, 5.55111512313e-17, 1.0 },
        { -1.0, 1.11022302463e-16, 5.55111512313e-17, 1.0 },
        { -1.0, -5.55111512313e-17, 0.0, 1.0 },
        { -1.0, -1.11022302463e-16, 0.0, 1.0 },
        { -1.0, -3.33066907388e-16, -1.11022302463e-16, 1.0 },
        { -1.0, -4.4408920985e-16, -1.66533453694e-16, 1.0 },
        { -1.0, 1.11022302463e-16, 5.55111512313e-17, 1.0 },
        { -1.0, 1.11022302463e-16, 5.55111512313e-17, 1.0 },
        { -1.0, -5.55111512313e-17, 0.0, 1.0 },
        { -1.0, -1.66533453694e-16, -5.55111512313e-17, 1.0 },
        { -1.0, -3.33066907388e-16, -1.11022302463e-16, 1.0 },
        { -1.0, -4.4408920985e-16, -1.66533453694e-16, 1.0 },
        { -1.0, 1.11022302463e-16, 5.55111512313e-17, 1.0 },
        { -1.0, 1.11022302463e-16, 5.55111512313e-17, 1.0 },
        { -1.0, -5.55111512313e-17, 0.0, 1.0 },
        { -1.0, -1.66533453694e-16, -5.55111512313e-17, 1.0 },
        { -1.0, -3.33066907388e-16, -1.11022302463e-16, 1.0 },
        { -1.0, -4.4408920985e-16, -1.66533453694e-16, 1.0 },
        { -1.0, 1.11022302463e-16, 5.55111512313e-17, 1.0 },
        { -1.0, 1.11022302463e-16, 5.55111512313e-17, 1.0 },
        { -1.0, -5.55111512313e-17, 0.0, 1.0 },
        { -1.0, -1.66533453694e-16, -5.55111512313e-17, 1.0 },
        { -1.0, -3.33066907388e-16, -1.11022302463e-16, 1.0 },
        { -1.0, -4.4408920985e-16, -1.66533453694e-16, 1.0 },
        { -1.0, 1.11022302463e-16, 5.55111512313e-17, 1.0 },
        { -1.0, 1.11022302463e-16, 5.55111512313e-17, 1.0 },
        { -1.0, -5.55111512313e-17, 0.0, 1.0 },
        { -1.0, -2.77555756156e-16, -5.55111512313e-17, 1.0 },
        { -1.0, -3.33066907388e-16, -1.11022302463e-16, 1.0 },
        { -1.0, -4.4408920985e-16, -1.66533453694e-16, 1.0 },
        { -1.0, 1.11022302463e-16, 5.55111512313e-17, 1.0 },
        { -1.0, 1.11022302463e-16, 5.55111512313e-17, 1.0 },
        { -1.0, -5.55111512313e-17, 0.0, 1.0 },
        { -1.0, -1.66533453694e-16, -5.55111512313e-17, 1.0 },
        { -1.0, -3.33066907388e-16, -1.11022302463e-16, 1.0 },
        { -1.0, -4.4408920985e-16, -1.66533453694e-16, 1.0 },
        { -1.0, 1.66533453694e-16, 1.11022302463e-16, 1.0 },
        { -1.0, 1.11022302463e-16, 5.55111512313e-17, 1.0 },
        { -1.0, -5.55111512313e-17, 0.0, 1.0 },
        { -1.0, -1.66533453694e-16, -5.55111512313e-17, 1.0 },
        { -1.0, -3.33066907388e-16, -1.11022302463e-16, 1.0 },
        { -1.0, -4.4408920985e-16, -1.66533453694e-16, 1.0 },
        { -1.0, 1.11022302463e-16, 5.55111512313e-17, 1.0 },
        { -1.0, 1.11022302463e-16, 5.55111512313e-17, 1.0 },
        { -1.0, -5.55111512313e-17, 0.0, 1.0 },
        { -1.0, -1.66533453694e-16, -5.55111512313e-17, 1.0 },
        { -1.0, -3.33066907388e-16, -1.11022302463e-16, 1.0 },
        { -1.0, -4.4408920985e-16, -1.66533453694e-16, 1.0 },
        { -1.0, 1.11022302463e-16, 5.55111512313e-17, 1.0 },
        { -1.0, 1.11022302463e-16, 5.55111512313e-17, 1.0 },
        { -1.0, -5.55111512313e-17, 0.0, 1.0 },
        { -1.0, -1.66533453694e-16, -5.55111512313e-17, 1.0 },
        { -1.0, -3.33066907388e-16, -1.11022302463e-16, 1.0 },
        { -1.0, -4.4408920985e-16, -1.66533453694e-16, 1.0 },
        { -1.0, 1.11022302463e-16, 5.55111512313e-17, 1.0 },
        { -1.0, 1.11022302463e-16, 5.55111512313e-17, 1.0 },
        { -1.0, -5.55111512313e-17, 0.0, 1.0 },
        { -1.0, -1.66533453694e-16, -5.55111512313e-17, 1.0 },
        { -1.0, -3.33066907388e-16, -1.11022302463e-16, 1.0 },
        { -1.0, -4.4408920985e-16, -1.66533453694e-16, 1.0 },
        { -1.0, 1.11022302463e-16, 5.55111512313e-17, 1.0 },
        { -1.0, 1.11022302463e-16, 5.55111512313e-17, 1.0 },
        { -1.0, -5.55111512313e-17, 0.0, 1.0 },
        { -1.0, -2.77555756156e-16, -5.55111512313e-17, 1.0 },
        { -1.0, -3.33066907388e-16, -1.11022302463e-16, 1.0 },
        { -1.0, -4.4408920985e-16, -1.66533453694e-16, 1.0 },
        { -1.0, 1.11022302463e-16, 5.55111512313e-17, 1.0 },
        { -1.0, 1.11022302463e-16, 5.55111512313e-17, 1.0 },
        { -1.0, -5.55111512313e-17, 0.0, 1.0 },
        { -1.0, -1.66533453694e-16, -5.55111512313e-17, 1.0 },
        { -1.0, -3.33066907388e-16, -1.11022302463e-16, 1.0 },
        { -1.0, -4.4408920985e-16, -1.66533453694e-16, 1.0 },
        { -1.0, 1.11022302463e-16, 5.55111512313e-17, 1.0 },
        { -1.0, 1.11022302463e-16, 5.55111512313e-17, 1.0 },
        { -1.0, -5.55111512313e-17, 0.0, 1.0 },
        { -1.0, -1.66533453694e-16, -5.55111512313e-17, 1.0 },
        { -1.0, -3.33066907388e-16, -1.11022302463e-16, 1.0 },
        { -1.0, -4.4408920985e-16, -1.66533453694e-16, 1.0 },
        { -1.0, 1.11022302463e-16, 5.55111512313e-17, 1.0 },
        { -1.0, 1.11022302463e-16, 5.55111512313e-17, 1.0 },
        { -1.0, -5.55111512313e-17, 0.0, 1.0 },
        { -1.0, -1.66533453694e-16, -5.55111512313e-17, 1.0 },
        { -1.0, -3.33066907388e-16, -1.11022302463e-16, 1.0 },
        { -1.0, -4.4408920985e-16, -1.66533453694e-16, 1.0 },
        { -1.0, 1.11022302463e-16, 5.55111512313e-17, 1.0 },
        { -1.0, 1.11022302463e-16, 5.55111512313e-17, 1.0 },
        { -1.0, -5.55111512313e-17, 0.0, 1.0 },
        { -1.0, -1.66533453694e-16, -5.55111512313e-17, 1.0 },
        { -1.0, -3.33066907388e-16, -1.11022302463e-16, 1.0 },
        { -1.0, -4.4408920985e-16, -1.66533453694e-16, 1.0 },
        { -1.0, 1.11022302463e-16, 5.55111512313e-17, 1.0 },
        { -1.0, 1.11022302463e-16, 5.55111512313e-17, 1.0 },
        { -1.0, -5.55111512313e-17, 0.0, 1.0 },
        { -1.0, -1.66533453694e-16, -5.55111512313e-17, 1.0 },
        { -1.0, -3.33066907388e-16, -1.11022302463e-16, 1.0 },
        { -1.0, -4.4408920985e-16, -1.66533453694e-16, 1.0 },
        { -1.0, 1.11022302463e-16, 5.55111512313e-17, 1.0 },
        { -1.0, 1.11022302463e-16, 5.55111512313e-17, 1.0 },
        { -1.0, -5.55111512313e-17, 0.0, 1.0 },
        { -1.0, -2.77555756156e-16, -5.55111512313e-17, 1.0 },
        { -1.0, -3.33066907388e-16, -1.11022302463e-16, 1.0 },
        { -1.0, -4.4408920985e-16, -1.66533453694e-16, 1.0 },
        { -1.0, 1.11022302463e-16, 5.55111512313e-17, 1.0 },
        { -1.0, 1.11022302463e-16, 5.55111512313e-17, 1.0 },
        { -1.0, -5.55111512313e-17, 0.0, 1.0 },
        { -1.0, -1.66533453694e-16, -5.55111512313e-17, 1.0 },
        { -1.0, -3.33066907388e-16, -1.11022302463e-16, 1.0 },
        { -1.0, -4.4408920985e-16, -1.66533453694e-16, 1.0 },
        { -1.0, 1.11022302463e-16, 5.55111512313e-17, 1.0 },
        { -1.0, 1.11022302463e-16, 5.55111512313e-17, 1.0 },
        { -1.0, -5.55111512313e-17, 0.0, 1.0 },
        { -1.0, -1.66533453694e-16, -5.55111512313e-17, 1.0 },
        { -1.0, -3.33066907388e-16, -1.11022302463e-16, 1.0 },
        { -1.0, -4.4408920985e-16, -1.66533453694e-16, 1.0 },
        { -1.0, 1.11022302463e-16, 5.55111512313e-17, 1.0 },
        { -1.0, 1.11022302463e-16, 5.55111512313e-17, 1.0 },
        { -1.0, -5.55111512313e-17, 0.0, 1.0 },
        { -1.0, -1.66533453694e-16, -5.55111512313e-17, 1.0 },
        { -1.0, -3.33066907388e-16, -1.11022302463e-16, 1.0 },
        { -1.0, -4.4408920985e-16, -1.66533453694e-16, 1.0 },
        { -1.0, 1.11022302463e-16, 5.55111512313e-17, 1.0 },
        { -1.0, 1.11022302463e-16, 5.55111512313e-17, 1.0 },
        { -1.0, -5.55111512313e-17, 0.0, 1.0 },
        { -1.0, -1.66533453694e-16, -5.55111512313e-17, 1.0 },
        { -1.0, -3.33066907388e-16, -1.11022302463e-16, 1.0 },
        { -1.0, -4.4408920985e-16, -1.66533453694e-16, 1.0 },
        { -1.0, 1.11022302463e-16, 5.55111512313e-17, 1.0 },
        { -1.0, 1.66533453694e-16, 1.66533453694e-16, 1.0 },
        { -1.0, -5.55111512313e-17, 0.0, 1.0 },
        { -1.0, -1.66533453694e-16, -5.55111512313e-17, 1.0 },
        { -1.0, -3.33066907388e-16, -1.11022302463e-16, 1.0 },
        { -1.0, -4.4408920985e-16, -1.66533453694e-16, 1.0 },
        { -1.0, 1.11022302463e-16, 5.55111512313e-17, 1.0 },
        { -1.0, 1.11022302463e-16, 5.55111512313e-17, 1.0 },
        { -1.0, -5.55111512313e-17, 0.0, 1.0 },
        { -1.0, -2.77555756156e-16, -5.55111512313e-17, 1.0 },
        { -1.0, -3.33066907388e-16, -1.11022302463e-16, 1.0 },
        { -1.0, -4.4408920985e-16, -1.66533453694e-16, 1.0 },
        { -1.0, 1.11022302463e-16, 5.55111512313e-17, 1.0 },
        { -1.0, 1.11022302463e-16, 5.55111512313e-17, 1.0 },
        { -1.0, -5.55111512313e-17, 0.0, 1.0 },
        { -1.0, -1.66533453694e-16, -5.55111512313e-17, 1.0 },
        { -1.0, -3.33066907388e-16, -1.11022302463e-16, 1.0 },
        { -1.0, -4.4408920985e-16, -1.66533453694e-16, 1.0 },
        { -1.0, 1.11022302463e-16, 5.55111512313e-17, 1.0 },
        { -1.0, 1.11022302463e-16, 5.55111512313e-17, 1.0 },
        { -1.0, -5.55111512313e-17, 0.0, 1.0 },
        { -1.0, -1.66533453694e-16, -5.55111512313e-17, 1.0 },
        { -1.0, -3.33066907388e-16, -1.11022302463e-16, 1.0 },
        { -1.0, -4.4408920985e-16, -1.66533453694e-16, 1.0 },
        { -1.0, 1.11022302463e-16, 5.55111512313e-17, 1.0 },
        { -1.0, 1.11022302463e-16, 5.55111512313e-17, 1.0 },
        { -1.0, -5.55111512313e-17, 0.0, 1.0 },
        { -1.0, -1.66533453694e-16, -5.55111512313e-17, 1.0 },
        { -1.0, -3.33066907388e-16, -1.11022302463e-16, 1.0 },
        { -1.0, -4.4408920985e-16, -1.66533453694e-16, 1.0 } } };
static const double FE0_C0_D010_Q216[1][216][3] =
    { { { -1.0, -5.55111512313e-17, 1.0 },
        { -1.0, -5.55111512313e-17, 1.0 },
        { -1.0, -1.11022302463e-16, 1.0 },
        { -1.0, -1.66533453694e-16, 1.0 },
        { -1.0, -3.33066907388e-16, 1.0 },
        { -1.0, -3.33066907388e-16, 1.0 },
        { -1.0, -5.55111512313e-17, 1.0 },
        { -1.0, -5.55111512313e-17, 1.0 },
        { -1.0, -1.11022302463e-16, 1.0 },
        { -1.0, -1.66533453694e-16, 1.0 },
        { -1.0, -3.33066907388e-16, 1.0 },
        { -1.0, -3.33066907388e-16, 1.0 },
        { -1.0, -5.55111512313e-17, 1.0 },
        { -1.0, -5.55111512313e-17, 1.0 },
        { -1.0, -1.11022302463e-16, 1.0 },
        { -1.0, -2.77555756156e-16, 1.0 },
        { -1.0, -2.77555756156e-16, 1.0 },
        { -1.0, -3.33066907388e-16, 1.0 },
        { -1.0, -5.55111512313e-17, 1.0 },
        { -1.0, -5.55111512313e-17, 1.0 },
        { -1.0, -1.11022302463e-16, 1.0 },
        { -1.0, -1.66533453694e-16, 1.0 },
        { -1.0, -2.77555756156e-16, 1.0 },
        { -1.0, -3.88578058619e-16, 1.0 },
        { -1.0, -5.55111512313e-17, 1.0 },
        { -1.0, -5.55111512313e-17, 1.0 },
        { -1.0, -1.11022302463e-16, 1.0 },
        { -1.0, -1.66533453694e-16, 1.0 },
        { -1.0, -2.77555756156e-16, 1.0 },
        { -1.0, -3.33066907388e-16, 1.0 },
        { -1.0, -5.55111512313e-17, 1.0 },
        { -1.0, -5.55111512313e-17, 1.0 },
        { -1.0, -1.11022302463e-16, 1.0 },
        { -1.0, -1.66533453694e-16, 1.0 },
        { -1.0, -2.77555756156e-16, 1.0 },
        { -1.0, -3.33066907388e-16, 1.0 },
        { -1.0, -5.55111512313e-17, 1.0 },
        { -1.0, -5.55111512313e-17, 1.0 },
        { -1.0, -1.11022302463e-16, 1.0 },
        { -1.0, -1.66533453694e-16, 1.0 },
        { -1.0, -3.33066907388e-16, 1.0 },
        { -1.0, -3.33066907388e-16, 1.0 },
        { -1.0, -5.55111512313e-17, 1.0 },
        { -1.0, -5.55111512313e-17, 1.0 },
        { -1.0, -1.11022302463e-16, 1.0 },
        { -1.0, -1.66533453694e-16, 1.0 },
        { -1.0, -3.33066907388e-16, 1.0 },
        { -1.0, -3.33066907388e-16, 1.0 },
        { -1.0, -5.55111512313e-17, 1.0 },
        { -1.0, -5.55111512313e-17, 1.0 },
        { -1.0, -1.11022302463e-16, 1.0 },
        { -1.0, -2.77555756156e-16, 1.0 },
        { -1.0, -2.77555756156e-16, 1.0 },
        { -1.0, -3.88578058619e-16, 1.0 },
        { -1.0, -5.55111512313e-17, 1.0 },
        { -1.0, -5.55111512313e-17, 1.0 },
        { -1.0, -1.11022302463e-16, 1.0 },
        { -1.0, -1.66533453694e-16, 1.0 },
        { -1.0, -2.77555756156e-16, 1.0 },
        { -1.0, -3.33066907388e-16, 1.0 },
        { -1.0, -5.55111512313e-17, 1.0 },
        { -1.0, -5.55111512313e-17, 1.0 },
        { -1.0, -1.11022302463e-16, 1.0 },
        { -1.0, -1.66533453694e-16, 1.0 },
        { -1.0, -2.77555756156e-16, 1.0 },
        { -1.0, -3.33066907388e-16, 1.0 },
        { -1.0, -5.55111512313e-17, 1.0 },
        { -1.0, -5.55111512313e-17, 1.0 },
        { -1.0, -1.11022302463e-16, 1.0 },
        { -1.0, -1.66533453694e-16, 1.0 },
        { -1.0, -2.77555756156e-16, 1.0 },
        { -1.0, -3.33066907388e-16, 1.0 },
        { -1.0, -5.55111512313e-17, 1.0 },
        { -1.0, -5.55111512313e-17, 1.0 },
        { -1.0, -1.11022302463e-16, 1.0 },
        { -1.0, -1.66533453694e-16, 1.0 },
        { -1.0, -3.33066907388e-16, 1.0 },
        { -1.0, -3.33066907388e-16, 1.0 },
        { -1.0, -5.55111512313e-17, 1.0 },
        { -1.0, -5.55111512313e-17, 1.0 },
        { -1.0, -1.11022302463e-16, 1.0 },
        { -1.0, -1.66533453694e-16, 1.0 },
        { -1.0, -3.33066907388e-16, 1.0 },
        { -1.0, -3.33066907388e-16, 1.0 },
        { -1.0, -5.55111512313e-17, 1.0 },
        { -1.0, -5.55111512313e-17, 1.0 },
        { -1.0, -1.11022302463e-16, 1.0 },
        { -1.0, -2.77555756156e-16, 1.0 },
        { -1.0, -2.77555756156e-16, 1.0 },
        { -1.0, -3.33066907388e-16, 1.0 },
        { -1.0, -5.55111512313e-17, 1.0 },
        { -1.0, -5.55111512313e-17, 1.0 },
        { -1.0, -1.11022302463e-16, 1.0 },
        { -1.0, -1.66533453694e-16, 1.0 },
        { -1.0, -2.77555756156e-16, 1.0 },
        { -1.0, -3.33066907388e-16, 1.0 },
        { -1.0, -5.55111512313e-17, 1.0 },
        { -1.0, -5.55111512313e-17, 1.0 },
        { -1.0, -1.11022302463e-16, 1.0 },
        { -1.0, -1.66533453694e-16, 1.0 },
        { -1.0, -2.77555756156e-16, 1.0 },
        { -1.0, -3.33066907388e-16, 1.0 },
        { -1.0, -5.55111512313e-17, 1.0 },
        { -1.0, -5.55111512313e-17, 1.0 },
        { -1.0, -1.11022302463e-16, 1.0 },
        { -1.0, -1.66533453694e-16, 1.0 },
        { -1.0, -2.77555756156e-16, 1.0 },
        { -1.0, -3.33066907388e-16, 1.0 },
        { -1.0, -5.55111512313e-17, 1.0 },
        { -1.0, -5.55111512313e-17, 1.0 },
        { -1.0, -1.11022302463e-16, 1.0 },
        { -1.0, -1.66533453694e-16, 1.0 },
        { -1.0, -3.33066907388e-16, 1.0 },
        { -1.0, -3.33066907388e-16, 1.0 },
        { -1.0, -5.55111512313e-17, 1.0 },
        { -1.0, -5.55111512313e-17, 1.0 },
        { -1.0, -1.11022302463e-16, 1.0 },
        { -1.0, -1.66533453694e-16, 1.0 },
        { -1.0, -3.33066907388e-16, 1.0 },
        { -1.0, -3.33066907388e-16, 1.0 },
        { -1.0, -5.55111512313e-17, 1.0 },
        { -1.0, -5.55111512313e-17, 1.0 },
        { -1.0, -1.11022302463e-16, 1.0 },
        { -1.0, -2.77555756156e-16, 1.0 },
        { -1.0, -2.77555756156e-16, 1.0 },
        { -1.0, -3.33066907388e-16, 1.0 },
        { -1.0, -5.55111512313e-17, 1.0 },
        { -1.0, -5.55111512313e-17, 1.0 },
        { -1.0, -1.11022302463e-16, 1.0 },
        { -1.0, -1.66533453694e-16, 1.0 },
        { -1.0, -2.77555756156e-16, 1.0 },
        { -1.0, -3.33066907388e-16, 1.0 },
        { -1.0, -5.55111512313e-17, 1.0 },
        { -1.0, -5.55111512313e-17, 1.0 },
        { -1.0, -1.11022302463e-16, 1.0 },
        { -1.0, -1.66533453694e-16, 1.0 },
        { -1.0, -2.77555756156e-16, 1.0 },
        { -1.0, -3.33066907388e-16, 1.0 },
        { -1.0, -5.55111512313e-17, 1.0 },
        { -1.0, -5.55111512313e-17, 1.0 },
        { -1.0, -1.11022302463e-16, 1.0 },
        { -1.0, -1.66533453694e-16, 1.0 },
        { -1.0, -2.77555756156e-16, 1.0 },
        { -1.0, -3.33066907388e-16, 1.0 },
        { -1.0, -5.55111512313e-17, 1.0 },
        { -1.0, -5.55111512313e-17, 1.0 },
        { -1.0, -1.11022302463e-16, 1.0 },
        { -1.0, -1.66533453694e-16, 1.0 },
        { -1.0, -3.33066907388e-16, 1.0 },
        { -1.0, -3.33066907388e-16, 1.0 },
        { -1.0, -5.55111512313e-17, 1.0 },
        { -1.0, -5.55111512313e-17, 1.0 },
        { -1.0, -1.11022302463e-16, 1.0 },
        { -1.0, -1.66533453694e-16, 1.0 },
        { -1.0, -3.33066907388e-16, 1.0 },
        { -1.0, -3.33066907388e-16, 1.0 },
        { -1.0, -5.55111512313e-17, 1.0 },
        { -1.0, -5.55111512313e-17, 1.0 },
        { -1.0, -1.11022302463e-16, 1.0 },
        { -1.0, -2.77555756156e-16, 1.0 },
        { -1.0, -2.77555756156e-16, 1.0 },
        { -1.0, -3.33066907388e-16, 1.0 },
        { -1.0, -5.55111512313e-17, 1.0 },
        { -1.0, -5.55111512313e-17, 1.0 },
        { -1.0, -1.11022302463e-16, 1.0 },
        { -1.0, -1.66533453694e-16, 1.0 },
        { -1.0, -2.77555756156e-16, 1.0 },
        { -1.0, -3.33066907388e-16, 1.0 },
        { -1.0, -5.55111512313e-17, 1.0 },
        { -1.0, -5.55111512313e-17, 1.0 },
        { -1.0, -1.11022302463e-16, 1.0 },
        { -1.0, -1.66533453694e-16, 1.0 },
        { -1.0, -2.77555756156e-16, 1.0 },
        { -1.0, -3.33066907388e-16, 1.0 },
        { -1.0, -5.55111512313e-17, 1.0 },
        { -1.0, -5.55111512313e-17, 1.0 },
        { -1.0, -1.11022302463e-16, 1.0 },
        { -1.0, -1.66533453694e-16, 1.0 },
        { -1.0, -2.77555756156e-16, 1.0 },
        { -1.0, -3.33066907388e-16, 1.0 },
        { -1.0, -5.55111512313e-17, 1.0 },
        { -1.0, -5.55111512313e-17, 1.0 },
        { -1.0, -1.11022302463e-16, 1.0 },
        { -1.0, -1.66533453694e-16, 1.0 },
        { -1.0, -3.33066907388e-16, 1.0 },
        { -1.0, -3.33066907388e-16, 1.0 },
        { -1.0, -5.55111512313e-17, 1.0 },
        { -1.0, 0.0, 1.0 },
        { -1.0, -1.11022302463e-16, 1.0 },
        { -1.0, -1.66533453694e-16, 1.0 },
        { -1.0, -3.33066907388e-16, 1.0 },
        { -1.0, -3.33066907388e-16, 1.0 },
        { -1.0, -5.55111512313e-17, 1.0 },
        { -1.0, -5.55111512313e-17, 1.0 },
        { -1.0, -1.11022302463e-16, 1.0 },
        { -1.0, -2.77555756156e-16, 1.0 },
        { -1.0, -2.77555756156e-16, 1.0 },
        { -1.0, -3.33066907388e-16, 1.0 },
        { -1.0, -5.55111512313e-17, 1.0 },
        { -1.0, -5.55111512313e-17, 1.0 },
        { -1.0, -1.11022302463e-16, 1.0 },
        { -1.0, -1.66533453694e-16, 1.0 },
        { -1.0, -2.77555756156e-16, 1.0 },
        { -1.0, -3.33066907388e-16, 1.0 },
        { -1.0, -5.55111512313e-17, 1.0 },
        { -1.0, -5.55111512313e-17, 1.0 },
        { -1.0, -1.11022302463e-16, 1.0 },
        { -1.0, -1.66533453694e-16, 1.0 },
        { -1.0, -2.77555756156e-16, 1.0 },
        { -1.0, -3.33066907388e-16, 1.0 },
        { -1.0, -5.55111512313e-17, 1.0 },
        { -1.0, -5.55111512313e-17, 1.0 },
        { -1.0, -1.11022302463e-16, 1.0 },
        { -1.0, -1.66533453694e-16, 1.0 },
        { -1.0, -2.77555756156e-16, 1.0 },
        { -1.0, -3.33066907388e-16, 1.0 } } };
static const double FE0_C0_D100_Q216[1][216][2] =
    { { { -1.0, 1.0 },
        { -1.0, 1.0 },
        { -1.0, 1.0 },
        { -1.0, 1.0 },
        { -1.0, 1.0 },
        { -1.0, 1.0 },
        { -1.0, 1.0 },
        { -1.0, 1.0 },
        { -1.0, 1.0 },
        { -1.0, 1.0 },
        { -1.0, 1.0 },
        { -1.0, 1.0 },
        { -1.0, 1.0 },
        { -1.0, 1.0 },
        { -1.0, 1.0 },
        { -1.0, 1.0 },
        { -1.0, 1.0 },
        { -1.0, 1.0 },
        { -1.0, 1.0 },
        { -1.0, 1.0 },
        { -1.0, 1.0 },
        { -1.0, 1.0 },
        { -1.0, 1.0 },
        { -1.0, 1.0 },
        { -1.0, 1.0 },
        { -1.0, 1.0 },
        { -1.0, 1.0 },
        { -1.0, 1.0 },
        { -1.0, 1.0 },
        { -1.0, 1.0 },
        { -1.0, 1.0 },
        { -1.0, 1.0 },
        { -1.0, 1.0 },
        { -1.0, 1.0 },
        { -1.0, 1.0 },
        { -1.0, 1.0 },
        { -1.0, 1.0 },
        { -1.0, 1.0 },
        { -1.0, 1.0 },
        { -1.0, 1.0 },
        { -1.0, 1.0 },
        { -1.0, 1.0 },
        { -1.0, 1.0 },
        { -1.0, 1.0 },
        { -1.0, 1.0 },
        { -1.0, 1.0 },
        { -1.0, 1.0 },
        { -1.0, 1.0 },
        { -1.0, 1.0 },
        { -1.0, 1.0 },
        { -1.0, 1.0 },
        { -1.0, 1.0 },
        { -1.0, 1.0 },
        { -1.0, 1.0 },
        { -1.0, 1.0 },
        { -1.0, 1.0 },
        { -1.0, 1.0 },
        { -1.0, 1.0 },
        { -1.0, 1.0 },
        { -1.0, 1.0 },
        { -1.0, 1.0 },
        { -1.0, 1.0 },
        { -1.0, 1.0 },
        { -1.0, 1.0 },
        { -1.0, 1.0 },
        { -1.0, 1.0 },
        { -1.0, 1.0 },
        { -1.0, 1.0 },
        { -1.0, 1.0 },
        { -1.0, 1.0 },
        { -1.0, 1.0 },
        { -1.0, 1.0 },
        { -1.0, 1.0 },
        { -1.0, 1.0 },
        { -1.0, 1.0 },
        { -1.0, 1.0 },
        { -1.0, 1.0 },
        { -1.0, 1.0 },
        { -1.0, 1.0 },
        { -1.0, 1.0 },
        { -1.0, 1.0 },
        { -1.0, 1.0 },
        { -1.0, 1.0 },
        { -1.0, 1.0 },
        { -1.0, 1.0 },
        { -1.0, 1.0 },
        { -1.0, 1.0 },
        { -1.0, 1.0 },
        { -1.0, 1.0 },
        { -1.0, 1.0 },
        { -1.0, 1.0 },
        { -1.0, 1.0 },
        { -1.0, 1.0 },
        { -1.0, 1.0 },
        { -1.0, 1.0 },
        { -1.0, 1.0 },
        { -1.0, 1.0 },
        { -1.0, 1.0 },
        { -1.0, 1.0 },
        { -1.0, 1.0 },
        { -1.0, 1.0 },
        { -1.0, 1.0 },
        { -1.0, 1.0 },
        { -1.0, 1.0 },
        { -1.0, 1.0 },
        { -1.0, 1.0 },
        { -1.0, 1.0 },
        { -1.0, 1.0 },
        { -1.0, 1.0 },
        { -1.0, 1.0 },
        { -1.0, 1.0 },
        { -1.0, 1.0 },
        { -1.0, 1.0 },
        { -1.0, 1.0 },
        { -1.0, 1.0 },
        { -1.0, 1.0 },
        { -1.0, 1.0 },
        { -1.0, 1.0 },
        { -1.0, 1.0 },
        { -1.0, 1.0 },
        { -1.0, 1.0 },
        { -1.0, 1.0 },
        { -1.0, 1.0 },
        { -1.0, 1.0 },
        { -1.0, 1.0 },
        { -1.0, 1.0 },
        { -1.0, 1.0 },
        { -1.0, 1.0 },
        { -1.0, 1.0 },
        { -1.0, 1.0 },
        { -1.0, 1.0 },
        { -1.0, 1.0 },
        { -1.0, 1.0 },
        { -1.0, 1.0 },
        { -1.0, 1.0 },
        { -1.0, 1.0 },
        { -1.0, 1.0 },
        { -1.0, 1.0 },
        { -1.0, 1.0 },
        { -1.0, 1.0 },
        { -1.0, 1.0 },
        { -1.0, 1.0 },
        { -1.0, 1.0 },
        { -1.0, 1.0 },
        { -1.0, 1.0 },
        { -1.0, 1.0 },
        { -1.0, 1.0 },
        { -1.0, 1.0 },
        { -1.0, 1.0 },
        { -1.0, 1.0 },
        { -1.0, 1.0 },
        { -1.0, 1.0 },
        { -1.0, 1.0 },
        { -1.0, 1.0 },
        { -1.0, 1.0 },
        { -1.0, 1.0 },
        { -1.0, 1.0 },
        { -1.0, 1.0 },
        { -1.0, 1.0 },
        { -1.0, 1.0 },
        { -1.0, 1.0 },
        { -1.0, 1.0 },
        { -1.0, 1.0 },
        { -1.0, 1.0 },
        { -1.0, 1.0 },
        { -1.0, 1.0 },
        { -1.0, 1.0 },
        { -1.0, 1.0 },
        { -1.0, 1.0 },
        { -1.0, 1.0 },
        { -1.0, 1.0 },
        { -1.0, 1.0 },
        { -1.0, 1.0 },
        { -1.0, 1.0 },
        { -1.0, 1.0 },
        { -1.0, 1.0 },
        { -1.0, 1.0 },
        { -1.0, 1.0 },
        { -1.0, 1.0 },
        { -1.0, 1.0 },
        { -1.0, 1.0 },
        { -1.0, 1.0 },
        { -1.0, 1.0 },
        { -1.0, 1.0 },
        { -1.0, 1.0 },
        { -1.0, 1.0 },
        { -1.0, 1.0 },
        { -1.0, 1.0 },
        { -1.0, 1.0 },
        { -1.0, 1.0 },
        { -1.0, 1.0 },
        { -1.0, 1.0 },
        { -1.0, 1.0 },
        { -1.0, 1.0 },
        { -1.0, 1.0 },
        { -1.0, 1.0 },
        { -1.0, 1.0 },
        { -1.0, 1.0 },
        { -1.0, 1.0 },
        { -1.0, 1.0 },
        { -1.0, 1.0 },
        { -1.0, 1.0 },
        { -1.0, 1.0 },
        { -1.0, 1.0 },
        { -1.0, 1.0 },
        { -1.0, 1.0 },
        { -1.0, 1.0 },
        { -1.0, 1.0 },
        { -1.0, 1.0 },
        { -1.0, 1.0 },
        { -1.0, 1.0 },
        { -1.0, 1.0 },
        { -1.0, 1.0 },
        { -1.0, 1.0 },
        { -1.0, 1.0 },
        { -1.0, 1.0 } } };
static const double FE1_C0_D001_Q216[1][216][10] =
    { { { -2.6544484457, -1.36002320517e-15, -5.82867087928e-16, -0.896381779625, 0.114227992629, 0.127705341297, -1.55431223448e-15, 3.55083022532, -0.114227992629, -0.127705341297 },
        { -2.25805322281, -1.38777878078e-15, 0.0, -0.473744233368, 0.101837769789, 0.113853240774, -1.4155343564e-15, 2.73179745617, -0.101837769789, -0.113853240774 },
        { -1.61700055579, -2.18228213278e-15, 4.54497550706e-16, 0.209747672092, 0.0818002291285, 0.0914515429941, -8.98586760556e-16, 1.40725288369, -0.0818002291285, -0.091451542994 },
        { -0.841915108203, -2.28983498829e-15, 9.57567358739e-16, 1.03614565266, 0.0575731929262, 0.0643660462115, -6.80011602583e-16, -0.194230544456, -0.0575731929262, -0.0643660462115 },
        { -0.0666600155168, -2.44249065418e-15, 1.38777878078e-15, 1.86272450925, 0.0333408540853, 0.0372746211511, -3.88578058619e-16, -1.79606449373, -0.0333408540853, -0.0372746211511 },
        { 0.575336234057, -2.38697950294e-15, 1.44328993201e-15, 2.54722246471, 0.0132738196329, 0.0148399497139, -1.66533453694e-16, -3.12255869877, -0.0132738196329, -0.0148399497139 },
        { -2.20733030249, -1.47104550763e-15, -2.77555756156e-16, -0.896381779625, 0.576970757701, 0.112080719435, -1.99840144433e-15, 3.10371208211, -0.576970757701, -0.112080719435 },
        { -1.85943364201, -1.94289029309e-15, 1.11022302463e-16, -0.473744233368, 0.514387181684, 0.0999234096733, -1.69309011255e-15, 2.33317787538, -0.514387181684, -0.0999234096733 },
        { -1.29681313307, -2.28289609439e-15, 5.34294830601e-16, 0.209747672092, 0.413176657438, 0.0802625374014, -1.46410661372e-15, 1.08706546098, -0.413176657438, -0.0802625374014 },
        { -0.616558621344, -2.38697950294e-15, 1.01307850997e-15, 1.03614565266, 0.290804801707, 0.0564909242894, -9.29811783124e-16, -0.419587031315, -0.290804801707, -0.0564909242894 },
        { 0.0638447795734, -2.44249065418e-15, 1.38777878078e-15, 1.86272450925, 0.168406162108, 0.0327141082185, -6.10622663544e-16, -1.92656928882, -0.168406162108, -0.0327141082185 },
        { 0.627293424681, -2.38697950294e-15, 1.49880108324e-15, 2.54722246471, 0.067046663387, 0.0130242965832, -2.77555756156e-16, -3.17451588939, -0.0670466633871, -0.0130242965832 },
        { -1.49613296843, -1.74860126378e-15, 5.55111512313e-17, -0.896381779625, 1.31302100722, 0.0872278039744, -2.74780198595e-15, 2.39251474805, -1.31302100722, -0.0872278039744 },
        { -1.22537933786, -1.7763568394e-15, 3.88578058619e-16, -0.473744233368, 1.1705986246, 0.0777662709106, -2.38697950294e-15, 1.69912357123, -1.1705986246, -0.0777662709106 },
        { -0.78751498694, -2.17187379192e-15, 7.35522753814e-16, 0.209747672092, 0.940272316526, 0.0624650244415, -2.08513761812e-15, 0.577767314849, -0.940272316526, -0.0624650244415 },
        { -0.258100940524, -2.31759056391e-15, 1.19348975147e-15, 1.03614565266, 0.661788848996, 0.0439645578213, -1.56819002228e-15, -0.778044712135, -0.661788848996, -0.0439645578213 },
        { 0.271428980215, -2.38697950294e-15, 1.44328993201e-15, 1.86272450925, 0.383244429016, 0.0254600419525, -8.881784197e-16, -2.13415348946, -0.383244429016, -0.0254600419525 },
        { 0.709937835376, -2.38697950294e-15, 1.55431223448e-15, 2.54722246471, 0.152579097496, 0.0101362731698, -3.33066907388e-16, -3.25716030009, -0.152579097496, -0.0101362731698 },
        { -0.661522073098, -1.16573417586e-15, 5.55111512313e-16, -0.896381779625, 2.17679752654, 0.0580621799898, -3.58046925442e-15, 1.55790385272, -2.17679752654, -0.0580621799898 },
        { -0.481298046875, -1.38777878078e-15, 7.77156117238e-16, -0.473744233368, 1.94068196668, 0.0517642198132, -3.38618022511e-15, 0.955042280243, -1.94068196668, -0.0517642198131 },
        { -0.189838700247, -1.83533743758e-15, 1.05124242644e-15, 0.209747672092, 1.55883450579, 0.0415791218733, -2.92821322745e-15, -0.0199089718449, -1.55883450579, -0.0415791218733 },
        { 0.162559643534, -2.1371793224e-15, 1.33226762955e-15, 1.03614565266, 1.09714949088, 0.0292644999998, -2.1233015346e-15, -1.19870529619, -1.09714949088, -0.0292644999998 },
        { 0.515035117718, -2.22044604925e-15, 1.44328993201e-15, 1.86272450925, 0.635363425681, 0.0169471827908, -1.27675647832e-15, -2.37775962697, -0.635363425681, -0.0169471827908 },
        { 0.806923471149, -2.33146835171e-15, 1.49880108324e-15, 2.54722246471, 0.252953913306, 0.00674709313313, -6.66133814775e-16, -3.35414593586, -0.252953913306, -0.00674709313313 },
        { 0.131207143275, -5.55111512313e-17, 1.11022302463e-15, -0.896381779625, 2.99722880428, 0.0303601186152, -4.41313652288e-15, 0.765174636351, -2.99722880428, -0.0303601186152 },
        { 0.225444438781, -4.71844785466e-16, 1.19348975147e-15, -0.473744233368, 2.67212169234, 0.0270669798107, -4.0800696155e-15, 0.248299794587, -2.67212169234, -0.0270669798107 },
        { 0.377845542851, -1.25593979661e-15, 1.46410661372e-15, 0.209747672092, 2.14635657424, 0.021741296524, -3.76088049592e-15, -0.587593214943, -2.14635657424, -0.021741296524 },
        { 0.562111023735, -1.83186799063e-15, 1.49880108324e-15, 1.03614565266, 1.51066326407, 0.0153021070061, -2.70616862252e-15, -1.59825667639, -1.51066326407, -0.0153021070061 },
        { 0.746416835316, -2.22044604925e-15, 1.44328993201e-15, 1.86272450925, 0.874830817944, 0.0088615081248, -1.55431223448e-15, -2.60914134456, -0.874830817944, -0.00886150812479 },
        { 0.899042262644, -2.27595720048e-15, 1.49880108324e-15, 2.54722246471, 0.348291812111, 0.00352798582254, -7.77156117238e-16, -3.44626472735, -0.348291812111, -0.00352798582254 },
        { 0.724963638649, 1.30451205393e-15, 1.63757896132e-15, -0.896381779625, 3.61173422443, 0.00961119384152, -5.21804821574e-15, 0.171418140976, -3.61173422443, -0.00961119384152 },
        { 0.754796622034, 5.55111512313e-16, 1.49880108324e-15, -0.473744233368, 3.21997218039, 0.00856867500956, -4.69069227904e-15, -0.281052388666, -3.21997218039, -0.00856867500955 },
        { 0.803042696809, -4.4408920985e-16, 1.72084568817e-15, 0.209747672092, 2.58641231724, 0.00688270747249, -4.42354486374e-15, -1.0127903689, -2.58641231724, -0.00688270747248 },
        { 0.861376172956, -1.30451205393e-15, 1.36002320517e-15, 1.03614565266, 1.82038628637, 0.00484423392685, -3.34454686168e-15, -1.89752182562, -1.82038628637, -0.00484423392684 },
        { 0.919722416713, -1.94289029309e-15, 1.55431223448e-15, 1.86272450925, 1.05419259325, 0.00280531421485, -1.88737914186e-15, -2.78244692596, -1.05419259325, -0.00280531421484 },
        { 0.968039506175, -2.27595720048e-15, 1.55431223448e-15, 2.54722246471, 0.419700176408, 0.0011168650571, -7.21644966006e-16, -3.51526197089, -0.419700176408, -0.00111686505709 },
        { -2.14147468601, -8.04911692853e-16, -6.38378239159e-16, -0.896381779625, 0.114227992629, 0.640679100988, -1.27675647832e-15, 3.03785646563, -0.114227992629, -0.640679100988 },
        { -1.80072133379, -1.11022302463e-15, 0.0, -0.473744233368, 0.101837769789, 0.571185129787, -1.19348975147e-15, 2.27446556716, -0.101837769789, -0.571185129787 },
        { -1.24965302464, -1.79023462721e-15, 4.30211422042e-16, 0.209747672092, 0.0818002291285, 0.458799074136, -7.84095011142e-16, 1.03990535255, -0.0818002291285, -0.458799074136 },
        { -0.583366073479, -2.23432383706e-15, 9.29811783124e-16, 1.03614565266, 0.0575731929262, 0.322915080936, -5.6898930012e-16, -0.45277957918, -0.0575731929262, -0.322915080936 },
        { 0.0830667097611, -2.38697950294e-15, 1.38777878078e-15, 1.86272450925, 0.0333408540853, 0.187001346429, -3.88578058619e-16, -1.94579121901, -0.0333408540853, -0.187001346429 },
        { 0.634946151082, -2.38697950294e-15, 1.44328993201e-15, 2.54722246471, 0.0132738196329, 0.0744498667389, -1.66533453694e-16, -3.18216861579, -0.0132738196329, -0.0744498667389 },
        { -1.75711837358, -1.36002320517e-15, -2.49800180541e-16, -0.896381779625, 0.576970757701, 0.562292648344, -1.88737914186e-15, 2.65350015321, -0.576970757701, -0.562292648344 },
        { -1.45805585608, -1.60982338571e-15, 8.32667268469e-17, -0.473744233368, 0.514387181684, 0.501301195603, -1.80411241502e-15, 1.93180008945, -0.514387181684, -0.501301195603 },
        { -0.974410208063, -2.00880978518e-15, 5.03069808033e-16, 0.209747672092, 0.413176657438, 0.402665462407, -1.33226762955e-15, 0.764662535971, -0.413176657438, -0.402665462407 },
        { -0.389642804615, -2.28983498829e-15, 9.57567358739e-16, 1.03614565266, 0.290804801707, 0.283406741019, -9.43689570931e-16, -0.646502848044, -0.290804801707, -0.283406741019 },
        { 0.195252588498, -2.44249065418e-15, 1.33226762955e-15, 1.86272450925, 0.168406162108, 0.164121917143, -6.10622663544e-16, -2.05797709774, -0.168406162108, -0.164121917143 },
        { 0.679610127473, -2.38697950294e-15, 1.49880108324e-15, 2.54722246471, 0.067046663387, 0.0653409993754, -2.77555756156e-16, -3.22683259218, -0.0670466633871, -0.0653409993754 },
        { -1.14575158187, -1.49880108324e-15, 0.0, -0.896381779625, 1.31302100722, 0.43760919053, -2.83106871279e-15, 2.0421333615, -1.31302100722, -0.43760919053 },
        { -0.913003551844, -1.60982338571e-15, 3.60822483003e-16, -0.473744233368, 1.1705986246, 0.390142056926, -2.52575738102e-15, 1.38674778521, -1.1705986246, -0.390142056926 },
        { -0.536602079841, -2.10595429984e-15, 7.1123662515e-16, 0.209747672092, 0.940272316526, 0.313377931541, -2.16493489802e-15, 0.32685440775, -0.940272316526, -0.313377931541 },
        { -0.0815017138223, -2.27595720048e-15, 1.16573417586e-15, 1.03614565266, 0.661788848996, 0.220563784523, -1.52655665886e-15, -0.954643938837, -0.661788848996, -0.220563784523 },
        { 0.373698261277, -2.33146835171e-15, 1.38777878078e-15, 1.86272450925, 0.383244429016, 0.127729323015, -8.881784197e-16, -2.23642277052, -0.383244429016, -0.127729323015 },
        { 0.750653768667, -2.33146835171e-15, 1.49880108324e-15, 2.54722246471, 0.152579097496, 0.050852206461, -4.4408920985e-16, -3.29787623338, -0.152579097496, -0.050852206461 },
        { -0.428294751025, -8.60422844084e-16, 4.99600361081e-16, -0.896381779625, 2.17679752654, 0.291289502063, -3.9135361618e-15, 1.32467653065, -2.17679752654, -0.291289502063 },
        { -0.27336871373, -1.27675647832e-15, 7.21644966006e-16, -0.473744233368, 1.94068196668, 0.259693552958, -3.38618022511e-15, 0.747112947098, -1.94068196668, -0.259693552958 },
        { -0.0228214223838, -1.77288739245e-15, 1.05818132035e-15, 0.209747672092, 1.55883450579, 0.208596399736, -2.92127433354e-15, -0.186926249708, -1.55883450579, -0.208596399736 },
        { 0.280110878571, -2.04003480775e-15, 1.29063426613e-15, 1.03614565266, 1.09714949088, 0.146815735037, -2.1233015346e-15, -1.31625653123, -1.09714949088, -0.146815735037 },
        { 0.583109483161, -2.22044604925e-15, 1.44328993201e-15, 1.86272450925, 0.635363425681, 0.0850215482329, -1.27675647832e-15, -2.44583399241, -0.635363425681, -0.0850215482329 },
        { 0.834025561761, -2.44249065418e-15, 1.49880108324e-15, 2.54722246471, 0.252953913306, 0.0338491837452, -5.55111512313e-16, -3.38124802647, -0.252953913306, -0.0338491837452 },
        { 0.253159318748, -8.32667268469e-17, 1.13797860024e-15, -0.896381779625, 2.99722880428, 0.152312294088, -4.38538094727e-15, 0.643222460878, -2.99722880428, -0.152312294088 },
        { 0.334168555219, -2.49800180541e-16, 1.08246744901e-15, -0.473744233368, 2.67212169234, 0.135791096249, -4.55191440096e-15, 0.139575678149, -2.67212169234, -0.135791096249 },
        { 0.465177165046, -1.13797860024e-15, 1.47104550763e-15, 0.209747672092, 2.14635657424, 0.109072918719, -3.64291929955e-15, -0.674924837138, -2.14635657424, -0.109072918719 },
        { 0.623577359303, -1.80411241502e-15, 1.47104550763e-15, 1.03614565266, 1.51066326407, 0.0767684425748, -2.70616862252e-15, -1.65972301196, -1.51066326407, -0.0767684425748 },
        { 0.782012223051, -2.10942374679e-15, 1.44328993201e-15, 1.86272450925, 0.874830817944, 0.0444568958598, -1.55431223448e-15, -2.6447367323, -0.874830817944, -0.0444568958598 },
        { 0.913213667952, -2.16493489802e-15, 1.49880108324e-15, 2.54722246471, 0.348291812111, 0.0176993911306, -6.66133814775e-16, -3.46043613266, -0.348291812111, -0.0176993911306 },
        { 0.76357040474, 1.4155343564e-15, 1.63757896132e-15, -0.896381779625, 3.61173422443, 0.0482179599323, -5.21804821574e-15, 0.132811374886, -3.61173422443, -0.0482179599323 },
        { 0.789215741787, 6.66133814775e-16, 1.49880108324e-15, -0.473744233368, 3.21997218039, 0.0429877947627, -4.91273688397e-15, -0.315471508419, -3.21997218039, -0.0429877947627 },
        { 0.830689530474, -4.40619762898e-16, 1.72431513512e-15, 0.209747672092, 2.58641231724, 0.0345295411378, -4.19803081186e-15, -1.04043720257, -2.58641231724, -0.0345295411378 },
        { 0.880834755229, -1.4155343564e-15, 1.36002320517e-15, 1.03614565266, 1.82038628637, 0.0243028161994, -3.23352455922e-15, -1.91698040789, -1.82038628637, -0.0243028161994 },
        { 0.930990955408, -1.83186799063e-15, 1.55431223448e-15, 1.86272450925, 1.05419259325, 0.0140738529094, -1.88737914186e-15, -2.79371546465, -1.05419259325, -0.0140738529093 },
        { 0.972525790473, -2.27595720048e-15, 1.55431223448e-15, 2.54722246471, 0.419700176408, 0.00560314935488, -7.77156117238e-16, -3.51974825518, -0.419700176408, -0.00560314935487 },
        { -1.34232412265, -7.77156117238e-16, -5.55111512313e-16, -0.896381779625, 0.114227992629, 1.43982966435, -1.27675647832e-15, 2.23870590227, -0.114227992629, -1.43982966435 },
        { -1.08825401973, -1.33226762955e-15, -5.55111512313e-17, -0.473744233368, 0.101837769789, 1.28365244385, -1.11022302463e-15, 1.5619982531, -0.101837769789, -1.28365244385 },
        { -0.677370367068, -1.87350135405e-15, 4.30211422042e-16, 0.209747672092, 0.0818002291285, 1.03108173171, -9.36750677027e-16, 0.467622694976, -0.0818002291285, -1.03108173171 },
        { -0.180578205963, -2.27595720048e-15, 9.29811783124e-16, 1.03614565266, 0.0575731929262, 0.725702948451, -5.55111512313e-16, -0.855567446696, -0.0575731929262, -0.725702948451 },
        { 0.316322689421, -2.49800180541e-15, 1.38777878078e-15, 1.86272450925, 0.0333408540853, 0.420257326089, -3.88578058619e-16, -2.17904719867, -0.0333408540853, -0.420257326089 },
        { 0.727811132716, -2.38697950294e-15, 1.44328993201e-15, 2.54722246471, 0.0132738196329, 0.167314848373, -1.66533453694e-16, -3.27503359743, -0.0132738196329, -0.167314848373 },
        { -1.05574308913, -1.19348975147e-15, -2.77555756156e-16, -0.896381779625, 0.576970757701, 1.2636679328, -1.99840144433e-15, 1.95212486875, -0.576970757701, -1.2636679328 },
        { -0.832758211343, -1.49880108324e-15, 5.55111512313e-17, -0.473744233368, 0.514387181684, 1.12659884034, -1.7763568394e-15, 1.30650244471, -0.514387181684, -1.12659884034 },
        { -0.472145766108, -1.96023752785e-15, 4.82253126322e-16, 0.209747672092, 0.413176657438, 0.904929904362, -1.32532873565e-15, 0.262398094016, -0.413176657438, -0.904929904362 },
        { -0.0361356332449, -2.26207941267e-15, 9.71445146547e-16, 1.03614565266, 0.290804801707, 0.636913912389, -8.74300631892e-16, -1.00001001941, -0.290804801707, -0.636913912389 },
        { 0.399969930366, -2.49800180541e-15, 1.33226762955e-15, 1.86272450925, 0.168406162108, 0.368839259011, -6.10622663544e-16, -2.26269443961, -0.168406162108, -0.368839259011 },
        { 0.761113170698, -2.27595720048e-15, 1.44328993201e-15, 2.54722246471, 0.067046663387, 0.146844042601, -2.22044604925e-16, -3.30833563541, -0.0670466633871, -0.146844042601 },
        { -0.599900108635, -1.2490009027e-15, 2.77555756156e-17, -0.896381779625, 1.31302100722, 0.983460663766, -2.85882428841e-15, 1.49628188826, -1.31302100722, -0.983460663766 },
        { -0.426360169683, -1.52655665886e-15, 3.05311331772e-16, -0.473744233368, 1.1705986246, 0.876785439087, -2.58126853225e-15, 0.900104403051, -1.1705986246, -0.876785439087 },
        { -0.145710367984, -1.96023752785e-15, 6.83481049535e-16, 0.209747672092, 0.940272316526, 0.704269643398, -2.1302404285e-15, -0.0640373041075, -0.940272316526, -0.704269643398 },
        { 0.193618346106, -2.26207941267e-15, 1.11022302463e-15, 1.03614565266, 0.661788848996, 0.495683844451, -1.58206781009e-15, -1.22976399877, -0.661788848996, -0.495683844451 },
        { 0.533021330015, -2.38697950294e-15, 1.38777878078e-15, 1.86272450925, 0.383244429016, 0.287052391752, -8.32667268469e-16, -2.39574583926, -0.383244429016, -0.287052391752 },
        { 0.814084227658, -2.38697950294e-15, 1.49880108324e-15, 2.54722246471, 0.152579097496, 0.114282665452, -2.77555756156e-16, -3.36130669237, -0.152579097496, -0.114282665452 },
        { -0.0649550239808, -6.66133814775e-16, 5.55111512313e-16, -0.896381779625, 2.17679752654, 0.654629229107, -4.0800696155e-15, 0.961336803606, -2.17679752654, -0.654629229107 },
        { 0.0505598315098, -1.05471187339e-15, 6.38378239159e-16, -0.473744233368, 1.94068196668, 0.583622098198, -3.63598040565e-15, 0.423184401858, -1.94068196668, -0.583622098198 },
        { 0.237371129719, -1.58553725704e-15, 9.67975699595e-16, 0.209747672092, 1.55883450579, 0.468788951839, -2.91086599269e-15, -0.44711880181, -1.55883450579, -0.468788951839 },
        { 0.463241368055, -2.02615701994e-15, 1.27675647832e-15, 1.03614565266, 1.09714949088, 0.329946224521, -2.16493489802e-15, -1.49938702071, -1.09714949088, -0.329946224521 },
        { 0.689161043237, -2.16493489802e-15, 1.44328993201e-15, 1.86272450925, 0.635363425681, 0.19107310831, -1.22124532709e-15, -2.55188555248, -0.635363425681, -0.19107310831 },
        { 0.876247313989, -2.33146835171e-15, 1.49880108324e-15, 2.54722246471, 0.252953913306, 0.0760709359729, -5.55111512313e-16, -3.4234697787, -0.252953913306, -0.0760709359729 },
        { 0.44314593676, 1.38777878078e-16, 9.71445146547e-16, -0.896381779625, 2.99722880428, 0.3422989121, -4.66293670343e-15, 0.453235842866, -2.99722880428, -0.3422989121 },
        { 0.503547470342, -1.11022302463e-16, 1.11022302463e-15, -0.473744233368, 2.67212169234, 0.305170011372, -4.52415882535e-15, -0.0298032369739, -2.67212169234, -0.305170011372 },
        { 0.601229182832, -1.02001740387e-15, 1.47798440153e-15, 0.209747672092, 2.14635657424, 0.245124936505, -3.74700270811e-15, -0.810976854923, -2.14635657424, -0.245124936505 },
        { 0.719334414649, -1.81799020282e-15, 1.51267887105e-15, 1.03614565266, 1.51066326407, 0.172525497921, -2.80331313718e-15, -1.75548006731, -1.51066326407, -0.17252549792 },
        { 0.837465496487, -2.22044604925e-15, 1.44328993201e-15, 1.86272450925, 0.874830817944, 0.0999101692957, -1.55431223448e-15, -2.70019000573, -0.874830817944, -0.0999101692957 },
        { 0.9352909893, -2.27595720048e-15, 1.49880108324e-15, 2.54722246471, 0.348291812111, 0.0397767124781, -6.66133814775e-16, -3.48251345401, -0.348291812111, -0.0397767124781 },
        { 0.823715038433, 1.4155343564e-15, 1.63757896132e-15, -0.896381779625, 3.61173422443, 0.108362593626, -5.44009282066e-15, 0.0726667411919, -3.61173422443, -0.108362593626 },
        { 0.842836533146, 6.66133814775e-16, 1.49880108324e-15, -0.473744233368, 3.21997218039, 0.096608586122, -4.91273688397e-15, -0.369092299778, -3.21997218039, -0.096608586122 },
        { 0.87375992595, -3.26128013484e-16, 1.72778458207e-15, 0.209747672092, 2.58641231724, 0.077599936614, -4.63865057476e-15, -1.08350759804, -2.58641231724, -0.077599936614 },
        { 0.911148853546, -1.30451205393e-15, 1.36002320517e-15, 1.03614565266, 1.82038628637, 0.0546169145165, -3.23352455922e-15, -1.9472945062, -1.82038628637, -0.0546169145165 },
        { 0.94854596456, -1.83186799063e-15, 1.55431223448e-15, 1.86272450925, 1.05419259325, 0.0316288620611, -1.88737914186e-15, -2.81127047381, -1.05419259325, -0.0316288620611 },
        { 0.979514874332, -2.27595720048e-15, 1.55431223448e-15, 2.54722246471, 0.419700176408, 0.0125922332139, -7.77156117238e-16, -3.52673733904, -0.419700176408, -0.0125922332139 },
        { -0.439829664351, -1.52655665886e-15, -6.38378239159e-16, -0.896381779625, 0.114227992629, 2.34232412265, -1.47104550763e-15, 1.33621144398, -0.114227992629, -2.34232412265 },
        { -0.283652443845, -1.7763568394e-15, -1.11022302463e-16, -0.473744233368, 0.101837769789, 2.08825401973, -1.36002320517e-15, 0.757396677214, -0.101837769789, -2.08825401973 },
        { -0.0310817317119, -2.26901830658e-15, 3.95516952523e-16, 0.209747672092, 0.0818002291285, 1.67737036707, -8.91647866652e-16, -0.17866594038, -0.0818002291285, -1.67737036707 },
        { 0.274297051549, -2.53963516883e-15, 8.881784197e-16, 1.03614565266, 0.0575731929262, 1.18057820596, -5.13478148889e-16, -1.31044270421, -0.0575731929262, -1.18057820596 },
        { 0.579742673911, -2.60902410787e-15, 1.33226762955e-15, 1.86272450925, 0.0333408540853, 0.683677310579, -3.33066907388e-16, -2.44246718316, -0.0333408540853, -0.683677310579 },
        { 0.832685151627, -2.38697950294e-15, 1.38777878078e-15, 2.54722246471, 0.0132738196329, 0.272188867284, -5.55111512313e-17, -3.37990761634, -0.0132738196329, -0.272188867284 },
        { -0.263667932799, -1.72084568817e-15, -3.60822483003e-16, -0.896381779625, 0.576970757701, 2.05574308913, -2.27595720048e-15, 1.16004971242, -0.576970757701, -2.05574308913 },
        { -0.126598840341, -1.91513471748e-15, -1.11022302463e-16, -0.473744233368, 0.514387181684, 1.83275821134, -2.02615701994e-15, 0.600343073709, -0.514387181684, -1.83275821134 },
        { 0.0950700956379, -2.27942664743e-15, 4.2674197509e-16, 0.209747672092, 0.413176657438, 1.47214576611, -1.44328993201e-15, -0.304817767729, -0.413176657438, -1.47214576611 },
        { 0.363086087611, -2.45636844198e-15, 9.43689570931e-16, 1.03614565266, 0.290804801707, 1.03613563324, -8.60422844084e-16, -1.39923174027, -0.290804801707, -1.03613563324 },
        { 0.631160740989, -2.55351295664e-15, 1.33226762955e-15, 1.86272450925, 0.168406162108, 0.600030069634, -5.55111512313e-16, -2.49388525024, -0.168406162108, -0.600030069634 },
        { 0.853155957399, -2.38697950294e-15, 1.44328993201e-15, 2.54722246471, 0.067046663387, 0.238886829302, -2.22044604925e-16, -3.40037842211, -0.0670466633871, -0.238886829302 },
        { 0.0165393362342, -1.47104550763e-15, -8.32667268469e-17, -0.896381779625, 1.31302100722, 1.59990010864, -3.30291349826e-15, 0.879842443391, -1.31302100722, -1.59990010864 },
        { 0.123214560913, -1.63757896132e-15, 2.22044604925e-16, -0.473744233368, 1.1705986246, 1.42636016968, -2.85882428841e-15, 0.350529672455, -1.1705986246, -1.42636016968 },
        { 0.295730356602, -1.94635974005e-15, 6.34908792208e-16, 0.209747672092, 0.940272316526, 1.14571036798, -2.32452945781e-15, -0.505478028694, -0.940272316526, -1.14571036798 },
        { 0.504316155549, -2.26207941267e-15, 1.08246744901e-15, 1.03614565266, 0.661788848996, 0.806381653894, -1.55431223448e-15, -1.54046180821, -0.661788848996, -0.806381653894 },
        { 0.712947608248, -2.38697950294e-15, 1.38777878078e-15, 1.86272450925, 0.383244429016, 0.466978669985, -7.77156117238e-16, -2.57567211749, -0.383244429016, -0.466978669985 },
        { 0.885717334548, -2.49800180541e-15, 1.49880108324e-15, 2.54722246471, 0.152579097496, 0.185915772342, -2.77555756156e-16, -3.43293979926, -0.152579097496, -0.185915772342 },
        { 0.345370770893, -6.10622663544e-16, 4.4408920985e-16, -0.896381779625, 2.17679752654, 1.06495502398, -4.19109191796e-15, 0.551011008733, -2.17679752654, -1.06495502398 },
        { 0.416377901802, -9.43689570931e-16, 5.82867087928e-16, -0.473744233368, 1.94068196668, 0.94944016849, -3.74700270811e-15, 0.0573663315662, -1.94068196668, -0.94944016849 },
        { 0.531211048161, -1.52308721191e-15, 8.63892291036e-16, 0.209747672092, 1.55883450579, 0.762628870281, -3.13984949152e-15, -0.740958720253, -1.55883450579, -0.762628870281 },
        { 0.670053775479, -1.99840144433e-15, 1.22124532709e-15, 1.03614565266, 1.09714949088, 0.536758631945, -2.15105711021e-15, -1.70619942814, -1.09714949088, -0.536758631945 },
        { 0.80892689169, -2.33146835171e-15, 1.44328993201e-15, 1.86272450925, 0.635363425681, 0.310838956763, -1.22124532709e-15, -2.67165140094, -0.635363425681, -0.310838956763 },
        { 0.923929064027, -2.33146835171e-15, 1.49880108324e-15, 2.54722246471, 0.252953913306, 0.123752686011, -4.99600361081e-16, -3.47115152874, -0.252953913306, -0.123752686011 },
        { 0.6577010879, 3.88578058619e-16, 1.05471187339e-15, -0.896381779625, 2.99722880428, 0.55685406324, -5.05151476204e-15, 0.238680691726, -2.99722880428, -0.55685406324 },
        { 0.694829988628, -2.22044604925e-16, 9.99200722163e-16, -0.473744233368, 2.67212169234, 0.496452529658, -4.52415882535e-15, -0.22108575526, -2.67212169234, -0.496452529658 },
        { 0.754875063495, -1.00960906302e-15, 1.48839274239e-15, 0.209747672092, 2.14635657424, 0.398770817168, -4.07313072159e-15, -0.964622735587, -2.14635657424, -0.398770817168 },
        { 0.82747450208, -1.81799020282e-15, 1.51267887105e-15, 1.03614565266, 1.51066326407, 0.280665585351, -2.63677968348e-15, -1.86362015474, -1.51066326407, -0.280665585351 },
        { 0.900089830704, -2.22044604925e-15, 1.44328993201e-15, 1.86272450925, 0.874830817944, 0.162534503513, -1.60982338571e-15, -2.76281433995, -0.874830817944, -0.162534503513 },
        { 0.960223287522, -2.16493489802e-15, 1.49880108324e-15, 2.54722246471, 0.348291812111, 0.0647090107003, -6.66133814775e-16, -3.50744575223, -0.348291812111, -0.0647090107003 },
        { 0.891637406374, 1.4155343564e-15, 1.63757896132e-15, -0.896381779625, 3.61173422443, 0.176284961567, -5.44009282066e-15, 0.00474437325129, -3.61173422443, -0.176284961567 },
        { 0.903391413878, 6.66133814775e-16, 1.49880108324e-15, -0.473744233368, 3.21997218039, 0.157163466854, -4.91273688397e-15, -0.42964718051, -3.21997218039, -0.157163466854 },
        { 0.922400063386, -3.26128013484e-16, 1.72778458207e-15, 0.209747672092, 2.58641231724, 0.12624007405, -4.5276282723e-15, -1.13214773548, -2.58641231724, -0.12624007405 },
        { 0.945383085483, -1.30451205393e-15, 1.36002320517e-15, 1.03614565266, 1.82038628637, 0.0888511464543, -3.23352455922e-15, -1.98152873814, -1.82038628637, -0.0888511464543 },
        { 0.968371137939, -1.94289029309e-15, 1.55431223448e-15, 1.86272450925, 1.05419259325, 0.0514540354404, -1.83186799063e-15, -2.83109564719, -1.05419259325, -0.0514540354404 },
        { 0.987407766786, -2.38697950294e-15, 1.55431223448e-15, 2.54722246471, 0.419700176408, 0.0204851256682, -7.77156117238e-16, -3.5346302315, -0.419700176408, -0.0204851256682 },
        { 0.359320899012, -3.10862446895e-15, -6.10622663544e-16, -0.896381779625, 0.114227992629, 3.14147468601, -2.08166817117e-15, 0.537060880613, -0.114227992629, -3.14147468601 },
        { 0.428814870213, -3.10862446895e-15, -1.66533453694e-16, -0.473744233368, 0.101837769789, 2.80072133379, -1.72084568817e-15, 0.0449293631552, -0.101837769789, -2.80072133379 },
        { 0.541200925864, -3.12944115066e-15, 3.40005801291e-16, 0.209747672092, 0.0818002291285, 2.24965302464, -1.16920362281e-15, -0.750948597955, -0.0818002291285, -2.24965302464 },
        { 0.677084919064, -2.60902410787e-15, 8.32667268469e-16, 1.03614565266, 0.0575731929262, 1.58336607348, -5.27355936697e-16, -1.71323057172, -0.0575731929262, -1.58336607348 },
        { 0.812998653571, -2.72004641033e-15, 1.27675647832e-15, 1.86272450925, 0.0333408540853, 0.916933290239, -3.33066907388e-16, -2.67572316282, -0.0333408540853, -0.916933290239 },
        { 0.925550133261, -2.38697950294e-15, 1.38777878078e-15, 2.54722246471, 0.0132738196329, 0.365053848918, -5.55111512313e-17, -3.47277259797, -0.0132738196329, -0.365053848918 },
        { 0.437707351656, -2.60902410787e-15, -3.88578058619e-16, -0.896381779625, 0.576970757701, 2.75711837358, -2.83106871279e-15, 0.45867442797, -0.576970757701, -2.75711837358 },
        { 0.498698804397, -2.6645352591e-15, -1.11022302463e-16, -0.473744233368, 0.514387181684, 2.45805585608, -2.27595720048e-15, -0.0249545710292, -0.514387181684, -2.45805585608 },
        { 0.597334537593, -2.96637714392e-15, 3.92047505571e-16, 0.209747672092, 0.413176657438, 1.97441020806, -1.63064006742e-15, -0.807082209684, -0.413176657438, -1.97441020806 },
        { 0.716593258981, -2.70616862252e-15, 9.02056207508e-16, 1.03614565266, 0.290804801707, 1.38964280462, -9.02056207508e-16, -1.75273891164, -0.290804801707, -1.38964280462 },
        { 0.835878082857, -2.49800180541e-15, 1.27675647832e-15, 1.86272450925, 0.168406162108, 0.804747411502, -4.4408920985e-16, -2.6986025921, -0.168406162108, -0.804747411502 },
        { 0.934659000625, -2.38697950294e-15, 1.44328993201e-15, 2.54722246471, 0.067046663387, 0.320389872527, -1.66533453694e-16, -3.48188146533, -0.0670466633871, -0.320389872527 },
        { 0.56239080947, -1.7763568394e-15, -1.11022302463e-16, -0.896381779625, 1.31302100722, 2.14575158187, -3.69149155688e-15, 0.333990970156, -1.31302100722, -2.14575158187 },
        { 0.609857943074, -2.24820162487e-15, 2.22044604925e-16, -0.473744233368, 1.1705986246, 1.91300355184, -3.13638004457e-15, -0.136113709705, -1.1705986246, -1.91300355184 },
        { 0.686622068459, -2.19962936754e-15, 6.10622663544e-16, 0.209747672092, 0.940272316526, 1.53660207984, -2.45289899503e-15, -0.896369740551, -0.940272316526, -1.53660207984 },
        { 0.779436215477, -2.42861286637e-15, 1.05471187339e-15, 1.03614565266, 0.661788848996, 1.08150171382, -1.72084568817e-15, -1.81558186814, -0.661788848996, -1.08150171382 },
        { 0.872270676985, -2.33146835171e-15, 1.33226762955e-15, 1.86272450925, 0.383244429016, 0.626301738723, -7.77156117238e-16, -2.73499518623, -0.383244429016, -0.626301738723 },
        { 0.949147793539, -2.38697950294e-15, 1.49880108324e-15, 2.54722246471, 0.152579097496, 0.249346231333, -2.77555756156e-16, -3.49637025825, -0.152579097496, -0.249346231333 },
        { 0.708710497937, -6.93889390391e-16, 4.71844785466e-16, -0.896381779625, 2.17679752654, 1.42829475102, -4.49640324973e-15, 0.187671281689, -2.17679752654, -1.42829475102 },
        { 0.740306447042, -9.71445146547e-16, 6.10622663544e-16, -0.473744233368, 1.94068196668, 1.27336871373, -4.10782519111e-15, -0.266562213674, -1.94068196668, -1.27336871373 },
        { 0.791403600264, -1.58206781009e-15, 8.881784197e-16, 0.209747672092, 1.55883450579, 1.02282142238, -3.24393290008e-15, -1.00115127236, -1.55883450579, -1.02282142238 },
        { 0.853184264963, -1.87350135405e-15, 1.2351231149e-15, 1.03614565266, 1.09714949088, 0.719889121429, -2.20656826144e-15, -1.88932991762, -1.09714949088, -0.719889121429 },
        { 0.914978451767, -2.16493489802e-15, 1.44328993201e-15, 1.86272450925, 0.635363425681, 0.416890516839, -1.16573417586e-15, -2.77770296101, -0.635363425681, -0.416890516839 },
        { 0.966150816255, -2.33146835171e-15, 1.49880108324e-15, 2.54722246471, 0.252953913306, 0.165974438239, -5.55111512313e-16, -3.51337328097, -0.252953913306, -0.165974438239 },
        { 0.847687705912, 4.71844785466e-16, 1.08246744901e-15, -0.896381779625, 2.99722880428, 0.746840681252, -5.05151476204e-15, 0.0486940737135, -2.99722880428, -0.746840681252 },
        { 0.864208903751, -5.55111512313e-17, 1.16573417586e-15, -0.473744233368, 2.67212169234, 0.665831444781, -4.69069227904e-15, -0.390464670383, -2.67212169234, -0.665831444781 },
        { 0.890927081281, -1.00267016911e-15, 1.49533163629e-15, 0.209747672092, 2.14635657424, 0.534822834954, -4.06619182769e-15, -1.10067475337, -2.14635657424, -0.534822834954 },
        { 0.923231557425, -1.81799020282e-15, 1.45716771982e-15, 1.03614565266, 1.51066326407, 0.376422640697, -2.80331313718e-15, -1.95937721008, -1.51066326407, -0.376422640697 },
        { 0.95554310414, -2.10942374679e-15, 1.44328993201e-15, 1.86272450925, 0.874830817944, 0.217987776949, -1.60982338571e-15, -2.81826761339, -0.874830817944, -0.217987776949 },
        { 0.982300608869, -2.16493489802e-15, 1.49880108324e-15, 2.54722246471, 0.348291812111, 0.0867863320478, -7.21644966006e-16, -3.52952307358, -0.348291812111, -0.0867863320478 },
        { 0.951782040068, 1.63757896132e-15, 1.63757896132e-15, -0.896381779625, 3.61173422443, 0.23642959526, -5.88418203051e-15, -0.0554002604424, -3.61173422443, -0.23642959526 },
        { 0.957012205237, 7.77156117238e-16, 1.49880108324e-15, -0.473744233368, 3.21997218039, 0.210784258213, -5.13478148889e-15, -0.483267971869, -3.21997218039, -0.210784258213 },
        { 0.965470458862, -4.33680868994e-16, 1.73125402902e-15, 0.209747672092, 2.58641231724, 0.169310469526, -4.18762247101e-15, -1.17521813095, -2.58641231724, -0.169310469526 },
        { 0.975697183801, -1.4155343564e-15, 1.36002320517e-15, 1.03614565266, 1.82038628637, 0.119165244771, -3.23352455922e-15, -2.01184283646, -1.82038628637, -0.119165244771 },
        { 0.985926147091, -1.94289029309e-15, 1.55431223448e-15, 1.86272450925, 1.05419259325, 0.0690090445921, -1.88737914186e-15, -2.84865065634, -1.05419259325, -0.0690090445921 },
        { 0.994396850645, -2.38697950294e-15, 1.55431223448e-15, 2.54722246471, 0.419700176408, 0.0274742095272, -7.77156117238e-16, -3.54161931536, -0.419700176408, -0.0274742095272 },
        { 0.872294658703, -4.32986979604e-15, -6.10622663544e-16, -0.896381779625, 0.114227992629, 3.6544484457, -2.19269047363e-15, 0.0240871209224, -0.114227992629, -3.6544484457 },
        { 0.886146759226, -3.99680288865e-15, -1.66533453694e-16, -0.473744233368, 0.101837769789, 3.25805322281, -1.88737914186e-15, -0.412402525858, -0.101837769789, -3.25805322281 },
        { 0.908548457006, -3.73659436725e-15, 3.15719672628e-16, 0.209747672092, 0.0818002291285, 2.61700055579, -1.38430933383e-15, -1.1182961291, -0.0818002291285, -2.61700055579 },
        { 0.935633953788, -3.16413562018e-15, 8.04911692853e-16, 1.03614565266, 0.0575731929262, 1.8419151082, -6.38378239159e-16, -1.97177960645, -0.0575731929262, -1.8419151082 },
        { 0.962725378849, -2.83106871279e-15, 1.27675647832e-15, 1.86272450925, 0.0333408540853, 1.06666001552, -2.77555756156e-16, -2.8254498881, -0.0333408540853, -1.06666001552 },
        { 0.985160050286, -2.49800180541e-15, 1.38777878078e-15, 2.54722246471, 0.0132738196329, 0.424663765943, -5.55111512313e-17, -3.532382515, -0.0132738196329, -0.424663765943 },
        { 0.887919280565, -3.38618022511e-15, -4.16333634234e-16, -0.896381779625, 0.576970757701, 3.20733030249, -3.08086889333e-15, 0.00846249906032, -0.576970757701, -3.20733030249 },
        { 0.900076590327, -3.27515792264e-15, -8.32667268469e-17, -0.473744233368, 0.514387181684, 2.85943364201, -2.63677968348e-15, -0.426332356959, -0.514387181684, -2.85943364201 },
        { 0.919737462599, -3.23699400617e-15, 3.57353036051e-16, 0.209747672092, 0.413176657438, 2.29681313307, -1.67574287779e-15, -1.12948513469, -0.413176657438, -2.29681313307 },
        { 0.943509075711, -3.12250225676e-15, 8.74300631892e-16, 1.03614565266, 0.290804801707, 1.61655862134, -1.05471187339e-15, -1.97965472837, -0.290804801707, -1.61655862134 },
        { 0.967285891781, -2.60902410787e-15, 1.27675647832e-15, 1.86272450925, 0.168406162108, 0.936155220427, -4.4408920985e-16, -2.83001040103, -0.168406162108, -0.936155220427 },
        { 0.986975703417, -2.38697950294e-15, 1.44328993201e-15, 2.54722246471, 0.067046663387, 0.372706575319, -1.66533453694e-16, -3.53419816813, -0.0670466633871, -0.372706575319 },
        { 0.912772196026, -2.33146835171e-15, -1.11022302463e-16, -0.896381779625, 1.31302100722, 2.49613296843, -3.99680288865e-15, -0.0163904164003, -1.31302100722, -2.49613296843 },
        { 0.922233729089, -2.3037127761e-15, 2.22044604925e-16, -0.473744233368, 1.1705986246, 2.22537933786, -3.41393580072e-15, -0.448489495721, -1.1705986246, -2.22537933786 },
        { 0.937534975558, -2.46677678284e-15, 5.8633653488e-16, 0.209747672092, 0.940272316526, 1.78751498694, -2.56392129749e-15, -1.14728264765, -0.940272316526, -1.78751498694 },
        { 0.956035442179, -2.59514632006e-15, 1.02695629778e-15, 1.03614565266, 0.661788848996, 1.25810094052, -1.81799020282e-15, -1.99218109484, -0.661788848996, -1.25810094052 },
        { 0.974539958047, -2.60902410787e-15, 1.33226762955e-15, 1.86272450925, 0.383244429016, 0.728571019785, -7.77156117238e-16, -2.83726446729, -0.383244429016, -0.728571019785 },
        { 0.98986372683, -2.49800180541e-15, 1.49880108324e-15, 2.54722246471, 0.152579097496, 0.290062164624, -2.77555756156e-16, -3.53708619154, -0.152579097496, -0.290062164624 },
        { 0.94193782001, -9.71445146547e-16, 4.16333634234e-16, -0.896381779625, 2.17679752654, 1.6615220731, -4.85722573274e-15, -0.0455560403848, -2.17679752654, -1.6615220731 },
        { 0.948235780187, -1.19348975147e-15, 6.10622663544e-16, -0.473744233368, 1.94068196668, 1.48129804688, -4.10782519111e-15, -0.474491546819, -1.94068196668, -1.48129804688 },
        { 0.958420878127, -1.74166236988e-15, 8.39606162373e-16, 0.209747672092, 1.55883450579, 1.18983870025, -3.4590386111e-15, -1.16816855022, -1.55883450579, -1.18983870025 },
        { 0.9707355, -1.9567680809e-15, 1.20736753928e-15, 1.03614565266, 1.09714949088, 0.837440356466, -2.15105711021e-15, -2.00688115266, -1.09714949088, -0.837440356466 },
        { 0.983052817209, -2.22044604925e-15, 1.44328993201e-15, 1.86272450925, 0.635363425681, 0.484964882282, -1.16573417586e-15, -2.84577732646, -0.635363425681, -0.484964882282 },
        { 0.993252906867, -2.33146835171e-15, 1.49880108324e-15, 2.54722246471, 0.252953913306, 0.193076528851, -5.55111512313e-16, -3.54047537158, -0.252953913306, -0.193076528851 },
        { 0.969639881385, 4.71844785466e-16, 1.08246744901e-15, -0.896381779625, 2.99722880428, 0.868792856725, -5.27355936697e-15, -0.0732581017595, -2.99722880428, -0.868792856725 },
        { 0.972933020189, 1.38777878078e-16, 9.71445146547e-16, -0.473744233368, 2.67212169234, 0.774555561219, -4.88498130835e-15, -0.499188786821, -2.67212169234, -0.774555561219 },
        { 0.978258703476, -9.95731275211e-16, 1.5022705302e-15, 0.209747672092, 2.14635657424, 0.622154457149, -4.05925293379e-15, -1.18800637557, -2.14635657424, -0.622154457149 },
        { 0.984697892994, -1.69309011255e-15, 1.52655665886e-15, 1.03614565266, 1.51066326407, 0.437888976265, -2.73392419814e-15, -2.02084354565, -1.51066326407, -0.437888976265 },
        { 0.991138491875, -1.99840144433e-15, 1.44328993201e-15, 1.86272450925, 0.874830817944, 0.253583164684, -1.55431223448e-15, -2.85386300112, -0.874830817944, -0.253583164684 },
        { 0.996472014177, -2.27595720048e-15, 1.49880108324e-15, 2.54722246471, 0.348291812111, 0.100957737356, -6.66133814775e-16, -3.54369447889, -0.348291812111, -0.100957737356 },
        { 0.990388806158, 1.63757896132e-15, 1.63757896132e-15, -0.896381779625, 3.61173422443, 0.275036361351, -5.66213742559e-15, -0.0940070265331, -3.61173422443, -0.275036361351 },
        { 0.99143132499, 8.881784197e-16, 1.49880108324e-15, -0.473744233368, 3.21997218039, 0.245203377966, -5.13478148889e-15, -0.517687091622, -3.21997218039, -0.245203377966 },
        { 0.993117292528, -4.30211422042e-16, 1.73472347598e-15, 0.209747672092, 2.58641231724, 0.196957303191, -4.29517532652e-15, -1.20286496462, -2.58641231724, -0.196957303191 },
        { 0.995155766073, -1.30451205393e-15, 1.36002320517e-15, 1.03614565266, 1.82038628637, 0.138623827044, -3.23352455922e-15, -2.03130141873, -1.82038628637, -0.138623827044 },
        { 0.997194685785, -1.94289029309e-15, 1.55431223448e-15, 1.86272450925, 1.05419259325, 0.0802775832866, -1.7763568394e-15, -2.85991919503, -1.05419259325, -0.0802775832866 },
        { 0.998883134943, -2.27595720048e-15, 1.55431223448e-15, 2.54722246471, 0.419700176408, 0.031960493825, -7.21644966006e-16, -3.54610559965, -0.419700176408, -0.031960493825 } } };
static const double FE1_C0_D010_Q216[1][216][10] =
    { { { -2.6544484457, -2.80331313718e-15, -0.885772007371, -2.87598335077e-18, 0.103618220375, -3.88578058619e-16, 0.127705341297, -0.103618220375, 3.54022045307, -0.127705341297 },
        { -2.25805322281, -2.13370987545e-15, -0.898162230211, -1.46065317239e-17, 0.526255766632, -3.60822483003e-16, 0.113853240774, -0.526255766632, 3.15621545302, -0.113853240774 },
        { -1.61700055579, -1.51267887105e-15, -0.918199770871, -3.35772429886e-17, 1.20974767209, -3.33066907388e-16, 0.0914515429941, -1.20974767209, 2.53520032666, -0.091451542994 },
        { -0.841915108203, -8.881784197e-16, -0.942426807074, -5.65143946268e-17, 2.03614565266, -2.22044604925e-16, 0.0643660462115, -2.03614565266, 1.78434191528, -0.0643660462115 },
        { -0.0666600155168, -6.66133814775e-16, -0.966659145915, -7.94565665831e-17, 2.86272450925, -2.22044604925e-16, 0.0372746211511, -2.86272450925, 1.03331916143, -0.0372746211511 },
        { 0.575336234057, -6.66133814775e-16, -0.986726180367, -9.84552013447e-17, 3.54722246471, -4.4408920985e-16, 0.0148399497139, -3.54722246471, 0.41138994631, -0.0148399497139 },
        { -2.20733030249, -2.85882428841e-15, -0.423029242299, -2.87598335077e-18, 0.103618220375, -3.88578058619e-16, 0.112080719435, -0.103618220375, 2.63035954479, -0.112080719435 },
        { -1.85943364201, -2.63331023653e-15, -0.485612818316, -1.46065317239e-17, 0.526255766632, -2.91433543964e-16, 0.0999234096733, -0.526255766632, 2.34504646033, -0.0999234096733 },
        { -1.29681313307, -1.9567680809e-15, -0.586823342562, -3.35772429886e-17, 1.20974767209, -3.33066907388e-16, 0.0802625374014, -1.20974767209, 1.88363647563, -0.0802625374014 },
        { -0.616558621344, -1.38777878078e-15, -0.709195198293, -5.65143946268e-17, 2.03614565266, -1.11022302463e-16, 0.0564909242894, -2.03614565266, 1.32575381964, -0.0564909242894 },
        { 0.0638447795734, -9.43689570931e-16, -0.831593837892, -7.94565665831e-17, 2.86272450925, -2.22044604925e-16, 0.0327141082185, -2.86272450925, 0.767749058319, -0.0327141082185 },
        { 0.627293424681, -7.77156117238e-16, -0.932953336613, -9.84552013447e-17, 3.54722246471, -4.4408920985e-16, 0.0130242965832, -3.54722246471, 0.305659911932, -0.0130242965832 },
        { -1.49613296843, -3.34454686168e-15, 0.313021007224, -2.87598335077e-18, 0.103618220375, -3.88578058619e-16, 0.0872278039744, -0.103618220375, 1.1831119612, -0.0872278039744 },
        { -1.22537933786, -2.84841594755e-15, 0.170598624597, -1.46065317239e-17, 0.526255766632, -1.94289029309e-16, 0.0777662709106, -0.526255766632, 1.05478071326, -0.0777662709106 },
        { -0.78751498694, -2.27595720048e-15, -0.0597276834735, -3.35772429886e-17, 1.20974767209, -2.22044604925e-16, 0.0624650244415, -1.20974767209, 0.847242670414, -0.0624650244415 },
        { -0.258100940524, -1.49880108324e-15, -0.338211151004, -5.65143946268e-17, 2.03614565266, -3.33066907388e-16, 0.0439645578213, -2.03614565266, 0.596312091528, -0.0439645578213 },
        { 0.271428980215, -1.16573417586e-15, -0.616755570984, -7.94565665831e-17, 2.86272450925, -2.22044604925e-16, 0.0254600419525, -2.86272450925, 0.345326590769, -0.0254600419525 },
        { 0.709937835376, -7.77156117238e-16, -0.847420902504, -9.84552013447e-17, 3.54722246471, -4.4408920985e-16, 0.0101362731698, -3.54722246471, 0.137483067128, -0.0101362731698 },
        { -0.661522073098, -3.5527136788e-15, 1.17679752654, -2.87598335077e-18, 0.103618220375, -4.4408920985e-16, 0.0580621799898, -0.103618220375, -0.515275453439, -0.0580621799898 },
        { -0.481298046875, -3.03923552991e-15, 0.94068196668, -1.46065317239e-17, 0.526255766632, -2.08166817117e-16, 0.0517642198132, -0.526255766632, -0.459383919804, -0.0517642198131 },
        { -0.189838700247, -2.60902410787e-15, 0.558834505788, -3.35772429886e-17, 1.20974767209, -1.11022302463e-16, 0.0415791218733, -1.20974767209, -0.368995805542, -0.0415791218733 },
        { 0.162559643534, -2.05391259556e-15, 0.0971494908751, -5.65143946268e-17, 2.03614565266, -1.11022302463e-16, 0.0292644999998, -2.03614565266, -0.259709134409, -0.0292644999998 },
        { 0.515035117718, -1.44328993201e-15, -0.364636574319, -7.94565665831e-17, 2.86272450925, 0.0, 0.0169471827908, -2.86272450925, -0.150398543399, -0.0169471827908 },
        { 0.806923471149, -9.99200722163e-16, -0.747046086694, -9.84552013447e-17, 3.54722246471, -2.22044604925e-16, 0.00674709313313, -3.54722246471, -0.0598773844553, -0.00674709313313 },
        { 0.131207143275, -3.30291349826e-15, 1.99722880428, -2.87598335077e-18, 0.103618220375, -3.88578058619e-16, 0.0303601186152, -0.103618220375, -2.12843594756, -0.0303601186152 },
        { 0.225444438781, -3.12250225676e-15, 1.67212169234, -1.46065317239e-17, 0.526255766632, -3.05311331772e-16, 0.0270669798107, -0.526255766632, -1.89756613112, -0.0270669798107 },
        { 0.377845542851, -2.85882428841e-15, 1.14635657424, -3.35772429886e-17, 1.20974767209, -3.33066907388e-16, 0.021741296524, -1.20974767209, -1.52420211709, -0.021741296524 },
        { 0.562111023735, -2.27595720048e-15, 0.51066326407, -5.65143946268e-17, 2.03614565266, -1.11022302463e-16, 0.0153021070061, -2.03614565266, -1.0727742878, -0.0153021070061 },
        { 0.746416835316, -1.72084568817e-15, -0.125169182056, -7.94565665831e-17, 2.86272450925, 0.0, 0.0088615081248, -2.86272450925, -0.62124765326, -0.00886150812479 },
        { 0.899042262644, -1.11022302463e-15, -0.651708187889, -9.84552013447e-17, 3.54722246471, -2.22044604925e-16, 0.00352798582254, -3.54722246471, -0.247334074756, -0.00352798582254 },
        { 0.724963638649, -3.0253577421e-15, 2.61173422443, -2.87598335077e-18, 0.103618220375, -4.99600361081e-16, 0.00961119384153, -0.103618220375, -3.33669786308, -0.00961119384152 },
        { 0.754796622034, -3.00454106039e-15, 2.21997218039, -1.46065317239e-17, 0.526255766632, -4.30211422042e-16, 0.00856867500956, -0.526255766632, -2.97476880243, -0.00856867500956 },
        { 0.803042696809, -2.85882428841e-15, 1.58641231724, -3.35772429886e-17, 1.20974767209, -3.33066907388e-16, 0.00688270747249, -1.20974767209, -2.38945501405, -0.00688270747248 },
        { 0.861376172956, -2.44249065418e-15, 0.82038628637, -5.65143946268e-17, 2.03614565266, -2.22044604925e-16, 0.00484423392685, -2.03614565266, -1.68176245933, -0.00484423392685 },
        { 0.919722416713, -1.99840144433e-15, 0.0541925932517, -7.94565665831e-17, 2.86272450925, 2.22044604925e-16, 0.00280531421485, -2.86272450925, -0.973915009965, -0.00280531421484 },
        { 0.968039506175, -1.22124532709e-15, -0.580299823592, -9.84552013447e-17, 3.54722246471, -2.22044604925e-16, 0.0011168650571, -3.54722246471, -0.387739682583, -0.00111686505709 },
        { -2.14147468601, -2.58126853225e-15, -0.885772007371, -2.87598335077e-18, 0.103618220375, -3.33066907388e-16, 0.640679100988, -0.103618220375, 3.02724669338, -0.640679100988 },
        { -1.80072133379, -2.07819872422e-15, -0.898162230211, -1.46065317239e-17, 0.526255766632, -2.35922392733e-16, 0.571185129787, -0.526255766632, 2.698883564, -0.571185129787 },
        { -1.24965302464, -1.45716771982e-15, -0.918199770871, -3.35772429886e-17, 1.20974767209, -2.77555756156e-16, 0.458799074136, -1.20974767209, 2.16785279552, -0.458799074136 },
        { -0.583366073479, -1.11022302463e-15, -0.942426807074, -5.65143946268e-17, 2.03614565266, -2.22044604925e-16, 0.322915080936, -2.03614565266, 1.52579288055, -0.322915080936 },
        { 0.0830667097611, -7.21644966006e-16, -0.966659145915, -7.94565665831e-17, 2.86272450925, -2.22044604925e-16, 0.187001346429, -2.86272450925, 0.883592436154, -0.187001346429 },
        { 0.634946151082, -5.55111512313e-16, -0.986726180367, -9.84552013447e-17, 3.54722246471, -4.4408920985e-16, 0.0744498667389, -3.54722246471, 0.351780029285, -0.0744498667389 },
        { -1.75711837358, -2.85882428841e-15, -0.423029242299, -2.87598335077e-18, 0.103618220375, -3.33066907388e-16, 0.562292648344, -0.103618220375, 2.18014761588, -0.562292648344 },
        { -1.45805585608, -2.5777990853e-15, -0.485612818316, -1.46065317239e-17, 0.526255766632, -3.46944695195e-16, 0.501301195603, -0.526255766632, 1.9436686744, -0.501301195603 },
        { -0.974410208063, -1.90125692967e-15, -0.586823342562, -3.35772429886e-17, 1.20974767209, -3.33066907388e-16, 0.402665462407, -1.20974767209, 1.56123355062, -0.402665462407 },
        { -0.389642804615, -1.33226762955e-15, -0.709195198293, -5.65143946268e-17, 2.03614565266, -1.11022302463e-16, 0.283406741019, -2.03614565266, 1.09883800291, -0.283406741019 },
        { 0.195252588498, -9.43689570931e-16, -0.831593837892, -7.94565665831e-17, 2.86272450925, -2.22044604925e-16, 0.164121917143, -2.86272450925, 0.636341249394, -0.164121917143 },
        { 0.679610127473, -7.77156117238e-16, -0.932953336613, -9.84552013447e-17, 3.54722246471, -4.4408920985e-16, 0.0653409993754, -3.54722246471, 0.25334320914, -0.0653409993754 },
        { -1.14575158187, -3.26128013484e-15, 0.313021007224, -2.87598335077e-18, 0.103618220375, -3.33066907388e-16, 0.43760919053, -0.103618220375, 0.832730574647, -0.43760919053 },
        { -0.913003551844, -2.87617152317e-15, 0.170598624597, -1.46065317239e-17, 0.526255766632, -2.35922392733e-16, 0.390142056926, -0.526255766632, 0.742404927247, -0.390142056926 },
        { -0.536602079841, -2.3037127761e-15, -0.0597276834735, -3.35772429886e-17, 1.20974767209, -2.77555756156e-16, 0.313377931541, -1.20974767209, 0.596329763315, -0.313377931541 },
        { -0.0815017138223, -1.55431223448e-15, -0.338211151004, -5.65143946268e-17, 2.03614565266, -3.33066907388e-16, 0.220563784523, -2.03614565266, 0.419712864826, -0.220563784523 },
        { 0.373698261277, -1.16573417586e-15, -0.616755570984, -7.94565665831e-17, 2.86272450925, -2.22044604925e-16, 0.127729323015, -2.86272450925, 0.243057309707, -0.127729323015 },
        { 0.750653768667, -8.881784197e-16, -0.847420902504, -9.84552013447e-17, 3.54722246471, -2.22044604925e-16, 0.050852206461, -3.54722246471, 0.096767133837, -0.050852206461 },
        { -0.428294751025, -3.46944695195e-15, 1.17679752654, -2.87598335077e-18, 0.103618220375, -4.99600361081e-16, 0.291289502063, -0.103618220375, -0.748502775512, -0.291289502063 },
        { -0.27336871373, -3.03923552991e-15, 0.94068196668, -1.46065317239e-17, 0.526255766632, -2.63677968348e-16, 0.259693552958, -0.526255766632, -0.66731325295, -0.259693552958 },
        { -0.0228214223838, -2.72004641033e-15, 0.558834505788, -3.35772429886e-17, 1.20974767209, -1.66533453694e-16, 0.208596399736, -1.20974767209, -0.536013083405, -0.208596399736 },
        { 0.280110878571, -2.05391259556e-15, 0.0971494908751, -5.65143946268e-17, 2.03614565266, -1.11022302463e-16, 0.146815735037, -2.03614565266, -0.377260369447, -0.146815735037 },
        { 0.583109483161, -1.49880108324e-15, -0.364636574319, -7.94565665831e-17, 2.86272450925, 0.0, 0.0850215482329, -2.86272450925, -0.218472908841, -0.0850215482329 },
        { 0.834025561761, -8.881784197e-16, -0.747046086694, -9.84552013447e-17, 3.54722246471, -2.22044604925e-16, 0.0338491837452, -3.54722246471, -0.0869794750674, -0.0338491837452 },
        { 0.253159318748, -3.41393580072e-15, 1.99722880428, -2.87598335077e-18, 0.103618220375, -4.99600361081e-16, 0.152312294088, -0.103618220375, -2.25038812303, -0.152312294088 },
        { 0.334168555219, -3.06699110553e-15, 1.67212169234, -1.46065317239e-17, 0.526255766632, -3.05311331772e-16, 0.135791096249, -0.526255766632, -2.00629024756, -0.135791096249 },
        { 0.465177165046, -2.85882428841e-15, 1.14635657424, -3.35772429886e-17, 1.20974767209, -3.33066907388e-16, 0.109072918719, -1.20974767209, -1.61153373928, -0.109072918719 },
        { 0.623577359303, -2.33146835171e-15, 0.51066326407, -5.65143946268e-17, 2.03614565266, 0.0, 0.0767684425748, -2.03614565266, -1.13424062337, -0.0767684425748 },
        { 0.782012223051, -1.72084568817e-15, -0.125169182056, -7.94565665831e-17, 2.86272450925, 0.0, 0.0444568958598, -2.86272450925, -0.656843040995, -0.0444568958598 },
        { 0.913213667952, -1.11022302463e-15, -0.651708187889, -9.84552013447e-17, 3.54722246471, -2.22044604925e-16, 0.0176993911306, -3.54722246471, -0.261505480064, -0.0176993911306 },
        { 0.76357040474, -3.13638004457e-15, 2.61173422443, -2.87598335077e-18, 0.103618220375, -5.55111512313e-16, 0.0482179599323, -0.103618220375, -3.37530462917, -0.0482179599323 },
        { 0.789215741787, -3.11556336285e-15, 2.21997218039, -1.46065317239e-17, 0.526255766632, -4.30211422042e-16, 0.0429877947627, -0.526255766632, -3.00918792218, -0.0429877947627 },
        { 0.830689530474, -2.96984659087e-15, 1.58641231724, -3.35772429886e-17, 1.20974767209, -3.33066907388e-16, 0.0345295411378, -1.20974767209, -2.41710184772, -0.0345295411378 },
        { 0.880834755229, -2.55351295664e-15, 0.82038628637, -5.65143946268e-17, 2.03614565266, -2.22044604925e-16, 0.0243028161994, -2.03614565266, -1.7012210416, -0.0243028161994 },
        { 0.930990955408, -1.99840144433e-15, 0.0541925932517, -7.94565665831e-17, 2.86272450925, 2.22044604925e-16, 0.0140738529093, -2.86272450925, -0.98518354866, -0.0140738529093 },
        { 0.972525790473, -1.22124532709e-15, -0.580299823592, -9.84552013447e-17, 3.54722246471, -2.22044604925e-16, 0.00560314935487, -3.54722246471, -0.39222596688, -0.00560314935487 },
        { -1.34232412265, -2.69229083472e-15, -0.885772007371, -2.87598335077e-18, 0.103618220375, -2.22044604925e-16, 1.43982966435, -0.103618220375, 2.22809613002, -1.43982966435 },
        { -1.08825401973, -2.24473217791e-15, -0.898162230211, -1.46065317239e-17, 0.526255766632, -1.66533453694e-16, 1.28365244385, -0.526255766632, 1.98641624994, -1.28365244385 },
        { -0.677370367068, -1.73472347598e-15, -0.918199770871, -3.35772429886e-17, 1.20974767209, -2.77555756156e-16, 1.03108173171, -1.20974767209, 1.59557013794, -1.03108173171 },
        { -0.180578205963, -1.22124532709e-15, -0.942426807074, -5.65143946268e-17, 2.03614565266, -2.22044604925e-16, 0.725702948451, -2.03614565266, 1.12300501304, -0.725702948451 },
        { 0.316322689421, -8.881784197e-16, -0.966659145915, -7.94565665831e-17, 2.86272450925, -2.22044604925e-16, 0.420257326089, -2.86272450925, 0.650336456494, -0.420257326089 },
        { 0.727811132716, -7.77156117238e-16, -0.986726180367, -9.84552013447e-17, 3.54722246471, -4.4408920985e-16, 0.167314848373, -3.54722246471, 0.258915047651, -0.167314848373 },
        { -1.05574308913, -2.85882428841e-15, -0.423029242299, -2.87598335077e-18, 0.103618220375, -3.33066907388e-16, 1.2636679328, -0.103618220375, 1.47877233143, -1.2636679328 },
        { -0.832758211343, -2.5777990853e-15, -0.485612818316, -1.46065317239e-17, 0.526255766632, -2.77555756156e-16, 1.12659884034, -0.526255766632, 1.31837102966, -1.12659884034 },
        { -0.472145766108, -1.98452365652e-15, -0.586823342562, -3.35772429886e-17, 1.20974767209, -2.77555756156e-16, 0.904929904362, -1.20974767209, 1.05896910867, -0.904929904362 },
        { -0.0361356332449, -1.49880108324e-15, -0.709195198293, -5.65143946268e-17, 2.03614565266, -1.11022302463e-16, 0.636913912389, -2.03614565266, 0.745330831538, -0.636913912389 },
        { 0.399969930366, -1.05471187339e-15, -0.831593837892, -7.94565665831e-17, 2.86272450925, -2.22044604925e-16, 0.368839259011, -2.86272450925, 0.431623907526, -0.368839259011 },
        { 0.761113170698, -7.77156117238e-16, -0.932953336613, -9.84552013447e-17, 3.54722246471, -4.4408920985e-16, 0.146844042601, -3.54722246471, 0.171840165915, -0.146844042601 },
        { -0.599900108635, -3.1918911958e-15, 0.313021007224, -2.87598335077e-18, 0.103618220375, -3.33066907388e-16, 0.983460663766, -0.103618220375, 0.286879101411, -0.983460663766 },
        { -0.426360169683, -2.83453815975e-15, 0.170598624597, -1.46065317239e-17, 0.526255766632, -2.35922392733e-16, 0.876785439087, -0.526255766632, 0.255761545086, -0.876785439087 },
        { -0.145710367984, -2.37310171514e-15, -0.0597276834735, -3.35772429886e-17, 1.20974767209, -2.77555756156e-16, 0.704269643398, -1.20974767209, 0.205438051458, -0.704269643398 },
        { 0.193618346106, -1.72084568817e-15, -0.338211151004, -5.65143946268e-17, 2.03614565266, -3.33066907388e-16, 0.495683844451, -2.03614565266, 0.144592804898, -0.495683844451 },
        { 0.533021330015, -1.27675647832e-15, -0.616755570984, -7.94565665831e-17, 2.86272450925, -2.22044604925e-16, 0.287052391752, -2.86272450925, 0.0837342409695, -0.287052391752 },
        { 0.814084227658, -8.881784197e-16, -0.847420902504, -9.84552013447e-17, 3.54722246471, -4.4408920985e-16, 0.114282665452, -3.54722246471, 0.033336674846, -0.114282665452 },
        { -0.0649550239808, -3.41393580072e-15, 1.17679752654, -2.87598335077e-18, 0.103618220375, -5.55111512313e-16, 0.654629229107, -0.103618220375, -1.11184250256, -0.654629229107 },
        { 0.0505598315098, -3.09474668114e-15, 0.94068196668, -1.46065317239e-17, 0.526255766632, -3.05311331772e-16, 0.583622098198, -0.526255766632, -0.991241798189, -0.583622098198 },
        { 0.237371129719, -2.69229083472e-15, 0.558834505788, -3.35772429886e-17, 1.20974767209, -1.66533453694e-16, 0.468788951839, -1.20974767209, -0.796205635507, -0.468788951839 },
        { 0.463241368055, -2.10942374679e-15, 0.0971494908751, -5.65143946268e-17, 2.03614565266, -1.11022302463e-16, 0.329946224521, -2.03614565266, -0.56039085893, -0.329946224521 },
        { 0.689161043237, -1.49880108324e-15, -0.364636574319, -7.94565665831e-17, 2.86272450925, 0.0, 0.19107310831, -2.86272450925, -0.324524468918, -0.19107310831 },
