
        #include <petsc.h>
        #include <stdbool.h>
        #include <math.h>
        
        


        
            #include <immintrin.h>

            
            // This code is generated visiting a COFFEE AST

#include "firedrake_geometry.h"


void form_cell_integral_0_otherwise(double A[10][10], double *coordinate_dofs, double **w0)
{
// Section for quadrature weights and points
static const double weights64[64] = { 0.00261345900751, 0.00338108957856, 0.00161758872343, 0.000243985421621, 0.00392412678076, 0.00507672939399, 0.00242882065938, 0.000366345798555, 0.00250430944301, 0.00323988037881, 0.00155003109035, 0.000233795515279, 0.00060137292872, 0.000778009425932, 0.000372217075256, 5.6142540267e-05, 0.00489961445989, 0.00633873932659, 0.00303259438037, 0.00045741467394, 0.00735680500908, 0.00951766095289, 0.00455346144287, 0.000686811297505, 0.00469498496963, 0.00607400564032, 0.00290593987576, 0.000438311021534, 0.00112743130421, 0.00145858275269, 0.000697818545806, 0.000105253918778, 0.00489961445989, 0.00633873932659, 0.00303259438037, 0.00045741467394, 0.00735680500908, 0.00951766095289, 0.00455346144287, 0.000686811297505, 0.00469498496963, 0.00607400564032, 0.00290593987576, 0.000438311021534, 0.00112743130421, 0.00145858275269, 0.000697818545806, 0.000105253918778, 0.00261345900751, 0.00338108957856, 0.00161758872343, 0.000243985421621, 0.00392412678076, 0.00507672939399, 0.00242882065938, 0.000366345798555, 0.00250430944301, 0.00323988037881, 0.00155003109035, 0.000233795515279, 0.00060137292872, 0.000778009425932, 0.000372217075256, 5.6142540267e-05 };
static const double points64[192] = { 0.0622918093485, 0.0543346112272, 0.048500549447, 0.0498465213689, 0.0434790928043, 0.238600737552, 0.0316174621017, 0.0275786259744, 0.517047295104, 0.013364994113, 0.0116577406689, 0.795851417897, 0.0477749046478, 0.263415975366, 0.048500549447, 0.0382299507806, 0.210788066398, 0.238600737552, 0.0242491148181, 0.133702082268, 0.517047295104, 0.0102503254608, 0.0565171086994, 0.795851417897, 0.0275098322538, 0.555285975747, 0.048500549447, 0.0220136396043, 0.444345324777, 0.238600737552, 0.0139631692803, 0.281846577864, 0.517047295104, 0.00590236100006, 0.119139159297, 0.795851417897, 0.00923314621657, 0.818518016421, 0.048500549447, 0.00738845483861, 0.654986204817, 0.238600737552, 0.00468646927478, 0.415455300375, 0.517047295104, 0.0019810139747, 0.175616803963, 0.795851417897, 0.296072900492, 0.0543346112272, 0.048500549447, 0.236920460579, 0.0434790928043, 0.238600737552, 0.150277762174, 0.0275786259744, 0.517047295104, 0.0635238021415, 0.0116577406689, 0.795851417897, 0.22707406861, 0.263415975366, 0.048500549447, 0.181706913504, 0.210788066398, 0.238600737552, 0.115256015737, 0.133702082268, 0.517047295104, 0.048719785505, 0.0565171086994, 0.795851417897, 0.13075420208, 0.555285975747, 0.048500549447, 0.104630804534, 0.444345324777, 0.238600737552, 0.0663669280461, 0.281846577864, 0.517047295104, 0.028053915263, 0.119139159297, 0.795851417897, 0.0438851336894, 0.818518016421, 0.048500549447, 0.0351173176233, 0.654986204817, 0.238600737552, 0.0222747832462, 0.415455300375, 0.517047295104, 0.00941575721655, 0.175616803963, 0.795851417897, 0.601091938834, 0.0543346112272, 0.048500549447, 0.480999709065, 0.0434790928043, 0.238600737552, 0.305096316747, 0.0275786259744, 0.517047295104, 0.128967039293, 0.0116577406689, 0.795851417897, 0.461009406577, 0.263415975366, 0.048500549447, 0.368904282546, 0.210788066398, 0.238600737552, 0.233994606891, 0.133702082268, 0.517047295104, 0.0989116878988, 0.0565171086994, 0.795851417897, 0.265459272726, 0.555285975747, 0.048500549447, 0.212423133136, 0.444345324777, 0.238600737552, 0.134739198986, 0.281846577864, 0.517047295104, 0.0569555075431, 0.119139159297, 0.795851417897, 0.0890963004431, 0.818518016421, 0.048500549447, 0.0712957400079, 0.654986204817, 0.238600737552, 0.0452226212744, 0.415455300375, 0.517047295104, 0.0191160209242, 0.175616803963, 0.795851417897, 0.834873029977, 0.0543346112272, 0.048500549447, 0.668073648275, 0.0434790928043, 0.238600737552, 0.42375661682, 0.0275786259744, 0.517047295104, 0.179125847321, 0.0116577406689, 0.795851417897, 0.640308570539, 0.263415975366, 0.048500549447, 0.51238124527, 0.210788066398, 0.238600737552, 0.32500150781, 0.133702082268, 0.517047295104, 0.137381147943, 0.0565171086994, 0.795851417897, 0.368703642552, 0.555285975747, 0.048500549447, 0.295040298066, 0.444345324777, 0.238600737552, 0.187142957752, 0.281846577864, 0.517047295104, 0.079107061806, 0.119139159297, 0.795851417897, 0.123748287916, 0.818518016421, 0.048500549447, 0.0990246027926, 0.654986204817, 0.238600737552, 0.0628109352459, 0.415455300375, 0.517047295104, 0.026550764166, 0.175616803963, 0.795851417897 };
// Section for precomputed element basis function values
// Table dimensions: num_entities, num_points, num_dofs
// Definitions of 7 tables for 64 quadrature points
static const double FE0_C0_D001_Q64[1][64][4] =
    { { { -1.0, 1.11022302463e-16, 5.55111512313e-17, 1.0 },
        { -1.0, 5.55111512313e-17, 0.0, 1.0 },
        { -1.0, -2.77555756156e-16, -5.55111512313e-17, 1.0 },
        { -1.0, -3.33066907388e-16, -1.11022302463e-16, 1.0 },
        { -1.0, 1.11022302463e-16, 5.55111512313e-17, 1.0 },
        { -1.0, 5.55111512313e-17, 0.0, 1.0 },
        { -1.0, -2.77555756156e-16, -5.55111512313e-17, 1.0 },
        { -1.0, -3.33066907388e-16, -1.11022302463e-16, 1.0 },
        { -1.0, 1.11022302463e-16, 5.55111512313e-17, 1.0 },
        { -1.0, 5.55111512313e-17, 0.0, 1.0 },
        { -1.0, -2.77555756156e-16, -5.55111512313e-17, 1.0 },
        { -1.0, -3.33066907388e-16, -1.11022302463e-16, 1.0 },
        { -1.0, 1.11022302463e-16, 5.55111512313e-17, 1.0 },
        { -1.0, -5.55111512313e-17, 0.0, 1.0 },
        { -1.0, -2.77555756156e-16, -5.55111512313e-17, 1.0 },
        { -1.0, -2.77555756156e-16, -1.11022302463e-16, 1.0 },
        { -1.0, 1.11022302463e-16, 5.55111512313e-17, 1.0 },
        { -1.0, -5.55111512313e-17, 0.0, 1.0 },
        { -1.0, -2.77555756156e-16, -5.55111512313e-17, 1.0 },
        { -1.0, -3.33066907388e-16, -1.11022302463e-16, 1.0 },
        { -1.0, 1.11022302463e-16, 5.55111512313e-17, 1.0 },
        { -1.0, 5.55111512313e-17, 0.0, 1.0 },
        { -1.0, -2.77555756156e-16, -5.55111512313e-17, 1.0 },
        { -1.0, -3.33066907388e-16, -1.11022302463e-16, 1.0 },
        { -1.0, 1.11022302463e-16, 5.55111512313e-17, 1.0 },
        { -1.0, 5.55111512313e-17, 0.0, 1.0 },
        { -1.0, -2.77555756156e-16, -5.55111512313e-17, 1.0 },
        { -1.0, -3.33066907388e-16, -1.11022302463e-16, 1.0 },
        { -1.0, 1.11022302463e-16, 5.55111512313e-17, 1.0 },
        { -1.0, -5.55111512313e-17, 0.0, 1.0 },
        { -1.0, -2.77555756156e-16, -5.55111512313e-17, 1.0 },
        { -1.0, -3.33066907388e-16, -1.11022302463e-16, 1.0 },
        { -1.0, 1.11022302463e-16, 5.55111512313e-17, 1.0 },
        { -1.0, -5.55111512313e-17, 0.0, 1.0 },
        { -1.0, -2.77555756156e-16, -5.55111512313e-17, 1.0 },
        { -1.0, -3.33066907388e-16, -1.11022302463e-16, 1.0 },
        { -1.0, 1.11022302463e-16, 5.55111512313e-17, 1.0 },
        { -1.0, 5.55111512313e-17, 0.0, 1.0 },
        { -1.0, -2.77555756156e-16, -5.55111512313e-17, 1.0 },
        { -1.0, -3.33066907388e-16, -1.11022302463e-16, 1.0 },
        { -1.0, 1.11022302463e-16, 5.55111512313e-17, 1.0 },
        { -1.0, 5.55111512313e-17, 0.0, 1.0 },
        { -1.0, -2.77555756156e-16, -5.55111512313e-17, 1.0 },
        { -1.0, -3.33066907388e-16, -1.11022302463e-16, 1.0 },
        { -1.0, 1.11022302463e-16, 5.55111512313e-17, 1.0 },
        { -1.0, 5.55111512313e-17, 0.0, 1.0 },
        { -1.0, -2.77555756156e-16, -5.55111512313e-17, 1.0 },
        { -1.0, -3.33066907388e-16, -1.11022302463e-16, 1.0 },
        { -1.0, 1.11022302463e-16, 5.55111512313e-17, 1.0 },
        { -1.0, -5.55111512313e-17, 0.0, 1.0 },
        { -1.0, -2.77555756156e-16, -5.55111512313e-17, 1.0 },
        { -1.0, -3.33066907388e-16, -1.11022302463e-16, 1.0 },
        { -1.0, 1.11022302463e-16, 5.55111512313e-17, 1.0 },
        { -1.0, 5.55111512313e-17, 0.0, 1.0 },
        { -1.0, -2.77555756156e-16, -5.55111512313e-17, 1.0 },
        { -1.0, -3.33066907388e-16, -1.11022302463e-16, 1.0 },
        { -1.0, 1.11022302463e-16, 5.55111512313e-17, 1.0 },
        { -1.0, 5.55111512313e-17, 0.0, 1.0 },
        { -1.0, -2.77555756156e-16, -5.55111512313e-17, 1.0 },
        { -1.0, -3.33066907388e-16, -1.11022302463e-16, 1.0 },
        { -1.0, 1.11022302463e-16, 5.55111512313e-17, 1.0 },
        { -1.0, -5.55111512313e-17, 0.0, 1.0 },
        { -1.0, -2.77555756156e-16, -5.55111512313e-17, 1.0 },
        { -1.0, -3.33066907388e-16, -1.11022302463e-16, 1.0 } } };
static const double FE0_C0_D010_Q64[1][64][3] =
    { { { -1.0, -5.55111512313e-17, 1.0 },
        { -1.0, -1.11022302463e-16, 1.0 },
        { -1.0, -2.77555756156e-16, 1.0 },
        { -1.0, -2.77555756156e-16, 1.0 },
        { -1.0, -5.55111512313e-17, 1.0 },
        { -1.0, -1.11022302463e-16, 1.0 },
        { -1.0, -2.77555756156e-16, 1.0 },
        { -1.0, -2.77555756156e-16, 1.0 },
        { -1.0, -5.55111512313e-17, 1.0 },
        { -1.0, -1.11022302463e-16, 1.0 },
        { -1.0, -2.77555756156e-16, 1.0 },
        { -1.0, -2.77555756156e-16, 1.0 },
        { -1.0, -5.55111512313e-17, 1.0 },
        { -1.0, -1.11022302463e-16, 1.0 },
        { -1.0, -2.77555756156e-16, 1.0 },
        { -1.0, -2.77555756156e-16, 1.0 },
        { -1.0, -5.55111512313e-17, 1.0 },
        { -1.0, -1.11022302463e-16, 1.0 },
        { -1.0, -2.77555756156e-16, 1.0 },
        { -1.0, -2.77555756156e-16, 1.0 },
        { -1.0, -5.55111512313e-17, 1.0 },
        { -1.0, -1.11022302463e-16, 1.0 },
        { -1.0, -2.77555756156e-16, 1.0 },
        { -1.0, -2.77555756156e-16, 1.0 },
        { -1.0, -5.55111512313e-17, 1.0 },
        { -1.0, -1.11022302463e-16, 1.0 },
        { -1.0, -2.77555756156e-16, 1.0 },
        { -1.0, -2.77555756156e-16, 1.0 },
        { -1.0, -5.55111512313e-17, 1.0 },
        { -1.0, -1.11022302463e-16, 1.0 },
        { -1.0, -2.77555756156e-16, 1.0 },
        { -1.0, -2.77555756156e-16, 1.0 },
        { -1.0, -5.55111512313e-17, 1.0 },
        { -1.0, -1.11022302463e-16, 1.0 },
        { -1.0, -2.77555756156e-16, 1.0 },
        { -1.0, -2.77555756156e-16, 1.0 },
        { -1.0, -5.55111512313e-17, 1.0 },
        { -1.0, -1.11022302463e-16, 1.0 },
        { -1.0, -2.77555756156e-16, 1.0 },
        { -1.0, -2.77555756156e-16, 1.0 },
        { -1.0, -5.55111512313e-17, 1.0 },
        { -1.0, -1.11022302463e-16, 1.0 },
        { -1.0, -2.77555756156e-16, 1.0 },
        { -1.0, -2.77555756156e-16, 1.0 },
        { -1.0, -1.11022302463e-16, 1.0 },
        { -1.0, -1.11022302463e-16, 1.0 },
        { -1.0, -2.77555756156e-16, 1.0 },
        { -1.0, -2.77555756156e-16, 1.0 },
        { -1.0, -5.55111512313e-17, 1.0 },
        { -1.0, -1.11022302463e-16, 1.0 },
        { -1.0, -2.77555756156e-16, 1.0 },
        { -1.0, -2.77555756156e-16, 1.0 },
        { -1.0, -5.55111512313e-17, 1.0 },
        { -1.0, -1.11022302463e-16, 1.0 },
        { -1.0, -2.77555756156e-16, 1.0 },
        { -1.0, -2.77555756156e-16, 1.0 },
        { -1.0, -5.55111512313e-17, 1.0 },
        { -1.0, -1.11022302463e-16, 1.0 },
        { -1.0, -2.77555756156e-16, 1.0 },
        { -1.0, -2.77555756156e-16, 1.0 },
        { -1.0, -5.55111512313e-17, 1.0 },
        { -1.0, -1.11022302463e-16, 1.0 },
        { -1.0, -2.77555756156e-16, 1.0 },
        { -1.0, -2.77555756156e-16, 1.0 } } };
static const double FE0_C0_D100_Q64[1][64][2] =
    { { { -1.0, 1.0 },
        { -1.0, 1.0 },
        { -1.0, 1.0 },
        { -1.0, 1.0 },
        { -1.0, 1.0 },
        { -1.0, 1.0 },
        { -1.0, 1.0 },
        { -1.0, 1.0 },
        { -1.0, 1.0 },
        { -1.0, 1.0 },
        { -1.0, 1.0 },
        { -1.0, 1.0 },
        { -1.0, 1.0 },
        { -1.0, 1.0 },
        { -1.0, 1.0 },
        { -1.0, 1.0 },
        { -1.0, 1.0 },
        { -1.0, 1.0 },
        { -1.0, 1.0 },
        { -1.0, 1.0 },
        { -1.0, 1.0 },
        { -1.0, 1.0 },
        { -1.0, 1.0 },
        { -1.0, 1.0 },
        { -1.0, 1.0 },
        { -1.0, 1.0 },
        { -1.0, 1.0 },
        { -1.0, 1.0 },
        { -1.0, 1.0 },
        { -1.0, 1.0 },
        { -1.0, 1.0 },
        { -1.0, 1.0 },
        { -1.0, 1.0 },
        { -1.0, 1.0 },
        { -1.0, 1.0 },
        { -1.0, 1.0 },
        { -1.0, 1.0 },
        { -1.0, 1.0 },
        { -1.0, 1.0 },
        { -1.0, 1.0 },
        { -1.0, 1.0 },
        { -1.0, 1.0 },
        { -1.0, 1.0 },
        { -1.0, 1.0 },
        { -1.0, 1.0 },
        { -1.0, 1.0 },
        { -1.0, 1.0 },
        { -1.0, 1.0 },
        { -1.0, 1.0 },
        { -1.0, 1.0 },
        { -1.0, 1.0 },
        { -1.0, 1.0 },
        { -1.0, 1.0 },
        { -1.0, 1.0 },
        { -1.0, 1.0 },
        { -1.0, 1.0 },
        { -1.0, 1.0 },
        { -1.0, 1.0 },
        { -1.0, 1.0 },
        { -1.0, 1.0 },
        { -1.0, 1.0 },
        { -1.0, 1.0 },
        { -1.0, 1.0 },
        { -1.0, 1.0 } } };
static const double FE1_C0_D001_Q64[1][64][10] =
    { { { -2.33949211991, -1.19348975147e-15, -4.16333634234e-16, -0.805997802212, 0.217338444909, 0.249167237394, -1.66533453694e-15, 3.14548992212, -0.217338444909, -0.249167237394 },
        { -1.6722945931, -1.99840144433e-15, 3.33066907388e-16, -0.0455970497926, 0.173916371217, 0.199386085476, -1.27675647832e-15, 1.71789164289, -0.173916371217, -0.199386085476 },
        { -0.695026467278, -2.33146835171e-15, 9.99200722163e-16, 1.06818918042, 0.110314503898, 0.126469848407, -7.07767178199e-16, -0.373162713139, -0.110314503898, -0.126469848407 },
        { 0.283496610715, -2.44249065418e-15, 1.38777878078e-15, 2.18340567159, 0.0466309626757, 0.0534599764519, -4.4408920985e-16, -2.4669022823, -0.0466309626757, -0.0534599764519 },
        { -1.56123428216, -1.4155343564e-15, 8.32667268469e-17, -0.805997802212, 1.05366390146, 0.191099618591, -2.27595720048e-15, 2.36723208437, -1.05366390146, -0.191099618591 },
        { -1.04952498108, -1.98452365652e-15, 5.41233724505e-16, -0.0455970497926, 0.843152265592, 0.152919803122, -1.97064586871e-15, 1.09512203087, -0.843152265592, -0.152919803122 },
        { -0.300006031238, -2.31759056391e-15, 1.08246744901e-15, 1.06818918042, 0.534808329072, 0.0969964592723, -1.40165656859e-15, -0.768183149179, -0.534808329072, -0.0969964592723 },
        { 0.450475408228, -2.33146835171e-15, 1.44328993201e-15, 2.18340567159, 0.226068434798, 0.0410013018433, -6.10622663544e-16, -2.63388107982, -0.226068434798, -0.0410013018433 },
        { -0.474814570209, -1.08246744901e-15, 6.10622663544e-16, -0.805997802212, 2.22114390299, 0.110039329015, -3.5527136788e-15, 1.28081237242, -2.22114390299, -0.110039329015 },
        { -0.180161192265, -1.62370117351e-15, 9.57567358739e-16, -0.0455970497926, 1.77738129911, 0.0880545584172, -3.16413562018e-15, 0.225758242058, -1.77738129911, -0.0880545584172 },
        { 0.251428168994, -2.06779038336e-15, 1.29063426613e-15, 1.06818918042, 1.12738631146, 0.0558526771214, -2.19269047363e-15, -1.31961734941, -1.12738631146, -0.0558526771214 },
        { 0.683571752776, -2.22044604925e-15, 1.44328993201e-15, 2.18340567159, 0.476556637188, 0.0236094440002, -1.05471187339e-15, -2.86697742436, -0.476556637188, -0.0236094440002 },
        { 0.505006848336, 6.38378239159e-16, 1.36002320517e-15, -0.805997802212, 3.27407206568, 0.0369325848663, -4.74620343027e-15, 0.300990953876, -3.27407206568, -0.0369325848663 },
        { 0.60390158883, -4.99600361081e-16, 1.27675647832e-15, -0.0455970497926, 2.61994481927, 0.0295538193545, -4.21884749358e-15, -0.558304539037, -2.61994481927, -0.0295538193544 },
        { 0.748756259016, -1.47104550763e-15, 1.52655665886e-15, 1.06818918042, 1.6618212015, 0.0187458770991, -2.90045765183e-15, -1.81694543943, -1.6618212015, -0.0187458770991 },
        { 0.893796943336, -2.10942374679e-15, 1.49880108324e-15, 2.18340567159, 0.70246721585, 0.00792405589881, -1.44328993201e-15, -3.07720261492, -0.70246721585, -0.0079240558988 },
        { -1.40436775533, -8.32667268469e-16, -4.4408920985e-16, -0.805997802212, 0.217338444909, 1.18429160197, -1.47104550763e-15, 2.21036555755, -0.217338444909, -1.18429160197 },
        { -0.92399883626, -1.65145674913e-15, 2.63677968348e-16, -0.0455970497926, 0.173916371217, 0.947681842315, -1.0685896612e-15, 0.969595886053, -0.173916371217, -0.947681842315 },
        { -0.220385266989, -2.22044604925e-15, 9.43689570931e-16, 1.06818918042, 0.110314503898, 0.601111048696, -6.52256026967e-16, -0.847803913429, -0.110314503898, -0.601111048696 },
        { 0.484131842829, -2.55351295664e-15, 1.38777878078e-15, 2.18340567159, 0.0466309626757, 0.254095208566, -3.33066907388e-16, -2.66753751442, -0.0466309626757, -0.254095208566 },
        { -0.844037626309, -1.19348975147e-15, 2.77555756156e-17, -0.805997802212, 1.05366390146, 0.908296274439, -2.44249065418e-15, 1.65003542852, -1.05366390146, -0.908296274439 },
        { -0.475617130186, -1.81799020282e-15, 4.85722573274e-16, -0.0455970497926, 0.843152265592, 0.726827654015, -2.08166817117e-15, 0.521214179978, -0.843152265592, -0.726827654015 },
        { 0.0640215724375, -2.26207941267e-15, 1.04083408559e-15, 1.06818918042, 0.534808329072, 0.461024062948, -1.37390099297e-15, -1.13221075285, -0.534808329072, -0.461024062948 },
        { 0.604353248405, -2.44249065418e-15, 1.44328993201e-15, 2.18340567159, 0.226068434798, 0.19487914202, -6.10622663544e-16, -2.78775891999, -0.226068434798, -0.19487914202 },
        { -0.0618370909058, -6.93889390391e-16, 5.82867087928e-16, -0.805997802212, 2.22114390299, 0.523016808318, -3.88578058619e-15, 0.867834893118, -2.22114390299, -0.523016808318 },
        { 0.150307467455, -1.4294121442e-15, 9.29811783124e-16, -0.0455970497926, 1.77738129911, 0.418523218137, -3.15025783237e-15, -0.104710417662, -1.77738129911, -0.418523218137 },
        { 0.461043204057, -1.99840144433e-15, 1.2490009027e-15, 1.06818918042, 1.12738631146, 0.265467712185, -2.1233015346e-15, -1.52923238447, -1.12738631146, -0.265467712185 },
        { 0.772177969827, -2.22044604925e-15, 1.44328993201e-15, 2.18340567159, 0.476556637188, 0.112215661052, -1.05471187339e-15, -2.95558364141, -0.476556637188, -0.112215661052 },
        { 0.643614798228, 7.21644966006e-16, 1.27675647832e-15, -0.805997802212, 3.27407206568, 0.175540534757, -4.74620343027e-15, 0.162383003984, -3.27407206568, -0.175540534757 },
        { 0.714817039969, -4.99600361081e-16, 1.27675647832e-15, -0.0455970497926, 2.61994481927, 0.140469270493, -4.21884749358e-15, -0.669219990176, -2.61994481927, -0.140469270493 },
        { 0.819109514902, -1.47104550763e-15, 1.52655665886e-15, 1.06818918042, 1.6618212015, 0.0890991329849, -2.95596880306e-15, -1.88729869532, -1.6618212015, -0.0890991329849 },
        { 0.923535916303, -2.22044604925e-15, 1.55431223448e-15, 2.18340567159, 0.70246721585, 0.0376630288662, -1.38777878078e-15, -3.10694158789, -0.70246721585, -0.0376630288662 },
        { -0.184291601968, -1.72084568817e-15, -5.55111512313e-16, -0.805997802212, 0.217338444909, 2.40436775533, -1.63757896132e-15, 0.99028940418, -0.217338444909, -2.40436775533 },
        { 0.0523181576846, -2.23432383706e-15, 1.80411241502e-16, -0.0455970497926, 0.173916371217, 1.92399883626, -1.4155343564e-15, -0.00672110789202, -0.173916371217, -1.92399883626 },
        { 0.398888951304, -2.60902410787e-15, 8.60422844084e-16, 1.06818918042, 0.110314503898, 1.22038526699, -7.07767178199e-16, -1.46707813172, -0.110314503898, -1.22038526699 },
        { 0.745904791434, -2.55351295664e-15, 1.33226762955e-15, 2.18340567159, 0.0466309626757, 0.515868157171, -2.22044604925e-16, -2.92931046302, -0.0466309626757, -0.515868157171 },
        { 0.0917037255613, -1.60982338571e-15, -8.32667268469e-17, -0.805997802212, 1.05366390146, 1.84403762631, -2.88657986403e-15, 0.714294076651, -1.05366390146, -1.84403762631 },
        { 0.273172345985, -2.02615701994e-15, 4.30211422042e-16, -0.0455970497926, 0.843152265592, 1.47561713019, -2.27595720048e-15, -0.227575296192, -0.843152265592, -1.47561713019 },
        { 0.538975937052, -2.45636844198e-15, 9.85322934355e-16, 1.06818918042, 0.534808329072, 0.935978427563, -1.45716771982e-15, -1.60716511747, -0.534808329072, -0.935978427562 },
        { 0.80512085798, -2.44249065418e-15, 1.38777878078e-15, 2.18340567159, 0.226068434798, 0.395646751595, -5.55111512313e-16, -2.98852652957, -0.226068434798, -0.395646751595 },
        { 0.476983191682, -5.82867087928e-16, 5.27355936697e-16, -0.805997802212, 2.22114390299, 1.06183709091, -4.32986979604e-15, 0.32901461053, -2.22114390299, -1.06183709091 },
        { 0.581476781863, -1.27675647832e-15, 8.32667268469e-16, -0.0455970497926, 1.77738129911, 0.849692532545, -3.3723024373e-15, -0.53587973207, -1.77738129911, -0.849692532545 },
        { 0.734532287815, -1.94289029309e-15, 1.2490009027e-15, 1.06818918042, 1.12738631146, 0.538956795943, -2.23432383706e-15, -1.80272146823, -1.12738631146, -0.538956795943 },
        { 0.887784338948, -2.22044604925e-15, 1.44328993201e-15, 2.18340567159, 0.476556637188, 0.227822030173, -1.05471187339e-15, -3.07119001054, -0.476556637188, -0.227822030173 },
        { 0.824459465243, 8.881784197e-16, 1.33226762955e-15, -0.805997802212, 3.27407206568, 0.356385201772, -5.19029264012e-15, -0.0184616630306, -3.27407206568, -0.356385201772 },
        { 0.859530729507, -3.05311331772e-16, 1.30451205393e-15, -0.0455970497926, 2.61994481927, 0.285182960031, -4.45476988631e-15, -0.813933679714, -2.61994481927, -0.285182960031 },
        { 0.910900867015, -1.58206781009e-15, 1.47104550763e-15, 1.06818918042, 1.6618212015, 0.180890485098, -2.95596880306e-15, -1.97909004743, -1.6618212015, -0.180890485098 },
        { 0.962336971134, -2.22044604925e-15, 1.55431223448e-15, 2.18340567159, 0.70246721585, 0.0764640836967, -1.33226762955e-15, -3.14574264272, -0.70246721585, -0.0764640836967 },
        { 0.750832762606, -4.30211422042e-15, -4.99600361081e-16, -0.805997802212, 0.217338444909, 3.33949211991, -2.27595720048e-15, 0.0551650396058, -0.217338444909, -3.33949211991 },
        { 0.800613914524, -3.70536934469e-15, 1.2490009027e-16, -0.0455970497926, 0.173916371217, 2.6722945931, -1.62370117351e-15, -0.755016864732, -0.173916371217, -2.6722945931 },
        { 0.873530151593, -3.12250225676e-15, 8.32667268469e-16, 1.06818918042, 0.110314503898, 1.69502646728, -7.91033905045e-16, -1.94171933201, -0.110314503898, -1.69502646728 },
        { 0.946540023548, -2.55351295664e-15, 1.33226762955e-15, 2.18340567159, 0.0466309626757, 0.716503389285, -1.66533453694e-16, -3.12994569514, -0.0466309626757, -0.716503389285 },
        { 0.808900381409, -2.27595720048e-15, -1.11022302463e-16, -0.805997802212, 1.05366390146, 2.56123428216, -3.49720252757e-15, -0.00290257919672, -1.05366390146, -2.56123428216 },
        { 0.847080196878, -2.69229083472e-15, 3.60822483003e-16, -0.0455970497926, 0.843152265592, 2.04952498108, -2.59514632006e-15, -0.801483147085, -0.843152265592, -2.04952498108 },
        { 0.903003540728, -2.56739074445e-15, 9.71445146547e-16, 1.06818918042, 0.534808329072, 1.30000603124, -1.45716771982e-15, -1.97119272115, -0.534808329072, -1.30000603124 },
        { 0.958998698157, -2.6645352591e-15, 1.38777878078e-15, 2.18340567159, 0.226068434798, 0.549524591772, -6.10622663544e-16, -3.14240436974, -0.226068434798, -0.549524591772 },
        { 0.889960670985, -8.32667268469e-16, 4.99600361081e-16, -0.805997802212, 2.22114390299, 1.47481457021, -4.30211422042e-15, -0.0839628687726, -2.22114390299, -1.47481457021 },
        { 0.911945441583, -1.37390099297e-15, 7.91033905045e-16, -0.0455970497926, 1.77738129911, 1.18016119227, -3.45556916415e-15, -0.86634839179, -1.77738129911, -1.18016119227 },
        { 0.944147322879, -1.81799020282e-15, 1.26287869051e-15, 1.06818918042, 1.12738631146, 0.748571831006, -2.22044604925e-15, -2.0123365033, -1.12738631146, -0.748571831006 },
        { 0.976390556, -2.33146835171e-15, 1.44328993201e-15, 2.18340567159, 0.476556637188, 0.316428247224, -1.05471187339e-15, -3.15979622759, -0.476556637188, -0.316428247224 },
        { 0.963067415134, 9.15933995316e-16, 1.19348975147e-15, -0.805997802212, 3.27407206568, 0.494993151664, -4.9682480352e-15, -0.157069612922, -3.27407206568, -0.494993151664 },
        { 0.970446180646, -3.60822483003e-16, 1.30451205393e-15, -0.0455970497926, 2.61994481927, 0.39609841117, -4.30211422042e-15, -0.924849130853, -2.61994481927, -0.39609841117 },
        { 0.981254122901, -1.47104550763e-15, 1.47104550763e-15, 1.06818918042, 1.6618212015, 0.251243740984, -3.17801340799e-15, -2.04944330332, -1.6618212015, -0.251243740984 },
        { 0.992075944101, -2.33146835171e-15, 1.55431223448e-15, 2.18340567159, 0.70246721585, 0.106203056664, -1.33226762955e-15, -3.17548161569, -0.70246721585, -0.106203056664 } } };
static const double FE1_C0_D010_Q64[1][64][10] =
    { { { -2.33949211991, -2.58126853225e-15, -0.782661555091, -5.3846426703e-18, 0.194002197788, -2.49800180541e-16, 0.249167237394, -0.194002197788, 3.122153675, -0.249167237394 },
        { -1.6722945931, -1.88737914186e-15, -0.826083628783, -2.64900032523e-17, 0.954402950207, -3.88578058619e-16, 0.199386085476, -0.954402950207, 2.49837822188, -0.199386085476 },
        { -0.695026467278, -9.43689570931e-16, -0.889685496102, -5.74037811845e-17, 2.06818918042, -4.4408920985e-16, 0.126469848407, -2.06818918042, 1.58471196338, -0.126469848407 },
        { 0.283496610715, -7.77156117238e-16, -0.953369037324, -8.8357256833e-17, 3.18340567159, -2.22044604925e-16, 0.0534599764519, -3.18340567159, 0.66987242661, -0.0534599764519 },
        { -1.56123428216, -2.91433543964e-15, 0.0536639014644, -5.3846426703e-18, 0.194002197788, -2.49800180541e-16, 0.191099618591, -0.194002197788, 1.50757038069, -0.191099618591 },
        { -1.04952498108, -2.32452945781e-15, -0.156847734408, -2.64900032523e-17, 0.954402950207, -2.49800180541e-16, 0.152919803122, -0.954402950207, 1.20637271549, -0.152919803122 },
        { -0.300006031238, -1.44328993201e-15, -0.465191670928, -5.74037811845e-17, 2.06818918042, -3.33066907388e-16, 0.0969964592723, -2.06818918042, 0.765197702166, -0.0969964592723 },
        { 0.450475408228, -8.881784197e-16, -0.773931565202, -8.8357256833e-17, 3.18340567159, -2.22044604925e-16, 0.0410013018433, -3.18340567159, 0.323456156974, -0.0410013018433 },
        { -0.474814570209, -3.41393580072e-15, 1.22114390299, -5.3846426703e-18, 0.194002197788, -2.77555756156e-16, 0.110039329015, -0.194002197788, -0.746329332779, -0.110039329015 },
        { -0.180161192265, -2.74086309204e-15, 0.77738129911, -2.64900032523e-17, 0.954402950207, -1.66533453694e-16, 0.0880545584172, -0.954402950207, -0.597220106844, -0.0880545584172 },
        { 0.251428168994, -1.94289029309e-15, 0.127386311455, -5.74037811845e-17, 2.06818918042, -2.22044604925e-16, 0.0558526771214, -2.06818918042, -0.378814480449, -0.0558526771214 },
        { 0.683571752776, -1.33226762955e-15, -0.523443362812, -8.8357256833e-17, 3.18340567159, 0.0, 0.0236094440002, -3.18340567159, -0.160128389964, -0.0236094440002 },
        { 0.505006848336, -3.13638004457e-15, 2.27407206568, -5.3846426703e-18, 0.194002197788, -3.33066907388e-16, 0.0369325848663, -0.194002197788, -2.77907891402, -0.0369325848663 },
        { 0.60390158883, -2.8380076067e-15, 1.61994481927, -2.64900032523e-17, 0.954402950207, -3.60822483003e-16, 0.0295538193545, -0.954402950207, -2.2238464081, -0.0295538193544 },
        { 0.748756259016, -2.33146835171e-15, 0.6618212015, -5.74037811845e-17, 2.06818918042, -2.22044604925e-16, 0.0187458770991, -2.06818918042, -1.41057746052, -0.0187458770991 },
        { 0.893796943336, -1.55431223448e-15, -0.29753278415, -8.8357256833e-17, 3.18340567159, 0.0, 0.00792405589881, -3.18340567159, -0.596264159186, -0.0079240558988 },
        { -1.40436775533, -2.58126853225e-15, -0.782661555091, -5.3846426703e-18, 0.194002197788, -1.66533453694e-16, 1.18429160197, -0.194002197788, 2.18702931043, -1.18429160197 },
        { -0.92399883626, -1.98452365652e-15, -0.826083628783, -2.64900032523e-17, 0.954402950207, -3.05311331772e-16, 0.947681842315, -0.954402950207, 1.75008246504, -0.947681842315 },
        { -0.220385266989, -1.16573417586e-15, -0.889685496102, -5.74037811845e-17, 2.06818918042, -4.4408920985e-16, 0.601111048696, -2.06818918042, 1.11007076309, -0.601111048696 },
        { 0.484131842829, -7.77156117238e-16, -0.953369037324, -8.8357256833e-17, 3.18340567159, -2.22044604925e-16, 0.254095208566, -3.18340567159, 0.469237194496, -0.254095208566 },
        { -0.844037626309, -2.96984659087e-15, 0.0536639014644, -5.3846426703e-18, 0.194002197788, -2.49800180541e-16, 0.908296274439, -0.194002197788, 0.790373724844, -0.908296274439 },
        { -0.475617130186, -2.43555176027e-15, -0.156847734408, -2.64900032523e-17, 0.954402950207, -2.49800180541e-16, 0.726827654015, -0.954402950207, 0.632464864594, -0.726827654015 },
        { 0.0640215724375, -1.55431223448e-15, -0.465191670928, -5.74037811845e-17, 2.06818918042, -3.33066907388e-16, 0.461024062948, -2.06818918042, 0.401170098491, -0.461024062948 },
        { 0.604353248405, -9.99200722163e-16, -0.773931565202, -8.8357256833e-17, 3.18340567159, -2.22044604925e-16, 0.19487914202, -3.18340567159, 0.169578316798, -0.19487914202 },
        { -0.0618370909058, -3.44169137634e-15, 1.22114390299, -5.3846426703e-18, 0.194002197788, -3.88578058619e-16, 0.523016808318, -0.194002197788, -1.15930681208, -0.523016808318 },
        { 0.150307467455, -2.76861866766e-15, 0.77738129911, -2.64900032523e-17, 0.954402950207, -2.22044604925e-16, 0.418523218137, -0.954402950207, -0.927688766565, -0.418523218137 },
        { 0.461043204057, -1.99840144433e-15, 0.127386311455, -5.74037811845e-17, 2.06818918042, -1.11022302463e-16, 0.265467712185, -2.06818918042, -0.588429515512, -0.265467712185 },
        { 0.772177969827, -1.22124532709e-15, -0.523443362812, -8.8357256833e-17, 3.18340567159, 0.0, 0.112215661052, -3.18340567159, -0.248734607016, -0.112215661052 },
        { 0.643614798228, -3.13638004457e-15, 2.27407206568, -5.3846426703e-18, 0.194002197788, -4.4408920985e-16, 0.175540534757, -0.194002197788, -2.91768686391, -0.175540534757 },
        { 0.714817039969, -2.94902990916e-15, 1.61994481927, -2.64900032523e-17, 0.954402950207, -3.60822483003e-16, 0.140469270493, -0.954402950207, -2.33476185924, -0.140469270493 },
        { 0.819109514902, -2.44249065418e-15, 0.6618212015, -5.74037811845e-17, 2.06818918042, -3.33066907388e-16, 0.0890991329849, -2.06818918042, -1.4809307164, -0.0890991329849 },
        { 0.923535916303, -1.55431223448e-15, -0.29753278415, -8.8357256833e-17, 3.18340567159, 0.0, 0.0376630288662, -3.18340567159, -0.626003132153, -0.0376630288662 },
        { -0.184291601968, -3.1918911958e-15, -0.782661555091, -5.3846426703e-18, 0.194002197788, -2.77555756156e-17, 2.40436775533, -0.194002197788, 0.966953157059, -2.40436775533 },
        { 0.0523181576846, -2.53963516883e-15, -0.826083628783, -2.64900032523e-17, 0.954402950207, -2.77555756156e-16, 1.92399883626, -0.954402950207, 0.773765471098, -1.92399883626 },
        { 0.398888951304, -1.44328993201e-15, -0.889685496102, -5.74037811845e-17, 2.06818918042, -4.4408920985e-16, 1.22038526699, -2.06818918042, 0.490796544799, -1.22038526699 },
        { 0.745904791434, -9.99200722163e-16, -0.953369037324, -8.8357256833e-17, 3.18340567159, -2.22044604925e-16, 0.515868157171, -3.18340567159, 0.20746424589, -0.515868157171 },
        { 0.0917037255613, -3.27515792264e-15, 0.0536639014644, -5.3846426703e-18, 0.194002197788, -3.33066907388e-16, 1.84403762631, -0.194002197788, -0.145367627026, -1.84403762631 },
        { 0.273172345985, -2.71310751643e-15, -0.156847734408, -2.64900032523e-17, 0.954402950207, -2.22044604925e-16, 1.47561713019, -0.954402950207, -0.116324611577, -1.47561713019 },
        { 0.538975937052, -1.88737914186e-15, -0.465191670928, -5.74037811845e-17, 2.06818918042, -3.33066907388e-16, 0.935978427563, -2.06818918042, -0.0737842661239, -0.935978427562 },
        { 0.80512085798, -1.11022302463e-15, -0.773931565202, -8.8357256833e-17, 3.18340567159, -2.22044604925e-16, 0.395646751595, -3.18340567159, -0.0311892927776, -0.395646751595 },
        { 0.476983191682, -3.21964677141e-15, 1.22114390299, -5.3846426703e-18, 0.194002197788, -4.71844785466e-16, 1.06183709091, -0.194002197788, -1.69812709467, -1.06183709091 },
        { 0.581476781863, -2.85188539451e-15, 0.77738129911, -2.64900032523e-17, 0.954402950207, -1.66533453694e-16, 0.849692532545, -0.954402950207, -1.35885808097, -0.849692532545 },
        { 0.734532287815, -2.10942374679e-15, 0.127386311455, -5.74037811845e-17, 2.06818918042, -2.22044604925e-16, 0.538956795943, -2.06818918042, -0.861918599271, -0.538956795943 },
        { 0.887784338948, -1.33226762955e-15, -0.523443362812, -8.8357256833e-17, 3.18340567159, 0.0, 0.227822030173, -3.18340567159, -0.364340976137, -0.227822030173 },
        { 0.824459465243, -3.09474668114e-15, 2.27407206568, -5.3846426703e-18, 0.194002197788, -4.71844785466e-16, 0.356385201772, -0.194002197788, -3.09853153092, -0.356385201772 },
        { 0.859530729507, -3.07392999943e-15, 1.61994481927, -2.64900032523e-17, 0.954402950207, -4.4408920985e-16, 0.285182960031, -0.954402950207, -2.47947554877, -0.285182960031 },
        { 0.910900867015, -2.44249065418e-15, 0.6618212015, -5.74037811845e-17, 2.06818918042, -3.33066907388e-16, 0.180890485098, -2.06818918042, -1.57272206851, -0.180890485098 },
        { 0.962336971134, -1.55431223448e-15, -0.29753278415, -8.8357256833e-17, 3.18340567159, 0.0, 0.0764640836967, -3.18340567159, -0.664804186984, -0.0764640836967 },
        { 0.750832762606, -4.46864767412e-15, -0.782661555091, -5.3846426703e-18, 0.194002197788, 5.55111512313e-17, 3.33949211991, -0.194002197788, 0.0318287924849, -3.33949211991 },
        { 0.800613914524, -3.42781358853e-15, -0.826083628783, -2.64900032523e-17, 0.954402950207, -1.38777878078e-16, 2.6722945931, -0.954402950207, 0.0254697142584, -2.6722945931 },
        { 0.873530151593, -1.94289029309e-15, -0.889685496102, -5.74037811845e-17, 2.06818918042, -4.4408920985e-16, 1.69502646728, -2.06818918042, 0.0161553445093, -1.69502646728 },
        { 0.946540023548, -1.22124532709e-15, -0.953369037324, -8.8357256833e-17, 3.18340567159, -2.22044604925e-16, 0.716503389285, -3.18340567159, 0.00682901377617, -0.716503389285 },
        { 0.808900381409, -3.66373598126e-15, 0.0536639014644, -5.3846426703e-18, 0.194002197788, -3.05311331772e-16, 2.56123428216, -0.194002197788, -0.862564282873, -2.56123428216 },
        { 0.847080196878, -3.07392999943e-15, -0.156847734408, -2.64900032523e-17, 0.954402950207, -1.66533453694e-16, 2.04952498108, -0.954402950207, -0.69023246247, -2.04952498108 },
        { 0.903003540728, -2.10942374679e-15, -0.465191670928, -5.74037811845e-17, 2.06818918042, -3.33066907388e-16, 1.30000603124, -2.06818918042, -0.4378118698, -1.30000603124 },
        { 0.958998698157, -1.33226762955e-15, -0.773931565202, -8.8357256833e-17, 3.18340567159, 0.0, 0.549524591772, -3.18340567159, -0.185067132954, -0.549524591772 },
        { 0.889960670985, -3.38618022511e-15, 1.22114390299, -5.3846426703e-18, 0.194002197788, -5.82867087928e-16, 1.47481457021, -0.194002197788, -2.11110457397, -1.47481457021 },
        { 0.911945441583, -3.04617442382e-15, 0.77738129911, -2.64900032523e-17, 0.954402950207, -1.94289029309e-16, 1.18016119227, -0.954402950207, -1.68932674069, -1.18016119227 },
        { 0.944147322879, -2.22044604925e-15, 0.127386311455, -5.74037811845e-17, 2.06818918042, -2.22044604925e-16, 0.748571831006, -2.06818918042, -1.07153363433, -0.748571831006 },
        { 0.976390556, -1.44328993201e-15, -0.523443362812, -8.8357256833e-17, 3.18340567159, 0.0, 0.316428247224, -3.18340567159, -0.452947193188, -0.316428247224 },
        { 0.963067415134, -3.0253577421e-15, 2.27407206568, -5.3846426703e-18, 0.194002197788, -5.55111512313e-16, 0.494993151664, -0.194002197788, -3.23713948082, -0.494993151664 },
        { 0.970446180646, -3.06005221162e-15, 1.61994481927, -2.64900032523e-17, 0.954402950207, -4.4408920985e-16, 0.39609841117, -0.954402950207, -2.59039099991, -0.39609841117 },
        { 0.981254122901, -2.44249065418e-15, 0.6618212015, -5.74037811845e-17, 2.06818918042, -3.33066907388e-16, 0.251243740984, -2.06818918042, -1.6430753244, -0.251243740984 },
        { 0.992075944101, -1.55431223448e-15, -0.29753278415, -8.8357256833e-17, 3.18340567159, 0.0, 0.106203056664, -3.18340567159, -0.694543159951, -0.106203056664 } } };
static const double FE1_C0_D100_Q64[1][64][10] =
    { { { -2.33949211991, -0.750832762606, 1.22832006927e-17, 2.15385706812e-17, -1.57857775205e-33, 0.194002197788, 0.217338444909, -0.194002197788, -0.217338444909, 3.09032488252 },
        { -1.6722945931, -0.800613914524, -3.89694111865e-17, 1.05960013009e-16, -2.24823485219e-33, 0.954402950207, 0.173916371217, -0.954402950207, -0.173916371217, 2.47290850762 },
        { -0.695026467278, -0.873530151593, -1.14040948388e-16, 2.29615124738e-16, -3.2291056032e-33, 2.06818918042, 0.110314503898, -2.06818918042, -0.110314503898, 1.56855661887 },
        { 0.283496610715, -0.946540023548, -1.8920888819e-16, 3.53429027332e-16, -4.21123593268e-33, 3.18340567159, 0.0466309626757, -3.18340567159, -0.0466309626757, 0.663043412833 },
        { -1.56123428216, -0.808900381409, 1.05133978488e-16, 2.15385706812e-17, -6.73283132016e-33, 0.194002197788, 1.05366390146, -0.194002197788, -1.05366390146, 2.37013466357 },
        { -1.04952498108, -0.847080196878, 3.53306986975e-17, 1.05960013009e-16, -6.37271948846e-33, 0.954402950207, 0.843152265592, -0.954402950207, -0.843152265592, 1.89660517796 },
        { -0.300006031238, -0.903003540728, -6.69126665362e-17, 2.29615124738e-16, -5.84525078436e-33, 2.06818918042, 0.534808329072, -2.06818918042, -0.534808329072, 1.20300957197 },
        { 0.450475408228, -0.958998698157, -1.69287326887e-16, 3.53429027332e-16, -5.31710473493e-33, 3.18340567159, 0.226068434798, -3.18340567159, -0.226068434798, 0.508523289929 },
        { -0.474814570209, -0.889960670985, 2.34750296336e-16, 2.15385706812e-17, -1.39279823423e-32, 0.194002197788, 2.22114390299, -0.194002197788, -2.22114390299, 1.36477524119 },
        { -0.180161192265, -0.911945441583, 1.39050957026e-16, 1.05960013009e-16, -1.21303504343e-32, 0.954402950207, 1.77738129911, -0.954402950207, -1.77738129911, 1.09210663385 },
        { 0.251428168994, -0.944147322879, -1.12329454344e-18, 2.29615124738e-16, -9.49729456246e-33, 2.06818918042, 1.12738631146, -2.06818918042, -1.12738631146, 0.692719153885 },
        { 0.683571752776, -0.976390556, -1.41477549918e-16, 3.53429027332e-16, -6.86085746997e-33, 3.18340567159, 0.476556637188, -3.18340567159, -0.476556637188, 0.292818803224 },
        { 0.505006848336, -0.963067415134, 3.51648805286e-16, 2.15385706812e-17, -2.04171531513e-32, 0.194002197788, 3.27407206568, -0.194002197788, -3.27407206568, 0.458060566797 },
        { 0.60390158883, -0.970446180646, 2.32594299005e-16, 1.05960013009e-16, -1.73230490375e-32, 0.954402950207, 2.61994481927, -0.954402950207, -2.61994481927, 0.366544591816 },
        { 0.748756259016, -0.981254122901, 5.82108974656e-17, 2.29615124738e-16, -1.27910038683e-32, 2.06818918042, 1.6618212015, -2.06818918042, -1.6618212015, 0.232497863884 },
        { 0.893796943336, -0.992075944101, -1.16396437324e-16, 3.53429027332e-16, -8.25313890421e-33, 3.18340567159, 0.70246721585, -3.18340567159, -0.70246721585, 0.0982790007653 },
        { -1.40436775533, 0.184291601968, 1.22832006927e-17, 2.15385706812e-17, -1.57857775205e-33, 0.194002197788, 0.217338444909, -0.194002197788, -0.217338444909, 1.22007615337 },
        { -0.92399883626, -0.0523181576846, -3.89694111865e-17, 1.05960013009e-16, -2.24823485219e-33, 0.954402950207, 0.173916371217, -0.954402950207, -0.173916371217, 0.976316993945 },
        { -0.220385266989, -0.398888951304, -1.14040948388e-16, 2.29615124738e-16, -3.2291056032e-33, 2.06818918042, 0.110314503898, -2.06818918042, -0.110314503898, 0.619274218293 },
        { 0.484131842829, -0.745904791434, -1.8920888819e-16, 3.53429027332e-16, -4.21123593268e-33, 3.18340567159, 0.0466309626757, -3.18340567159, -0.0466309626757, 0.261772948605 },
        { -0.844037626309, -0.0917037255613, 1.05133978488e-16, 2.15385706812e-17, -6.73283132016e-33, 0.194002197788, 1.05366390146, -0.194002197788, -1.05366390146, 0.93574135187 },
        { -0.475617130186, -0.273172345985, 3.53306986975e-17, 1.05960013009e-16, -6.37271948846e-33, 0.954402950207, 0.843152265592, -0.954402950207, -0.843152265592, 0.748789476171 },
        { 0.0640215724375, -0.538975937052, -6.69126665362e-17, 2.29615124738e-16, -5.84525078436e-33, 2.06818918042, 0.534808329072, -2.06818918042, -0.534808329072, 0.474954364614 },
        { 0.604353248405, -0.80512085798, -1.69287326887e-16, 3.53429027332e-16, -5.31710473493e-33, 3.18340567159, 0.226068434798, -3.18340567159, -0.226068434798, 0.200767609575 },
        { -0.0618370909058, -0.476983191682, 2.34750296336e-16, 2.15385706812e-17, -1.39279823423e-32, 0.194002197788, 2.22114390299, -0.194002197788, -2.22114390299, 0.538820282588 },
        { 0.150307467455, -0.581476781863, 1.39050957026e-16, 1.05960013009e-16, -1.21303504343e-32, 0.954402950207, 1.77738129911, -0.954402950207, -1.77738129911, 0.431169314408 },
        { 0.461043204057, -0.734532287815, -1.12329454344e-18, 2.29615124738e-16, -9.49729456246e-33, 2.06818918042, 1.12738631146, -2.06818918042, -1.12738631146, 0.273489083758 },
        { 0.772177969827, -0.887784338948, -1.41477549918e-16, 3.53429027332e-16, -6.86085746997e-33, 3.18340567159, 0.476556637188, -3.18340567159, -0.476556637188, 0.115606369121 },
        { 0.643614798228, -0.824459465243, 3.51648805286e-16, 2.15385706812e-17, -2.04171531513e-32, 0.194002197788, 3.27407206568, -0.194002197788, -3.27407206568, 0.180844667015 },
        { 0.714817039969, -0.859530729507, 2.32594299005e-16, 1.05960013009e-16, -1.73230490375e-32, 0.954402950207, 2.61994481927, -0.954402950207, -2.61994481927, 0.144713689538 },
        { 0.819109514902, -0.910900867015, 5.82108974656e-17, 2.29615124738e-16, -1.27910038683e-32, 2.06818918042, 1.6618212015, -2.06818918042, -1.6618212015, 0.0917913521128 },
        { 0.923535916303, -0.962336971134, -1.16396437324e-16, 3.53429027332e-16, -8.25313890421e-33, 3.18340567159, 0.70246721585, -3.18340567159, -0.70246721585, 0.0388010548305 },
        { -0.184291601968, 1.40436775533, 1.22832006927e-17, 2.15385706812e-17, -1.57857775205e-33, 0.194002197788, 0.217338444909, -0.194002197788, -0.217338444909, -1.22007615337 },
        { 0.0523181576846, 0.92399883626, -3.89694111865e-17, 1.05960013009e-16, -2.24823485219e-33, 0.954402950207, 0.173916371217, -0.954402950207, -0.173916371217, -0.976316993945 },
        { 0.398888951304, 0.220385266989, -1.14040948388e-16, 2.29615124738e-16, -3.2291056032e-33, 2.06818918042, 0.110314503898, -2.06818918042, -0.110314503898, -0.619274218293 },
        { 0.745904791434, -0.484131842829, -1.8920888819e-16, 3.53429027332e-16, -4.21123593268e-33, 3.18340567159, 0.0466309626757, -3.18340567159, -0.0466309626757, -0.261772948605 },
        { 0.0917037255613, 0.844037626309, 1.05133978488e-16, 2.15385706812e-17, -6.73283132016e-33, 0.194002197788, 1.05366390146, -0.194002197788, -1.05366390146, -0.93574135187 },
        { 0.273172345985, 0.475617130186, 3.53306986975e-17, 1.05960013009e-16, -6.37271948846e-33, 0.954402950207, 0.843152265592, -0.954402950207, -0.843152265592, -0.748789476171 },
        { 0.538975937052, -0.0640215724375, -6.69126665362e-17, 2.29615124738e-16, -5.84525078436e-33, 2.06818918042, 0.534808329072, -2.06818918042, -0.534808329072, -0.474954364614 },
        { 0.80512085798, -0.604353248405, -1.69287326887e-16, 3.53429027332e-16, -5.31710473493e-33, 3.18340567159, 0.226068434798, -3.18340567159, -0.226068434798, -0.200767609575 },
        { 0.476983191682, 0.0618370909058, 2.34750296336e-16, 2.15385706812e-17, -1.39279823423e-32, 0.194002197788, 2.22114390299, -0.194002197788, -2.22114390299, -0.538820282588 },
        { 0.581476781863, -0.150307467455, 1.39050957026e-16, 1.05960013009e-16, -1.21303504343e-32, 0.954402950207, 1.77738129911, -0.954402950207, -1.77738129911, -0.431169314408 },
        { 0.734532287815, -0.461043204057, -1.12329454344e-18, 2.29615124738e-16, -9.49729456246e-33, 2.06818918042, 1.12738631146, -2.06818918042, -1.12738631146, -0.273489083758 },
        { 0.887784338948, -0.772177969827, -1.41477549918e-16, 3.53429027332e-16, -6.86085746997e-33, 3.18340567159, 0.476556637188, -3.18340567159, -0.476556637188, -0.115606369121 },
        { 0.824459465243, -0.643614798228, 3.51648805286e-16, 2.15385706812e-17, -2.04171531513e-32, 0.194002197788, 3.27407206568, -0.194002197788, -3.27407206568, -0.180844667015 },
        { 0.859530729507, -0.714817039969, 2.32594299005e-16, 1.05960013009e-16, -1.73230490375e-32, 0.954402950207, 2.61994481927, -0.954402950207, -2.61994481927, -0.144713689538 },
        { 0.910900867015, -0.819109514902, 5.82108974656e-17, 2.29615124738e-16, -1.27910038683e-32, 2.06818918042, 1.6618212015, -2.06818918042, -1.6618212015, -0.0917913521128 },
        { 0.962336971134, -0.923535916303, -1.16396437324e-16, 3.53429027332e-16, -8.25313890421e-33, 3.18340567159, 0.70246721585, -3.18340567159, -0.70246721585, -0.0388010548305 },
        { 0.750832762606, 2.33949211991, 1.22832006927e-17, 2.15385706812e-17, -1.57857775205e-33, 0.194002197788, 0.217338444909, -0.194002197788, -0.217338444909, -3.09032488252 },
        { 0.800613914524, 1.6722945931, -3.89694111865e-17, 1.05960013009e-16, -2.24823485219e-33, 0.954402950207, 0.173916371217, -0.954402950207, -0.173916371217, -2.47290850762 },
        { 0.873530151593, 0.695026467278, -1.14040948388e-16, 2.29615124738e-16, -3.2291056032e-33, 2.06818918042, 0.110314503898, -2.06818918042, -0.110314503898, -1.56855661887 },
        { 0.946540023548, -0.283496610715, -1.8920888819e-16, 3.53429027332e-16, -4.21123593268e-33, 3.18340567159, 0.0466309626757, -3.18340567159, -0.0466309626757, -0.663043412833 },
        { 0.808900381409, 1.56123428216, 1.05133978488e-16, 2.15385706812e-17, -6.73283132016e-33, 0.194002197788, 1.05366390146, -0.194002197788, -1.05366390146, -2.37013466357 },
        { 0.847080196878, 1.04952498108, 3.53306986975e-17, 1.05960013009e-16, -6.37271948846e-33, 0.954402950207, 0.843152265592, -0.954402950207, -0.843152265592, -1.89660517796 },
        { 0.903003540728, 0.300006031238, -6.69126665362e-17, 2.29615124738e-16, -5.84525078436e-33, 2.06818918042, 0.534808329072, -2.06818918042, -0.534808329072, -1.20300957197 },
        { 0.958998698157, -0.450475408228, -1.69287326887e-16, 3.53429027332e-16, -5.31710473493e-33, 3.18340567159, 0.226068434798, -3.18340567159, -0.226068434798, -0.508523289929 },
        { 0.889960670985, 0.474814570209, 2.34750296336e-16, 2.15385706812e-17, -1.39279823423e-32, 0.194002197788, 2.22114390299, -0.194002197788, -2.22114390299, -1.36477524119 },
        { 0.911945441583, 0.180161192265, 1.39050957026e-16, 1.05960013009e-16, -1.21303504343e-32, 0.954402950207, 1.77738129911, -0.954402950207, -1.77738129911, -1.09210663385 },
        { 0.944147322879, -0.251428168994, -1.12329454344e-18, 2.29615124738e-16, -9.49729456246e-33, 2.06818918042, 1.12738631146, -2.06818918042, -1.12738631146, -0.692719153885 },
        { 0.976390556, -0.683571752776, -1.41477549918e-16, 3.53429027332e-16, -6.86085746997e-33, 3.18340567159, 0.476556637188, -3.18340567159, -0.476556637188, -0.292818803224 },
        { 0.963067415134, -0.505006848336, 3.51648805286e-16, 2.15385706812e-17, -2.04171531513e-32, 0.194002197788, 3.27407206568, -0.194002197788, -3.27407206568, -0.458060566797 },
        { 0.970446180646, -0.60390158883, 2.32594299005e-16, 1.05960013009e-16, -1.73230490375e-32, 0.954402950207, 2.61994481927, -0.954402950207, -2.61994481927, -0.366544591816 },
        { 0.981254122901, -0.748756259016, 5.82108974656e-17, 2.29615124738e-16, -1.27910038683e-32, 2.06818918042, 1.6618212015, -2.06818918042, -1.6618212015, -0.232497863884 },
        { 0.992075944101, -0.893796943336, -1.16396437324e-16, 3.53429027332e-16, -8.25313890421e-33, 3.18340567159, 0.70246721585, -3.18340567159, -0.70246721585, -0.0982790007653 } } };
static const double FE1_C0_Q64[1][64][10] =
    { { { 0.55915292239, -0.0545312703246, -0.0484301112728, -0.0437959428537, 0.010541033994, 0.0120847479178, 0.0135384049744, 0.16196720269, 0.181450006032, 0.208023006454 },
        { 0.224571150764, -0.0448771699837, -0.0396982297821, -0.124740113631, 0.0414965744448, 0.047573667052, 0.00866912611427, 0.637611460869, 0.116188944614, 0.133204589539 },
        { -0.0646172762229, -0.0296181342822, -0.0260574647531, 0.0176285156451, 0.057037815851, 0.0653908930311, 0.00348786464625, 0.876408850036, 0.0467465009578, 0.0535924350906 },
        { -0.114953708964, -0.0130077479777, -0.0113859348339, 0.47090754084, 0.0371113177633, 0.0425461980599, 0.000623222541643, 0.570230238291, 0.00835281070069, 0.00957606357972 },
        { 0.179681560473, -0.0432100216196, -0.12464002321, -0.0437959428537, 0.0511032781535, 0.00926843650079, 0.0503386924233, 0.124221269947, 0.674670026575, 0.122362723611 },
        { 0.0126878357384, -0.0353068925072, -0.121924848526, -0.124740113631, 0.201176752439, 0.0364867778113, 0.0322336696141, 0.489018172116, 0.432015407796, 0.0783532391502 },
        { -0.113749547653, -0.0230730756792, -0.0979495886624, 0.0176285156451, 0.276521199946, 0.0501517569014, 0.0129686285773, 0.672164602071, 0.173813513338, 0.0315239955157 },
        { -0.0996339883227, -0.0100401871167, -0.0501287415479, 0.47090754084, 0.179916884375, 0.0326309442076, 0.0023172750331, 0.437339925531, 0.0310575410862, 0.00563280591439 },
        { -0.0968188904897, -0.0259962505126, 0.0613990539756, -0.0437959428537, 0.107726699696, 0.00533696791803, 0.0611032961829, 0.0715293169876, 0.818943847664, 0.040571901432 },
        { -0.1209427431, -0.021044438947, -0.0494597894743, -0.124740113631, 0.424084488879, 0.0210098825831, 0.039126631358, 0.281587330905, 0.524399108267, 0.0259796431615 },
        { -0.11709798448, -0.0135732290876, -0.122971590957, 0.0176285156451, 0.582912042876, 0.0288784756299, 0.0157418859112, 0.387047040413, 0.210982408854, 0.0104524351948 },
        { -0.0665912073509, -0.00583268526931, -0.0907508807411, 0.47090754084, 0.379268275415, 0.0187896094833, 0.00281280930966, 0.251829869216, 0.0376989953522, 0.00186767374573 },
        { -0.0931210103917, -0.00906264423846, 0.521425469989, -0.0437959428537, 0.158794294115, 0.00179125065851, 0.030229986106, 0.0240074398282, 0.405160812641, 0.00457034414551 },
        { -0.0794128588761, -0.00727927630881, 0.203027652184, -0.124740113631, 0.625120766222, 0.00705156309545, 0.0193573439768, 0.0945093730484, 0.259438995067, 0.00292655522258 },
        { -0.054920508073, -0.00464254328626, -0.0702490871557, 0.0176285156451, 0.859240157183, 0.00969250504847, 0.00778807400101, 0.129904896687, 0.104380543878, 0.0011774460726 },
        { -0.0251408780104, -0.00197316514196, -0.113934280294, 0.47090754084, 0.55905952976, 0.00630637112255, 0.00139159737137, 0.0845218532311, 0.0186510413824, 0.000210389739407 },
        { 0.121531099028, -0.12075457568, -0.0484301112728, -0.0437959428537, 0.010541033994, 0.0574387934009, 0.0643480237726, 0.116613157206, 0.130640387233, 0.711868135172 },
        { -0.0182782688238, -0.124657851297, -0.0396982297821, -0.124740113631, 0.0414965744448, 0.226117586541, 0.041204346771, 0.459067541381, 0.0836537239571, 0.45583469044 },
        { -0.118928791762, -0.105110950566, -0.0260574647531, 0.0176285156451, 0.057037815851, 0.310802841786, 0.0165778167811, 0.630996901282, 0.0336565488229, 0.183396766913 },
        { -0.0957020448449, -0.0554532552645, -0.0113859348339, 0.47090754084, 0.0371113177633, 0.202222032018, 0.00296217604668, 0.410554404333, 0.00601385719566, 0.0327699067472 },
        { -0.0359500606719, -0.12394880334, -0.12464002321, -0.0437959428537, 0.0511032781535, 0.0440528683709, 0.239259749053, 0.0894368380769, 0.485748969946, 0.418733126475 },
        { -0.0967235431843, -0.115672108674, -0.121924848526, -0.124740113631, 0.201176752439, 0.173421614321, 0.153206595794, 0.352083335606, 0.311042481616, 0.268129834239 },
        { -0.124487654783, -0.0886881174099, -0.0979495886624, 0.0176285156451, 0.276521199946, 0.238371244725, 0.0616398771918, 0.483945114247, 0.125142264723, 0.107877144377 },
        { -0.0793446438928, -0.0439725505057, -0.0501287415479, 0.47090754084, 0.179916884375, 0.155094841495, 0.0110140056528, 0.314876028243, 0.0223608104665, 0.0192758248735 },
        { -0.124522021774, -0.0965608793566, 0.0613990539756, -0.0437959428537, 0.107726699696, 0.0253666025734, 0.290423898739, 0.0514996823321, 0.589623245108, 0.13883966156 },
        { -0.122175958153, -0.0827355940193, -0.0494597894743, -0.124740113631, 0.424084488879, 0.0998599485302, 0.18596883529, 0.202737264958, 0.377556904335, 0.088904013287 },
        { -0.0984298954991, -0.0575577897696, -0.122971590957, 0.0176285156451, 0.582912042876, 0.137259362523, 0.0748211662125, 0.27866615352, 0.151903128553, 0.0357689068963 },
        { -0.0504676478641, -0.0264798709398, -0.0907508807411, 0.47090754084, 0.379268275415, 0.0893069929584, 0.0133692795177, 0.181312485741, 0.0271425251441, 0.0063912999295 },
        { -0.0732199989378, -0.0400333237715, 0.521425469989, -0.0437959428537, 0.158794294115, 0.00851381238595, 0.143683090311, 0.0172848781007, 0.291707708436, 0.0156400122247 },
        { -0.0611295749213, -0.0326508656292, 0.203027652184, -0.124740113631, 0.625120766222, 0.0335160715431, 0.0920054343739, 0.0680448646007, 0.186790904669, 0.0100148605882 },
        { -0.0411324503246, -0.0212824513089, -0.0702490871557, 0.0176285156451, 0.859240157183, 0.046068465706, 0.0370167070574, 0.0935289360299, 0.0751519108213, 0.00402929634686 },
        { -0.0183851764122, -0.00923844424863, -0.113934280294, 0.47090754084, 0.55905952976, 0.0299741749255, 0.00661426075703, 0.0608540494282, 0.0134283779967, 0.000719967247874 },
        { -0.12075457568, 0.121531099028, -0.0484301112728, -0.0437959428537, 0.010541033994, 0.116613157206, 0.130640387233, 0.0574387934009, 0.0643480237726, 0.711868135172 },
        { -0.124657851297, -0.0182782688238, -0.0396982297821, -0.124740113631, 0.0414965744448, 0.459067541381, 0.0836537239571, 0.226117586541, 0.041204346771, 0.45583469044 },
        { -0.105110950566, -0.118928791762, -0.0260574647531, 0.0176285156451, 0.057037815851, 0.630996901282, 0.0336565488229, 0.310802841786, 0.0165778167811, 0.183396766913 },
        { -0.0554532552645, -0.0957020448449, -0.0113859348339, 0.47090754084, 0.0371113177633, 0.410554404333, 0.00601385719566, 0.202222032018, 0.00296217604668, 0.0327699067472 },
        { -0.12394880334, -0.0359500606719, -0.12464002321, -0.0437959428537, 0.0511032781535, 0.0894368380769, 0.485748969946, 0.0440528683709, 0.239259749053, 0.418733126475 },
        { -0.115672108674, -0.0967235431843, -0.121924848526, -0.124740113631, 0.201176752439, 0.352083335606, 0.311042481616, 0.173421614321, 0.153206595794, 0.268129834239 },
        { -0.0886881174099, -0.124487654783, -0.0979495886624, 0.0176285156451, 0.276521199946, 0.483945114247, 0.125142264723, 0.238371244725, 0.0616398771918, 0.107877144377 },
        { -0.0439725505057, -0.0793446438928, -0.0501287415479, 0.47090754084, 0.179916884375, 0.314876028243, 0.0223608104665, 0.155094841495, 0.0110140056528, 0.0192758248735 },
        { -0.0965608793566, -0.124522021774, 0.0613990539756, -0.0437959428537, 0.107726699696, 0.0514996823321, 0.589623245108, 0.0253666025734, 0.290423898739, 0.13883966156 },
        { -0.0827355940193, -0.122175958153, -0.0494597894743, -0.124740113631, 0.424084488879, 0.202737264958, 0.377556904335, 0.0998599485302, 0.18596883529, 0.088904013287 },
        { -0.0575577897696, -0.0984298954991, -0.122971590957, 0.0176285156451, 0.582912042876, 0.27866615352, 0.151903128553, 0.137259362523, 0.0748211662125, 0.0357689068963 },
        { -0.0264798709398, -0.0504676478641, -0.0907508807411, 0.47090754084, 0.379268275415, 0.181312485741, 0.0271425251441, 0.0893069929584, 0.0133692795177, 0.0063912999295 },
        { -0.0400333237715, -0.0732199989378, 0.521425469989, -0.0437959428537, 0.158794294115, 0.0172848781007, 0.291707708436, 0.00851381238595, 0.143683090311, 0.0156400122247 },
        { -0.0326508656292, -0.0611295749213, 0.203027652184, -0.124740113631, 0.625120766222, 0.0680448646007, 0.186790904669, 0.0335160715431, 0.0920054343739, 0.0100148605882 },
        { -0.0212824513089, -0.0411324503246, -0.0702490871557, 0.0176285156451, 0.859240157183, 0.0935289360299, 0.0751519108213, 0.046068465706, 0.0370167070574, 0.00402929634686 },
        { -0.00923844424863, -0.0183851764122, -0.113934280294, 0.47090754084, 0.55905952976, 0.0608540494282, 0.0134283779967, 0.0299741749255, 0.00661426075703, 0.000719967247874 },
        { -0.0545312703246, 0.55915292239, -0.0484301112728, -0.0437959428537, 0.010541033994, 0.16196720269, 0.181450006032, 0.0120847479178, 0.0135384049744, 0.208023006454 },
        { -0.0448771699837, 0.224571150764, -0.0396982297821, -0.124740113631, 0.0414965744448, 0.637611460869, 0.116188944614, 0.047573667052, 0.00866912611427, 0.133204589539 },
        { -0.0296181342822, -0.0646172762229, -0.0260574647531, 0.0176285156451, 0.057037815851, 0.876408850036, 0.0467465009578, 0.0653908930311, 0.00348786464625, 0.0535924350906 },
        { -0.0130077479777, -0.114953708964, -0.0113859348339, 0.47090754084, 0.0371113177633, 0.570230238291, 0.00835281070069, 0.0425461980599, 0.000623222541643, 0.00957606357972 },
        { -0.0432100216196, 0.179681560473, -0.12464002321, -0.0437959428537, 0.0511032781535, 0.124221269947, 0.674670026575, 0.00926843650079, 0.0503386924233, 0.122362723611 },
        { -0.0353068925072, 0.0126878357384, -0.121924848526, -0.124740113631, 0.201176752439, 0.489018172116, 0.432015407796, 0.0364867778113, 0.0322336696141, 0.0783532391502 },
        { -0.0230730756792, -0.113749547653, -0.0979495886624, 0.0176285156451, 0.276521199946, 0.672164602071, 0.173813513338, 0.0501517569014, 0.0129686285773, 0.0315239955157 },
        { -0.0100401871167, -0.0996339883227, -0.0501287415479, 0.47090754084, 0.179916884375, 0.437339925531, 0.0310575410862, 0.0326309442076, 0.0023172750331, 0.00563280591439 },
        { -0.0259962505126, -0.0968188904897, 0.0613990539756, -0.0437959428537, 0.107726699696, 0.0715293169876, 0.818943847664, 0.00533696791803, 0.0611032961829, 0.040571901432 },
        { -0.021044438947, -0.1209427431, -0.0494597894743, -0.124740113631, 0.424084488879, 0.281587330905, 0.524399108267, 0.0210098825831, 0.039126631358, 0.0259796431615 },
        { -0.0135732290876, -0.11709798448, -0.122971590957, 0.0176285156451, 0.582912042876, 0.387047040413, 0.210982408854, 0.0288784756299, 0.0157418859112, 0.0104524351948 },
        { -0.00583268526931, -0.0665912073509, -0.0907508807411, 0.47090754084, 0.379268275415, 0.251829869216, 0.0376989953522, 0.0187896094833, 0.00281280930966, 0.00186767374573 },
        { -0.00906264423846, -0.0931210103917, 0.521425469989, -0.0437959428537, 0.158794294115, 0.0240074398282, 0.405160812641, 0.00179125065851, 0.030229986106, 0.00457034414551 },
        { -0.00727927630881, -0.0794128588761, 0.203027652184, -0.124740113631, 0.625120766222, 0.0945093730484, 0.259438995067, 0.00705156309545, 0.0193573439768, 0.00292655522258 },
        { -0.00464254328626, -0.054920508073, -0.0702490871557, 0.0176285156451, 0.859240157183, 0.129904896687, 0.104380543878, 0.00969250504847, 0.00778807400101, 0.0011774460726 },
        { -0.00197316514196, -0.0251408780104, -0.113934280294, 0.47090754084, 0.55905952976, 0.0845218532311, 0.0186510413824, 0.00630637112255, 0.00139159737137, 0.000210389739407 } } };
// Section for piecewise constant computations
const double J_c0 = coordinate_dofs[0] * FE0_C0_D100_Q64[0][0][0 - 0] + coordinate_dofs[3] * FE0_C0_D100_Q64[0][0][1 - 0];
const double J_c4 = coordinate_dofs[1] * FE0_C0_D010_Q64[0][0][4 - 4] + coordinate_dofs[4] * FE0_C0_D010_Q64[0][0][5 - 4] + coordinate_dofs[7] * FE0_C0_D010_Q64[0][0][6 - 4];
const double J_c8 = coordinate_dofs[2] * FE0_C0_D001_Q64[0][0][8 - 8] + coordinate_dofs[5] * FE0_C0_D001_Q64[0][0][9 - 8] + coordinate_dofs[8] * FE0_C0_D001_Q64[0][0][10 - 8] + coordinate_dofs[11] * FE0_C0_D001_Q64[0][0][11 - 8];
const double J_c5 = coordinate_dofs[1] * FE0_C0_D001_Q64[0][0][4 - 4] + coordinate_dofs[4] * FE0_C0_D001_Q64[0][0][5 - 4] + coordinate_dofs[7] * FE0_C0_D001_Q64[0][0][6 - 4] + coordinate_dofs[10] * FE0_C0_D001_Q64[0][0][7 - 4];
const double J_c7 = coordinate_dofs[2] * FE0_C0_D010_Q64[0][0][8 - 8] + coordinate_dofs[5] * FE0_C0_D010_Q64[0][0][9 - 8] + coordinate_dofs[8] * FE0_C0_D010_Q64[0][0][10 - 8];
const double J_c1 = coordinate_dofs[0] * FE0_C0_D010_Q64[0][0][0 - 0] + coordinate_dofs[3] * FE0_C0_D010_Q64[0][0][1 - 0] + coordinate_dofs[6] * FE0_C0_D010_Q64[0][0][2 - 0];
const double J_c6 = coordinate_dofs[2] * FE0_C0_D100_Q64[0][0][8 - 8] + coordinate_dofs[5] * FE0_C0_D100_Q64[0][0][9 - 8];
const double J_c3 = coordinate_dofs[1] * FE0_C0_D100_Q64[0][0][4 - 4] + coordinate_dofs[4] * FE0_C0_D100_Q64[0][0][5 - 4];
const double J_c2 = coordinate_dofs[0] * FE0_C0_D001_Q64[0][0][0 - 0] + coordinate_dofs[3] * FE0_C0_D001_Q64[0][0][1 - 0] + coordinate_dofs[6] * FE0_C0_D001_Q64[0][0][2 - 0] + coordinate_dofs[9] * FE0_C0_D001_Q64[0][0][3 - 0];
double sp64[84];
sp64[0] = J_c4 * J_c8;
sp64[1] = J_c5 * J_c7;
sp64[2] = -1 * sp64[1];
sp64[3] = sp64[0] + sp64[2];
sp64[4] = J_c0 * sp64[3];
sp64[5] = J_c5 * J_c6;
sp64[6] = J_c3 * J_c8;
sp64[7] = -1 * sp64[6];
sp64[8] = sp64[5] + sp64[7];
sp64[9] = J_c1 * sp64[8];
sp64[10] = sp64[4] + sp64[9];
sp64[11] = J_c3 * J_c7;
sp64[12] = J_c4 * J_c6;
sp64[13] = -1 * sp64[12];
sp64[14] = sp64[11] + sp64[13];
sp64[15] = J_c2 * sp64[14];
sp64[16] = sp64[10] + sp64[15];
sp64[17] = fabs(sp64[16]);
sp64[18] = sp64[3] / sp64[16];
sp64[19] = -1 * J_c8;
sp64[20] = J_c3 * sp64[19];
sp64[21] = sp64[5] + sp64[20];
sp64[22] = sp64[21] / sp64[16];
sp64[23] = sp64[14] / sp64[16];
sp64[24] = sp64[23] * sp64[22];
sp64[25] = sp64[23] * sp64[23];
sp64[26] = sp64[23] * sp64[18];
sp64[27] = sp64[18] * sp64[22];
sp64[28] = sp64[18] * sp64[18];
sp64[29] = sp64[22] * sp64[22];
sp64[30] = J_c2 * J_c7;
sp64[31] = -1 * J_c1;
sp64[32] = J_c8 * sp64[31];
sp64[33] = sp64[30] + sp64[32];
sp64[34] = sp64[33] / sp64[16];
sp64[35] = J_c0 * J_c8;
sp64[36] = -1 * J_c2;
sp64[37] = J_c6 * sp64[36];
sp64[38] = sp64[35] + sp64[37];
sp64[39] = sp64[38] / sp64[16];
sp64[40] = J_c1 * J_c6;
sp64[41] = J_c0 * J_c7;
sp64[42] = -1 * sp64[41];
sp64[43] = sp64[40] + sp64[42];
sp64[44] = sp64[43] / sp64[16];
sp64[45] = sp64[39] * sp64[44];
sp64[46] = sp64[44] * sp64[44];
sp64[47] = sp64[34] * sp64[44];
sp64[48] = sp64[34] * sp64[39];
sp64[49] = sp64[34] * sp64[34];
sp64[50] = sp64[39] * sp64[39];
sp64[51] = sp64[49] + sp64[28];
sp64[52] = sp64[48] + sp64[27];
sp64[53] = sp64[47] + sp64[26];
sp64[54] = sp64[50] + sp64[29];
sp64[55] = sp64[45] + sp64[24];
sp64[56] = sp64[25] + sp64[46];
sp64[57] = J_c1 * J_c5;
sp64[58] = J_c2 * J_c4;
sp64[59] = -1 * sp64[58];
sp64[60] = sp64[57] + sp64[59];
sp64[61] = sp64[60] / sp64[16];
sp64[62] = J_c2 * J_c3;
sp64[63] = J_c0 * J_c5;
sp64[64] = -1 * sp64[63];
sp64[65] = sp64[62] + sp64[64];
sp64[66] = sp64[65] / sp64[16];
sp64[67] = J_c0 * J_c4;
sp64[68] = J_c1 * J_c3;
sp64[69] = -1 * sp64[68];
sp64[70] = sp64[67] + sp64[69];
sp64[71] = sp64[70] / sp64[16];
sp64[72] = sp64[71] * sp64[66];
sp64[73] = sp64[71] * sp64[71];
sp64[74] = sp64[71] * sp64[61];
sp64[75] = sp64[61] * sp64[66];
sp64[76] = sp64[61] * sp64[61];
sp64[77] = sp64[66] * sp64[66];
sp64[78] = sp64[51] + sp64[76];
sp64[79] = sp64[52] + sp64[75];
sp64[80] = sp64[53] + sp64[74];
sp64[81] = sp64[54] + sp64[77];
sp64[82] = sp64[55] + sp64[72];
sp64[83] = sp64[56] + sp64[73];
for (int iq = 0; iq < 64; ++iq)
{
    // Quadrature loop body setup (num_points=64)
    // Section for geometrically varying computations
    double w_0 = 0.0;
    for (int ic = 0; ic < 10; ++ic)
    {
        w_0 += w0[0][ic] * FE1_C0_Q64[0][iq][ic - 0];
    }
    double sv64[14];
    sv64[0] = weights64[iq] * sp64[17];
    sv64[1] = sp64[78] * w_0;
    sv64[2] = sp64[79] * w_0;
    sv64[3] = sp64[80] * w_0;
    sv64[4] = sp64[81] * w_0;
    sv64[5] = sp64[82] * w_0;
    sv64[6] = sp64[83] * w_0;
    sv64[7] = sv64[0] * sv64[1];
    sv64[8] = sv64[0] * sv64[2];
    sv64[9] = sv64[0] * sv64[3];
    sv64[10] = sv64[0] * sv64[4];
    sv64[11] = sv64[0] * sv64[5];
    sv64[12] = sv64[0] * sv64[6];
    sv64[13] = sv64[0] * w_0;
    for (int ia0 = 0; ia0 < 10; ++ia0)
    {
        for (int ia1 = 0; ia1 < 10; ++ia1)
        {
            A[ia0][ia1] += sv64[13] * FE1_C0_Q64[0][iq][ia0 - 0] * FE1_C0_Q64[0][iq][ia1 - 0];
            A[ia0][ia1] += sv64[7] * FE1_C0_D100_Q64[0][iq][ia0 - 0] * FE1_C0_D100_Q64[0][iq][ia1 - 0];
            A[ia0][ia1] += sv64[8] * FE1_C0_D100_Q64[0][iq][ia0 - 0] * FE1_C0_D010_Q64[0][iq][ia1 - 0];
            A[ia0][ia1] += sv64[9] * FE1_C0_D100_Q64[0][iq][ia0 - 0] * FE1_C0_D001_Q64[0][iq][ia1 - 0];
            A[ia0][ia1] += sv64[8] * FE1_C0_D010_Q64[0][iq][ia0 - 0] * FE1_C0_D100_Q64[0][iq][ia1 - 0];
            A[ia0][ia1] += sv64[10] * FE1_C0_D010_Q64[0][iq][ia0 - 0] * FE1_C0_D010_Q64[0][iq][ia1 - 0];
            A[ia0][ia1] += sv64[11] * FE1_C0_D010_Q64[0][iq][ia0 - 0] * FE1_C0_D001_Q64[0][iq][ia1 - 0];
            A[ia0][ia1] += sv64[9] * FE1_C0_D001_Q64[0][iq][ia0 - 0] * FE1_C0_D100_Q64[0][iq][ia1 - 0];
            A[ia0][ia1] += sv64[11] * FE1_C0_D001_Q64[0][iq][ia0 - 0] * FE1_C0_D010_Q64[0][iq][ia1 - 0];
            A[ia0][ia1] += sv64[12] * FE1_C0_D001_Q64[0][iq][ia0 - 0] * FE1_C0_D001_Q64[0][iq][ia1 - 0];
        }
    }
}
}

            

        
        void wrap_form_cell_integral_0_otherwise(int start, int end,
                      Mat arg0_0_, int *arg0_0_map0_0, int *arg0_0_map1_0, double *arg1_0, int *arg1_0_map0_0, double *arg2_0, int *arg2_0_map0_0
                      ) {
  Mat arg0_0_0 = arg0_0_;
  double *arg1_0_vec[12];
    double *arg2_0_vec[10];
  for ( int n = start; n < end; n++ ) {
    int i = n;
    arg1_0_vec[0] = arg1_0 + (arg1_0_map0_0[i * 4 + 0])* 3;
    arg1_0_vec[1] = arg1_0 + (arg1_0_map0_0[i * 4 + 1])* 3;
    arg1_0_vec[2] = arg1_0 + (arg1_0_map0_0[i * 4 + 2])* 3;
    arg1_0_vec[3] = arg1_0 + (arg1_0_map0_0[i * 4 + 3])* 3;
    arg1_0_vec[4] = arg1_0 + (arg1_0_map0_0[i * 4 + 0])* 3 + 1;
    arg1_0_vec[5] = arg1_0 + (arg1_0_map0_0[i * 4 + 1])* 3 + 1;
    arg1_0_vec[6] = arg1_0 + (arg1_0_map0_0[i * 4 + 2])* 3 + 1;
    arg1_0_vec[7] = arg1_0 + (arg1_0_map0_0[i * 4 + 3])* 3 + 1;
    arg1_0_vec[8] = arg1_0 + (arg1_0_map0_0[i * 4 + 0])* 3 + 2;
    arg1_0_vec[9] = arg1_0 + (arg1_0_map0_0[i * 4 + 1])* 3 + 2;
    arg1_0_vec[10] = arg1_0 + (arg1_0_map0_0[i * 4 + 2])* 3 + 2;
    arg1_0_vec[11] = arg1_0 + (arg1_0_map0_0[i * 4 + 3])* 3 + 2;
    arg2_0_vec[0] = arg2_0 + (arg2_0_map0_0[i * 10 + 0])* 1;
    arg2_0_vec[1] = arg2_0 + (arg2_0_map0_0[i * 10 + 1])* 1;
    arg2_0_vec[2] = arg2_0 + (arg2_0_map0_0[i * 10 + 2])* 1;
    arg2_0_vec[3] = arg2_0 + (arg2_0_map0_0[i * 10 + 3])* 1;
    arg2_0_vec[4] = arg2_0 + (arg2_0_map0_0[i * 10 + 4])* 1;
    arg2_0_vec[5] = arg2_0 + (arg2_0_map0_0[i * 10 + 5])* 1;
    arg2_0_vec[6] = arg2_0 + (arg2_0_map0_0[i * 10 + 6])* 1;
    arg2_0_vec[7] = arg2_0 + (arg2_0_map0_0[i * 10 + 7])* 1;
    arg2_0_vec[8] = arg2_0 + (arg2_0_map0_0[i * 10 + 8])* 1;
    arg2_0_vec[9] = arg2_0 + (arg2_0_map0_0[i * 10 + 9])* 1;
    double buffer_arg0_0[10][10]  = {{0.0}};
    form_cell_integral_0_otherwise(buffer_arg0_0, arg1_0_vec, arg2_0_vec);
    MatSetValuesLocal(arg0_0_0, 10, arg0_0_map0_0 + i * 10,
                                             10, arg0_0_map1_0 + i * 10,
                                             (const PetscScalar *)buffer_arg0_0,
                                             ADD_VALUES);;
  }
}
        
        