
        #include <petsc.h>
        #include <stdbool.h>
        #include <math.h>
        
        


        
            #include <immintrin.h>

            
            // This code is generated visiting a COFFEE AST

#include "firedrake_geometry.h"


void form_cell_integral_0_otherwise(double A[35][35], double *coordinate_dofs)
{
// Section for quadrature weights and points
static const double weights125[125] = { 0.000937439821767, 0.00144688123847, 0.00102268701578, 0.000367520038007, 4.71653365059e-05, 0.00161927658527, 0.00249925473264, 0.00176652740822, 0.000634831781565, 8.14705363129e-05, 0.00141792453255, 0.00218848010942, 0.0015468651695, 0.000555892406099, 7.13399262171e-05, 0.000715891501944, 0.0011049349077, 0.000780991938625, 0.000280662785914, 3.60185932013e-05, 0.000152536470499, 0.00023543074683, 0.000166407554053, 5.98013953893e-05, 7.6745555218e-06, 0.00189377231486, 0.00292292216384, 0.0020659847302, 0.000742446882428, 9.52812185081e-05, 0.00327118722299, 0.00504887813656, 0.00356865648488, 0.00128245763046, 0.000164582987157, 0.00286442517371, 0.00442106570108, 0.0031249050497, 0.00112298797669, 0.000144117599954, 0.00144621070638, 0.002232138095, 0.00157772357985, 0.00056698190266, 7.27630862707e-05, 0.000308147081156, 0.000475606241661, 0.000336168798819, 0.000120807996789, 1.55037800172e-05, 0.00225090157446, 0.00347412941301, 0.00245558995954, 0.000882458172768, 0.000113249435042, 0.00388807060532, 0.00600100004509, 0.00424163688396, 0.00152430462571, 0.000195620192572, 0.0034046010087, 0.00525479418474, 0.0037142024103, 0.00133476204346, 0.000171295424533, 0.00171893840165, 0.00265307667296, 0.00187525208923, 0.000673903851785, 8.64848134933e-05, 0.000366257730508, 0.000565296487744, 0.000399563808495, 0.000143590075769, 1.84274965776e-05, 0.00189377231486, 0.00292292216384, 0.0020659847302, 0.000742446882428, 9.52812185081e-05, 0.00327118722299, 0.00504887813656, 0.00356865648488, 0.00128245763046, 0.000164582987157, 0.00286442517371, 0.00442106570108, 0.0031249050497, 0.00112298797669, 0.000144117599954, 0.00144621070638, 0.002232138095, 0.00157772357985, 0.00056698190266, 7.27630862707e-05, 0.000308147081156, 0.000475606241661, 0.000336168798819, 0.000120807996789, 1.55037800172e-05, 0.000937439821767, 0.00144688123847, 0.00102268701578, 0.000367520038007, 4.71653365059e-05, 0.00161927658527, 0.00249925473264, 0.00176652740822, 0.000634831781565, 8.14705363129e-05, 0.00141792453255, 0.00218848010942, 0.0015468651695, 0.000555892406099, 7.13399262171e-05, 0.000715891501944, 0.0011049349077, 0.000780991938625, 0.000280662785914, 3.60185932013e-05, 0.000152536470499, 0.00023543074683, 0.000166407554053, 5.98013953893e-05, 7.6745555218e-06 };
static const double points125[375] = { 0.043485068433, 0.0384332743963, 0.0345789399182, 0.0372285899889, 0.0329036302803, 0.173480320772, 0.0274810994988, 0.0242885357161, 0.389886387066, 0.0164705687744, 0.0145571321831, 0.634333472631, 0.00670890455016, 0.005929510491, 0.851054212947, 0.0363203493206, 0.191166323794, 0.0345789399182, 0.0310947054204, 0.163661986624, 0.173480320772, 0.0229532381914, 0.120810681788, 0.389886387066, 0.0137568327003, 0.0724068788863, 0.634333472631, 0.00560352704046, 0.0294932643722, 0.851054212947, 0.025452983471, 0.422830105598, 0.0345789399182, 0.0217908978825, 0.361994799676, 0.173480320772, 0.0160854287808, 0.267214393854, 0.389886387066, 0.00964066816216, 0.160152727938, 0.634333472631, 0.00392690279163, 0.0652345028217, 0.851054212947, 0.0137918067695, 0.67141585603, 0.0345789399182, 0.0118074902013, 0.574814908127, 0.173480320772, 0.00871595763232, 0.424312220483, 0.389886387066, 0.00522383682734, 0.254308005747, 0.634333472631, 0.00212780888993, 0.103586473562, 0.851054212947, 0.00446245462993, 0.870293213095, 0.0345789399182, 0.00382041237943, 0.745078491721, 0.173480320772, 0.00282012111543, 0.549996015737, 0.389886387066, 0.00169021617151, 0.329635544721, 0.634333472631, 0.000688470393412, 0.134269401146, 0.851054212947, 0.213916656126, 0.0384332743963, 0.0345789399182, 0.183139081291, 0.0329036302803, 0.173480320772, 0.135188126023, 0.0242885357161, 0.389886387066, 0.0810238806943, 0.0145571321831, 0.634333472631, 0.0330032003939, 0.005929510491, 0.851054212947, 0.178671161296, 0.191166323794, 0.0345789399182, 0.152964584085, 0.163661986624, 0.173480320772, 0.11291415969, 0.120810681788, 0.389886387066, 0.0676741639412, 0.0724068788863, 0.634333472631, 0.0275655026012, 0.0294932643722, 0.851054212947, 0.125211188777, 0.422830105598, 0.0345789399182, 0.107196244066, 0.361994799676, 0.173480320772, 0.0791292565731, 0.267214393854, 0.389886387066, 0.0474254628171, 0.160152727938, 0.634333472631, 0.0193176633816, 0.0652345028217, 0.851054212947, 0.0678462123293, 0.67141585603, 0.0345789399182, 0.058084738328, 0.574814908127, 0.173480320772, 0.0428765224208, 0.424312220483, 0.389886387066, 0.025697687655, 0.254308005747, 0.634333472631, 0.0104673576243, 0.103586473562, 0.851054212947, 0.0219522104241, 0.870293213095, 0.0345789399182, 0.018793803728, 0.745078491721, 0.173480320772, 0.0138730580547, 0.549996015737, 0.389886387066, 0.00831470213957, 0.329635544721, 0.634333472631, 0.00338680125632, 0.134269401146, 0.851054212947, 0.463493892843, 0.0384332743963, 0.0345789399182, 0.396808024474, 0.0329036302803, 0.173480320772, 0.292912538609, 0.0242885357161, 0.389886387066, 0.175554697593, 0.0145571321831, 0.634333472631, 0.071508138281, 0.005929510491, 0.851054212947, 0.387127368144, 0.191166323794, 0.0345789399182, 0.331428846302, 0.163661986624, 0.173480320772, 0.244651465573, 0.120810681788, 0.389886387066, 0.146629824241, 0.0724068788863, 0.634333472631, 0.0597262613404, 0.0294932643722, 0.851054212947, 0.271295477242, 0.422830105598, 0.0345789399182, 0.232262439776, 0.361994799676, 0.173480320772, 0.17144960954, 0.267214393854, 0.389886387066, 0.102756899715, 0.160152727938, 0.634333472631, 0.0418556421157, 0.0652345028217, 0.851054212947, 0.147002602026, 0.67141585603, 0.0345789399182, 0.125852385551, 0.574814908127, 0.173480320772, 0.0929006962259, 0.424312220483, 0.389886387066, 0.0556792608113, 0.254308005747, 0.634333472631, 0.0226796567455, 0.103586473562, 0.851054212947, 0.0475639234936, 0.870293213095, 0.0345789399182, 0.0407205937536, 0.745078491721, 0.173480320772, 0.0300587985988, 0.549996015737, 0.389886387066, 0.018015491324, 0.329635544721, 0.634333472631, 0.00733819295332, 0.134269401146, 0.851054212947, 0.71307112956, 0.0384332743963, 0.0345789399182, 0.610476967657, 0.0329036302803, 0.173480320772, 0.450636951195, 0.0242885357161, 0.389886387066, 0.270085514492, 0.0145571321831, 0.634333472631, 0.110013076168, 0.005929510491, 0.851054212947, 0.595583574991, 0.191166323794, 0.0345789399182, 0.50989310852, 0.163661986624, 0.173480320772, 0.376388771457, 0.120810681788, 0.389886387066, 0.225585484542, 0.0724068788863, 0.634333472631, 0.0918870200795, 0.0294932643722, 0.851054212947, 0.417379765707, 0.422830105598, 0.0345789399182, 0.357328635486, 0.361994799676, 0.173480320772, 0.263769962507, 0.267214393854, 0.389886387066, 0.158088336614, 0.160152727938, 0.634333472631, 0.0643936208497, 0.0652345028217, 0.851054212947, 0.226158991722, 0.67141585603, 0.0345789399182, 0.193620032773, 0.574814908127, 0.173480320772, 0.142924870031, 0.424312220483, 0.389886387066, 0.0856608339676, 0.254308005747, 0.634333472631, 0.0348919558668, 0.103586473562, 0.851054212947, 0.0731756365631, 0.870293213095, 0.0345789399182, 0.0626473837792, 0.745078491721, 0.173480320772, 0.0462445391428, 0.549996015737, 0.389886387066, 0.0277162805085, 0.329635544721, 0.634333472631, 0.0112895846503, 0.134269401146, 0.851054212947, 0.883502717252, 0.0384332743963, 0.0345789399182, 0.756387458959, 0.0329036302803, 0.173480320772, 0.55834397772, 0.0242885357161, 0.389886387066, 0.334638826412, 0.0145571321831, 0.634333472631, 0.136307372012, 0.005929510491, 0.851054212947, 0.737934386967, 0.191166323794, 0.0345789399182, 0.631762987184, 0.163661986624, 0.173480320772, 0.466349692955, 0.120810681788, 0.389886387066, 0.279502815782, 0.0724068788863, 0.634333472631, 0.11384899564, 0.0294932643722, 0.851054212947, 0.517137971013, 0.422830105598, 0.0345789399182, 0.44273398167, 0.361994799676, 0.173480320772, 0.326813790299, 0.267214393854, 0.389886387066, 0.195873131269, 0.160152727938, 0.634333472631, 0.0797843814397, 0.0652345028217, 0.851054212947, 0.280213397282, 0.67141585603, 0.0345789399182, 0.2398972809, 0.574814908127, 0.173480320772, 0.17708543482, 0.424312220483, 0.389886387066, 0.106134684795, 0.254308005747, 0.634333472631, 0.0432315046012, 0.103586473562, 0.851054212947, 0.0906653923572, 0.870293213095, 0.0345789399182, 0.0776207751277, 0.745078491721, 0.173480320772, 0.0572974760821, 0.549996015737, 0.389886387066, 0.0343407664766, 0.329635544721, 0.634333472631, 0.0139879155132, 0.134269401146, 0.851054212947 };
// Section for precomputed element basis function values
// Table dimensions: num_entities, num_points, num_dofs
// Definitions of 7 tables for 125 quadrature points
static const double FE0_C0_D001_Q125[1][125][4] =
    { { { -1.0, 1.66533453694e-16, 1.11022302463e-16, 1.0 },
        { -1.0, -5.55111512313e-17, 0.0, 1.0 },
        { -1.0, -1.66533453694e-16, -5.55111512313e-17, 1.0 },
        { -1.0, -3.33066907388e-16, -1.11022302463e-16, 1.0 },
        { -1.0, -4.4408920985e-16, -1.66533453694e-16, 1.0 },
        { -1.0, 1.11022302463e-16, 5.55111512313e-17, 1.0 },
        { -1.0, -5.55111512313e-17, 0.0, 1.0 },
        { -1.0, -1.66533453694e-16, -5.55111512313e-17, 1.0 },
        { -1.0, -3.33066907388e-16, -1.11022302463e-16, 1.0 },
        { -1.0, -4.4408920985e-16, -1.66533453694e-16, 1.0 },
        { -1.0, 1.66533453694e-16, 1.11022302463e-16, 1.0 },
        { -1.0, 5.55111512313e-17, 0.0, 1.0 },
        { -1.0, -1.66533453694e-16, -5.55111512313e-17, 1.0 },
        { -1.0, -3.33066907388e-16, -1.11022302463e-16, 1.0 },
        { -1.0, -4.4408920985e-16, -1.66533453694e-16, 1.0 },
        { -1.0, 1.11022302463e-16, 5.55111512313e-17, 1.0 },
        { -1.0, -5.55111512313e-17, 0.0, 1.0 },
        { -1.0, -1.66533453694e-16, -5.55111512313e-17, 1.0 },
        { -1.0, -3.33066907388e-16, -1.11022302463e-16, 1.0 },
        { -1.0, -4.4408920985e-16, -1.66533453694e-16, 1.0 },
        { -1.0, 1.11022302463e-16, 5.55111512313e-17, 1.0 },
        { -1.0, 5.55111512313e-17, 0.0, 1.0 },
        { -1.0, -1.66533453694e-16, -5.55111512313e-17, 1.0 },
        { -1.0, -3.33066907388e-16, -1.11022302463e-16, 1.0 },
        { -1.0, -4.4408920985e-16, -1.66533453694e-16, 1.0 },
        { -1.0, 1.66533453694e-16, 1.11022302463e-16, 1.0 },
        { -1.0, -5.55111512313e-17, 0.0, 1.0 },
        { -1.0, -1.66533453694e-16, -5.55111512313e-17, 1.0 },
        { -1.0, -3.33066907388e-16, -1.11022302463e-16, 1.0 },
        { -1.0, -4.4408920985e-16, -1.66533453694e-16, 1.0 },
        { -1.0, 1.11022302463e-16, 5.55111512313e-17, 1.0 },
        { -1.0, -5.55111512313e-17, 0.0, 1.0 },
        { -1.0, -1.66533453694e-16, -5.55111512313e-17, 1.0 },
        { -1.0, -3.33066907388e-16, -1.11022302463e-16, 1.0 },
        { -1.0, -4.4408920985e-16, -1.66533453694e-16, 1.0 },
        { -1.0, 1.66533453694e-16, 1.11022302463e-16, 1.0 },
        { -1.0, -5.55111512313e-17, 0.0, 1.0 },
        { -1.0, -1.66533453694e-16, -5.55111512313e-17, 1.0 },
        { -1.0, -3.33066907388e-16, -1.11022302463e-16, 1.0 },
        { -1.0, -4.4408920985e-16, -1.66533453694e-16, 1.0 },
        { -1.0, 1.11022302463e-16, 5.55111512313e-17, 1.0 },
        { -1.0, -5.55111512313e-17, 0.0, 1.0 },
        { -1.0, -1.66533453694e-16, -5.55111512313e-17, 1.0 },
        { -1.0, -3.33066907388e-16, -1.11022302463e-16, 1.0 },
        { -1.0, -4.4408920985e-16, -1.66533453694e-16, 1.0 },
        { -1.0, 1.11022302463e-16, 5.55111512313e-17, 1.0 },
        { -1.0, -5.55111512313e-17, 0.0, 1.0 },
        { -1.0, -1.66533453694e-16, -5.55111512313e-17, 1.0 },
        { -1.0, -3.33066907388e-16, -1.11022302463e-16, 1.0 },
        { -1.0, -4.4408920985e-16, -1.66533453694e-16, 1.0 },
        { -1.0, 1.66533453694e-16, 1.11022302463e-16, 1.0 },
        { -1.0, -5.55111512313e-17, 0.0, 1.0 },
        { -1.0, -1.66533453694e-16, -5.55111512313e-17, 1.0 },
        { -1.0, -3.33066907388e-16, -1.11022302463e-16, 1.0 },
        { -1.0, -4.4408920985e-16, -1.66533453694e-16, 1.0 },
        { -1.0, 1.11022302463e-16, 5.55111512313e-17, 1.0 },
        { -1.0, -5.55111512313e-17, 0.0, 1.0 },
        { -1.0, -1.66533453694e-16, -5.55111512313e-17, 1.0 },
        { -1.0, -3.33066907388e-16, -1.11022302463e-16, 1.0 },
        { -1.0, -4.4408920985e-16, -1.66533453694e-16, 1.0 },
        { -1.0, 1.66533453694e-16, 1.11022302463e-16, 1.0 },
        { -1.0, 5.55111512313e-17, 0.0, 1.0 },
        { -1.0, -1.66533453694e-16, -5.55111512313e-17, 1.0 },
        { -1.0, -3.33066907388e-16, -1.11022302463e-16, 1.0 },
        { -1.0, -4.4408920985e-16, -1.66533453694e-16, 1.0 },
        { -1.0, 1.66533453694e-16, 1.11022302463e-16, 1.0 },
        { -1.0, 5.55111512313e-17, 0.0, 1.0 },
        { -1.0, -1.66533453694e-16, -5.55111512313e-17, 1.0 },
        { -1.0, -3.33066907388e-16, -1.11022302463e-16, 1.0 },
        { -1.0, -4.4408920985e-16, -1.66533453694e-16, 1.0 },
        { -1.0, 1.11022302463e-16, 5.55111512313e-17, 1.0 },
        { -1.0, -5.55111512313e-17, 0.0, 1.0 },
        { -1.0, -1.66533453694e-16, -5.55111512313e-17, 1.0 },
        { -1.0, -3.33066907388e-16, -1.11022302463e-16, 1.0 },
        { -1.0, -4.4408920985e-16, -1.66533453694e-16, 1.0 },
        { -1.0, 1.66533453694e-16, 1.11022302463e-16, 1.0 },
        { -1.0, -5.55111512313e-17, 0.0, 1.0 },
        { -1.0, -1.66533453694e-16, -5.55111512313e-17, 1.0 },
        { -1.0, -3.33066907388e-16, -1.11022302463e-16, 1.0 },
        { -1.0, -4.4408920985e-16, -1.66533453694e-16, 1.0 },
        { -1.0, 1.11022302463e-16, 5.55111512313e-17, 1.0 },
        { -1.0, -5.55111512313e-17, 0.0, 1.0 },
        { -1.0, -1.66533453694e-16, -5.55111512313e-17, 1.0 },
        { -1.0, -3.33066907388e-16, -1.11022302463e-16, 1.0 },
        { -1.0, -4.4408920985e-16, -1.66533453694e-16, 1.0 },
        { -1.0, 1.66533453694e-16, 1.11022302463e-16, 1.0 },
        { -1.0, -5.55111512313e-17, 0.0, 1.0 },
        { -1.0, -1.66533453694e-16, -5.55111512313e-17, 1.0 },
        { -1.0, -3.33066907388e-16, -1.11022302463e-16, 1.0 },
        { -1.0, -4.4408920985e-16, -1.66533453694e-16, 1.0 },
        { -1.0, 1.11022302463e-16, 5.55111512313e-17, 1.0 },
        { -1.0, -5.55111512313e-17, 0.0, 1.0 },
        { -1.0, -1.66533453694e-16, -5.55111512313e-17, 1.0 },
        { -1.0, -3.33066907388e-16, -1.11022302463e-16, 1.0 },
        { -1.0, -4.4408920985e-16, -1.66533453694e-16, 1.0 },
        { -1.0, 1.11022302463e-16, 5.55111512313e-17, 1.0 },
        { -1.0, -5.55111512313e-17, 0.0, 1.0 },
        { -1.0, -1.66533453694e-16, -5.55111512313e-17, 1.0 },
        { -1.0, -3.33066907388e-16, -1.11022302463e-16, 1.0 },
        { -1.0, -4.4408920985e-16, -1.66533453694e-16, 1.0 },
        { -1.0, 1.66533453694e-16, 1.11022302463e-16, 1.0 },
        { -1.0, -5.55111512313e-17, 0.0, 1.0 },
        { -1.0, -1.66533453694e-16, -5.55111512313e-17, 1.0 },
        { -1.0, -3.33066907388e-16, -1.11022302463e-16, 1.0 },
        { -1.0, -4.4408920985e-16, -1.66533453694e-16, 1.0 },
        { -1.0, 1.11022302463e-16, 5.55111512313e-17, 1.0 },
        { -1.0, 5.55111512313e-17, 0.0, 1.0 },
        { -1.0, -1.66533453694e-16, -5.55111512313e-17, 1.0 },
        { -1.0, -3.33066907388e-16, -1.11022302463e-16, 1.0 },
        { -1.0, -4.4408920985e-16, -1.66533453694e-16, 1.0 },
        { -1.0, 1.66533453694e-16, 1.11022302463e-16, 1.0 },
        { -1.0, 5.55111512313e-17, 0.0, 1.0 },
        { -1.0, -1.66533453694e-16, -5.55111512313e-17, 1.0 },
        { -1.0, -3.33066907388e-16, -1.11022302463e-16, 1.0 },
        { -1.0, -4.4408920985e-16, -1.66533453694e-16, 1.0 },
        { -1.0, 1.11022302463e-16, 5.55111512313e-17, 1.0 },
        { -1.0, -5.55111512313e-17, 0.0, 1.0 },
        { -1.0, -1.66533453694e-16, -5.55111512313e-17, 1.0 },
        { -1.0, -3.33066907388e-16, -1.11022302463e-16, 1.0 },
        { -1.0, -4.4408920985e-16, -1.66533453694e-16, 1.0 },
        { -1.0, 1.11022302463e-16, 5.55111512313e-17, 1.0 },
        { -1.0, -5.55111512313e-17, 0.0, 1.0 },
        { -1.0, -1.66533453694e-16, -5.55111512313e-17, 1.0 },
        { -1.0, -3.33066907388e-16, -1.11022302463e-16, 1.0 },
        { -1.0, -4.4408920985e-16, -1.66533453694e-16, 1.0 } } };
static const double FE0_C0_D010_Q125[1][125][3] =
    { { { -1.0, -5.55111512313e-17, 1.0 },
        { -1.0, -1.11022302463e-16, 1.0 },
        { -1.0, -2.22044604925e-16, 1.0 },
        { -1.0, -3.33066907388e-16, 1.0 },
        { -1.0, -3.33066907388e-16, 1.0 },
        { -1.0, -5.55111512313e-17, 1.0 },
        { -1.0, -1.11022302463e-16, 1.0 },
        { -1.0, -2.22044604925e-16, 1.0 },
        { -1.0, -3.33066907388e-16, 1.0 },
        { -1.0, -3.33066907388e-16, 1.0 },
        { -1.0, -5.55111512313e-17, 1.0 },
        { -1.0, -1.11022302463e-16, 1.0 },
        { -1.0, -1.66533453694e-16, 1.0 },
        { -1.0, -3.33066907388e-16, 1.0 },
        { -1.0, -3.33066907388e-16, 1.0 },
        { -1.0, -5.55111512313e-17, 1.0 },
        { -1.0, -1.11022302463e-16, 1.0 },
        { -1.0, -1.66533453694e-16, 1.0 },
        { -1.0, -3.33066907388e-16, 1.0 },
        { -1.0, -3.33066907388e-16, 1.0 },
        { -1.0, -5.55111512313e-17, 1.0 },
        { -1.0, -1.11022302463e-16, 1.0 },
        { -1.0, -1.66533453694e-16, 1.0 },
        { -1.0, -3.33066907388e-16, 1.0 },
        { -1.0, -3.33066907388e-16, 1.0 },
        { -1.0, -5.55111512313e-17, 1.0 },
        { -1.0, -1.11022302463e-16, 1.0 },
        { -1.0, -2.22044604925e-16, 1.0 },
        { -1.0, -3.33066907388e-16, 1.0 },
        { -1.0, -3.33066907388e-16, 1.0 },
        { -1.0, -5.55111512313e-17, 1.0 },
        { -1.0, -1.11022302463e-16, 1.0 },
        { -1.0, -2.22044604925e-16, 1.0 },
        { -1.0, -3.33066907388e-16, 1.0 },
        { -1.0, -3.33066907388e-16, 1.0 },
        { -1.0, -5.55111512313e-17, 1.0 },
        { -1.0, -1.11022302463e-16, 1.0 },
        { -1.0, -1.66533453694e-16, 1.0 },
        { -1.0, -3.33066907388e-16, 1.0 },
        { -1.0, -3.33066907388e-16, 1.0 },
        { -1.0, -5.55111512313e-17, 1.0 },
        { -1.0, -1.11022302463e-16, 1.0 },
        { -1.0, -2.22044604925e-16, 1.0 },
        { -1.0, -3.33066907388e-16, 1.0 },
        { -1.0, -3.33066907388e-16, 1.0 },
        { -1.0, -5.55111512313e-17, 1.0 },
        { -1.0, -1.11022302463e-16, 1.0 },
        { -1.0, -1.66533453694e-16, 1.0 },
        { -1.0, -3.33066907388e-16, 1.0 },
        { -1.0, -3.33066907388e-16, 1.0 },
        { -1.0, -5.55111512313e-17, 1.0 },
        { -1.0, -1.11022302463e-16, 1.0 },
        { -1.0, -2.22044604925e-16, 1.0 },
        { -1.0, -3.33066907388e-16, 1.0 },
        { -1.0, -3.33066907388e-16, 1.0 },
        { -1.0, -5.55111512313e-17, 1.0 },
        { -1.0, -1.11022302463e-16, 1.0 },
        { -1.0, -2.22044604925e-16, 1.0 },
        { -1.0, -3.33066907388e-16, 1.0 },
        { -1.0, -3.33066907388e-16, 1.0 },
        { -1.0, -5.55111512313e-17, 1.0 },
        { -1.0, -1.11022302463e-16, 1.0 },
        { -1.0, -1.66533453694e-16, 1.0 },
        { -1.0, -3.33066907388e-16, 1.0 },
        { -1.0, -3.88578058619e-16, 1.0 },
        { -1.0, -5.55111512313e-17, 1.0 },
        { -1.0, -1.11022302463e-16, 1.0 },
        { -1.0, -1.66533453694e-16, 1.0 },
        { -1.0, -3.33066907388e-16, 1.0 },
        { -1.0, -3.33066907388e-16, 1.0 },
        { -1.0, -5.55111512313e-17, 1.0 },
        { -1.0, -1.11022302463e-16, 1.0 },
        { -1.0, -1.66533453694e-16, 1.0 },
        { -1.0, -3.33066907388e-16, 1.0 },
        { -1.0, -3.33066907388e-16, 1.0 },
        { -1.0, -5.55111512313e-17, 1.0 },
        { -1.0, -1.11022302463e-16, 1.0 },
        { -1.0, -2.22044604925e-16, 1.0 },
        { -1.0, -3.33066907388e-16, 1.0 },
        { -1.0, -3.33066907388e-16, 1.0 },
        { -1.0, -5.55111512313e-17, 1.0 },
        { -1.0, -1.11022302463e-16, 1.0 },
        { -1.0, -2.22044604925e-16, 1.0 },
        { -1.0, -3.33066907388e-16, 1.0 },
        { -1.0, -3.33066907388e-16, 1.0 },
        { -1.0, -5.55111512313e-17, 1.0 },
        { -1.0, -1.11022302463e-16, 1.0 },
        { -1.0, -1.66533453694e-16, 1.0 },
        { -1.0, -3.33066907388e-16, 1.0 },
        { -1.0, -3.33066907388e-16, 1.0 },
        { -1.0, -5.55111512313e-17, 1.0 },
        { -1.0, -1.11022302463e-16, 1.0 },
        { -1.0, -1.66533453694e-16, 1.0 },
        { -1.0, -3.33066907388e-16, 1.0 },
        { -1.0, -3.33066907388e-16, 1.0 },
        { -1.0, -5.55111512313e-17, 1.0 },
        { -1.0, -1.11022302463e-16, 1.0 },
        { -1.0, -2.22044604925e-16, 1.0 },
        { -1.0, -3.33066907388e-16, 1.0 },
        { -1.0, -3.33066907388e-16, 1.0 },
        { -1.0, -5.55111512313e-17, 1.0 },
        { -1.0, -1.11022302463e-16, 1.0 },
        { -1.0, -2.22044604925e-16, 1.0 },
        { -1.0, -3.33066907388e-16, 1.0 },
        { -1.0, -3.33066907388e-16, 1.0 },
        { -1.0, -5.55111512313e-17, 1.0 },
        { -1.0, -1.11022302463e-16, 1.0 },
        { -1.0, -2.22044604925e-16, 1.0 },
        { -1.0, -3.33066907388e-16, 1.0 },
        { -1.0, -3.33066907388e-16, 1.0 },
        { -1.0, -5.55111512313e-17, 1.0 },
        { -1.0, -1.11022302463e-16, 1.0 },
        { -1.0, -1.66533453694e-16, 1.0 },
        { -1.0, -3.33066907388e-16, 1.0 },
        { -1.0, -3.33066907388e-16, 1.0 },
        { -1.0, -5.55111512313e-17, 1.0 },
        { -1.0, -1.11022302463e-16, 1.0 },
        { -1.0, -1.66533453694e-16, 1.0 },
        { -1.0, -3.33066907388e-16, 1.0 },
        { -1.0, -3.33066907388e-16, 1.0 },
        { -1.0, -5.55111512313e-17, 1.0 },
        { -1.0, -1.11022302463e-16, 1.0 },
        { -1.0, -1.66533453694e-16, 1.0 },
        { -1.0, -3.33066907388e-16, 1.0 },
        { -1.0, -3.33066907388e-16, 1.0 } } };
static const double FE0_C0_D100_Q125[1][125][2] =
    { { { -1.0, 1.0 },
        { -1.0, 1.0 },
        { -1.0, 1.0 },
        { -1.0, 1.0 },
        { -1.0, 1.0 },
        { -1.0, 1.0 },
        { -1.0, 1.0 },
        { -1.0, 1.0 },
        { -1.0, 1.0 },
        { -1.0, 1.0 },
        { -1.0, 1.0 },
        { -1.0, 1.0 },
        { -1.0, 1.0 },
        { -1.0, 1.0 },
        { -1.0, 1.0 },
        { -1.0, 1.0 },
        { -1.0, 1.0 },
        { -1.0, 1.0 },
        { -1.0, 1.0 },
        { -1.0, 1.0 },
        { -1.0, 1.0 },
        { -1.0, 1.0 },
        { -1.0, 1.0 },
        { -1.0, 1.0 },
        { -1.0, 1.0 },
        { -1.0, 1.0 },
        { -1.0, 1.0 },
        { -1.0, 1.0 },
        { -1.0, 1.0 },
        { -1.0, 1.0 },
        { -1.0, 1.0 },
        { -1.0, 1.0 },
        { -1.0, 1.0 },
        { -1.0, 1.0 },
        { -1.0, 1.0 },
        { -1.0, 1.0 },
        { -1.0, 1.0 },
        { -1.0, 1.0 },
        { -1.0, 1.0 },
        { -1.0, 1.0 },
        { -1.0, 1.0 },
        { -1.0, 1.0 },
        { -1.0, 1.0 },
        { -1.0, 1.0 },
        { -1.0, 1.0 },
        { -1.0, 1.0 },
        { -1.0, 1.0 },
        { -1.0, 1.0 },
        { -1.0, 1.0 },
        { -1.0, 1.0 },
        { -1.0, 1.0 },
        { -1.0, 1.0 },
        { -1.0, 1.0 },
        { -1.0, 1.0 },
        { -1.0, 1.0 },
        { -1.0, 1.0 },
        { -1.0, 1.0 },
        { -1.0, 1.0 },
        { -1.0, 1.0 },
        { -1.0, 1.0 },
        { -1.0, 1.0 },
        { -1.0, 1.0 },
        { -1.0, 1.0 },
        { -1.0, 1.0 },
        { -1.0, 1.0 },
        { -1.0, 1.0 },
        { -1.0, 1.0 },
        { -1.0, 1.0 },
        { -1.0, 1.0 },
        { -1.0, 1.0 },
        { -1.0, 1.0 },
        { -1.0, 1.0 },
        { -1.0, 1.0 },
        { -1.0, 1.0 },
        { -1.0, 1.0 },
        { -1.0, 1.0 },
        { -1.0, 1.0 },
        { -1.0, 1.0 },
        { -1.0, 1.0 },
        { -1.0, 1.0 },
        { -1.0, 1.0 },
        { -1.0, 1.0 },
        { -1.0, 1.0 },
        { -1.0, 1.0 },
        { -1.0, 1.0 },
        { -1.0, 1.0 },
        { -1.0, 1.0 },
        { -1.0, 1.0 },
        { -1.0, 1.0 },
        { -1.0, 1.0 },
        { -1.0, 1.0 },
        { -1.0, 1.0 },
        { -1.0, 1.0 },
        { -1.0, 1.0 },
        { -1.0, 1.0 },
        { -1.0, 1.0 },
        { -1.0, 1.0 },
        { -1.0, 1.0 },
        { -1.0, 1.0 },
        { -1.0, 1.0 },
        { -1.0, 1.0 },
        { -1.0, 1.0 },
        { -1.0, 1.0 },
        { -1.0, 1.0 },
        { -1.0, 1.0 },
        { -1.0, 1.0 },
        { -1.0, 1.0 },
        { -1.0, 1.0 },
        { -1.0, 1.0 },
        { -1.0, 1.0 },
        { -1.0, 1.0 },
        { -1.0, 1.0 },
        { -1.0, 1.0 },
        { -1.0, 1.0 },
        { -1.0, 1.0 },
        { -1.0, 1.0 },
        { -1.0, 1.0 },
        { -1.0, 1.0 },
        { -1.0, 1.0 },
        { -1.0, 1.0 },
        { -1.0, 1.0 },
        { -1.0, 1.0 },
        { -1.0, 1.0 },
        { -1.0, 1.0 },
        { -1.0, 1.0 } } };
static const double FE1_C0_D001_Q125[1][125][35] =
    { { { -3.91506441255, -1.73472347598e-15, 7.6327832943e-17, -0.548471860461, 0.16013193774, 0.0941096839975, 0.125804835183, 0.17491832802, 0.10393723986, 0.142341030086, 7.00134394904e-15, -9.09688990802e-15, 4.64905891562e-16, 7.47417300198, -5.75471109893, 2.74407436996, -1.87181660874, 0.789444969648, -0.16013193774, -2.11785424489, 0.871884036598, -0.17491832802, -0.0441782971348, -0.0452589921544, -0.0386862918747, 2.49537070968, -0.883554653646, -0.749358936124, 2.82337031597, -0.975821276458, -0.847857101172, -0.324522378756, 0.0441782971348, 0.0452589921544, 0.363208670631 },
        { -1.09565223292, -1.60808866223e-15, 5.58580959265e-16, 0.322558902091, 0.142361181844, -0.0443273564643, -0.0630826168568, 0.156403005668, -0.0491547298758, -0.071374400283, 4.56926163572e-15, -7.10716208108e-15, 2.86402845884e-15, -1.04151089192, 3.44968111875, -1.635076896, -0.992246824524, 0.577300985531, -0.142361181844, -1.12267096011, 0.64017068159, -0.156403005668, -0.033361352248, -0.0340394814398, 0.0152028795436, 0.690538330191, -0.532973629067, 0.36479111119, 0.781304924329, -0.591015951714, 0.412740436068, -0.197995956527, 0.033361352248, 0.0340394814398, 0.182793076983 },
        { 0.348187214978, -7.88648660266e-16, 1.23599047663e-16, -0.0494805375503, 0.11127235614, -0.18587653196, -0.00393321022865, 0.123284622466, -0.20733404436, -0.00445020411714, 1.83642163976e-15, -2.82478034019e-15, 2.43143179202e-15, -3.2765443927, 2.81201637623, 0.16582133904, -0.230815471331, 0.304086882744, -0.11127235614, -0.261154604282, 0.339190550693, -0.123284622466, -0.0190113217874, -0.0192840844932, 0.045262135758, -0.515298835556, -0.118210350785, 0.750047517116, -0.58303138308, -0.131856506333, 0.848636191479, -0.0740471194717, 0.0190113217874, 0.0192840844932, 0.0287849837137 },
        { -0.131731940381, -1.11022302463e-16, -6.45317133063e-16, -0.120288131159, 0.0709885334671, -0.223446498022, 0.236415065346, 0.0793527253282, -0.250762393419, 0.267490227066, -5.89805981832e-16, -5.55111512313e-17, -2.91433543964e-16, 0.9100655873, -4.69541706322, 4.03737154746, 0.0254707467498, 0.0919693366492, -0.0709885334671, 0.0288187041789, 0.10321240737, -0.0793527253282, -0.00716697704685, -0.00722570007828, 0.0312627088447, -0.442794723182, 0.131477161373, 0.180908911086, -0.500997095402, 0.147549986048, 0.204688164157, -0.0128675571994, 0.00716697704684, 0.00722570007827, -0.0183951516453 },
        { -0.215404673718, 1.11022302463e-16, -1.30451205393e-15, 3.01633258106, 0.0305078599082, -0.134497166, 0.25838080744, 0.0343534072466, -0.151689963333, 0.292343217427, 2.10942374679e-15, 1.66533453694e-16, -1.80411241502e-15, 1.101861118, -2.18058535041, -1.72220367494, 0.00600147647558, 0.00209462249977, -0.0305078599082, 0.00679032997678, 0.0023623784771, -0.0343534072466, -0.00123881552221, -0.00124278412391, 0.0073940004035, -0.0263695418451, 0.1324025435, -0.23801274207, -0.0298356398119, 0.149327584856, -0.269297907592, -0.000115152163184, 0.0012388155222, 0.00124278412391, -0.00727884824029 },
        { -0.829950524372, -5.62050406216e-16, -3.1918911958e-16, -0.548471860461, 0.148200865724, 0.13017180848, 0.625750687009, 0.153539433318, 0.0898240733961, 0.118888531666, 1.46410661372e-15, 2.35228503342e-15, -1.98452365652e-15, 2.69376120717, -3.58291983889, 2.26758101656, -5.31587073544, 0.882391530901, -0.148200865724, -1.00998061909, 0.608887612158, -0.153539433318, -0.189904186965, -0.0522874378095, -0.16072038535, 7.77326488663, -1.01256333938, -3.0831448382, 1.4768694111, -0.698711685554, -0.585777323678, -1.08947020505, 0.189904186965, 0.0522874378095, 1.2501905904 },
        { 0.13362924606, -1.20042864538e-15, -2.30718222305e-16, 0.322558902091, 0.202775060451, -0.087685003635, -0.313771650978, 0.13618101416, -0.0422394414766, -0.0596145583816, -2.82759926584e-16, 9.64506252643e-16, -3.45209971719e-16, -1.41777099872, 2.35773055435, -1.39614770378, -2.61669896415, 0.91656807682, -0.202775060451, -0.497155662978, 0.441527308379, -0.13618101416, -0.142593753422, -0.0562401261877, 0.0631596501055, 1.36914462601, -0.828883073185, 1.56132598912, 0.260128510609, -0.399287866902, 0.29664171075, -0.66020546992, 0.142593753422, 0.0562401261877, 0.597045819814 },
        { 0.271974524305, -6.71121144769e-16, -4.53196508099e-16, -0.0494805375503, 0.252508935584, -0.529177720227, -0.0195637075406, 0.106073999194, -0.176696881674, -0.00371697628421, -7.6761513812e-16, 4.97648797171e-16, 2.59991680962e-16, -1.4410962639, 1.03788366863, 0.180718608519, -0.401653669027, 0.681932561047, -0.252508935584, -0.0763115661559, 0.227703004951, -0.106073999194, -0.0805887798969, -0.0458549130913, 0.188039420381, -2.55586048727, -0.15275484082, 2.97707786384, -0.485596750882, -0.0510061232772, 0.565625293322, -0.242319732325, 0.0805887798969, 0.0458549130913, 0.0542803119446 },
        { -0.28116525575, -2.63677968348e-16, -9.57567358739e-16, -0.120288131159, 0.234598587091, -0.838336075608, 1.17592371823, 0.0674248422317, -0.211879968779, 0.223417803789, -9.81853487403e-16, 5.23886489745e-16, -2.08166817117e-17, 1.54330425615, -4.2837861871, 3.14193531786, 0.18501792352, 0.254303499011, -0.234598587091, 0.0351521935426, 0.0642723354016, -0.0674248422317, -0.0301208698469, -0.0226430222212, 0.129879457791, -1.74023499269, 0.584032576597, 0.379293350938, -0.330633249518, 0.147607633377, 0.0720632521862, -0.039398042774, 0.0301208698469, 0.0226430222212, -0.0904814150165 },
        { -0.110590449237, -2.77555756156e-17, -1.55431223448e-15, 3.01633258106, 0.130556729942, -0.604398980662, 1.28518087186, 0.0288882001758, -0.127272749236, 0.24417594731, 2.24820162487e-15, -1.66533453694e-16, -1.22124532709e-15, 0.50552579991, -0.710431462489, -2.70083646925, 0.00866861249057, -0.00928257910799, -0.130556729942, 0.00164697959103, -0.00195470111777, -0.0288882001758, -0.00516998424315, -0.00466461866203, 0.0307180279253, 0.0131358313665, 0.61368155977, -1.30698531572, 0.00249572191578, 0.129227450354, -0.248318648817, 0.000471778631975, 0.00516998424314, 0.00466461866203, -0.0311898065573 },
        { 0.351269833852, -1.04083408559e-16, 9.57567358739e-16, -0.548471860461, -0.240614567807, -0.845794508112, 1.38406296577, 0.115721471347, 0.0661493450532, 0.0833160442556, -1.7694179455e-15, 5.19029264012e-15, -2.87964097012e-15, -0.122632227522, -1.22500697107, 1.5448412252, -2.73476295229, -3.66804085248, 0.240614567807, -0.164623746748, 0.286876419382, -0.115721471347, -0.309329867719, 0.23808605667, -0.249123190202, 6.0090724459, 4.51383536059, -4.65837245939, 0.361726423016, -0.353025764435, -0.280418720523, -1.08039722438, 0.309329867719, -0.23808605667, 1.32952041459 },
        { 0.212521007226, -5.08273978461e-16, -3.57353036051e-16, 0.322558902091, -0.238717553888, 0.251579727991, -0.694013975284, 0.101464621771, -0.0308591203429, -0.0417773616581, -2.93515212135e-15, 2.6281060661e-15, -1.13277442981e-15, -0.570729999276, 1.06939266615, -1.03374257619, -0.755870828043, -1.64882219032, 0.238717553888, -0.0455009410107, 0.202246829669, -0.101464621771, -0.230420114985, 0.1130798657, 0.097900048535, -1.15427355439, 1.39724246233, 2.60415835772, -0.0694834764882, -0.171387709326, 0.156761779157, -0.641624719713, 0.230420114985, -0.1130798657, 0.543724671178 },
        { -0.155846978214, -3.99203239909e-16, -1.38626089774e-15, -0.0494805375503, -0.0456873976477, 0.155962860819, -0.0432718711179, 0.0776868178577, -0.127573223016, -0.00260482450455, -2.33276939432e-15, 1.37693675906e-15, -1.41813644161e-16, 0.559737939435, -0.557725043987, 0.203314620317, 0.510759148871, -0.118826250139, 0.0456873976477, 0.0307460230522, 0.0971965224894, -0.0776868178577, -0.128694425704, 0.0094709642045, 0.291468815154, -4.52392149735, -0.0371366106802, 4.0564342196, -0.272325214245, 0.0303767005265, 0.244184015697, -0.222066626345, 0.128694425704, -0.0094709642045, -0.0694021888092 },
        { -0.351861076103, -3.15719672628e-16, -1.67921232475e-15, -0.120288131159, 0.208646805263, -0.938104942551, 2.60095993942, 0.0484809679336, -0.151070723962, 0.156569244881, -1.61329283266e-15, 8.98586760556e-16, 2.56739074445e-16, 1.59125079272, -2.90284924104, 1.78374765558, 0.367016044623, 0.130536158155, -0.208646805263, 0.0220931603348, 0.0210213069149, -0.0484809679336, -0.0475020587773, -0.0177564580739, 0.20131848736, -2.06054084815, 0.807568784396, -0.907435135889, -0.124037790722, 0.130049417047, -0.054624614494, -0.0280132218834, 0.0475020587773, 0.0177564580739, -0.173305265476 },
        { 0.113706179008, -1.94289029309e-16, -1.88737914186e-15, 3.01633258106, 0.223584667453, -1.12015275459, 2.84261973017, 0.0204526071409, -0.0898035087809, 0.171116370496, 2.63677968348e-15, -1.38777878078e-16, -5.55111512313e-17, -0.643244607528, 1.6984215982, -4.18521575075, -0.0679693291427, -0.0697584268194, -0.223584667453, -0.00409153035297, -0.00559258678761, -0.0204526071409, -0.00806866366519, -0.0060584056956, 0.0476142033682, 0.529235205079, 1.18991118141, -3.30388560611, 0.0318582209469, 0.0953960955685, -0.19888306109, 0.00296521336722, 0.00806866366518, 0.0060584056956, -0.0505794167354 },
        { -0.279619972267, -1.44328993201e-15, 5.10008701937e-15, -0.548471860461, 2.06938917139, -3.27477924619, 2.19776645196, 0.0675813883534, 0.0377047170027, 0.0451451510382, 5.62050406216e-15, -1.04083408559e-14, 2.87964097012e-15, 0.00877783912417, 0.0500053613744, 0.76930863223, 1.71199088502, -5.62136311708, -2.06938917139, 0.0351666515844, 0.0647225017519, -0.0675813883534, -0.27997398858, 0.499497822027, -0.214349421978, -0.194917354143, 8.89614236327, -3.71483998284, -0.0040038710141, -0.102427218755, -0.0763079316086, -0.367944170977, 0.27997398858, -0.499497822027, 0.582293592955 },
        { -0.345126591512, -4.6143644461e-16, 1.48492329544e-15, 0.322558902091, 0.595992561109, 1.15861575975, -1.10203124409, 0.0585821789577, -0.0174526407331, -0.0226372401485, 2.34881558647e-15, -8.43075609325e-15, 3.56832619008e-15, 0.487244377027, 0.180188741289, -0.644865428895, 1.52533019402, -2.74589355607, -0.595992561109, 0.0313323838075, 0.0413623699852, -0.0585821789577, -0.20693010937, 0.282183451195, 0.0842347065243, -3.11142796852, 1.58727779632, 2.68812901859, -0.0639130174445, -0.0239097292521, 0.0552178737855, -0.199634379125, 0.20693010937, -0.282183451195, 0.115399672601 },
        { -0.328948361799, -2.41993924899e-16, -1.45803508156e-15, -0.0494805375503, -0.238851434766, 2.50774275599, -0.0687118064773, 0.0440823850284, -0.0713039058656, -0.00141143517718, -4.14815751193e-16, -3.49221519758e-15, 1.29041742569e-15, 0.952271969318, -0.801404236317, 0.227561166349, 0.842747860251, -0.49310526414, 0.238851434766, 0.0173112021999, 0.0140207089631, -0.0440823850284, -0.114219227957, 0.0825160547361, 0.250784248556, -2.90715170124, -2.01463749185, 2.13311564747, -0.0597169014598, 0.0572831969024, 0.043817134437, -0.0493124874277, 0.114219227957, -0.0825160547361, -0.201471761129 },
        { -0.0669532541119, -5.51642065361e-16, -2.33146835171e-15, -0.120288131159, -0.0114846040427, 0.0714247113744, 4.13008847076, 0.0269933141563, -0.083362535185, 0.084837707686, -1.43635103811e-15, 3.1918911958e-16, 1.04083408559e-16, 0.267646958739, -0.406756234892, 0.326350661424, 0.00443039260075, 0.00264551569039, 0.0114846040427, 9.10063682791e-05, -0.00308768338827, -0.0269933141563, -0.0416225542126, 0.000732547648469, 0.173217520874, 0.282048392729, -0.0740702270649, -4.41656725609, 0.00579366259708, 0.0864502185733, -0.0907223766514, 0.00641584208748, 0.0416225542126, -0.00073254764847, -0.179633362961 },
        { 0.452200771204, -6.38378239159e-16, -2.24820162487e-15, 3.01633258106, 0.256520117043, -1.40949412114, 4.51382229939, 0.0112038428605, -0.0490161779787, 0.0927201292402, 2.83106871279e-15, -2.77555756156e-16, 5.27355936697e-16, -2.21363191463, 4.52312064107, -5.77802207871, -0.290637157918, -0.158737751953, -0.256520117043, -0.00597008766778, -0.00552022018749, -0.0112038428605, -0.00699315964807, -0.0041307302785, 0.0409679924283, 1.72686019268, 1.56823187309, -5.95004533415, 0.035472087651, 0.0545363981661, -0.122222129223, 0.0046138305386, 0.00699315964805, 0.0041307302785, -0.0455818229669 },
        { 0.033012162105, -2.20656826144e-15, 9.34669008856e-15, -0.548471860461, 8.52897994492, -6.24801682097, 2.84875790456, 0.023166317476, 0.0126815193154, 0.0146070918507, 1.98036032018e-14, -3.3577307601e-14, 1.44537160018e-14, 0.232143630362, 0.134460829171, 0.148855238823, -0.507324838908, 2.37249160649, -8.52897994492, -0.00260132337262, -0.00481541567434, -0.023166317476, -0.122058292415, 0.308351744222, -0.0898977806045, -1.34474934028, 3.87552521449, -0.996683725368, -0.00689524269451, -0.00786610364108, -0.0051105257836, 0.034135908407, 0.122058292415, -0.308351744222, 0.0557618721976 },
        { 0.130807568542, -1.22124532709e-15, 5.06365782638e-15, 0.322558902091, 3.85718083067, 2.2890302935, -1.42845943202, 0.0199108542033, -0.0058363017506, -0.00732446870797, 1.34059430223e-14, -2.45029690982e-14, 8.71004657288e-15, 0.0439188834527, -0.163535341675, -0.333750012411, -0.847006548759, 2.237041325, -3.85718083067, -0.00434305155805, -0.00570374635858, -0.0199108542033, -0.0896962486294, 0.180383288126, 0.0353278917038, 0.291690929599, -4.5260716185, 1.98377505118, 0.00149565401605, 0.0115400481092, 0.01017186625, 0.034525516718, 0.0896962486294, -0.180383288126, -0.0698534084217 },
        { 0.309195127467, -5.03286648468e-16, -5.78096598369e-16, -0.0494805375503, 0.351964726601, 5.59428567034, -0.0890646509158, 0.0147871042457, -0.0236347212658, -0.000456681676774, 3.57461456268e-15, -1.00004639986e-14, 1.4903443063e-15, -0.60494889831, 0.0982750511065, 0.246959257287, -1.14757711589, 1.42984795706, -0.351964726601, -0.00588423618262, -0.00604081734632, -0.0147871042457, -0.0490738790816, 0.0595597354756, 0.105178484494, 2.93926435865, -7.0241336274, -1.70262259185, 0.0150711664167, 0.0296755386121, -0.00873024855729, 0.0268826531291, 0.0490738790816, -0.0595597354756, -0.132061137623 },
        { 0.551213360385, -8.95117313604e-16, -2.53963516883e-15, -0.120288131159, -0.190813322931, 1.71140650613, 5.35344516115, 0.00892327368835, -0.0273620273317, 0.0274499511039, -1.20736753928e-15, -1.26981758442e-15, -1.56125112838e-15, -1.93757851002, 2.34627155318, -0.839618272384, -1.08333837487, 0.304623219227, 0.190813322931, -0.00555485010565, -0.00487032672863, -0.00892327368835, -0.0177084312515, 0.00567927911307, 0.0726471317005, 4.54044617264, -2.01602972536, -8.81055295893, 0.023281274334, 0.0322323540603, -0.0451763753322, 0.0129308864065, 0.0177084312515, -0.00567927911307, -0.085578018107 },
        { 0.804118896846, -1.08246744901e-15, -2.60902410787e-15, 3.01633258106, 0.242479632068, -1.44412328885, 5.8508432248, 0.00365668829414, -0.0159516881784, 0.0300003746377, 2.80331313718e-15, -3.33066907388e-16, 6.38378239159e-16, -3.72992602965, 6.96179780125, -7.05232324951, -0.599264672199, -0.220803259168, -0.242479632068, -0.00307274763353, -0.00243897786721, -0.00365668829413, -0.00294994999105, -0.00136936899625, 0.0171819058859, 3.19072713016, 1.66492654802, -8.44230568276, 0.016360549342, 0.0183906660456, -0.0432881763462, 0.00262707543575, 0.00294994999104, 0.00136936899625, -0.0198089813216 },
        { -0.521687403097, -1.92901250529e-15, 6.93889390391e-18, -0.548471860461, 0.16013193774, 0.0941096839975, 0.125804835183, 0.0942177365505, 0.0893369131739, 0.700220059039, 3.12250225676e-15, -3.09474668114e-15, 1.04083408559e-16, 2.14498323319, -3.26101931064, 2.18619534101, -0.952414850806, 0.612060819911, -0.16013193774, -5.30106797635, 0.581020167139, -0.0942177365505, -0.0379724601175, -0.222643141891, -0.190309972916, 1.42434527071, -0.706170503909, -0.597735255083, 7.92779648009, -0.670357080313, -3.32694856277, -1.23771829967, 0.0379724601175, 0.222643141891, 1.42802827259 },
        { 0.227822122109, -1.28716481917e-15, 4.5276282723e-16, 0.322558902091, 0.142361181844, -0.0443273564643, -0.0630826168568, 0.165542977778, -0.0759851675325, -0.351113004801, 2.11289319374e-15, -4.05231403988e-15, 2.25340579529e-15, -1.38554004645, 2.19049731373, -1.35533829148, -0.459536042098, 0.443889608361, -0.142361181844, -2.55774234797, 0.760907686529, -0.165542977778, -0.0515711905259, -0.167450858611, 0.0747877207659, 0.217412388987, -0.399562251896, 0.305206269968, 1.21010067403, -0.684922518996, 1.69875467874, -0.748916577231, 0.0515711905259, 0.167450858611, 0.674128856465 },
        { 0.233660659979, -4.43438688547e-16, -2.81892564846e-18, -0.0494805375503, 0.11127235614, -0.18587653196, -0.00393321022864, 0.24159226966, -0.526253458437, -0.0218919463191, 3.32633226519e-16, -2.78553222155e-15, 2.2043998571e-15, -1.1596834022, 0.79224019853, 0.183263081242, -0.0603812309324, 0.228506522501, -0.11127235614, -0.336077298036, 0.646947446639, -0.24159226966, -0.0482543707231, -0.0948644447367, 0.222658606261, -0.508336605452, -0.0426299905411, 0.572651046613, -2.8293625389, -0.120693988202, 3.18733178326, -0.273724408806, 0.0482543707231, 0.0948644447367, 0.0510658025449 },
        { -0.300443531489, -5.55111512313e-17, -8.04911692853e-16, -0.120288131159, 0.0709885334671, -0.223446498022, 0.236415065346, 0.244746425046, -0.892587005597, 1.31586811249, -2.40085729075e-15, -4.57966997658e-16, -2.98372437868e-16, 1.60558408502, -4.17384608441, 2.98899366204, 0.0380673067509, 0.0636495574489, -0.0709885334671, 0.211879708293, 0.254256694081, -0.244746425046, -0.0255108052456, -0.0355454792786, 0.153791045489, -0.332862946539, 0.159796940573, 0.0583805744414, -1.85268961831, 0.638330311517, 0.324941797527, -0.0438079453993, 0.0255108052456, 0.0355454792786, -0.10998310009 },
        { -0.0893966126997, -2.77555756156e-17, -1.4155343564e-15, 3.01633258106, 0.0305078599082, -0.134497166, 0.25838080744, 0.14269606736, -0.665561825897, 1.43812774744, 6.93889390391e-16, -2.22044604925e-16, -2.08166817117e-15, 0.391005852211, -0.449953615614, -2.86798820496, 0.000938850790692, -0.00277623729261, -0.0305078599082, 0.00522557145859, -0.0137382639096, -0.14269606736, -0.00543548368523, -0.0061136439163, 0.0363734012319, 0.00767248466818, 0.137273403292, -0.266992142898, 0.0427044609175, 0.679300089806, -1.48605777982, 0.000750805358684, 0.00543548368521, 0.0061136439163, -0.0371242065906 },
        { 0.277338954208, -4.09394740331e-16, -6.24500451352e-16, -0.548471860461, 0.148200865724, 0.13017180848, 0.625750687009, 0.174726200447, 0.147502430832, 0.584849882088, -6.93889390391e-18, 1.83186799063e-15, -1.17961196366e-15, 0.403007417973, -1.93349417786, 1.80161966614, -2.41254161518, 0.67746070376, -0.148200865724, -2.25485118668, 0.767655468298, -0.174726200447, -0.311846570118, -0.257218264951, -0.790633857649, 4.24002229407, -0.80763251224, -2.4532313659, 3.96288264674, -0.91515789913, -2.29288134215, -4.11474170846, 0.311846570118, 0.257218264951, 4.90537556611 },
        { 0.344916854125, -4.31946145518e-16, -4.38885039422e-16, 0.322558902091, 0.202775060451, -0.087685003635, -0.313771650978, 0.219777725637, -0.0921078438862, -0.293262663368, -1.04430353254e-15, 4.23272528138e-16, -2.51534904017e-16, -0.981305811114, 1.47632965369, -1.16249959879, -0.978538307451, 0.696145427308, -0.202775060451, -0.914578322664, 0.731259071477, -0.219777725637, -0.310941686732, -0.276662775699, 0.310702078656, -0.0214736021366, -0.608460423673, 1.31378356057, -0.0200700277895, -0.63915122759, 1.22791101382, -2.46671405993, 0.310941686732, 0.276662775699, 2.15601198127 },
        { 0.00462912390555, -1.23382207229e-16, -5.776629175e-16, -0.0494805375503, 0.252508935584, -0.529177720227, -0.0195637075406, 0.255644824744, -0.52482028749, -0.0182849692152, -1.5154977967e-15, -1.43982048506e-16, 3.33283747822e-16, -0.00839368703838, -0.142041500767, 0.19528660145, 0.0751417201234, 0.502212810722, -0.252508935584, 0.0702302483502, 0.498077416394, -0.255644824744, -0.239362609194, -0.225574663416, 0.92502473785, -2.29567055895, 0.0269649095055, 2.24009254637, -2.14561914767, 0.0267428710959, 2.09367386853, -0.877888950773, 0.239362609194, 0.225574663416, -0.047135787077 },
        { -0.355728007295, -7.97972798949e-17, -1.03736463863e-15, -0.120288131159, 0.234598587091, -0.838336075608, 1.17592371823, 0.227599350182, -0.804420816857, 1.09906207412, -2.32106001086e-15, 2.42861286637e-17, -1.56125112838e-16, 1.70764278622, -3.49791769529, 2.26629104752, 0.18756059892, 0.165558410953, -0.234598587091, 0.175301116627, 0.158860671813, -0.227599350182, -0.114356514523, -0.11138811028, 0.638917686257, -1.23373943962, 0.672777664656, -0.129744877528, -1.1530987992, 0.645560145044, -0.121264391553, -0.12617636285, 0.114356514523, 0.11138811028, -0.512741323407 },
        { 0.0244967094928, -1.38777878078e-16, -1.58206781009e-15, 3.01633258106, 0.130556729942, -0.604398980662, 1.28518087186, 0.123594281096, -0.569832319486, 1.20117787639, 1.36002320517e-15, -2.49800180541e-16, -1.33226762955e-15, -0.200881776082, 0.81789088385, -3.65783839832, -0.0157286628922, -0.0275646789919, -0.130556729942, -0.014700593749, -0.0259882055867, -0.123594281096, -0.0231473283217, -0.022946718546, 0.151111589641, 0.157926668465, 0.631963659654, -1.42737887743, 0.147604142269, 0.595820525073, -1.33408142491, 0.00689170993613, 0.0231473283217, 0.022946718546, -0.158003299577 },
        { 0.138018271957, 5.20417042793e-16, 7.21644966006e-16, -0.548471860461, -0.240614567807, -0.845794508112, 1.38406296577, 0.249858494273, 0.18084160396, 0.409857687501, -1.62370117351e-15, 1.949829187e-15, -2.06085148946e-15, -0.278060020524, -0.529785972931, 1.21829958196, -0.388741346822, -2.73490711007, 0.240614567807, -0.115116604797, 0.58475786225, -0.249858494273, -0.845657797306, 1.17121979908, -1.22551491194, 2.6866591187, 3.58070161819, -3.68198073765, 0.795590894867, -0.76559946621, -1.09033197757, -3.96274675944, 0.845657797306, -1.17121979908, 5.18826167138 },
        { -0.05866909823, 1.7694179455e-16, -6.59194920871e-16, 0.322558902091, -0.238717553888, 0.251579727991, -0.694013975284, 0.256556809242, -0.0949936670947, -0.205515912236, -2.19615992059e-15, 3.67761376907e-16, -6.57460197395e-16, -0.0266385355702, 0.632752757325, -0.870004025616, 0.431562547338, -1.20562681909, 0.238717553888, 0.127797095969, 0.455231085616, -0.256556809242, -0.709302515805, 0.556275236935, 0.481600967224, -1.95800601108, 0.954047091094, 2.22045743903, -0.57981741847, -0.360237418522, 0.657536234737, -2.30794049591, 0.709302515805, -0.556275236935, 1.82633952869 },
        { -0.312050993906, 4.20670442924e-17, -1.34245912997e-15, -0.0494805375503, -0.0456873976477, 0.155962860819, -0.0432718711179, 0.242796401915, -0.458431449799, -0.0128139466692, -2.2666330618e-15, -9.08561420543e-17, -2.33320307519e-16, 0.993625865616, -0.845618076642, 0.213523742481, 0.706086338356, -0.0817065783867, 0.0456873976477, 0.20909085856, 0.240165286731, -0.242796401915, -0.462460465934, 0.0465906359566, 1.4338262891, -3.57689121289, -0.0742562824323, 2.91407674565, -1.05921218703, 0.218266163068, 0.862935275135, -0.751159856059, 0.462460465934, -0.0465906359566, -0.682666433042 },
        { -0.28758974597, -3.3653635434e-16, -1.71390679427e-15, -0.120288131159, 0.208646805263, -0.938104942551, 2.60095993942, 0.185513391032, -0.626337797936, 0.77021309898, -2.10942374679e-15, 2.28983498829e-16, -4.16333634234e-17, 1.21761257614, -1.97983850049, 1.17010380148, 0.253898795356, 0.0609430437741, -0.208646805263, 0.0751861553249, 0.0406894048902, -0.185513391032, -0.196943088056, -0.0873495724552, 0.990348622736, -1.15839346351, 0.877161898777, -1.69646527127, -0.343030973236, 0.585648393045, -0.502368281069, -0.0643370018954, 0.196943088056, 0.0873495724552, -0.926011620841 },
        { 0.243201617828, -2.49800180541e-16, -1.94289029309e-15, 3.01633258106, 0.223584667453, -1.12015275459, 2.84261973017, 0.0913936062795, -0.414140740073, 0.841774961013, 1.69309011255e-15, -4.4408920985e-16, -3.88578058619e-16, -1.26116525514, 2.85750539751, -4.85587434126, -0.113697118091, -0.0935032141405, -0.223584667453, -0.0336687268199, -0.0345698300028, -0.0913936062795, -0.0372097080288, -0.0298031930168, 0.234229162691, 0.76157795335, 1.21365596873, -3.49050056543, 0.225523394911, 0.448710570075, -1.0336296291, 0.0195519579516, 0.0372097080288, 0.0298031930168, -0.253781120642 },
        { -0.355448866217, -7.84095011142e-16, 4.85722573274e-15, -0.548471860461, 2.06938917139, -3.27477924619, 2.19776645196, 0.227871941296, 0.143035348175, 0.222083121825, 5.39845945724e-15, -1.19071419391e-14, 2.44249065418e-15, 0.152692579483, 0.158857485753, 0.592370661443, 1.74159383138, -3.66367488237, -2.06938917139, 0.175987123053, 0.160021477175, -0.227871941296, -1.06209992064, 2.45718605674, -1.05445186691, -1.06462274544, 6.93845412856, -2.8747375379, -0.107579557719, -0.30305682535, -0.290490687159, -1.1796730494, 1.06209992064, -2.45718605674, 2.23412491631 },
        { -0.350000903258, -4.97865637605e-16, 1.3721662695e-15, 0.322558902091, 0.595992561109, 1.15861575975, -1.10203124409, 0.210183812278, -0.0691746553516, -0.111359666455, 3.36189409644e-15, -9.88098491916e-15, 3.39832328944e-15, 0.534729681272, 0.048855322484, -0.556143002589, 1.29896269217, -1.63992832845, -0.595992561109, 0.131259483715, 0.0979112151435, -0.210183812278, -0.820180694511, 1.38814867882, 0.414376874608, -2.55491829858, 0.481312568697, 2.35798685051, -0.258173124469, -0.028736559792, 0.238273307209, -0.586517462416, 0.820180694511, -1.38814867882, 0.172140587807 },
        { -0.240280158441, -2.94902990916e-16, -1.39319979164e-15, -0.0494805375503, -0.238851434766, 2.50774275599, -0.0687118064773, 0.173209267466, -0.30110536419, -0.00694329121053, -3.33934269126e-17, -4.1108609572e-15, 8.14018991102e-16, 0.700681796818, -0.644014123208, 0.233093022382, 0.508808052057, -0.169699030102, 0.238851434766, 0.0514147809061, 0.0203758093367, -0.173209267466, -0.482330130642, 0.405922288774, 1.23368617765, -1.59030996395, -2.33804372589, 1.15021371837, -0.160699969348, 0.280729554853, 0.116228479652, -0.0834835819179, 0.482330130642, -0.405922288774, -1.15020259574 },
        { 0.0690358991124, -6.66133814775e-16, -2.35228503342e-15, -0.120288131159, -0.0114846040427, 0.0714247113744, 4.13008847076, 0.116646511161, -0.375785470913, 0.417343225975, -1.80758186197e-15, -2.22044604925e-16, -8.32667268469e-17, -0.252430828963, 0.309837917874, -0.00615485686431, -0.20097341293, 0.00551659910562, 0.0114846040427, -0.0203082556417, -0.0290243775978, -0.116646511161, -0.187628064582, 0.0036036310637, 0.852111177076, 1.16634585446, -0.0769413104801, -5.0954609123, 0.117858623356, 0.404809848511, -0.514893593689, 0.0658141372487, 0.187628064582, -0.0036036310637, -0.917925314324 },
        { 0.544876401739, -7.77156117238e-16, -2.1371793224e-15, 3.01633258106, 0.256520117043, -1.40949412114, 4.51382229939, 0.0523687416908, -0.233013341134, 0.456119323651, 2.24820162487e-15, -3.60822483003e-16, 3.88578058619e-16, -2.62215742265, 5.20236971296, -6.14142127312, -0.337286008154, -0.174927376232, -0.256520117043, -0.0340825703167, -0.0289184692439, -0.0523687416908, -0.0332441157568, -0.0203203545579, 0.20153437178, 1.93407542227, 1.58442149737, -6.1106117135, 0.19543728463, 0.261931810378, -0.617474037964, 0.0250117246658, 0.0332441157568, 0.0203203545579, -0.226546096445 },
        { 0.167063521205, -1.97064586871e-15, 9.11076769583e-15, -0.548471860461, 8.52897994492, -6.24801682097, 2.84875790456, 0.102109030668, 0.0579406933676, 0.0718568547096, 1.8700319071e-14, -3.2564229091e-14, 1.24969479209e-14, 0.189458794008, 0.100344069283, 0.0916054759638, -1.16226861242, 3.58101856135, -8.52897994492, -0.0293169758942, -0.0332084090604, -0.102109030668, -0.557673092466, 1.51687869909, -0.442235307728, -1.04214309389, 2.66699825962, -0.644346198244, -0.0262869388671, -0.0247322843073, -0.0162529399482, 0.253464881871, 0.557673092466, -1.51687869909, 0.188770425856 },
        { 0.259066517433, -1.24379673228e-15, 4.8017145815e-15, 0.322558902091, 3.85718083067, 2.2890302935, -1.42845943202, 0.0892142197849, -0.0269643285524, -0.0360313530682, 1.38760530843e-14, -2.49002207742e-14, 8.37697966549e-15, -0.097800781797, -0.178781509676, -0.305043128051, -1.36070830722, 2.9440198649, -3.85718083067, -0.0343224038019, -0.0346799774241, -0.0892142197849, -0.414406112176, 0.887361828032, 0.173788951784, 0.943853748142, -5.23305015841, 1.8453139911, 0.0238076958168, 0.0616443059765, 0.0465460610533, 0.223517411633, 0.414406112176, -0.887361828032, -0.397306363417 },
        { 0.420177926137, -8.83191089707e-16, -4.58183838092e-16, -0.0494805375503, 0.351964726601, 5.59428567034, -0.0890646509158, 0.0679447886884, -0.111067591874, -0.00224656004302, 4.45086675849e-15, -1.07270962946e-14, 1.02738997865e-15, -0.849769013876, 0.230322489637, 0.248749135653, -1.45606944849, 1.66328119393, -0.351964726601, -0.0367277860432, -0.0330223817132, -0.0679447886884, -0.230614844669, 0.292992972341, 0.517405870798, 3.65998407756, -7.25756686427, -2.11484997815, 0.0923191625656, 0.144089973587, -0.0533448164794, 0.153834020148, 0.230614844669, -0.292992972341, -0.671239890946 },
        { 0.629459344019, -1.08246744901e-15, -2.58820742616e-15, -0.120288131159, -0.190813322931, 1.71140650613, 5.35344516115, 0.0421573075017, -0.131011408639, 0.135034897323, -1.2490009027e-15, -9.99200722163e-16, -1.91166527053e-15, -2.19613120559, 2.63416321134, -0.947203218603, -1.20574748261, 0.32688209086, 0.190813322931, -0.0304136836393, -0.0250234430154, -0.0421573075017, -0.0847892773045, 0.0279381507457, 0.357373968824, 4.9475821175, -2.03828859699, -9.09527979605, 0.124797438495, 0.156034851654, -0.229418652179, 0.0682591480922, 0.0847892773045, -0.0279381507457, -0.425633116916 },
        { 0.840475858234, -1.19348975147e-15, -2.60902410787e-15, 3.01633258106, 0.242479632068, -1.44412328885, 5.8508432248, 0.0176975440222, -0.0776220392167, 0.147581228598, 2.63677968348e-15, -2.49800180541e-16, 4.99600361081e-16, -3.8817310051, 7.19482666928, -7.16990410347, -0.621279841938, -0.226170244678, -0.242479632068, -0.015671115915, -0.0121567152455, -0.0176975440222, -0.014354664618, -0.00673635450597, 0.084523170491, 3.2800835645, 1.67029353353, -8.50964694736, 0.0827365806525, 0.0897787544622, -0.214646693335, 0.0132375305478, 0.014354664618, 0.00673635450597, -0.0977607010388 },
        { 0.265411188983, -2.78249645547e-15, -4.16333634234e-17, -0.548471860461, 0.16013193774, 0.0941096839975, 0.125804835183, -0.154128769608, -1.14527303695, 1.5171690082, -1.85268467234e-15, 9.99200722163e-16, -3.26128013484e-16, -0.263658514287, -0.822527206088, 1.36924639185, -0.121738455307, 0.352302364755, -0.16013193774, -1.46812967267, -4.28736323478, 0.154128769608, 0.486795806729, -0.482401597048, -0.412345217952, 0.371633630171, -0.446412048753, -0.375700010047, 4.48179138167, 5.43263627173, -4.5308307172, -1.54362642833, -0.486795806729, 0.482401597048, 1.95597164628 },
        { 0.0722508900338, -1.86482773668e-15, 4.33680868994e-16, 0.322558902091, 0.142361181844, -0.0443273564643, -0.0630826168568, -0.2564867192, 0.361497830343, -0.760757653802, -1.09287578987e-15, -2.08166817117e-15, 1.37737043993e-15, -0.27245829383, 0.823342144183, -0.945693642477, -0.00302929337629, 0.24852416401, -0.142361181844, -0.0365323798607, -2.02676074649, 0.2564867192, 0.24534885016, -0.362816302961, 0.162042790227, -0.151839290274, -0.204196807546, 0.217951200507, -1.83113681675, 1.66526291614, 2.62842685041, -0.908503285266, -0.24534885016, 0.362816302961, 0.746460495039 },
        { -0.250024480748, -7.53520509877e-16, -2.34187669257e-17, -0.0494805375503, 0.11127235614, -0.18587653196, -0.00393321022864, -0.111061795213, 0.426178738355, -0.0474333490674, -1.75076966813e-15, -2.88853142794e-15, 1.87154979014e-15, 0.836735037073, -0.746034502765, 0.20880448399, 0.0590443728642, 0.117827875924, -0.11127235614, 0.712057628686, -0.270156404227, 0.111061795213, 0.0390781029657, -0.205543091313, 0.482435103746, -0.367985711764, 0.0680486560353, 0.312874549128, -4.43779856738, -0.156022334127, 3.77317428776, -0.305817538914, -0.0390781029657, 0.205543091313, -0.176617564832 },
        { -0.326316523466, -2.28983498829e-16, -8.50014503229e-16, -0.120288131159, 0.0709885334671, -0.223446498022, 0.236415065346, 0.180917242149, -0.852043840848, 2.85109558541, -3.95170007828e-15, -1.14144804719e-15, -4.89192020225e-16, 1.42248386053, -2.42964539503, 1.45376618912, 0.0284923469401, 0.0221785347768, -0.0709885334671, 0.343609255441, 0.0845709560135, -0.180917242149, -0.0243520512267, -0.0770165019507, 0.333219542831, -0.143859489386, 0.201267963245, -0.121047922901, -1.73490278424, 0.767472884835, -1.4598020566, -0.0330742315696, 0.0243520512267, 0.0770165019507, -0.300145311262 },
        { 0.181056739515, -8.32667268469e-17, -1.44328993201e-15, 3.01633258106, 0.0305078599082, -0.134497166, 0.25838080744, 0.233348591309, -1.18618631723, 3.11599592169, -7.21644966006e-16, -3.60822483003e-16, -2.58126853225e-15, -0.967769287159, 2.31623634578, -4.5458563792, -0.00836849280922, -0.00990904491284, -0.0305078599082, -0.100921541823, -0.0873919788946, -0.233348591309, -0.00968729894665, -0.0132464515365, 0.0788103630558, 0.0594167900919, 0.144406210913, -0.309429104722, 0.716548870021, 1.27357829612, -3.73162324988, 0.00580633369717, 0.00968729894664, 0.0132464515365, -0.0846166967529 },
        { 0.0403484598239, -1.38083988688e-15, -5.27355936697e-16, -0.548471860461, 0.148200865724, 0.13017180848, 0.625750687009, -0.255655642511, -0.614409015673, 1.26719608228, -2.28983498829e-15, 6.24500451352e-16, -1.80411241502e-16, -0.246673225696, -0.364476839607, 1.11927346594, 0.0496584223026, 0.377363343591, -0.148200865724, 0.100562347754, -1.78114941471, 0.255655642511, 1.29897075666, -0.55731562512, -1.71306887052, 0.855387243715, -0.507535152071, -1.53079635303, 1.73222880386, 2.39555843038, -3.09998723389, -4.96612441917, -1.29897075666, 0.55731562512, 6.67919328969 },
        { -0.141707900792, -5.41233724505e-16, -3.74700270811e-16, 0.322558902091, 0.202775060451, -0.087685003635, -0.313771650978, -0.194106715449, 0.167472707325, -0.635413136741, -3.27168847569e-15, -8.86443696224e-16, -1.12757025938e-16, 0.12127054463, 0.518227579488, -0.820349125417, 0.297528092471, 0.373362095181, -0.202775060451, 0.602518608411, -0.713097545766, 0.194106715449, 0.565361687997, -0.599446107826, 0.673199172794, -0.935042907921, -0.285677091546, 0.951286466427, -1.89353800848, 0.545624838441, 1.92643253681, -2.86647708512, -0.565361687997, 0.599446107826, 2.19327791233 },
        { -0.340000475246, 1.47017814589e-16, -5.25404372786e-16, -0.0494805375503, 0.252508935584, -0.529177720227, -0.0195637075406, 0.0142562302771, -0.0443661993959, -0.0396181004114, -3.26258117744e-15, -1.50769154106e-15, 1.66533453694e-16, 1.05252562599, -0.879664345835, 0.216619732646, 0.321719448888, 0.239034140166, -0.252508935584, 0.651508074523, 0.0200405949072, -0.0142562302771, -0.0202347536872, -0.488753333972, 2.0042540141, -1.46301901147, 0.290143580061, 1.16086327012, -2.96273259962, 0.0243256044886, 2.35084262551, -0.90533882403, 0.0202347536872, 0.488753333972, -1.09891519007 },
        { -0.253066434216, -1.35308431126e-16, -1.06512021425e-15, -0.120288131159, 0.234598587091, -0.838336075608, 1.17592371823, 0.228526293676, -0.988165657971, 2.38134125897, -3.83373888191e-15, -7.49400541622e-16, -5.16947595841e-16, 1.05248508814, -1.66314238545, 0.984011862681, 0.094051925702, 0.035601551724, -0.234598587091, 0.190462806122, 0.0419643527312, -0.228526293676, -0.14047769283, -0.241344969508, 1.38434496394, -0.394803488722, 0.802734523884, -0.875172155207, -0.799509204811, 0.946201305239, -1.77229486028, -0.058788867939, 0.14047769283, 0.241344969508, -1.325556096 },
        { 0.286151259937, -1.11022302463e-16, -1.63757896132e-15, 3.01633258106, 0.130556729942, -0.604398980662, 1.28518087186, 0.213479254918, -1.05614415851, 2.60259588948, -2.77555756156e-17, -4.99600361081e-16, -1.85962356625e-15, -1.4609338015, 3.21770637191, -5.05925641141, -0.0580267463459, -0.0543366878208, -0.130556729942, -0.11750888519, -0.0949494907683, -0.213479254918, -0.0429019463377, -0.0497187273748, 0.327413957402, 0.37652711968, 0.658735668483, -1.60368124519, 0.762498069658, 1.15109364928, -3.24758507394, 0.0294351753738, 0.0429019463377, 0.0497187273748, -0.356849132776 },
        { -0.298095456943, 8.32667268469e-17, 7.91033905045e-16, -0.548471860461, -0.240614567807, -0.845794508112, 1.38406296577, -0.0563758884308, -0.0668666391048, 0.888039942901, -1.47798440153e-15, -2.62290189568e-15, -4.99600361081e-16, 0.0338273914383, 0.0726225994074, 0.740117326558, 1.10300264966, -1.36844128017, 0.240614567807, 0.707706538105, -0.108185934455, 0.0563758884308, 0.312684103107, 2.53768562898, -2.6553270211, -0.234896986945, 2.21423578828, -2.25216862849, -0.150714174162, 0.17505257356, -1.44503230684, -4.29614885551, -0.312684103107, -2.53768562898, 6.9514758766 },
        { -0.351711370935, 1.57859836314e-16, -4.64905891562e-16, 0.322558902091, -0.238717553888, 0.251579727991, -0.694013975284, 0.047062054583, -0.0255651485782, -0.445291974588, -2.27422247701e-15, -3.08954251071e-15, -1.28369537222e-16, 0.502689931703, 0.156690500405, -0.630227963264, 0.950741394593, -0.556618747423, 0.238717553888, 0.610012950745, 0.0565627488864, -0.0470620545831, -0.190890874708, 1.2052833086, 1.04348633313, -1.91529949243, 0.305039019432, 1.65857207312, -1.2288909493, -0.0309976003082, 1.06416997314, -2.30870770207, 0.190890874708, -1.2052833086, 1.26522136894 },
        { -0.318665364582, 1.78025996722e-16, -1.27935856353e-15, -0.0494805375503, -0.0456873976477, 0.155962860819, -0.0432718711179, 0.188788506658, -0.456619504042, -0.0277640186227, -2.59449579876e-15, -1.96739326219e-15, -4.30428262477e-16, 0.920560689204, -0.780888601506, 0.228473814435, 0.501530873314, -0.0273491366169, 0.0456873976477, 0.321791319553, 0.080071301157, -0.188788506658, -0.46063259553, 0.100948077727, 3.10667593834, -1.69948609861, -0.128613724202, 1.24122709641, -1.09042115517, 0.376548202885, 0.796393854242, -0.544776520614, 0.46063259553, -0.100948077727, -2.56189941773 },
        { -0.0465638134288, -3.22658566532e-16, -1.62370117351e-15, -0.120288131159, 0.208646805263, -0.938104942551, 2.60095993942, 0.256443103111, -0.986411515867, 1.66882314837, -3.05311331772e-15, -8.08381139805e-16, -4.30211422042e-16, 0.187655189846, -0.292296997345, 0.271493752087, -0.017367161649, -0.0409679776333, -0.208646805263, -0.0111430864206, -0.043077573826, -0.256443103111, -0.310163190964, -0.189260593863, 2.1457914813, 0.268315352068, 0.979072920184, -2.85190812983, 0.172156004331, 1.02948908969, -1.82983606628, 0.0937088522024, 0.310163190964, 0.189260593863, -2.23950033351 },
        { 0.467079593215, -4.16333634234e-16, -1.94289029309e-15, 3.01633258106, 0.223584667453, -1.12015275459, 2.84261973017, 0.17029806347, -0.80965065472, 1.82387646032, 9.71445146547e-16, -5.82867087928e-16, -7.77156117238e-16, -2.2797293743, 4.63429304059, -5.83797584057, -0.187798050196, -0.128274693338, -0.223584667453, -0.120494640704, -0.092717434314, -0.17029806347, -0.072745474068, -0.0645746722143, 0.507505064819, 1.10895478758, 1.24842744793, -3.76377646756, 0.711525537926, 0.902368089034, -2.41490735754, 0.0581171240177, 0.072745474068, 0.0645746722143, -0.565622188837 },
        { -0.254308288138, -4.4408920985e-16, 4.60048665829e-15, -0.548471860461, 2.06938917139, -3.27477924619, 2.19776645196, 0.228040242601, 0.175239029486, 0.481188199805, 4.91273688397e-15, -1.45439216226e-14, 2.24126273096e-15, 0.273296580869, 0.196217984268, 0.333265583462, 0.878737843625, -0.796868167785, -2.06938917139, 0.192394547063, 0.0426417763924, -0.228040242601, -1.30122631703, 5.32399277132, -2.28468418244, -1.43199907321, 4.07164741398, -1.64450522238, -0.313527879883, -0.217880805878, -0.360054866985, -0.555943458034, 1.30122631703, -5.32399277132, 2.84062764047 },
        { -0.170621242371, -6.97358837343e-16, 1.34094124693e-15, 0.322558902091, 0.595992561109, 1.15861575975, -1.10203124409, 0.249420144412, -0.0969561328821, -0.241283340184, 4.05925293379e-15, -1.2314801956e-14, 3.17801340799e-15, 0.369789465754, -0.0955077966141, -0.42621932886, 0.39883532657, -0.0203708910472, -0.595992561109, 0.0873226782761, 0.00170469182961, -0.249420144412, -1.14957635857, 3.00770611622, 0.897831679846, -1.17133612775, -1.1382448687, 1.87453204527, -0.25645724193, 0.0952514410525, 0.410417903838, -0.0157857608745, 1.14957635857, -3.00770611622, -0.882045918971 },
        { 0.017512931679, -7.28367019476e-16, -1.41011334553e-15, -0.0494805375503, -0.238851434766, 2.50774275599, -0.0687118064773, 0.253502533294, -0.494837767102, -0.015044050943, 8.51749226705e-16, -5.68208674556e-15, 1.24032728532e-16, 0.061523329039, -0.270749505282, 0.241193782115, -0.208930409335, 0.303891783204, 0.238851434766, -0.0457440996348, -0.0599651344151, -0.253502533294, -0.792663277505, 0.87951310208, 2.67303172826, 0.566774048049, -2.81163453919, -0.289131832236, 0.124091885939, 0.554802901517, -0.0633037353609, 0.32392173261, 0.792663277505, -0.87951310208, -2.99695346087 },
        { 0.324814547442, -8.63892291036e-16, -2.30024332915e-15, -0.120288131159, -0.0114846040427, 0.0714247113744, 4.13008847076, 0.205115233004, -0.70538269791, 0.904258882698, -1.65839564303e-15, -1.11369247158e-15, -7.35522753814e-16, -1.16928475758, 1.45782885488, -0.493070513588, -0.551005008853, 0.00972096682207, 0.0114846040427, -0.120639346395, -0.0960032133318, -0.205115233004, -0.352194538221, 0.00780799878015, 1.84627197223, 2.51053824554, -0.0811456781965, -6.08962170745, 0.549667767398, 0.801385911242, -1.3332873037, 0.251279259534, 0.352194538221, -0.00780799878015, -2.09755123176 },
        { 0.691556907282, -7.77156117238e-16, -2.19269047363e-15, 3.01633258106, 0.256520117043, -1.40949412114, 4.51382229939, 0.104996165708, -0.479130480395, 0.98827517571, 2.02615701994e-15, -3.88578058619e-16, 1.38777878078e-16, -3.25468864109, 6.22037627793, -6.67357712518, -0.408925654937, -0.198635197921, -0.256520117043, -0.0895318970664, -0.0675222240205, -0.104996165707, -0.0683577561497, -0.0440281762467, 0.436665158336, 2.2408458556, 1.60812931906, -6.34574250006, 0.490620185023, 0.546652704415, -1.38936346367, 0.0615377310557, 0.0683577561497, 0.0440281762467, -0.498202889392 },
        { 0.406396323403, -1.60982338571e-15, 9.16627884706e-15, -0.548471860461, 8.52897994492, -6.24801682097, 2.84875790456, 0.18587095308, 0.111441037676, 0.155692473508, 1.82215353917e-14, -3.16482950957e-14, 1.14422360475e-14, 0.0966980890803, 0.0376075908124, 0.00776985716513, -2.24432959815, 5.35076571901, -8.52897994492, -0.122658800155, -0.0954374645862, -0.18587095308, -1.07260829127, 3.28662585675, -0.958192634663, -0.476039435097, 0.897251101962, -0.128388871309, -0.0260168675686, -0.0160035730894, -0.00701680578507, 0.820590668795, 1.07260829127, -3.28662585675, 0.137601965868 },
        { 0.479475710399, -1.58206781009e-15, 4.50160742016e-15, 0.322558902091, 3.85718083067, 2.2890302935, -1.42845943202, 0.166996082658, -0.0528829959156, -0.0780692462216, 1.42004463743e-14, -2.53269627493e-14, 7.93462517912e-15, -0.342942498627, -0.196086878965, -0.263005234898, -2.19012892831, 3.9793077056, -3.85718083067, -0.119696584116, -0.0919331272019, -0.166996082658, -0.812741793109, 1.92264966873, 0.376549069411, 1.97603448686, -6.2683379991, 1.64255387347, 0.107995732633, 0.144816123118, 0.0897700977053, 0.654602351788, 0.812741793109, -1.92264966873, -1.0311514212 },
        { 0.601348339582, -1.26634813746e-15, -4.87674137184e-16, -0.0494805375503, 0.351964726601, 5.59428567034, -0.0890646509158, 0.132559375468, -0.224154685317, -0.00486762872375, 4.97475324823e-15, -1.14053731737e-14, 1.0811664064e-15, -1.24187678681, 0.438638780449, 0.251370204334, -1.93885818592, 2.00511701793, -0.351964726601, -0.105963945291, -0.080342049131, -0.132559375468, -0.465422875064, 0.634828796344, 1.12106493052, 4.74643187471, -7.59940268827, -2.71850903787, 0.259405587863, 0.304496734448, -0.148574013848, 0.401814727179, 0.465422875064, -0.634828796344, -1.5228796577 },
        { 0.751102099432, -1.18308141062e-15, -2.68882138776e-15, -0.120288131159, -0.190813322931, 1.71140650613, 5.35344516115, 0.0859462417195, -0.272469116537, 0.292580537503, -8.43075609325e-16, -1.39124822773e-15, -2.1233015346e-15, -2.59213692379, 3.0660718143, -1.10474885878, -1.39168346171, 0.359477619363, 0.190813322931, -0.0760593380533, -0.0572316097969, -0.0859462417195, -0.176339295326, 0.0605336792492, 0.774323304276, 5.55046743206, -2.0708841255, -9.5122291315, 0.303348347798, 0.329700726334, -0.519869547248, 0.162645109179, 0.176339295326, -0.0605336792492, -0.936968413455 },
        { 0.894941065715, -1.08246744901e-15, -2.72004641033e-15, 3.01633258106, 0.242479632068, -1.44412328885, 5.8508432248, 0.0374307186009, -0.165489168503, 0.319764713007, 2.60902410787e-15, -3.60822483003e-16, 4.16333634234e-16, -4.10769832777, 7.53851226888, -7.34208758788, -0.653970083532, -0.234029570705, -0.242479632068, -0.0357412680602, -0.0268185960022, -0.0374307186009, -0.030603956502, -0.0145956805332, 0.183136619821, 3.41138725542, 1.67815285956, -8.60826039669, 0.186441718702, 0.192307764505, -0.470465163649, 0.0296784802572, 0.030603956502, 0.0145956805332, -0.212815100079 },
        { -0.358607821435, -4.37150315946e-15, -2.42861286637e-16, -0.548471860461, 0.16013193774, 0.0941096839974, 0.125804835183, 3.00188383353, -3.82173106742, 2.33411795735, -2.80331313718e-15, 1.99840144433e-15, -2.8449465006e-16, 0.180665421084, 0.174116818116, 0.552297442696, 0.0960835580405, 0.0925439095993, -0.16013193774, 1.78268472672, -3.75814602061, -3.00188383353, 1.62441845573, -0.742160052204, -0.634380462987, -0.068223628213, -0.186653593597, -0.153664765011, -1.26578597314, 7.57987708803, -2.85101671094, -0.623825792677, -1.62441845573, 0.742160052204, 1.25820625566 },
        { -0.33820230029, -2.10421957636e-15, 2.81025203108e-16, 0.322558902091, 0.142361181844, -0.0443273564643, -0.0630826168568, 1.03730689506, 1.36559607159, -1.1704023028, -2.95423407959e-15, -1.96023752785e-15, 7.99707522425e-16, 0.528890173671, 0.022802218006, -0.536048993477, 0.0689152622259, 0.0531587196594, -0.142361181844, 1.27861819351, -1.63766451528, -1.03730689506, 0.926831083966, -0.558181747312, 0.249297859688, -0.136528776415, -0.00883136319504, 0.130696131046, -2.53308442605, 0.272068443685, 2.42486853534, -0.298965607063, -0.926831083966, 0.558181747312, 0.0496677473745 },
        { -0.210934841859, -6.36426675249e-16, -1.21430643318e-17, -0.0494805375503, 0.11127235614, -0.18587653196, -0.00393321022864, -0.19042694928, 3.06554241378, -0.0729747518157, -2.37331855557e-15, -3.08455518072e-15, 1.18893610235e-15, 0.623447218094, -0.597377725423, 0.234345886739, 0.0237882056443, 0.00714922934811, -0.11127235614, 0.44135408537, -0.117907653868, 0.19042694928, 0.281092347671, -0.316221737889, 0.74221160123, -0.0729530470591, 0.178727302612, 0.0530980516435, -1.35353316855, -2.94763475992, 0.985153834992, -0.0285471269884, -0.281092347671, 0.316221737889, -0.713664474242 },
        { 0.104068596358, -4.68375338514e-16, -8.22258927613e-16, -0.120288131159, 0.0709885334671, -0.223446498022, 0.236415065346, -0.0532156415554, 0.353668549223, 4.38632305833, -4.40272818203e-15, -1.64798730218e-15, -1.13103970634e-15, -0.382043701076, 0.479724519675, -0.0814612837979, -0.014384022144, -0.0192924878954, -0.0709885334671, -0.266873720206, 0.0305359281317, 0.0532156415554, 0.0101081120655, -0.118487524623, 0.512648040174, 0.0784453770405, 0.242738985917, -0.300476420243, 1.45543502326, -0.384204477355, -5.57488436138, 0.0442623008067, -0.0101081120654, 0.118487524623, -0.55691034098 },
        { 0.566701442077, -2.49800180541e-16, -1.47104550763e-15, 3.01633258106, 0.0305078599082, -0.134497166, 0.25838080744, 0.256253932645, -1.43123450566, 4.79386409593, -1.69309011255e-15, -4.99600361081e-16, -3.13638004457e-15, -2.71731207978, 5.35800261009, -6.22372455345, -0.0199264019317, -0.0170418525331, -0.0305078599082, -0.369704173185, -0.181348708758, -0.256253932645, -0.0116885486855, -0.0203792591568, 0.12124732488, 0.113411661038, 0.151539018533, -0.351866066546, 2.10418140302, 1.61258321442, -6.52834132576, 0.0153629930807, 0.0116885486855, 0.0203792591568, -0.13661031796 },
        { -0.331549563816, -3.14331893847e-15, -1.94289029309e-16, -0.548471860461, 0.148200865724, 0.13017180848, 0.625750687009, 0.839397729331, -2.38218436138, 1.94954228248, -1.04777297949e-15, -2.14411821631e-15, 1.32532873565e-15, 0.244417559089, 0.198676599443, 0.436927265744, 0.385281933554, 0.077265983421, -0.148200865724, 1.2003557259, -1.41399139738, -0.839397729331, 5.03636460966, -0.85741298529, -2.6355038834, -0.402671280411, -0.207437791901, -0.608361340153, -1.25453268114, 3.79617575875, -1.89536532724, -1.56435407742, -5.03636460966, 0.85741298529, 4.19985796081 },
        { -0.273076553347, -7.66747776382e-16, -4.68375338514e-17, 0.322558902091, 0.202775060451, -0.087685003635, -0.313771650978, 0.0559365135452, 0.822336108243, -0.977563610114, -3.92741394961e-15, -2.82066037194e-15, 4.59701721134e-16, 0.473307948305, -0.0445916450049, -0.478198652044, 0.239181364932, 0.0505787630546, -0.202775060451, 0.74517566468, -0.474342720486, -0.0559365135452, 2.77607819019, -0.922229439953, 1.03569626693, -0.514199086244, 0.0371062405804, 0.58878937229, -1.60200041495, -0.347993387757, 1.83438836038, -0.597413855392, -2.77607819019, 0.922229439953, -0.438282411539 },
        { -0.105516595845, 3.55401472141e-16, -3.24393290008e-16, -0.0494805375503, 0.252508935584, -0.529177720227, -0.0195637075406, -0.250894874376, 1.61292718121, -0.0609512316076, -4.33355608342e-15, -2.63005763002e-15, -1.19045398539e-16, 0.357492167946, -0.440447898393, 0.237952863843, 0.0315585446908, -0.0241445303903, -0.252508935584, 0.0983214537763, 0.0735922315992, 0.250894874376, 0.735631734781, -0.751932004528, 3.08348329035, -0.0936288310214, 0.553322250617, 0.0816339938712, -0.291703019629, -1.68651941281, 0.25433279746, 0.140688568634, -0.735631734781, 0.751932004528, -3.22417185898 },
        { 0.214051799142, -2.77555756156e-16, -9.92261828259e-16, -0.120288131159, 0.234598587091, -0.838336075608, 1.17592371823, 0.0644844582808, -0.359063656075, 3.66362044381, -4.68722283209e-15, -1.49533163629e-15, -1.1622647289e-15, -0.779976113223, 0.984479767401, -0.298267322161, -0.115011106453, -0.0943553075046, -0.234598587091, -0.35832004605, -0.0404128638483, -0.0644844582808, -0.0510445122007, -0.371301828737, 2.12977224161, 0.559686821112, 0.932691383113, -1.62059943289, 1.74371861726, 0.399476519924, -5.04901901502, 0.239707344846, 0.0510445122007, 0.371301828737, -2.36947958646 },
        { 0.631285405564, -4.71844785466e-16, -1.63757896132e-15, 3.01633258106, 0.130556729942, -0.604398980662, 1.28518087186, 0.252982694444, -1.35020810516, 4.00401390257, -1.05471187339e-15, -7.77156117238e-16, -2.33146835171e-15, -2.99671331447, 5.80976975235, -6.4606744245, -0.108134188679, -0.0811086966497, -0.130556729942, -0.336894832698, -0.181194249361, -0.252982694444, -0.0548472054745, -0.0764907362037, 0.503716325164, 0.602936929774, 0.685507677312, -1.77998361296, 1.87846543786, 1.53140235452, -5.54558450772, 0.0675973585701, 0.0548472054745, 0.0764907362037, -0.571313683734 },
        { -0.16765078747, -1.2490009027e-15, 1.11022302463e-15, -0.548471860461, -0.240614567807, -0.845794508112, 1.38406296577, -0.246268850743, -0.808563086508, 1.3662221983, 1.22124532709e-15, -8.36136715421e-15, 1.20042864538e-15, 0.273144609366, 0.181042967407, 0.261935071158, 0.284741826302, -0.0019754502688, 0.240614567807, 0.28107146387, -0.00188849200516, 0.246268850743, 3.78103082337, 3.90415145888, -4.08513913025, -0.846448272738, 0.847769958381, -0.822356519338, -0.83553743473, 0.810451578513, -0.811756227441, -0.0095413118855, -3.78103082337, -3.90415145888, 4.09468044214 },
        { -0.0731985313247, -3.00107161344e-16, -9.54097911787e-17, 0.322558902091, -0.238717553888, 0.251579727991, -0.694013975284, -0.233458106493, 0.23799009552, -0.68506803694, -1.38430933383e-15, -6.64919508342e-15, 2.72351585728e-16, 0.26633656108, -0.125245030934, -0.390451900912, 0.0204070368999, 0.0923893242388, 0.238717553888, 0.0201439873067, 0.0873987116378, 0.233458106493, 1.77703397134, 1.85429138026, 1.60537169903, -0.423079768834, -0.34396905223, 1.09668670722, -0.417626210748, -0.325388807158, 1.08255026038, 0.589551501665, -1.77703397134, -1.85429138026, -2.1949232007 },
        { 0.118846898002, 9.17235037923e-17, -1.05688027774e-15, -0.0494805375503, -0.0456873976477, 0.155962860819, -0.0432718711179, -0.0366084995577, 0.123148096914, -0.0427140905763, -2.93558580222e-15, -3.89944153356e-15, -7.28367019476e-16, -0.174586775669, -0.138203471172, 0.243423886389, -0.286059725353, 0.027008305153, 0.0456873976477, -0.282372375016, 0.0213257269263, 0.0366084995577, 0.1242304085, 0.155305519496, 4.77952558758, 0.760954149299, -0.182971165972, -0.431622552828, 0.751145342641, -0.14447382384, -0.426058877048, 0.827677082084, -0.1242304085, -0.155305519496, -5.60720266967 },
        { 0.407835748384, -2.98372437868e-16, -1.54043444667e-15, -0.120288131159, 0.208646805263, -0.938104942551, 2.60095993942, 0.211969359014, -0.947289325982, 2.56743319776, -3.64985819346e-15, -1.5959455979e-15, -1.02001740387e-15, -1.45487173353, 1.79444041362, -0.627116297306, -0.414154642477, -0.142878999041, -0.208646805263, -0.408816130533, -0.144277835623, -0.211969359014, -0.297861770049, -0.29117161527, 3.30123433987, 1.82054569146, 1.08098394159, -4.0073509884, 1.7970785999, 1.0915671616, -3.95569566713, 0.502797753946, 0.297861770049, 0.29117161527, -3.80403209382 },
        { 0.734278956055, -3.33066907388e-16, -1.88737914186e-15, 3.01633258106, 0.223584667453, -1.12015275459, 2.84261973017, 0.222135868739, -1.11074601565, 2.80597795962, 3.88578058619e-16, -9.43689570931e-16, -1.22124532709e-15, -3.43602943464, 6.50549523739, -6.82007733988, -0.270381939029, -0.163046172536, -0.223584667453, -0.266896677577, -0.161676955013, -0.222135868739, -0.0997982833791, -0.0993461514119, 0.780780966947, 1.46481457854, 1.28319892712, -4.03705236969, 1.44593291136, 1.27242297067, -3.98501419341, 0.11364820354, 0.0997982833791, 0.0993461514119, -0.894429170487 },
        { 0.21254648007, -9.43689570931e-16, 4.55885329487e-15, -0.548471860461, 2.06938917139, -3.27477924619, 2.19776645196, 0.0629978427315, 0.0624048066264, 0.740293277786, 5.89112092442e-15, -1.76039738342e-14, 2.11636264069e-15, 0.173224296296, 0.0885405786125, 0.0741605054821, -1.06108791751, 2.0699385468, -2.06938917139, -0.357415708011, -0.0394451366123, -0.0629978427315, -0.463382940032, 8.1907994859, -3.51491649797, -0.722405627607, 1.2048406994, -0.414272906849, -0.243334331304, -0.0229596700141, -0.13954323847, 2.2217256801, 0.463382940032, -8.1907994859, 1.29319081787 },
        { 0.301673352553, -1.24379673228e-15, 1.43461631463e-15, 0.322558902091, 0.595992561109, 1.15861575975, -1.10203124409, 0.142700070832, -0.0677408376668, -0.371207013913, 5.05845365595e-15, -1.47937218031e-14, 2.5344309984e-15, -0.145062456547, -0.182874142966, -0.296295655131, -1.17708366268, 1.59918654635, -0.595992561109, -0.396487589523, -0.0934997088756, -0.142700070832, -0.803180398975, 4.62726355362, 1.38128648508, 0.888037666741, -2.75780230611, 1.39107724003, 0.29912564846, 0.161240546542, 0.468568954975, 1.90652918797, 0.803180398975, -4.62726355362, -3.28781567305 },
        { 0.456024195405, -1.25702399878e-15, -1.20693385841e-15, -0.0494805375503, -0.238851434766, 2.50774275599, -0.0687118064773, 0.233155000393, -0.518878917882, -0.0231448106755, 1.54151864884e-15, -7.4027155933e-15, -4.15249432062e-16, -0.928044564478, 0.272206364777, 0.249294541847, -1.19849134068, 0.77748259651, 0.238851434766, -0.403698528657, -0.16086950202, -0.233155000393, -0.831173954416, 1.35310391539, 4.11237727887, 2.99568053, -3.2852253525, -1.72847738284, 1.00906179397, 0.679748419901, -0.582218454641, 1.27497198705, 0.831173954416, -1.35310391539, -5.38734926591 },
        { 0.654074342472, -1.02001740387e-15, -2.35575448038e-15, -0.120288131159, -0.0114846040427, 0.0714247113744, 4.13008847076, 0.248867439473, -0.91777360841, 1.39117453942, -1.92554305833e-15, -1.60635393875e-15, -1.07205910815e-15, -2.27682614939, 2.72302610839, -0.979986170311, -0.959557213004, 0.0139253345385, 0.0114846040427, -0.323216215173, -0.178933933114, -0.248867439473, -0.458240403632, 0.0120123664966, 2.84043276738, 3.91325124484, -0.085350045913, -7.0837825026, 1.31813532246, 1.09670754152, -2.3860936467, 0.553785598273, 0.458240403632, -0.0120123664966, -3.39421836566 },
        { 0.851688969692, -8.60422844084e-16, -2.16493489802e-15, 3.01633258106, 0.256520117043, -1.40949412114, 4.51382229939, 0.148944520852, -0.697526939539, 1.52043102777, 1.55431223448e-15, -6.38378239159e-16, -1.94289029309e-16, -3.92839209652, 7.26610352301, -7.20573297724, -0.484520223331, -0.22234301961, -0.256520117043, -0.163205268677, -0.110032559675, -0.148944520852, -0.0995164749309, -0.0677359979355, 0.671795944892, 2.55157121055, 1.63183714075, -6.58087328661, 0.859468490511, 0.807559499214, -2.2166942496, 0.105973580669, 0.0995164749309, 0.0677359979355, -0.777769525561 },
        { 0.70071406472, -1.54737334057e-15, 8.89566198481e-15, -0.548471860461, 8.52897994492, -6.24801682097, 2.84875790456, 0.235638651455, 0.149757360306, 0.239528092307, 1.72986625024e-14, -3.29597460436e-14, 1.04499742193e-14, -0.0358635332897, -0.0403129093363, -0.0760657616335, -3.47253519888, 7.12051287667, -8.52897994492, -0.291976278618, -0.170670029065, -0.235638651455, -1.44139887508, 5.05637301441, -1.4741499616, 0.236208838696, -0.872496055697, 0.387568455626, 0.0198608145776, 0.0209126687591, 0.0325873717335, 1.68000568572, 1.44139887508, -5.05637301441, -0.205855724121 },
        { 0.741028258357, -1.94809446352e-15, 4.33333924299e-15, 0.322558902091, 3.85718083067, 2.2890302935, -1.42845943202, 0.219019682404, -0.0728346697685, -0.120107139375, 1.46375966903e-14, -2.53651266657e-14, 7.49227069274e-15, -0.635194563961, -0.207425254744, -0.220967341744, -3.11125435774, 5.01459554629, -3.85718083067, -0.261599211291, -0.15955944824, -0.219019682404, -1.1193726657, 2.95793750942, 0.579309187037, 3.09992003391, -7.30362583979, 1.43979375584, 0.260646203329, 0.232394118009, 0.121060147337, 1.26909690863, 1.1193726657, -2.95793750942, -1.84840609567 },
        { 0.805652723971, -1.63562739741e-15, -6.76542155631e-16, -0.0494805375503, 0.351964726601, 5.59428567034, -0.0890646509158, 0.182423293605, -0.319476797492, -0.00748869740448, 5.0807882207e-15, -1.18787358422e-14, 7.81276085493e-16, -1.67488351197, 0.66472005253, 0.253991273015, -2.45853318626, 2.34695284194, -0.351964726601, -0.206717377787, -0.134029082887, -0.182423293605, -0.663344642537, 0.976664620346, 1.72472399024, 5.86976593477, -7.94123851227, -3.32216809759, 0.493539248946, 0.453505880379, -0.279333173755, 0.723567960052, 0.663344642537, -0.976664620346, -2.44829195029 },
        { 0.881344954209, -1.4224732503e-15, -2.73392419814e-15, -0.120288131159, -0.190813322931, 1.71140650613, 5.35344516115, 0.124146446519, -0.401656492341, 0.450126177682, -8.22258927613e-16, -1.51961776496e-15, -2.3904489499e-15, -3.00901307345, 3.51025074936, -1.26229449896, -1.5855606774, 0.392073147867, 0.190813322931, -0.133316461777, -0.092017136051, -0.124146446519, -0.259948076767, 0.0931292077527, 1.19127263973, 6.1612939832, -2.103479654, -9.92917846695, 0.518051390599, 0.493673628392, -0.834861106505, 0.272913543423, 0.259948076767, -0.0931292077527, -1.46418618315 },
        { 0.950875837683, -1.30451205393e-15, -2.72004641033e-15, 3.01633258106, 0.242479632068, -1.44412328885, 5.8508432248, 0.056193960575, -0.250454219121, 0.491948197416, 2.35922392733e-15, -4.4408920985e-16, 2.49800180541e-16, -4.3380372936, 7.88509994715, -7.51427107229, -0.687197007315, -0.241888896732, -0.242479632068, -0.057780616576, -0.0419507774806, -0.056193960575, -0.0463165661962, -0.0224550065605, 0.281750069152, 3.54322762854, 1.68601218558, -8.70687384602, 0.297920210459, 0.292404996602, -0.732087791299, 0.0471927943462, 0.0463165661962, 0.0224550065605, -0.328942863498 },
        { 0.449476252098, -6.40459907331e-15, -1.2490009027e-16, -0.548471860461, 0.16013193774, 0.0941096839974, 0.125804835183, 9.15827187381, -6.47792529826, 2.89199698631, -5.25274268526e-15, 1.34614541736e-15, -2.22044604925e-16, 0.078362492367, 0.0262147022531, -0.00558158625708, -0.107318412161, -0.0848402401377, -0.16013193774, -2.46703176465, 5.83987443751, -9.15827187381, 2.75342802088, -0.919544201941, -0.786004144029, -0.0164453390527, -0.00926944385973, -0.00204108396979, -0.378044857417, 0.638050860753, -0.0469203642354, 0.708585742679, -2.75342802088, 0.919544201941, 0.0774184013496 },
        { 0.518305641036, -2.10248485288e-15, 3.48679418671e-16, 0.322558902091, 0.142361181844, -0.0443273564643, -0.0630826168568, 4.18998775843, 2.37685514787, -1.45014090732, -4.7878367937e-15, -1.57512891619e-15, 6.19296280924e-16, -0.386262081089, -0.198292073079, -0.256310388959, -0.102926091566, -0.0802526575115, -0.142361181844, -2.3660612582, 4.30318785848, -4.18998775843, 1.61317338191, -0.691593124483, 0.30888270091, 0.0948974185996, 0.124580013976, 0.0711112898235, 2.18149841537, -6.68004300635, 1.63470375015, 0.55921804467, -1.61317338191, 0.691593124483, -0.86810074558 },
        { 0.632308488819, -5.10225542372e-16, -7.3725747729e-18, -0.0494805375503, 0.11127235614, -0.18587653196, -0.00393321022864, 0.428570285598, 5.83723148435, -0.0904164940176, -2.40584462075e-15, -2.76926918896e-15, 5.69206140555e-16, -1.30807016172, 0.473454581515, 0.251787628941, -0.0891683140308, -0.0684311308954, -0.11127235614, -2.04979796742, 2.14899830312, -0.428570285598, 0.535240058809, -0.391802098133, 0.919608071733, 0.217399943119, 0.254307662855, -0.124298418859, 4.99758200395, -7.98622978747, -2.85736754251, 0.338557103824, -0.535240058809, 0.391802098133, -1.25816517556 },
        { 0.771262440283, -1.28369537222e-16, -8.77770078844e-16, -0.120288131159, 0.0709885334671, -0.223446498022, 0.236415065346, -0.199833466519, 1.84653757424, 5.43470094375, -4.09394740331e-15, -1.61329283266e-15, -1.97758476261e-15, -2.65712427558, 3.13598913567, -1.12983916922, -0.0627986053659, -0.0476122670957, -0.0709885334671, -1.44361206147, 0.393462600511, 0.199833466519, 0.0527754270897, -0.146807303823, 0.635176376818, 0.249388296907, 0.271058765118, -0.423004756888, 5.73292912012, -2.24000017475, -9.72401800239, 0.135344199053, -0.0527754270897, 0.146807303823, -0.770520575871 },
        { 0.903750300689, -4.99600361081e-16, -1.52655665886e-15, 3.01633258106, 0.0305078599082, -0.134497166, 0.25838080744, 0.240477729578, -1.44022607479, 5.93964862595, -2.1371793224e-15, -7.49400541622e-16, -3.49720252757e-15, -4.14408843659, 7.5935146383, -7.36950908346, -0.0291122637926, -0.0219127123255, -0.0305078599082, -0.66923166371, -0.234646279913, -0.240477729578, -0.0117619806725, -0.0252501189491, 0.150226725708, 0.151576923728, 0.156409878325, -0.380845467375, 3.4844448226, 1.67487235471, -8.75486178484, 0.0244754229546, 0.0117619806725, 0.0252501189492, -0.174702148663 },
        { 0.528577324086, -3.94129173742e-15, 3.05311331772e-16, -0.548471860461, 0.148200865724, 0.13017180848, 0.625750687009, 3.65531746418, -4.16733811694, 2.4155036329, 2.46330733589e-15, -5.16947595841e-15, 2.3037127761e-15, 0.0436584735738, 0.00527014747847, -0.0290340846774, -0.607466254863, -0.12766484372, -0.148200865724, -2.34492262805, 4.08707980352, -3.65531746418, 8.81049953519, -1.06234381243, -3.2654173557, -0.0398365642925, -0.00250696476031, 0.0215521321462, -0.153775885138, 0.0802583134204, 0.083194880288, 3.20252903653, -8.81049953519, 1.06234381243, 0.0628883191686 },
        { 0.589071826532, -6.48786580015e-16, 2.72351585728e-16, 0.322558902091, 0.202775060451, -0.087685003635, -0.313771650978, 1.3559077585, 1.49666103829, -1.2112117151, -3.30117877478e-15, -4.32640034909e-15, 7.44196371194e-16, -0.465280968353, -0.201799213212, -0.244550547058, -0.567421494835, -0.169843886457, -0.202775060451, -2.19034307211, 2.89899888138, -1.3559077585, 5.05249377334, -1.14265208946, 1.28323869548, 0.539946202074, 0.257528890092, 0.341246943739, 2.08428378867, -4.39565991967, 1.31727099855, 2.48560458753, -5.05249377334, 1.14265208946, -3.76884328301 },
        { 0.688125395982, 7.69133021161e-16, -1.15792792021e-16, -0.0494805375503, 0.252508935584, -0.529177720227, -0.0195637075406, -0.144859080646, 3.42087801347, -0.0755192245385, -4.61002763741e-15, -3.30898503043e-15, -5.53593629271e-16, -1.42686688549, 0.53570117029, 0.252520856774, -0.474998972943, -0.203864280715, -0.252508935584, -1.83357648435, 1.31788397163, 0.144859080646, 1.56021081227, -0.931651754853, 3.82046860782, 1.14991400408, 0.733042000943, -0.655351323598, 4.43886281237, -4.7387619851, -2.52976710348, 1.47182516375, -1.56021081227, 0.931651754853, -5.29229377157 },
        { 0.807206059701, -6.59194920871e-17, -9.2287288922e-16, -0.120288131159, 0.234598587091, -0.838336075608, 1.17592371823, -0.0775785070677, 0.537603197245, 4.53926471414, -4.79824513455e-15, -1.84921522539e-15, -1.74513181683e-15, -2.77256229666, 3.25955596062, -1.1739115925, -0.324174292666, -0.183100395563, -0.234598587091, -1.25136767387, 0.117417538068, 0.0775785070677, 0.0764257047368, -0.460046916796, 2.63881047008, 1.27788823579, 1.02143647117, -2.12963766135, 4.93286502129, -0.655020735313, -8.22076206156, 0.576340747996, -0.0764257047367, 0.460046916796, -3.21515121808 },
        { 0.919314606358, -4.71844785466e-16, -1.63757896132e-15, 3.01633258106, 0.130556729942, -0.604398980662, 1.28518087186, 0.255385324193, -1.44055244033, 4.96101583164, -1.60982338571e-15, -9.71445146547e-16, -2.77555756156e-15, -4.20827816761, 7.69030733377, -7.41767635358, -0.146838904001, -0.0993907965336, -0.130556729942, -0.566823038996, -0.236892614107, -0.255385324193, -0.058517109614, -0.0947728360877, 0.624109886879, 0.762035206812, 0.703789777196, -1.90037717467, 2.94158496134, 1.67744505444, -7.33577775398, 0.102632169752, 0.058517109614, 0.0947728360877, -0.726742056632 },
        { 0.657083019472, -2.10248485288e-15, 1.71390679427e-15, -0.548471860461, -0.240614567807, -0.845794508112, 1.38406296577, 0.101016000373, -1.59890114743, 1.69276384155, 5.16253706451e-15, -1.29549149186e-14, 2.20656826144e-15, -0.0152382326425, -0.0287663542807, -0.0646065720875, -1.60137082276, 0.931158292139, 0.240614567807, -1.95853996004, 1.76027397608, -0.101016000373, 7.47683714831, 4.83728520129, -5.06153085199, 0.0632726545885, -0.0853637840274, 0.154035202401, 0.0773849633252, -0.16137282865, 0.188391155169, 5.57237766212, -7.47683714831, -4.83728520129, -0.510846810133 },
        { 0.702751156347, -9.71445146547e-16, 3.3653635434e-16, 0.322558902091, -0.238717553888, 0.251579727991, -0.694013975284, -0.20849077974, 0.529512973374, -0.848806587518, 7.65013052906e-16, -8.88698836743e-15, 9.29811783124e-16, -0.592369192948, -0.206227515157, -0.226713350334, -1.44779668178, 0.535584695473, 0.238717553888, -1.77071270125, 1.12727303928, 0.20849077974, 3.95378866458, 2.29748675149, 1.98907261772, 1.42882486854, -0.787164423465, 0.712985788529, 1.74750942202, -1.65678601265, 0.87200986675, 4.23450991359, -3.95378866458, -2.29748675149, -6.22358253131 },
        { 0.776322369826, 1.44415729375e-16, -7.4397953076e-16, -0.0494805375503, -0.0456873976477, 0.155962860819, -0.0432718711179, -0.185499008103, 0.851156027009, -0.0529232127409, -2.87335259752e-15, -5.04435902771e-15, -9.87925019569e-16, -1.61324449388, 0.632769653052, 0.253633008553, -1.15890474894, 0.0641279769052, 0.0456873976477, -1.41738642194, 0.349973793479, 0.185499008103, 0.858636581337, 0.192425191249, 5.92188306153, 2.77615664683, -0.220090837724, -1.57398002678, 3.39534956605, -1.20112982049, -1.92503993137, 2.4349282785, -0.858636581337, -0.192425191249, -8.35681134003 },
        { 0.863026542275, -5.13478148889e-16, -1.48492329544e-15, -0.120288131159, 0.208646805263, -0.938104942551, 2.60095993942, 0.137572387776, -0.691193997063, 3.18107705186, -3.7331249203e-15, -1.97758476261e-15, -1.51961776496e-15, -2.95079181677, 3.44881355706, -1.2407601514, -0.75723848579, -0.212472113422, -0.208646805263, -0.926132668723, -0.156549062561, -0.137572387776, -0.217336205281, -0.360764729651, 4.09026447525, 2.95265967015, 1.15057705597, -4.79638112378, 3.61121975635, 0.847743059624, -5.86616413949, 0.926407162026, 0.217336205281, 0.360764729651, -5.01667163728 },
        { 0.943143029186, -5.82867087928e-16, -1.85962356625e-15, 3.01633258106, 0.223584667453, -1.12015275459, 2.84261973017, 0.243488354569, -1.26210738842, 3.47663655014, -1.11022302463e-16, -9.99200722163e-16, -1.4155343564e-15, -4.30629457508, 7.83755489522, -7.49073593039, -0.331651259077, -0.186790959857, -0.223584667453, -0.405622629355, -0.210462590535, -0.243488354569, -0.113397796643, -0.123090938733, 0.96739592627, 1.71269885792, 1.30694371444, -4.22366732901, 2.09469855768, 1.47256997896, -5.16571247846, 0.161318010324, 0.113397796643, 0.123090938733, -1.12871393659 },
        { 0.806738504742, -1.08940634291e-15, 4.59354776439e-15, -0.548471860461, 2.06938917139, -3.27477924619, 2.19776645196, -0.0793923007703, -0.097986900601, 0.917231248573, 6.11316552934e-15, -1.90056304028e-14, 1.70696790036e-15, -0.0871595435673, -0.0683296354086, -0.102777465305, -3.00458936897, 4.02762678151, -2.06938917139, -1.25395637734, 0.120513364544, 0.0793923007703, 0.727595525724, 10.1484877206, -4.3550189429, 0.380993378917, -0.752847535317, 0.425829538085, 0.15900644599, -0.0225264639431, 0.177718682778, 5.35620559731, -0.727595525724, -10.1484877206, -1.00118665441 },
        { 0.833445248361, -1.85788884277e-15, 1.65492619608e-15, 0.322558902091, 0.595992561109, 1.15861575975, -1.10203124409, 0.0268965892438, -0.0150396959945, -0.459929440219, 6.03510297292e-15, -1.61450713909e-14, 1.913399994e-15, -0.738646516146, -0.209784405481, -0.207573228824, -2.64156151599, 2.70515177398, -0.595992561109, -1.10244778981, -0.0351148859812, -0.0268965892438, -0.178320632656, 5.73322878124, 1.71142865317, 2.68265768814, -3.86376753373, 1.06093507195, 1.11959915421, 0.0501545819757, 0.442778075818, 3.9958668076, 0.178320632656, -5.73322878124, -5.70729546077 },
        { 0.875784163749, -1.80996710675e-15, -1.10762093941e-15, -0.0494805375503, -0.238851434766, 2.50774275599, -0.0687118064773, 0.177898989754, -0.43779091196, -0.0286766667088, 2.05109366991e-15, -8.12219215496e-15, -9.95948115645e-16, -1.82161596621, 0.740485942131, 0.254826397881, -2.03043408651, 1.10088883055, 0.238851434766, -0.847395586848, -0.192188422812, -0.177898989754, -0.701281919463, 1.67651014942, 5.09527920797, 4.81052520493, -3.60863158654, -2.71137931194, 2.00765829147, 0.629979334773, -1.13158603792, 2.23680676783, 0.701281919463, -1.67651014942, -7.3320859758 },
        { 0.924687490994, -1.27675647832e-15, -2.21003770839e-15, -0.120288131159, -0.0114846040427, 0.0714247113744, 4.13008847076, 0.256596003755, -0.995464149371, 1.72368005771, -2.09207651203e-15, -2.16840434497e-15, -1.17614251671e-15, -3.14626032716, 3.65435265592, -1.3124916886, -1.27217597694, 0.0167964179538, 0.0114846040427, -0.530938835057, -0.234095897471, -0.256596003755, -0.497030955596, 0.0148834499118, 3.51932642359, 4.90476366498, -0.0882211293282, -7.76267615881, 2.04698843062, 1.22956004684, -3.23972965328, 0.827613810245, 0.497030955596, -0.0148834499118, -4.34694023383 },
        { 0.969009048631, -9.15933995316e-16, -2.08166817117e-15, 3.01633258106, 0.256520117043, -1.40949412114, 4.51382229939, 0.174208593693, -0.83073735157, 1.88383022218, 1.36002320517e-15, -7.77156117238e-16, -3.33066907388e-16, -4.41234880407, 7.99613934603, -7.56913217165, -0.538414841664, -0.238532643889, -0.256520117043, -0.224705822144, -0.140588012306, -0.174208593693, -0.118521662943, -0.0839256222149, 0.832362324244, 2.76603220824, 1.64802676503, -6.74143966597, 1.15439526056, 0.971325363875, -2.81351966059, 0.140863010989, 0.118521662943, 0.0839256222149, -0.973225335233 },
        { 0.935502721999, -1.17961196366e-15, 8.54177839571e-15, -0.548471860461, 8.52897994492, -6.24801682097, 2.84875790456, 0.252300923168, 0.167198056357, 0.296777855166, 1.5307199952e-14, -2.97331603782e-14, 8.04217803463e-15, -0.151467189821, -0.102248147225, -0.133315524492, -4.39522890346, 8.32903983154, -8.52897994492, -0.457886086018, -0.222886607231, -0.252300923168, -1.60926374407, 6.26489996927, -1.82648748872, 0.806565016147, -2.08102301056, 0.739905982749, 0.0840263172805, 0.0556885508746, 0.0770819135713, 2.4348345213, 1.60926374407, -6.26489996927, -0.608347032578 },
        { 0.944665492401, -1.98105420957e-15, 4.44956571588e-15, 0.322558902091, 3.85718083067, 2.2890302935, -1.42845943202, 0.241131619302, -0.0830306338254, -0.148814023735, 1.39714628755e-14, -2.53720655596e-14, 7.03256897161e-15, -0.863224577107, -0.21173936, -0.192260457384, -3.79296748023, 5.7215740862, -3.85718083067, -0.395143705154, -0.207540251522, -0.241131619302, -1.27607116522, 3.66491604933, 0.717770247118, 3.92009421648, -8.0106043797, 1.30133269576, 0.408387512239, 0.290570885348, 0.13557021665, 1.7941115316, 1.27607116522, -3.66491604933, -2.51188177872 },
        { 0.959019014673, -1.944841857e-15, -7.28800700345e-16, -0.0494805375503, 0.351964726601, 5.59428567034, -0.0890646509158, 0.208556441347, -0.374362642607, -0.00927857577072, 5.4899661206e-15, -1.25624337322e-14, 6.80445283452e-16, -1.99463414506, 0.829314516553, 0.255781151381, -2.83460443277, 2.5803860788, -0.351964726601, -0.29530337501, -0.172676228625, -0.208556441347, -0.777306694223, 1.21009785721, 2.13695137654, 6.65806456758, -8.17467174914, -3.7343954839, 0.693623743443, 0.547038871232, -0.389041792663, 0.985677154875, 0.777306694223, -1.21009785721, -3.12262853141 },
        { 0.975347084669, -1.55431223448e-15, -2.78249645547e-15, -0.120288131159, -0.190813322931, 1.71140650613, 5.35344516115, 0.147141431042, -0.482825534073, 0.557711123902, -6.97358837343e-16, -1.80064296806e-15, -2.46677678284e-15, -3.30580225542, 3.82062274709, -1.36987944518, -1.72251883675, 0.414332019499, 0.190813322931, -0.179448539673, -0.116892204092, -0.147141431042, -0.312479871208, 0.115388079385, 1.47599947685, 6.58297897967, -2.12573852563, -10.2139053041, 0.685801478273, 0.599717738165, -1.0640640625, 0.357339908334, 0.312479871208, -0.115388079385, -1.83333938519 },
