
        #include <petsc.h>
        #include <stdbool.h>
        #include <math.h>
        
        


        
            #include <immintrin.h>

            
            // This code is generated visiting a COFFEE AST

#include "firedrake_geometry.h"


void form_cell_integral_0_otherwise(double A[20][20], double *coordinate_dofs)
{
// Section for quadrature weights and points
static const double weights64[64] = { 0.00261345900751, 0.00338108957856, 0.00161758872343, 0.000243985421621, 0.00392412678076, 0.00507672939399, 0.00242882065938, 0.000366345798555, 0.00250430944301, 0.00323988037881, 0.00155003109035, 0.000233795515279, 0.00060137292872, 0.000778009425932, 0.000372217075256, 5.6142540267e-05, 0.00489961445989, 0.00633873932659, 0.00303259438037, 0.00045741467394, 0.00735680500908, 0.00951766095289, 0.00455346144287, 0.000686811297505, 0.00469498496963, 0.00607400564032, 0.00290593987576, 0.000438311021534, 0.00112743130421, 0.00145858275269, 0.000697818545806, 0.000105253918778, 0.00489961445989, 0.00633873932659, 0.00303259438037, 0.00045741467394, 0.00735680500908, 0.00951766095289, 0.00455346144287, 0.000686811297505, 0.00469498496963, 0.00607400564032, 0.00290593987576, 0.000438311021534, 0.00112743130421, 0.00145858275269, 0.000697818545806, 0.000105253918778, 0.00261345900751, 0.00338108957856, 0.00161758872343, 0.000243985421621, 0.00392412678076, 0.00507672939399, 0.00242882065938, 0.000366345798555, 0.00250430944301, 0.00323988037881, 0.00155003109035, 0.000233795515279, 0.00060137292872, 0.000778009425932, 0.000372217075256, 5.6142540267e-05 };
static const double points64[192] = { 0.0622918093485, 0.0543346112272, 0.048500549447, 0.0498465213689, 0.0434790928043, 0.238600737552, 0.0316174621017, 0.0275786259744, 0.517047295104, 0.013364994113, 0.0116577406689, 0.795851417897, 0.0477749046478, 0.263415975366, 0.048500549447, 0.0382299507806, 0.210788066398, 0.238600737552, 0.0242491148181, 0.133702082268, 0.517047295104, 0.0102503254608, 0.0565171086994, 0.795851417897, 0.0275098322538, 0.555285975747, 0.048500549447, 0.0220136396043, 0.444345324777, 0.238600737552, 0.0139631692803, 0.281846577864, 0.517047295104, 0.00590236100006, 0.119139159297, 0.795851417897, 0.00923314621657, 0.818518016421, 0.048500549447, 0.00738845483861, 0.654986204817, 0.238600737552, 0.00468646927478, 0.415455300375, 0.517047295104, 0.0019810139747, 0.175616803963, 0.795851417897, 0.296072900492, 0.0543346112272, 0.048500549447, 0.236920460579, 0.0434790928043, 0.238600737552, 0.150277762174, 0.0275786259744, 0.517047295104, 0.0635238021415, 0.0116577406689, 0.795851417897, 0.22707406861, 0.263415975366, 0.048500549447, 0.181706913504, 0.210788066398, 0.238600737552, 0.115256015737, 0.133702082268, 0.517047295104, 0.048719785505, 0.0565171086994, 0.795851417897, 0.13075420208, 0.555285975747, 0.048500549447, 0.104630804534, 0.444345324777, 0.238600737552, 0.0663669280461, 0.281846577864, 0.517047295104, 0.028053915263, 0.119139159297, 0.795851417897, 0.0438851336894, 0.818518016421, 0.048500549447, 0.0351173176233, 0.654986204817, 0.238600737552, 0.0222747832462, 0.415455300375, 0.517047295104, 0.00941575721655, 0.175616803963, 0.795851417897, 0.601091938834, 0.0543346112272, 0.048500549447, 0.480999709065, 0.0434790928043, 0.238600737552, 0.305096316747, 0.0275786259744, 0.517047295104, 0.128967039293, 0.0116577406689, 0.795851417897, 0.461009406577, 0.263415975366, 0.048500549447, 0.368904282546, 0.210788066398, 0.238600737552, 0.233994606891, 0.133702082268, 0.517047295104, 0.0989116878988, 0.0565171086994, 0.795851417897, 0.265459272726, 0.555285975747, 0.048500549447, 0.212423133136, 0.444345324777, 0.238600737552, 0.134739198986, 0.281846577864, 0.517047295104, 0.0569555075431, 0.119139159297, 0.795851417897, 0.0890963004431, 0.818518016421, 0.048500549447, 0.0712957400079, 0.654986204817, 0.238600737552, 0.0452226212744, 0.415455300375, 0.517047295104, 0.0191160209242, 0.175616803963, 0.795851417897, 0.834873029977, 0.0543346112272, 0.048500549447, 0.668073648275, 0.0434790928043, 0.238600737552, 0.42375661682, 0.0275786259744, 0.517047295104, 0.179125847321, 0.0116577406689, 0.795851417897, 0.640308570539, 0.263415975366, 0.048500549447, 0.51238124527, 0.210788066398, 0.238600737552, 0.32500150781, 0.133702082268, 0.517047295104, 0.137381147943, 0.0565171086994, 0.795851417897, 0.368703642552, 0.555285975747, 0.048500549447, 0.295040298066, 0.444345324777, 0.238600737552, 0.187142957752, 0.281846577864, 0.517047295104, 0.079107061806, 0.119139159297, 0.795851417897, 0.123748287916, 0.818518016421, 0.048500549447, 0.0990246027926, 0.654986204817, 0.238600737552, 0.0628109352459, 0.415455300375, 0.517047295104, 0.026550764166, 0.175616803963, 0.795851417897 };
// Section for precomputed element basis function values
// Table dimensions: num_entities, num_points, num_dofs
// Definitions of 7 tables for 64 quadrature points
static const double FE0_C0_D001_Q64[1][64][4] =
    { { { -1.0, 1.11022302463e-16, 5.55111512313e-17, 1.0 },
        { -1.0, 5.55111512313e-17, 0.0, 1.0 },
        { -1.0, -2.77555756156e-16, -5.55111512313e-17, 1.0 },
        { -1.0, -3.33066907388e-16, -1.11022302463e-16, 1.0 },
        { -1.0, 1.11022302463e-16, 5.55111512313e-17, 1.0 },
        { -1.0, 5.55111512313e-17, 0.0, 1.0 },
        { -1.0, -2.77555756156e-16, -5.55111512313e-17, 1.0 },
        { -1.0, -3.33066907388e-16, -1.11022302463e-16, 1.0 },
        { -1.0, 1.11022302463e-16, 5.55111512313e-17, 1.0 },
        { -1.0, 5.55111512313e-17, 0.0, 1.0 },
        { -1.0, -2.77555756156e-16, -5.55111512313e-17, 1.0 },
        { -1.0, -3.33066907388e-16, -1.11022302463e-16, 1.0 },
        { -1.0, 1.11022302463e-16, 5.55111512313e-17, 1.0 },
        { -1.0, -5.55111512313e-17, 0.0, 1.0 },
        { -1.0, -2.77555756156e-16, -5.55111512313e-17, 1.0 },
        { -1.0, -2.77555756156e-16, -1.11022302463e-16, 1.0 },
        { -1.0, 1.11022302463e-16, 5.55111512313e-17, 1.0 },
        { -1.0, -5.55111512313e-17, 0.0, 1.0 },
        { -1.0, -2.77555756156e-16, -5.55111512313e-17, 1.0 },
        { -1.0, -3.33066907388e-16, -1.11022302463e-16, 1.0 },
        { -1.0, 1.11022302463e-16, 5.55111512313e-17, 1.0 },
        { -1.0, 5.55111512313e-17, 0.0, 1.0 },
        { -1.0, -2.77555756156e-16, -5.55111512313e-17, 1.0 },
        { -1.0, -3.33066907388e-16, -1.11022302463e-16, 1.0 },
        { -1.0, 1.11022302463e-16, 5.55111512313e-17, 1.0 },
        { -1.0, 5.55111512313e-17, 0.0, 1.0 },
        { -1.0, -2.77555756156e-16, -5.55111512313e-17, 1.0 },
        { -1.0, -3.33066907388e-16, -1.11022302463e-16, 1.0 },
        { -1.0, 1.11022302463e-16, 5.55111512313e-17, 1.0 },
        { -1.0, -5.55111512313e-17, 0.0, 1.0 },
        { -1.0, -2.77555756156e-16, -5.55111512313e-17, 1.0 },
        { -1.0, -3.33066907388e-16, -1.11022302463e-16, 1.0 },
        { -1.0, 1.11022302463e-16, 5.55111512313e-17, 1.0 },
        { -1.0, -5.55111512313e-17, 0.0, 1.0 },
        { -1.0, -2.77555756156e-16, -5.55111512313e-17, 1.0 },
        { -1.0, -3.33066907388e-16, -1.11022302463e-16, 1.0 },
        { -1.0, 1.11022302463e-16, 5.55111512313e-17, 1.0 },
        { -1.0, 5.55111512313e-17, 0.0, 1.0 },
        { -1.0, -2.77555756156e-16, -5.55111512313e-17, 1.0 },
        { -1.0, -3.33066907388e-16, -1.11022302463e-16, 1.0 },
        { -1.0, 1.11022302463e-16, 5.55111512313e-17, 1.0 },
        { -1.0, 5.55111512313e-17, 0.0, 1.0 },
        { -1.0, -2.77555756156e-16, -5.55111512313e-17, 1.0 },
        { -1.0, -3.33066907388e-16, -1.11022302463e-16, 1.0 },
        { -1.0, 1.11022302463e-16, 5.55111512313e-17, 1.0 },
        { -1.0, 5.55111512313e-17, 0.0, 1.0 },
        { -1.0, -2.77555756156e-16, -5.55111512313e-17, 1.0 },
        { -1.0, -3.33066907388e-16, -1.11022302463e-16, 1.0 },
        { -1.0, 1.11022302463e-16, 5.55111512313e-17, 1.0 },
        { -1.0, -5.55111512313e-17, 0.0, 1.0 },
        { -1.0, -2.77555756156e-16, -5.55111512313e-17, 1.0 },
        { -1.0, -3.33066907388e-16, -1.11022302463e-16, 1.0 },
        { -1.0, 1.11022302463e-16, 5.55111512313e-17, 1.0 },
        { -1.0, 5.55111512313e-17, 0.0, 1.0 },
        { -1.0, -2.77555756156e-16, -5.55111512313e-17, 1.0 },
        { -1.0, -3.33066907388e-16, -1.11022302463e-16, 1.0 },
        { -1.0, 1.11022302463e-16, 5.55111512313e-17, 1.0 },
        { -1.0, 5.55111512313e-17, 0.0, 1.0 },
        { -1.0, -2.77555756156e-16, -5.55111512313e-17, 1.0 },
        { -1.0, -3.33066907388e-16, -1.11022302463e-16, 1.0 },
        { -1.0, 1.11022302463e-16, 5.55111512313e-17, 1.0 },
        { -1.0, -5.55111512313e-17, 0.0, 1.0 },
        { -1.0, -2.77555756156e-16, -5.55111512313e-17, 1.0 },
        { -1.0, -3.33066907388e-16, -1.11022302463e-16, 1.0 } } };
static const double FE0_C0_D010_Q64[1][64][3] =
    { { { -1.0, -5.55111512313e-17, 1.0 },
        { -1.0, -1.11022302463e-16, 1.0 },
        { -1.0, -2.77555756156e-16, 1.0 },
        { -1.0, -2.77555756156e-16, 1.0 },
        { -1.0, -5.55111512313e-17, 1.0 },
        { -1.0, -1.11022302463e-16, 1.0 },
        { -1.0, -2.77555756156e-16, 1.0 },
        { -1.0, -2.77555756156e-16, 1.0 },
        { -1.0, -5.55111512313e-17, 1.0 },
        { -1.0, -1.11022302463e-16, 1.0 },
        { -1.0, -2.77555756156e-16, 1.0 },
        { -1.0, -2.77555756156e-16, 1.0 },
        { -1.0, -5.55111512313e-17, 1.0 },
        { -1.0, -1.11022302463e-16, 1.0 },
        { -1.0, -2.77555756156e-16, 1.0 },
        { -1.0, -2.77555756156e-16, 1.0 },
        { -1.0, -5.55111512313e-17, 1.0 },
        { -1.0, -1.11022302463e-16, 1.0 },
        { -1.0, -2.77555756156e-16, 1.0 },
        { -1.0, -2.77555756156e-16, 1.0 },
        { -1.0, -5.55111512313e-17, 1.0 },
        { -1.0, -1.11022302463e-16, 1.0 },
        { -1.0, -2.77555756156e-16, 1.0 },
        { -1.0, -2.77555756156e-16, 1.0 },
        { -1.0, -5.55111512313e-17, 1.0 },
        { -1.0, -1.11022302463e-16, 1.0 },
        { -1.0, -2.77555756156e-16, 1.0 },
        { -1.0, -2.77555756156e-16, 1.0 },
        { -1.0, -5.55111512313e-17, 1.0 },
        { -1.0, -1.11022302463e-16, 1.0 },
        { -1.0, -2.77555756156e-16, 1.0 },
        { -1.0, -2.77555756156e-16, 1.0 },
        { -1.0, -5.55111512313e-17, 1.0 },
        { -1.0, -1.11022302463e-16, 1.0 },
        { -1.0, -2.77555756156e-16, 1.0 },
        { -1.0, -2.77555756156e-16, 1.0 },
        { -1.0, -5.55111512313e-17, 1.0 },
        { -1.0, -1.11022302463e-16, 1.0 },
        { -1.0, -2.77555756156e-16, 1.0 },
        { -1.0, -2.77555756156e-16, 1.0 },
        { -1.0, -5.55111512313e-17, 1.0 },
        { -1.0, -1.11022302463e-16, 1.0 },
        { -1.0, -2.77555756156e-16, 1.0 },
        { -1.0, -2.77555756156e-16, 1.0 },
        { -1.0, -1.11022302463e-16, 1.0 },
        { -1.0, -1.11022302463e-16, 1.0 },
        { -1.0, -2.77555756156e-16, 1.0 },
        { -1.0, -2.77555756156e-16, 1.0 },
        { -1.0, -5.55111512313e-17, 1.0 },
        { -1.0, -1.11022302463e-16, 1.0 },
        { -1.0, -2.77555756156e-16, 1.0 },
        { -1.0, -2.77555756156e-16, 1.0 },
        { -1.0, -5.55111512313e-17, 1.0 },
        { -1.0, -1.11022302463e-16, 1.0 },
        { -1.0, -2.77555756156e-16, 1.0 },
        { -1.0, -2.77555756156e-16, 1.0 },
        { -1.0, -5.55111512313e-17, 1.0 },
        { -1.0, -1.11022302463e-16, 1.0 },
        { -1.0, -2.77555756156e-16, 1.0 },
        { -1.0, -2.77555756156e-16, 1.0 },
        { -1.0, -5.55111512313e-17, 1.0 },
        { -1.0, -1.11022302463e-16, 1.0 },
        { -1.0, -2.77555756156e-16, 1.0 },
        { -1.0, -2.77555756156e-16, 1.0 } } };
static const double FE0_C0_D100_Q64[1][64][2] =
    { { { -1.0, 1.0 },
        { -1.0, 1.0 },
        { -1.0, 1.0 },
        { -1.0, 1.0 },
        { -1.0, 1.0 },
        { -1.0, 1.0 },
        { -1.0, 1.0 },
        { -1.0, 1.0 },
        { -1.0, 1.0 },
        { -1.0, 1.0 },
        { -1.0, 1.0 },
        { -1.0, 1.0 },
        { -1.0, 1.0 },
        { -1.0, 1.0 },
        { -1.0, 1.0 },
        { -1.0, 1.0 },
        { -1.0, 1.0 },
        { -1.0, 1.0 },
        { -1.0, 1.0 },
        { -1.0, 1.0 },
        { -1.0, 1.0 },
        { -1.0, 1.0 },
        { -1.0, 1.0 },
        { -1.0, 1.0 },
        { -1.0, 1.0 },
        { -1.0, 1.0 },
        { -1.0, 1.0 },
        { -1.0, 1.0 },
        { -1.0, 1.0 },
        { -1.0, 1.0 },
        { -1.0, 1.0 },
        { -1.0, 1.0 },
        { -1.0, 1.0 },
        { -1.0, 1.0 },
        { -1.0, 1.0 },
        { -1.0, 1.0 },
        { -1.0, 1.0 },
        { -1.0, 1.0 },
        { -1.0, 1.0 },
        { -1.0, 1.0 },
        { -1.0, 1.0 },
        { -1.0, 1.0 },
        { -1.0, 1.0 },
        { -1.0, 1.0 },
        { -1.0, 1.0 },
        { -1.0, 1.0 },
        { -1.0, 1.0 },
        { -1.0, 1.0 },
        { -1.0, 1.0 },
        { -1.0, 1.0 },
        { -1.0, 1.0 },
        { -1.0, 1.0 },
        { -1.0, 1.0 },
        { -1.0, 1.0 },
        { -1.0, 1.0 },
        { -1.0, 1.0 },
        { -1.0, 1.0 },
        { -1.0, 1.0 },
        { -1.0, 1.0 },
        { -1.0, 1.0 },
        { -1.0, 1.0 },
        { -1.0, 1.0 },
        { -1.0, 1.0 },
        { -1.0, 1.0 } } };
static const double FE1_C0_D001_Q64[1][64][20] =
    { { { -2.89581790868, -1.11022302463e-16, 2.49800180541e-16, 0.595251149482, -0.20465037583, -0.173353771063, -0.227929503657, -0.198741093623, -1.11022302463e-15, 1.60982338571e-15, 4.77772039794, -2.47715363874, -0.980281790191, 0.20465037583, -1.1238421515, 0.227929503657, 0.0913842335769, 1.15363556125, 1.32258324512, -0.0913842335769 },
        { -1.01268955904, -1.94289029309e-16, 1.31838984174e-16, -0.378847426503, -0.17013509222, 0.0844459598828, -0.19076622431, 0.0968129064413, -8.98586760556e-16, 6.45317133063e-16, -0.211153065611, 1.60269005115, -0.588619458524, 0.17013509222, -0.674821633228, 0.19076622431, 0.0585166012714, 0.504173498641, 0.578008726786, -0.0585166012714 },
        { 0.389619002348, 6.24500451352e-17, -2.15105711021e-16, -0.0443639333803, -0.113835978641, 0.26090144011, -0.128783116676, 0.299109948502, -5.79397640976e-16, 5.44703171457e-16, -3.07176113644, 2.72650606747, -0.19143506458, 0.113835978641, -0.219470357404, 0.128783116676, 0.0235430863622, -0.0694663755295, -0.0796395910981, -0.0235430863622 },
        { 0.178970691981, 9.99200722163e-16, 3.60822483003e-16, 2.3879602104, -0.0506251436239, 0.198041561892, -0.0577310620952, 0.227044363396, -1.38777878078e-16, 8.60422844084e-16, -0.640627106961, -1.92630379542, -0.00392163921952, 0.0506251436239, -0.00449595565476, 0.0577310620952, 0.00420675215608, -0.194119922673, -0.222548407742, -0.00420675215608 },
        { -0.772156249477, 5.41233724505e-16, -9.71445146547e-16, 0.595251149482, -0.248634212093, -0.840424761611, -0.184174110475, -0.152425124535, -3.16413562018e-15, -3.33066907388e-16, 2.03330371727, -1.85639861728, -3.36865079024, 0.248634212093, -0.610961313457, 0.184174110475, 0.339786173857, 4.20907555185, 0.763386437992, -0.339786173857 },
        { 0.0672149106221, 5.41233724505e-16, -1.63064006742e-16, -0.378847426503, -0.348719578158, 0.409396780171, -0.152304135167, 0.0742509717134, -2.18575157973e-15, -4.2674197509e-16, -0.98866864971, 1.30030116559, -1.96755770383, 0.348719578158, -0.356849585751, 0.152304135167, 0.217577269895, 1.55816092366, 0.282598614038, -0.217577269895 },
        { 0.499062839226, 6.73072708679e-16, 2.08166817117e-16, -0.0443639333803, -0.360330038368, 1.26485872943, -0.101182752494, 0.229403342403, -2.15105711021e-15, 6.52256026967e-16, -2.24695429009, 1.79225538425, -0.571581844822, 0.360330038368, -0.10366595305, 0.101182752494, 0.087538242897, -0.693276884607, -0.125737389354, -0.087538242897 },
        { -0.0183629959499, 1.16573417586e-15, 7.49400541622e-16, 2.3879602104, -0.211205510875, 0.960111980387, -0.044708030751, 0.174132408828, -1.16573417586e-15, 1.08246744901e-15, 0.265865044896, -2.63546225935, 0.0446885868157, 0.211205510875, 0.00810502465158, 0.044708030751, 0.0156416064734, -1.0048005672, -0.182237433479, -0.0156416064734 },
        { 0.483110706548, 1.01307850997e-15, -4.57966997658e-16, 0.595251149482, 1.66383705977, -1.77163166792, -0.113577568389, -0.0877697116956, -4.77395900589e-15, -1.34614541736e-15, -0.0885147322177, -0.989847123812, -3.02908408087, -1.66383705977, -0.150066089523, 0.113577568389, 0.412447249234, 4.80071574879, 0.237835801219, -0.412447249234 },
        { 0.480204186576, 7.6327832943e-16, 4.6143644461e-16, -0.378847426503, 0.665923401798, 0.863016338431, -0.0925192737828, 0.0427553292169, -3.23699400617e-15, -6.93889390391e-16, -0.9795340099, 0.878177249827, -1.5401400193, -0.665923401798, -0.0763012131208, 0.0925192737828, 0.264104761667, 0.677123680872, 0.033545883904, -0.264104761667 },
        { 0.211483050178, 5.72458747072e-16, 1.03042574473e-15, -0.0443639333803, -0.195903438764, 2.66634668902, -0.0602021654608, 0.132095448741, -3.465977505e-15, 6.66133814775e-16, -0.655194435114, 0.488075318317, -0.155821659379, 0.195903438764, -0.00771967580358, 0.0602021654608, 0.106257729901, -2.51052502964, -0.124375772937, -0.106257729901 },
        { -0.372518461318, 9.99200722163e-16, 1.19348975147e-15, 2.3879602104, -0.344505336584, 2.02393464221, -0.0260903133177, 0.100269239512, -2.74780198595e-15, 1.22124532709e-15, 1.60998000277, -3.62542175186, 0.28165799821, 0.344505336584, 0.0139538267166, 0.0260903133177, 0.0189864628402, -2.30559264042, -0.114223066229, -0.0189864628402 },
        { -0.0929995320455, 4.38538094727e-15, 2.27595720048e-15, 0.595251149482, 5.36128745938, -2.61146958862, -0.0403982696223, -0.0294582160296, -9.54791801178e-15, -4.16333634234e-15, -0.293930918662, -0.208320698775, 0.948495588563, -5.36128745938, 0.0106993349924, 0.0403982696223, 0.204052406216, 1.66297400006, 0.0187588810372, -0.204052406216 },
        { -0.241157846303, 1.58206781009e-15, 1.69655955951e-15, -0.378847426503, 2.84415561308, 1.27212725033, -0.0325110916976, 0.0143500041205, -5.09314812547e-15, -2.23085439011e-15, 0.122533609776, 0.497471663029, 1.19622470498, -2.84415561308, 0.0134937990214, 0.0325110916976, 0.130662071844, -2.4683519553, -0.0278438031419, -0.130662071844 },
        { -0.487961966204, 2.15105711021e-16, 1.74166236988e-15, -0.0443639333803, 0.460593087543, 3.9303222093, -0.020792611314, 0.0443352973406, -3.97251675999e-15, 8.67361737988e-17, 1.22046595014, -0.688140050556, 1.16498018051, -0.460593087543, 0.0131413507465, 0.020792611314, 0.0525694995069, -5.09530238981, -0.0574766480871, -0.0525694995069 },
        { -0.770559854056, 8.60422844084e-16, 1.60982338571e-15, 2.3879602104, -0.373918583072, 2.98337620805, -0.00886158326519, 0.0336534421911, -3.66373598126e-15, 1.30451205393e-15, 2.90084716403, -4.51824752037, 0.6643810885, 0.373918583072, 0.00749443214515, 0.00886158326518, 0.00939328225673, -3.64775729655, -0.0411478743362, -0.00939328225673 },
        { -0.467878056063, -2.28983498829e-15, 2.63677968348e-16, 0.595251149482, -0.20465037583, -0.173353771063, -0.148929359736, -0.944616196758, -1.09634523682e-15, 1.66533453694e-16, 1.60390544218, -1.7312785356, -0.637316863303, 0.20465037583, -3.47278186019, 0.148929359736, 0.434349160465, 0.810670634366, 4.41739805695, -0.434349160465 },
        { 0.205627659957, -2.01921812604e-15, 1.07552855511e-16, -0.378847426503, -0.17013509222, 0.0844459598828, -0.308369459953, 0.460151636547, -1.11022302463e-15, 2.32452945781e-16, -1.0661315545, 1.23935132105, -0.369006719091, 0.17013509222, -2.01074208786, 0.308369459953, 0.278129340704, 0.284560759208, 1.55059045132, -0.278129340704 },
        { 0.489236057073, -1.15879528195e-15, -2.42861286637e-16, -0.0443639333803, -0.113835978641, 0.26090144011, -0.371373951429, 1.42166925227, -1.11369247158e-15, 1.28369537222e-16, -2.04881888739, 1.6039467637, -0.10307788767, 0.113835978641, -0.561678246881, 0.371373951429, 0.111900263272, -0.15782355244, -0.859991005389, -0.111900263272 },
        { -0.063835358888, 2.22044604925e-16, 2.77555756156e-16, 2.3879602104, -0.0506251436239, 0.198041561892, -0.231380918217, 1.07914160648, -7.77156117238e-16, 3.33066907388e-16, 0.454276186996, -2.77840103851, 0.0118662969395, 0.0506251436239, 0.0646602390928, 0.231380918217, 0.0199946883151, -0.209907858832, -1.14380184558, -0.0199946883151 },
        { 0.279934074334, -9.85322934355e-16, -7.35522753814e-16, 0.595251149482, -0.248634212093, -0.840424761611, -0.325737768172, -0.72447644724, -2.38697950294e-15, -4.16333634234e-16, 0.409162070756, -1.28434729457, -2.09343365799, 0.248634212093, -1.80461529496, 0.325737768172, 1.61500330611, 2.9338584196, 2.5290917422, -1.61500330611 },
        { 0.482918552223, -9.08995101412e-16, -5.89805981832e-17, -0.378847426503, -0.348719578158, 0.409396780171, -0.371946178164, 0.3529147859, -2.38004060904e-15, -2.39391839685e-16, -1.12570847712, 1.0216373514, -1.15099045211, 0.348719578158, -0.992195270348, 0.371946178164, 1.03414452161, 0.741593671943, 0.639280484448, -1.03414452161 },
        { 0.366779535288, -5.16947595841e-16, 1.94289029309e-16, -0.0443639333803, -0.360330038368, 1.26485872943, -0.339318757108, 1.09035383108, -2.49800180541e-15, 4.33680868994e-16, -1.25372049748, 0.931304895572, -0.243050916674, 0.360330038368, -0.209518653726, 0.339318757108, 0.416069171045, -1.02180781275, -0.880835177354, -0.416069171045 },
        { -0.241872355951, 4.99600361081e-16, 6.93889390391e-16, 2.3879602104, -0.211205510875, 0.960111980387, -0.187195198527, 0.82765114532, -1.60982338571e-15, 8.60422844084e-16, 1.14289314139, -3.28898099584, 0.103391518499, 0.211205510875, 0.0891272168766, 0.187195198527, 0.0743445381564, -1.06350349889, -0.916778362196, -0.0743445381564 },
        { 0.437807010606, 1.31838984174e-15, -1.38777878078e-17, 0.595251149482, 1.66383705977, -1.77163166792, -0.357588980978, -0.417169341987, -5.3290705182e-15, -7.49400541622e-16, -0.372610666567, -0.660447493521, -1.48117001362, -1.66383705977, -0.348773806171, 0.357588980978, 1.96036131649, 3.25280168153, 0.765943148158, -1.96036131649 },
        { 0.302639767092, 2.46330733589e-16, 5.65519853168e-16, -0.378847426503, 0.665923401798, 0.863016338431, -0.323045949428, 0.203216032174, -3.8198610941e-15, -5.79397640976e-16, -0.641508887459, 0.71771654687, -0.548955142761, -0.665923401798, -0.129263469283, 0.323045949428, 1.25528963821, -0.31406119567, -0.0739525628911, -1.25528963821 },
        { -0.0324350076632, -1.7694179455e-16, 9.0552565446e-16, -0.0443639333803, -0.195903438764, 2.66634668902, -0.239189492841, 0.62784952082, -3.72965547335e-15, 7.49400541622e-16, 0.084477694806, -0.00767875376248, 0.242963482655, 0.195903438764, 0.0572110546575, 0.239189492841, 0.505042871935, -2.90931017168, -0.685060575477, -0.505042871935 },
        { -0.531193484945, 6.38378239159e-16, 1.22124532709e-15, 2.3879602104, -0.344505336584, 2.02393464221, -0.115617819502, 0.476579583786, -2.80331313718e-15, 1.2490009027e-15, 2.14496537067, -4.00173209613, 0.352914172114, 0.344505336584, 0.0831013441592, 0.115617819502, 0.0902426367444, -2.37684881433, -0.559680927945, -0.0902426367444 },
        { -0.305298331173, 4.9682480352e-15, 2.16493489802e-15, 0.595251149482, 5.36128745938, -2.61146958862, -0.171483384657, -0.140014867997, -1.05471187339e-14, -4.4408920985e-15, -0.192188771502, -0.0977640468074, 1.71430404195, -5.36128745938, 0.0919130190854, 0.171483384656, 0.969860859599, 0.897165546672, 0.0481018489115, -0.969860859599 },
        { -0.426959954263, 1.58206781009e-15, 1.80758186197e-15, -0.378847426503, 2.84415561308, 1.27212725033, -0.141379378345, 0.0682055536108, -5.37070388162e-15, -2.50841014626e-15, 0.362191267227, 0.443616113539, 1.68659931516, -2.84415561308, 0.0904276203348, 0.141379378345, 0.621036682024, -2.95872656548, -0.158633173946, -0.621036682024 },
        { -0.620605062442, 2.42861286637e-17, 1.57859836314e-15, -0.0443639333803, 0.460593087543, 3.9303222093, -0.0935382840311, 0.210725618907, -4.13558076673e-15, -1.5959455979e-16, 1.51949936794, -0.854530372122, 1.36227345364, -0.460593087543, 0.0730387742668, 0.093538284031, 0.249862772637, -5.29259566294, -0.283764393174, -0.249862772637 },
        { -0.832889012138, 6.93889390391e-16, 1.58206781009e-15, 2.3879602104, -0.373918583072, 2.98337620805, -0.041174044941, 0.159954773272, -3.74700270811e-15, 1.38777878078e-15, 3.08947765319, -4.64454885146, 0.699634066353, 0.373918583072, 0.0375111285513, 0.041174044941, 0.04464626011, -3.6830102744, -0.197465901824, -0.04464626011 },
        { 0.481257411951, -5.16253706451e-15, 4.16333634234e-16, 0.595251149482, -0.20465037583, -0.173353771063, 2.17279178081, -1.91777491361, -1.80411241502e-15, -3.60822483003e-16, -0.318388742681, -0.758119818752, -0.189843409943, 0.20465037583, -2.10019618766, -2.17279178081, 0.881822613826, 0.363197181005, 4.01797110127, -0.881822613826 },
        { 0.374511532558, -3.74006381421e-15, 7.97972798949e-17, -0.378847426503, -0.17013509222, 0.0844459598828, 0.958871030836, 0.934207213526, -2.3037127761e-15, -6.93889390391e-17, -0.760959850121, 0.765295744066, -0.0824734230848, 0.17013509222, -0.912385469677, -0.958871030836, 0.56466263671, -0.00197253679805, -0.0218217438494, -0.56466263671 },
        { 0.0476238812119, -2.39391839685e-15, -3.12250225676e-16, -0.0443639333803, -0.113835978641, 0.26090144011, -0.116302631711, 2.88629565829, -1.94635974005e-15, 1.73472347598e-17, -0.142580305513, 0.139320357681, 0.0122035536126, 0.113835978641, 0.135005248698, 0.116302631711, 0.227181704555, -0.273104993722, -3.02130090699, -0.227181704555 },
        { -0.482761972147, -6.66133814775e-16, 2.49800180541e-16, 2.3879602104, -0.0506251436239, 0.198041561892, -0.355812964294, 2.19089055243, -8.04911692853e-16, 1.94289029309e-16, 1.9849517462, -3.89014998445, 0.0324651446951, 0.0506251436239, 0.359154806274, 0.355812964294, 0.0405935360707, -0.230506706587, -2.5500453587, -0.0405935360707 },
        { 0.347571076915, -3.0114799543e-15, -5.96744875736e-16, 0.595251149482, -0.248634212093, -0.840424761611, 0.794608255264, -1.47084367258, -2.1371793224e-15, -4.71844785466e-16, -0.404842157164, -0.537980069233, -0.429631416958, 0.248634212093, -0.751906274111, -0.794608255264, 3.27880554714, 1.27005617857, 2.22274994669, -3.27880554714 },
        { 0.18962728893, -2.66106581215e-15, 3.46944695195e-17, -0.378847426503, -0.348719578158, 0.409396780171, 0.177150719236, 0.716493243885, -2.52228793407e-15, -6.07153216592e-16, -0.468838755847, 0.65805889342, -0.0855982228213, 0.348719578158, -0.149807109656, -0.177150719236, 2.09953675091, -0.323798557349, -0.566686134228, -2.09953675091 },
        { -0.142029172075, -1.80758186197e-15, 2.28983498829e-16, -0.0443639333803, -0.360330038368, 1.26485872943, -0.31380380428, 2.21365379016, -3.17107451409e-15, 7.6327832943e-17, 0.378388168965, -0.19199506351, 0.185590199161, 0.360330038368, 0.324805006465, 0.31380380428, 0.84471028688, -1.45044892859, -2.53845879663, -0.84471028688 },
        { -0.5935657667, -1.38777878078e-16, 6.93889390391e-16, 2.3879602104, -0.211205510875, 0.960111980387, -0.313025048504, 1.6803105951, -1.72084568817e-15, 5.82867087928e-16, 2.34724600192, -4.14164044562, 0.179982450991, 0.211205510875, 0.314990777649, 0.313025048504, 0.150935470649, -1.14009443138, -1.99530137275, -0.150935470649 },
        { -0.0540171096638, 1.52655665886e-15, 1.11022302463e-16, 0.595251149482, 1.66383705977, -1.77163166792, -0.243240283337, -0.846943871527, -6.52256026967e-15, -5.41233724505e-16, -0.310561075838, -0.230672963981, 0.538425574373, -1.66383705977, 0.25739901174, 0.243240283337, 3.97995690448, 1.23320609354, 0.589544859787, -3.97995690448 },
        { -0.206115430167, -3.3653635434e-16, 7.38992200766e-16, -0.378847426503, 0.665923401798, 0.863016338431, -0.346735667979, 0.41257243935, -4.40966707593e-15, -6.45317133063e-16, 0.0766027169765, 0.508360139693, 0.74426432329, -0.665923401798, 0.355802009426, 0.346735667979, 2.54850910426, -1.60728066172, -0.768374448776, -2.54850910426 },
        { -0.462159330952, -8.95117313604e-16, 9.36750677027e-16, -0.0443639333803, -0.195903438764, 2.66634668902, -0.361238596901, 1.27467014083, -3.94823063132e-15, 2.25514051877e-16, 1.1610226381, -0.65449937377, 0.763266728452, 0.195903438764, 0.364886273886, 0.361238596901, 1.02534611773, -3.42961341748, -1.63955641471, -1.02534611773 },
        { -0.758139561815, 1.94289029309e-16, 1.16573417586e-15, 2.3879602104, -0.344505336584, 2.02393464221, -0.212506731111, 0.967559494807, -3.21964677141e-15, 5.82867087928e-16, 2.86289135856, -4.49271200715, 0.445883580093, 0.344505336584, 0.21315850942, 0.212506731111, 0.183212044723, -2.4698182223, -1.18071800423, -0.183212044723 },
        { -0.631033513741, 5.88418203051e-15, 2.08166817117e-15, 0.595251149482, 5.36128745938, -2.61146958862, -0.293768316833, -0.284260424814, -1.21846976953e-14, -4.17721413015e-15, -0.0106991457502, 0.0464815100097, 2.71347021429, -5.36128745938, 0.295363269477, 0.293768316833, 1.96902703195, -0.102000625674, -0.0111028446634, -1.96902703195 },
        { -0.70059269235, 1.81452075587e-15, 2.08860706508e-15, -0.378847426503, 2.84415561308, 1.27212725033, -0.252209215701, 0.13847200602, -6.25194340742e-15, -2.52922682797e-15, 0.706090457723, 0.37334966113, 2.32640123965, -2.84415561308, 0.253230521065, 0.252209215701, 1.26083860652, -3.59852848998, -0.391702527085, -1.26083860652 },
        { -0.806225191361, -3.71230823859e-16, 1.62717062047e-15, -0.0443639333803, 0.460593087543, 3.9303222093, -0.175893141823, 0.427818522467, -4.30905311433e-15, -2.22044604925e-16, 1.92221240042, -1.07162327568, 1.61968607905, -0.460593087543, 0.176304045394, 0.175893141823, 0.507275398044, -5.55000828834, -0.604122567861, -0.507275398044 },
        { -0.916455047584, 3.60822483003e-16, 1.47104550763e-15, 2.3879602104, -0.373918583072, 2.98337620805, -0.0810888937031, 0.324742739481, -3.9135361618e-15, 1.19348975147e-15, 3.33783165485, -4.80933681766, 0.745629357721, 0.373918583072, 0.0811623152356, 0.0810888937031, 0.0906415514779, -3.72900556577, -0.405905054717, -0.0906415514779 },
        { -0.491757354275, -7.86870568703e-15, 6.10622663544e-16, 0.595251149482, -0.20465037583, -0.173353771063, 5.65274654358, -2.66365001674, -7.6327832943e-16, -9.29811783124e-16, -0.0912490795909, -0.0122447156164, 0.153121516946, 0.20465037583, 2.35277334133, -5.65274654358, 1.22478754071, 0.0202322541171, 0.310876675411, -1.22478754071 },
        { -0.58492442953, -5.15906761756e-15, 1.73472347598e-16, -0.378847426503, -0.17013509222, 0.0844459598828, 3.01902097627, 1.29754594363, -2.69922972862e-15, -2.28983498829e-16, 0.561814842072, 0.401957013961, 0.137139316348, 0.17013509222, 2.10720043785, -3.01902097627, 0.784275376143, -0.221585276231, -3.40474638148, -0.784275376143 },
        { -0.728938303866, -2.76514922071e-15, -3.08780778724e-16, -0.0443639333803, -0.113835978641, 0.26090144011, 0.517285773339, 4.00885496206, -2.24126273096e-15, -4.16333634234e-17, 1.75654118333, -0.983238946088, 0.100560730523, 0.113835978641, 1.54515583883, -0.517285773339, 0.315538881465, -0.361462170632, -5.55401080088, -0.315538881465 },
        { -0.882126464396, -1.02695629778e-15, 2.22044604925e-16, 2.3879602104, -0.0506251436239, 0.198041561892, -0.372904379035, 3.04298779552, -1.02695629778e-15, -8.32667268469e-17, 3.23641348154, -4.74224722754, 0.0482530808541, 0.0506251436239, 0.741427883783, 0.372904379035, 0.0563814722297, -0.246294642746, -3.7844156793, -0.0563814722297 },
        { -0.60083881861, -4.20496970577e-15, -3.33066907388e-16, 0.595251149482, -0.248634212093, -0.840424761611, 2.6535448169, -2.04289499528, -7.35522753814e-16, -7.07767178199e-16, -0.0284835843435, 0.0340712534717, 0.84558571529, 0.248634212093, 2.05544018305, -2.6535448169, 4.55402267938, -0.00516095367873, -0.0125451877702, -4.55402267938 },
        { -0.67566108632, -3.57353036051e-15, 1.94289029309e-16, -0.378847426503, -0.348719578158, 0.409396780171, 1.23850069309, 0.995157058072, -2.07472927727e-15, -7.18175519054e-16, 0.67511343359, 0.379395079233, 0.730969028896, 0.348719578158, 1.77683123945, -1.23850069309, 2.91610400262, -1.14036580907, -2.77198829752, -2.91610400262 },
        { -0.789696230825, -2.6575963652e-15, 2.39391839685e-16, -0.0443639333803, -0.360330038368, 1.26485872943, -0.0365560540834, 3.07460427884, -3.50414142147e-15, -1.90819582357e-16, 1.88700571639, -1.05294555219, 0.514121127309, 0.360330038368, 1.24971981541, 0.0365560540834, 1.17324121503, -1.77897985674, -4.32432409425, -1.17324121503 },
        { -0.909165504675, -5.82867087928e-16, 6.66133814775e-16, 2.3879602104, -0.211205510875, 0.960111980387, -0.363421838307, 2.33382933159, -1.85962356625e-15, 3.60822483003e-16, 3.31636447638, -4.79515918211, 0.238685382674, 0.211205510875, 0.580193725821, 0.363421838307, 0.209638402332, -1.19879736306, -2.91402305741, -0.209638402332 },
        { -0.762628186469, 1.63757896132e-15, 2.77555756156e-16, 0.595251149482, 1.66383705977, -1.77163166792, 0.176055684937, -1.17634350182, -7.4523720528e-15, -4.85722573274e-16, 0.0686503706761, 0.0987266663109, 2.08633964163, -1.66383705977, 1.38530605682, -0.176055684937, 5.52787097173, -0.314707973712, -0.208962555, -5.52787097173 },
        { -0.808419347998, -5.41233724505e-16, 8.04911692853e-16, -0.378847426503, 0.665923401798, 0.863016338431, -0.152522845277, 0.573033142308, -5.21804821574e-15, -8.08381139805e-16, 0.839367337764, 0.347899436736, 1.73544919983, -0.665923401798, 1.15231874996, 0.152522845277, 3.5396939808, -2.59846553826, -1.72535189227, -3.5396939808 },
        { -0.876963572778, -1.57165946923e-15, 8.43075609325e-16, -0.0443639333803, -0.195903438764, 2.66634668902, -0.369339740296, 1.77042421291, -4.06966127464e-15, -3.46944695195e-17, 2.07158095201, -1.15025344585, 1.16205187049, 0.195903438764, 0.771589372317, 0.369339740296, 1.42413125977, -3.82839855951, -2.54201358522, -1.42413125977 },
        { -0.947349062182, -3.33066907388e-16, 1.22124532709e-15, 2.3879602104, -0.344505336584, 2.02393464221, -0.271499760555, 1.34386983908, -3.35842464949e-15, 5.82867087928e-16, 3.42841120321, -4.86902235142, 0.517139753997, 0.344505336584, 0.343374980344, 0.271499760555, 0.254468218627, -2.54107439621, -1.68724481942, -0.254468218627 },
        { -0.918052572403, 6.5780714209e-15, 2.19269047363e-15, 0.595251149482, 5.36128745938, -2.61146958862, -0.350133172333, -0.394817076781, -1.38500322322e-14, -3.06699110553e-15, 0.165763260944, 0.157038161977, 3.47927866768, -5.36128745938, 0.526017472639, 0.350133172333, 2.73483548533, -0.867809079058, -0.131200395858, -2.73483548533 },
        { -0.934240861529, 1.83880688454e-15, 2.12677098155e-15, -0.378847426503, 2.84415561308, 1.27212725033, -0.313231441131, 0.19232755551, -6.75848266241e-15, -2.73739364509e-15, 0.993594176392, 0.31949411164, 2.81677584983, -2.84415561308, 0.425856464814, 0.313231441131, 1.7512132167, -4.08890310016, -0.618184020324, -1.7512132167 },
        { -0.958118276949, -5.37764277553e-16, 1.62717062047e-15, -0.0443639333803, 0.460593087543, 3.9303222093, -0.229388825189, 0.594208844034, -4.47558656802e-15, -3.88578058619e-16, 2.24049580758, -1.23801359725, 1.81697935218, -0.460593087543, 0.274701447616, 0.229388825189, 0.704568671174, -5.74730156148, -0.86891029165, -0.704568671174 },
        { -0.982223853849, 3.60822483003e-16, 1.47104550763e-15, 2.3879602104, -0.373918583072, 2.98337620805, -0.109961707197, 0.451044070563, -3.88578058619e-15, 1.11022302463e-15, 3.52990179219, -4.93563814875, 0.780882335575, 0.373918583072, 0.118058308006, 0.109961707197, 0.125894529331, -3.76425854362, -0.569102378569, -0.125894529331 } } };
static const double FE1_C0_D010_Q64[1][64][20] =
    { { { -2.89581790868, 9.29811783124e-16, 0.550843873647, -1.3983425341e-17, -0.147100493052, -0.186496378007, -1.05471187339e-15, -2.63677968348e-16, -0.227929503657, -0.188928908491, -0.875026145643, 0.186496378007, 4.67246475339, -2.32749071835, -1.1238421515, 0.227929503657, 0.0815720484451, 1.02212663869, -0.0815720484451, 1.31277105999 },
        { -1.01268955904, 7.91033905045e-16, 0.634208990161, 1.42309733068e-16, -0.793601441481, -0.305144107519, -2.3037127761e-15, -7.49400541622e-16, -0.19076622431, -0.165792744889, -3.23017404189, 0.305144107519, 2.43040151775, -2.05192094887, -0.674821633228, 0.19076622431, 0.321122252601, 4.02377548337, -0.321122252601, 0.840614378116 },
        { 0.389619002348, 3.88578058619e-16, 0.762060204474, 7.18874231273e-16, -1.94170757098, 1.28234889459, -2.52575738102e-15, -1.38777878078e-15, -0.128783116676, -0.118735493096, -3.58904690978, -1.28234889459, 0.325850708759, -1.47752991558, -0.219470357404, 0.128783116676, 0.44138852796, 5.53075448075, -0.44138852796, 0.338205850499 },
        { 0.178970691981, 1.11022302463e-15, 0.896915023366, 1.71015987335e-15, -3.33082998563, 4.96929159094, -2.6645352591e-15, -3.33066907388e-15, -0.0577310620952, -0.0559357213523, -0.267722727926, -4.96929159094, -0.376826018255, -0.699059697092, -0.00449595565476, 0.0577310620952, 0.287186836905, 3.59855271356, -0.287186836905, 0.060431677007 },
        { -0.772156249477, -9.64506252643e-16, -0.434006101241, 4.25052137024e-18, 0.126694655025, -0.186496378007, -2.09554595898e-15, -3.60822483003e-16, -0.184174110475, 0.124799102942, -0.620241099631, 0.186496378007, -0.715105973334, 1.92126832405, -0.610961313457, 0.184174110475, 0.0625619463803, 0.493546444607, -0.0625619463803, 0.486162210515 },
        { 0.0672149106221, -1.04083408559e-16, -0.297265876949, 7.03665842635e-17, 0.284239759978, -0.305144107519, -1.94289029309e-15, -6.66133814775e-16, -0.152304135167, 0.0455424913826, -2.2271693428, 0.305144107519, -0.72905701074, 0.959107977067, -0.356849585751, 0.152304135167, 0.246285750226, 1.94292958282, -0.246285750226, 0.311307094368 },
        { 0.499062839226, 2.63677968348e-16, 0.0380105914258, 5.92844134758e-16, -0.460194728335, 1.28234889459, -2.52575738102e-15, -1.05471187339e-15, -0.101182752494, -0.0215827737844, -2.21039823601, -1.28234889459, -0.608137898906, 0.0710644682533, -0.10366595305, 0.101182752494, 0.338524359085, 2.67059296434, -0.338524359085, 0.125248726834 },
        { -0.0183629959499, 1.49880108324e-15, 0.534467499978, 1.62285765996e-15, -2.366892411, 4.96929159094, -2.88657986403e-15, -2.44249065418e-15, -0.044708030751, -0.0304848581003, 0.629286883202, -4.96929159094, -0.318733251491, -0.197371252537, 0.00810502465158, 0.044708030751, 0.220258873401, 1.7376055278, -0.220258873401, 0.0223798334488 },
        { 0.483110706548, -1.95329863395e-15, 0.165050168905, -2.86629021961e-17, 0.508902750435, -0.186496378007, -3.3723024373e-15, -1.38777878078e-16, -0.113577568389, 0.288653004092, -0.264570417154, 0.186496378007, -2.85302839593, 2.20486752048, -0.150066089523, 0.113577568389, 0.0360245334467, -0.24433233328, -0.0360245334467, -0.138586914569 },
        { 0.480204186576, -1.34614541736e-15, -0.333630559701, -6.74381499528e-17, 1.78886698095, -0.305144107519, -1.63757896132e-15, -4.4408920985e-16, -0.0925192737828, 0.165043383447, -0.827011164623, 0.305144107519, -1.69266286458, 1.54608923771, -0.0763012131208, 0.0925192737828, 0.141816707436, -0.961855816324, -0.141816707436, -0.0887421703264 },
        { 0.211483050178, -2.49800180541e-16, -0.464213039151, 4.01873659929e-16, 1.60794346144, 1.28234889459, -1.97064586871e-15, -8.32667268469e-16, -0.0602021654608, 0.043423468139, -0.285854694818, -1.28234889459, -0.525161399675, 0.777891388649, -0.00771967580358, 0.0602021654608, 0.194929710502, -1.32208876662, -0.194929710502, -0.0357037923354 },
        { -0.372518461318, 1.55431223448e-15, 0.119368446579, 1.49830007301e-15, -1.02127052149, 4.96929159094, -3.10862446895e-15, -1.55431223448e-15, -0.0260903133177, -0.00757416166006, 1.88147976333, -4.96929159094, 0.0101582376552, 0.242991777084, 0.0139538267166, 0.0260903133177, 0.126829864013, -0.860209241841, -0.126829864013, -0.00637966505651 },
        { -0.0929995320455, -1.83880688454e-16, 2.67795638548, -1.16677510375e-16, 0.853609012762, -0.186496378007, -5.53723733532e-15, -8.32667268469e-17, -0.0403982696223, 0.162503248241, 0.0562022536712, 0.186496378007, 0.59836241623, -3.18331926967, 0.0106993349924, 0.0403982696223, 0.012090941945, -0.909811266434, -0.012090941945, -0.173202583234 },
        { -0.241157846303, -1.91513471748e-15, 0.896717691404, -2.29072819944e-16, 3.14586185302, -0.305144107519, -9.99200722163e-16, -2.77555756156e-16, -0.0325110916976, 0.0974140250698, 0.435765050907, 0.305144107519, 0.882993263847, -1.53855310895, 0.0134937990214, 0.0325110916976, 0.0475980508943, -3.58162690393, -0.0475980508943, -0.110907824091 },
        { -0.487961966204, -1.33920652345e-15, -0.408955764144, 2.14613428956e-16, 3.47315823301, 1.28234889459, -1.11022302463e-15, -5.55111512313e-16, -0.020792611314, 0.0314803877703, 1.44985477533, -1.28234889459, 0.935591355324, -0.0386736249753, 0.0131413507465, 0.020792611314, 0.0654244090772, -4.92301300834, -0.0654244090772, -0.0446217385168 },
        { -0.770559854056, 1.49880108324e-15, -0.164194200903, 1.3832787654e-15, 0.192320445346, 4.96929159094, -2.44249065418e-15, -2.22044604925e-15, -0.00886158326519, 0.00047871937058, 3.01080887123, -4.96929159094, 0.554419381303, 0.380334673656, 0.00749443214515, 0.00886158326518, 0.0425680050772, -3.20312931657, -0.0425680050772, -0.00797315151573 },
        { -0.467878056063, -1.67227343084e-15, 0.550843873647, -5.52633472895e-17, -0.147100493052, -0.186496378007, -1.49880108324e-15, 9.71445146547e-17, -0.148929359736, -0.897978891749, -0.568886338632, 0.186496378007, 1.53547491751, -1.6184407351, -3.47278186019, 0.148929359736, 0.387711855456, 0.715986831683, -0.387711855456, 4.37076075194 },
        { 0.205627659957, -7.14706072102e-16, 0.634208990161, -1.59779099053e-17, -0.793601441481, -0.305144107519, -1.72084568817e-15, -4.4408920985e-16, -0.308369459953, -0.788012731901, -2.02500258534, 0.305144107519, 0.589864311745, -1.42970096186, -2.01074208786, 0.308369459953, 1.52629370915, 2.81860402682, -1.52629370915, 2.79875481977 },
        { 0.489236057073, -3.81639164715e-16, 0.762060204474, 5.02101460422e-16, -1.94170757098, 1.28234889459, -1.11022302463e-15, -1.05471187339e-15, -0.371373951429, -0.564349666511, -1.93251625568, -1.28234889459, -0.219380519381, -1.03191574217, -0.561678246881, 0.371373951429, 2.09791918205, 3.87422382666, -2.09791918205, 1.12602791339 },
        { -0.063835358888, 7.21644966006e-16, 0.896915023366, 1.56927353077e-15, -3.33082998563, 4.96929159094, -1.55431223448e-15, -2.6645352591e-15, -0.231380918217, -0.265862421322, 0.81008915129, -4.96929159094, -0.343946667355, -0.489132997123, 0.0646602390928, 0.231380918217, 1.36499871612, 2.52074083434, -1.36499871612, 0.201202182229 },
        { 0.279934074334, -1.97411531566e-15, -0.434006101241, -2.54198901499e-17, 0.126694655025, -0.186496378007, -2.69229083472e-15, -6.93889390391e-17, -0.325737768172, 0.593169997362, -0.385446184508, 0.186496378007, -1.29882540272, 1.45289742963, -1.80461529496, 0.325737768172, 0.297356861504, 0.258751529483, -0.297356861504, 1.2114452976 },
        { 0.482918552223, -1.02001740387e-15, -0.297265876949, -4.9758778122e-17, 0.284239759978, -0.305144107519, -1.85962356625e-15, -4.4408920985e-16, -0.371946178164, 0.216463410845, -1.30285919636, 0.305144107519, -0.973839732878, 0.788187057604, -0.992195270348, 0.371946178164, 1.17059589667, 1.01861943638, -1.17059589667, 0.775731859503 },
        { 0.366779535288, -2.91433543964e-16, 0.0380105914258, 4.271020703e-16, -0.460194728335, 1.28234889459, -1.52655665886e-15, -7.77156117238e-16, -0.339318757108, -0.102582899772, -0.939916693199, -1.28234889459, -0.556854720955, 0.152064594241, -0.209518653726, 0.339318757108, 1.6090059019, 1.40011142153, -1.6090059019, 0.312101553498 },
        { -0.241872355951, 1.11022302463e-15, 0.534467499978, 1.51489600132e-15, -2.366892411, 4.96929159094, -1.99840144433e-15, -2.22044604925e-15, -0.187195198527, -0.144894496616, 1.45591818989, -4.96929159094, -0.209633530006, -0.0829616140211, 0.0891272168766, 0.187195198527, 1.04689018009, 0.910974221109, -1.04689018009, 0.0557672797396 },
        { 0.437807010606, -1.28716481917e-15, 0.165050168905, -4.4148673863e-17, 0.508902750435, -0.186496378007, -3.53883589099e-15, 0.0, -0.357588980978, 1.37196740713, -0.12937038323, 0.186496378007, -1.72441029695, 1.12155311744, -0.348773806171, 0.357588980978, 0.171224567371, -0.379532367205, -0.171224567371, -1.02319360096 },
        { 0.302639767092, -1.36696209907e-15, -0.333630559701, -1.35584993906e-16, 1.78886698095, -0.305144107519, -1.69309011255e-15, -3.60822483003e-16, -0.323045949428, 0.784451017804, -0.29477321948, 0.305144107519, -0.89569081074, 0.926681603349, -0.129263469283, 0.323045949428, 0.674054652579, -1.49409376147, -0.674054652579, -0.655187548521 },
        { -0.0324350076632, -5.55111512313e-16, -0.464213039151, 3.06847735392e-16, 1.60794346144, 1.28234889459, -1.4155343564e-15, -7.21644966006e-16, -0.239189492841, 0.206391695727, 0.445716291707, -1.28234889459, -0.118275114246, 0.614923161061, 0.0572110546575, 0.239189492841, 0.926500697027, -2.05365975315, -0.926500697027, -0.263602750384 },
        { -0.531193484945, 1.44328993201e-15, 0.119368446579, 1.43620700728e-15, -1.02127052149, 4.96929159094, -2.44249065418e-15, -1.55431223448e-15, -0.115617819502, -0.0359999819389, 2.35747210178, -4.96929159094, 0.140407441003, 0.271417597362, 0.0831013441592, 0.115617819502, 0.602822202469, -1.3362015803, -0.602822202469, -0.0471013622203 },
        { -0.305298331173, 4.96130914129e-16, 2.67795638548, -1.21390966257e-16, 0.853609012762, -0.186496378007, -5.37070388162e-15, 4.16333634234e-17, -0.171483384656, 0.772377757997, 0.101579545331, 0.186496378007, 1.42053572511, -3.79319377942, 0.0919130190854, 0.171483384656, 0.0574682336052, -0.955188558094, -0.0574682336052, -0.864290777083 },
        { -0.426959954263, -1.75554015769e-15, 0.896717691404, -2.51635045982e-16, 3.14586185302, -0.305144107519, -1.19348975147e-15, -2.22044604925e-16, -0.141379378345, 0.463008752719, 0.614400482928, 0.305144107519, 1.43439009946, -1.9041478366, 0.0904276203348, 0.141379378345, 0.226233482916, -3.76026233595, -0.226233482916, -0.553436373053 },
        { -0.620605062442, -1.40165656859e-15, -0.408955764144, 1.82844508046e-16, 3.47315823301, 1.28234889459, -1.05471187339e-15, -5.55111512313e-16, -0.0935382840311, 0.149626248029, 1.69539250977, -1.28234889459, 1.18638031182, -0.156819485234, 0.0730387742668, 0.093538284031, 0.310962143516, -5.16855074278, -0.310962143516, -0.222665022296 },
        { -0.832889012138, 1.33226762955e-15, -0.164194200903, 1.36246070426e-15, 0.192320445346, 4.96929159094, -2.22044604925e-15, -2.44249065418e-15, -0.041174044941, 0.00227535263548, 3.1705665469, -4.96929159094, 0.61854517265, 0.378538040391, 0.0375111285513, 0.041174044941, 0.202325680747, -3.36288699224, -0.202325680747, -0.0397864811868 },
        { 0.481257411951, -5.16253706451e-15, 0.550843873647, -1.30955500526e-16, -0.147100493052, -0.186496378007, -2.91433543964e-15, 3.33066907388e-16, 2.17279178081, -1.82309111093, -0.169459382945, 0.186496378007, -0.338772769679, -0.693328515919, -2.10019618766, -2.17279178081, 0.787138811143, 0.316559875996, -0.787138811143, 3.92328729858 },
        { 0.374511532558, -2.82412981889e-15, 0.634208990161, -2.36479778545e-16, -0.793601441481, -0.305144107519, -2.1371793224e-15, -2.22044604925e-16, 0.958871030836, -1.59983605408, -0.452590390168, 0.305144107519, -0.390842883037, -0.617877639681, -0.912385469677, -0.958871030836, 3.09870590432, 1.24619183165, -3.09870590432, 2.51222152376 },
        { 0.0476238812119, -1.6028844918e-15, 0.762060204474, 2.13648651731e-16, -1.94170757098, 1.28234889459, 1.94289029309e-16, -5.55111512313e-16, -0.116302631711, -1.14575172081, 0.228793645916, -1.28234889459, -0.359170397816, -0.45051368787, 0.135005248698, 0.116302631711, 4.25922908365, 1.71291392506, -4.25922908365, 1.01074647211 },
        { -0.482761972147, 3.33066907388e-16, 0.896915023366, 1.3844511267e-15, -3.33082998563, 4.96929159094, 0.0, -2.6645352591e-15, -0.355812964294, -0.539758140747, 2.21633266441, -4.96929159094, -0.198915773522, -0.215237277698, 0.359154806274, 0.355812964294, 2.77124222925, 1.11449732122, -2.77124222925, 0.180603334473 },
        { 0.347571076915, -3.61169427698e-15, -0.434006101241, -7.69742641851e-17, 0.126694655025, -0.186496378007, -3.27515792264e-15, 1.52655665886e-16, 0.794608255264, 1.20426321754, -0.0791043889923, 0.186496378007, -0.75536918513, 0.841804209455, -0.751906274111, -0.794608255264, 0.603698657019, -0.0475902660322, -0.603698657019, -0.452356943427 },
        { 0.18962728893, -2.14411821631e-15, -0.297265876949, -2.14712517739e-16, 0.284239759978, -0.305144107519, -2.27595720048e-15, -2.77555756156e-16, 0.177150719236, 0.439467479446, -0.0968925776839, 0.305144107519, -0.457544400985, 0.565182989003, -0.149807109656, -0.177150719236, 2.37656251534, -0.187347182294, -2.37656251534, -0.28966036979 },
        { -0.142029172075, -1.04083408559e-15, 0.0380105914258, 2.07546310541e-16, -0.460194728335, 1.28234889459, -6.93889390391e-16, -6.10622663544e-16, -0.31380380428, -0.208265444127, 0.717706926074, -1.28234889459, -0.153728557947, 0.257747138596, 0.324805006465, 0.31380380428, 3.26662952117, -0.257512197739, -3.26662952117, -0.116539562338 },
        { -0.5935657667, 7.77156117238e-16, 0.534467499978, 1.37344498608e-15, -2.366892411, 4.96929159094, -6.66133814775e-16, -2.44249065418e-15, -0.313025048504, -0.294167124896, 2.53444120044, -4.96929159094, -0.00721274753624, 0.0663110142587, 0.314990777649, 0.313025048504, 2.12541319064, -0.167548789442, -2.12541319064, -0.0208236527528 },
        { -0.0540171096638, -7.52869988574e-16, 0.165050168905, -6.86115692767e-17, 0.508902750435, -0.186496378007, -3.58046925442e-15, 3.1918911958e-16, -0.243240283337, 2.78539017721, 0.0470279051407, 0.186496378007, 0.180836593395, -0.291869652636, 0.25739901174, 0.243240283337, 0.347622855742, -0.555930655576, -0.347622855742, -3.04278918895 },
        { -0.206115430167, -1.33920652345e-15, -0.333630559701, -2.27224329052e-16, 1.78886698095, -0.305144107519, -2.02615701994e-15, -2.22044604925e-16, -0.346735667979, 1.59260500515, 0.399648666405, 0.305144107519, 0.421218373862, 0.118527616006, 0.355802009426, 0.346735667979, 1.36847653846, -2.18851564735, -1.36847653846, -1.94840701457 },
        { -0.462159330952, -9.15933995316e-16, -0.464213039151, 1.81768388936e-16, 1.60794346144, 1.28234889459, -1.08246744901e-15, -6.66133814775e-16, -0.361238596901, 0.419019722297, 1.40021213094, -1.28234889459, 0.524077235612, 0.402295134491, 0.364886273886, 0.361238596901, 1.88099653626, -3.00815559238, -1.88099653626, -0.783905996182 },
        { -0.758139561815, 1.11022302463e-15, 0.119368446579, 1.35499687194e-15, -1.02127052149, 4.96929159094, -1.99840144433e-15, -1.55431223448e-15, -0.212506731111, -0.0730877392213, 2.97850917807, -4.96929159094, 0.330265760591, 0.308505354645, 0.21315850942, 0.212506731111, 1.22385927875, -1.95723865658, -1.22385927875, -0.140070770199 },
        { -0.631033513741, 1.55084278752e-15, 2.67795638548, -1.28020397587e-16, 0.853609012762, -0.186496378007, -5.42621503286e-15, 1.38777878078e-16, -0.293768316833, 1.56809367995, 0.160784238906, 0.186496378007, 2.54198682964, -4.58890970138, 0.295363269477, 0.293768316833, 0.11667292718, -1.01439325167, -0.11667292718, -1.86345694943 },
        { -0.70059269235, -1.4224732503e-15, 0.896717691404, -2.81379611466e-16, 3.14586185302, -0.305144107519, -1.19348975147e-15, -1.38777878078e-16, -0.252209215701, 0.940007776483, 0.847469836067, 0.305144107519, 2.18502186131, -2.38114686036, 0.253230521065, 0.252209215701, 0.459302836055, -3.99333168909, -0.459302836055, -1.19323829755 },
        { -0.806225191361, -1.5959455979e-15, -0.408955764144, 1.41271357321e-16, 3.47315823301, 1.28234889459, -7.49400541622e-16, -2.77555756156e-16, -0.175893141823, 0.303773602309, 2.01575068445, -1.28234889459, 1.52614779502, -0.310966839513, 0.176304045394, 0.175893141823, 0.631320318202, -5.48890891747, -0.631320318202, -0.480077647702 },
        { -0.916455047584, 1.22124532709e-15, -0.164194200903, 1.33527686632e-15, 0.192320445346, 4.96929159094, -2.22044604925e-15, -2.44249065418e-15, -0.0810888937031, 0.00461945731918, 3.37900569979, -4.96929159094, 0.70445531278, 0.376193935708, 0.0811623152356, 0.0810888937031, 0.41076483364, -3.57132614513, -0.41076483364, -0.0857817725548 },
        { -0.491757354275, -7.38645256071e-15, 0.550843873647, -2.05703707648e-16, -0.147100493052, -0.186496378007, -1.60982338571e-15, 4.4408920985e-16, 5.65274654358, -2.53214109418, 0.136680424066, 0.186496378007, -0.0748079867117, 0.015721467339, 2.35277334133, -5.65274654358, 1.09327861815, 0.0104200689853, -1.09327861815, 0.179367752851 },
        { -0.58492442953, -4.19803081186e-15, 0.634208990161, -4.16198364494e-16, -0.793601441481, -0.305144107519, -2.41473507856e-15, 0.0, 3.01902097627, -2.22205604109, 0.752581066382, 0.305144107519, -0.0536269079622, 0.00434234733103, 2.10720043785, -3.01902097627, 4.30387736087, 0.0410203750992, -4.30387736087, 0.114855603245 },
        { -0.728938303866, -2.24126273096e-15, 0.762060204474, -1.17464678269e-17, -1.94170757098, 1.28234889459, 7.21644966006e-16, -2.77555756156e-16, 0.517285773339, -1.59136589422, 1.88532430001, -1.28234889459, -0.0282223861535, -0.00489951445438, 1.54515583883, -0.517285773339, 5.91575973775, 0.0563832709652, -5.91575973775, 0.0462100553966 },
        { -0.882126464396, 2.77555756156e-16, 0.896915023366, 1.24202411594e-15, -3.33082998563, 4.96929159094, 4.4408920985e-16, -1.7763568394e-15, -0.372904379035, -0.749684840716, 3.29414454363, -4.96929159094, -0.00947798124115, -0.0053105777284, 0.741427883783, 0.372904379035, 3.84905410846, 0.0366854420021, -3.84905410846, 0.00825695693342 },
        { -0.60083881861, -4.77395900589e-15, -0.434006101241, -1.26331298825e-16, 0.126694655025, -0.186496378007, -1.66533453694e-15, 4.85722573274e-16, 2.6535448169, 1.67263411196, 0.155690526131, 0.186496378007, 0.661411604815, 0.373433315036, 2.05544018305, -2.6535448169, 0.838493572143, -0.282385181156, -0.838493572143, -3.72807429501 },
        { -0.67566108632, -2.73392419814e-15, -0.297265876949, -3.47443930757e-16, 0.284239759978, -0.305144107519, -1.85962356625e-15, 2.77555756156e-17, 1.23850069309, 0.610388398909, 0.827417568757, 0.305144107519, 0.578664893728, 0.39426206954, 1.77683123945, -1.23850069309, 3.30087266178, -1.11165732874, -3.30087266178, -2.38721963836 },
        { -0.789696230825, -1.65839564303e-15, 0.0380105914258, 3.67324317217e-17, -0.460194728335, 1.28234889459, -5.82867087928e-16, -4.4408920985e-16, -0.0365560540834, -0.289265570115, 1.98818846888, -1.28234889459, 0.412938374815, 0.338747264584, 1.24971981541, 0.0365560540834, 4.53711106398, -1.52799374055, -4.53711106398, -0.960454245297 },
        { -0.909165504675, 6.10622663544e-16, 0.534467499978, 1.26457707982e-15, -2.366892411, 4.96929159094, 2.22044604925e-16, -1.7763568394e-15, -0.363421838307, -0.408576763412, 3.36107250713, -4.96929159094, 0.193977351923, 0.180720652775, 0.580193725821, 0.363421838307, 2.95204449733, -0.994180096133, -2.95204449733, -0.17161696241 },
        { -0.762628186469, -1.04083408559e-17, 0.165050168905, -9.06248495604e-17, 0.508902750435, -0.186496378007, -2.99760216649e-15, 4.57966997658e-16, 0.176055684937, 3.86870458025, 0.182227939065, 0.186496378007, 1.97276207324, -1.37518405567, 1.38530605682, -0.176055684937, 0.482822889666, -0.6911306895, -0.482822889666, -5.25401063707 },
        { -0.808419347998, -1.22124532709e-15, -0.333630559701, -2.99550970811e-16, 1.78886698095, -0.305144107519, -1.63757896132e-15, -2.77555756156e-17, -0.152522845277, 2.2120126395, 0.931886611547, 0.305144107519, 1.64292992605, -0.500880018351, 1.15231874996, 0.152522845277, 1.90071448361, -2.72075359249, -1.90071448361, -3.36433138946 },
        { -0.876963572778, -1.15185638805e-15, -0.464213039151, 8.50607990491e-17, 1.60794346144, 1.28234889459, -1.02695629778e-15, -3.88578058619e-16, -0.369339740296, 0.581987949885, 2.13178311747, -1.28234889459, 1.10184970503, 0.239326906903, 0.771589372317, 0.369339740296, 2.61256752279, -3.73972657891, -2.61256752279, -1.3535773222 },
        { -0.947349062182, 1.11022302463e-15, 0.119368446579, 1.292603321e-15, -1.02127052149, 4.96929159094, -1.55431223448e-15, -1.55431223448e-15, -0.271499760555, -0.1015135595, 3.45450151652, -4.96929159094, 0.491049440679, 0.336931174924, 0.343374980344, 0.271499760555, 1.69985161721, -2.43323099504, -1.69985161721, -0.241861420843 },
        { -0.918052572403, 2.00880978518e-15, 2.67795638548, -1.33469164354e-16, 0.853609012762, -0.186496378007, -5.41233724505e-15, 3.1918911958e-16, -0.350133172333, 2.17796818971, 0.206161530567, 0.186496378007, 3.43888039805, -5.19878421113, 0.526017472639, 0.350133172333, 0.16205021884, -1.05977054333, -0.16205021884, -2.70398566235 },
        { -0.934240861529, -1.14491749414e-15, 0.896717691404, -3.04412683428e-16, 3.14586185302, -0.305144107519, -1.44328993201e-15, -5.55111512313e-17, -0.313231441131, 1.30560250413, 1.02610526809, 0.305144107519, 2.78426475814, -2.74674158801, 0.425856464814, 0.313231441131, 0.637938268077, -4.17196712111, -0.637938268077, -1.73145896895 },
        { -0.958118276949, -1.66533453694e-15, -0.408955764144, 1.09313000147e-16, 3.47315823301, 1.28234889459, -6.93889390391e-16, -4.4408920985e-16, -0.229388825189, 0.421919462568, 2.26128841889, -1.28234889459, 1.79618674087, -0.429112699773, 0.274701447616, 0.229388825189, 0.87685805264, -5.73444665191, -0.87685805264, -0.696620910184 },
        { -0.982223853849, 1.22124532709e-15, -0.164194200903, 1.31442495612e-15, 0.192320445346, 4.96929159094, -2.22044604925e-15, -2.44249065418e-15, -0.109961707197, 0.00641609058407, 3.53876337546, -4.96929159094, 0.772020752309, 0.374397302443, 0.118058308006, 0.109961707197, 0.57052250931, -3.7310838208, -0.57052250931, -0.12447439859 } } };
static const double FE1_C0_D100_Q64[1][64][20] =
    { { { -2.89581790868, 0.491757354275, -1.07429188554e-16, -5.32120073773e-17, 3.05518050069e-17, -5.6051371677e-18, -0.136680424066, -0.186496378007, -0.153121516946, -0.20465037583, -0.875026145643, 0.186496378007, -0.980281790191, 0.20465037583, 4.52890439208, -2.12484383768, 0.0711519794598, -0.0711519794598, 1.01170656971, 1.13340330714 },
        { -1.01268955904, 0.58492442953, -1.54736018704e-16, 3.81179574418e-17, 1.30049873617e-16, -4.03049510697e-16, -0.752581066382, -0.305144107519, -0.137139316348, -0.17013509222, -3.23017404189, 0.305144107519, -0.588619458524, 0.17013509222, 2.34419934305, -1.91643421354, 0.280101877502, -0.280101877502, 3.98275510827, 0.725758774872 },
        { 0.389619002348, 0.728938303866, -2.75979486697e-16, 7.94774560855e-16, 5.97813281619e-16, -1.29359963446e-15, -1.88532430001, 1.28234889459, -0.100560730523, -0.113835978641, -3.58904690978, -1.28234889459, -0.19143506458, 0.113835978641, 0.297815415936, -1.41637272215, 0.385005256994, -0.385005256994, 5.47437120979, 0.291995795103 },
        { 0.178970691981, 0.882126464396, -4.59244752501e-16, 2.29415875804e-15, 1.44965905954e-15, -2.55254870382e-15, -3.29414454363, 4.96929159094, -0.0482530808541, -0.0506251436239, -0.267722727926, -4.96929159094, -0.00392163921952, 0.0506251436239, -0.37740033469, -0.683696821688, 0.250501394903, -0.250501394903, 3.56186727156, 0.0521747200736 },
        { -0.772156249477, 0.60083881861, -3.43531313841e-16, -8.54323283831e-17, 3.45033731001e-16, 1.3420553518e-17, -0.155690526131, -0.186496378007, -0.84558571529, -0.248634212093, -0.620241099631, 0.186496378007, -3.36865079024, 0.248634212093, 2.04258350345, -1.87126607258, 0.344947127536, -0.344947127536, 0.775931625762, 4.21423650553 },
        { 0.0672149106221, 0.67566108632, -2.38599978504e-16, -9.56738548536e-17, 3.98384780304e-16, -3.05778462161e-16, -0.827417568757, -0.305144107519, -0.730969028896, -0.348719578158, -2.2271693428, 0.305144107519, -1.96755770383, 0.348719578158, 0.88165110734, -1.62452710428, 1.35794307896, -1.35794307896, 3.05458691156, 2.69852673273 },
        { 0.499062839226, 0.789696230825, -2.31558533125e-16, 6.09562487323e-16, 7.83517228421e-16, -1.15567349754e-15, -1.98818846888, 1.28234889459, -0.514121127309, -0.360330038368, -2.21039823601, -1.28234889459, -0.571581844822, 0.360330038368, -0.140222007133, -1.14853706292, 1.86651809964, -1.86651809964, 4.1985867049, 1.08570297213 },
        { -0.0183629959499, 0.909165504675, -3.99151619261e-16, 2.17339521805e-15, 1.53471829571e-15, -2.46198261072e-15, -3.36107250713, 4.96929159094, -0.238685382674, -0.211205510875, 0.629286883202, -4.96929159094, 0.0446885868157, 0.211205510875, -0.355316813655, -0.53548569507, 1.21443896953, -1.21443896953, 2.73178562393, 0.193996795858 },
        { 0.483110706548, 0.762628186469, -3.83787582997e-16, -1.27994285137e-16, 8.35188264212e-16, 3.22019640552e-17, -0.182227939065, -0.186496378007, -2.08633964163, 1.66383705977, -0.264570417154, 0.186496378007, -3.02908408087, -1.66383705977, 0.0259895954133, -1.27172848843, 0.727155222946, -0.727155222946, 0.446798356219, 5.1154237225 },
        { 0.480204186576, 0.808419347998, -1.70400260898e-16, -2.80895036952e-16, 8.05723225315e-16, -1.74971987559e-16, -0.931886611547, -0.305144107519, -1.73544919983, 0.665923401798, -0.827011164623, 0.305144107519, -1.5401400193, -0.665923401798, -0.228824058398, -1.05979947618, 2.86257029993, -2.86257029993, 1.75889777617, 3.27558921914 },
        { 0.211483050178, 0.876963572778, -9.50081834348e-17, 3.51635692764e-16, 1.05593063243e-15, -9.65137378675e-16, -2.13178311747, 1.28234889459, -1.16205187049, -0.195903438764, -0.285854694818, -1.28234889459, -0.155821659379, 0.195903438764, -0.3770594161, -0.711387206856, 3.93465628941, -3.93465628941, 2.41763781229, 1.31787352987 },
        { -0.372518461318, 0.947349062182, -3.01944689787e-16, 2.00492493437e-15, 1.65581248844e-15, -2.33591366888e-15, -3.45450151652, 4.96929159094, -0.517139753997, -0.344505336584, 1.88147976333, -4.96929159094, 0.28165799821, 0.344505336584, -0.257545933838, -0.317284667026, 2.56006085905, -2.56006085905, 1.5730217532, 0.235481755787 },
        { -0.0929995320455, 0.918052572403, -1.30942335968e-16, -1.63965188401e-16, 1.32836635635e-15, 4.13676955653e-17, -0.206161530567, -0.186496378007, -3.47927866768, 5.36128745938, 0.0562022536712, 0.186496378007, 0.948495588563, -5.36128745938, -0.339433837341, -0.485619203017, 1.07186148527, -1.07186148527, 0.149959276895, 2.53078307911 },
        { -0.241157846303, 0.934240861529, 7.62619232305e-17, -4.46396161821e-16, 1.20582610804e-15, -6.19773447312e-17, -1.02610526809, -0.305144107519, -2.81677584983, 2.84415561308, 0.435765050907, 0.305144107519, 1.19622470498, -2.84415561308, -0.299737642109, -0.393345373117, 4.219565172, -4.219565172, 0.590340217182, 1.62055114486 },
        { -0.487961966204, 0.958118276949, 1.02637389092e-16, 1.19638538409e-16, 1.31478427221e-15, -7.95298955892e-16, -2.26128841889, 1.28234889459, -1.81697935218, 0.460593087543, 1.44985477533, -1.28234889459, 1.16498018051, -0.460593087543, -0.216247474443, -0.253908836302, 5.79987106098, -5.79987106098, 0.811433643563, 0.651999171667 },
        { -0.770559854056, 0.982223853849, -2.00964884423e-16, 1.85309593522e-15, 1.767378156e-15, -2.22257228503e-15, -3.53876337546, 4.96929159094, -0.780882335575, -0.373918583072, 3.01080887123, -4.96929159094, 0.6643810885, 0.373918583072, -0.102467275052, -0.109196724741, 3.77365182588, -3.77365182588, 0.527954504233, 0.116501247074 },
        { -0.467878056063, -0.481257411951, -5.98461585994e-17, -3.44458197597e-17, 3.93767375114e-17, -8.58830447415e-17, 0.169459382945, -0.186496378007, 0.189843409943, -0.20465037583, -0.568886338632, 0.186496378007, -0.637316863303, 0.20465037583, -1.29999007938, 2.24912554739, 0.0711519794598, -0.0711519794598, 0.399426955687, 0.44747345336 },
        { 0.205627659957, -0.374511532558, -7.35476661943e-17, -2.65815124862e-17, 5.09855851626e-17, -2.73045671242e-16, 0.452590390168, -0.305144107519, 0.0824734230848, -0.17013509222, -2.02500258534, 0.305144107519, -0.369006719091, 0.17013509222, -1.05187105703, 1.22075492963, 0.280101877502, -0.280101877502, 1.57241219517, 0.286533296006 },
        { 0.489236057073, -0.0476238812119, -1.8442772799e-16, 6.79673336523e-16, 4.67645379244e-16, -1.0306720727e-15, -0.228793645916, 1.28234889459, -0.0122035536126, -0.113835978641, -1.93251625568, -1.28234889459, -0.10307788767, 0.113835978641, -0.677980878592, 0.236368702731, 0.385005256994, -0.385005256994, 2.1613099016, 0.115281441283 },
        { -0.063835358888, 0.482761972147, -4.03591914232e-16, 2.21415725778e-15, 1.36076821485e-15, -2.36502391829e-15, -2.21633266441, 4.96929159094, -0.0324651446951, -0.0506251436239, 0.81008915129, -4.96929159094, 0.0118662969395, 0.0506251436239, -0.291152725202, -0.127773888057, 0.250501394903, -0.250501394903, 1.40624351312, 0.0205988477556 },
        { 0.279934074334, -0.347571076915, -1.82686160506e-16, -7.50321684053e-17, 1.85938095795e-16, -3.52978413651e-17, 0.0791043889923, -0.186496378007, 0.429631416958, -0.248634212093, -0.385446184508, 0.186496378007, -2.09343365799, 0.248634212093, -1.0100070397, 1.07764404228, 0.344947127536, -0.344947127536, 0.306341795515, 1.66380224103 },
        { 0.482918552223, -0.18962728893, -9.67057805329e-17, -1.4785194563e-16, 2.31537537181e-16, -1.97842637139e-16, 0.0968925776839, -0.305144107519, 0.0855982228213, -0.348719578158, -1.30285919636, 0.305144107519, -1.15099045211, 0.348719578158, -0.815044551113, 0.52175328782, 1.35794307896, -1.35794307896, 1.20596661868, 1.06539222929 },
        { 0.366779535288, 0.142029172075, -1.29306335468e-16, 5.20256620434e-16, 6.40953430591e-16, -9.50709581867e-16, -0.717706926074, 1.28234889459, -0.185590199161, -0.360330038368, -0.939916693199, -1.28234889459, -0.243050916674, 0.360330038368, -0.523322458006, 0.014513750643, 1.86651809964, -1.86651809964, 1.65762361927, 0.428641115836 },
        { -0.241872355951, 0.5935657667, -3.50744152411e-16, 2.11185401332e-15, 1.45890784781e-15, -2.31756829092e-15, -2.53444120044, 4.96929159094, -0.179982450991, -0.211205510875, 1.45591818989, -4.96929159094, 0.103391518499, 0.211205510875, -0.223897831628, -0.127795579121, 1.21443896953, -1.21443896953, 1.07852301055, 0.0765909324924 },
        { 0.437807010606, 0.0540171096639, -1.91212666222e-16, -1.25215026058e-16, 6.10251714283e-16, 1.44788269658e-17, -0.0470279051407, -0.186496378007, -0.538425574373, 1.66383705977, -0.12937038323, 0.186496378007, -1.48117001362, -1.66383705977, -0.592014089508, 0.100189969238, 0.727155222946, -0.727155222946, 0.176398288371, 2.01959558799 },
        { 0.302639767092, 0.206115430167, -2.46885834873e-17, -3.12995400851e-16, 6.2427564498e-16, -1.06205530091e-16, -0.399648666405, -0.305144107519, -0.74426432329, 0.665923401798, -0.29477321948, 0.305144107519, -0.548955142761, -0.665923401798, -0.475999137262, -0.0327560599976, 2.86257029993, -2.86257029993, 0.694421885885, 1.29321946605 },
        { -0.0324350076632, 0.462159330952, -1.03775308114e-17, 2.99384602163e-16, 9.39490899654e-16, -8.44453399306e-16, -1.40021213094, 1.28234889459, -0.763266728452, -0.195903438764, 0.445716291707, -1.28234889459, 0.242963482655, 0.195903438764, -0.304027542244, -0.125696781045, 3.93465628941, -3.93465628941, 0.954495839235, 0.520303245798 },
        { -0.531193484945, 0.758139561815, -2.69469236957e-16, 1.96934042668e-15, 1.60602170162e-15, -2.25228122647e-15, -2.97850917807, 4.96929159094, -0.445883580093, -0.344505336584, 2.35747210178, -4.96929159094, 0.352914172114, 0.344505336584, -0.129405386952, -0.097540689918, 2.56006085905, -2.56006085905, 0.621037076282, 0.0929694079784 },
        { -0.305298331173, 0.631033513741, -3.60514488213e-17, -1.64003859791e-16, 1.21251313132e-15, 3.85461397825e-17, -0.160784238906, -0.186496378007, -2.71347021429, 5.36128745938, 0.101579545331, 0.186496378007, 1.71430404195, -5.36128745938, -0.201855297748, -0.123879884821, 1.07186148527, -1.07186148527, 0.0592046935748, 0.999166172347 },
        { -0.426959954263, 0.70059269235, 1.44541772137e-16, -4.57792102794e-16, 1.11908430017e-15, -3.68949557923e-17, -0.847469836067, -0.305144107519, -2.32640123965, 2.84415561308, 0.614400482928, 0.305144107519, 1.68659931516, -2.84415561308, -0.161781595366, -0.11185114272, 4.219565172, -4.219565172, 0.233069353139, 0.639801924495 },
        { -0.620605062442, 0.806225191361, 1.38837027273e-16, 1.01851185628e-16, 1.26530629032e-15, -7.53988130167e-16, -2.01575068445, 1.28234889459, -1.61968607905, 0.460593087543, 1.69539250977, -1.28234889459, 1.36227345364, -0.460593087543, -0.102854367557, -0.0827657613626, 5.79987106098, -5.79987106098, 0.320358174686, 0.257412625406 },
        { -0.832889012138, 0.916455047584, -1.88672290541e-16, 1.84110795883e-15, 1.74880902728e-15, -2.19435872236e-15, -3.37900569979, 4.96929159094, -0.745629357721, -0.373918583072, 3.1705665469, -4.96929159094, 0.699634066353, 0.373918583072, -0.0435777651518, -0.0399882702946, 3.77365182588, -3.77365182588, 0.208439152893, 0.045995291368 },
        { 0.481257411951, 0.467878056063, 1.7238423585e-17, -7.54613342746e-17, -8.60589654416e-17, 2.02009375198e-17, 0.568886338632, -0.186496378007, 0.637316863303, -0.20465037583, -0.169459382945, 0.186496378007, -0.189843409943, 0.20465037583, -2.24912554739, 1.29999007938, 0.0711519794598, -0.0711519794598, -0.399426955687, -0.44747345336 },
        { 0.374511532558, -0.205627659957, 4.19867900086e-17, -1.5293834648e-16, -1.39865083248e-16, 3.15713499412e-17, 2.02500258534, -0.305144107519, 0.369006719091, -0.17013509222, -0.452590390168, 0.305144107519, -0.0824734230848, 0.17013509222, -1.22075492963, 1.05187105703, 0.280101877502, -0.280101877502, -1.57241219517, -0.286533296006 },
        { 0.0476238812119, -0.489236057073, -6.11133185399e-17, 5.126237461e-16, 2.6253059691e-16, -6.33310921643e-16, 1.93251625568, 1.28234889459, 0.10307788767, -0.113835978641, 0.228793645916, -1.28234889459, 0.0122035536126, 0.113835978641, -0.236368702731, 0.677980878592, 0.385005256994, -0.385005256994, -2.1613099016, -0.115281441283 },
        { -0.482761972147, 0.0638353588879, -3.30289903936e-16, 2.10676242854e-15, 1.23848618461e-15, -2.11065142692e-15, -0.81008915129, 4.96929159094, -0.0118662969395, -0.0506251436239, 2.21633266441, -4.96929159094, 0.0324651446951, 0.0506251436239, 0.127773888057, 0.291152725202, 0.250501394903, -0.250501394903, -1.40624351312, -0.0205988477556 },
        { 0.347571076915, -0.279934074334, 3.59962919148e-17, -9.99911822193e-17, -1.02193501318e-16, 2.5148711974e-17, 0.385446184508, -0.186496378007, 2.09343365799, -0.248634212093, -0.0791043889923, 0.186496378007, -0.429631416958, 0.248634212093, -1.07764404228, 1.0100070397, 0.344947127536, -0.344947127536, -0.306341795515, -1.66380224103 },
        { 0.18962728893, -0.482918552223, 9.407713095e-17, -2.40600846436e-16, -3.7734558729e-17, 2.23918121367e-17, 1.30285919636, -0.305144107519, 1.15099045211, -0.348719578158, -0.0968925776839, 0.305144107519, -0.0855982228213, 0.348719578158, -0.52175328782, 0.815044551113, 1.35794307896, -1.35794307896, -1.20596661868, -1.06539222929 },
        { -0.142029172075, -0.366779535288, 6.37764673308e-18, 3.93811451576e-16, 4.34193993252e-16, -6.51340414076e-16, 0.939916693199, 1.28234889459, 0.243050916674, -0.360330038368, 0.717706926074, -1.28234889459, 0.185590199161, 0.360330038368, -0.014513750643, 0.523322458006, 1.86651809964, -1.86651809964, -1.65762361927, -0.428641115836 },
        { -0.5935657667, 0.241872355951, -2.87179704788e-16, 2.02978632702e-15, 1.35628808511e-15, -2.12343927567e-15, -1.45591818989, 4.96929159094, -0.103391518499, -0.211205510875, 2.53444120044, -4.96929159094, 0.179982450991, 0.211205510875, 0.127795579121, 0.223897831628, 1.21443896953, -1.21443896953, -1.07852301055, -0.0765909324924 },
        { -0.0540171096638, -0.437807010606, 6.29697496892e-17, -1.34363732907e-16, 2.90062244394e-16, 3.24733229335e-17, 0.12937038323, -0.186496378007, 1.48117001362, 1.66383705977, 0.0470279051407, 0.186496378007, 0.538425574373, -1.66383705977, -0.100189969238, 0.592014089508, 0.727155222946, -0.727155222946, -0.176398288371, -2.01959558799 },
        { -0.206115430167, -0.302639767092, 1.672980407e-16, -3.6305761474e-16, 3.70433796652e-16, 9.84497688009e-18, 0.29477321948, -0.305144107519, 0.548955142761, 0.665923401798, 0.399648666405, 0.305144107519, 0.74426432329, -0.665923401798, 0.0327560599976, 0.475999137262, 2.86257029993, -2.86257029993, -0.694421885885, -1.29321946605 },
        { -0.462159330952, 0.0324350076632, 1.00795636266e-16, 2.27920365054e-16, 7.80688313655e-16, -6.76401321247e-16, -0.445716291707, 1.28234889459, -0.242963482655, -0.195903438764, 1.40021213094, -1.28234889459, 0.763266728452, 0.195903438764, 0.125696781045, 0.304027542244, 3.93465628941, -3.93465628941, -0.954495839235, -0.520303245798 },
        { -0.758139561815, 0.531193484945, -2.26963148878e-16, 1.92232450753e-15, 1.53982906585e-15, -2.14127142054e-15, -2.35747210178, 4.96929159094, -0.352914172114, -0.344505336584, 2.97850917807, -4.96929159094, 0.445883580093, 0.344505336584, 0.097540689918, 0.129405386952, 2.56006085905, -2.56006085905, -0.621037076282, -0.0929694079784 },
        { -0.631033513741, 0.305298331173, 8.8084259688e-17, -1.65493378202e-16, 1.0583481874e-15, 3.94966855908e-17, -0.101579545331, -0.186496378007, -1.71430404195, 5.36128745938, 0.160784238906, 0.186496378007, 2.71347021429, -5.36128745938, 0.123879884821, 0.201855297748, 1.07186148527, -1.07186148527, -0.0592046935748, -0.999166172346 },
        { -0.70059269235, 0.426959954263, 2.33838961838e-16, -4.73582107003e-16, 1.00398379729e-15, -1.20347866281e-18, -0.614400482928, -0.305144107519, -1.68659931516, 2.84415561308, 0.847469836067, 0.305144107519, 2.32640123965, -2.84415561308, 0.11185114272, 0.161781595366, 4.219565172, -4.219565172, -0.233069353139, -0.639801924495 },
        { -0.806225191361, 0.620605062442, 1.86152360003e-16, 7.82729154044e-17, 1.19997618183e-15, -6.98895737538e-16, -1.69539250977, 1.28234889459, -1.36227345364, 0.460593087543, 2.01575068445, -1.28234889459, 1.61968607905, -0.460593087543, 0.0827657613626, 0.102854367557, 5.79987106098, -5.79987106098, -0.320358174686, -0.257412625406 },
        { -0.916455047584, 0.832889012138, -1.7261871565e-16, 1.82540075205e-15, 1.72444299202e-15, -2.15733467915e-15, -3.1705665469, 4.96929159094, -0.699634066353, -0.373918583072, 3.37900569979, -4.96929159094, 0.745629357721, 0.373918583072, 0.0399882702946, 0.0435777651518, 3.77365182588, -3.77365182588, -0.208439152893, -0.045995291368 },
        { -0.491757354275, 2.89581790868, 8.78179701793e-17, -1.57100002176e-16, -2.87163669492e-16, 2.63094459258e-16, 0.875026145643, -0.186496378007, 0.980281790191, -0.20465037583, 0.136680424066, 0.186496378007, 0.153121516946, 0.20465037583, 2.12484383768, -4.52890439208, 0.0711519794598, -0.0711519794598, -1.01170656971, -1.13340330714 },
        { -0.58492442953, 1.01268955904, 1.37900636645e-16, -2.81930645336e-16, -3.53354844855e-16, 3.6851344265e-16, 3.23017404189, -0.305144107519, 0.588619458524, -0.17013509222, 0.752581066382, 0.305144107519, 0.137139316348, 0.17013509222, 1.91643421354, -2.34419934305, 0.280101877502, -0.280101877502, -3.98275510827, -0.725758774872 },
        { -0.728938303866, -0.389619002348, 3.63629739307e-17, 3.71655475647e-16, 7.82790592088e-17, -2.87125531127e-16, 3.58904690978, 1.28234889459, 0.19143506458, -0.113835978641, 1.88532430001, -1.28234889459, 0.100560730523, 0.113835978641, 1.41637272215, -0.297815415936, 0.385005256994, -0.385005256994, -5.47437120979, -0.291995795103 },
        { -0.882126464396, -0.178970691981, -2.73578451482e-16, 2.02213892374e-15, 1.13993150715e-15, -1.90824987268e-15, 0.267722727926, 4.96929159094, 0.00392163921952, -0.0506251436239, 3.29414454363, -4.96929159094, 0.0482530808541, 0.0506251436239, 0.683696821688, 0.37740033469, 0.250501394903, -0.250501394903, -3.56186727156, -0.0521747200736 },
        { -0.60083881861, 0.772156249477, 2.10368393339e-16, -1.48650891601e-16, -3.84773372875e-16, 1.66525330897e-16, 0.620241099631, -0.186496378007, 3.36865079024, -0.248634212093, 0.155690526131, 0.186496378007, 0.84558571529, 0.248634212093, 1.87126607258, -2.04258350345, 0.344947127536, -0.344947127536, -0.775931625762, -4.21423650553 },
        { -0.67566108632, -0.0672149106221, 2.44633118781e-16, -3.30597089109e-16, -2.8365318582e-16, 2.52052290211e-16, 2.2271693428, -0.305144107519, 1.96755770383, -0.348719578158, 0.827417568757, 0.305144107519, 0.730969028896, 0.348719578158, 1.62452710428, -0.88165110734, 1.35794307896, -1.35794307896, -3.05458691156, -2.69852673273 },
        { -0.789696230825, -0.499062839226, 1.12114757429e-16, 2.89290141602e-16, 2.59817267447e-16, -3.97402806208e-16, 2.21039823601, 1.28234889459, 0.571581844822, -0.360330038368, 1.98818846888, -1.28234889459, 0.514121127309, 0.360330038368, 1.14853706292, 0.140222007133, 1.86651809964, -1.86651809964, -4.1985867049, -1.08570297213 },
        { -0.909165504675, 0.0183629959499, -2.38149542799e-16, 1.96552637944e-15, 1.27479320395e-15, -1.97027418369e-15, -0.629286883202, 4.96929159094, -0.0446885868157, -0.211205510875, 3.36107250713, -4.96929159094, 0.238685382674, 0.211205510875, 0.53548569507, 0.355316813655, 1.21443896953, -1.21443896953, -2.73178562393, -0.193996795858 },
        { -0.762628186469, -0.483110706548, 2.60029806942e-16, -1.51166999678e-16, 2.41819322003e-17, 7.7780134306e-17, 0.264570417154, -0.186496378007, 3.02908408087, 1.66383705977, 0.182227939065, 0.186496378007, 2.08633964163, -1.66383705977, 1.27172848843, -0.0259895954133, 0.727155222946, -0.727155222946, -0.446798356219, -5.1154237225 },
        { -0.808419347998, -0.480204186576, 3.15881714369e-16, -4.07697372058e-16, 1.62768457332e-16, 1.18971770239e-16, 0.827011164623, -0.305144107519, 1.5401400193, 0.665923401798, 0.931886611547, 0.305144107519, 1.73544919983, -0.665923401798, 1.05979947618, 0.228824058398, 2.86257029993, -2.86257029993, -1.75889777617, -3.27558921914 },
        { -0.876963572778, -0.211483050178, 1.86581784159e-16, 1.70624278405e-16, 6.53700344128e-16, -5.39479097468e-16, 0.285854694818, 1.28234889459, 0.155821659379, -0.195903438764, 2.13178311747, -1.28234889459, 1.16205187049, 0.195903438764, 0.711387206856, 0.3770594161, 3.93465628941, -3.93465628941, -2.41763781229, -1.31787352987 },
        { -0.947349062182, 0.372518461318, -1.94281228546e-16, 1.8858385442e-15, 1.48815348717e-15, -2.05473747793e-15, -1.88147976333, 4.96929159094, -0.28165799821, -0.344505336584, 3.45450151652, -4.96929159094, 0.517139753997, 0.344505336584, 0.317284667026, 0.257545933838, 2.56006085905, -2.56006085905, -1.5730217532, -0.235481755787 },
        { -0.918052572403, 0.0929995320455, 1.83480389004e-16, -1.67737982251e-16, 9.37882728843e-16, 4.37753283636e-17, -0.0562022536712, -0.186496378007, -0.948495588563, 5.36128745938, 0.206161530567, 0.186496378007, 3.47927866768, -5.36128745938, 0.485619203017, 0.339433837341, 1.07186148527, -1.07186148527, -0.149959276895, -2.53078307911 },
        { -0.934240861529, 0.241157846303, 3.02442335421e-16, -4.8639058575e-16, 9.14288610926e-16, 2.84254219835e-17, -0.435765050907, -0.305144107519, -1.19622470498, 2.84415561308, 1.02610526809, 0.305144107519, 2.81677584983, -2.84415561308, 0.393345373117, 0.299737642109, 4.219565172, -4.219565172, -0.590340217182, -1.62055114486 },
        { -0.958118276949, 0.487961966204, 2.22482162432e-16, 5.99172538344e-17, 1.14930996202e-15, -6.55755705819e-16, -1.44985477533, 1.28234889459, -1.16498018051, 0.460593087543, 2.26128841889, -1.28234889459, 1.81697935218, -0.460593087543, 0.253908836302, 0.216247474443, 5.79987106098, -5.79987106098, -0.811433643563, -0.651999171667 },
        { -0.982223853849, 0.770559854056, -1.60302863614e-16, 1.81331122848e-15, 1.70566154524e-15, -2.12879426824e-15, -3.01080887123, 4.96929159094, -0.6643810885, -0.373918583072, 3.53876337546, -4.96929159094, 0.780882335575, 0.373918583072, 0.109196724741, 0.102467275052, 3.77365182588, -3.77365182588, -0.527954504233, -0.116501247074 } } };
static const double FE1_C0_Q64[1][64][20] =
    { { { 0.316942646271, 0.0459182870838, 0.0417713284262, 0.0384285806226, -0.0099256556723, -0.0101332081943, -0.0110547061626, -0.011617196823, -0.0123844609684, -0.0127480421943, 0.274161313248, -0.155700796186, 0.307139785811, -0.170857079355, 0.352119809988, -0.19029219534, 0.00443218553927, 0.0594028686805, 0.0681023032468, 0.0762942319785 },
        { 0.00141590232956, 0.0392228167323, 0.0353420251164, 0.0435405986331, -0.0405943584871, -0.0132673889695, -0.0455169618204, -0.0152103722761, -0.00829434237071, -0.00848064250992, 0.720340631624, -0.20385873716, 0.131264293206, -0.113662771759, 0.150487693607, -0.127445887443, 0.0139621042224, 0.187128683191, 0.214533314838, 0.039093399296 },
        { -0.0418846376624, 0.0272612052689, 0.0242504041834, -0.063954745244, -0.058858584842, 0.0353654205326, -0.0665869621325, 0.0405446175759, -0.00355166140663, -0.0035992047405, 0.267461209901, 0.543403829153, 0.0142660308648, -0.0482387491813, 0.0163552633343, -0.0545726978261, 0.012172889122, 0.163148525162, 0.187041309311, 0.00997653862634 },
        { 0.0606020354974, 0.0125719331417, 0.0110533069845, 0.213985565988, -0.0402900923343, 0.0579307126754, -0.0459453476252, 0.0664145528585, -0.000673013750447, -0.000676604746501, -0.296776478795, 0.890128566813, -0.0043472225451, -0.00906827174739, -0.0049838648305, -0.0103411254146, 0.00334794966816, 0.0448712746171, 0.0514425855001, 0.00075353804443 },
        { -0.0233141297876, 0.03799461325, 0.0334206393025, 0.0384285806226, -0.0120588958979, -0.0491261253148, -0.00893254555194, -0.00890984667643, -0.0485144029479, -0.0118784757749, 0.128698381602, -0.119415229212, 0.698986096122, -0.159202616933, 0.126772850606, -0.117928261408, 0.0164798161266, 0.220872602144, 0.0400589504569, 0.217567999272 },
        { -0.0636942004447, 0.0319045035068, 0.0529912643923, 0.0435405986331, -0.0832047485472, -0.0643207363968, -0.0363398789831, -0.0116656442114, -0.0321038941563, -0.0133315323092, 0.29550717883, -0.156350117797, 0.261061166329, -0.178677371706, 0.0473478205386, -0.0780377824367, 0.0519140970715, 0.695784565804, 0.126192199393, 0.111482512491 },
        { 0.00416331000853, 0.0216671920488, 0.0640143830484, -0.063954745244, -0.186307671683, 0.171452717401, -0.052316268488, 0.0310958255817, -0.013528344698, -0.00873768447279, -0.0189012088835, 0.416765324279, -0.00488762055045, -0.117107805779, -0.000886451952764, -0.0328845471247, 0.0452614117081, 0.606621196735, 0.110020927133, 0.0284500609325 },
        { 0.0641179720679, 0.00978236065603, 0.0429556497002, 0.213985565988, -0.168088205297, 0.280849993004, -0.0355809496646, 0.0509368561169, -0.00252676863369, -0.00216492522559, -0.289229785311, 0.682686983226, -0.0205395515393, -0.0290156555359, -0.00372519212222, -0.00614204058685, 0.01244839469, 0.166841019741, 0.0302594168725, 0.00214886185299 },
        { -0.0174860280988, 0.0241979596906, -0.0617731070982, 0.0384285806226, 0.0806970115889, -0.103558823235, -0.00550857447171, -0.00513048407491, -0.0630680308857, 0.0457718784119, 0.0085387974527, -0.0687618938938, 0.0977612527959, 0.613462784549, 0.00484326235995, -0.0418764631771, 0.0200039182058, 0.268104779401, 0.013282376703, 0.152070803153 },
        { 0.0188938370396, 0.0198809433019, -0.0493496614277, 0.0435405986331, 0.158889814822, -0.13558935756, -0.0220751669623, -0.0067173324103, -0.0411105067572, 0.0146593977712, -0.0363920633766, -0.0900298084357, -0.0677728132206, 0.196474238956, -0.00335758294735, -0.0272969141138, 0.0630155909246, 0.844573594527, 0.0418416436328, 0.0779215476028 },
        { 0.0590357207055, 0.0130980546488, 0.0251291929007, -0.063954745244, -0.101291343115, 0.361425647567, -0.0311273668109, 0.0179056546916, -0.0169677743151, -0.00273543287807, -0.190966113695, 0.239982565003, -0.104097141872, -0.0366619489641, -0.00515715331571, -0.0112664113074, 0.054940271829, 0.736343215736, 0.036479722577, 0.0198853858575 },
        { 0.0531740973438, 0.00574651592133, 0.0628753827384, 0.213985565988, -0.274175060593, 0.592037222446, -0.0207640128473, 0.0293305528843, -0.00310837799447, -0.00203339486296, -0.216073469396, 0.393106057016, -0.0323462532219, -0.0272528049536, -0.00160248959822, -0.00206392802816, 0.0151104033722, 0.202518892604, 0.0100331378913, 0.00150196328938 },
        { 0.06336457809, 0.00885305887263, 0.271372912375, 0.0384285806226, 0.260025387523, -0.152650645396, -0.00195933827339, -0.001721948327, -0.0330667115181, 0.0495015510215, -0.0169816512378, -0.0230786074808, -0.286590309701, 0.663450144123, -0.00323283077542, -0.00499921670053, 0.00989665381745, 0.132641023686, 0.00149623336498, 0.0252511359143 },
        { 0.0592677805712, 0.00714461813298, -0.0110736837111, 0.0435405986331, 0.678617626993, -0.199865180906, -0.00775717045766, -0.00225454345768, -0.0212943165654, 0.0210139153012, -0.0747372528782, -0.0302167740416, -0.205162272855, 0.281641379866, -0.00231429635683, -0.00321939794171, 0.0311760667119, 0.417840765115, 0.00471337808351, 0.0129387597644 },
        { 0.0461725856048, 0.00458809898064, -0.0385687396087, -0.063954745244, 0.238148410058, 0.532758645187, -0.010750763438, 0.00600968869405, -0.00863840057903, 0.00215855535295, -0.118604871591, 0.0805455333807, -0.0953008032717, 0.0289302825964, -0.00107502368123, -0.00130600336283, 0.027180917525, 0.364295325646, 0.00410936832205, 0.00330193942943 },
        { 0.0234627458143, 0.0019633890855, 0.06120422296, 0.213985565988, -0.297583634516, 0.872691107158, -0.00705250360641, 0.00984423608601, -0.00155624293108, -0.000740737938466, -0.0875131805869, 0.131938489103, -0.0193111235762, -0.00992782411644, -0.000217835678639, -0.000235281807411, 0.00747565700273, 0.100193339674, 0.00113021306382, 0.000249398821943 },
        { -0.0474934098882, 0.0183974307729, 0.0417713284262, 0.0384285806226, -0.0099256556723, -0.0101332081943, -0.00722315577599, -0.0552165235677, -0.00809201886159, -0.0605914303588, 0.105381595203, -0.112101469441, 0.118057796688, -0.123013691191, 0.643304764711, -0.0895202375931, 0.0210661729344, 0.0427688812853, 0.233050470905, 0.261083778995 },
        { -0.0593435556759, 0.0441735351627, 0.0353420251164, 0.0435405986331, -0.0405943584871, -0.0132673889695, -0.0735771805832, -0.0722948824964, -0.0134076243673, -0.0403084844093, 0.228787335175, -0.14677422694, 0.041690842537, -0.0818349298594, 0.227176166261, -0.148325620522, 0.0663618658268, 0.134728921587, 0.73414683005, 0.133780131961 },
        { 0.0140171944148, 0.0639244626451, 0.0242504041834, -0.063954745244, -0.058858584842, 0.0353654205326, -0.192017897058, 0.192708522205, -0.0102419833031, -0.0171070161251, -0.0601339611396, 0.391239924524, -0.00320746677979, -0.0347309377967, -0.0174776992285, -0.113304824717, 0.0578577284464, 0.117463685837, 0.640067415278, 0.0341403581674 },
        { 0.0637734994386, 0.0465185832699, 0.0110533069845, 0.213985565988, -0.0402900923343, 0.0579307126754, -0.184144831837, 0.315668295806, -0.00269737874031, -0.00321590160695, -0.28317425214, 0.640874823866, -0.00414797526438, -0.00652897488694, -0.0226025923432, -0.0298405119713, 0.015912801046, 0.0323064232393, 0.176039843057, 0.00257865575358 },
        { -0.054472318874, 0.0477306372653, 0.0334206393025, 0.0384285806226, -0.0120588958979, -0.0491261253148, -0.015798460732, -0.0423484913349, -0.0858045319165, -0.0564583821356, 0.0385389369754, -0.0859765845536, 0.209312508594, -0.114622710572, 0.180434929474, -0.150168175205, 0.0783285477048, 0.159023870566, 0.137084310264, 0.744531715768 },
        { -0.0175829401694, 0.0601263089174, 0.0529912643923, 0.0435405986331, -0.0832047485472, -0.0643207363968, -0.0887466324394, -0.0554467939512, -0.0784018156992, -0.0633647582254, 0.0422682922675, -0.112568968058, 0.0373412575687, -0.12864414579, 0.0321895104173, -0.137212538001, 0.246747645592, 0.500951017283, 0.431837839412, 0.381500342795 },
        { 0.0452580461212, 0.0623679922433, 0.0640143830484, -0.063954745244, -0.186307671683, 0.171452717401, -0.175443845541, 0.147798424375, -0.045367624378, -0.0415302045727, -0.162251408197, 0.300062725486, -0.0419562220559, -0.0843152856789, -0.0361677762045, -0.0793987591802, 0.215127439465, 0.436755168978, 0.376498703499, 0.0973579421179 },
        { 0.0592405099224, 0.0385588963661, 0.0429556497002, 0.213985565988, -0.168088205297, 0.280849993004, -0.148979564171, 0.242102820422, -0.0105797313832, -0.0102898871873, -0.249121428689, 0.491521018921, -0.017691270692, -0.0208906935742, -0.0152505132208, -0.0185157930529, 0.0591672061046, 0.120122208327, 0.103549674758, 0.0073535437551 },
        { 0.032529933393, 0.0638787973684, -0.0617731070982, 0.0384285806226, 0.0806970115889, -0.103558823235, -0.0173432620536, -0.024385185097, -0.198564146219, 0.21755368714, -0.0117972873895, -0.0495071928717, -0.135067918074, 0.441680975821, -0.0318046891613, -0.0949253108255, 0.0950786009643, 0.193030096643, 0.0454531491271, 0.520396089356 },
        { 0.0525008116746, 0.0605211362318, -0.0493496614277, 0.0435405986331, 0.158889814822, -0.13558935756, -0.0770790017967, -0.0319274734687, -0.143543957317, 0.0696761012884, -0.0827313861153, -0.0648196673774, -0.154070373, 0.141457535439, -0.0362792319014, -0.0686224327245, 0.299513033518, 0.608076151934, 0.143184801206, 0.266652557942 },
        { 0.0640509106927, 0.0478617966777, 0.0251291929007, -0.063954745244, -0.101291343115, 0.361425647567, -0.123672280291, 0.0851055568172, -0.0674147400182, -0.0130015094245, -0.186777439415, 0.172782662877, -0.101813862329, -0.0263958724177, -0.023974295968, -0.0322282006712, 0.261131050846, 0.530152436719, 0.124835961777, 0.0680490720179 },
        { 0.0431892417824, 0.0246116712745, 0.0628753827384, 0.213985565988, -0.274175060593, 0.592037222446, -0.0920146055848, 0.139408085209, -0.0137746098152, -0.00966472352016, -0.169123783267, 0.283028524692, -0.0253178732895, -0.0196214762964, -0.0059616458274, -0.00658507159077, 0.0718197304078, 0.145809565568, 0.0343340444999, 0.00513981517781 },
        { 0.0565572914461, 0.0355988950588, 0.271372912375, 0.0384285806226, 0.260025387523, -0.152650645396, -0.00831703837687, -0.0081844184814, -0.140362239858, 0.235280816902, -0.0142479247765, -0.0166161373264, -0.240454659982, 0.477670878242, -0.0128920618579, -0.0152785351604, 0.0470387845777, 0.0954988929254, 0.00512020700722, 0.0864110145349 },
        { 0.0500526781546, 0.0297626847873, -0.0110736837111, 0.0435405986331, 0.678617626993, -0.199865180906, -0.0337332239477, -0.0107158425447, -0.0926015424614, 0.0998791160348, -0.0601773048837, -0.0217554749546, -0.165193557012, 0.202776179132, -0.00885691113532, -0.0100797474009, 0.148179810378, 0.300837021449, 0.016129483579, 0.0442772698169 },
        { 0.0364359152038, 0.0200917703396, -0.0385687396087, -0.063954745244, 0.238148410058, 0.532758645187, -0.048363716747, 0.028564043673, -0.0388609758887, 0.0102596111897, -0.0909450732072, 0.0579911784017, -0.0730757380701, 0.0208292267596, -0.00391798160862, -0.0042300463934, 0.129190870739, 0.262285372431, 0.0140625232469, 0.0112994495376 },
        { 0.01750305516, 0.00902055949441, 0.06120422296, 0.213985565988, -0.297583634516, 0.872691107158, -0.0327684220469, 0.0467896431585, -0.00723085417875, -0.00352072659697, -0.0645347110293, 0.0949930820306, -0.014240572349, -0.00714783545794, -0.000763513336068, -0.000787083904625, 0.0355317894123, 0.0721372072641, 0.00386766194665, 0.000853458842448 },
        { 0.0183974307729, -0.0474934098882, 0.0417713284262, 0.0384285806226, -0.0099256556723, -0.0101332081943, 0.105381595203, -0.112101469441, 0.118057796688, -0.123013691191, -0.00722315577599, -0.0552165235677, -0.00809201886159, -0.0605914303588, -0.0895202375931, 0.643304764711, 0.0427688812853, 0.0210661729344, 0.233050470905, 0.261083778995 },
        { 0.0441735351627, -0.0593435556759, 0.0353420251164, 0.0435405986331, -0.0405943584871, -0.0132673889695, 0.228787335175, -0.14677422694, 0.041690842537, -0.0818349298594, -0.0735771805832, -0.0722948824964, -0.0134076243673, -0.0403084844093, -0.148325620522, 0.227176166261, 0.134728921587, 0.0663618658268, 0.73414683005, 0.133780131961 },
        { 0.0639244626451, 0.0140171944148, 0.0242504041834, -0.063954745244, -0.058858584842, 0.0353654205326, -0.0601339611396, 0.391239924524, -0.00320746677979, -0.0347309377967, -0.192017897058, 0.192708522205, -0.0102419833031, -0.0171070161251, -0.113304824717, -0.0174776992285, 0.117463685837, 0.0578577284464, 0.640067415278, 0.0341403581674 },
        { 0.0465185832699, 0.0637734994386, 0.0110533069845, 0.213985565988, -0.0402900923343, 0.0579307126754, -0.28317425214, 0.640874823866, -0.00414797526438, -0.00652897488694, -0.184144831837, 0.315668295806, -0.00269737874031, -0.00321590160695, -0.0298405119713, -0.0226025923432, 0.0323064232393, 0.015912801046, 0.176039843057, 0.00257865575358 },
        { 0.0477306372653, -0.054472318874, 0.0334206393025, 0.0384285806226, -0.0120588958979, -0.0491261253148, 0.0385389369754, -0.0859765845536, 0.209312508594, -0.114622710572, -0.015798460732, -0.0423484913349, -0.0858045319165, -0.0564583821356, -0.150168175205, 0.180434929474, 0.159023870566, 0.0783285477048, 0.137084310264, 0.744531715768 },
        { 0.0601263089174, -0.0175829401694, 0.0529912643923, 0.0435405986331, -0.0832047485472, -0.0643207363968, 0.0422682922675, -0.112568968058, 0.0373412575687, -0.12864414579, -0.0887466324394, -0.0554467939512, -0.0784018156992, -0.0633647582254, -0.137212538001, 0.0321895104173, 0.500951017283, 0.246747645592, 0.431837839412, 0.381500342795 },
        { 0.0623679922433, 0.0452580461212, 0.0640143830484, -0.063954745244, -0.186307671683, 0.171452717401, -0.162251408197, 0.300062725486, -0.0419562220559, -0.0843152856789, -0.175443845541, 0.147798424375, -0.045367624378, -0.0415302045727, -0.0793987591802, -0.0361677762045, 0.436755168978, 0.215127439465, 0.376498703499, 0.0973579421179 },
        { 0.0385588963661, 0.0592405099224, 0.0429556497002, 0.213985565988, -0.168088205297, 0.280849993004, -0.249121428689, 0.491521018921, -0.017691270692, -0.0208906935742, -0.148979564171, 0.242102820422, -0.0105797313832, -0.0102898871873, -0.0185157930529, -0.0152505132208, 0.120122208327, 0.0591672061046, 0.103549674758, 0.0073535437551 },
        { 0.0638787973684, 0.032529933393, -0.0617731070982, 0.0384285806226, 0.0806970115889, -0.103558823235, -0.0117972873895, -0.0495071928717, -0.135067918074, 0.441680975821, -0.0173432620536, -0.024385185097, -0.198564146219, 0.21755368714, -0.0949253108255, -0.0318046891613, 0.193030096643, 0.0950786009643, 0.0454531491271, 0.520396089356 },
        { 0.0605211362318, 0.0525008116746, -0.0493496614277, 0.0435405986331, 0.158889814822, -0.13558935756, -0.0827313861153, -0.0648196673774, -0.154070373, 0.141457535439, -0.0770790017967, -0.0319274734687, -0.143543957317, 0.0696761012884, -0.0686224327245, -0.0362792319014, 0.608076151934, 0.299513033518, 0.143184801206, 0.266652557942 },
        { 0.0478617966777, 0.0640509106927, 0.0251291929007, -0.063954745244, -0.101291343115, 0.361425647567, -0.186777439415, 0.172782662877, -0.101813862329, -0.0263958724177, -0.123672280291, 0.0851055568172, -0.0674147400182, -0.0130015094245, -0.0322282006712, -0.023974295968, 0.530152436719, 0.261131050846, 0.124835961777, 0.0680490720179 },
        { 0.0246116712745, 0.0431892417824, 0.0628753827384, 0.213985565988, -0.274175060593, 0.592037222446, -0.169123783267, 0.283028524692, -0.0253178732895, -0.0196214762964, -0.0920146055848, 0.139408085209, -0.0137746098152, -0.00966472352016, -0.00658507159077, -0.0059616458274, 0.145809565568, 0.0718197304078, 0.0343340444999, 0.00513981517781 },
        { 0.0355988950588, 0.0565572914461, 0.271372912375, 0.0384285806226, 0.260025387523, -0.152650645396, -0.0142479247765, -0.0166161373264, -0.240454659982, 0.477670878242, -0.00831703837687, -0.0081844184814, -0.140362239858, 0.235280816902, -0.0152785351604, -0.0128920618579, 0.0954988929254, 0.0470387845777, 0.00512020700722, 0.0864110145349 },
        { 0.0297626847873, 0.0500526781546, -0.0110736837111, 0.0435405986331, 0.678617626993, -0.199865180906, -0.0601773048837, -0.0217554749546, -0.165193557012, 0.202776179132, -0.0337332239477, -0.0107158425447, -0.0926015424614, 0.0998791160348, -0.0100797474009, -0.00885691113532, 0.300837021449, 0.148179810378, 0.016129483579, 0.0442772698169 },
        { 0.0200917703396, 0.0364359152038, -0.0385687396087, -0.063954745244, 0.238148410058, 0.532758645187, -0.0909450732072, 0.0579911784017, -0.0730757380701, 0.0208292267596, -0.048363716747, 0.028564043673, -0.0388609758887, 0.0102596111897, -0.0042300463934, -0.00391798160862, 0.262285372431, 0.129190870739, 0.0140625232469, 0.0112994495376 },
        { 0.00902055949441, 0.01750305516, 0.06120422296, 0.213985565988, -0.297583634516, 0.872691107158, -0.0645347110293, 0.0949930820306, -0.014240572349, -0.00714783545794, -0.0327684220469, 0.0467896431585, -0.00723085417875, -0.00352072659697, -0.000787083904625, -0.000763513336067, 0.0721372072641, 0.0355317894123, 0.00386766194665, 0.000853458842448 },
        { 0.0459182870838, 0.316942646271, 0.0417713284262, 0.0384285806226, -0.0099256556723, -0.0101332081943, 0.274161313248, -0.155700796186, 0.307139785811, -0.170857079355, -0.0110547061626, -0.011617196823, -0.0123844609684, -0.0127480421943, -0.19029219534, 0.352119809988, 0.0594028686805, 0.00443218553927, 0.0681023032468, 0.0762942319785 },
        { 0.0392228167323, 0.00141590232956, 0.0353420251164, 0.0435405986331, -0.0405943584871, -0.0132673889695, 0.720340631624, -0.20385873716, 0.131264293206, -0.113662771759, -0.0455169618204, -0.0152103722761, -0.00829434237071, -0.00848064250992, -0.127445887443, 0.150487693607, 0.187128683191, 0.0139621042224, 0.214533314838, 0.039093399296 },
        { 0.0272612052689, -0.0418846376624, 0.0242504041834, -0.063954745244, -0.058858584842, 0.0353654205326, 0.267461209901, 0.543403829153, 0.0142660308648, -0.0482387491813, -0.0665869621325, 0.0405446175759, -0.00355166140663, -0.0035992047405, -0.0545726978261, 0.0163552633343, 0.163148525162, 0.012172889122, 0.187041309311, 0.00997653862634 },
        { 0.0125719331417, 0.0606020354974, 0.0110533069845, 0.213985565988, -0.0402900923343, 0.0579307126754, -0.296776478795, 0.890128566813, -0.0043472225451, -0.00906827174739, -0.0459453476252, 0.0664145528585, -0.000673013750447, -0.000676604746501, -0.0103411254146, -0.0049838648305, 0.0448712746171, 0.00334794966816, 0.0514425855001, 0.00075353804443 },
        { 0.03799461325, -0.0233141297876, 0.0334206393025, 0.0384285806226, -0.0120588958979, -0.0491261253148, 0.128698381602, -0.119415229212, 0.698986096122, -0.159202616933, -0.00893254555194, -0.00890984667643, -0.0485144029479, -0.0118784757749, -0.117928261408, 0.126772850606, 0.220872602144, 0.0164798161266, 0.0400589504569, 0.217567999272 },
        { 0.0319045035068, -0.0636942004447, 0.0529912643923, 0.0435405986331, -0.0832047485472, -0.0643207363968, 0.29550717883, -0.156350117797, 0.261061166329, -0.178677371706, -0.0363398789831, -0.0116656442114, -0.0321038941563, -0.0133315323092, -0.0780377824367, 0.0473478205386, 0.695784565804, 0.0519140970715, 0.126192199393, 0.111482512491 },
        { 0.0216671920488, 0.00416331000853, 0.0640143830484, -0.063954745244, -0.186307671683, 0.171452717401, -0.0189012088835, 0.416765324279, -0.00488762055045, -0.117107805779, -0.052316268488, 0.0310958255817, -0.013528344698, -0.00873768447279, -0.0328845471247, -0.000886451952764, 0.606621196735, 0.0452614117081, 0.110020927133, 0.0284500609325 },
