
        #include <petsc.h>
        #include <stdbool.h>
        #include <math.h>
        
        


        
            #include <immintrin.h>

            
            // This code is generated visiting a COFFEE AST

#include "firedrake_geometry.h"


void form_cell_integral_0_otherwise(double A[60][60], double *coordinate_dofs, double **w0, double *c1, double *c2, double **w3)
{
double (*w1)[1] = (double (*)[1])c1;

double (*w2)[1] = (double (*)[1])c2;

// Section for quadrature weights and points
static const double weights216[216] = { 0.0003873813195, 0.000665118532009, 0.000585836191028, 0.000317701213401, 9.73756921862e-05, 1.13421694286e-05, 0.000726129045449, 0.00124673509136, 0.00109812387115, 0.000595516787239, 0.000182526401914, 2.12603918824e-05, 0.000754254678619, 0.00129502570039, 0.0011406582242, 0.000618583330038, 0.000189596316906, 2.2083884603e-05, 0.000528548084788, 0.000907496331276, 0.00079932247938, 0.000433475646412, 0.000132860654397, 1.54754027287e-05, 0.0002354768656, 0.000404304542544, 0.000356111312226, 0.000193120530504, 5.91916068935e-05, 6.89454646291e-06, 4.68128807154e-05, 8.03758801296e-05, 7.07950496033e-05, 3.83924269381e-05, 1.17673115182e-05, 1.37063817429e-06, 0.000815716960555, 0.00140055402785, 0.00123360754139, 0.000668990101264, 0.000205046035169, 2.38834437973e-05, 0.00152902514424, 0.00262527620242, 0.00231234244244, 0.00125399217565, 0.000384349668649, 4.47684526165e-05, 0.00158824987927, 0.0027269627496, 0.00240190792079, 0.00130256387809, 0.000399236936769, 4.65024984914e-05, 0.00111297477583, 0.00191093403786, 0.00168315009156, 0.000912778750463, 0.000279767463548, 3.25868797533e-05, 0.000495848569406, 0.00085135254588, 0.000749871051096, 0.00040665794718, 0.000124641006768, 1.45179909356e-05, 9.85748637061e-05, 0.000169249174756, 0.000149074619187, 8.0843737769e-05, 2.47786744026e-05, 2.88618152005e-06, 0.0010579988586, 0.0018165425442, 0.00160001009402, 0.000867691610911, 0.000265948216918, 3.09772353632e-05, 0.0019831717809, 0.00340502816537, 0.00299914772292, 0.00162644931353, 0.000498508098271, 5.80654492427e-05, 0.00205998727585, 0.0035369173574, 0.00311531568122, 0.00168944764289, 0.000517817139814, 6.03145364201e-05, 0.00144354733249, 0.00247851415218, 0.00218307447537, 0.00118388966129, 0.00036286318836, 4.22657407549e-05, 0.000643124080824, 0.00110421882266, 0.000972595587096, 0.000527442317325, 0.000161661518972, 1.88300827147e-05, 0.000127853285307, 0.000219519076309, 0.000193352332455, 0.000104855711503, 3.213836478e-05, 3.74342682767e-06, 0.0010579988586, 0.0018165425442, 0.00160001009402, 0.000867691610911, 0.000265948216918, 3.09772353632e-05, 0.0019831717809, 0.00340502816537, 0.00299914772292, 0.00162644931353, 0.000498508098271, 5.80654492427e-05, 0.00205998727585, 0.0035369173574, 0.00311531568122, 0.00168944764289, 0.000517817139814, 6.03145364201e-05, 0.00144354733249, 0.00247851415218, 0.00218307447537, 0.00118388966129, 0.00036286318836, 4.22657407549e-05, 0.000643124080824, 0.00110421882266, 0.000972595587096, 0.000527442317325, 0.000161661518972, 1.88300827147e-05, 0.000127853285307, 0.000219519076309, 0.000193352332455, 0.000104855711503, 3.213836478e-05, 3.74342682767e-06, 0.000815716960555, 0.00140055402785, 0.00123360754139, 0.000668990101264, 0.000205046035169, 2.38834437973e-05, 0.00152902514424, 0.00262527620242, 0.00231234244244, 0.00125399217565, 0.000384349668649, 4.47684526165e-05, 0.00158824987927, 0.0027269627496, 0.00240190792079, 0.00130256387809, 0.000399236936769, 4.65024984914e-05, 0.00111297477583, 0.00191093403786, 0.00168315009156, 0.000912778750463, 0.000279767463548, 3.25868797533e-05, 0.000495848569406, 0.00085135254588, 0.000749871051096, 0.00040665794718, 0.000124641006768, 1.45179909356e-05, 9.85748637061e-05, 0.000169249174756, 0.000149074619187, 8.0843737769e-05, 2.47786744026e-05, 2.88618152005e-06, 0.0003873813195, 0.000665118532009, 0.000585836191028, 0.000317701213401, 9.73756921862e-05, 1.13421694286e-05, 0.000726129045449, 0.00124673509136, 0.00109812387115, 0.000595516787239, 0.000182526401914, 2.12603918824e-05, 0.000754254678619, 0.00129502570039, 0.0011406582242, 0.000618583330038, 0.000189596316906, 2.2083884603e-05, 0.000528548084788, 0.000907496331276, 0.00079932247938, 0.000433475646412, 0.000132860654397, 1.54754027287e-05, 0.0002354768656, 0.000404304542544, 0.000356111312226, 0.000193120530504, 5.91916068935e-05, 6.89454646291e-06, 4.68128807154e-05, 8.03758801296e-05, 7.07950496033e-05, 3.83924269381e-05, 1.17673115182e-05, 1.37063817429e-06 };
static const double points216[648] = { 0.0319263353243, 0.0285569981573, 0.0259045550937, 0.0284633101934, 0.0254594424473, 0.131563941658, 0.0228628857485, 0.0204500572821, 0.302436918023, 0.0160915115529, 0.0143932982316, 0.509036413165, 0.00931865528777, 0.00833521352132, 0.715681127312, 0.00370998742848, 0.00331845490823, 0.886805616178, 0.0280201798587, 0.144242689425, 0.0259045550937, 0.0249808524183, 0.128596795421, 0.131563941658, 0.0200656343503, 0.10329416436, 0.302436918023, 0.0141227310724, 0.0727012004268, 0.509036413165, 0.00817852705463, 0.042101540527, 0.715681127312, 0.0032560741458, 0.0167616658468, 0.886805616178, 0.0218069509936, 0.328255251806, 0.0259045550937, 0.0194415677276, 0.292649656149, 0.131563941658, 0.0156162561104, 0.235068079132, 0.302436918023, 0.0109911394553, 0.165447212249, 0.509036413165, 0.00636501048813, 0.0958111072539, 0.715681127312, 0.00253406829246, 0.038144774374, 0.886805616178, 0.0145155449975, 0.544199381634, 0.0259045550937, 0.0129410549533, 0.48517049167, 0.131563941658, 0.0103947804683, 0.389708626447, 0.302436918023, 0.00731612499995, 0.274287372719, 0.509036413165, 0.00423679569771, 0.15884085642, 0.715681127312, 0.00168677328328, 0.0632384783265, 0.886805616178, 0.0075900296538, 0.749307201071, 0.0259045550937, 0.00676674495268, 0.668030423085, 0.131563941658, 0.00543532413101, 0.536589143559, 0.302436918023, 0.00382552675151, 0.377665816017, 0.509036413165, 0.0022153770312, 0.218707704486, 0.715681127312, 0.000881996455634, 0.0870729530278, 0.886805616178, 0.00240279846038, 0.902933556108, 0.0259045550937, 0.00214216875239, 0.804993045098, 0.131563941658, 0.00172067686812, 0.646603079311, 0.302436918023, 0.00121105848171, 0.455096571593, 0.509036413165, 0.000701328553711, 0.263548148313, 0.715681127312, 0.000279216264273, 0.104925044102, 0.886805616178, 0.160169775247, 0.0285569981573, 0.0259045550937, 0.142796282447, 0.0254594424473, 0.131563941658, 0.114699768534, 0.0204500572821, 0.302436918023, 0.080728770234, 0.0143932982316, 0.509036413165, 0.0467503366072, 0.00833521352132, 0.715681127312, 0.0186124666847, 0.00331845490823, 0.886805616178, 0.140573162086, 0.144242689425, 0.0259045550937, 0.125325298901, 0.128596795421, 0.131563941658, 0.100666365602, 0.10329416436, 0.302436918023, 0.0708516852547, 0.0727012004268, 0.509036413165, 0.0410304792857, 0.042101540527, 0.715681127312, 0.0163352498439, 0.0167616658468, 0.886805616178, 0.109402297633, 0.328255251806, 0.0259045550937, 0.0975355142316, 0.292649656149, 0.131563941658, 0.0783444828852, 0.235068079132, 0.302436918023, 0.0551409461307, 0.165447212249, 0.509036413165, 0.0319323307537, 0.0958111072539, 0.715681127312, 0.0127130516153, 0.038144774374, 0.886805616178, 0.0728223755158, 0.544199381634, 0.0259045550937, 0.0649233882396, 0.48517049167, 0.131563941658, 0.0521490999341, 0.389708626447, 0.302436918023, 0.0367039337593, 0.274287372719, 0.509036413165, 0.0212553870582, 0.15884085642, 0.715681127312, 0.0084622959363, 0.0632384783265, 0.886805616178, 0.038078073522, 0.749307201071, 0.0259045550937, 0.0339477740622, 0.668030423085, 0.131563941658, 0.0272682296798, 0.536589143559, 0.302436918023, 0.0191921106437, 0.377665816017, 0.509036413165, 0.011114223965, 0.218707704486, 0.715681127312, 0.00442484778264, 0.0870729530278, 0.886805616178, 0.0120544899831, 0.902933556108, 0.0259045550937, 0.0107469486907, 0.804993045098, 0.131563941658, 0.00863238528444, 0.646603079311, 0.302436918023, 0.00607570404985, 0.455096571593, 0.509036413165, 0.00351846322734, 0.263548148313, 0.715681127312, 0.00140078733872, 0.104925044102, 0.886805616178, 0.359957416088, 0.0285569981573, 0.0259045550937, 0.320913110961, 0.0254594424473, 0.131563941658, 0.257770432928, 0.0204500572821, 0.302436918023, 0.181425737113, 0.0143932982316, 0.509036413165, 0.105064331522, 0.00833521352132, 0.715681127312, 0.0418287120933, 0.00331845490823, 0.886805616178, 0.3159169832, 0.144242689425, 0.0259045550937, 0.281649710085, 0.128596795421, 0.131563941658, 0.226232476091, 0.10329416436, 0.302436918023, 0.159228478097, 0.0727012004268, 0.509036413165, 0.0922098147529, 0.042101540527, 0.715681127312, 0.0367110106503, 0.0167616658468, 0.886805616178, 0.245865165941, 0.328255251806, 0.0259045550937, 0.219196359772, 0.292649656149, 0.131563941658, 0.176067410849, 0.235068079132, 0.302436918023, 0.123920961113, 0.165447212249, 0.509036413165, 0.071763097938, 0.0958111072539, 0.715681127312, 0.028570666363, 0.038144774374, 0.886805616178, 0.163657307277, 0.544199381634, 0.0259045550937, 0.14590552455, 0.48517049167, 0.131563941658, 0.11719723796, 0.389708626447, 0.302436918023, 0.0824865561302, 0.274287372719, 0.509036413165, 0.0477682770774, 0.15884085642, 0.715681127312, 0.0190177339932, 0.0632384783265, 0.886805616178, 0.0855747280251, 0.749307201071, 0.0259045550937, 0.0762925028429, 0.668030423085, 0.131563941658, 0.0612812341261, 0.536589143559, 0.302436918023, 0.0431313744801, 0.377665816017, 0.509036413165, 0.0249775423239, 0.218707704486, 0.715681127312, 0.00994417811953, 0.0870729530278, 0.886805616178, 0.0270906484065, 0.902933556108, 0.0259045550937, 0.0241521465305, 0.804993045098, 0.131563941658, 0.0193999841535, 0.646603079311, 0.302436918023, 0.0136542286291, 0.455096571593, 0.509036413165, 0.00790721551528, 0.263548148313, 0.715681127312, 0.00314805830348, 0.104925044102, 0.886805616178, 0.585581030661, 0.0285569981573, 0.0259045550937, 0.522063504933, 0.0254594424473, 0.131563941658, 0.419342591767, 0.0204500572821, 0.302436918023, 0.295144551491, 0.0143932982316, 0.509036413165, 0.170919327645, 0.00833521352132, 0.715681127312, 0.0680472168209, 0.00331845490823, 0.886805616178, 0.513935772281, 0.144242689425, 0.0259045550937, 0.458189552836, 0.128596795421, 0.131563941658, 0.368036441527, 0.10329416436, 0.302436918023, 0.259033908311, 0.0727012004268, 0.509036413165, 0.150007517408, 0.042101540527, 0.715681127312, 0.0597217073254, 0.0167616658468, 0.886805616178, 0.399975027159, 0.328255251806, 0.0259045550937, 0.356590042421, 0.292649656149, 0.131563941658, 0.286427591996, 0.235068079132, 0.302436918023, 0.201595413473, 0.165447212249, 0.509036413165, 0.116744667496, 0.0958111072539, 0.715681127312, 0.0464789430855, 0.038144774374, 0.886805616178, 0.266238755995, 0.544199381634, 0.0259045550937, 0.237360042123, 0.48517049167, 0.131563941658, 0.19065721757, 0.389708626447, 0.302436918023, 0.134189657986, 0.274287372719, 0.509036413165, 0.0777097391907, 0.15884085642, 0.715681127312, 0.0309381715027, 0.0632384783265, 0.886805616178, 0.13921351581, 0.749307201071, 0.0259045550937, 0.124113132415, 0.668030423085, 0.131563941658, 0.0996927042921, 0.536589143559, 0.302436918023, 0.0701663963377, 0.377665816017, 0.509036413165, 0.0406336258783, 0.218707704486, 0.715681127312, 0.0161772526751, 0.0870729530278, 0.886805616178, 0.0440712403916, 0.902933556108, 0.0259045550937, 0.0392908667134, 0.804993045098, 0.131563941658, 0.0315600185125, 0.646603079311, 0.302436918023, 0.0222127866136, 0.455096571593, 0.509036413165, 0.0128635088601, 0.263548148313, 0.715681127312, 0.00512128141704, 0.104925044102, 0.886805616178, 0.785368671502, 0.0285569981573, 0.0259045550937, 0.700180333448, 0.0254594424473, 0.131563941658, 0.562413256161, 0.0204500572821, 0.302436918023, 0.39584151837, 0.0143932982316, 0.509036413165, 0.22923332256, 0.00833521352132, 0.715681127312, 0.0912634622295, 0.00331845490823, 0.886805616178, 0.689279593395, 0.144242689425, 0.0259045550937, 0.61451396402, 0.128596795421, 0.131563941658, 0.493602552016, 0.10329416436, 0.302436918023, 0.347410701154, 0.0727012004268, 0.509036413165, 0.201186852876, 0.042101540527, 0.715681127312, 0.0800974681318, 0.0167616658468, 0.886805616178, 0.536437895468, 0.328255251806, 0.0259045550937, 0.478250887961, 0.292649656149, 0.131563941658, 0.38415051996, 0.235068079132, 0.302436918023, 0.270375428456, 0.165447212249, 0.509036413165, 0.156575434681, 0.0958111072539, 0.715681127312, 0.0623365578332, 0.038144774374, 0.886805616178, 0.357073687756, 0.544199381634, 0.0259045550937, 0.318342178433, 0.48517049167, 0.131563941658, 0.255705355596, 0.389708626447, 0.302436918023, 0.179972280357, 0.274287372719, 0.509036413165, 0.10422262921, 0.15884085642, 0.715681127312, 0.0414936095596, 0.0632384783265, 0.886805616178, 0.186710170313, 0.749307201071, 0.0259045550937, 0.166457861195, 0.668030423085, 0.131563941658, 0.133705708738, 0.536589143559, 0.302436918023, 0.0941056601742, 0.377665816017, 0.509036413165, 0.0544969442373, 0.218707704486, 0.715681127312, 0.021696583012, 0.0870729530278, 0.886805616178, 0.0591073988151, 0.902933556108, 0.0259045550937, 0.0526960645532, 0.804993045098, 0.131563941658, 0.0423276173815, 0.646603079311, 0.302436918023, 0.0297913111929, 0.455096571593, 0.509036413165, 0.017252261148, 0.263548148313, 0.715681127312, 0.00686855238181, 0.104925044102, 0.886805616178, 0.913612111425, 0.0285569981573, 0.0259045550937, 0.814513305701, 0.0254594424473, 0.131563941658, 0.654250138946, 0.0204500572821, 0.302436918023, 0.460478777051, 0.0143932982316, 0.509036413165, 0.266665003879, 0.00833521352132, 0.715681127312, 0.106165941486, 0.00331845490823, 0.886805616178, 0.801832575622, 0.144242689425, 0.0259045550937, 0.714858410503, 0.128596795421, 0.131563941658, 0.574203283267, 0.10329416436, 0.302436918023, 0.404139655336, 0.0727012004268, 0.509036413165, 0.234038805107, 0.042101540527, 0.715681127312, 0.0931766438299, 0.0167616658468, 0.886805616178, 0.624033242107, 0.328255251806, 0.0259045550937, 0.556344834465, 0.292649656149, 0.131563941658, 0.446878746735, 0.235068079132, 0.302436918023, 0.314525235131, 0.165447212249, 0.509036413165, 0.182142754946, 0.0958111072539, 0.715681127312, 0.072515541156, 0.038144774374, 0.886805616178, 0.415380518275, 0.544199381634, 0.0259045550937, 0.370324511719, 0.48517049167, 0.131563941658, 0.297459675062, 0.389708626447, 0.302436918023, 0.209360089117, 0.274287372719, 0.509036413165, 0.12124122057, 0.15884085642, 0.715681127312, 0.0482691322127, 0.0632384783265, 0.886805616178, 0.217198214181, 0.749307201071, 0.0259045550937, 0.193638890305, 0.668030423085, 0.131563941658, 0.155538614287, 0.536589143559, 0.302436918023, 0.109472244066, 0.377665816017, 0.509036413165, 0.063395791171, 0.218707704486, 0.715681127312, 0.025239434339, 0.0870729530278, 0.886805616178, 0.0687590903378, 0.902933556108, 0.0259045550937, 0.0613008444915, 0.804993045098, 0.131563941658, 0.0492393257978, 0.646603079311, 0.302436918023, 0.034655956761, 0.455096571593, 0.509036413165, 0.0200693958217, 0.263548148313, 0.715681127312, 0.00799012345625, 0.104925044102, 0.886805616178 };
// Section for precomputed element basis function values
// Table dimensions: num_entities, num_points, num_dofs
// Definitions of 7 tables for 216 quadrature points
static const double FE0_C0_D001_Q216[1][216][20] =
    { { { -4.04576671409, -5.27355936697e-16, 5.41233724505e-16, 0.775918124814, -0.117497212767, -0.108533070742, -0.129908081982, -0.121338496126, -1.84574577844e-15, 2.33146835171e-15, 6.63459040101, -3.36474181173, -0.575924031618, 0.117497212767, -0.643875229934, 0.129908081982, 0.0246164480736, 0.684457102359, 0.76521372606, -0.0246164480736 },
        { -2.62571123841, -1.2490009027e-16, 3.81639164715e-16, 0.04959698013, -0.105817017682, -0.0241297867918, -0.117147735503, -0.026976773265, -1.55431223448e-15, 1.38083988688e-15, 2.98972316369, -0.413608905412, -0.445332983972, 0.105817017682, -0.497876215804, 0.117147735503, 0.0195658202087, 0.469462770764, 0.524852989069, -0.0195658202087 },
        { -0.890332547687, 1.04083408559e-16, 6.93889390391e-17, -0.487113055533, -0.0863794923912, 0.074965754271, -0.0958263800142, 0.0838106931097, -3.40005801291e-16, 8.04911692853e-16, -1.1470493782, 2.52449498142, -0.269219968325, 0.0863794923912, -0.300984260929, 0.0958263800142, 0.0126237777262, 0.194254214054, 0.217173567819, -0.0126237777262 },
        { 0.281759487915, 2.01227923213e-16, -2.49800180541e-16, -0.0832337744597, -0.0619730870833, 0.133051406404, -0.0689161559432, 0.14874966174, 8.67361737988e-17, 4.99600361081e-16, -3.24775368717, 3.04922797372, -0.114180983878, 0.0619730870833, -0.127652786153, 0.0689161559432, 0.00625346796898, -0.0188704225262, -0.0210968755877, -0.00625346796898 },
        { 0.439997006945, 7.21644966006e-16, 1.38777878078e-17, 1.47356278006, -0.0365705377559, 0.123556124406, -0.0407616447539, 0.138134065682, 1.66533453694e-16, 7.49400541622e-16, -2.17231140254, 0.258751615532, -0.022504702296, 0.0365705377559, -0.0251599509135, 0.0407616447539, 0.00209717050198, -0.10105142211, -0.112974114769, -0.00209717050198 },
        { -0.196667822904, 1.49880108324e-15, 8.881784197e-16, 3.63547616634, -0.0147843831568, 0.0645232130535, -0.0165091293374, 0.072136074135, 3.33066907388e-16, 9.43689570931e-16, 1.12302889717, -4.5618372406, 0.00542076106755, 0.0147843831568, 0.00606033710554, 0.0165091293374, 0.000332408501757, -0.069943974121, -0.0781964112405, -0.000332408501756 },
        { -2.46313579034, 5.27355936697e-16, -5.6898930012e-16, 0.775918124814, -0.368211730803, -0.548205449646, -0.115491547894, -0.106492851456, -2.92821322745e-15, 3.46944695195e-16, 4.62713274303, -2.9399150775, -2.47368705135, 0.368211730803, -0.480531501245, 0.115491547894, 0.109126064727, 3.021892501, 0.587024352702, -0.109126064727 },
        { -1.46507869087, 5.75928194024e-16, -2.49800180541e-16, 0.04959698013, -0.355434246195, -0.12188064456, -0.103989255551, -0.0236761918089, -2.19962936754e-15, 2.22044604925e-16, 1.73464033984, -0.3191586291, -1.90338394141, 0.355434246195, -0.369746020342, 0.103989255551, 0.0867363543327, 2.02526458596, 0.393422212151, -0.0867363543327 },
        { -0.283247492545, 4.99600361081e-16, -8.32667268469e-17, -0.487113055533, -0.320783000343, 0.378655415786, -0.0848598538711, 0.0735565379229, -1.47798440153e-15, 2.22044604925e-16, -1.46069892702, 2.2310594751, -1.13659616496, 0.320783000343, -0.220791979793, 0.0848598538711, 0.0559618991792, 0.757940749172, 0.14723544187, -0.0559618991792 },
        { 0.43231727432, 6.45317133063e-16, -2.08166817117e-17, -0.0832337744597, -0.255801630583, 0.672048672126, -0.0608596941309, 0.130550288142, -1.19002030452e-15, 6.41847686111e-16, -2.87751358145, 2.52843008159, -0.46614342632, 0.255801630583, -0.09055171321, 0.0608596941309, 0.0277219665611, -0.205905245806, -0.0399985749317, -0.0277219665611 },
        { 0.366898054967, 9.02056207508e-16, 2.22044604925e-16, 1.47356278006, -0.165527646222, 0.624087573248, -0.0359003796313, 0.121233499734, -9.43689570931e-16, 1.02695629778e-15, -1.61558156767, -0.224879267362, -0.0765847120569, 0.165527646222, -0.0148771311379, 0.0359003796313, 0.00929687188252, -0.547502861192, -0.106356368596, -0.00929687188252 },
        { -0.278615679429, 1.38777878078e-15, 8.881784197e-16, 3.63547616634, -0.071634624844, 0.325909667743, -0.0145092064017, 0.063310297002, -3.88578058619e-16, 8.881784197e-16, 1.45753743125, -4.81439791816, 0.0332590105583, 0.071634624844, 0.00646080201, 0.0145092064017, 0.0014735851237, -0.359168678302, -0.069771099012, -0.0014735851237 },
        { -0.640836898971, 6.80011602583e-16, -1.4294121442e-15, 0.775918124814, -0.0225032435608, -1.24755936424, -0.0917114474641, -0.0828789966583, -3.7331249203e-15, -7.49400541622e-16, 2.12909379186, -2.2641750177, -4.0535904705, 0.0225032435608, -0.269291803412, 0.0917114474641, 0.193272647117, 5.30114983473, 0.35217080007, -0.193272647117 },
        { -0.171410750099, 8.881784197e-16, -5.75928194024e-16, 0.04959698013, -0.160731865874, -0.2773656109, -0.0823843982723, -0.0184262041534, -3.15025783237e-15, -6.86950496487e-16, 0.290737420385, -0.168923650415, -3.07905790901, 0.160731865874, -0.204550771263, 0.0823843982723, 0.153618338983, 3.35642351991, 0.222976975417, -0.153618338983 },
        { 0.325950427788, 7.42461647718e-16, -1.38777878078e-17, -0.487113055533, -0.311836831433, 0.861711809117, -0.0669809418555, 0.0572460214685, -2.42167397246e-15, 5.55111512313e-17, -1.60315097047, 1.76431359822, -1.7784607161, 0.311836831433, -0.118148317404, 0.0669809418555, 0.0991138498316, 0.916748906984, 0.060902295936, -0.0991138498316 },
        { 0.495224448467, 8.22258927613e-16, 3.22658566532e-16, -0.0832337744597, -0.374979924567, 1.52939124315, -0.0478292580708, 0.101601907984, -2.43902120722e-15, 7.1123662515e-16, -2.11202656474, 1.70003589073, -0.660495274908, 0.374979924567, -0.0438786219327, 0.0478292580708, 0.0490982413227, -0.868895968238, -0.0577232860515, -0.0490982413227 },
        { 0.191409021594, 1.08246744901e-15, 6.24500451352e-16, 1.47356278006, -0.307223110954, 1.42024545107, -0.0280956168566, 0.0943510356038, -1.92901250529e-15, 1.27675647832e-15, -0.670817120606, -0.99415468105, -0.0400350911586, 0.307223110954, -0.00265964753379, 0.0280956168566, 0.0164656449689, -1.38021035991, -0.09169138807, -0.0164656449689 },
        { -0.418349929669, 1.33226762955e-15, 1.22124532709e-15, 3.63547616634, -0.15200866322, 0.741677519169, -0.0113166170376, 0.0492717945093, -7.77156117238e-16, 1.22124532709e-15, 1.99900103042, -5.21612726709, 0.0969670828708, 0.15200866322, 0.00644180531011, 0.0113166170376, 0.00260985950812, -0.83864460204, -0.0557135998194, -0.00260985950812 },
        { 0.409121502483, 1.02695629778e-15, -7.91033905045e-16, 0.775918124814, 1.54916783676, -2.06827166004, -0.0624754883598, -0.0551674466408, -4.64905891562e-15, -1.15185638805e-15, 0.286134644621, -1.47117427192, -3.65444795472, -1.54916783676, -0.0974758618217, 0.0624754883598, 0.213282466516, 5.72271961476, 0.152643308462, -0.213282466516 },
        { 0.481527311742, 1.02001740387e-15, -1.31838984174e-16, 0.04959698013, 0.994503268313, -0.459831771488, -0.0559738900952, -0.0122651899204, -3.69843045078e-15, -1.15879528195e-15, -0.538505787813, 0.00738149594034, -2.66783697404, -0.994503268313, -0.0711597788412, 0.0559738900952, 0.169522685849, 3.12766874553, 0.0834249687615, -0.169522685849 },
        { 0.48262658867, 7.49400541622e-16, 4.57966997658e-16, -0.487113055533, 0.296594163606, 1.42859263055, -0.0453178173842, 0.0381051528384, -2.85188539451e-15, -3.88578058619e-16, -1.21208717856, 1.21657364542, -1.37622141856, -0.296594163606, -0.0367082444446, 0.0453178173842, 0.1093752617, -0.0523712119837, -0.00139690839382, -0.1093752617 },
        { 0.292513568698, 6.00214322688e-16, 7.91033905045e-16, -0.0832337744597, -0.218640078989, 2.53550785316, -0.0321999657521, 0.0676301362627, -3.2925051574e-15, 7.6327832943e-16, -0.937170846673, 0.727891052435, -0.316177200256, 0.218640078989, -0.00843346121361, 0.0321999657521, 0.0541814590274, -2.21933065291, -0.0591966750491, -0.0541814590274 },
        { -0.107271367999, 9.71445146547e-16, 1.09634523682e-15, 1.47356278006, -0.374173215369, 2.35456003213, -0.0188232497296, 0.0628036768307, -2.91433543964e-15, 1.44328993201e-15, 0.530630491278, -1.89692190334, 0.194816252552, 0.374173215369, 0.00519637503385, 0.0188232497296, 0.0181703589417, -2.54937628468, -0.0680000518645, -0.0181703589417 },
        { -0.597031583268, 1.33226762955e-15, 1.44328993201e-15, 3.63547616634, -0.230585233065, 1.22959326647, -0.0075520695193, 0.0327972007877, -1.49880108324e-15, 1.27675647832e-15, 2.6491238376, -5.68756842067, 0.202156557745, 0.230585233065, 0.00539216454393, 0.00755206951929, 0.00288006234434, -1.43174982421, -0.0381893653316, -0.00288006234434 },
        { 0.317920560344, 3.10862446895e-15, 1.08246744901e-15, 0.775918124814, 4.20784489647, -2.84779972367, -0.0333774180152, -0.0288464922262, -7.97972798949e-15, -2.98372437868e-15, -0.375871522455, -0.717967162703, -1.02231861572, -4.20784489647, -0.0103554704904, 0.0333774180152, 0.15355612465, 3.87011833939, 0.0392019627166, -0.15355612465 },
        { 0.236553744924, 1.85268467234e-15, 1.02695629778e-15, 0.04959698013, 3.01843581937, -0.633141582452, -0.0298322029841, -0.0064133420565, -5.59968738045e-15, -2.05391259556e-15, -0.460990184094, 0.17483945904, -0.486493181149, -3.01843581937, -0.00492788227046, 0.0298322029841, 0.122050570328, 1.1196347636, 0.011341224327, -0.122050570328 },
        { 0.0732520113709, 6.93889390391e-16, 1.45716771982e-15, -0.487113055533, 1.47237562529, 1.96702675819, -0.024060131486, 0.0199247937337, -3.68455266297e-15, -1.0616507673e-15, -0.282458832717, 0.696319876879, 0.161222186585, -1.47237562529, 0.00163308343398, 0.024060131486, 0.0787464698514, -2.12824894478, -0.0215578771677, -0.0787464698514 },
        { -0.176536128385, 2.18575157973e-16, 1.19695919842e-15, -0.0832337744597, 0.226028653861, 3.49113644165, -0.0170173025403, 0.0353631048517, -3.44863027024e-15, 5.03069808033e-16, 0.455240407489, -0.195470504643, 0.583210213641, -0.226028653861, 0.00590756742977, 0.0170173025403, 0.0390088084223, -4.07434665529, -0.0412706722815, -0.0390088084223 },
        { -0.483694735026, 5.82867087928e-16, 1.56819002228e-15, 1.47356278006, -0.338438360166, 3.24198969527, -0.00990294005262, 0.0328393986995, -3.53883589099e-15, 1.63757896132e-15, 1.76451924331, -2.75438728835, 0.609825675238, 0.338438360166, 0.00617716599025, 0.00990294005262, 0.0130820406767, -3.85181537051, -0.0390165646898, -0.0130820406767 },
        { -0.781444983067, 1.16573417586e-15, 1.66533453694e-15, 3.63547616634, -0.289475350114, 1.69302487296, -0.00395848216076, 0.0171493200279, -2.22044604925e-15, 1.38777878078e-15, 3.28132096313, -6.1353521464, 0.332491142448, 0.289475350114, 0.00336793457636, 0.00395848216076, 0.0020735469707, -2.0255160154, -0.0205172546042, -0.0020735469707 },
        { -0.444993655765, 6.5780714209e-15, 2.77555756156e-15, 0.775918124814, 6.94320058859, -3.43166851713, -0.0107346516258, -0.00913202059411, -1.33920652345e-14, -6.00908212078e-15, -0.177111628177, -0.153812840872, 2.38690897374, -6.94320058859, 0.0063518086889, 0.0107346516258, 0.058578318678, 1.04475954339, 0.00278021190522, -0.0585783186779 },
        { -0.499022612304, 3.75394160201e-15, 2.75474087985e-15, 0.04959698013, 5.12571763292, -0.762951136391, -0.00957780941175, -0.0020302909372, -7.75768338457e-15, -5.40539835114e-15, 0.149159670313, 0.30026596186, 2.29010635914, -5.12571763292, 0.00609420703951, 0.00957780941174, 0.0465596355717, -1.52715522274, -0.0040639161023, -0.0465596355717 },
        { -0.589576969087, 1.15185638805e-15, 1.81105130892e-15, -0.487113055533, 2.73457596246, 2.37031549036, -0.00770307606661, 0.00630765173397, -4.63518112781e-15, -2.37310171514e-15, 0.770041737905, 0.306648286715, 2.05007976543, -2.73457596246, 0.00545547174619, 0.00770307606661, 0.0300400639585, -4.42039525579, -0.0117631234802, -0.0300400639585 },
        { -0.704310366228, 6.93889390391e-17, 1.93942084614e-15, -0.0832337744597, 0.74808943575, 4.2069050419, -0.00542996322198, 0.0111950042052, -4.01415012341e-15, -2.8449465006e-16, 1.67461514493, -0.887071004247, 1.62209578027, -0.74808943575, 0.00431656262752, 0.00542996322198, 0.0148810112017, -5.82900082218, -0.0155115668327, -0.0148810112017 },
        { -0.824812976362, 2.49800180541e-16, 1.79023462721e-15, 1.47356278006, -0.248288709939, 3.9066771015, -0.00314933835821, 0.0103960669766, -4.01068067646e-15, 1.47104550763e-15, 2.74788155916, -3.39663136286, 1.04315686053, 0.248288709939, 0.00277594700237, 0.0031493383582, 0.00499051372562, -4.94983396203, -0.0131720139789, -0.00499051372562 },
        { -0.928950756877, 1.22124532709e-15, 1.83186799063e-15, 3.63547616634, -0.323537622581, 2.040136498, -0.00125542070598, 0.00542901169549, -2.72004641033e-15, 1.44328993201e-15, 3.76421805365, -6.47074346311, 0.449526868946, 0.323537622581, 0.00119623693382, 0.00125542070598, 0.000791013028752, -2.48966336694, -0.0066252486293, -0.00079101302875 },
        { -2.25853528387, -1.11022302463e-15, 7.07767178199e-16, 0.775918124814, -0.117497212767, -0.108533070742, -0.374430170425, -0.608737565896, -4.57966997658e-16, 1.91513471748e-15, 4.35995990102, -2.87734274196, -0.477043344324, 0.117497212767, -2.6756287486, 0.374430170425, 0.123497135368, 0.585576415065, 3.2843663145, -0.123497135368 },
        { -1.31678574016, -1.11716191853e-15, 3.12250225676e-16, 0.04959698013, -0.105817017682, -0.0241297867918, -0.367307764222, -0.135338543145, -7.00828284295e-16, 8.18789480661e-16, 1.57243589556, -0.305247135532, -0.366739933345, 0.105817017682, -2.05696174277, 0.367307764222, 0.0981588708354, 0.390869720137, 2.19230028592, -0.0981588708354 },
        { -0.208447749076, -9.92261828259e-16, 4.85722573274e-17, -0.487113055533, -0.0863794923912, 0.074965754271, -0.338542460229, 0.420466042918, -7.07767178199e-16, 4.92661467177e-16, -1.49227882701, 2.18783963162, -0.218512091458, 0.0863794923912, -1.22558513975, 0.338542460229, 0.0633316545928, 0.143546337187, 0.805119096837, -0.0633316545928 },
        { 0.447251811847, -5.20417042793e-16, -1.90819582357e-16, -0.0832337744597, -0.0619730870833, 0.133051406404, -0.275298152416, 0.746255392203, -2.32452945781e-16, 4.71844785466e-16, -2.81574028064, 2.45172224325, -0.0890617136689, 0.0619730870833, -0.499527106557, 0.275298152416, 0.0313727381778, -0.043989692735, -0.246728285646, -0.0313727381778 },
        { 0.353703034719, 2.49800180541e-16, -4.16333634234e-17, 1.47356278006, -0.0365705377559, 0.123556124406, -0.180870996099, 0.69299849261, -9.71445146547e-17, 7.07767178199e-16, -1.53115300339, -0.296112811395, -0.014080673777, 0.0365705377559, -0.0789753300315, 0.180870996099, 0.010521199021, -0.109475450629, -0.614023162578, -0.010521199021 },
        { -0.291070603699, 1.22124532709e-15, 7.77156117238e-16, 3.63547616634, -0.0147843831568, 0.0645232130535, -0.079079377214, 0.361896179566, 3.88578058619e-16, 7.21644966006e-16, 1.50719178339, -4.85159734603, 0.00675599761424, 0.0147843831568, 0.0378928700237, 0.079079377214, 0.00166764504844, -0.0712792106677, -0.399789049589, -0.00166764504844 },
        { -1.2104194907, -4.57966997658e-16, -4.57966997658e-16, 0.775918124814, -0.368211730803, -0.548205449646, -0.365808241752, -0.534259128395, -1.80411241502e-15, 4.99600361081e-16, 2.94665016645, -2.51214880056, -2.03534354015, 0.368211730803, -1.98356449475, 0.365808241752, 0.547469575928, 2.5835489898, 2.51782362314, -0.547469575928 },
        { -0.567344385493, -5.41233724505e-16, -1.94289029309e-16, 0.04959698013, -0.355434246195, -0.12188064456, -0.351927032702, -0.118780006606, -1.67227343084e-15, 0.0, 0.741802219665, -0.224054814302, -1.5549766365, 0.355434246195, -1.51541810287, 0.351927032702, 0.435143659242, 1.67685728106, 1.63419810948, -0.435143659242 },
        { 0.15323599683, -3.88578058619e-16, -4.85722573274e-17, -0.487113055533, -0.320783000343, 0.378655415786, -0.316193463501, 0.369022439544, -1.47104550763e-15, 4.16333634234e-17, -1.60171651477, 1.93559357348, -0.91180536506, 0.320783000343, -0.888609078798, 0.316193463501, 0.280752699077, 0.533149949274, 0.519586639255, -0.280752699077 },
        { 0.497324674156, -1.94289029309e-16, -2.08166817117e-17, -0.0832337744597, -0.255801630583, 0.672048672126, -0.25106310605, 0.65495178503, -1.46757606068e-15, 4.99600361081e-16, -2.4181194844, 2.00402858471, -0.354788323484, 0.255801630583, -0.345762524965, 0.25106310605, 0.139077069397, -0.317260348642, -0.309189260065, -0.139077069397 },
        { 0.264253653985, 4.30211422042e-16, 2.63677968348e-16, 1.47356278006, -0.165527646222, 0.624087573248, -0.161909903675, 0.608210814286, -1.02695629778e-15, 1.01307850997e-15, -1.02595985213, -0.711856581915, -0.0392405315042, 0.165527646222, -0.0382422542, 0.161909903675, 0.0466410524352, -0.584847041744, -0.569968560086, -0.0466410524352 },
        { -0.365733446229, 1.16573417586e-15, 8.881784197e-16, 3.63547616634, -0.071634624844, 0.325909667743, -0.0699062790666, 0.317618540889, -2.22044604925e-16, 8.32667268469e-16, 1.79896344194, -5.06870616204, 0.0391781874185, 0.071634624844, 0.0381814961449, 0.0699062790666, 0.00739276198395, -0.365087855162, -0.355800037034, -0.00739276198395 },
        { -0.0568947526572, 4.16333634234e-17, -1.17961196366e-15, 0.775918124814, -0.0225032435608, -1.24755936424, -0.330730692528, -0.415791857494, -2.98372437868e-15, -6.24500451352e-16, 1.21223878471, -1.93126215687, -3.27724239116, 0.0225032435608, -1.09225319479, 0.330730692528, 0.969620726454, 4.5248017554, 1.50804505228, -0.969620726454 },
        { 0.21648518187, 1.2490009027e-16, -5.20417042793e-16, 0.04959698013, -0.160731865874, -0.2773656109, -0.310481930801, -0.0924415830356, -2.81025203108e-15, -4.16333634234e-16, -0.171173890467, -0.0949082715328, -2.46199541103, 0.160731865874, -0.820544235761, 0.310481930801, 0.77068083696, 2.73936102193, 0.912985818797, -0.77068083696 },
        { 0.465137782835, 1.11022302463e-16, 2.08166817117e-17, -0.487113055533, -0.311836831433, 0.861711809117, -0.269689090003, 0.28719495361, -2.56739074445e-15, -1.31838984174e-16, -1.51238939338, 1.53436466608, -1.38033481417, 0.311836831433, -0.460043820598, 0.269689090003, 0.497239751764, 0.518623005052, 0.172848866989, -0.497239751764 },
        { 0.446490079881, 1.87350135405e-16, 3.46944695195e-16, -0.0832337744597, -0.374979924567, 1.52939124315, -0.207087184396, 0.509721977207, -2.58126853225e-15, 5.65519853168e-16, -1.65517212693, 1.29191582151, -0.463274789142, 0.374979924567, -0.154402179671, 0.207087184396, 0.246318727089, -1.066116454, -0.355319797536, -0.246318727089 },
        { 0.0782147110625, 6.38378239159e-16, 6.24500451352e-16, 1.47356278006, -0.307223110954, 1.42024545107, -0.129929892802, 0.473345406339, -2.04003480775e-15, 1.15185638805e-15, -0.178628439339, -1.37314905179, 0.0261050069737, 0.307223110954, 0.00870038705222, 0.129929892802, 0.0826057431012, -1.44635045804, -0.482045793391, -0.0826057431012 },
        { -0.491429906475, 1.22124532709e-15, 1.27675647832e-15, 3.63547616634, -0.15200866322, 0.741677519169, -0.0550268395701, 0.247189418153, -9.99200722163e-16, 8.32667268469e-16, 2.26999863087, -5.41404489073, 0.10745050847, 0.15200866322, 0.0358115595829, 0.0550268395701, 0.0130932851076, -0.849128027639, -0.283000977736, -0.0130932851076 },
        { 0.49239134022, 1.22124532709e-15, -6.66133814775e-16, 0.775918124814, 1.54916783676, -2.06827166004, -0.256108861748, -0.276767046379, -4.91273688397e-15, -1.11022302463e-15, -0.0187347928543, -1.24957467218, -2.79772334467, -1.54916783676, -0.374379072947, 0.256108861748, 1.07000707657, 4.86599500471, 0.651146119326, -1.07000707657 },
        { 0.496966081209, 7.00828284295e-16, 3.46944695195e-17, 0.04959698013, 0.994503268313, -0.459831771488, -0.235252121481, -0.0615326717882, -3.88578058619e-15, -7.49400541622e-16, -0.603212039147, 0.0566489778081, -1.98688903068, -0.994503268313, -0.265876779694, 0.235252121481, 0.850470629213, 2.44672080217, 0.327409451482, -0.850470629213 },
        { 0.418647610477, 3.40005801291e-16, 5.20417042793e-16, -0.487113055533, 0.296594163606, 1.42859263055, -0.19795731328, 0.191168002963, -3.12250225676e-15, -3.95516952523e-16, -0.995045350239, 1.06351079529, -0.936876919409, -0.296594163606, -0.125368762148, 0.19795731328, 0.548719760855, -0.491715711139, -0.0657992408151, -0.548719760855 },
        { 0.182485230305, 3.60822483003e-16, 7.42461647718e-16, -0.0832337744597, -0.218640078989, 2.53550785316, -0.146980788746, 0.33929054541, -3.3653635434e-15, 6.59194920871e-16, -0.555482099133, 0.456230643287, -0.0985381691823, 0.218640078989, -0.0131859458151, 0.146980788746, 0.271820490101, -2.43696968398, -0.326104599595, -0.271820490101 },
        { -0.208638149043, 7.21644966006e-16, 1.08246744901e-15, 1.47356278006, -0.374173215369, 2.35456003213, -0.0895500567956, 0.315076901263, -3.06699110553e-15, 1.2490009027e-15, 0.884270496754, -2.14919512777, 0.267803938475, 0.374173215369, 0.0358363490118, 0.0895500567956, 0.0911580448645, -2.62236397061, -0.350913250274, -0.0911580448645 },
        { -0.649800729026, 1.22124532709e-15, 1.49880108324e-15, 3.63547616634, -0.230585233065, 1.22959326647, -0.0371135906044, 0.164538780463, -1.49880108324e-15, 1.27675647832e-15, 2.83363456303, -5.81931000034, 0.213725348791, 0.230585233065, 0.0285997892173, 0.0371135906044, 0.0144488533903, -1.44331861526, -0.19313856968, -0.0144488533903 },
        { 0.20977224889, 3.52495810318e-15, 1.4155343564e-15, 0.775918124814, 4.20784489647, -2.84779972367, -0.151777145127, -0.144718650907, -8.50708392619e-15, -3.31679128607e-15, -0.383595369682, -0.602095004022, -0.405506023658, -4.20784489647, -0.0206068861482, 0.151777145127, 0.770368716711, 3.25330574733, 0.165325537055, -0.770368716711 },
        { 0.124059786782, 2.20656826144e-15, 1.18655085757e-15, 0.04959698013, 3.01843581937, -0.633141582452, -0.137206889869, -0.0321748031942, -5.99520433298e-15, -2.25514051877e-15, -0.37425768709, 0.200600920178, 0.00376618700127, -3.01843581937, 0.000191388986162, 0.137206889869, 0.612309938479, 0.629375395451, 0.0319834142081, -0.612309938479 },
        { -0.0379910447689, 6.24500451352e-16, 1.50573997715e-15, -0.487113055533, 1.47237562529, 1.96702675819, -0.112669022836, 0.0999597887371, -3.67761376907e-15, -1.26287869051e-15, -0.0911807815739, 0.616284881876, 0.477535289011, -1.47237562529, 0.0242672482239, 0.112669022836, 0.395059572277, -2.4445620472, -0.124227036961, -0.395059572277 },
        { -0.27260337467, 7.6327832943e-17, 1.47104550763e-15, -0.0832337744597, 0.226028653861, 3.49113644165, -0.0813919468987, 0.177411547508, -3.89618892704e-15, 3.05311331772e-16, 0.693356096429, -0.3375189473, 0.739902916657, -0.226028653861, 0.0376001693556, 0.0813919468987, 0.195701511438, -4.23103935831, -0.215011716863, -0.195701511438 },
        { -0.549621380436, 5.82867087928e-16, 1.56819002228e-15, 1.47356278006, -0.338438360166, 3.24198969527, -0.0483464071887, 0.164750481241, -3.70536934469e-15, 1.49880108324e-15, 1.96235697126, -2.88629837089, 0.662374327645, 0.338438360166, 0.0336603442635, 0.0483464071886, 0.065630693084, -3.90436402291, -0.198410825505, -0.065630693084 },
        { -0.811085766037, 1.05471187339e-15, 1.60982338571e-15, 3.63547616634, -0.289475350114, 1.69302487296, -0.0196474947702, 0.0860356413163, -2.22044604925e-15, 1.33226762955e-15, 3.37984806738, -6.20423846768, 0.340820278682, 0.289475350114, 0.0173197049366, 0.0196474947702, 0.0104026832046, -2.03384515164, -0.103355346253, -0.0104026832046 },
        { -0.515198152693, 7.02216063075e-15, 2.10942374679e-15, 0.775918124814, 6.94320058859, -3.43166851713, -0.0522835100857, -0.0458140175267, -1.38361544444e-14, -5.56499291093e-15, -0.143589128182, -0.117130843939, 2.62220954977, -6.94320058859, 0.0350074471564, 0.0522835100857, 0.293878894702, 0.809458967365, 0.0108065703703, -0.293878894702 },
        { -0.563223234483, 3.89271948009e-15, 2.70616862252e-15, 0.04959698013, 5.12571763292, -0.762951136391, -0.0468020608748, -0.0101856739834, -8.20177259442e-15, -5.64825963778e-15, 0.205204909446, 0.308421344907, 2.47712963527, -5.12571763292, 0.0330705777553, 0.0468020608748, 0.233582911704, -1.71417849888, -0.0228849037718, -0.233582911704 },
        { -0.643238410674, 1.15185638805e-15, 1.83186799063e-15, -0.487113055533, 2.73457596246, 2.37031549036, -0.0378397397581, 0.0316445702366, -4.85028683883e-15, -2.24820162487e-15, 0.849040097995, 0.281311368212, 2.17074632795, -2.73457596246, 0.0289802496419, 0.0378397397581, 0.150706626481, -4.54106181831, -0.0606248198785, -0.150706626481 },
        { -0.743859749269, -4.51028103754e-17, 1.99146255042e-15, -0.0832337744597, 0.74808943575, 4.2069050419, -0.0268423267984, 0.0561637058943, -3.79557496544e-15, -5.10008701937e-16, 1.75913322967, -0.932039705936, 1.68187063531, -0.74808943575, 0.0224535820926, 0.0268423267984, 0.0746558662436, -5.88877567722, -0.0786172879869, -0.0746558662436 },
        { -0.848747796616, 2.49800180541e-16, 1.79023462721e-15, 1.47356278006, -0.248288709939, 3.9066771015, -0.015665960146, 0.0521555541585, -4.01068067646e-15, 1.63757896132e-15, 2.81357586659, -3.43839085004, 1.06320302745, 0.248288709939, 0.0141941454692, 0.015665960146, 0.0250366806487, -4.96988012895, -0.0663496996277, -0.0250366806487 },
        { -0.938819918223, 1.22124532709e-15, 1.7763568394e-15, 3.63547616634, -0.323537622581, 2.040136498, -0.00627705325446, 0.02723656111, -2.83106871279e-15, 1.27675647832e-15, 3.79589476441, -6.49255101252, 0.452704253096, 0.323537622581, 0.00604376573151, 0.00627705325446, 0.00396839717889, -2.49284075109, -0.0332803268415, -0.00396839717889 },
        { -0.358990160898, -2.74780198595e-15, 4.71844785466e-16, 0.775918124814, -0.117497212767, -0.108533070742, 0.129377736459, -1.36804588105, -1.09634523682e-15, 8.74300631892e-16, 1.70110646289, -2.11803442681, -0.322999291458, 0.117497212767, -4.07136596469, -0.129377736459, 0.277541188234, 0.431532362199, 5.43941184574, -0.277541188234 },
        { 0.0191424514258, -2.69229083472e-15, 4.02455846427e-16, 0.04959698013, -0.105817017682, -0.0241297867918, -0.0538084647029, -0.304152966515, -1.05471187339e-15, 2.22044604925e-16, 0.0676932806052, -0.136432712161, -0.244301544445, 0.105817017682, -3.07939063484, 0.053808464703, 0.220597259736, 0.268431331237, 3.38354360135, -0.220597259736 },
        { 0.40013250076, -2.32452945781e-15, 1.04083408559e-16, -0.487113055533, -0.0863794923912, 0.074965754271, -0.262951400936, 0.944934024712, -1.02001740387e-15, 1.45716771982e-16, -1.57639109505, 1.66337164982, -0.139515402837, 0.0863794923912, -1.7585743303, 0.262951400936, 0.142328343213, 0.0645496485662, 0.813640305584, -0.142328343213 },
        { 0.480311828709, -1.48145384848e-15, -2.39391839685e-16, -0.0832337744597, -0.0619730870833, 0.133051406404, -0.372059292834, 1.67709645784, -9.08995101412e-16, 3.0184188482e-16, -1.91795923187, 1.52088117762, -0.0499289538357, 0.0619730870833, -0.629348263837, 0.372059292834, 0.0705054980109, -0.0831224525682, -1.047748194, -0.0705054980109 },
        { 0.143892825209, -4.16333634234e-16, -4.16333634234e-17, 1.47356278006, -0.0365705377559, 0.123556124406, -0.323769556114, 1.5574096072, -3.74700270811e-16, 5.96744875736e-16, -0.456931679286, -1.16052392598, -0.000957064606741, 0.0365705377559, -0.0120636805372, 0.323769556114, 0.0236448081912, -0.122599059799, -1.54534592666, -0.0236448081912 },
        { -0.450085768792, 8.32667268469e-16, 7.77156117238e-16, 3.63547616634, -0.0147843831568, 0.0645232130535, -0.164609048822, 0.813307089229, 2.77555756156e-16, 8.32667268469e-16, 2.11761785815, -5.30300825569, 0.00883613332946, 0.0147843831568, 0.111378363509, 0.164609048822, 0.00374778076366, -0.0733593463829, -0.924685452737, -0.00374778076366 },
        { 0.0596672471207, -2.15105711021e-15, -4.02455846427e-16, 0.775918124814, -0.368211730803, -0.548205449646, -0.0742786306998, -1.2006668242, -1.65145674913e-15, -1.38777878078e-17, 1.01015573282, -1.84574110476, -1.3524578032, 0.368211730803, -2.96212162152, 0.0742786306998, 1.23035531288, 1.90066325285, 4.16278844571, -1.23035531288 },
        { 0.289547480096, -2.11636264069e-15, -7.6327832943e-17, 0.04959698013, -0.355434246195, -0.12188064456, -0.196515146304, -0.266940152691, -1.56125112838e-15, -1.38777878078e-16, -0.263249792008, -0.0758946682173, -1.01220054174, 0.355434246195, -2.21689808206, 0.196515146304, 0.977919754001, 1.1340811863, 2.48383823476, -0.977919754001 },
        { 0.483741872803, -1.72084568817e-15, 6.93889390391e-18, -0.487113055533, -0.320783000343, 0.378655415786, -0.327100843694, 0.829322283881, -1.86656246015e-15, -1.04083408559e-16, -1.47192254641, 1.47529372914, -0.56160871078, 0.320783000343, -1.23002233496, 0.327100843694, 0.630949353357, 0.182953294994, 0.400700051083, -0.630949353357 },
        { 0.425474538459, -1.16573417586e-15, -3.12250225676e-17, -0.0832337744597, -0.255801630583, 0.672048672126, -0.374253090236, 1.4719053694, -1.83533743758e-15, 2.28983498829e-16, -1.52931576434, 1.18707500034, -0.181310652387, 0.255801630583, -0.397102373454, 0.374253090236, 0.312554740495, -0.490738019739, -1.07480299594, -0.312554740495 },
        { 0.0462872104088, -2.08166817117e-16, 2.08166817117e-16, 1.47356278006, -0.165527646222, 0.624087573248, -0.300158392242, 1.36686208624, -1.12410081243e-15, 7.35522753814e-16, -0.0493421365987, -1.47050785387, 0.0189371478863, 0.165527646222, 0.0414757008101, 0.300158392242, 0.104818731826, -0.643024721135, -1.40833778705, -0.104818731826 },
        { -0.51065484547, 8.32667268469e-16, 9.43689570931e-16, 3.63547616634, -0.071634624844, 0.325909667743, -0.147005620836, 0.713799773419, -3.33066907388e-16, 7.21644966006e-16, 2.34006607371, -5.46488739458, 0.0483995431568, 0.071634624844, 0.106003553617, 0.147005620836, 0.0166141177222, -0.3743092109, -0.819803327036, -0.0166141177222 },
        { 0.440044942695, -9.71445146547e-16, -9.29811783124e-16, 0.775918124814, -0.0225032435608, -1.24755936424, -0.29032256912, -0.934429497844, -2.58126853225e-15, -5.41233724505e-16, 0.196661449009, -1.41262451652, -2.06778675479, 0.0225032435608, -1.54878476673, 0.29032256912, 2.17907636282, 3.31534611903, 2.48321426458, -2.17907636282 },
        { 0.492698194013, -9.2287288922e-16, -3.40005801291e-16, 0.04959698013, -0.160731865874, -0.2773656109, -0.337748523121, -0.207748517579, -2.6645352591e-15, -5.34294830601e-16, -0.562693837154, 0.0203986630109, -1.50068728645, 0.160731865874, -1.12402384022, 0.337748523121, 1.73198896154, 1.77805289735, 1.3317723578, -1.73198896154 },
        { 0.4702979943, -9.57567358739e-16, 9.02056207508e-17, -0.487113055533, -0.311836831433, 0.861711809117, -0.373806951119, 0.64542734892, -2.71310751643e-15, -2.49800180541e-16, -1.15931720953, 1.17613227077, -0.760103208149, 0.311836831433, -0.569321893179, 0.373806951119, 1.11747135778, -0.101608600968, -0.0761054557409, -1.11747135778 },
        { 0.265709126358, -6.48786580015e-16, 3.57353036051e-16, -0.0832337744597, -0.374979924567, 1.52939124315, -0.350332862866, 1.14552327713, -2.68882138776e-15, 3.60822483003e-16, -0.83858987348, 0.656114521582, -0.156029322236, 0.374979924567, -0.116866904618, 0.350332862866, 0.553564193994, -1.37336192091, -1.02865637252, -0.553564193994 },
        { -0.133293777282, 1.38777878078e-17, 5.6898930012e-16, 1.47356278006, -0.307223110954, 1.42024545107, -0.253409720675, 1.06377241973, -2.23432383706e-15, 9.02056207508e-16, 0.623307062401, -1.96357606518, 0.129143214455, 0.307223110954, 0.0967290475245, 0.253409720675, 0.185643950582, -1.54938866552, -1.16050146726, -0.185643950582 },
        { -0.61085345626, 9.43689570931e-16, 1.16573417586e-15, 3.63547616634, -0.15200866322, 0.741677519169, -0.117548178452, 0.55552094086, -8.32667268469e-16, 7.77156117238e-16, 2.69775370337, -5.72237641344, 0.12378240716, 0.15200866322, 0.0927137704869, 0.117548178452, 0.0294251837975, -0.865459926329, -0.648234711347, -0.0294251837975 },
        { 0.43922728884, 1.20736753928e-15, -4.16333634234e-16, 0.775918124814, 1.54916783676, -2.06827166004, -0.374877740707, -0.621992199959, -5.45397060847e-15, -2.63677968348e-16, -0.310795895054, -0.9043495186, -1.4630508749, -1.54916783676, -0.439983900525, 0.374877740707, 2.40467954634, 3.53132253494, 1.06197610048, -2.40467954634 },
        { 0.375653219551, 4.57966997658e-16, 7.6327832943e-17, 0.04959698013, 0.994503268313, -0.459831771488, -0.369181162203, -0.138285400649, -4.35068647775e-15, -7.2858385991e-16, -0.55865190635, 0.133401706669, -0.926055172649, -0.994503268313, -0.278492958758, 0.369181162203, 1.91130448724, 1.38588694414, 0.416778359407, -1.91130448724 },
        { 0.225187600876, -2.08166817117e-16, 6.0368376964e-16, -0.487113055533, 0.296594163606, 1.42859263055, -0.341962470916, 0.429621258313, -3.49026363367e-15, -3.81639164715e-16, -0.563132085287, 0.825057539945, -0.25243176529, -0.296594163606, -0.0759139101821, 0.341962470916, 1.23316491497, -1.17616086526, -0.353707348131, -1.23316491497 },
        { -0.035385746315, -3.67761376907e-16, 8.08381139805e-16, -0.0832337744597, -0.218640078989, 2.53550785316, -0.279335071366, 0.762504335419, -3.40005801291e-15, 4.4408920985e-16, 0.0856026674959, 0.0330168532787, 0.240516901387, 0.218640078989, 0.0723307481853, 0.279335071366, 0.61087556067, -2.77602475455, -0.834835083604, -0.61087556067 },
        { -0.382136195413, 2.49800180541e-16, 1.12410081243e-15, 1.47356278006, -0.374173215369, 2.35456003213, -0.184152834867, 0.708087821642, -3.13638004457e-15, 1.20736753928e-15, 1.4507794635, -2.54220604815, 0.381509852709, 0.374173215369, 0.11473161731, 0.184152834867, 0.204863959099, -2.73606988484, -0.822819438952, -0.204863959099 },
        { -0.734478257631, 9.99200722163e-16, 1.44328993201e-15, 3.63547616634, -0.230585233065, 1.22959326647, -0.0806972011853, 0.369776096459, -1.55431223448e-15, 1.16573417586e-15, 3.12354940763, -6.02454731634, 0.231748114492, 0.230585233065, 0.0696937072409, 0.0806972011853, 0.0324716190916, -1.46134138096, -0.4394698037, -0.0324716190916 },
        { -0.00871379799601, 4.12170297892e-15, 1.36002320517e-15, 0.775918124814, 4.20784489647, -2.84779972367, -0.286225316079, -0.325233344181, -8.89566198481e-15, -2.92821322745e-15, -0.345624016069, -0.421580310749, 0.555412777981, -4.20784489647, 0.0634309897856, 0.286225316079, 1.73128751835, 2.29238694569, 0.261802354395, -1.73128751835 },
        { -0.0909367483789, 2.31759056391e-15, 1.13797860024e-15, 0.04959698013, 3.01843581937, -0.633141582452, -0.264738891928, -0.072308018183, -6.36990460379e-15, -2.29677388219e-15, -0.199394366918, 0.240734135167, 0.767530498236, -3.01843581937, 0.0876559220885, 0.264738891928, 1.37607424971, -0.134388915783, -0.0153479039055, -1.37607424971 },
        { -0.236937237773, 3.81639164715e-16, 1.6028844918e-15, -0.487113055533, 1.47237562529, 1.96702675819, -0.225067793211, 0.22464455114, -4.12170297892e-15, -1.38777878078e-15, 0.232450173833, 0.491600119473, 0.970312530005, -1.47237562529, 0.110814670853, 0.225067793211, 0.887836813271, -2.9373392882, -0.335459221993, -0.887836813271 },
        { -0.434967295823, -2.53269627493e-16, 1.31145094784e-15, -0.0832337744597, 0.226028653861, 3.49113644165, -0.168976926389, 0.398705699166, -3.89271948009e-15, 2.53269627493e-16, 1.07701416924, -0.558813098957, 0.984011040171, -0.226028653861, 0.112379111019, 0.168976926389, 0.439809634953, -4.47514748182, -0.511084810184, -0.439809634953 },
        { -0.656587103047, 3.46944695195e-16, 1.65145674913e-15, 1.47356278006, -0.338438360166, 3.24198969527, -0.10397659258, 0.370251862035, -3.69149155688e-15, 1.54043444667e-15, 2.27482407467, -3.09179975168, 0.744238720086, 0.338438360166, 0.0849958814836, 0.10397659258, 0.147495085525, -3.98622841535, -0.455247743518, -0.147495085525 },
        { -0.85793772323, 1.05471187339e-15, 1.60982338571e-15, 3.63547616634, -0.289475350114, 1.69302487296, -0.0434138313785, 0.193352129588, -2.16493489802e-15, 1.22124532709e-15, 3.53401651285, -6.31155495596, 0.353796057243, 0.289475350114, 0.0404053255216, 0.0434138313785, 0.0233784617662, -2.0468209302, -0.23375745511, -0.0233784617662 },
        { -0.629579538576, 7.29971638691e-15, 2.55351295664e-15, 0.775918124814, 6.94320058859, -3.43166851713, -0.11200022421, -0.102960095587, -1.39471767469e-14, -6.06459327201e-15, -0.0863538203593, -0.0599847658792, 2.98877915365, -6.94320058859, 0.0896721189154, 0.11200022421, 0.66044849858, 0.442889363488, 0.0132879766712, -0.66044849858 },
        { -0.667223124375, 4.15639744844e-15, 2.6575963652e-15, 0.04959698013, 5.12571763292, -0.762951136391, -0.10080975593, -0.0228907662668, -8.520961714e-15, -5.27355936697e-15, 0.296499707055, 0.32112643719, 2.76848909306, -5.12571763292, 0.0830627725926, 0.10080975593, 0.524942369493, -2.00553795667, -0.0601720063258, -0.524942369493 },
        { -0.729406302763, 1.14491749414e-15, 1.82492909673e-15, -0.487113055533, 2.73457596246, 2.37031549036, -0.0822190769912, 0.0711163995704, -5.07927033766e-15, -2.36616282123e-15, 0.974679819417, 0.241839538879, 2.35873011776, -2.73457596246, 0.0707688044971, 0.0822190769912, 0.338690416291, -4.72904560812, -0.141885204067, -0.338690416291 },
        { -0.806745926981, -2.91433543964e-16, 2.0504431486e-15, -0.0832337744597, 0.74808943575, 4.2069050419, -0.0589271163784, 0.126219459448, -3.79210551849e-15, -4.7878367937e-16, 1.89207516093, -1.00209545949, 1.77499257027, -0.74808943575, 0.0532549702245, 0.0589271163784, 0.167777801195, -5.98189761217, -0.179474429673, -0.167777801195 },
        { -0.886462263372, 2.77555756156e-17, 1.79023462721e-15, 1.47356278006, -0.248288709939, 3.9066771015, -0.0347383950465, 0.117211742856, -4.03843625207e-15, 1.36002320517e-15, 2.91634652205, -3.50344703874, 1.094432511, 0.248288709939, 0.0328361773241, 0.0347383950465, 0.0562661641988, -5.0011096125, -0.15004792018, -0.0562661641988 },
        { -0.954262538812, 1.22124532709e-15, 1.7763568394e-15, 3.63547616634, -0.323537622581, 2.040136498, -0.0140324737061, 0.0612100637911, -2.83106871279e-15, 1.33226762955e-15, 3.84531088768, -6.5265245152, 0.457654230138, 0.323537622581, 0.0137309658685, 0.0140324737061, 0.00891837422086, -2.49779072814, -0.0749410296595, -0.00891837422086 },
        { 0.490430635936, -5.20417042793e-15, 6.80011602583e-16, 0.775918124814, -0.117497212767, -0.108533070742, 1.99410479887, -2.22554580407, -2.27595720048e-15, 2.91433543964e-16, -0.00581425696316, -1.26053450379, -0.149034696526, 0.117497212767, -3.05605969911, -1.99410479887, 0.451505783165, 0.257567767268, 5.28160550318, -0.451505783165 },
        { 0.497917464029, -4.37844205337e-15, 4.37150315946e-16, 0.04959698013, -0.105817017682, -0.0241297867918, 1.33014332077, -0.49479799457, -1.96370697481e-15, -9.71445146547e-17, -0.601726760053, 0.0542123158936, -0.106029768723, 0.105817017682, -2.17421386196, -1.33014332077, 0.358869035458, 0.130159555515, 2.66901185653, -0.358869035458 },
        { 0.422918349111, -3.40005801291e-15, 6.24500451352e-17, -0.487113055533, -0.0863794923912, 0.074965754271, 0.486909162192, 1.53722472539, -2.19962936754e-15, -2.35922392733e-16, -1.00688624272, 1.07108094914, -0.0503030854439, 0.0863794923912, -1.03149961552, -0.486909162192, 0.231540660607, -0.0246626688271, -0.50572510987, -0.231540660607 },
        { 0.188475109842, -2.3904489499e-15, -2.42861286637e-16, -0.0832337744597, -0.0619730870833, 0.133051406404, -0.152161347, 2.7283112624, -1.4155343564e-15, 1.5959455979e-16, -0.574907708436, 0.469666373054, -0.00573565596891, 0.0619730870833, -0.117613599136, 0.152161347, 0.114698795878, -0.127315750435, -2.61069766327, -0.114698795878 },
        { -0.203440952036, -1.05471187339e-15, -1.38777878078e-16, 1.47356278006, -0.0365705377559, 0.123556124406, -0.374755850807, 2.53360392698, -8.04911692853e-16, 2.63677968348e-16, 0.86659641774, -2.13671824577, 0.0138636526547, 0.0365705377559, 0.284283802015, 0.374755850807, 0.0384655254527, -0.13741977706, -2.81788772899, -0.0384655254527 },
        { -0.647161746758, 4.99600361081e-16, 8.32667268469e-16, 3.63547616634, -0.0147843831568, 0.0645232130535, -0.243701755514, 1.32309318344, 0.0, 4.99600361081e-16, 2.82447993033, -5.81279434991, 0.0111852663234, 0.0147843831568, 0.229361634783, 0.243701755514, 0.00609691375756, -0.0757084793768, -1.55245481822, -0.00609691375756 },
        { 0.495905055098, -4.05231403988e-15, -3.05311331772e-16, 0.775918124814, -0.368211730803, -0.548205449646, 1.25304372815, -1.95325248202, -1.60982338571e-15, -4.4408920985e-16, -0.178667732979, -1.09315544693, -0.581263210466, 0.368211730803, -2.07103707065, -1.25304372815, 2.00154990561, 1.12946866011, 4.02428955267, -2.00154990561 },
        { 0.463938841687, -3.46250805805e-15, -9.71445146547e-17, 0.04959698013, -0.355434246195, -0.12188064456, 0.772305507666, -0.434259950626, -1.82492909673e-15, -4.85722573274e-16, -0.604960951535, 0.0914251297178, -0.399234174607, 0.355434246195, -1.42246878969, -0.772305507666, 1.59088612113, 0.521114819167, 1.85672874031, -1.59088612113 },
        { 0.345146986101, -2.81025203108e-15, 6.93889390391e-18, -0.487113055533, -0.320783000343, 0.378655415786, 0.172422114068, 1.34914680471, -2.23432383706e-15, -3.05311331772e-16, -0.813503138879, 0.955469208311, -0.166125613739, 0.320783000343, -0.5919044905, -0.172422114068, 1.0264324504, -0.212529802047, -0.757242314208, -1.0264324504 },
        { 0.0907812416734, -2.04697370165e-15, -5.55111512313e-17, -0.0832337744597, -0.255801630583, 0.672048672126, -0.259821951058, 2.39450508512, -2.17881268583e-15, -1.38777878078e-17, -0.272022751831, 0.264475284617, 0.014600661426, 0.255801630583, 0.0520220625092, 0.259821951058, 0.508466054308, -0.686649333552, -2.44652714763, -0.508466054308 },
        { -0.28489744137, -7.77156117238e-16, 1.38777878078e-16, 1.47356278006, -0.165527646222, 0.624087573248, -0.371253382071, 2.22361999909, -1.4155343564e-15, 4.02455846427e-16, 1.13860042803, -2.32726576672, 0.0846382005458, 0.165527646222, 0.30156536276, 0.371253382071, 0.170519784485, -0.708725773794, -2.52518536185, -0.170519784485 },
        { -0.687794831238, 3.88578058619e-16, 9.43689570931e-16, 3.63547616634, -0.071634624844, 0.325909667743, -0.220597471565, 1.16121404456, -6.10622663544e-16, 5.55111512313e-16, 2.96462033062, -5.91230166572, 0.0588133785882, 0.071634624844, 0.209551688655, 0.220597471565, 0.0270279531536, -0.384723046332, -1.37076573322, -0.0270279531536 },
        { 0.396715815857, -1.9567680809e-15, -8.18789480661e-16, 0.775918124814, -0.0225032435608, -1.24755936424, 0.35984267952, -1.52013589378, -2.60902410787e-15, -4.30211422042e-16, -0.345715820091, -0.82691812058, -0.701927729697, 0.0225032435608, -0.855290391256, -0.35984267952, 3.54493538792, 1.94948709393, 2.37542628504, -3.54493538792 },
        { 0.324132142094, -2.02615701994e-15, -2.35922392733e-16, 0.04959698013, -0.160731865874, -0.2773656109, 0.111956996881, -0.337966619398, -2.671474153e-15, -6.52256026967e-16, -0.524345887054, 0.15061676483, -0.415065508871, 0.160731865874, -0.505752268304, -0.111956996881, 2.81761073912, 0.692431119771, 0.843718887702, -2.81761073912 },
        { 0.166110299942, -1.93595139919e-15, 1.52655665886e-16, -0.487113055533, -0.311836831433, 0.861711809117, -0.181373830317, 1.04998534634, -2.88657986403e-15, -5.55111512313e-16, -0.450571517759, 0.77157427335, -0.0596650016914, 0.311836831433, -0.0727010780198, 0.181373830318, 1.81790956424, -0.802046807426, -0.977284268318, -1.81790956424 },
        { -0.0920228121266, -1.56819002228e-15, 3.85108611667e-16, -0.0832337744597, -0.374979924567, 1.52939124315, -0.358529765728, 1.86354460636, -3.23352455922e-15, -1.38777878078e-17, 0.237163394234, -0.0619068076474, 0.190948261126, 0.374979924567, 0.232668131004, 0.358529765728, 0.900541777357, -1.72033950427, -2.09621273737, -0.900541777357 },
        { -0.423656338604, -5.27355936697e-16, 5.27355936697e-16, 1.47356278006, -0.307223110954, 1.42024545107, -0.341355218984, 1.73055178778, -2.26207941267e-15, 5.27355936697e-16, 1.58044899177, -2.63035543323, 0.245506032061, 0.307223110954, 0.299146110537, 0.341355218984, 0.302006768188, -1.66575148313, -2.02969789832, -0.302006768188 },
        { -0.753883822915, 7.21644966006e-16, 1.16573417586e-15, 3.63547616634, -0.15200866322, 0.741677519169, -0.179991299855, 0.903725025694, -8.881784197e-16, 6.66133814775e-16, 3.18898815485, -6.07058049828, 0.142226300885, 0.15200866322, 0.173301015738, 0.179991299855, 0.0478690775227, -0.883903820054, -1.07702604143, -0.0478690775227 },
        { 0.111335623453, 1.29063426613e-15, -2.35922392733e-16, 0.775918124814, 1.54916783676, -2.06827166004, -0.241152886861, -1.01186089586, -6.13398221105e-15, -3.74700270811e-16, -0.372772925572, -0.514480822695, 0.0442176710144, -1.54916783676, 0.0216326187077, 0.241152886861, 3.91194809225, 2.02405398903, 0.990228277157, -3.91194809225 },
        { 0.0257560226759, 1.73472347598e-16, 2.91433543964e-16, 0.04959698013, 0.994503268313, -0.459831771488, -0.30753303, -0.22496357574, -4.85722573274e-15, -6.52256026967e-16, -0.295432884566, 0.22007988176, 0.271962725272, -0.994503268313, 0.133052370321, 0.30753303, 3.10932238516, 0.187869046216, 0.0919112054196, -3.10932238516 },
        { -0.130649958266, -6.93889390391e-16, 7.00828284295e-16, -0.487113055533, 0.296594163606, 1.42859263055, -0.367230121809, 0.698910615515, -3.67761376907e-15, -7.77156117238e-16, 0.0619948310555, 0.555768182743, 0.520523904038, -0.296594163606, 0.254655998066, 0.367230121809, 2.0061205843, -1.94911653459, -0.953566613581, -2.0061205843 },
        { -0.349475426048, -9.99200722163e-16, 8.43075609325e-16, -0.0832337744597, -0.218640078989, 2.53550785316, -0.360760792747, 1.24044693806, -3.89271948009e-15, 2.01227923213e-16, 0.877634949871, -0.444925749363, 0.623417616564, 0.218640078989, 0.304994706538, 0.360760792747, 0.993776275847, -3.15892546973, -1.5454416446, -0.993776275847 },
        { -0.600889918285, -2.63677968348e-16, 1.08246744901e-15, 1.47356278006, -0.374173215369, 2.35456003213, -0.268169978229, 1.15192180481, -3.28903571045e-15, 7.91033905045e-16, 2.11336716955, -2.98604003132, 0.509919894792, 0.374173215369, 0.24946819682, 0.268169978229, 0.333274001181, -2.86447992692, -1.40139000163, -0.333274001181 },
        { -0.833722995845, 7.77156117238e-16, 1.33226762955e-15, 3.63547616634, -0.230585233065, 1.22959326647, -0.126299970607, 0.601554122795, -1.66533453694e-15, 1.11022302463e-15, 3.45457217219, -6.25632534268, 0.252101533378, 0.230585233065, 0.123335676034, 0.126299970607, 0.052825037977, -1.48169479985, -0.724889798829, -0.052825037977 },
        { -0.328688407808, 4.8017145815e-15, 1.27675647832e-15, 0.775918124814, 4.20784489647, -2.84779972367, -0.364825380859, -0.529091688013, -1.04916075827e-14, -2.52575738102e-15, -0.22950775009, -0.217721966916, 1.64059488647, -4.20784489647, 0.304805534818, 0.364825380859, 2.81646962684, 1.2072048372, 0.224286153195, -2.81646962684 },
        { -0.391944845279, 2.70616862252e-15, 1.32532873565e-15, 0.04959698013, 3.01843581937, -0.633141582452, -0.350554155756, -0.117631147242, -7.4662498406e-15, -1.7832957333e-15, 0.0562906009232, 0.286057264226, 1.63006265417, -3.01843581937, 0.302848755161, 0.350554155756, 2.23860640565, -0.996921071715, -0.185217607919, -2.23860640565 },
        { -0.499166653221, 1.52655665886e-16, 1.65145674913e-15, -0.487113055533, 1.47237562529, 1.96702675819, -0.314445592912, 0.365453195043, -4.68375338514e-15, -1.16573417586e-15, 0.635488233184, 0.35079147557, 1.52681433274, -1.47237562529, 0.2836662866, 0.314445592912, 1.44433861601, -3.49384109094, -0.649119481643, -1.44433861601 },
        { -0.63693188845, -6.41847686111e-16, 1.41900380335e-15, -0.0832337744597, 0.226028653861, 3.49113644165, -0.249283920657, 0.648616985824, -4.17027523625e-15, 8.67361737988e-17, 1.52889004853, -0.808724385616, 1.25968653713, -0.226028653861, 0.234036709378, 0.249283920657, 0.715485131907, -4.75082297878, -0.882653695202, -0.715485131907 },
        { -0.783624466962, 1.2490009027e-16, 1.54043444667e-15, 1.47356278006, -0.338438360166, 3.24198969527, -0.1605615805, 0.602328101282, -3.96904731303e-15, 1.31838984174e-15, 2.63393767783, -3.32387599093, 0.836689584662, 0.338438360166, 0.155448257478, 0.1605615805, 0.239945950101, -4.07867927993, -0.757776358761, -0.239945950101 },
        { -0.911837367084, 8.32667268469e-16, 1.60982338571e-15, 3.63547616634, -0.289475350114, 1.69302487296, -0.0692646397323, 0.31454648318, -2.44249065418e-15, 1.22124532709e-15, 3.70911051029, -6.43274930955, 0.368449826859, 0.289475350114, 0.0684541610215, 0.0692646397323, 0.038032231382, -2.06147469981, -0.383000644201, -0.038032231382 },
        { -0.766091857961, 7.6327832943e-15, 2.55351295664e-15, 0.775918124814, 6.94320058859, -3.43166851713, -0.172099879662, -0.167496143144, -1.48353551666e-14, -6.06459327201e-15, -0.0143775485306, 0.00455128167776, 3.40275250391, -6.94320058859, 0.166084782849, 0.172099879662, 1.07442184884, 0.0289160132262, 0.00141136029493, -1.07442184884 },
        { -0.790505584683, 4.37844205337e-15, 2.6575963652e-15, 0.04959698013, 5.12571763292, -0.762951136391, -0.155967975415, -0.037238845219, -8.96505092385e-15, -5.27355936697e-15, 0.405434088411, 0.335474516142, 3.09752633345, -5.12571763292, 0.151187013416, 0.155967975415, 0.853979609885, -2.33457519706, -0.113948168197, -0.853979609885 },
        { -0.830480994318, 1.2490009027e-15, 1.97064586871e-15, -0.487113055533, 2.73457596246, 2.37031549036, -0.128573613931, 0.115692614449, -5.51642065361e-15, -2.45636844198e-15, 1.12033072585, 0.197263324, 2.57102344061, -2.73457596246, 0.125488959112, 0.128573613931, 0.550983739138, -4.94133893097, -0.241181573561, -0.550983739138 },
        { -0.879628854791, -2.94902990916e-16, 2.0435042547e-15, -0.0832337744597, 0.74808943575, 4.2069050419, -0.0932965332577, 0.205334625291, -4.23966417529e-15, -4.82253126322e-16, 2.04407325458, -1.08121062533, 1.88015677097, -0.74808943575, 0.0917684811545, 0.0932965332577, 0.272942001901, -6.08706181288, -0.297103106446, -0.272942001901 },
        { -0.929679135135, 2.77555756156e-17, 1.73472347598e-15, 1.47356278006, -0.248288709939, 3.9066771015, -0.0556519467578, 0.190680814228, -4.14945855454e-15, 1.47104550763e-15, 3.03303246518, -3.57691611011, 1.12970050321, 0.248288709939, 0.0551394973757, 0.0556519467578, 0.0915341564039, -5.03637760471, -0.245820311604, -0.0915341564039 },
        { -0.971801263928, 9.99200722163e-16, 1.83186799063e-15, 3.63547616634, -0.323537622581, 2.040136498, -0.0226916948114, 0.0995769239351, -2.83106871279e-15, 1.27675647832e-15, 3.90121647294, -6.56489137534, 0.463244324238, 0.323537622581, 0.0226104698795, 0.0226916948114, 0.0145084683206, -2.50338082224, -0.122187393815, -0.0145084683206 },
        { 0.0951941590365, -7.1054273576e-15, 7.07767178199e-16, 0.775918124814, -0.117497212767, -0.108533070742, 4.79269430563, -2.98485411923, -2.17881268583e-15, -5.27355936697e-16, -0.369886095219, -0.501226188632, 0.00500935634015, 0.117497212767, 0.137766284547, -4.79269430563, 0.605549836031, 0.103523714402, 2.84708783468, -0.605549836031 },
        { 0.00989103523264, -5.75928194024e-15, 5.48172618409e-16, 0.04959698013, -0.105817017682, -0.0241297867918, 3.46759724067, -0.663612417941, -2.22044604925e-15, -4.37150315946e-16, -0.282514754627, 0.223026739264, 0.0164086201775, 0.105817017682, 0.45126648673, -3.46759724067, 0.481307424358, 0.00772116661424, 0.21234593121, -0.481307424358 },
        { -0.145308581367, -3.95516952523e-15, 5.55111512313e-17, -0.487113055533, -0.0863794923912, 0.074965754271, 1.7393074018, 2.06169270719, -2.67841304691e-15, -2.08166817117e-16, 0.0858086695525, 0.546612967348, 0.0286936031769, 0.0863794923912, 0.789125554566, -1.7393074018, 0.310537349228, -0.103659357448, -2.85081826175, -0.310537349228 },
        { -0.361422381531, -2.73045475119e-15, -3.05311331772e-16, -0.0832337744597, -0.0619730870833, 0.133051406404, 0.334035020817, 3.65915232804, -2.1233015346e-15, 1.11022302463e-16, 0.905830848569, -0.461174692579, 0.0333971038642, 0.0619730870833, 0.918480260054, -0.334035020817, 0.153831555711, -0.166448510268, -4.57763258809, -0.153831555711 },
        { -0.608752489169, -1.44328993201e-15, -1.38777878078e-16, 1.47356278006, -0.0365705377559, 0.123556124406, -0.3221530832, 3.39801504157, -8.74300631892e-16, 8.32667268469e-17, 2.13631906946, -3.00112936035, 0.0269872618249, 0.0365705377559, 0.742198106755, 0.3221530832, 0.0515891346229, -0.150543386231, -4.14021314832, -0.0515891346229 },
        { -0.837164522705, 1.11022302463e-16, 7.77156117238e-16, 3.63547616634, -0.0147843831568, 0.0645232130535, -0.298243816268, 1.7745040931, -1.66533453694e-16, 3.33066907388e-16, 3.46589361594, -6.26420525957, 0.0132654020386, 0.0147843831568, 0.364822349975, 0.298243816268, 0.00817704947278, -0.077788615092, -2.13932644308, -0.00817704947278 },
        { -0.00161252886025, -5.92581539394e-15, -1.52655665886e-16, 0.775918124814, -0.368211730803, -0.548205449646, 3.31217766098, -2.61966017782, -1.05471187339e-15, -8.60422844084e-16, -0.347557844824, -0.42674775113, 0.101622526485, 0.368211730803, 0.485614446144, -3.31217766098, 2.68443564256, 0.446582923161, 2.13404573168, -2.68443564256 },
        { -0.0841091222451, -4.9682480352e-15, 7.6327832943e-17, 0.04959698013, -0.355434246195, -0.12188064456, 2.33265722359, -0.582420096711, -1.74166236988e-15, -5.89805981832e-16, -0.205073133687, 0.239585275803, 0.143541920152, 0.355434246195, 0.685930890165, -2.33265722359, 2.13366221589, -0.0216612755918, -0.103510793454, -2.13366221589 },
        { -0.230807891291, -3.5457747849e-15, 5.55111512313e-17, -0.487113055533, -0.320783000343, 0.378655415786, 1.06797548724, 1.80944664905, -2.54657406273e-15, -2.56739074445e-16, 0.22275158285, 0.495169363974, 0.184071040541, 0.320783000343, 0.879603760064, -1.06797548724, 1.37662910468, -0.562726456327, -2.68905040911, -1.37662910468 },
        { -0.430104310304, -2.51881848712e-15, -6.24500451352e-17, -0.0832337744597, -0.255801630583, 0.672048672126, 0.0660234810361, 3.21145866949, -2.47718512369e-15, -2.77555756156e-17, 1.06581638452, -0.552478299752, 0.188078332523, 0.255801630583, 0.898753046581, -0.0660234810361, 0.681943725405, -0.860127004649, -4.11021171607, -0.681943725405 },
        { -0.653452939539, -1.37390099297e-15, 1.38777878078e-16, 1.47356278006, -0.165527646222, 0.624087573248, -0.358912816045, 2.98227127105, -1.70696790036e-15, 2.08166817117e-16, 2.26580719816, -3.08591703868, 0.142815879936, 0.165527646222, 0.682461426954, 0.358912816045, 0.228697463876, -0.766903453185, -3.664732698, -0.228697463876 },
        { -0.856585096636, 2.22044604925e-16, 8.881784197e-16, 3.63547616634, -0.071634624844, 0.325909667743, -0.273827947178, 1.55739527709, -4.99600361081e-16, 3.88578058619e-16, 3.52959182855, -6.30848289825, 0.0680347343265, 0.071634624844, 0.325111478441, 0.273827947178, 0.0362493088919, -0.39394440207, -1.88250675553, -0.0362493088919 },
        { -0.176958968125, -2.90045765183e-15, -6.24500451352e-16, 0.775918124814, -0.0225032435608, -1.24755936424, 1.47086528226, -2.03877353413, -2.17881268583e-15, -5.27355936697e-16, -0.290678676459, -0.30828048023, 0.507527906673, 0.0225032435608, 0.829406995468, -1.47086528226, 4.75439102429, 0.740031457564, 1.20936653866, -4.75439102429 },
        { -0.250608255157, -2.72698530424e-15, -1.45716771982e-16, 0.04959698013, -0.160731865874, -0.2773656109, 0.935643813955, -0.453273553942, -2.43555176027e-15, -7.00828284295e-16, -0.0649124243462, 0.265923699373, 0.546242615712, 0.160731865874, 0.892674946021, -0.935643813955, 3.7789188637, -0.268877004812, -0.43940139208, -3.7789188637 },
        { -0.377760737014, -2.70616862252e-15, 2.15105711021e-16, -0.487113055533, -0.311836831433, 0.861711809117, 0.263539556987, 1.40821774165, -2.67841304691e-15, -5.82867087928e-16, 0.451531914507, 0.41334187804, 0.560566604328, 0.311836831433, 0.91608334624, -0.263539556987, 2.43814117026, -1.42227841345, -2.32430108789, -2.43814117026 },
        { -0.544778558016, -2.02268757299e-15, 3.85108611667e-16, -0.0832337744597, -0.374979924567, 1.52939124315, -0.229800651831, 2.49934590629, -3.28903571045e-15, -9.36750677027e-17, 1.32572044005, -0.697708107574, 0.498193728032, 0.374979924567, 0.814152990791, 0.229800651831, 1.20778724426, -2.02758497118, -3.31349889708, -1.20778724426 },
        { -0.726374618806, -1.01307850997e-15, 5.27355936697e-16, 1.47356278006, -0.307223110954, 1.42024545107, -0.373625255, 2.32097880118, -2.53963516883e-15, 4.30211422042e-16, 2.47359428537, -3.22078244663, 0.348544239542, 0.307223110954, 0.569594354724, 0.373625255, 0.405044975669, -1.76878969061, -2.8905731559, -0.405044975669 },
        { -0.887764428161, 4.4408920985e-16, 1.16573417586e-15, 3.63547616634, -0.15200866322, 0.741677519169, -0.228055583276, 1.2120565484, -1.11022302463e-15, 6.10622663544e-16, 3.63120028281, -6.37891202098, 0.158558199575, 0.15200866322, 0.259117337564, 0.228055583276, 0.0642009762125, -0.900235718744, -1.47117388597, -0.0642009762125 },
        { -0.41619044843, 1.45716771982e-15, 0.0, 0.775918124814, 1.54916783676, -2.06827166004, 0.114440254683, -1.35708604944, -6.82787160144e-15, -1.2490009027e-16, -0.190472007269, -0.169255669115, 1.37889014078, -1.54916783676, 0.904751832135, -0.114440254683, 5.24662056202, 0.689381519257, 0.45233421731, -5.24662056202 },
        { -0.47259263144, 1.94289029309e-16, 3.33066907388e-16, 0.04959698013, 0.994503268313, -0.459831771488, -0.0644262782627, -0.301716304601, -5.40539835114e-15, -5.06539254985e-16, 0.12616304069, 0.296832610621, 1.3327965833, -0.994503268313, 0.874507776174, 0.0644262782627, 4.17015624319, -0.872964811813, -0.572791471573, -4.17015624319 },
        { -0.567371737017, -1.10328413072e-15, 7.84095011142e-16, -0.487113055533, 0.296594163606, 1.42859263055, -0.267973510296, 0.937363870865, -4.28823643261e-15, -6.80011602583e-16, 0.737169865156, 0.317314927393, 1.20496905816, -0.296594163606, 0.79063438833, 0.267973510296, 2.69056573842, -2.6335616887, -1.72799825919, -2.69056573842 },
        { -0.687851509337, -1.46063716677e-15, 8.67361737988e-16, -0.0832337744597, -0.218640078989, 2.53550785316, -0.372609968698, 1.66366072807, -4.00721122951e-15, -2.04697370165e-16, 1.63922482317, -0.868139539372, 0.962472687134, 0.218640078989, 0.631521613875, 0.372609968698, 1.33283134642, -3.4979805403, -2.29518234194, -1.33283134642 },
        { -0.814800701442, -4.71844785466e-16, 1.12410081243e-15, 1.47356278006, -0.374173215369, 2.35456003213, -0.322360019512, 1.54493272519, -3.40005801291e-15, 6.93889390391e-16, 2.72028887308, -3.3790509517, 0.623625809026, 0.374173215369, 0.409188938694, 0.322360019512, 0.446979915416, -2.97818584116, -1.95412166389, -0.446979915416 },
        { -0.924806077682, 4.99600361081e-16, 1.38777878078e-15, 3.63547616634, -0.230585233065, 1.22959326647, -0.163478027956, 0.806791438792, -1.72084568817e-15, 8.881784197e-16, 3.75089257002, -6.46156265867, 0.270124299079, 0.230585233065, 0.177240700522, 0.163478027956, 0.0708478036783, -1.49971756555, -0.984032139314, -0.0708478036783 },
        { -0.676871524024, 5.39845945724e-15, 1.29063426613e-15, 0.775918124814, 4.20784489647, -2.84779972367, -0.369576482481, -0.709606381287, -1.17128529098e-14, -2.05391259556e-15, -0.0618393271473, -0.0372072736427, 2.60151368811, -4.20784489647, 0.648237549412, 0.369576482481, 3.77738842848, 0.24628603556, 0.0613688318749, -3.77738842848 },
        { -0.710028126851, 2.99760216649e-15, 1.33226762955e-15, 0.04959698013, 3.01843581937, -0.633141582452, -0.374999411404, -0.157764362231, -8.50708392619e-15, -1.6028844918e-15, 0.334240667506, 0.326190479215, 2.3938269654, -3.01843581937, 0.596486781084, 0.374999411404, 3.00237071688, -1.76068538295, -0.438722418854, -3.00237071688 },
        { -0.764623943605, 3.95516952523e-16, 1.60982338571e-15, -0.487113055533, 1.47237562529, 1.96702675819, -0.360333265908, 0.490137957446, -5.18335374622e-15, -1.51961776496e-15, 1.02563028597, 0.226106713167, 2.01959157374, -1.47237562529, 0.503235903988, 0.360333265908, 1.937115857, -3.98661833193, -0.993373861433, -1.937115857 },
        { -0.832243555205, -8.67361737988e-16, 1.30451205393e-15, -0.0832337744597, 0.226028653861, 3.49113644165, -0.303921154547, 0.869911137482, -4.34027813689e-15, 2.77555756156e-17, 1.94549586694, -1.03001853727, 1.50379466064, -0.226028653861, 0.374711142243, 0.303921154547, 0.959593255421, -4.99493110229, -1.24462227972, -0.959593255421 },
        { -0.901639584969, -2.08166817117e-16, 1.60982338571e-15, 1.47356278006, -0.338438360166, 3.24198969527, -0.205142370497, 0.807829482075, -4.02455846427e-15, 1.13797860024e-15, 2.95745417663, -3.52937737172, 0.918553977103, 0.338438360166, 0.228882585489, 0.205142370497, 0.321810342542, -4.16054367237, -1.03671206756, -0.321810342542 },
        { -0.960440690208, 7.21644966006e-16, 1.60982338571e-15, 3.63547616634, -0.289475350114, 1.69302487296, -0.0912796104095, 0.421862971451, -2.44249065418e-15, 1.11022302463e-15, 3.86503032169, -6.54006579782, 0.381425605421, 0.289475350114, 0.0950425134685, 0.0912796104095, 0.0510080099435, -2.07445047838, -0.51690548492, -0.0510080099435 },
        { -0.893471284991, 8.04911692853e-15, 2.78943534937e-15, 0.775918124814, 6.94320058859, -3.43166851713, -0.21881855264, -0.224642221203, -1.58068003131e-14, -5.21804821574e-15, 0.0558558004387, 0.0616973597377, 3.76932210778, -6.94320058859, 0.2467455369, 0.21881855264, 1.44099145272, -0.337653590651, -0.0221033156969, -1.44099145272 },
        { -0.904836670017, 4.94049245958e-15, 2.89351875793e-15, 0.04959698013, 5.12571763292, -0.762951136391, -0.199644475028, -0.0499439375024, -1.08454911718e-14, -4.4339532046e-15, 0.507060081461, 0.348179608426, 3.38888579124, -5.12571763292, 0.221841599137, 0.199644475028, 1.14533906767, -2.62593465485, -0.171897661634, -1.14533906767 },
        { -0.923314526462, 1.2420620088e-15, 1.85268467234e-15, -0.487113055533, 2.73457596246, 2.37031549036, -0.166287311109, 0.155164443782, -5.52335954751e-15, -2.46330733589e-15, 1.25263608733, 0.157791494667, 2.75900723042, -2.73457596246, 0.180608794079, 0.166287311109, 0.738967528948, -5.12932272077, -0.335773237861, -0.738967528948 },
        { -0.945817004977, -4.33680868994e-16, 2.15452655716e-15, -0.0832337744597, 0.74808943575, 4.2069050419, -0.122079350363, 0.275390378845, -4.01761957036e-15, -4.54497550706e-16, 2.18031715832, -1.15126637889, 1.97327870592, -0.74808943575, 0.129173814236, 0.122079350363, 0.366063936852, -6.18018374783, -0.404564193082, -0.366063936852 },
        { -0.968500955331, -8.32667268469e-17, 1.67921232475e-15, 1.47356278006, -0.248288709939, 3.9066771015, -0.0736170282174, 0.255737002926, -4.34374758385e-15, 1.19348975147e-15, 3.13691047408, -3.64197229881, 1.16092998676, 0.248288709939, 0.0759962361123, 0.0736170282174, 0.122763639954, -5.06760708826, -0.331733239038, -0.122763639954 },
        { -0.987419403721, 1.11022302463e-15, 1.7763568394e-15, 3.63547616634, -0.323537622581, 2.040136498, -0.0302715960585, 0.133550426616, -2.72004641033e-15, 1.38777878078e-15, 3.95080811541, -6.59886487803, 0.46819430128, 0.323537622581, 0.0306487084254, 0.0302715960585, 0.0194584453626, -2.50833079928, -0.164199135042, -0.0194584453626 },
        { -0.726423409059, -8.63198401646e-15, 1.15185638805e-15, 0.775918124814, -0.117497212767, -0.108533070742, 7.15702121551, -3.472253189, -1.12410081243e-15, -5.55111512313e-16, -0.0356675968934, -0.0138271188615, 0.103890043634, 0.117497212767, 3.32371076252, -7.15702121551, 0.704430523325, 0.00464302710761, 0.148542426478, -0.704430523325 },
        { -0.754767368626, -6.09234884763e-15, 6.86950496487e-16, 0.04959698013, -0.105817017682, -0.0241297867918, 5.29102111406, -0.771974187821, -2.02615701994e-15, -3.46944695195e-17, 0.373781879352, 0.331388509144, 0.0950016708043, 0.105817017682, 3.03934876398, -5.29102111406, 0.559900474985, -0.0708718840125, -2.26737457616, -0.559900474985 },
        { -0.801290634118, -4.41313652288e-15, 1.11022302463e-16, -0.487113055533, -0.0863794923912, 0.074965754271, 2.83445817295, 2.39834805699, -2.28289609439e-15, -5.55111512313e-17, 1.07844607211, 0.20995761754, 0.0794014800434, 0.0863794923912, 2.54025837846, -2.83445817295, 0.361245226094, -0.154367234314, -4.93860643546, -0.361245226094 },
        { -0.858672042069, -2.90739654574e-15, -3.05311331772e-16, -0.0832337744597, -0.0619730870833, 0.133051406404, 0.790395008813, 4.2566580585, -2.53616572188e-15, 1.94289029309e-16, 2.00058623957, -1.05868042304, 0.058516374073, 0.0619730870833, 1.87208990859, -0.790395008813, 0.17895082592, -0.191567780477, -6.12874796709, -0.17895082592 },
        { -0.917304406451, -1.45716771982e-15, -1.66533453694e-16, 1.47356278006, -0.0365705377559, 0.123556124406, -0.240004489489, 3.9528794685, -1.17961196366e-15, -1.38777878078e-17, 2.99973541367, -3.55599378728, 0.0354112903439, 0.0365705377559, 1.13289861775, 0.240004489489, 0.0600131631419, -0.15896741475, -5.08577808624, -0.0600131631419 },
        { -0.966795927234, 0.0, 7.21644966006e-16, 3.63547616634, -0.0147843831568, 0.0645232130535, -0.32558544041, 2.06426419854, -2.77555756156e-16, 1.66533453694e-16, 3.8852851259, -6.553965365, 0.0146006385853, 0.0147843831568, 0.467112130363, 0.32558544041, 0.00951228601946, -0.0791238516387, -2.5313763289, -0.00951228601946 },
        { -0.758417642742, -7.03603841856e-15, 1.11022302463e-16, 0.775918124814, -0.368211730803, -0.548205449646, 5.07138238064, -3.04742645476, 2.49800180541e-16, -8.74300631892e-16, -0.01851900788, 0.00101852580793, 0.539966037686, 0.368211730803, 3.00162427969, -5.07138238064, 3.12277915377, 0.00823941196009, 0.0458021750697, -3.12277915377 },
        { -0.783596908567, -5.71070968292e-15, 2.49800180541e-16, 0.04959698013, -0.355434246195, -0.12188064456, 3.68194153814, -0.677523911509, -1.02001740387e-15, -5.75928194024e-16, 0.399310837837, 0.3346890906, 0.491949225061, 0.355434246195, 2.73470299104, -3.68194153814, 2.4820695208, -0.370068580502, -2.05717907953, -2.4820695208 },
        { -0.824844791552, -4.16333634234e-15, 1.2490009027e-16, -0.487113055533, -0.320783000343, 0.378655415786, 1.86716226725, 2.10491255067, -2.04697370165e-15, -3.33066907388e-16, 1.11225438473, 0.199703462353, 0.408861840439, 0.320783000343, 2.27282744033, -1.86716226725, 1.60141990458, -0.787517256225, -4.377739991, -1.60141990458 },
        { -0.875588016044, -3.00107161344e-15, -6.59194920871e-17, -0.0832337744597, -0.255801630583, 0.672048672126, 0.386311174693, 3.73586016638, -2.70269917557e-15, -5.20417042793e-17, 2.03570158714, -1.07687979664, 0.299433435359, 0.255801630583, 1.66452444598, -0.386311174693, 0.793298828241, -0.971482107485, -5.40038461235, -0.793298828241 },
        { -0.927296248623, -1.47104550763e-15, 1.11022302463e-16, 1.47356278006, -0.165527646222, 0.624087573248, -0.313723431987, 3.4692485856, -1.54043444667e-15, 1.66533453694e-16, 3.02662782179, -3.57289435323, 0.180160060489, 0.165527646222, 1.0014941201, 0.313723431987, 0.266041644428, -0.804247633737, -4.4707427057, -0.266041644428 },
        { -0.970838459942, 5.55111512313e-17, 8.881784197e-16, 3.63547616634, -0.071634624844, 0.325909667743, -0.302089423337, 1.81170352098, -7.21644966006e-16, 3.88578058619e-16, 3.89815343574, -6.56279114213, 0.0739539111867, 0.071634624844, 0.411103365588, 0.302089423337, 0.0421684857522, -0.39986357893, -2.22280688657, -0.0421684857522 },
        { -0.810157273065, -3.27515792264e-15, -4.71844785466e-16, 0.775918124814, -0.0225032435608, -1.24755936424, 2.44898648845, -2.37168639497, -1.38777878078e-15, -4.02455846427e-16, 0.00960676764458, 0.024632380606, 1.28387598601, 0.0225032435608, 2.4407265066, -2.44898648845, 5.53073910362, -0.0363166217731, -0.0690401116288, -5.53073910362 },
        { -0.830128546953, -3.49720252757e-15, 1.38777878078e-17, 0.04959698013, -0.160731865874, -0.2773656109, 1.67496250519, -0.527288932824, -2.24126273096e-15, -6.17561557448e-16, 0.440592488568, 0.339939078256, 1.16330511369, 0.160731865874, 2.21151392905, -1.67496250519, 4.39598136168, -0.885939502789, -1.68422499623, -4.39598136168 },
        { -0.862745905648, -3.26128013484e-15, 2.70616862252e-16, -0.487113055533, -0.311836831433, 0.861711809117, 0.68500393252, 1.63816667379, -2.65065747129e-15, -4.99600361081e-16, 1.16646601528, 0.183392945898, 0.958692506261, 0.311836831433, 1.82253289041, -0.68500393252, 2.83626707219, -1.82040431538, -3.4606995642, -2.83626707219 },
        { -0.90271061438, -2.49453235845e-15, 3.85108611667e-16, -0.0832337744597, -0.374979924567, 1.52939124315, -0.0798608903779, 2.90746597551, -3.39311911901e-15, -2.15105711021e-16, 2.09177256564, -1.1058281768, 0.695414213798, 0.374979924567, 1.32202480861, 0.0798608903779, 1.40500773003, -2.22480545694, -4.22949078412, -1.40500773003 },
        { -0.943261835947, -1.4294121442e-15, 5.41233724505e-16, 1.47356278006, -0.307223110954, 1.42024545107, -0.371766624336, 2.69997317191, -2.87270207622e-15, 2.49800180541e-16, 3.06947587325, -3.59977681736, 0.414684337674, 0.307223110954, 0.788340202528, 0.371766624336, 0.471185073801, -1.83492978874, -3.48831337444, -0.471185073801 },
        { -0.977280075646, 3.33066907388e-16, 1.16573417586e-15, 3.63547616634, -0.15200866322, 0.741677519169, -0.255330135129, 1.40997417205, -1.27675647832e-15, 3.88578058619e-16, 3.91863355394, -6.57682964463, 0.169041625175, 0.15200866322, 0.321358433196, 0.255330135129, 0.0746844018121, -0.910719144344, -1.73133260524, -0.0746844018121 },
        { -0.872204559152, 1.69309011255e-15, 1.52655665886e-16, 0.775918124814, 1.54916783676, -2.06827166004, 0.460090829752, -1.57868564918, -7.07767178199e-15, -2.22044604925e-16, 0.0439425037139, 0.0523439306236, 2.23561475084, -1.54916783676, 1.70641651793, -0.460090829752, 6.10334517208, -0.167343090798, -0.127730868743, -6.10334517207 },
        { -0.885791362615, 2.77555756156e-17, 4.99600361081e-16, 0.04959698013, 0.994503268313, -0.459831771488, 0.184932990992, -0.350983786469, -5.75928194024e-15, -4.57966997658e-16, 0.490094289996, 0.346100092489, 2.01374452667, -0.994503268313, 1.5370657766, -0.184932990992, 4.85110418656, -1.55391275518, -1.18608199014, -4.85110418656 },
        { -0.907905670508, -1.45716771982e-15, 7.56339435526e-16, -0.487113055533, 0.296594163606, 1.42859263055, -0.144058050892, 1.09042672099, -4.18415302406e-15, -7.42461647718e-16, 1.23076664877, 0.164252077268, 1.64431355731, -0.296594163606, 1.25508378123, 0.144058050892, 3.12991023758, -3.07290618786, -2.34551050221, -3.12991023758 },
        { -0.934877471748, -1.67227343084e-15, 8.63892291036e-16, -0.0832337744597, -0.218640078989, 2.53550785316, -0.350393167673, 1.93532113722, -4.38538094727e-15, -2.49800180541e-16, 2.15791119473, -1.13979994852, 1.18011171821, 0.218640078989, 0.900764377311, 0.350393167673, 1.55047037749, -3.71561957137, -2.83608551453, -1.55047037749 },
        { -0.962111169631, -7.07767178199e-16, 1.08246744901e-15, 1.47356278006, -0.374173215369, 2.35456003213, -0.347143139434, 1.79720594962, -3.48332473976e-15, 6.10622663544e-16, 3.1198725657, -3.63132417613, 0.696613494949, 0.374173215369, 0.531716286961, 0.347143139434, 0.519967601338, -3.05117352708, -2.32892223658, -0.519967601338 },
        { -0.984857450706, 4.99600361081e-16, 1.33226762955e-15, 3.63547616634, -0.230585233065, 1.22959326647, -0.185757321775, 0.938533018467, -1.60982338571e-15, 7.21644966006e-16, 3.94268552272, -6.59330423835, 0.281693090125, 0.230585233065, 0.215012779726, 0.185757321775, 0.0824165947243, -1.51128635659, -1.15354579819, -0.0824165947243 },
        { -0.932467448543, 5.95357096955e-15, 1.62370117351e-15, 0.775918124814, 4.20784489647, -2.84779972367, -0.340528596528, -0.825478539967, -1.2129186544e-14, -3.0253577421e-15, 0.0778844386904, 0.0786648850382, 3.21832628017, -4.20784489647, 0.932881359884, 0.340528596528, 4.39420102054, -0.3705265565, -0.107402819916, -4.39420102054 },
        { -0.939717444729, 3.03229663601e-15, 1.50573997715e-15, 0.04959698013, 3.01843581937, -0.633141582452, -0.365178738552, -0.183525823369, -8.77770078844e-15, -1.68615121865e-15, 0.538168524246, 0.351951940353, 2.88408633355, -3.01843581937, 0.835996771814, 0.365178738552, 3.49263008503, -2.2509447511, -0.652470948445, -3.49263008503 },
        { -0.951480909924, 3.88578058619e-16, 1.62370117351e-15, -0.487113055533, 1.47237562529, 1.96702675819, -0.373328247078, 0.570172952449, -5.79397640976e-15, -1.4294121442e-15, 1.29252224729, 0.146071718164, 2.33590467616, -1.47237562529, 0.677097889137, 0.373328247078, 2.25342895943, -4.30293143436, -1.24727084159, -2.25342895943 },
        { -0.965767827078, -1.0685896612e-15, 1.52308721191e-15, -0.0832337744597, 0.226028653861, 3.49113644165, -0.330838773316, 1.01195958014, -4.29170587957e-15, -1.97758476261e-16, 2.22106858147, -1.17206697993, 1.66048736366, -0.226028653861, 0.481317795346, 0.330838773316, 1.11628595844, -5.15162380531, -1.49327737548, -1.11628595844 },
        { -0.980127863307, -5.41233724505e-16, 1.66533453694e-15, 1.47356278006, -0.338438360166, 3.24198969527, -0.231024204704, 0.939740564617, -4.24660306919e-15, 9.15933995316e-16, 3.16785353751, -3.66128845426, 0.97110262951, 0.338438360166, 0.28148902962, 0.231024204704, 0.37435899495, -4.21309232478, -1.22122959424, -0.37435899495 },
        { -0.992072533789, 7.21644966006e-16, 1.55431223448e-15, 3.63547616634, -0.289475350114, 1.69302487296, -0.104977562408, 0.49074929274, -2.49800180541e-15, 9.43689570931e-16, 3.96554848656, -6.60895211911, 0.389754741655, 0.289475350114, 0.112976405051, 0.104977562408, 0.0593371461774, -2.08277961461, -0.603725697791, -0.0593371461774 },
        { -0.978452755303, 8.21565038223e-15, 2.56739074445e-15, 0.775918124814, 6.94320058859, -3.43166851713, -0.245590437715, -0.261324218136, -1.55847557082e-14, -5.66213742559e-15, 0.104155273818, 0.0983793566703, 4.00462268381, -6.94320058859, 0.304955122137, 0.245590437715, 1.67629202874, -0.572954166675, -0.043630904001, -1.67629202874 },
        { -0.980782431203, 5.11396480718e-15, 2.78249645547e-15, 0.04959698013, 5.12571763292, -0.762951136391, -0.225123587484, -0.0580993205486, -1.10605968828e-14, -4.70457006685e-15, 0.574850459601, 0.356334991472, 3.57590906737, -5.12571763292, 0.272308247866, 0.225123587484, 1.33236234381, -2.81295793098, -0.214208927317, -1.33236234381 },
        { -0.984553878027, 1.13797860024e-15, 1.99146255042e-15, -0.487113055533, 2.73457596246, 2.37031549036, -0.188846064822, 0.180501362285, -5.95357096955e-15, -2.44249065418e-15, 1.3392123574, 0.132454576164, 2.87967379294, -2.73457596246, 0.21928939193, 0.188846064822, 0.859634091471, -5.2499892833, -0.399790754215, -0.859634091471 },
        { -0.98912027361, -5.48172618409e-16, 2.09901540593e-15, -0.0832337744597, 0.74808943575, 4.2069050419, -0.139737828348, 0.320359080535, -4.02108901731e-15, -7.91033905045e-16, 2.26858912865, -1.19623508058, 2.03305356096, -0.74808943575, 0.154818604884, 0.139737828348, 0.425838791894, -6.23995860287, -0.475177685419, -0.425838791894 },
        { -0.99369468315, -1.94289029309e-16, 1.67921232475e-15, 1.47356278006, -0.248288709939, 3.9066771015, -0.0848747424407, 0.297496490108, -4.28823643261e-15, 1.13797860024e-15, 3.20386368908, -3.68373178599, 1.18097615368, 0.248288709939, 0.0899322497081, 0.0848747424407, 0.142809806877, -5.08765325518, -0.387428739816, -0.142809806877 },
        { -0.997488106105, 9.99200722163e-16, 1.7763568394e-15, 3.63547616634, -0.323537622581, 2.040136498, -0.0350936875697, 0.155357976031, -2.83106871279e-15, 1.16573417586e-15, 3.98268436721, -6.62067242744, 0.47137168543, 0.323537622581, 0.0358953192977, 0.0350936875697, 0.0226358295127, -2.51150818343, -0.191253295328, -0.0226358295127 } } };
static const double FE0_C0_D010_Q216[1][216][20] =
    { { { -4.04576671409, 1.4155343564e-15, 0.753996295525, -2.4320382356e-17, -0.0965970769555, -0.107511377264, -9.71445146547e-16, -1.11022302463e-16, -0.129908081982, -0.119052060886, -0.522430814494, 0.107511377264, 6.58109718389, -3.28932676532, -0.643875229934, 0.129908081982, 0.0223300128334, 0.619027891449, -0.0223300128334, 0.762927290819 },
        { -2.62571123841, 1.30798150089e-15, 0.779615491306, 4.50419788536e-17, -0.50160003324, -0.358365282409, -1.51267887105e-15, -5.13478148889e-16, -0.117147735503, -0.108519075662, -2.30129795037, 0.358365282409, 4.84568813009, -2.99959238299, -0.497876215804, 0.117147735503, 0.101108122605, 2.80289798361, -0.101108122605, 0.606395291465 },
        { -0.890332547687, 1.0616507673e-15, 0.821595249839, 2.73598129373e-16, -1.19397511906, -0.12614692443, -2.10942374679e-15, -8.60422844084e-16, -0.0958263800142, -0.0902592081421, -3.98150755115, 0.12614692443, 2.56523820462, -2.49650090677, -0.300984260929, 0.0958263800142, 0.186693678978, 5.17548267021, -0.186693678978, 0.391243469071 },
        { 0.281759487915, 1.87350135405e-16, 0.873257070875, 7.42022370519e-16, -2.0928426108, 1.20743008478, -2.69229083472e-15, -1.38777878078e-15, -0.0689161559432, -0.066158334019, -4.03814869599, -1.20743008478, 0.676214024935, -1.83123058373, -0.127652786153, 0.0689161559432, 0.221161463728, 6.13099130678, -0.221161463728, 0.193811120172 },
        { 0.439997006945, 6.10622663544e-16, 0.925921001398, 1.42087904642e-15, -3.05950048765, 3.69412785296, -2.88657986403e-15, -2.44249065418e-15, -0.0407616447539, -0.039836778293, -1.93230691305, -3.69412785296, -0.262509191785, -1.10340881656, -0.0251599509135, 0.0407616447539, 0.180068014477, 4.9918074007, -0.180068014477, 0.0649967292065 },
        { -0.196667822904, 2.10942374679e-15, 0.970282569756, 2.14227088537e-15, -3.91116901266, 6.62610143914, -3.10862446895e-15, -3.5527136788e-15, -0.0165091293374, -0.0163625349264, 1.44861433758, -6.62610143914, -0.320164679342, -0.45345006751, 0.00606033710554, 0.0165091293374, 0.0888310175631, 2.46255467508, -0.0888310175631, 0.0103021978208 },
        { -2.46313579034, 6.24500451352e-17, -0.0173038332164, -3.76416177253e-19, -0.0156838451545, -0.107511377264, -1.49880108324e-15, -1.94289029309e-16, -0.115491547894, -0.0169647446373, -0.444249637618, 0.107511377264, 2.59769532929, -0.117255705732, -0.480531501245, 0.115491547894, 0.0195979579079, 0.459933482773, -0.0195979579079, 0.497496245883 },
        { -1.46507869087, 5.82867087928e-16, 0.065880174411, 3.46800720469e-17, -0.135232802627, -0.358365282409, -1.91513471748e-15, -4.4408920985e-16, -0.103989255551, -0.0256774815497, -1.94730119829, 0.358365282409, 1.77855759673, -0.379359080268, -0.369746020342, 0.103989255551, 0.0887376440735, 2.08253400092, -0.0887376440735, 0.395423501892 },
        { -0.283247492545, 7.00828284295e-16, 0.214393260039, 2.24085268294e-16, -0.517486975699, -0.12614692443, -2.08166817117e-15, -8.881784197e-16, -0.0848598538711, -0.0343334553973, -3.32786119427, 0.12614692443, 0.73056610229, -0.661711869783, -0.220791979793, 0.0848598538711, 0.163851892499, 3.84534816996, -0.163851892499, 0.25512543519 },
        { 0.43231727432, 3.95516952523e-16, 0.417042967496, 6.721220461e-16, -1.29145978519, 1.20743008478, -3.16413562018e-15, -1.16573417586e-15, -0.0608596941309, -0.0358303232645, -3.26382475615, -1.20743008478, -0.0798322516279, -0.769527990188, -0.09055171321, 0.0608596941309, 0.194102577967, 4.55528454134, -0.194102577967, 0.126382036474 },
        { 0.366898054967, 9.43689570931e-16, 0.645015421406, 1.36009640408e-15, -2.40702056728, 3.69412785296, -3.33066907388e-15, -1.7763568394e-15, -0.0359003796313, -0.0275064998633, -1.30185813568, -3.69412785296, -0.390308144044, -0.621605332329, -0.0148771311379, 0.0359003796313, 0.15803687148, 3.70887870296, -0.15803687148, 0.0423836310012 },
        { -0.278615679429, 2.22044604925e-15, 0.852937878846, 2.11137806162e-15, -3.58928810875, 6.62610143914, -3.10862446895e-15, -3.5527136788e-15, -0.0145092064017, -0.0131787485324, 1.75962685459, -6.62610143914, -0.268830412778, -0.305491786638, 0.00646080201, 0.0145092064017, 0.0779626306581, 1.82966125416, -0.0779626306581, 0.0067179465224 },
        { -0.640836898971, -1.4224732503e-15, -0.499651876688, 1.57215270098e-17, 0.113018770969, -0.107511377264, -2.72004641033e-15, -1.94289029309e-16, -0.0917114474641, 0.095141367646, -0.31989269659, 0.107511377264, -1.60460398204, 2.7450927577, -0.269291803412, 0.0917114474641, 0.0152522828128, 0.206873925621, -0.0152522828128, 0.174150435766 },
        { -0.171410750099, -7.42461647718e-16, -0.477655318546, 7.21560350475e-19, 0.447520104311, -0.358365282409, -2.24820162487e-15, -4.99600361081e-16, -0.0823843982723, 0.0661312842091, -1.38422508481, 0.358365282409, -1.40409540382, 2.05316147246, -0.204550771263, 0.0823843982723, 0.069060850621, 0.936704980496, -0.069060850621, 0.138419487054 },
        { 0.325950427788, -1.17961196366e-16, -0.369643187525, 1.34053045268e-16, 0.558552034106, -0.12614692443, -1.97064586871e-15, -8.04911692853e-16, -0.0669809418555, 0.0288406973348, -2.28815490299, 0.12614692443, -1.09345678358, 1.13714954332, -0.118148317404, 0.0669809418555, 0.127519173965, 1.72960286889, -0.127519173965, 0.0893076200696 },
        { 0.495224448467, 3.46944695195e-16, -0.119492379688, 5.5535110737e-16, -0.0167601609752, 1.20743008478, -2.49800180541e-15, -1.22124532709e-15, -0.0478292580708, -0.00036188622623, -2.03216567436, -1.20743008478, -0.740356165286, 0.364624096506, -0.0438786219327, 0.0478292580708, 0.151062035533, 2.04892583534, -0.151062035533, 0.0442405081589 },
        { 0.191409021594, 1.05471187339e-15, 0.261626906403, 1.26154077163e-15, -1.36916963919, 3.69412785296, -3.33066907388e-15, -2.22044604925e-15, -0.0280956168566, -0.0121769022277, -0.299050496269, -3.69412785296, -0.411801715495, -0.0412342125024, -0.00265964753379, 0.0280956168566, 0.1229935828, 1.66822013546, -0.1229935828, 0.0148365497615 },
        { -0.418349929669, 2.33146835171e-15, 0.676339852097, 2.06194224697e-15, -3.07729626895, 6.62610143914, -3.10862446895e-15, -2.6645352591e-15, -0.0113166170376, -0.00879344780794, 2.25433116555, -6.62610143914, -0.158363052258, -0.0996268701697, 0.00644180531011, 0.0113166170376, 0.0606751018253, 0.822965103395, -0.0606751018253, 0.00235164249783 },
        { 0.409121502483, -2.19269047363e-15, 0.100270619402, 1.77384066656e-19, 0.264055059393, -0.107511377264, -3.44169137634e-15, -1.11022302463e-16, -0.0624754883598, 0.147962514027, -0.173956185131, 0.107511377264, -3.19435712497, 2.68496500308, -0.0974758618217, 0.0624754883598, 0.0101525058477, -0.0900988742611, -0.0101525058477, -0.0504866522057 },
        { 0.481527311742, -1.74513181683e-15, -0.188763944202, -6.65000565073e-17, 1.13139770357, -0.358365282409, -2.31759056391e-15, -4.02455846427e-16, -0.0559738900952, 0.111287938559, -0.723438778805, 0.358365282409, -2.48290398305, 2.19014061551, -0.0711597788412, 0.0559738900952, 0.0459695573694, -0.40795892476, -0.0459695573694, -0.0401281597182 },
        { 0.48262658867, -1.0685896612e-15, -0.457094655406, 1.07383971536e-17, 1.82131531846, -0.12614692443, -1.52655665886e-15, -6.10622663544e-16, -0.0453178173842, 0.0625987495929, -1.06802912766, 0.12614692443, -1.52027946946, 1.49474753619, -0.0367082444446, 0.0453178173842, 0.0848816649459, -0.753286190792, -0.0848816649459, -0.0258905051483 },
        { 0.292513568698, -3.05311331772e-16, -0.452933256224, 4.09569116641e-16, 1.47913717116, 1.20743008478, -1.99840144433e-15, -1.05471187339e-15, -0.0321999657521, 0.0212588965276, -0.586777678999, -1.20743008478, -0.666570367929, 0.826990055455, -0.00843346121361, 0.0321999657521, 0.100552698763, -0.892359492158, -0.100552698763, -0.012825435314 },
        { -0.107271367999, 9.99200722163e-16, -0.0889570692596, 1.14294915339e-15, -0.151221186882, 3.69412785296, -3.10862446895e-15, -1.7763568394e-15, -0.0188232497296, -0.000895221697954, 0.877773630712, -3.69412785296, -0.152326886882, 0.34855532414, 0.00519637503385, 0.0188232497296, 0.0818692574703, -0.72655244383, -0.0818692574703, -0.00430115333589 },
        { -0.597031583268, 2.44249065418e-15, 0.484841614466, 2.00346287013e-15, -2.47645885386, 6.62610143914, -3.10862446895e-15, -3.10862446895e-15, -0.0075520695193, -0.00471041743043, 2.83488115938, -6.62610143914, 0.0163992359696, 0.0957907328323, 0.00539216454393, 0.00755206951929, 0.0403876805625, -0.358422305515, -0.0403876805625, -0.000681747113507 },
        { 0.317920560344, -9.2287288922e-16, 1.83596249165, -4.90193958745e-17, 0.407512183229, -0.107511377264, -5.05151476204e-15, -1.11022302463e-16, -0.0333774180151, 0.119400991208, -0.0353429259272, 0.107511377264, -1.36284721225, -0.791035839748, -0.0103554704904, 0.0333774180151, 0.00530864121591, -0.372169257302, -0.0053086412159, -0.109045520718 },
