
        #include <petsc.h>
        #include <stdbool.h>
        #include <math.h>
        
        


        
            #include <immintrin.h>

            
            // This code is generated visiting a COFFEE AST

#include "firedrake_geometry.h"


void form_cell_integral_0_otherwise(double A[30][30], double *coordinate_dofs, double **w0, double *c1, double *c2, double **w3)
{
double (*w1)[1] = (double (*)[1])c1;

double (*w2)[1] = (double (*)[1])c2;

// Section for quadrature weights and points
static const double weights24[24] = { 0.00665379170969, 0.00665379170969, 0.00665379170969, 0.00665379170969, 0.00167953517589, 0.00167953517589, 0.00167953517589, 0.00167953517589, 0.00922619692394, 0.00922619692394, 0.00922619692394, 0.00922619692394, 0.00803571428571, 0.00803571428571, 0.00803571428571, 0.00803571428571, 0.00803571428571, 0.00803571428571, 0.00803571428571, 0.00803571428571, 0.00803571428571, 0.00803571428571, 0.00803571428571, 0.00803571428571 };
static const double points24[72] = { 0.356191386223, 0.214602871259, 0.214602871259, 0.214602871259, 0.214602871259, 0.214602871259, 0.214602871259, 0.214602871259, 0.356191386223, 0.214602871259, 0.356191386223, 0.214602871259, 0.877978124396, 0.0406739585346, 0.0406739585346, 0.0406739585346, 0.0406739585346, 0.0406739585346, 0.0406739585346, 0.0406739585346, 0.877978124396, 0.0406739585346, 0.877978124396, 0.0406739585346, 0.0329863295732, 0.322337890142, 0.322337890142, 0.322337890142, 0.322337890142, 0.322337890142, 0.322337890142, 0.322337890142, 0.0329863295732, 0.322337890142, 0.0329863295732, 0.322337890142, 0.269672331458, 0.063661001875, 0.063661001875, 0.063661001875, 0.269672331458, 0.063661001875, 0.063661001875, 0.063661001875, 0.269672331458, 0.603005664792, 0.063661001875, 0.063661001875, 0.063661001875, 0.603005664792, 0.063661001875, 0.063661001875, 0.063661001875, 0.603005664792, 0.063661001875, 0.269672331458, 0.603005664792, 0.269672331458, 0.603005664792, 0.063661001875, 0.603005664792, 0.063661001875, 0.269672331458, 0.063661001875, 0.603005664792, 0.269672331458, 0.269672331458, 0.063661001875, 0.603005664792, 0.603005664792, 0.269672331458, 0.063661001875 };
// Section for precomputed element basis function values
// Table dimensions: num_entities, num_points, num_dofs
// Definitions of 7 tables for 24 quadrature points
static const double FE0_C0_D001_Q24[1][24][10] =
    { { { 0.141588514963, -1.88737914186e-15, 3.33066907388e-16, -0.141588514963, 0.858411485037, 1.42476554489, -2.3037127761e-15, -1.11022302463e-16, -0.858411485037, -1.42476554489 },
        { -0.42476554489, -1.7763568394e-15, 3.88578058619e-16, -0.141588514963, 0.858411485037, 0.858411485037, -2.10942374679e-15, 0.566354059854, -0.858411485037, -0.858411485037 },
        { 0.141588514963, -2.09034178855e-15, 7.68482499858e-16, 0.42476554489, 0.858411485037, 0.858411485037, -2.02268757299e-15, -0.566354059854, -0.858411485037, -0.858411485037 },
        { 0.141588514963, -1.5959455979e-15, 5.55111512313e-16, -0.141588514963, 1.42476554489, 0.858411485037, -2.94209101526e-15, 0.0, -1.42476554489, -0.858411485037 },
        { 0.837304165862, -4.02455846427e-15, -5.82867087928e-16, -0.837304165862, 0.162695834138, 3.51191249758, -2.35922392733e-15, -5.44009282066e-15, -0.162695834138, -3.51191249758 },
        { -2.51191249758, -1.36002320517e-15, -3.60822483003e-16, -0.837304165862, 0.162695834138, 0.162695834138, -1.7763568394e-15, 3.34921666345, -0.162695834138, -0.162695834138 },
        { 0.837304165862, -2.38697950294e-15, 1.38777878078e-15, 2.51191249758, 0.162695834138, 0.162695834138, -4.4408920985e-16, -3.34921666345, -0.162695834138, -0.162695834138 },
        { 0.837304165862, 1.27675647832e-15, 1.60982338571e-15, -0.837304165862, 3.51191249758, 0.162695834138, -5.38458166943e-15, 7.77156117238e-16, -3.51191249758, -0.162695834138 },
        { -0.289351560569, -2.09901540593e-15, 9.54097911787e-16, 0.289351560569, 1.28935156057, 0.131945318293, -2.5526455949e-15, -1.5959455979e-15, -1.28935156057, -0.131945318293 },
        { 0.868054681707, -2.04437161644e-15, 8.14452671971e-16, 0.289351560569, 1.28935156057, 1.28935156057, -2.97071395261e-15, -1.15740624228, -1.28935156057, -1.28935156057 },
        { -0.289351560569, -1.2490009027e-15, 0.0, -0.868054681707, 1.28935156057, 1.28935156057, -2.96984659087e-15, 1.15740624228, -1.28935156057, -1.28935156057 },
        { -0.289351560569, -2.06605565989e-15, 3.76434994287e-16, 0.289351560569, 0.131945318293, 1.28935156057, -9.72312508285e-16, -5.06539254985e-16, -0.131945318293, -1.28935156057 },
        { -1.41202265917, -1.11022302463e-15, -2.77555756156e-16, -0.7453559925, 0.2546440075, 1.07868932583, -1.47104550763e-15, 2.15737865167, -0.2546440075, -1.07868932583 },
        { -1.41202265917, -1.47104550763e-15, 1.38777878078e-16, -0.7453559925, 1.07868932583, 0.2546440075, -2.27595720048e-15, 2.15737865167, -1.07868932583, -0.2546440075 },
        { -1.41202265917, -1.81799020282e-15, 3.74700270811e-16, 0.0786893258333, 0.2546440075, 0.2546440075, -1.26981758442e-15, 1.33333333333, -0.2546440075, -0.2546440075 },
        { -0.0786893258333, -1.85962356625e-15, -3.60822483003e-16, -0.7453559925, 0.2546440075, 2.41202265917, -1.72084568817e-15, 0.824045318333, -0.2546440075, -2.41202265917 },
        { -0.0786893258333, -7.77156117238e-16, 8.881784197e-16, -0.7453559925, 2.41202265917, 0.2546440075, -3.96904731303e-15, 0.824045318333, -2.41202265917, -0.2546440075 },
        { -0.0786893258333, -2.35922392733e-15, 1.13797860024e-15, 1.41202265917, 0.2546440075, 0.2546440075, -8.60422844084e-16, -1.33333333333, -0.2546440075, -0.2546440075 },
        { 0.7453559925, -2.10942374679e-15, 1.44328993201e-15, 1.41202265917, 1.07868932583, 0.2546440075, -2.10942374679e-15, -2.15737865167, -1.07868932583, -0.2546440075 },
        { 0.7453559925, -4.16333634234e-16, 8.04911692853e-16, -0.7453559925, 2.41202265917, 1.07868932583, -4.38538094727e-15, 1.11022302463e-16, -2.41202265917, -1.07868932583 },
        { 0.7453559925, -3.16413562018e-15, 2.91433543964e-16, 0.0786893258333, 0.2546440075, 2.41202265917, -1.62370117351e-15, -0.824045318333, -0.2546440075, -2.41202265917 },
        { 0.7453559925, -6.59194920871e-16, 1.28369537222e-15, 0.0786893258333, 2.41202265917, 0.2546440075, -4.14945855454e-15, -0.824045318333, -2.41202265917, -0.2546440075 },
        { 0.7453559925, -2.74780198595e-15, 1.05471187339e-15, 1.41202265917, 0.2546440075, 1.07868932583, -7.21644966006e-16, -2.15737865167, -0.2546440075, -1.07868932583 },
        { 0.7453559925, -2.05391259556e-15, -5.55111512313e-17, -0.7453559925, 1.07868932583, 2.41202265917, -3.41393580072e-15, -1.99840144433e-15, -1.07868932583, -2.41202265917 } } };
static const double FE0_C0_D010_Q24[1][24][10] =
    { { { 0.141588514963, -2.74086309204e-15, -0.141588514963, -2.38257048823e-17, 0.858411485037, -2.49800180541e-16, 1.42476554489, -0.858411485037, -8.15320033709e-16, -1.42476554489 },
        { -0.42476554489, -2.51881848712e-15, -0.141588514963, -2.38257048823e-17, 0.858411485037, -2.63677968348e-16, 0.858411485037, -0.858411485037, 0.566354059854, -0.858411485037 },
        { 0.141588514963, -2.3037127761e-15, -0.141588514963, -3.95451878157e-17, 1.42476554489, -2.77555756156e-16, 0.858411485037, -1.42476554489, -4.16333634234e-16, -0.858411485037 },
        { 0.141588514963, -2.82412981889e-15, 0.42476554489, -2.38257048823e-17, 0.858411485037, -2.77555756156e-16, 0.858411485037, -0.858411485037, -0.566354059854, -0.858411485037 },
        { 0.837304165862, -4.01068067646e-15, -0.837304165862, -4.51571652678e-18, 0.162695834138, 1.11022302463e-16, 3.51191249758, -0.162695834138, -4.35762537165e-15, -3.51191249758 },
        { -2.51191249758, -2.45636844198e-15, -0.837304165862, -4.51571652678e-18, 0.162695834138, -1.66533453694e-16, 0.162695834138, -0.162695834138, 3.34921666345, -0.162695834138 },
        { 0.837304165862, -9.99200722163e-16, -0.837304165862, -9.74751528822e-17, 3.51191249758, -2.22044604925e-16, 0.162695834138, -3.51191249758, -2.33146835171e-15, -0.162695834138 },
        { 0.837304165862, -2.95596880306e-15, 2.51191249758, -4.51571652678e-18, 0.162695834138, -4.4408920985e-16, 0.162695834138, -0.162695834138, -3.34921666345, -0.162695834138 },
        { -0.289351560569, -2.49800180541e-15, 0.289351560569, -3.57866947345e-17, 1.28935156057, -2.22044604925e-16, 0.131945318293, -1.28935156057, -1.04083408559e-15, -0.131945318293 },
        { 0.868054681707, -2.81719092499e-15, 0.289351560569, -3.57866947345e-17, 1.28935156057, -2.77555756156e-16, 1.28935156057, -1.28935156057, -1.15740624228, -1.28935156057 },
        { -0.289351560569, -3.15025783237e-15, 0.289351560569, -3.662218259e-18, 0.131945318293, -3.33066907388e-16, 1.28935156057, -0.131945318293, -1.81105130892e-15, -1.28935156057 },
        { -0.289351560569, -1.98452365652e-15, -0.868054681707, -3.57866947345e-17, 1.28935156057, -3.33066907388e-16, 1.28935156057, -1.28935156057, 1.15740624228, -1.28935156057 },
        { -1.41202265917, -2.4841240176e-15, -0.7453559925, -7.06779100524e-18, 0.2546440075, -1.94289029309e-16, 1.07868932583, -0.2546440075, 2.15737865167, -1.07868932583 },
        { -1.41202265917, -2.95596880306e-15, 0.0786893258333, -7.06779100524e-18, 0.2546440075, -2.22044604925e-16, 0.2546440075, -0.2546440075, 1.33333333333, -0.2546440075 },
        { -1.41202265917, -1.70696790036e-15, -0.7453559925, -2.99396431489e-17, 1.07868932583, -3.60822483003e-16, 0.2546440075, -1.07868932583, 2.15737865167, -0.2546440075 },
        { -0.0786893258333, -3.03923552991e-15, -0.7453559925, -7.06779100524e-18, 0.2546440075, -5.55111512313e-17, 2.41202265917, -0.2546440075, 0.824045318333, -2.41202265917 },
        { -0.0786893258333, -3.34454686168e-15, 1.41202265917, -7.06779100524e-18, 0.2546440075, -3.88578058619e-16, 0.2546440075, -0.2546440075, -1.33333333333, -0.2546440075 },
        { -0.0786893258333, -1.16573417586e-15, -0.7453559925, -6.69470773031e-17, 2.41202265917, -3.33066907388e-16, 0.2546440075, -2.41202265917, 0.824045318333, -0.2546440075 },
        { 0.7453559925, -1.94289029309e-15, 0.0786893258333, -6.69470773031e-17, 2.41202265917, -2.22044604925e-16, 0.2546440075, -2.41202265917, -0.824045318333, -0.2546440075 },
        { 0.7453559925, -3.34454686168e-15, 1.41202265917, -7.06779100524e-18, 0.2546440075, -4.71844785466e-16, 1.07868932583, -0.2546440075, -2.15737865167, -1.07868932583 },
        { 0.7453559925, -2.98372437868e-15, -0.7453559925, -2.99396431489e-17, 1.07868932583, -1.94289029309e-16, 2.41202265917, -1.07868932583, -2.1302404285e-15, -2.41202265917 },
        { 0.7453559925, -2.90045765183e-15, 1.41202265917, -2.99396431489e-17, 1.07868932583, -3.88578058619e-16, 0.2546440075, -1.07868932583, -2.15737865167, -0.2546440075 },
        { 0.7453559925, -1.83186799063e-15, -0.7453559925, -6.69470773031e-17, 2.41202265917, -3.33066907388e-16, 1.07868932583, -2.41202265917, -1.7763568394e-15, -1.07868932583 },
        { 0.7453559925, -3.42781358853e-15, 0.0786893258333, -7.06779100524e-18, 0.2546440075, -2.77555756156e-16, 2.41202265917, -0.2546440075, -0.824045318333, -2.41202265917 } } };
static const double FE0_C0_D100_Q24[1][24][10] =
    { { { 0.141588514963, 0.42476554489, 4.28862687881e-17, 9.5302819529e-17, -6.34844307317e-33, 0.858411485037, 0.858411485037, -0.858411485037, -0.858411485037, -0.566354059854 },
        { -0.42476554489, -0.141588514963, 4.28862687881e-17, 9.5302819529e-17, -6.34844307317e-33, 0.858411485037, 0.858411485037, -0.858411485037, -0.858411485037, 0.566354059854 },
        { 0.141588514963, -0.141588514963, 8.3034063344e-18, 1.58180751263e-16, -7.04652834869e-33, 1.42476554489, 0.858411485037, -1.42476554489, -0.858411485037, 3.57699031243e-16 },
        { 0.141588514963, -0.141588514963, 1.05764200522e-16, 9.5302819529e-17, -9.83886945076e-33, 0.858411485037, 1.42476554489, -0.858411485037, -1.42476554489, 3.30727169786e-16 },
        { 0.837304165862, 2.51191249758, 8.1282897482e-18, 1.80628661071e-17, -1.20322859057e-33, 0.162695834138, 0.162695834138, -0.162695834138, -0.162695834138, -3.34921666345 },
        { -2.51191249758, -0.837304165862, 8.1282897482e-18, 1.80628661071e-17, -1.20322859057e-33, 0.162695834138, 0.162695834138, -0.162695834138, -0.162695834138, 3.34921666345 },
        { 0.837304165862, -0.837304165862, -1.96382470234e-16, 3.89900611529e-16, -5.33145685449e-33, 3.51191249758, 0.162695834138, -3.51191249758, -0.162695834138, -3.32706752812e-15 },
        { 0.837304165862, -0.837304165862, 3.7996603517e-16, 1.80628661071e-17, -2.18443699102e-32, 0.162695834138, 3.51191249758, -0.162695834138, -3.51191249758, 3.79624223497e-15 },
        { -0.289351560569, -0.868054681707, 6.44160505221e-17, 1.43146778938e-16, -9.53549099268e-33, 1.28935156057, 1.28935156057, -1.28935156057, -1.28935156057, 1.15740624228 },
        { 0.868054681707, 0.289351560569, 6.44160505221e-17, 1.43146778938e-16, -9.53549099268e-33, 1.28935156057, 1.28935156057, -1.28935156057, -1.28935156057, -1.15740624228 },
        { -0.289351560569, 0.289351560569, 1.35089898768e-16, 1.4648873036e-17, -8.10887765519e-33, 0.131945318293, 1.28935156057, -0.131945318293, -1.28935156057, -1.37048265263e-15 },
        { -0.289351560569, 0.289351560569, -6.40818553799e-17, 1.43146778938e-16, -2.40242430525e-33, 1.28935156057, 0.131945318293, -1.28935156057, -0.131945318293, 2.4356785159e-16 },
        { -1.41202265917, 0.0786893258333, 1.27220238094e-17, 2.82711640209e-17, -1.88323783374e-33, 0.2546440075, 0.2546440075, -0.2546440075, -0.2546440075, 1.33333333333 },
        { -1.41202265917, -0.7453559925, 1.04209432384e-16, 2.82711640209e-17, -6.96180920689e-33, 0.2546440075, 1.07868932583, -0.2546440075, -1.07868932583, 2.15737865167 },
        { -1.41202265917, -0.7453559925, -3.75960509067e-17, 1.19758572596e-16, -2.89895210837e-33, 1.07868932583, 0.2546440075, -1.07868932583, -0.2546440075, 2.15737865167 },
        { -0.0786893258333, 1.41202265917, 1.27220238094e-17, 2.82711640209e-17, -1.88323783374e-33, 0.2546440075, 0.2546440075, -0.2546440075, -0.2546440075, -1.33333333333 },
        { -0.0786893258333, -0.7453559925, 2.52239169001e-16, 2.82711640209e-17, -1.51791103029e-32, 0.2546440075, 2.41202265917, -0.2546440075, -2.41202265917, 0.824045318333 },
        { -0.0786893258333, -0.7453559925, -1.19012406046e-16, 2.67788309212e-16, -4.54241232758e-33, 2.41202265917, 0.2546440075, -2.41202265917, -0.2546440075, 0.824045318333 },
        { 0.7453559925, -0.7453559925, -2.75249974711e-17, 2.67788309212e-16, -9.62098370073e-33, 2.41202265917, 1.07868932583, -2.41202265917, -1.07868932583, -1.9584997881e-15 },
        { 0.7453559925, 0.0786893258333, 2.52239169001e-16, 2.82711640209e-17, -1.51791103029e-32, 0.2546440075, 2.41202265917, -0.2546440075, -2.41202265917, -0.824045318333 },
        { 0.7453559925, 1.41202265917, -3.75960509067e-17, 1.19758572596e-16, -2.89895210837e-33, 1.07868932583, 0.2546440075, -1.07868932583, -0.2546440075, -2.15737865167 },
        { 0.7453559925, -0.7453559925, 2.01921094285e-16, 1.19758572596e-16, -1.61948245776e-32, 1.07868932583, 2.41202265917, -1.07868932583, -2.41202265917, 4.94128763371e-16 },
        { 0.7453559925, 0.0786893258333, -1.19012406046e-16, 2.67788309212e-16, -4.54241232758e-33, 2.41202265917, 0.2546440075, -2.41202265917, -0.2546440075, -0.824045318333 },
        { 0.7453559925, 1.41202265917, 1.04209432384e-16, 2.82711640209e-17, -6.96180920689e-33, 0.2546440075, 1.07868932583, -0.2546440075, -1.07868932583, -2.15737865167 } } };
static const double FE1_C0_D001_Q24[1][24][4] =
    { { { -1.0, -5.55111512313e-17, 0.0, 1.0 },
        { -1.0, -5.55111512313e-17, 0.0, 1.0 },
        { -1.0, -5.55111512313e-17, 0.0, 1.0 },
        { -1.0, -5.55111512313e-17, 0.0, 1.0 },
        { -1.0, 1.11022302463e-16, 5.55111512313e-17, 1.0 },
        { -1.0, 1.11022302463e-16, 5.55111512313e-17, 1.0 },
        { -1.0, -4.4408920985e-16, -1.66533453694e-16, 1.0 },
        { -1.0, 1.11022302463e-16, 5.55111512313e-17, 1.0 },
        { -1.0, -5.55111512313e-17, 0.0, 1.0 },
        { -1.0, -5.55111512313e-17, 0.0, 1.0 },
        { -1.0, 1.11022302463e-16, 5.55111512313e-17, 1.0 },
        { -1.0, -5.55111512313e-17, 0.0, 1.0 },
        { -1.0, 1.11022302463e-16, 5.55111512313e-17, 1.0 },
        { -1.0, 1.11022302463e-16, 5.55111512313e-17, 1.0 },
        { -1.0, -5.55111512313e-17, 0.0, 1.0 },
        { -1.0, 1.11022302463e-16, 5.55111512313e-17, 1.0 },
        { -1.0, 1.11022302463e-16, 5.55111512313e-17, 1.0 },
        { -1.0, -3.33066907388e-16, -1.11022302463e-16, 1.0 },
        { -1.0, -3.33066907388e-16, -1.11022302463e-16, 1.0 },
        { -1.0, 1.11022302463e-16, 5.55111512313e-17, 1.0 },
        { -1.0, -5.55111512313e-17, 0.0, 1.0 },
        { -1.0, -5.55111512313e-17, 0.0, 1.0 },
        { -1.0, -3.33066907388e-16, -1.11022302463e-16, 1.0 },
        { -1.0, 1.11022302463e-16, 5.55111512313e-17, 1.0 } } };
static const double FE1_C0_D010_Q24[1][24][3] =
    { { { -1.0, -1.11022302463e-16, 1.0 },
        { -1.0, -1.11022302463e-16, 1.0 },
        { -1.0, -1.11022302463e-16, 1.0 },
        { -1.0, -1.11022302463e-16, 1.0 },
        { -1.0, -1.11022302463e-16, 1.0 },
        { -1.0, -1.11022302463e-16, 1.0 },
        { -1.0, -3.33066907388e-16, 1.0 },
        { -1.0, -1.11022302463e-16, 1.0 },
        { -1.0, -1.11022302463e-16, 1.0 },
        { -1.0, -1.11022302463e-16, 1.0 },
        { -1.0, -5.55111512313e-17, 1.0 },
        { -1.0, -1.11022302463e-16, 1.0 },
        { -1.0, -5.55111512313e-17, 1.0 },
        { -1.0, -5.55111512313e-17, 1.0 },
        { -1.0, -1.11022302463e-16, 1.0 },
        { -1.0, -5.55111512313e-17, 1.0 },
        { -1.0, -5.55111512313e-17, 1.0 },
        { -1.0, -2.77555756156e-16, 1.0 },
        { -1.0, -2.77555756156e-16, 1.0 },
        { -1.0, -5.55111512313e-17, 1.0 },
        { -1.0, -1.11022302463e-16, 1.0 },
        { -1.0, -1.11022302463e-16, 1.0 },
        { -1.0, -2.77555756156e-16, 1.0 },
        { -1.0, -5.55111512313e-17, 1.0 } } };
static const double FE1_C0_D100_Q24[1][24][2] =
    { { { -1.0, 1.0 },
        { -1.0, 1.0 },
        { -1.0, 1.0 },
        { -1.0, 1.0 },
        { -1.0, 1.0 },
        { -1.0, 1.0 },
        { -1.0, 1.0 },
        { -1.0, 1.0 },
        { -1.0, 1.0 },
        { -1.0, 1.0 },
        { -1.0, 1.0 },
        { -1.0, 1.0 },
        { -1.0, 1.0 },
        { -1.0, 1.0 },
        { -1.0, 1.0 },
        { -1.0, 1.0 },
        { -1.0, 1.0 },
        { -1.0, 1.0 },
        { -1.0, 1.0 },
        { -1.0, 1.0 },
        { -1.0, 1.0 },
        { -1.0, 1.0 },
        { -1.0, 1.0 },
        { -1.0, 1.0 } } };
static const double FE2_C0_Q24[1][24][1] =
    { { { 1.0 },
        { 1.0 },
        { 1.0 },
        { 1.0 },
        { 1.0 },
        { 1.0 },
        { 1.0 },
        { 1.0 },
        { 1.0 },
        { 1.0 },
        { 1.0 },
        { 1.0 },
        { 1.0 },
        { 1.0 },
        { 1.0 },
        { 1.0 },
        { 1.0 },
        { 1.0 },
        { 1.0 },
        { 1.0 },
        { 1.0 },
        { 1.0 },
        { 1.0 },
        { 1.0 } } };
// Section for piecewise constant computations
const double J_c4 = coordinate_dofs[1] * FE1_C0_D010_Q24[0][0][4 - 4] + coordinate_dofs[4] * FE1_C0_D010_Q24[0][0][5 - 4] + coordinate_dofs[7] * FE1_C0_D010_Q24[0][0][6 - 4];
const double J_c8 = coordinate_dofs[2] * FE1_C0_D001_Q24[0][0][8 - 8] + coordinate_dofs[5] * FE1_C0_D001_Q24[0][0][9 - 8] + coordinate_dofs[8] * FE1_C0_D001_Q24[0][0][10 - 8] + coordinate_dofs[11] * FE1_C0_D001_Q24[0][0][11 - 8];
const double J_c5 = coordinate_dofs[1] * FE1_C0_D001_Q24[0][0][4 - 4] + coordinate_dofs[4] * FE1_C0_D001_Q24[0][0][5 - 4] + coordinate_dofs[7] * FE1_C0_D001_Q24[0][0][6 - 4] + coordinate_dofs[10] * FE1_C0_D001_Q24[0][0][7 - 4];
const double J_c7 = coordinate_dofs[2] * FE1_C0_D010_Q24[0][0][8 - 8] + coordinate_dofs[5] * FE1_C0_D010_Q24[0][0][9 - 8] + coordinate_dofs[8] * FE1_C0_D010_Q24[0][0][10 - 8];
const double J_c0 = coordinate_dofs[0] * FE1_C0_D100_Q24[0][0][0 - 0] + coordinate_dofs[3] * FE1_C0_D100_Q24[0][0][1 - 0];
const double J_c1 = coordinate_dofs[0] * FE1_C0_D010_Q24[0][0][0 - 0] + coordinate_dofs[3] * FE1_C0_D010_Q24[0][0][1 - 0] + coordinate_dofs[6] * FE1_C0_D010_Q24[0][0][2 - 0];
const double J_c6 = coordinate_dofs[2] * FE1_C0_D100_Q24[0][0][8 - 8] + coordinate_dofs[5] * FE1_C0_D100_Q24[0][0][9 - 8];
const double J_c3 = coordinate_dofs[1] * FE1_C0_D100_Q24[0][0][4 - 4] + coordinate_dofs[4] * FE1_C0_D100_Q24[0][0][5 - 4];
const double J_c2 = coordinate_dofs[0] * FE1_C0_D001_Q24[0][0][0 - 0] + coordinate_dofs[3] * FE1_C0_D001_Q24[0][0][1 - 0] + coordinate_dofs[6] * FE1_C0_D001_Q24[0][0][2 - 0] + coordinate_dofs[9] * FE1_C0_D001_Q24[0][0][3 - 0];
double sp24[55];
sp24[0] = J_c4 * J_c8;
sp24[1] = J_c5 * J_c7;
sp24[2] = -1 * sp24[1];
sp24[3] = sp24[0] + sp24[2];
sp24[4] = J_c0 * sp24[3];
sp24[5] = J_c5 * J_c6;
sp24[6] = J_c3 * J_c8;
sp24[7] = -1 * sp24[6];
sp24[8] = sp24[5] + sp24[7];
sp24[9] = J_c1 * sp24[8];
sp24[10] = sp24[4] + sp24[9];
sp24[11] = J_c3 * J_c7;
sp24[12] = J_c4 * J_c6;
sp24[13] = -1 * sp24[12];
sp24[14] = sp24[11] + sp24[13];
sp24[15] = J_c2 * sp24[14];
sp24[16] = sp24[10] + sp24[15];
sp24[17] = sp24[3] / sp24[16];
sp24[18] = -1 * J_c8;
sp24[19] = J_c3 * sp24[18];
sp24[20] = sp24[5] + sp24[19];
sp24[21] = sp24[20] / sp24[16];
sp24[22] = sp24[14] / sp24[16];
sp24[23] = J_c2 * J_c7;
sp24[24] = -1 * J_c1;
sp24[25] = J_c8 * sp24[24];
sp24[26] = sp24[23] + sp24[25];
sp24[27] = sp24[26] / sp24[16];
sp24[28] = J_c0 * J_c8;
sp24[29] = -1 * J_c2;
sp24[30] = J_c6 * sp24[29];
sp24[31] = sp24[28] + sp24[30];
sp24[32] = sp24[31] / sp24[16];
sp24[33] = J_c1 * J_c6;
sp24[34] = J_c0 * J_c7;
sp24[35] = -1 * sp24[34];
sp24[36] = sp24[33] + sp24[35];
sp24[37] = sp24[36] / sp24[16];
sp24[38] = J_c1 * J_c5;
sp24[39] = J_c2 * J_c4;
sp24[40] = -1 * sp24[39];
sp24[41] = sp24[38] + sp24[40];
sp24[42] = sp24[41] / sp24[16];
sp24[43] = J_c2 * J_c3;
sp24[44] = J_c0 * J_c5;
sp24[45] = -1 * sp24[44];
sp24[46] = sp24[43] + sp24[45];
sp24[47] = sp24[46] / sp24[16];
sp24[48] = J_c0 * J_c4;
sp24[49] = J_c1 * J_c3;
sp24[50] = -1 * sp24[49];
sp24[51] = sp24[48] + sp24[50];
sp24[52] = sp24[51] / sp24[16];
sp24[53] = w2[0][0] / 2;
sp24[54] = fabs(sp24[16]);
for (int iq = 0; iq < 24; ++iq)
{
    // Quadrature loop body setup (num_points=24)
    // Section for geometrically varying computations
    double w_0_d0_c0 = 0.0;
    for (int ic = 0; ic < 10; ++ic)
    {
        w_0_d0_c0 += w0[0][ic] * FE0_C0_D100_Q24[0][iq][ic - 0];
    }
    double w_0_d1_c0 = 0.0;
    for (int ic = 0; ic < 10; ++ic)
    {
        w_0_d1_c0 += w0[0][ic] * FE0_C0_D010_Q24[0][iq][ic - 0];
    }
    double w_0_d2_c0 = 0.0;
    for (int ic = 0; ic < 10; ++ic)
    {
        w_0_d2_c0 += w0[0][ic] * FE0_C0_D001_Q24[0][iq][ic - 0];
    }
    double w_0_d0_c1 = 0.0;
    for (int ic = 10; ic < 20; ++ic)
    {
        w_0_d0_c1 += w0[0][ic] * FE0_C0_D100_Q24[0][iq][ic - 10];
    }
    double w_0_d1_c1 = 0.0;
    for (int ic = 10; ic < 20; ++ic)
    {
        w_0_d1_c1 += w0[0][ic] * FE0_C0_D010_Q24[0][iq][ic - 10];
    }
    double w_0_d2_c1 = 0.0;
    for (int ic = 10; ic < 20; ++ic)
    {
        w_0_d2_c1 += w0[0][ic] * FE0_C0_D001_Q24[0][iq][ic - 10];
    }
    double w_0_d0_c2 = 0.0;
    for (int ic = 20; ic < 30; ++ic)
    {
        w_0_d0_c2 += w0[0][ic] * FE0_C0_D100_Q24[0][iq][ic - 20];
    }
    double w_0_d1_c2 = 0.0;
    for (int ic = 20; ic < 30; ++ic)
    {
        w_0_d1_c2 += w0[0][ic] * FE0_C0_D010_Q24[0][iq][ic - 20];
    }
    double w_0_d2_c2 = 0.0;
    for (int ic = 20; ic < 30; ++ic)
    {
        w_0_d2_c2 += w0[0][ic] * FE0_C0_D001_Q24[0][iq][ic - 20];
    }
    double w_3_d0_c0 = 0.0;
    for (int ic = 0; ic < 10; ++ic)
    {
        w_3_d0_c0 += w3[0][ic] * FE0_C0_D100_Q24[0][iq][ic - 0];
    }
    double w_3_d1_c0 = 0.0;
    for (int ic = 0; ic < 10; ++ic)
    {
        w_3_d1_c0 += w3[0][ic] * FE0_C0_D010_Q24[0][iq][ic - 0];
    }
    double w_3_d2_c0 = 0.0;
    for (int ic = 0; ic < 10; ++ic)
    {
        w_3_d2_c0 += w3[0][ic] * FE0_C0_D001_Q24[0][iq][ic - 0];
    }
    double w_3_d0_c1 = 0.0;
    for (int ic = 10; ic < 20; ++ic)
    {
        w_3_d0_c1 += w3[0][ic] * FE0_C0_D100_Q24[0][iq][ic - 10];
    }
    double w_3_d1_c1 = 0.0;
    for (int ic = 10; ic < 20; ++ic)
    {
        w_3_d1_c1 += w3[0][ic] * FE0_C0_D010_Q24[0][iq][ic - 10];
    }
    double w_3_d2_c1 = 0.0;
    for (int ic = 10; ic < 20; ++ic)
    {
        w_3_d2_c1 += w3[0][ic] * FE0_C0_D001_Q24[0][iq][ic - 10];
    }
    double w_3_d0_c2 = 0.0;
    for (int ic = 20; ic < 30; ++ic)
    {
        w_3_d0_c2 += w3[0][ic] * FE0_C0_D100_Q24[0][iq][ic - 20];
    }
    double w_3_d1_c2 = 0.0;
    for (int ic = 20; ic < 30; ++ic)
    {
        w_3_d1_c2 += w3[0][ic] * FE0_C0_D010_Q24[0][iq][ic - 20];
    }
    double w_3_d2_c2 = 0.0;
    for (int ic = 20; ic < 30; ++ic)
    {
        w_3_d2_c2 += w3[0][ic] * FE0_C0_D001_Q24[0][iq][ic - 20];
    }
    double sv24[1564];
    sv24[0] = w_0_d0_c0 * sp24[17];
    sv24[1] = w_0_d1_c0 * sp24[21];
    sv24[2] = sv24[0] + sv24[1];
    sv24[3] = w_0_d2_c0 * sp24[22];
    sv24[4] = sv24[2] + sv24[3];
    sv24[5] = 1 + sv24[4];
    sv24[6] = sv24[5] * sp24[21];
    sv24[7] = sv24[5] * sp24[22];
    sv24[8] = sv24[5] * sp24[17];
    sv24[9] = sv24[8] + sv24[8];
    sv24[10] = sv24[6] + sv24[6];
    sv24[11] = sv24[7] + sv24[7];
    sv24[12] = w_0_d0_c1 * sp24[17];
    sv24[13] = w_0_d1_c1 * sp24[21];
    sv24[14] = sv24[12] + sv24[13];
    sv24[15] = w_0_d2_c1 * sp24[22];
    sv24[16] = sv24[14] + sv24[15];
    sv24[17] = sv24[16] * sp24[21];
    sv24[18] = sv24[16] * sp24[22];
    sv24[19] = sv24[16] * sp24[17];
    sv24[20] = sv24[19] + sv24[19];
    sv24[21] = sv24[17] + sv24[17];
    sv24[22] = sv24[18] + sv24[18];
    sv24[23] = w_0_d0_c2 * sp24[17];
    sv24[24] = w_0_d1_c2 * sp24[21];
    sv24[25] = sv24[23] + sv24[24];
    sv24[26] = w_0_d2_c2 * sp24[22];
    sv24[27] = sv24[25] + sv24[26];
    sv24[28] = sv24[27] * sp24[21];
    sv24[29] = sv24[27] * sp24[22];
    sv24[30] = sv24[27] * sp24[17];
    sv24[31] = sv24[30] + sv24[30];
    sv24[32] = sv24[28] + sv24[28];
    sv24[33] = sv24[29] + sv24[29];
    sv24[34] = sv24[22] / 2;
    sv24[35] = sv24[20] / 2;
    sv24[36] = sv24[31] / 2;
    sv24[37] = sv24[33] / 2;
    sv24[38] = sv24[32] / 2;
    sv24[39] = sv24[11] / 2;
    sv24[40] = sv24[9] / 2;
    sv24[41] = sv24[21] / 2;
    sv24[42] = sv24[10] / 2;
    sv24[43] = w_0_d0_c0 * sp24[27];
    sv24[44] = w_0_d1_c0 * sp24[32];
    sv24[45] = sv24[43] + sv24[44];
    sv24[46] = w_0_d2_c0 * sp24[37];
    sv24[47] = sv24[45] + sv24[46];
    sv24[48] = sv24[47] * sp24[32];
    sv24[49] = sv24[47] * sp24[37];
    sv24[50] = sv24[47] * sp24[27];
    sv24[51] = sv24[50] + sv24[50];
    sv24[52] = sv24[48] + sv24[48];
    sv24[53] = sv24[49] + sv24[49];
    sv24[54] = w_0_d0_c1 * sp24[27];
    sv24[55] = w_0_d1_c1 * sp24[32];
    sv24[56] = sv24[54] + sv24[55];
    sv24[57] = w_0_d2_c1 * sp24[37];
    sv24[58] = sv24[56] + sv24[57];
    sv24[59] = 1 + sv24[58];
    sv24[60] = sv24[59] * sp24[32];
    sv24[61] = sv24[59] * sp24[37];
    sv24[62] = sv24[59] * sp24[27];
    sv24[63] = sv24[62] + sv24[62];
    sv24[64] = sv24[60] + sv24[60];
    sv24[65] = sv24[61] + sv24[61];
    sv24[66] = w_0_d0_c2 * sp24[27];
    sv24[67] = w_0_d1_c2 * sp24[32];
    sv24[68] = sv24[66] + sv24[67];
    sv24[69] = w_0_d2_c2 * sp24[37];
    sv24[70] = sv24[68] + sv24[69];
    sv24[71] = sv24[70] * sp24[32];
    sv24[72] = sv24[70] * sp24[37];
    sv24[73] = sv24[70] * sp24[27];
    sv24[74] = sv24[73] + sv24[73];
    sv24[75] = sv24[71] + sv24[71];
    sv24[76] = sv24[72] + sv24[72];
    sv24[77] = sv24[65] / 2;
    sv24[78] = sv24[63] / 2;
    sv24[79] = sv24[74] / 2;
    sv24[80] = sv24[76] / 2;
    sv24[81] = sv24[75] / 2;
    sv24[82] = sv24[53] / 2;
    sv24[83] = sv24[51] / 2;
    sv24[84] = sv24[64] / 2;
    sv24[85] = sv24[52] / 2;
    sv24[86] = sv24[83] + sv24[40];
    sv24[87] = sv24[85] + sv24[42];
    sv24[88] = sv24[39] + sv24[82];
    sv24[89] = sv24[78] + sv24[35];
    sv24[90] = sv24[84] + sv24[41];
    sv24[91] = sv24[34] + sv24[77];
    sv24[92] = sv24[79] + sv24[36];
    sv24[93] = sv24[81] + sv24[38];
    sv24[94] = sv24[37] + sv24[80];
    sv24[95] = w_0_d0_c0 * sp24[42];
    sv24[96] = w_0_d1_c0 * sp24[47];
    sv24[97] = sv24[95] + sv24[96];
    sv24[98] = w_0_d2_c0 * sp24[52];
    sv24[99] = sv24[97] + sv24[98];
    sv24[100] = sv24[99] * sp24[47];
    sv24[101] = sv24[99] * sp24[52];
    sv24[102] = sv24[99] * sp24[42];
    sv24[103] = sv24[102] + sv24[102];
    sv24[104] = sv24[100] + sv24[100];
    sv24[105] = sv24[101] + sv24[101];
    sv24[106] = w_0_d0_c1 * sp24[42];
    sv24[107] = w_0_d1_c1 * sp24[47];
    sv24[108] = sv24[106] + sv24[107];
    sv24[109] = w_0_d2_c1 * sp24[52];
    sv24[110] = sv24[108] + sv24[109];
    sv24[111] = sv24[110] * sp24[47];
    sv24[112] = sv24[110] * sp24[52];
    sv24[113] = sv24[110] * sp24[42];
    sv24[114] = sv24[113] + sv24[113];
    sv24[115] = sv24[111] + sv24[111];
    sv24[116] = sv24[112] + sv24[112];
    sv24[117] = w_0_d0_c2 * sp24[42];
    sv24[118] = w_0_d1_c2 * sp24[47];
    sv24[119] = sv24[117] + sv24[118];
    sv24[120] = w_0_d2_c2 * sp24[52];
    sv24[121] = sv24[119] + sv24[120];
    sv24[122] = 1 + sv24[121];
    sv24[123] = sv24[122] * sp24[47];
    sv24[124] = sv24[122] * sp24[52];
    sv24[125] = sv24[122] * sp24[42];
    sv24[126] = sv24[125] + sv24[125];
    sv24[127] = sv24[123] + sv24[123];
    sv24[128] = sv24[124] + sv24[124];
    sv24[129] = sv24[116] / 2;
    sv24[130] = sv24[114] / 2;
    sv24[131] = sv24[126] / 2;
    sv24[132] = sv24[128] / 2;
    sv24[133] = sv24[127] / 2;
    sv24[134] = sv24[105] / 2;
    sv24[135] = sv24[103] / 2;
    sv24[136] = sv24[115] / 2;
    sv24[137] = sv24[104] / 2;
    sv24[138] = sv24[86] + sv24[135];
    sv24[139] = sv24[87] + sv24[137];
    sv24[140] = sv24[88] + sv24[134];
    sv24[141] = sv24[89] + sv24[130];
    sv24[142] = sv24[90] + sv24[136];
    sv24[143] = sv24[91] + sv24[129];
    sv24[144] = sv24[92] + sv24[131];
    sv24[145] = sv24[93] + sv24[133];
    sv24[146] = sv24[94] + sv24[132];
    sv24[147] = 2 * sv24[143];
    sv24[148] = 2 * sv24[141];
    sv24[149] = 2 * sv24[144];
    sv24[150] = 2 * sv24[146];
    sv24[151] = 2 * sv24[145];
    sv24[152] = 2 * sv24[140];
    sv24[153] = 2 * sv24[138];
    sv24[154] = 2 * sv24[142];
    sv24[155] = 2 * sv24[139];
    sv24[156] = sv24[147] * sp24[53];
    sv24[157] = sv24[148] * sp24[53];
    sv24[158] = sv24[149] * sp24[53];
    sv24[159] = sv24[155] * sp24[53];
    sv24[160] = sv24[151] * sp24[53];
    sv24[161] = sv24[152] * sp24[53];
    sv24[162] = sv24[153] * sp24[53];
    sv24[163] = sv24[154] * sp24[53];
    sv24[164] = sv24[150] * sp24[53];
    sv24[165] = sv24[40] + sv24[40];
    sv24[166] = sv24[42] + sv24[42];
    sv24[167] = sv24[39] + sv24[39];
    sv24[168] = sv24[35] + sv24[35];
    sv24[169] = sv24[41] + sv24[41];
    sv24[170] = sv24[34] + sv24[34];
    sv24[171] = sv24[36] + sv24[36];
    sv24[172] = sv24[38] + sv24[38];
    sv24[173] = sv24[37] + sv24[37];
    sv24[174] = sv24[170] * w1[0][0];
    sv24[175] = sv24[168] * w1[0][0];
    sv24[176] = sv24[171] * w1[0][0];
    sv24[177] = sv24[173] * w1[0][0];
    sv24[178] = sv24[172] * w1[0][0];
    sv24[179] = sv24[167] * w1[0][0];
    sv24[180] = sv24[165] * w1[0][0];
    sv24[181] = sv24[169] * w1[0][0];
    sv24[182] = sv24[166] * w1[0][0];
    sv24[183] = sv24[162] + sv24[180];
    sv24[184] = sv24[159] + sv24[182];
    sv24[185] = sv24[161] + sv24[179];
    sv24[186] = sv24[157] + sv24[175];
    sv24[187] = sv24[163] + sv24[181];
    sv24[188] = sv24[156] + sv24[174];
    sv24[189] = sv24[158] + sv24[176];
    sv24[190] = sv24[160] + sv24[178];
    sv24[191] = sv24[164] + sv24[177];
    sv24[192] = sv24[5] * sv24[188];
    sv24[193] = sv24[5] * sv24[186];
    sv24[194] = sv24[5] * sv24[189];
    sv24[195] = sv24[5] * sv24[191];
    sv24[196] = sv24[5] * sv24[190];
    sv24[197] = sv24[5] * sv24[185];
    sv24[198] = sv24[5] * sv24[183];
    sv24[199] = sv24[5] * sv24[187];
    sv24[200] = sv24[5] * sv24[184];
    sv24[201] = sv24[5] * sv24[5];
    sv24[202] = sv24[16] * sv24[16];
    sv24[203] = sv24[201] + sv24[202];
    sv24[204] = sv24[27] * sv24[27];
    sv24[205] = sv24[203] + sv24[204];
    sv24[206] = -1 + sv24[205];
    sv24[207] = sv24[206] / 2;
    sv24[208] = sv24[59] * sv24[59];
    sv24[209] = sv24[47] * sv24[47];
    sv24[210] = sv24[208] + sv24[209];
    sv24[211] = sv24[70] * sv24[70];
    sv24[212] = sv24[210] + sv24[211];
    sv24[213] = -1 + sv24[212];
    sv24[214] = sv24[213] / 2;
    sv24[215] = sv24[207] + sv24[214];
    sv24[216] = sv24[99] * sv24[99];
    sv24[217] = sv24[110] * sv24[110];
    sv24[218] = sv24[216] + sv24[217];
    sv24[219] = sv24[122] * sv24[122];
    sv24[220] = sv24[218] + sv24[219];
    sv24[221] = -1 + sv24[220];
    sv24[222] = sv24[221] / 2;
    sv24[223] = sv24[215] + sv24[222];
    sv24[224] = 2 * sv24[223];
    sv24[225] = sv24[224] * sp24[53];
    sv24[226] = sv24[207] + sv24[207];
    sv24[227] = sv24[226] * w1[0][0];
    sv24[228] = sv24[225] + sv24[227];
    sv24[229] = sv24[228] * sp24[21];
    sv24[230] = sv24[228] * sp24[22];
    sv24[231] = sv24[228] * sp24[17];
    sv24[232] = sv24[198] + sv24[231];
    sv24[233] = sv24[200] + sv24[229];
    sv24[234] = sv24[197] + sv24[230];
    sv24[235] = sv24[5] * sp24[32];
    sv24[236] = sv24[5] * sp24[37];
    sv24[237] = sv24[5] * sp24[27];
    sv24[238] = sv24[47] * sp24[21];
    sv24[239] = sv24[47] * sp24[22];
    sv24[240] = sv24[47] * sp24[17];
    sv24[241] = sv24[237] + sv24[240];
    sv24[242] = sv24[235] + sv24[238];
    sv24[243] = sv24[239] + sv24[236];
    sv24[244] = sv24[59] * sp24[21];
    sv24[245] = sv24[59] * sp24[22];
    sv24[246] = sv24[59] * sp24[17];
    sv24[247] = sv24[16] * sp24[32];
    sv24[248] = sv24[16] * sp24[37];
    sv24[249] = sv24[16] * sp24[27];
    sv24[250] = sv24[249] + sv24[246];
    sv24[251] = sv24[247] + sv24[244];
    sv24[252] = sv24[245] + sv24[248];
    sv24[253] = sv24[27] * sp24[32];
    sv24[254] = sv24[27] * sp24[37];
    sv24[255] = sv24[27] * sp24[27];
    sv24[256] = sv24[70] * sp24[21];
    sv24[257] = sv24[70] * sp24[22];
    sv24[258] = sv24[70] * sp24[17];
    sv24[259] = sv24[255] + sv24[258];
    sv24[260] = sv24[253] + sv24[256];
    sv24[261] = sv24[257] + sv24[254];
    sv24[262] = sv24[252] / 2;
    sv24[263] = sv24[250] / 2;
    sv24[264] = sv24[259] / 2;
    sv24[265] = sv24[261] / 2;
    sv24[266] = sv24[260] / 2;
    sv24[267] = sv24[243] / 2;
    sv24[268] = sv24[241] / 2;
    sv24[269] = sv24[251] / 2;
    sv24[270] = sv24[242] / 2;
    sv24[271] = sv24[268] + sv24[268];
    sv24[272] = sv24[270] + sv24[270];
    sv24[273] = sv24[267] + sv24[267];
    sv24[274] = sv24[263] + sv24[263];
    sv24[275] = sv24[269] + sv24[269];
    sv24[276] = sv24[262] + sv24[262];
    sv24[277] = sv24[264] + sv24[264];
    sv24[278] = sv24[266] + sv24[266];
    sv24[279] = sv24[265] + sv24[265];
    sv24[280] = sv24[276] * w1[0][0];
    sv24[281] = sv24[274] * w1[0][0];
    sv24[282] = sv24[277] * w1[0][0];
    sv24[283] = sv24[279] * w1[0][0];
    sv24[284] = sv24[278] * w1[0][0];
    sv24[285] = sv24[273] * w1[0][0];
    sv24[286] = sv24[271] * w1[0][0];
    sv24[287] = sv24[275] * w1[0][0];
    sv24[288] = sv24[272] * w1[0][0];
    sv24[289] = sv24[47] * sv24[280];
    sv24[290] = sv24[47] * sv24[281];
    sv24[291] = sv24[47] * sv24[282];
    sv24[292] = sv24[47] * sv24[288];
    sv24[293] = sv24[47] * sv24[284];
    sv24[294] = sv24[47] * sv24[285];
    sv24[295] = sv24[47] * sv24[286];
    sv24[296] = sv24[47] * sv24[287];
    sv24[297] = sv24[47] * sv24[283];
    sv24[298] = sv24[59] * sv24[16];
    sv24[299] = sv24[5] * sv24[47];
    sv24[300] = sv24[298] + sv24[299];
    sv24[301] = sv24[27] * sv24[70];
    sv24[302] = sv24[300] + sv24[301];
    sv24[303] = sv24[302] / 2;
    sv24[304] = sv24[303] + sv24[303];
    sv24[305] = sv24[304] * w1[0][0];
    sv24[306] = sv24[305] * sp24[32];
    sv24[307] = sv24[305] * sp24[37];
    sv24[308] = sv24[305] * sp24[27];
    sv24[309] = sv24[295] + sv24[308];
    sv24[310] = sv24[292] + sv24[306];
    sv24[311] = sv24[294] + sv24[307];
    sv24[312] = sv24[309] + sv24[232];
    sv24[313] = sv24[310] + sv24[233];
    sv24[314] = sv24[234] + sv24[311];
    sv24[315] = sv24[193] + sv24[290];
    sv24[316] = sv24[199] + sv24[296];
    sv24[317] = sv24[192] + sv24[289];
    sv24[318] = sv24[194] + sv24[291];
    sv24[319] = sv24[196] + sv24[293];
    sv24[320] = sv24[195] + sv24[297];
    sv24[321] = sv24[5] * sp24[47];
    sv24[322] = sv24[5] * sp24[52];
    sv24[323] = sv24[5] * sp24[42];
    sv24[324] = sv24[99] * sp24[21];
    sv24[325] = sv24[99] * sp24[22];
    sv24[326] = sv24[99] * sp24[17];
    sv24[327] = sv24[323] + sv24[326];
    sv24[328] = sv24[321] + sv24[324];
    sv24[329] = sv24[322] + sv24[325];
    sv24[330] = sv24[110] * sp24[21];
    sv24[331] = sv24[110] * sp24[22];
    sv24[332] = sv24[110] * sp24[17];
    sv24[333] = sv24[16] * sp24[47];
    sv24[334] = sv24[16] * sp24[52];
    sv24[335] = sv24[16] * sp24[42];
    sv24[336] = sv24[335] + sv24[332];
    sv24[337] = sv24[333] + sv24[330];
    sv24[338] = sv24[334] + sv24[331];
    sv24[339] = sv24[122] * sp24[21];
    sv24[340] = sv24[122] * sp24[22];
    sv24[341] = sv24[122] * sp24[17];
    sv24[342] = sv24[27] * sp24[47];
    sv24[343] = sv24[27] * sp24[52];
    sv24[344] = sv24[27] * sp24[42];
    sv24[345] = sv24[344] + sv24[341];
    sv24[346] = sv24[342] + sv24[339];
    sv24[347] = sv24[343] + sv24[340];
    sv24[348] = sv24[338] / 2;
    sv24[349] = sv24[336] / 2;
    sv24[350] = sv24[345] / 2;
    sv24[351] = sv24[347] / 2;
    sv24[352] = sv24[346] / 2;
    sv24[353] = sv24[329] / 2;
    sv24[354] = sv24[327] / 2;
    sv24[355] = sv24[337] / 2;
    sv24[356] = sv24[328] / 2;
    sv24[357] = sv24[354] + sv24[354];
    sv24[358] = sv24[356] + sv24[356];
    sv24[359] = sv24[353] + sv24[353];
    sv24[360] = sv24[349] + sv24[349];
    sv24[361] = sv24[355] + sv24[355];
    sv24[362] = sv24[348] + sv24[348];
    sv24[363] = sv24[350] + sv24[350];
    sv24[364] = sv24[352] + sv24[352];
    sv24[365] = sv24[351] + sv24[351];
    sv24[366] = sv24[362] * w1[0][0];
    sv24[367] = sv24[360] * w1[0][0];
    sv24[368] = sv24[363] * w1[0][0];
    sv24[369] = sv24[365] * w1[0][0];
    sv24[370] = sv24[364] * w1[0][0];
    sv24[371] = sv24[359] * w1[0][0];
    sv24[372] = sv24[357] * w1[0][0];
    sv24[373] = sv24[361] * w1[0][0];
    sv24[374] = sv24[358] * w1[0][0];
    sv24[375] = sv24[99] * sv24[366];
    sv24[376] = sv24[99] * sv24[367];
    sv24[377] = sv24[99] * sv24[368];
    sv24[378] = sv24[99] * sv24[374];
    sv24[379] = sv24[99] * sv24[370];
    sv24[380] = sv24[99] * sv24[371];
    sv24[381] = sv24[99] * sv24[372];
    sv24[382] = sv24[99] * sv24[373];
    sv24[383] = sv24[99] * sv24[369];
    sv24[384] = sv24[5] * sv24[99];
    sv24[385] = sv24[110] * sv24[16];
    sv24[386] = sv24[384] + sv24[385];
    sv24[387] = sv24[122] * sv24[27];
    sv24[388] = sv24[386] + sv24[387];
    sv24[389] = sv24[388] / 2;
    sv24[390] = sv24[389] + sv24[389];
    sv24[391] = sv24[390] * w1[0][0];
    sv24[392] = sv24[391] * sp24[47];
    sv24[393] = sv24[391] * sp24[52];
    sv24[394] = sv24[391] * sp24[42];
    sv24[395] = sv24[381] + sv24[394];
    sv24[396] = sv24[378] + sv24[392];
    sv24[397] = sv24[380] + sv24[393];
    sv24[398] = sv24[312] + sv24[395];
    sv24[399] = sv24[313] + sv24[396];
    sv24[400] = sv24[314] + sv24[397];
    sv24[401] = sv24[315] + sv24[376];
    sv24[402] = sv24[316] + sv24[382];
    sv24[403] = sv24[317] + sv24[375];
    sv24[404] = sv24[318] + sv24[377];
    sv24[405] = sv24[319] + sv24[379];
    sv24[406] = sv24[320] + sv24[383];
    sv24[407] = sv24[403] * sp24[21];
    sv24[408] = sv24[403] * sp24[22];
    sv24[409] = sv24[403] * sp24[17];
    sv24[410] = sv24[401] * sp24[21];
    sv24[411] = sv24[401] * sp24[22];
    sv24[412] = sv24[401] * sp24[17];
    sv24[413] = sv24[404] * sp24[21];
    sv24[414] = sv24[404] * sp24[22];
    sv24[415] = sv24[404] * sp24[17];
    sv24[416] = sv24[406] * sp24[21];
    sv24[417] = sv24[406] * sp24[22];
    sv24[418] = sv24[406] * sp24[17];
    sv24[419] = sv24[405] * sp24[21];
    sv24[420] = sv24[405] * sp24[22];
    sv24[421] = sv24[405] * sp24[17];
    sv24[422] = sv24[400] * sp24[21];
    sv24[423] = sv24[400] * sp24[22];
    sv24[424] = sv24[400] * sp24[17];
    sv24[425] = sv24[398] * sp24[21];
    sv24[426] = sv24[398] * sp24[22];
    sv24[427] = sv24[398] * sp24[17];
    sv24[428] = sv24[402] * sp24[21];
    sv24[429] = sv24[402] * sp24[22];
    sv24[430] = sv24[402] * sp24[17];
    sv24[431] = sv24[399] * sp24[21];
    sv24[432] = sv24[399] * sp24[22];
    sv24[433] = sv24[399] * sp24[17];
    sv24[434] = sv24[16] * sv24[188];
    sv24[435] = sv24[16] * sv24[186];
    sv24[436] = sv24[16] * sv24[189];
    sv24[437] = sv24[16] * sv24[191];
    sv24[438] = sv24[16] * sv24[190];
    sv24[439] = sv24[16] * sv24[185];
    sv24[440] = sv24[16] * sv24[183];
    sv24[441] = sv24[16] * sv24[187];
    sv24[442] = sv24[16] * sv24[184];
    sv24[443] = sv24[435] + sv24[231];
    sv24[444] = sv24[441] + sv24[229];
    sv24[445] = sv24[434] + sv24[230];
    sv24[446] = sv24[59] * sv24[280];
    sv24[447] = sv24[59] * sv24[281];
    sv24[448] = sv24[59] * sv24[282];
    sv24[449] = sv24[59] * sv24[288];
    sv24[450] = sv24[59] * sv24[284];
    sv24[451] = sv24[59] * sv24[285];
    sv24[452] = sv24[59] * sv24[286];
    sv24[453] = sv24[59] * sv24[287];
    sv24[454] = sv24[59] * sv24[283];
    sv24[455] = sv24[447] + sv24[308];
    sv24[456] = sv24[453] + sv24[306];
    sv24[457] = sv24[446] + sv24[307];
    sv24[458] = sv24[440] + sv24[452];
    sv24[459] = sv24[442] + sv24[449];
    sv24[460] = sv24[439] + sv24[451];
    sv24[461] = sv24[455] + sv24[443];
    sv24[462] = sv24[456] + sv24[444];
    sv24[463] = sv24[445] + sv24[457];
    sv24[464] = sv24[436] + sv24[448];
    sv24[465] = sv24[438] + sv24[450];
    sv24[466] = sv24[437] + sv24[454];
    sv24[467] = sv24[110] * sv24[366];
    sv24[468] = sv24[110] * sv24[367];
    sv24[469] = sv24[110] * sv24[368];
    sv24[470] = sv24[110] * sv24[374];
    sv24[471] = sv24[110] * sv24[370];
    sv24[472] = sv24[110] * sv24[371];
    sv24[473] = sv24[110] * sv24[372];
    sv24[474] = sv24[110] * sv24[373];
    sv24[475] = sv24[110] * sv24[369];
    sv24[476] = sv24[468] + sv24[394];
    sv24[477] = sv24[474] + sv24[392];
    sv24[478] = sv24[467] + sv24[393];
    sv24[479] = sv24[458] + sv24[473];
    sv24[480] = sv24[459] + sv24[470];
    sv24[481] = sv24[460] + sv24[472];
    sv24[482] = sv24[461] + sv24[476];
    sv24[483] = sv24[462] + sv24[477];
    sv24[484] = sv24[463] + sv24[478];
    sv24[485] = sv24[464] + sv24[469];
    sv24[486] = sv24[465] + sv24[471];
    sv24[487] = sv24[466] + sv24[475];
    sv24[488] = sv24[484] * sp24[21];
    sv24[489] = sv24[484] * sp24[22];
    sv24[490] = sv24[484] * sp24[17];
    sv24[491] = sv24[482] * sp24[21];
    sv24[492] = sv24[482] * sp24[22];
    sv24[493] = sv24[482] * sp24[17];
    sv24[494] = sv24[485] * sp24[21];
    sv24[495] = sv24[485] * sp24[22];
    sv24[496] = sv24[485] * sp24[17];
    sv24[497] = sv24[487] * sp24[21];
    sv24[498] = sv24[487] * sp24[22];
    sv24[499] = sv24[487] * sp24[17];
    sv24[500] = sv24[486] * sp24[21];
    sv24[501] = sv24[486] * sp24[22];
    sv24[502] = sv24[486] * sp24[17];
    sv24[503] = sv24[481] * sp24[21];
    sv24[504] = sv24[481] * sp24[22];
    sv24[505] = sv24[481] * sp24[17];
    sv24[506] = sv24[479] * sp24[21];
    sv24[507] = sv24[479] * sp24[22];
    sv24[508] = sv24[479] * sp24[17];
    sv24[509] = sv24[483] * sp24[21];
    sv24[510] = sv24[483] * sp24[22];
    sv24[511] = sv24[483] * sp24[17];
    sv24[512] = sv24[480] * sp24[21];
    sv24[513] = sv24[480] * sp24[22];
    sv24[514] = sv24[480] * sp24[17];
    sv24[515] = sv24[27] * sv24[188];
    sv24[516] = sv24[27] * sv24[186];
    sv24[517] = sv24[27] * sv24[189];
    sv24[518] = sv24[27] * sv24[191];
    sv24[519] = sv24[27] * sv24[190];
    sv24[520] = sv24[27] * sv24[185];
    sv24[521] = sv24[27] * sv24[183];
    sv24[522] = sv24[27] * sv24[187];
    sv24[523] = sv24[27] * sv24[184];
    sv24[524] = sv24[517] + sv24[231];
    sv24[525] = sv24[519] + sv24[229];
    sv24[526] = sv24[518] + sv24[230];
    sv24[527] = sv24[70] * sv24[280];
    sv24[528] = sv24[70] * sv24[281];
    sv24[529] = sv24[70] * sv24[282];
    sv24[530] = sv24[70] * sv24[288];
    sv24[531] = sv24[70] * sv24[284];
    sv24[532] = sv24[70] * sv24[285];
    sv24[533] = sv24[70] * sv24[286];
    sv24[534] = sv24[70] * sv24[287];
    sv24[535] = sv24[70] * sv24[283];
    sv24[536] = sv24[529] + sv24[308];
    sv24[537] = sv24[531] + sv24[306];
    sv24[538] = sv24[535] + sv24[307];
    sv24[539] = sv24[521] + sv24[533];
    sv24[540] = sv24[523] + sv24[530];
    sv24[541] = sv24[520] + sv24[532];
    sv24[542] = sv24[516] + sv24[528];
    sv24[543] = sv24[522] + sv24[534];
    sv24[544] = sv24[515] + sv24[527];
    sv24[545] = sv24[536] + sv24[524];
    sv24[546] = sv24[537] + sv24[525];
    sv24[547] = sv24[526] + sv24[538];
    sv24[548] = sv24[122] * sv24[366];
    sv24[549] = sv24[122] * sv24[367];
    sv24[550] = sv24[122] * sv24[368];
    sv24[551] = sv24[122] * sv24[374];
    sv24[552] = sv24[122] * sv24[370];
    sv24[553] = sv24[122] * sv24[371];
    sv24[554] = sv24[122] * sv24[372];
    sv24[555] = sv24[122] * sv24[373];
    sv24[556] = sv24[122] * sv24[369];
    sv24[557] = sv24[550] + sv24[394];
    sv24[558] = sv24[552] + sv24[392];
    sv24[559] = sv24[556] + sv24[393];
    sv24[560] = sv24[539] + sv24[554];
    sv24[561] = sv24[540] + sv24[551];
    sv24[562] = sv24[541] + sv24[553];
    sv24[563] = sv24[542] + sv24[549];
    sv24[564] = sv24[543] + sv24[555];
    sv24[565] = sv24[544] + sv24[548];
    sv24[566] = sv24[545] + sv24[557];
    sv24[567] = sv24[546] + sv24[558];
    sv24[568] = sv24[547] + sv24[559];
    sv24[569] = sv24[565] * sp24[21];
    sv24[570] = sv24[565] * sp24[22];
    sv24[571] = sv24[565] * sp24[17];
    sv24[572] = sv24[563] * sp24[21];
    sv24[573] = sv24[563] * sp24[22];
    sv24[574] = sv24[563] * sp24[17];
    sv24[575] = sv24[566] * sp24[21];
    sv24[576] = sv24[566] * sp24[22];
    sv24[577] = sv24[566] * sp24[17];
    sv24[578] = sv24[568] * sp24[21];
    sv24[579] = sv24[568] * sp24[22];
    sv24[580] = sv24[568] * sp24[17];
    sv24[581] = sv24[567] * sp24[21];
    sv24[582] = sv24[567] * sp24[22];
    sv24[583] = sv24[567] * sp24[17];
    sv24[584] = sv24[562] * sp24[21];
    sv24[585] = sv24[562] * sp24[22];
    sv24[586] = sv24[562] * sp24[17];
    sv24[587] = sv24[560] * sp24[21];
    sv24[588] = sv24[560] * sp24[22];
    sv24[589] = sv24[560] * sp24[17];
    sv24[590] = sv24[564] * sp24[21];
    sv24[591] = sv24[564] * sp24[22];
    sv24[592] = sv24[564] * sp24[17];
    sv24[593] = sv24[561] * sp24[21];
    sv24[594] = sv24[561] * sp24[22];
    sv24[595] = sv24[561] * sp24[17];
    sv24[596] = sv24[83] + sv24[83];
    sv24[597] = sv24[85] + sv24[85];
    sv24[598] = sv24[82] + sv24[82];
    sv24[599] = sv24[78] + sv24[78];
    sv24[600] = sv24[84] + sv24[84];
    sv24[601] = sv24[77] + sv24[77];
    sv24[602] = sv24[79] + sv24[79];
    sv24[603] = sv24[81] + sv24[81];
    sv24[604] = sv24[80] + sv24[80];
    sv24[605] = sv24[601] * w1[0][0];
    sv24[606] = sv24[599] * w1[0][0];
    sv24[607] = sv24[602] * w1[0][0];
    sv24[608] = sv24[604] * w1[0][0];
    sv24[609] = sv24[603] * w1[0][0];
    sv24[610] = sv24[598] * w1[0][0];
    sv24[611] = sv24[596] * w1[0][0];
    sv24[612] = sv24[600] * w1[0][0];
    sv24[613] = sv24[597] * w1[0][0];
    sv24[614] = sv24[162] + sv24[611];
    sv24[615] = sv24[159] + sv24[613];
    sv24[616] = sv24[161] + sv24[610];
    sv24[617] = sv24[157] + sv24[606];
    sv24[618] = sv24[163] + sv24[612];
    sv24[619] = sv24[156] + sv24[605];
    sv24[620] = sv24[158] + sv24[607];
    sv24[621] = sv24[160] + sv24[609];
    sv24[622] = sv24[164] + sv24[608];
    sv24[623] = sv24[47] * sv24[619];
    sv24[624] = sv24[47] * sv24[617];
    sv24[625] = sv24[47] * sv24[620];
    sv24[626] = sv24[47] * sv24[622];
    sv24[627] = sv24[47] * sv24[621];
    sv24[628] = sv24[47] * sv24[616];
    sv24[629] = sv24[47] * sv24[614];
    sv24[630] = sv24[47] * sv24[618];
    sv24[631] = sv24[47] * sv24[615];
    sv24[632] = sv24[214] + sv24[214];
    sv24[633] = sv24[632] * w1[0][0];
    sv24[634] = sv24[225] + sv24[633];
    sv24[635] = sv24[634] * sp24[32];
    sv24[636] = sv24[634] * sp24[37];
    sv24[637] = sv24[634] * sp24[27];
    sv24[638] = sv24[629] + sv24[637];
    sv24[639] = sv24[631] + sv24[635];
    sv24[640] = sv24[628] + sv24[636];
    sv24[641] = sv24[5] * sv24[280];
    sv24[642] = sv24[5] * sv24[281];
    sv24[643] = sv24[5] * sv24[282];
    sv24[644] = sv24[5] * sv24[288];
    sv24[645] = sv24[5] * sv24[284];
    sv24[646] = sv24[5] * sv24[285];
    sv24[647] = sv24[5] * sv24[286];
    sv24[648] = sv24[5] * sv24[287];
    sv24[649] = sv24[5] * sv24[283];
    sv24[650] = sv24[305] * sp24[21];
    sv24[651] = sv24[305] * sp24[22];
    sv24[652] = sv24[305] * sp24[17];
    sv24[653] = sv24[647] + sv24[652];
    sv24[654] = sv24[644] + sv24[650];
    sv24[655] = sv24[646] + sv24[651];
    sv24[656] = sv24[638] + sv24[653];
    sv24[657] = sv24[639] + sv24[654];
    sv24[658] = sv24[655] + sv24[640];
    sv24[659] = sv24[624] + sv24[642];
    sv24[660] = sv24[630] + sv24[648];
    sv24[661] = sv24[623] + sv24[641];
    sv24[662] = sv24[625] + sv24[643];
    sv24[663] = sv24[627] + sv24[645];
    sv24[664] = sv24[626] + sv24[649];
    sv24[665] = sv24[99] * sp24[32];
    sv24[666] = sv24[99] * sp24[37];
    sv24[667] = sv24[99] * sp24[27];
    sv24[668] = sv24[47] * sp24[47];
    sv24[669] = sv24[47] * sp24[52];
    sv24[670] = sv24[47] * sp24[42];
    sv24[671] = sv24[667] + sv24[670];
    sv24[672] = sv24[665] + sv24[668];
    sv24[673] = sv24[669] + sv24[666];
    sv24[674] = sv24[59] * sp24[47];
    sv24[675] = sv24[59] * sp24[52];
    sv24[676] = sv24[59] * sp24[42];
    sv24[677] = sv24[110] * sp24[32];
    sv24[678] = sv24[110] * sp24[37];
    sv24[679] = sv24[110] * sp24[27];
    sv24[680] = sv24[679] + sv24[676];
    sv24[681] = sv24[677] + sv24[674];
    sv24[682] = sv24[675] + sv24[678];
    sv24[683] = sv24[122] * sp24[32];
    sv24[684] = sv24[122] * sp24[37];
    sv24[685] = sv24[122] * sp24[27];
    sv24[686] = sv24[70] * sp24[47];
    sv24[687] = sv24[70] * sp24[52];
    sv24[688] = sv24[70] * sp24[42];
    sv24[689] = sv24[685] + sv24[688];
    sv24[690] = sv24[683] + sv24[686];
    sv24[691] = sv24[687] + sv24[684];
    sv24[692] = sv24[682] / 2;
    sv24[693] = sv24[680] / 2;
    sv24[694] = sv24[689] / 2;
    sv24[695] = sv24[691] / 2;
    sv24[696] = sv24[690] / 2;
    sv24[697] = sv24[673] / 2;
    sv24[698] = sv24[671] / 2;
    sv24[699] = sv24[681] / 2;
    sv24[700] = sv24[672] / 2;
    sv24[701] = sv24[698] + sv24[698];
    sv24[702] = sv24[700] + sv24[700];
    sv24[703] = sv24[697] + sv24[697];
    sv24[704] = sv24[693] + sv24[693];
    sv24[705] = sv24[699] + sv24[699];
    sv24[706] = sv24[692] + sv24[692];
    sv24[707] = sv24[694] + sv24[694];
    sv24[708] = sv24[696] + sv24[696];
    sv24[709] = sv24[695] + sv24[695];
    sv24[710] = sv24[706] * w1[0][0];
    sv24[711] = sv24[704] * w1[0][0];
    sv24[712] = sv24[707] * w1[0][0];
    sv24[713] = sv24[709] * w1[0][0];
    sv24[714] = sv24[708] * w1[0][0];
    sv24[715] = sv24[703] * w1[0][0];
    sv24[716] = sv24[701] * w1[0][0];
    sv24[717] = sv24[705] * w1[0][0];
    sv24[718] = sv24[702] * w1[0][0];
    sv24[719] = sv24[99] * sv24[710];
    sv24[720] = sv24[99] * sv24[711];
    sv24[721] = sv24[99] * sv24[712];
    sv24[722] = sv24[99] * sv24[718];
    sv24[723] = sv24[99] * sv24[714];
    sv24[724] = sv24[99] * sv24[715];
    sv24[725] = sv24[99] * sv24[716];
    sv24[726] = sv24[99] * sv24[717];
    sv24[727] = sv24[99] * sv24[713];
    sv24[728] = sv24[59] * sv24[110];
    sv24[729] = sv24[99] * sv24[47];
    sv24[730] = sv24[728] + sv24[729];
    sv24[731] = sv24[122] * sv24[70];
    sv24[732] = sv24[730] + sv24[731];
    sv24[733] = sv24[732] / 2;
    sv24[734] = sv24[733] + sv24[733];
    sv24[735] = sv24[734] * w1[0][0];
    sv24[736] = sv24[735] * sp24[47];
    sv24[737] = sv24[735] * sp24[52];
    sv24[738] = sv24[735] * sp24[42];
    sv24[739] = sv24[725] + sv24[738];
    sv24[740] = sv24[722] + sv24[736];
    sv24[741] = sv24[724] + sv24[737];
    sv24[742] = sv24[656] + sv24[739];
    sv24[743] = sv24[657] + sv24[740];
    sv24[744] = sv24[658] + sv24[741];
    sv24[745] = sv24[659] + sv24[720];
    sv24[746] = sv24[660] + sv24[726];
    sv24[747] = sv24[661] + sv24[719];
    sv24[748] = sv24[662] + sv24[721];
    sv24[749] = sv24[663] + sv24[723];
    sv24[750] = sv24[664] + sv24[727];
    sv24[751] = sv24[747] * sp24[32];
    sv24[752] = sv24[747] * sp24[37];
    sv24[753] = sv24[747] * sp24[27];
    sv24[754] = sv24[745] * sp24[32];
    sv24[755] = sv24[745] * sp24[37];
    sv24[756] = sv24[745] * sp24[27];
    sv24[757] = sv24[748] * sp24[32];
    sv24[758] = sv24[748] * sp24[37];
    sv24[759] = sv24[748] * sp24[27];
    sv24[760] = sv24[750] * sp24[32];
    sv24[761] = sv24[750] * sp24[37];
    sv24[762] = sv24[750] * sp24[27];
    sv24[763] = sv24[749] * sp24[32];
    sv24[764] = sv24[749] * sp24[37];
    sv24[765] = sv24[749] * sp24[27];
    sv24[766] = sv24[744] * sp24[32];
    sv24[767] = sv24[744] * sp24[37];
    sv24[768] = sv24[744] * sp24[27];
    sv24[769] = sv24[742] * sp24[32];
    sv24[770] = sv24[742] * sp24[37];
    sv24[771] = sv24[742] * sp24[27];
    sv24[772] = sv24[746] * sp24[32];
    sv24[773] = sv24[746] * sp24[37];
    sv24[774] = sv24[746] * sp24[27];
    sv24[775] = sv24[743] * sp24[32];
    sv24[776] = sv24[743] * sp24[37];
    sv24[777] = sv24[743] * sp24[27];
    sv24[778] = sv24[59] * sv24[619];
    sv24[779] = sv24[59] * sv24[617];
    sv24[780] = sv24[59] * sv24[620];
    sv24[781] = sv24[59] * sv24[622];
    sv24[782] = sv24[59] * sv24[621];
    sv24[783] = sv24[59] * sv24[616];
    sv24[784] = sv24[59] * sv24[614];
    sv24[785] = sv24[59] * sv24[618];
    sv24[786] = sv24[59] * sv24[615];
    sv24[787] = sv24[779] + sv24[637];
    sv24[788] = sv24[785] + sv24[635];
    sv24[789] = sv24[778] + sv24[636];
    sv24[790] = sv24[16] * sv24[280];
    sv24[791] = sv24[16] * sv24[281];
    sv24[792] = sv24[16] * sv24[282];
    sv24[793] = sv24[16] * sv24[288];
    sv24[794] = sv24[16] * sv24[284];
    sv24[795] = sv24[16] * sv24[285];
    sv24[796] = sv24[16] * sv24[286];
    sv24[797] = sv24[16] * sv24[287];
    sv24[798] = sv24[16] * sv24[283];
    sv24[799] = sv24[791] + sv24[652];
    sv24[800] = sv24[797] + sv24[650];
    sv24[801] = sv24[790] + sv24[651];
    sv24[802] = sv24[784] + sv24[796];
    sv24[803] = sv24[786] + sv24[793];
    sv24[804] = sv24[783] + sv24[795];
    sv24[805] = sv24[787] + sv24[799];
    sv24[806] = sv24[788] + sv24[800];
    sv24[807] = sv24[801] + sv24[789];
    sv24[808] = sv24[780] + sv24[792];
    sv24[809] = sv24[782] + sv24[794];
    sv24[810] = sv24[781] + sv24[798];
    sv24[811] = sv24[110] * sv24[710];
    sv24[812] = sv24[110] * sv24[711];
    sv24[813] = sv24[110] * sv24[712];
    sv24[814] = sv24[110] * sv24[718];
    sv24[815] = sv24[110] * sv24[714];
    sv24[816] = sv24[110] * sv24[715];
    sv24[817] = sv24[110] * sv24[716];
    sv24[818] = sv24[110] * sv24[717];
    sv24[819] = sv24[110] * sv24[713];
    sv24[820] = sv24[812] + sv24[738];
    sv24[821] = sv24[818] + sv24[736];
    sv24[822] = sv24[811] + sv24[737];
    sv24[823] = sv24[802] + sv24[817];
    sv24[824] = sv24[803] + sv24[814];
    sv24[825] = sv24[804] + sv24[816];
    sv24[826] = sv24[805] + sv24[820];
    sv24[827] = sv24[806] + sv24[821];
    sv24[828] = sv24[807] + sv24[822];
    sv24[829] = sv24[808] + sv24[813];
    sv24[830] = sv24[809] + sv24[815];
    sv24[831] = sv24[810] + sv24[819];
    sv24[832] = sv24[828] * sp24[32];
    sv24[833] = sv24[828] * sp24[37];
    sv24[834] = sv24[828] * sp24[27];
    sv24[835] = sv24[826] * sp24[32];
    sv24[836] = sv24[826] * sp24[37];
    sv24[837] = sv24[826] * sp24[27];
    sv24[838] = sv24[829] * sp24[32];
    sv24[839] = sv24[829] * sp24[37];
    sv24[840] = sv24[829] * sp24[27];
    sv24[841] = sv24[831] * sp24[32];
    sv24[842] = sv24[831] * sp24[37];
    sv24[843] = sv24[831] * sp24[27];
    sv24[844] = sv24[830] * sp24[32];
    sv24[845] = sv24[830] * sp24[37];
    sv24[846] = sv24[830] * sp24[27];
    sv24[847] = sv24[825] * sp24[32];
    sv24[848] = sv24[825] * sp24[37];
    sv24[849] = sv24[825] * sp24[27];
    sv24[850] = sv24[823] * sp24[32];
    sv24[851] = sv24[823] * sp24[37];
    sv24[852] = sv24[823] * sp24[27];
    sv24[853] = sv24[827] * sp24[32];
    sv24[854] = sv24[827] * sp24[37];
    sv24[855] = sv24[827] * sp24[27];
    sv24[856] = sv24[824] * sp24[32];
    sv24[857] = sv24[824] * sp24[37];
    sv24[858] = sv24[824] * sp24[27];
    sv24[859] = sv24[70] * sv24[619];
    sv24[860] = sv24[70] * sv24[617];
    sv24[861] = sv24[70] * sv24[620];
    sv24[862] = sv24[70] * sv24[622];
    sv24[863] = sv24[70] * sv24[621];
    sv24[864] = sv24[70] * sv24[616];
    sv24[865] = sv24[70] * sv24[614];
    sv24[866] = sv24[70] * sv24[618];
    sv24[867] = sv24[70] * sv24[615];
    sv24[868] = sv24[861] + sv24[637];
    sv24[869] = sv24[863] + sv24[635];
    sv24[870] = sv24[862] + sv24[636];
    sv24[871] = sv24[27] * sv24[280];
    sv24[872] = sv24[27] * sv24[281];
    sv24[873] = sv24[27] * sv24[282];
    sv24[874] = sv24[27] * sv24[288];
    sv24[875] = sv24[27] * sv24[284];
    sv24[876] = sv24[27] * sv24[285];
    sv24[877] = sv24[27] * sv24[286];
    sv24[878] = sv24[27] * sv24[287];
    sv24[879] = sv24[27] * sv24[283];
    sv24[880] = sv24[873] + sv24[652];
    sv24[881] = sv24[875] + sv24[650];
    sv24[882] = sv24[879] + sv24[651];
    sv24[883] = sv24[865] + sv24[877];
    sv24[884] = sv24[867] + sv24[874];
    sv24[885] = sv24[864] + sv24[876];
    sv24[886] = sv24[860] + sv24[872];
    sv24[887] = sv24[866] + sv24[878];
    sv24[888] = sv24[859] + sv24[871];
    sv24[889] = sv24[868] + sv24[880];
    sv24[890] = sv24[869] + sv24[881];
    sv24[891] = sv24[882] + sv24[870];
    sv24[892] = sv24[122] * sv24[710];
    sv24[893] = sv24[122] * sv24[711];
    sv24[894] = sv24[122] * sv24[712];
    sv24[895] = sv24[122] * sv24[718];
    sv24[896] = sv24[122] * sv24[714];
    sv24[897] = sv24[122] * sv24[715];
    sv24[898] = sv24[122] * sv24[716];
    sv24[899] = sv24[122] * sv24[717];
    sv24[900] = sv24[122] * sv24[713];
    sv24[901] = sv24[894] + sv24[738];
    sv24[902] = sv24[896] + sv24[736];
    sv24[903] = sv24[900] + sv24[737];
    sv24[904] = sv24[883] + sv24[898];
    sv24[905] = sv24[884] + sv24[895];
    sv24[906] = sv24[885] + sv24[897];
    sv24[907] = sv24[886] + sv24[893];
    sv24[908] = sv24[887] + sv24[899];
    sv24[909] = sv24[888] + sv24[892];
    sv24[910] = sv24[889] + sv24[901];
    sv24[911] = sv24[890] + sv24[902];
    sv24[912] = sv24[891] + sv24[903];
    sv24[913] = sv24[909] * sp24[32];
    sv24[914] = sv24[909] * sp24[37];
    sv24[915] = sv24[909] * sp24[27];
    sv24[916] = sv24[907] * sp24[32];
    sv24[917] = sv24[907] * sp24[37];
    sv24[918] = sv24[907] * sp24[27];
    sv24[919] = sv24[910] * sp24[32];
    sv24[920] = sv24[910] * sp24[37];
    sv24[921] = sv24[910] * sp24[27];
    sv24[922] = sv24[912] * sp24[32];
    sv24[923] = sv24[912] * sp24[37];
    sv24[924] = sv24[912] * sp24[27];
    sv24[925] = sv24[911] * sp24[32];
    sv24[926] = sv24[911] * sp24[37];
    sv24[927] = sv24[911] * sp24[27];
    sv24[928] = sv24[906] * sp24[32];
    sv24[929] = sv24[906] * sp24[37];
    sv24[930] = sv24[906] * sp24[27];
    sv24[931] = sv24[904] * sp24[32];
    sv24[932] = sv24[904] * sp24[37];
    sv24[933] = sv24[904] * sp24[27];
    sv24[934] = sv24[908] * sp24[32];
    sv24[935] = sv24[908] * sp24[37];
    sv24[936] = sv24[908] * sp24[27];
    sv24[937] = sv24[905] * sp24[32];
    sv24[938] = sv24[905] * sp24[37];
    sv24[939] = sv24[905] * sp24[27];
    sv24[940] = sv24[771] + sv24[427];
    sv24[941] = sv24[769] + sv24[425];
    sv24[942] = sv24[426] + sv24[770];
    sv24[943] = sv24[852] + sv24[508];
    sv24[944] = sv24[850] + sv24[506];
    sv24[945] = sv24[507] + sv24[851];
    sv24[946] = sv24[933] + sv24[589];
    sv24[947] = sv24[931] + sv24[587];
    sv24[948] = sv24[588] + sv24[932];
    sv24[949] = sv24[777] + sv24[433];
    sv24[950] = sv24[775] + sv24[431];
    sv24[951] = sv24[432] + sv24[776];
    sv24[952] = sv24[858] + sv24[514];
    sv24[953] = sv24[856] + sv24[512];
    sv24[954] = sv24[513] + sv24[857];
    sv24[955] = sv24[939] + sv24[595];
    sv24[956] = sv24[937] + sv24[593];
    sv24[957] = sv24[594] + sv24[938];
    sv24[958] = sv24[768] + sv24[424];
    sv24[959] = sv24[766] + sv24[422];
    sv24[960] = sv24[423] + sv24[767];
    sv24[961] = sv24[849] + sv24[505];
    sv24[962] = sv24[847] + sv24[503];
    sv24[963] = sv24[504] + sv24[848];
    sv24[964] = sv24[930] + sv24[586];
    sv24[965] = sv24[928] + sv24[584];
    sv24[966] = sv24[585] + sv24[929];
    sv24[967] = sv24[756] + sv24[412];
    sv24[968] = sv24[754] + sv24[410];
    sv24[969] = sv24[411] + sv24[755];
    sv24[970] = sv24[837] + sv24[493];
    sv24[971] = sv24[835] + sv24[491];
    sv24[972] = sv24[492] + sv24[836];
    sv24[973] = sv24[918] + sv24[574];
    sv24[974] = sv24[916] + sv24[572];
    sv24[975] = sv24[573] + sv24[917];
    sv24[976] = sv24[774] + sv24[430];
    sv24[977] = sv24[772] + sv24[428];
    sv24[978] = sv24[429] + sv24[773];
    sv24[979] = sv24[855] + sv24[511];
    sv24[980] = sv24[853] + sv24[509];
    sv24[981] = sv24[510] + sv24[854];
    sv24[982] = sv24[936] + sv24[592];
    sv24[983] = sv24[934] + sv24[590];
    sv24[984] = sv24[591] + sv24[935];
    sv24[985] = sv24[753] + sv24[409];
    sv24[986] = sv24[751] + sv24[407];
    sv24[987] = sv24[408] + sv24[752];
    sv24[988] = sv24[834] + sv24[490];
    sv24[989] = sv24[832] + sv24[488];
    sv24[990] = sv24[489] + sv24[833];
    sv24[991] = sv24[915] + sv24[571];
    sv24[992] = sv24[913] + sv24[569];
    sv24[993] = sv24[570] + sv24[914];
    sv24[994] = sv24[759] + sv24[415];
    sv24[995] = sv24[757] + sv24[413];
    sv24[996] = sv24[414] + sv24[758];
    sv24[997] = sv24[840] + sv24[496];
    sv24[998] = sv24[838] + sv24[494];
    sv24[999] = sv24[495] + sv24[839];
    sv24[1000] = sv24[921] + sv24[577];
    sv24[1001] = sv24[919] + sv24[575];
    sv24[1002] = sv24[576] + sv24[920];
    sv24[1003] = sv24[765] + sv24[421];
    sv24[1004] = sv24[763] + sv24[419];
    sv24[1005] = sv24[420] + sv24[764];
    sv24[1006] = sv24[846] + sv24[502];
    sv24[1007] = sv24[844] + sv24[500];
    sv24[1008] = sv24[501] + sv24[845];
    sv24[1009] = sv24[927] + sv24[583];
    sv24[1010] = sv24[925] + sv24[581];
    sv24[1011] = sv24[582] + sv24[926];
    sv24[1012] = sv24[762] + sv24[418];
    sv24[1013] = sv24[760] + sv24[416];
    sv24[1014] = sv24[417] + sv24[761];
    sv24[1015] = sv24[843] + sv24[499];
    sv24[1016] = sv24[841] + sv24[497];
    sv24[1017] = sv24[498] + sv24[842];
    sv24[1018] = sv24[924] + sv24[580];
    sv24[1019] = sv24[922] + sv24[578];
    sv24[1020] = sv24[579] + sv24[923];
    sv24[1021] = sv24[5] * sv24[366];
    sv24[1022] = sv24[5] * sv24[367];
    sv24[1023] = sv24[5] * sv24[368];
    sv24[1024] = sv24[5] * sv24[374];
    sv24[1025] = sv24[5] * sv24[370];
    sv24[1026] = sv24[5] * sv24[371];
    sv24[1027] = sv24[5] * sv24[372];
    sv24[1028] = sv24[5] * sv24[373];
    sv24[1029] = sv24[5] * sv24[369];
    sv24[1030] = sv24[391] * sp24[21];
    sv24[1031] = sv24[391] * sp24[22];
    sv24[1032] = sv24[391] * sp24[17];
    sv24[1033] = sv24[1027] + sv24[1032];
    sv24[1034] = sv24[1024] + sv24[1030];
    sv24[1035] = sv24[1026] + sv24[1031];
    sv24[1036] = sv24[47] * sv24[710];
    sv24[1037] = sv24[47] * sv24[711];
    sv24[1038] = sv24[47] * sv24[712];
    sv24[1039] = sv24[47] * sv24[718];
    sv24[1040] = sv24[47] * sv24[714];
    sv24[1041] = sv24[47] * sv24[715];
    sv24[1042] = sv24[47] * sv24[716];
    sv24[1043] = sv24[47] * sv24[717];
    sv24[1044] = sv24[47] * sv24[713];
    sv24[1045] = sv24[735] * sp24[32];
    sv24[1046] = sv24[735] * sp24[37];
    sv24[1047] = sv24[735] * sp24[27];
    sv24[1048] = sv24[1042] + sv24[1047];
    sv24[1049] = sv24[1039] + sv24[1045];
    sv24[1050] = sv24[1041] + sv24[1046];
    sv24[1051] = sv24[1048] + sv24[1033];
    sv24[1052] = sv24[1049] + sv24[1034];
    sv24[1053] = sv24[1035] + sv24[1050];
    sv24[1054] = sv24[1037] + sv24[1022];
    sv24[1055] = sv24[1043] + sv24[1028];
    sv24[1056] = sv24[1021] + sv24[1036];
    sv24[1057] = sv24[1038] + sv24[1023];
    sv24[1058] = sv24[1040] + sv24[1025];
    sv24[1059] = sv24[1029] + sv24[1044];
    sv24[1060] = sv24[222] + sv24[222];
    sv24[1061] = sv24[1060] * w1[0][0];
    sv24[1062] = sv24[225] + sv24[1061];
    sv24[1063] = sv24[1062] * sp24[47];
    sv24[1064] = sv24[1062] * sp24[52];
    sv24[1065] = sv24[1062] * sp24[42];
    sv24[1066] = sv24[135] + sv24[135];
    sv24[1067] = sv24[137] + sv24[137];
    sv24[1068] = sv24[134] + sv24[134];
    sv24[1069] = sv24[130] + sv24[130];
    sv24[1070] = sv24[136] + sv24[136];
    sv24[1071] = sv24[129] + sv24[129];
    sv24[1072] = sv24[131] + sv24[131];
    sv24[1073] = sv24[133] + sv24[133];
    sv24[1074] = sv24[132] + sv24[132];
    sv24[1075] = sv24[1071] * w1[0][0];
    sv24[1076] = sv24[1069] * w1[0][0];
    sv24[1077] = sv24[1072] * w1[0][0];
    sv24[1078] = sv24[1074] * w1[0][0];
    sv24[1079] = sv24[1073] * w1[0][0];
    sv24[1080] = sv24[1068] * w1[0][0];
    sv24[1081] = sv24[1066] * w1[0][0];
    sv24[1082] = sv24[1070] * w1[0][0];
    sv24[1083] = sv24[1067] * w1[0][0];
    sv24[1084] = sv24[162] + sv24[1081];
    sv24[1085] = sv24[159] + sv24[1083];
    sv24[1086] = sv24[161] + sv24[1080];
    sv24[1087] = sv24[157] + sv24[1076];
    sv24[1088] = sv24[163] + sv24[1082];
    sv24[1089] = sv24[156] + sv24[1075];
    sv24[1090] = sv24[158] + sv24[1077];
    sv24[1091] = sv24[160] + sv24[1079];
    sv24[1092] = sv24[164] + sv24[1078];
    sv24[1093] = sv24[99] * sv24[1089];
    sv24[1094] = sv24[99] * sv24[1087];
    sv24[1095] = sv24[99] * sv24[1090];
    sv24[1096] = sv24[99] * sv24[1092];
    sv24[1097] = sv24[99] * sv24[1091];
    sv24[1098] = sv24[99] * sv24[1086];
    sv24[1099] = sv24[99] * sv24[1084];
    sv24[1100] = sv24[99] * sv24[1088];
    sv24[1101] = sv24[99] * sv24[1085];
    sv24[1102] = sv24[1099] + sv24[1065];
    sv24[1103] = sv24[1101] + sv24[1063];
    sv24[1104] = sv24[1098] + sv24[1064];
    sv24[1105] = sv24[1051] + sv24[1102];
    sv24[1106] = sv24[1052] + sv24[1103];
    sv24[1107] = sv24[1053] + sv24[1104];
    sv24[1108] = sv24[1054] + sv24[1094];
    sv24[1109] = sv24[1055] + sv24[1100];
    sv24[1110] = sv24[1056] + sv24[1093];
    sv24[1111] = sv24[1057] + sv24[1095];
    sv24[1112] = sv24[1058] + sv24[1097];
    sv24[1113] = sv24[1059] + sv24[1096];
    sv24[1114] = sv24[1110] * sp24[47];
    sv24[1115] = sv24[1110] * sp24[52];
    sv24[1116] = sv24[1110] * sp24[42];
    sv24[1117] = sv24[1108] * sp24[47];
    sv24[1118] = sv24[1108] * sp24[52];
    sv24[1119] = sv24[1108] * sp24[42];
    sv24[1120] = sv24[1111] * sp24[47];
    sv24[1121] = sv24[1111] * sp24[52];
    sv24[1122] = sv24[1111] * sp24[42];
    sv24[1123] = sv24[1113] * sp24[47];
    sv24[1124] = sv24[1113] * sp24[52];
    sv24[1125] = sv24[1113] * sp24[42];
    sv24[1126] = sv24[1112] * sp24[47];
    sv24[1127] = sv24[1112] * sp24[52];
    sv24[1128] = sv24[1112] * sp24[42];
    sv24[1129] = sv24[1107] * sp24[47];
    sv24[1130] = sv24[1107] * sp24[52];
    sv24[1131] = sv24[1107] * sp24[42];
    sv24[1132] = sv24[1105] * sp24[47];
    sv24[1133] = sv24[1105] * sp24[52];
    sv24[1134] = sv24[1105] * sp24[42];
    sv24[1135] = sv24[1109] * sp24[47];
    sv24[1136] = sv24[1109] * sp24[52];
    sv24[1137] = sv24[1109] * sp24[42];
    sv24[1138] = sv24[1106] * sp24[47];
    sv24[1139] = sv24[1106] * sp24[52];
    sv24[1140] = sv24[1106] * sp24[42];
    sv24[1141] = sv24[16] * sv24[366];
    sv24[1142] = sv24[16] * sv24[367];
    sv24[1143] = sv24[16] * sv24[368];
    sv24[1144] = sv24[16] * sv24[374];
    sv24[1145] = sv24[16] * sv24[370];
    sv24[1146] = sv24[16] * sv24[371];
    sv24[1147] = sv24[16] * sv24[372];
    sv24[1148] = sv24[16] * sv24[373];
    sv24[1149] = sv24[16] * sv24[369];
    sv24[1150] = sv24[1142] + sv24[1032];
    sv24[1151] = sv24[1148] + sv24[1030];
    sv24[1152] = sv24[1141] + sv24[1031];
    sv24[1153] = sv24[59] * sv24[710];
    sv24[1154] = sv24[59] * sv24[711];
    sv24[1155] = sv24[59] * sv24[712];
    sv24[1156] = sv24[59] * sv24[718];
    sv24[1157] = sv24[59] * sv24[714];
    sv24[1158] = sv24[59] * sv24[715];
    sv24[1159] = sv24[59] * sv24[716];
    sv24[1160] = sv24[59] * sv24[717];
    sv24[1161] = sv24[59] * sv24[713];
    sv24[1162] = sv24[1154] + sv24[1047];
    sv24[1163] = sv24[1160] + sv24[1045];
    sv24[1164] = sv24[1153] + sv24[1046];
    sv24[1165] = sv24[1159] + sv24[1147];
    sv24[1166] = sv24[1156] + sv24[1144];
    sv24[1167] = sv24[1146] + sv24[1158];
    sv24[1168] = sv24[1162] + sv24[1150];
    sv24[1169] = sv24[1163] + sv24[1151];
    sv24[1170] = sv24[1152] + sv24[1164];
    sv24[1171] = sv24[1155] + sv24[1143];
    sv24[1172] = sv24[1157] + sv24[1145];
    sv24[1173] = sv24[1149] + sv24[1161];
    sv24[1174] = sv24[110] * sv24[1089];
    sv24[1175] = sv24[110] * sv24[1087];
    sv24[1176] = sv24[110] * sv24[1090];
    sv24[1177] = sv24[110] * sv24[1092];
    sv24[1178] = sv24[110] * sv24[1091];
    sv24[1179] = sv24[110] * sv24[1086];
    sv24[1180] = sv24[110] * sv24[1084];
    sv24[1181] = sv24[110] * sv24[1088];
    sv24[1182] = sv24[110] * sv24[1085];
    sv24[1183] = sv24[1175] + sv24[1065];
    sv24[1184] = sv24[1181] + sv24[1063];
    sv24[1185] = sv24[1174] + sv24[1064];
    sv24[1186] = sv24[1165] + sv24[1180];
    sv24[1187] = sv24[1166] + sv24[1182];
    sv24[1188] = sv24[1167] + sv24[1179];
    sv24[1189] = sv24[1168] + sv24[1183];
    sv24[1190] = sv24[1169] + sv24[1184];
    sv24[1191] = sv24[1170] + sv24[1185];
    sv24[1192] = sv24[1171] + sv24[1176];
    sv24[1193] = sv24[1172] + sv24[1178];
    sv24[1194] = sv24[1173] + sv24[1177];
    sv24[1195] = sv24[1191] * sp24[47];
    sv24[1196] = sv24[1191] * sp24[52];
    sv24[1197] = sv24[1191] * sp24[42];
    sv24[1198] = sv24[1189] * sp24[47];
    sv24[1199] = sv24[1189] * sp24[52];
    sv24[1200] = sv24[1189] * sp24[42];
    sv24[1201] = sv24[1192] * sp24[47];
    sv24[1202] = sv24[1192] * sp24[52];
    sv24[1203] = sv24[1192] * sp24[42];
    sv24[1204] = sv24[1194] * sp24[47];
    sv24[1205] = sv24[1194] * sp24[52];
    sv24[1206] = sv24[1194] * sp24[42];
    sv24[1207] = sv24[1193] * sp24[47];
    sv24[1208] = sv24[1193] * sp24[52];
    sv24[1209] = sv24[1193] * sp24[42];
    sv24[1210] = sv24[1188] * sp24[47];
    sv24[1211] = sv24[1188] * sp24[52];
    sv24[1212] = sv24[1188] * sp24[42];
    sv24[1213] = sv24[1186] * sp24[47];
    sv24[1214] = sv24[1186] * sp24[52];
    sv24[1215] = sv24[1186] * sp24[42];
    sv24[1216] = sv24[1190] * sp24[47];
    sv24[1217] = sv24[1190] * sp24[52];
    sv24[1218] = sv24[1190] * sp24[42];
    sv24[1219] = sv24[1187] * sp24[47];
    sv24[1220] = sv24[1187] * sp24[52];
    sv24[1221] = sv24[1187] * sp24[42];
    sv24[1222] = sv24[27] * sv24[366];
    sv24[1223] = sv24[27] * sv24[367];
    sv24[1224] = sv24[27] * sv24[368];
    sv24[1225] = sv24[27] * sv24[374];
    sv24[1226] = sv24[27] * sv24[370];
    sv24[1227] = sv24[27] * sv24[371];
    sv24[1228] = sv24[27] * sv24[372];
    sv24[1229] = sv24[27] * sv24[373];
    sv24[1230] = sv24[27] * sv24[369];
    sv24[1231] = sv24[1224] + sv24[1032];
    sv24[1232] = sv24[1226] + sv24[1030];
    sv24[1233] = sv24[1230] + sv24[1031];
    sv24[1234] = sv24[70] * sv24[710];
    sv24[1235] = sv24[70] * sv24[711];
    sv24[1236] = sv24[70] * sv24[712];
    sv24[1237] = sv24[70] * sv24[718];
    sv24[1238] = sv24[70] * sv24[714];
    sv24[1239] = sv24[70] * sv24[715];
    sv24[1240] = sv24[70] * sv24[716];
    sv24[1241] = sv24[70] * sv24[717];
    sv24[1242] = sv24[70] * sv24[713];
    sv24[1243] = sv24[1236] + sv24[1047];
    sv24[1244] = sv24[1238] + sv24[1045];
    sv24[1245] = sv24[1242] + sv24[1046];
    sv24[1246] = sv24[1240] + sv24[1228];
    sv24[1247] = sv24[1237] + sv24[1225];
    sv24[1248] = sv24[1227] + sv24[1239];
    sv24[1249] = sv24[1235] + sv24[1223];
    sv24[1250] = sv24[1241] + sv24[1229];
    sv24[1251] = sv24[1222] + sv24[1234];
    sv24[1252] = sv24[1243] + sv24[1231];
    sv24[1253] = sv24[1244] + sv24[1232];
    sv24[1254] = sv24[1233] + sv24[1245];
    sv24[1255] = sv24[122] * sv24[1089];
    sv24[1256] = sv24[122] * sv24[1087];
    sv24[1257] = sv24[122] * sv24[1090];
    sv24[1258] = sv24[122] * sv24[1092];
    sv24[1259] = sv24[122] * sv24[1091];
    sv24[1260] = sv24[122] * sv24[1086];
    sv24[1261] = sv24[122] * sv24[1084];
    sv24[1262] = sv24[122] * sv24[1088];
    sv24[1263] = sv24[122] * sv24[1085];
    sv24[1264] = sv24[1257] + sv24[1065];
    sv24[1265] = sv24[1259] + sv24[1063];
    sv24[1266] = sv24[1258] + sv24[1064];
    sv24[1267] = sv24[1246] + sv24[1261];
    sv24[1268] = sv24[1247] + sv24[1263];
    sv24[1269] = sv24[1248] + sv24[1260];
    sv24[1270] = sv24[1249] + sv24[1256];
    sv24[1271] = sv24[1250] + sv24[1262];
    sv24[1272] = sv24[1251] + sv24[1255];
    sv24[1273] = sv24[1252] + sv24[1264];
    sv24[1274] = sv24[1253] + sv24[1265];
    sv24[1275] = sv24[1254] + sv24[1266];
    sv24[1276] = sv24[1272] * sp24[47];
    sv24[1277] = sv24[1272] * sp24[52];
    sv24[1278] = sv24[1272] * sp24[42];
    sv24[1279] = sv24[1270] * sp24[47];
    sv24[1280] = sv24[1270] * sp24[52];
    sv24[1281] = sv24[1270] * sp24[42];
    sv24[1282] = sv24[1273] * sp24[47];
    sv24[1283] = sv24[1273] * sp24[52];
    sv24[1284] = sv24[1273] * sp24[42];
    sv24[1285] = sv24[1275] * sp24[47];
    sv24[1286] = sv24[1275] * sp24[52];
    sv24[1287] = sv24[1275] * sp24[42];
    sv24[1288] = sv24[1274] * sp24[47];
    sv24[1289] = sv24[1274] * sp24[52];
    sv24[1290] = sv24[1274] * sp24[42];
    sv24[1291] = sv24[1269] * sp24[47];
    sv24[1292] = sv24[1269] * sp24[52];
    sv24[1293] = sv24[1269] * sp24[42];
    sv24[1294] = sv24[1267] * sp24[47];
    sv24[1295] = sv24[1267] * sp24[52];
    sv24[1296] = sv24[1267] * sp24[42];
    sv24[1297] = sv24[1271] * sp24[47];
    sv24[1298] = sv24[1271] * sp24[52];
    sv24[1299] = sv24[1271] * sp24[42];
    sv24[1300] = sv24[1268] * sp24[47];
    sv24[1301] = sv24[1268] * sp24[52];
    sv24[1302] = sv24[1268] * sp24[42];
    sv24[1303] = sv24[940] + sv24[1134];
    sv24[1304] = sv24[941] + sv24[1132];
    sv24[1305] = sv24[942] + sv24[1133];
    sv24[1306] = sv24[943] + sv24[1215];
    sv24[1307] = sv24[944] + sv24[1213];
    sv24[1308] = sv24[945] + sv24[1214];
    sv24[1309] = sv24[946] + sv24[1296];
    sv24[1310] = sv24[947] + sv24[1294];
    sv24[1311] = sv24[948] + sv24[1295];
    sv24[1312] = sv24[949] + sv24[1140];
    sv24[1313] = sv24[950] + sv24[1138];
    sv24[1314] = sv24[951] + sv24[1139];
    sv24[1315] = sv24[952] + sv24[1221];
    sv24[1316] = sv24[953] + sv24[1219];
    sv24[1317] = sv24[954] + sv24[1220];
    sv24[1318] = sv24[955] + sv24[1302];
    sv24[1319] = sv24[956] + sv24[1300];
    sv24[1320] = sv24[957] + sv24[1301];
    sv24[1321] = sv24[958] + sv24[1131];
    sv24[1322] = sv24[959] + sv24[1129];
    sv24[1323] = sv24[960] + sv24[1130];
    sv24[1324] = sv24[961] + sv24[1212];
    sv24[1325] = sv24[962] + sv24[1210];
    sv24[1326] = sv24[963] + sv24[1211];
    sv24[1327] = sv24[964] + sv24[1293];
    sv24[1328] = sv24[965] + sv24[1291];
    sv24[1329] = sv24[966] + sv24[1292];
    sv24[1330] = sv24[967] + sv24[1119];
    sv24[1331] = sv24[968] + sv24[1117];
    sv24[1332] = sv24[969] + sv24[1118];
    sv24[1333] = sv24[970] + sv24[1200];
    sv24[1334] = sv24[971] + sv24[1198];
    sv24[1335] = sv24[972] + sv24[1199];
    sv24[1336] = sv24[973] + sv24[1281];
    sv24[1337] = sv24[974] + sv24[1279];
    sv24[1338] = sv24[975] + sv24[1280];
    sv24[1339] = sv24[976] + sv24[1137];
    sv24[1340] = sv24[977] + sv24[1135];
    sv24[1341] = sv24[978] + sv24[1136];
    sv24[1342] = sv24[979] + sv24[1218];
    sv24[1343] = sv24[980] + sv24[1216];
    sv24[1344] = sv24[981] + sv24[1217];
    sv24[1345] = sv24[982] + sv24[1299];
    sv24[1346] = sv24[983] + sv24[1297];
    sv24[1347] = sv24[984] + sv24[1298];
    sv24[1348] = sv24[985] + sv24[1116];
    sv24[1349] = sv24[986] + sv24[1114];
    sv24[1350] = sv24[987] + sv24[1115];
    sv24[1351] = sv24[988] + sv24[1197];
    sv24[1352] = sv24[989] + sv24[1195];
    sv24[1353] = sv24[990] + sv24[1196];
    sv24[1354] = sv24[991] + sv24[1278];
    sv24[1355] = sv24[992] + sv24[1276];
    sv24[1356] = sv24[993] + sv24[1277];
    sv24[1357] = sv24[994] + sv24[1122];
    sv24[1358] = sv24[995] + sv24[1120];
    sv24[1359] = sv24[996] + sv24[1121];
    sv24[1360] = sv24[997] + sv24[1203];
    sv24[1361] = sv24[998] + sv24[1201];
    sv24[1362] = sv24[999] + sv24[1202];
    sv24[1363] = sv24[1000] + sv24[1284];
    sv24[1364] = sv24[1001] + sv24[1282];
    sv24[1365] = sv24[1002] + sv24[1283];
    sv24[1366] = sv24[1003] + sv24[1128];
    sv24[1367] = sv24[1004] + sv24[1126];
    sv24[1368] = sv24[1005] + sv24[1127];
    sv24[1369] = sv24[1006] + sv24[1209];
    sv24[1370] = sv24[1007] + sv24[1207];
    sv24[1371] = sv24[1008] + sv24[1208];
    sv24[1372] = sv24[1009] + sv24[1290];
    sv24[1373] = sv24[1010] + sv24[1288];
    sv24[1374] = sv24[1011] + sv24[1289];
    sv24[1375] = sv24[1012] + sv24[1125];
    sv24[1376] = sv24[1013] + sv24[1123];
    sv24[1377] = sv24[1014] + sv24[1124];
    sv24[1378] = sv24[1015] + sv24[1206];
    sv24[1379] = sv24[1016] + sv24[1204];
    sv24[1380] = sv24[1017] + sv24[1205];
    sv24[1381] = sv24[1018] + sv24[1287];
    sv24[1382] = sv24[1019] + sv24[1285];
    sv24[1383] = sv24[1020] + sv24[1286];
    sv24[1384] = w_3_d0_c0 * sp24[17];
    sv24[1385] = w_3_d1_c0 * sp24[21];
    sv24[1386] = sv24[1384] + sv24[1385];
    sv24[1387] = w_3_d2_c0 * sp24[22];
    sv24[1388] = sv24[1386] + sv24[1387];
    sv24[1389] = w_3_d0_c1 * sp24[27];
    sv24[1390] = w_3_d1_c1 * sp24[32];
    sv24[1391] = sv24[1389] + sv24[1390];
    sv24[1392] = w_3_d2_c1 * sp24[37];
    sv24[1393] = sv24[1391] + sv24[1392];
    sv24[1394] = sv24[1388] + sv24[1393];
    sv24[1395] = w_3_d0_c2 * sp24[42];
    sv24[1396] = w_3_d1_c2 * sp24[47];
    sv24[1397] = sv24[1395] + sv24[1396];
    sv24[1398] = w_3_d2_c2 * sp24[52];
    sv24[1399] = sv24[1397] + sv24[1398];
    sv24[1400] = sv24[1394] + sv24[1399];
    sv24[1401] = sv24[1400] * sv24[1315];
    sv24[1402] = sv24[1400] * sv24[1367];
    sv24[1403] = sv24[1400] * sv24[1313];
    sv24[1404] = sv24[1400] * sv24[1362];
    sv24[1405] = sv24[1400] * sv24[1332];
    sv24[1406] = sv24[1400] * sv24[1342];
    sv24[1407] = sv24[1400] * sv24[1322];
    sv24[1408] = sv24[1400] * sv24[1365];
    sv24[1409] = sv24[1400] * sv24[1381];
    sv24[1410] = sv24[1400] * sv24[1360];
    sv24[1411] = sv24[1400] * sv24[1350];
    sv24[1412] = sv24[1400] * sv24[1383];
    sv24[1413] = sv24[1400] * sv24[1317];
    sv24[1414] = sv24[1400] * sv24[1309];
    sv24[1415] = sv24[1400] * sv24[1377];
    sv24[1416] = sv24[1400] * sv24[1344];
    sv24[1417] = sv24[1400] * sv24[1323];
    sv24[1418] = sv24[1400] * sv24[1371];
    sv24[1419] = sv24[1400] * sv24[1373];
    sv24[1420] = sv24[1400] * sv24[1355];
    sv24[1421] = sv24[1400] * sv24[1368];
    sv24[1422] = sv24[1400] * sv24[1346];
    sv24[1423] = sv24[1400] * sv24[1328];
    sv24[1424] = sv24[1400] * sv24[1370];
    sv24[1425] = sv24[1400] * sv24[1379];
    sv24[1426] = sv24[1400] * sv24[1305];
    sv24[1427] = sv24[1400] * sv24[1336];
    sv24[1428] = sv24[1400] * sv24[1338];
    sv24[1429] = sv24[1400] * sv24[1325];
    sv24[1430] = sv24[1400] * sv24[1326];
    sv24[1431] = sv24[1400] * sv24[1374];
    sv24[1432] = sv24[1400] * sv24[1375];
    sv24[1433] = sv24[1400] * sv24[1358];
    sv24[1434] = sv24[1400] * sv24[1382];
    sv24[1435] = sv24[1400] * sv24[1380];
    sv24[1436] = sv24[1400] * sv24[1364];
    sv24[1437] = sv24[1400] * sv24[1329];
    sv24[1438] = sv24[1400] * sv24[1363];
    sv24[1439] = sv24[1400] * sv24[1352];
    sv24[1440] = sv24[1400] * sv24[1348];
    sv24[1441] = sv24[1400] * sv24[1304];
    sv24[1442] = sv24[1400] * sv24[1306];
    sv24[1443] = sv24[1400] * sv24[1312];
    sv24[1444] = sv24[1400] * sv24[1356];
    sv24[1445] = sv24[1400] * sv24[1330];
    sv24[1446] = sv24[1400] * sv24[1343];
    sv24[1447] = sv24[1400] * sv24[1321];
    sv24[1448] = sv24[1400] * sv24[1339];
    sv24[1449] = sv24[1400] * sv24[1316];
    sv24[1450] = sv24[1400] * sv24[1366];
    sv24[1451] = sv24[1400] * sv24[1359];
    sv24[1452] = sv24[1400] * sv24[1314];
    sv24[1453] = sv24[1400] * sv24[1372];
    sv24[1454] = sv24[1400] * sv24[1353];
    sv24[1455] = sv24[1400] * sv24[1341];
    sv24[1456] = sv24[1400] * sv24[1310];
    sv24[1457] = sv24[1400] * sv24[1333];
    sv24[1458] = sv24[1400] * sv24[1361];
    sv24[1459] = sv24[1400] * sv24[1335];
    sv24[1460] = sv24[1400] * sv24[1327];
    sv24[1461] = sv24[1400] * sv24[1334];
    sv24[1462] = sv24[1400] * sv24[1318];
    sv24[1463] = sv24[1400] * sv24[1331];
    sv24[1464] = sv24[1400] * sv24[1308];
    sv24[1465] = sv24[1400] * sv24[1324];
    sv24[1466] = sv24[1400] * sv24[1378];
    sv24[1467] = sv24[1400] * sv24[1345];
    sv24[1468] = sv24[1400] * sv24[1357];
    sv24[1469] = sv24[1400] * sv24[1369];
    sv24[1470] = sv24[1400] * sv24[1311];
    sv24[1471] = sv24[1400] * sv24[1337];
    sv24[1472] = sv24[1400] * sv24[1319];
    sv24[1473] = sv24[1400] * sv24[1349];
    sv24[1474] = sv24[1400] * sv24[1354];
    sv24[1475] = sv24[1400] * sv24[1307];
    sv24[1476] = sv24[1400] * sv24[1376];
    sv24[1477] = sv24[1400] * sv24[1347];
    sv24[1478] = sv24[1400] * sv24[1303];
    sv24[1479] = sv24[1400] * sv24[1351];
    sv24[1480] = sv24[1400] * sv24[1340];
    sv24[1481] = sv24[1400] * sv24[1320];
    sv24[1482] = weights24[iq] * sp24[54];
    sv24[1483] = sv24[1401] * sv24[1482];
    sv24[1484] = sv24[1402] * sv24[1482];
    sv24[1485] = sv24[1403] * sv24[1482];
    sv24[1486] = sv24[1404] * sv24[1482];
    sv24[1487] = sv24[1405] * sv24[1482];
    sv24[1488] = sv24[1406] * sv24[1482];
    sv24[1489] = sv24[1407] * sv24[1482];
    sv24[1490] = sv24[1408] * sv24[1482];
    sv24[1491] = sv24[1409] * sv24[1482];
    sv24[1492] = sv24[1410] * sv24[1482];
    sv24[1493] = sv24[1411] * sv24[1482];
    sv24[1494] = sv24[1413] * sv24[1482];
    sv24[1495] = sv24[1414] * sv24[1482];
    sv24[1496] = sv24[1431] * sv24[1482];
    sv24[1497] = sv24[1454] * sv24[1482];
    sv24[1498] = sv24[1416] * sv24[1482];
    sv24[1499] = sv24[1417] * sv24[1482];
    sv24[1500] = sv24[1419] * sv24[1482];
    sv24[1501] = sv24[1421] * sv24[1482];
    sv24[1502] = sv24[1478] * sv24[1482];
    sv24[1503] = sv24[1422] * sv24[1482];
    sv24[1504] = sv24[1423] * sv24[1482];
    sv24[1505] = sv24[1424] * sv24[1482];
    sv24[1506] = sv24[1425] * sv24[1482];
    sv24[1507] = sv24[1426] * sv24[1482];
    sv24[1508] = sv24[1427] * sv24[1482];
    sv24[1509] = sv24[1449] * sv24[1482];
    sv24[1510] = sv24[1429] * sv24[1482];
    sv24[1511] = sv24[1420] * sv24[1482];
    sv24[1512] = sv24[1415] * sv24[1482];
    sv24[1513] = sv24[1432] * sv24[1482];
    sv24[1514] = sv24[1433] * sv24[1482];
    sv24[1515] = sv24[1450] * sv24[1482];
    sv24[1516] = sv24[1435] * sv24[1482];
    sv24[1517] = sv24[1418] * sv24[1482];
    sv24[1518] = sv24[1437] * sv24[1482];
    sv24[1519] = sv24[1438] * sv24[1482];
    sv24[1520] = sv24[1439] * sv24[1482];
    sv24[1521] = sv24[1440] * sv24[1482];
    sv24[1522] = sv24[1441] * sv24[1482];
    sv24[1523] = sv24[1412] * sv24[1482];
    sv24[1524] = sv24[1430] * sv24[1482];
    sv24[1525] = sv24[1443] * sv24[1482];
    sv24[1526] = sv24[1444] * sv24[1482];
    sv24[1527] = sv24[1475] * sv24[1482];
    sv24[1528] = sv24[1446] * sv24[1482];
    sv24[1529] = sv24[1447] * sv24[1482];
    sv24[1530] = sv24[1448] * sv24[1482];
    sv24[1531] = sv24[1428] * sv24[1482];
    sv24[1532] = sv24[1434] * sv24[1482];
    sv24[1533] = sv24[1463] * sv24[1482];
    sv24[1534] = sv24[1477] * sv24[1482];
    sv24[1535] = sv24[1452] * sv24[1482];
    sv24[1536] = sv24[1453] * sv24[1482];
    sv24[1537] = sv24[1455] * sv24[1482];
    sv24[1538] = sv24[1456] * sv24[1482];
    sv24[1539] = sv24[1457] * sv24[1482];
    sv24[1540] = sv24[1459] * sv24[1482];
    sv24[1541] = sv24[1460] * sv24[1482];
    sv24[1542] = sv24[1466] * sv24[1482];
    sv24[1543] = sv24[1462] * sv24[1482];
    sv24[1544] = sv24[1442] * sv24[1482];
    sv24[1545] = sv24[1464] * sv24[1482];
    sv24[1546] = sv24[1465] * sv24[1482];
    sv24[1547] = sv24[1481] * sv24[1482];
    sv24[1548] = sv24[1467] * sv24[1482];
    sv24[1549] = sv24[1468] * sv24[1482];
    sv24[1550] = sv24[1469] * sv24[1482];
    sv24[1551] = sv24[1470] * sv24[1482];
    sv24[1552] = sv24[1471] * sv24[1482];
    sv24[1553] = sv24[1472] * sv24[1482];
    sv24[1554] = sv24[1473] * sv24[1482];
    sv24[1555] = sv24[1474] * sv24[1482];
    sv24[1556] = sv24[1445] * sv24[1482];
    sv24[1557] = sv24[1476] * sv24[1482];
    sv24[1558] = sv24[1458] * sv24[1482];
    sv24[1559] = sv24[1480] * sv24[1482];
    sv24[1560] = sv24[1436] * sv24[1482];
    sv24[1561] = sv24[1479] * sv24[1482];
    sv24[1562] = sv24[1451] * sv24[1482];
    sv24[1563] = sv24[1461] * sv24[1482];
    for (int ia0 = 0; ia0 < 10; ++ia0)
    {
        for (int ia1 = 0; ia1 < 10; ++ia1)
        {
            A[ia0][ia1] += sv24[1502] * FE0_C0_D100_Q24[0][iq][ia0 - 0] * FE0_C0_D100_Q24[0][iq][ia1 - 0];
            A[ia0][ia1] += sv24[1525] * FE0_C0_D100_Q24[0][iq][ia0 - 0] * FE0_C0_D010_Q24[0][iq][ia1 - 0];
            A[ia0][ia1] += sv24[1529] * FE0_C0_D100_Q24[0][iq][ia0 - 0] * FE0_C0_D001_Q24[0][iq][ia1 - 0];
            A[ia0][ia1] += sv24[1522] * FE0_C0_D010_Q24[0][iq][ia0 - 0] * FE0_C0_D100_Q24[0][iq][ia1 - 0];
            A[ia0][ia1] += sv24[1485] * FE0_C0_D010_Q24[0][iq][ia0 - 0] * FE0_C0_D010_Q24[0][iq][ia1 - 0];
            A[ia0][ia1] += sv24[1489] * FE0_C0_D010_Q24[0][iq][ia0 - 0] * FE0_C0_D001_Q24[0][iq][ia1 - 0];
            A[ia0][ia1] += sv24[1507] * FE0_C0_D001_Q24[0][iq][ia0 - 0] * FE0_C0_D100_Q24[0][iq][ia1 - 0];
            A[ia0][ia1] += sv24[1535] * FE0_C0_D001_Q24[0][iq][ia0 - 0] * FE0_C0_D010_Q24[0][iq][ia1 - 0];
            A[ia0][ia1] += sv24[1499] * FE0_C0_D001_Q24[0][iq][ia0 - 0] * FE0_C0_D001_Q24[0][iq][ia1 - 0];
        }
        for (int ia1 = 10; ia1 < 20; ++ia1)
        {
            A[ia0][ia1] += sv24[1556] * FE0_C0_D100_Q24[0][iq][ia0 - 0] * FE0_C0_D100_Q24[0][iq][ia1 - 10];
            A[ia0][ia1] += sv24[1530] * FE0_C0_D100_Q24[0][iq][ia0 - 0] * FE0_C0_D010_Q24[0][iq][ia1 - 10];
            A[ia0][ia1] += sv24[1521] * FE0_C0_D100_Q24[0][iq][ia0 - 0] * FE0_C0_D001_Q24[0][iq][ia1 - 10];
            A[ia0][ia1] += sv24[1533] * FE0_C0_D010_Q24[0][iq][ia0 - 0] * FE0_C0_D100_Q24[0][iq][ia1 - 10];
            A[ia0][ia1] += sv24[1559] * FE0_C0_D010_Q24[0][iq][ia0 - 0] * FE0_C0_D010_Q24[0][iq][ia1 - 10];
            A[ia0][ia1] += sv24[1554] * FE0_C0_D010_Q24[0][iq][ia0 - 0] * FE0_C0_D001_Q24[0][iq][ia1 - 10];
            A[ia0][ia1] += sv24[1487] * FE0_C0_D001_Q24[0][iq][ia0 - 0] * FE0_C0_D100_Q24[0][iq][ia1 - 10];
            A[ia0][ia1] += sv24[1537] * FE0_C0_D001_Q24[0][iq][ia0 - 0] * FE0_C0_D010_Q24[0][iq][ia1 - 10];
            A[ia0][ia1] += sv24[1493] * FE0_C0_D001_Q24[0][iq][ia0 - 0] * FE0_C0_D001_Q24[0][iq][ia1 - 10];
        }
        for (int ia1 = 20; ia1 < 30; ++ia1)
        {
            A[ia0][ia1] += sv24[1549] * FE0_C0_D100_Q24[0][iq][ia0 - 0] * FE0_C0_D100_Q24[0][iq][ia1 - 20];
            A[ia0][ia1] += sv24[1515] * FE0_C0_D100_Q24[0][iq][ia0 - 0] * FE0_C0_D010_Q24[0][iq][ia1 - 20];
            A[ia0][ia1] += sv24[1513] * FE0_C0_D100_Q24[0][iq][ia0 - 0] * FE0_C0_D001_Q24[0][iq][ia1 - 20];
            A[ia0][ia1] += sv24[1514] * FE0_C0_D010_Q24[0][iq][ia0 - 0] * FE0_C0_D100_Q24[0][iq][ia1 - 20];
            A[ia0][ia1] += sv24[1484] * FE0_C0_D010_Q24[0][iq][ia0 - 0] * FE0_C0_D010_Q24[0][iq][ia1 - 20];
            A[ia0][ia1] += sv24[1557] * FE0_C0_D010_Q24[0][iq][ia0 - 0] * FE0_C0_D001_Q24[0][iq][ia1 - 20];
            A[ia0][ia1] += sv24[1562] * FE0_C0_D001_Q24[0][iq][ia0 - 0] * FE0_C0_D100_Q24[0][iq][ia1 - 20];
            A[ia0][ia1] += sv24[1501] * FE0_C0_D001_Q24[0][iq][ia0 - 0] * FE0_C0_D010_Q24[0][iq][ia1 - 20];
            A[ia0][ia1] += sv24[1512] * FE0_C0_D001_Q24[0][iq][ia0 - 0] * FE0_C0_D001_Q24[0][iq][ia1 - 20];
        }
    }
    for (int ia0 = 10; ia0 < 20; ++ia0)
    {
        for (int ia1 = 0; ia1 < 10; ++ia1)
        {
            A[ia0][ia1] += sv24[1544] * FE0_C0_D100_Q24[0][iq][ia0 - 10] * FE0_C0_D100_Q24[0][iq][ia1 - 0];
            A[ia0][ia1] += sv24[1483] * FE0_C0_D100_Q24[0][iq][ia0 - 10] * FE0_C0_D010_Q24[0][iq][ia1 - 0];
            A[ia0][ia1] += sv24[1546] * FE0_C0_D100_Q24[0][iq][ia0 - 10] * FE0_C0_D001_Q24[0][iq][ia1 - 0];
            A[ia0][ia1] += sv24[1527] * FE0_C0_D010_Q24[0][iq][ia0 - 10] * FE0_C0_D100_Q24[0][iq][ia1 - 0];
            A[ia0][ia1] += sv24[1509] * FE0_C0_D010_Q24[0][iq][ia0 - 10] * FE0_C0_D010_Q24[0][iq][ia1 - 0];
            A[ia0][ia1] += sv24[1510] * FE0_C0_D010_Q24[0][iq][ia0 - 10] * FE0_C0_D001_Q24[0][iq][ia1 - 0];
            A[ia0][ia1] += sv24[1545] * FE0_C0_D001_Q24[0][iq][ia0 - 10] * FE0_C0_D100_Q24[0][iq][ia1 - 0];
            A[ia0][ia1] += sv24[1494] * FE0_C0_D001_Q24[0][iq][ia0 - 10] * FE0_C0_D010_Q24[0][iq][ia1 - 0];
            A[ia0][ia1] += sv24[1524] * FE0_C0_D001_Q24[0][iq][ia0 - 10] * FE0_C0_D001_Q24[0][iq][ia1 - 0];
        }
        for (int ia1 = 10; ia1 < 20; ++ia1)
        {
            A[ia0][ia1] += sv24[1539] * FE0_C0_D100_Q24[0][iq][ia0 - 10] * FE0_C0_D100_Q24[0][iq][ia1 - 10];
            A[ia0][ia1] += sv24[1488] * FE0_C0_D100_Q24[0][iq][ia0 - 10] * FE0_C0_D010_Q24[0][iq][ia1 - 10];
            A[ia0][ia1] += sv24[1561] * FE0_C0_D100_Q24[0][iq][ia0 - 10] * FE0_C0_D001_Q24[0][iq][ia1 - 10];
            A[ia0][ia1] += sv24[1563] * FE0_C0_D010_Q24[0][iq][ia0 - 10] * FE0_C0_D100_Q24[0][iq][ia1 - 10];
            A[ia0][ia1] += sv24[1528] * FE0_C0_D010_Q24[0][iq][ia0 - 10] * FE0_C0_D010_Q24[0][iq][ia1 - 10];
            A[ia0][ia1] += sv24[1520] * FE0_C0_D010_Q24[0][iq][ia0 - 10] * FE0_C0_D001_Q24[0][iq][ia1 - 10];
            A[ia0][ia1] += sv24[1540] * FE0_C0_D001_Q24[0][iq][ia0 - 10] * FE0_C0_D100_Q24[0][iq][ia1 - 10];
            A[ia0][ia1] += sv24[1498] * FE0_C0_D001_Q24[0][iq][ia0 - 10] * FE0_C0_D010_Q24[0][iq][ia1 - 10];
            A[ia0][ia1] += sv24[1497] * FE0_C0_D001_Q24[0][iq][ia0 - 10] * FE0_C0_D001_Q24[0][iq][ia1 - 10];
        }
        for (int ia1 = 20; ia1 < 30; ++ia1)
        {
            A[ia0][ia1] += sv24[1492] * FE0_C0_D100_Q24[0][iq][ia0 - 10] * FE0_C0_D100_Q24[0][iq][ia1 - 20];
            A[ia0][ia1] += sv24[1550] * FE0_C0_D100_Q24[0][iq][ia0 - 10] * FE0_C0_D010_Q24[0][iq][ia1 - 20];
            A[ia0][ia1] += sv24[1542] * FE0_C0_D100_Q24[0][iq][ia0 - 10] * FE0_C0_D001_Q24[0][iq][ia1 - 20];
            A[ia0][ia1] += sv24[1558] * FE0_C0_D010_Q24[0][iq][ia0 - 10] * FE0_C0_D100_Q24[0][iq][ia1 - 20];
            A[ia0][ia1] += sv24[1505] * FE0_C0_D010_Q24[0][iq][ia0 - 10] * FE0_C0_D010_Q24[0][iq][ia1 - 20];
            A[ia0][ia1] += sv24[1506] * FE0_C0_D010_Q24[0][iq][ia0 - 10] * FE0_C0_D001_Q24[0][iq][ia1 - 20];
            A[ia0][ia1] += sv24[1486] * FE0_C0_D001_Q24[0][iq][ia0 - 10] * FE0_C0_D100_Q24[0][iq][ia1 - 20];
            A[ia0][ia1] += sv24[1517] * FE0_C0_D001_Q24[0][iq][ia0 - 10] * FE0_C0_D010_Q24[0][iq][ia1 - 20];
            A[ia0][ia1] += sv24[1516] * FE0_C0_D001_Q24[0][iq][ia0 - 10] * FE0_C0_D001_Q24[0][iq][ia1 - 20];
        }
    }
    for (int ia0 = 20; ia0 < 30; ++ia0)
    {
        for (int ia1 = 0; ia1 < 10; ++ia1)
        {
            A[ia0][ia1] += sv24[1495] * FE0_C0_D100_Q24[0][iq][ia0 - 20] * FE0_C0_D100_Q24[0][iq][ia1 - 0];
            A[ia0][ia1] += sv24[1543] * FE0_C0_D100_Q24[0][iq][ia0 - 20] * FE0_C0_D010_Q24[0][iq][ia1 - 0];
            A[ia0][ia1] += sv24[1541] * FE0_C0_D100_Q24[0][iq][ia0 - 20] * FE0_C0_D001_Q24[0][iq][ia1 - 0];
            A[ia0][ia1] += sv24[1538] * FE0_C0_D010_Q24[0][iq][ia0 - 20] * FE0_C0_D100_Q24[0][iq][ia1 - 0];
            A[ia0][ia1] += sv24[1553] * FE0_C0_D010_Q24[0][iq][ia0 - 20] * FE0_C0_D010_Q24[0][iq][ia1 - 0];
            A[ia0][ia1] += sv24[1504] * FE0_C0_D010_Q24[0][iq][ia0 - 20] * FE0_C0_D001_Q24[0][iq][ia1 - 0];
            A[ia0][ia1] += sv24[1551] * FE0_C0_D001_Q24[0][iq][ia0 - 20] * FE0_C0_D100_Q24[0][iq][ia1 - 0];
            A[ia0][ia1] += sv24[1547] * FE0_C0_D001_Q24[0][iq][ia0 - 20] * FE0_C0_D010_Q24[0][iq][ia1 - 0];
            A[ia0][ia1] += sv24[1518] * FE0_C0_D001_Q24[0][iq][ia0 - 20] * FE0_C0_D001_Q24[0][iq][ia1 - 0];
        }
        for (int ia1 = 10; ia1 < 20; ++ia1)
        {
            A[ia0][ia1] += sv24[1508] * FE0_C0_D100_Q24[0][iq][ia0 - 20] * FE0_C0_D100_Q24[0][iq][ia1 - 10];
            A[ia0][ia1] += sv24[1548] * FE0_C0_D100_Q24[0][iq][ia0 - 20] * FE0_C0_D010_Q24[0][iq][ia1 - 10];
            A[ia0][ia1] += sv24[1555] * FE0_C0_D100_Q24[0][iq][ia0 - 20] * FE0_C0_D001_Q24[0][iq][ia1 - 10];
            A[ia0][ia1] += sv24[1552] * FE0_C0_D010_Q24[0][iq][ia0 - 20] * FE0_C0_D100_Q24[0][iq][ia1 - 10];
            A[ia0][ia1] += sv24[1503] * FE0_C0_D010_Q24[0][iq][ia0 - 20] * FE0_C0_D010_Q24[0][iq][ia1 - 10];
            A[ia0][ia1] += sv24[1511] * FE0_C0_D010_Q24[0][iq][ia0 - 20] * FE0_C0_D001_Q24[0][iq][ia1 - 10];
            A[ia0][ia1] += sv24[1531] * FE0_C0_D001_Q24[0][iq][ia0 - 20] * FE0_C0_D100_Q24[0][iq][ia1 - 10];
            A[ia0][ia1] += sv24[1534] * FE0_C0_D001_Q24[0][iq][ia0 - 20] * FE0_C0_D010_Q24[0][iq][ia1 - 10];
            A[ia0][ia1] += sv24[1526] * FE0_C0_D001_Q24[0][iq][ia0 - 20] * FE0_C0_D001_Q24[0][iq][ia1 - 10];
        }
        for (int ia1 = 20; ia1 < 30; ++ia1)
        {
            A[ia0][ia1] += sv24[1519] * FE0_C0_D100_Q24[0][iq][ia0 - 20] * FE0_C0_D100_Q24[0][iq][ia1 - 20];
            A[ia0][ia1] += sv24[1536] * FE0_C0_D100_Q24[0][iq][ia0 - 20] * FE0_C0_D010_Q24[0][iq][ia1 - 20];
            A[ia0][ia1] += sv24[1491] * FE0_C0_D100_Q24[0][iq][ia0 - 20] * FE0_C0_D001_Q24[0][iq][ia1 - 20];
            A[ia0][ia1] += sv24[1560] * FE0_C0_D010_Q24[0][iq][ia0 - 20] * FE0_C0_D100_Q24[0][iq][ia1 - 20];
            A[ia0][ia1] += sv24[1500] * FE0_C0_D010_Q24[0][iq][ia0 - 20] * FE0_C0_D010_Q24[0][iq][ia1 - 20];
            A[ia0][ia1] += sv24[1532] * FE0_C0_D010_Q24[0][iq][ia0 - 20] * FE0_C0_D001_Q24[0][iq][ia1 - 20];
            A[ia0][ia1] += sv24[1490] * FE0_C0_D001_Q24[0][iq][ia0 - 20] * FE0_C0_D100_Q24[0][iq][ia1 - 20];
            A[ia0][ia1] += sv24[1496] * FE0_C0_D001_Q24[0][iq][ia0 - 20] * FE0_C0_D010_Q24[0][iq][ia1 - 20];
            A[ia0][ia1] += sv24[1523] * FE0_C0_D001_Q24[0][iq][ia0 - 20] * FE0_C0_D001_Q24[0][iq][ia1 - 20];
        }
    }
}
}

            

        
        void wrap_form_cell_integral_0_otherwise(int start, int end,
                      Mat arg0_0_, int *arg0_0_map0_0, int *arg0_0_map1_0, double *arg1_0, int *arg1_0_map0_0, double *arg2_0, int *arg2_0_map0_0, double *arg3_0, double *arg4_0, double *arg5_0, int *arg5_0_map0_0
                      ) {
  Mat arg0_0_0 = arg0_0_;
  double *arg1_0_vec[12];
    double *arg2_0_vec[30];
    double *arg5_0_vec[30];
  for ( int n = start; n < end; n++ ) {
    int i = n;
    arg1_0_vec[0] = arg1_0 + (arg1_0_map0_0[i * 4 + 0])* 3;
    arg1_0_vec[1] = arg1_0 + (arg1_0_map0_0[i * 4 + 1])* 3;
    arg1_0_vec[2] = arg1_0 + (arg1_0_map0_0[i * 4 + 2])* 3;
    arg1_0_vec[3] = arg1_0 + (arg1_0_map0_0[i * 4 + 3])* 3;
    arg1_0_vec[4] = arg1_0 + (arg1_0_map0_0[i * 4 + 0])* 3 + 1;
    arg1_0_vec[5] = arg1_0 + (arg1_0_map0_0[i * 4 + 1])* 3 + 1;
    arg1_0_vec[6] = arg1_0 + (arg1_0_map0_0[i * 4 + 2])* 3 + 1;
    arg1_0_vec[7] = arg1_0 + (arg1_0_map0_0[i * 4 + 3])* 3 + 1;
    arg1_0_vec[8] = arg1_0 + (arg1_0_map0_0[i * 4 + 0])* 3 + 2;
    arg1_0_vec[9] = arg1_0 + (arg1_0_map0_0[i * 4 + 1])* 3 + 2;
    arg1_0_vec[10] = arg1_0 + (arg1_0_map0_0[i * 4 + 2])* 3 + 2;
    arg1_0_vec[11] = arg1_0 + (arg1_0_map0_0[i * 4 + 3])* 3 + 2;
    arg2_0_vec[0] = arg2_0 + (arg2_0_map0_0[i * 10 + 0])* 3;
    arg2_0_vec[1] = arg2_0 + (arg2_0_map0_0[i * 10 + 1])* 3;
    arg2_0_vec[2] = arg2_0 + (arg2_0_map0_0[i * 10 + 2])* 3;
    arg2_0_vec[3] = arg2_0 + (arg2_0_map0_0[i * 10 + 3])* 3;
    arg2_0_vec[4] = arg2_0 + (arg2_0_map0_0[i * 10 + 4])* 3;
    arg2_0_vec[5] = arg2_0 + (arg2_0_map0_0[i * 10 + 5])* 3;
    arg2_0_vec[6] = arg2_0 + (arg2_0_map0_0[i * 10 + 6])* 3;
    arg2_0_vec[7] = arg2_0 + (arg2_0_map0_0[i * 10 + 7])* 3;
    arg2_0_vec[8] = arg2_0 + (arg2_0_map0_0[i * 10 + 8])* 3;
    arg2_0_vec[9] = arg2_0 + (arg2_0_map0_0[i * 10 + 9])* 3;
    arg2_0_vec[10] = arg2_0 + (arg2_0_map0_0[i * 10 + 0])* 3 + 1;
    arg2_0_vec[11] = arg2_0 + (arg2_0_map0_0[i * 10 + 1])* 3 + 1;
    arg2_0_vec[12] = arg2_0 + (arg2_0_map0_0[i * 10 + 2])* 3 + 1;
    arg2_0_vec[13] = arg2_0 + (arg2_0_map0_0[i * 10 + 3])* 3 + 1;
    arg2_0_vec[14] = arg2_0 + (arg2_0_map0_0[i * 10 + 4])* 3 + 1;
    arg2_0_vec[15] = arg2_0 + (arg2_0_map0_0[i * 10 + 5])* 3 + 1;
    arg2_0_vec[16] = arg2_0 + (arg2_0_map0_0[i * 10 + 6])* 3 + 1;
    arg2_0_vec[17] = arg2_0 + (arg2_0_map0_0[i * 10 + 7])* 3 + 1;
    arg2_0_vec[18] = arg2_0 + (arg2_0_map0_0[i * 10 + 8])* 3 + 1;
    arg2_0_vec[19] = arg2_0 + (arg2_0_map0_0[i * 10 + 9])* 3 + 1;
    arg2_0_vec[20] = arg2_0 + (arg2_0_map0_0[i * 10 + 0])* 3 + 2;
    arg2_0_vec[21] = arg2_0 + (arg2_0_map0_0[i * 10 + 1])* 3 + 2;
    arg2_0_vec[22] = arg2_0 + (arg2_0_map0_0[i * 10 + 2])* 3 + 2;
    arg2_0_vec[23] = arg2_0 + (arg2_0_map0_0[i * 10 + 3])* 3 + 2;
    arg2_0_vec[24] = arg2_0 + (arg2_0_map0_0[i * 10 + 4])* 3 + 2;
    arg2_0_vec[25] = arg2_0 + (arg2_0_map0_0[i * 10 + 5])* 3 + 2;
    arg2_0_vec[26] = arg2_0 + (arg2_0_map0_0[i * 10 + 6])* 3 + 2;
    arg2_0_vec[27] = arg2_0 + (arg2_0_map0_0[i * 10 + 7])* 3 + 2;
    arg2_0_vec[28] = arg2_0 + (arg2_0_map0_0[i * 10 + 8])* 3 + 2;
    arg2_0_vec[29] = arg2_0 + (arg2_0_map0_0[i * 10 + 9])* 3 + 2;
    arg5_0_vec[0] = arg5_0 + (arg5_0_map0_0[i * 10 + 0])* 3;
    arg5_0_vec[1] = arg5_0 + (arg5_0_map0_0[i * 10 + 1])* 3;
    arg5_0_vec[2] = arg5_0 + (arg5_0_map0_0[i * 10 + 2])* 3;
    arg5_0_vec[3] = arg5_0 + (arg5_0_map0_0[i * 10 + 3])* 3;
    arg5_0_vec[4] = arg5_0 + (arg5_0_map0_0[i * 10 + 4])* 3;
    arg5_0_vec[5] = arg5_0 + (arg5_0_map0_0[i * 10 + 5])* 3;
    arg5_0_vec[6] = arg5_0 + (arg5_0_map0_0[i * 10 + 6])* 3;
    arg5_0_vec[7] = arg5_0 + (arg5_0_map0_0[i * 10 + 7])* 3;
    arg5_0_vec[8] = arg5_0 + (arg5_0_map0_0[i * 10 + 8])* 3;
    arg5_0_vec[9] = arg5_0 + (arg5_0_map0_0[i * 10 + 9])* 3;
    arg5_0_vec[10] = arg5_0 + (arg5_0_map0_0[i * 10 + 0])* 3 + 1;
    arg5_0_vec[11] = arg5_0 + (arg5_0_map0_0[i * 10 + 1])* 3 + 1;
    arg5_0_vec[12] = arg5_0 + (arg5_0_map0_0[i * 10 + 2])* 3 + 1;
    arg5_0_vec[13] = arg5_0 + (arg5_0_map0_0[i * 10 + 3])* 3 + 1;
    arg5_0_vec[14] = arg5_0 + (arg5_0_map0_0[i * 10 + 4])* 3 + 1;
    arg5_0_vec[15] = arg5_0 + (arg5_0_map0_0[i * 10 + 5])* 3 + 1;
    arg5_0_vec[16] = arg5_0 + (arg5_0_map0_0[i * 10 + 6])* 3 + 1;
    arg5_0_vec[17] = arg5_0 + (arg5_0_map0_0[i * 10 + 7])* 3 + 1;
    arg5_0_vec[18] = arg5_0 + (arg5_0_map0_0[i * 10 + 8])* 3 + 1;
    arg5_0_vec[19] = arg5_0 + (arg5_0_map0_0[i * 10 + 9])* 3 + 1;
    arg5_0_vec[20] = arg5_0 + (arg5_0_map0_0[i * 10 + 0])* 3 + 2;
    arg5_0_vec[21] = arg5_0 + (arg5_0_map0_0[i * 10 + 1])* 3 + 2;
    arg5_0_vec[22] = arg5_0 + (arg5_0_map0_0[i * 10 + 2])* 3 + 2;
    arg5_0_vec[23] = arg5_0 + (arg5_0_map0_0[i * 10 + 3])* 3 + 2;
    arg5_0_vec[24] = arg5_0 + (arg5_0_map0_0[i * 10 + 4])* 3 + 2;
    arg5_0_vec[25] = arg5_0 + (arg5_0_map0_0[i * 10 + 5])* 3 + 2;
