
        #include <petsc.h>
        #include <stdbool.h>
        #include <math.h>
        
        


        
            #include <immintrin.h>

            
            // This code is generated visiting a COFFEE AST

#include "firedrake_geometry.h"


void form_cell_integral_0_otherwise(double A[20][20], double *coordinate_dofs)
{
// Section for quadrature weights and points
static const double weights64[64] = { 0.00261345900751, 0.00338108957856, 0.00161758872343, 0.000243985421621, 0.00392412678076, 0.00507672939399, 0.00242882065938, 0.000366345798555, 0.00250430944301, 0.00323988037881, 0.00155003109035, 0.000233795515279, 0.00060137292872, 0.000778009425932, 0.000372217075256, 5.6142540267e-05, 0.00489961445989, 0.00633873932659, 0.00303259438037, 0.00045741467394, 0.00735680500908, 0.00951766095289, 0.00455346144287, 0.000686811297505, 0.00469498496963, 0.00607400564032, 0.00290593987576, 0.000438311021534, 0.00112743130421, 0.00145858275269, 0.000697818545806, 0.000105253918778, 0.00489961445989, 0.00633873932659, 0.00303259438037, 0.00045741467394, 0.00735680500908, 0.00951766095289, 0.00455346144287, 0.000686811297505, 0.00469498496963, 0.00607400564032, 0.00290593987576, 0.000438311021534, 0.00112743130421, 0.00145858275269, 0.000697818545806, 0.000105253918778, 0.00261345900751, 0.00338108957856, 0.00161758872343, 0.000243985421621, 0.00392412678076, 0.00507672939399, 0.00242882065938, 0.000366345798555, 0.00250430944301, 0.00323988037881, 0.00155003109035, 0.000233795515279, 0.00060137292872, 0.000778009425932, 0.000372217075256, 5.6142540267e-05 };
static const double points64[192] = { 0.0622918093485, 0.0543346112272, 0.048500549447, 0.0498465213689, 0.0434790928043, 0.238600737552, 0.0316174621017, 0.0275786259744, 0.517047295104, 0.013364994113, 0.0116577406689, 0.795851417897, 0.0477749046478, 0.263415975366, 0.048500549447, 0.0382299507806, 0.210788066398, 0.238600737552, 0.0242491148181, 0.133702082268, 0.517047295104, 0.0102503254608, 0.0565171086994, 0.795851417897, 0.0275098322538, 0.555285975747, 0.048500549447, 0.0220136396043, 0.444345324777, 0.238600737552, 0.0139631692803, 0.281846577864, 0.517047295104, 0.00590236100006, 0.119139159297, 0.795851417897, 0.00923314621657, 0.818518016421, 0.048500549447, 0.00738845483861, 0.654986204817, 0.238600737552, 0.00468646927478, 0.415455300375, 0.517047295104, 0.0019810139747, 0.175616803963, 0.795851417897, 0.296072900492, 0.0543346112272, 0.048500549447, 0.236920460579, 0.0434790928043, 0.238600737552, 0.150277762174, 0.0275786259744, 0.517047295104, 0.0635238021415, 0.0116577406689, 0.795851417897, 0.22707406861, 0.263415975366, 0.048500549447, 0.181706913504, 0.210788066398, 0.238600737552, 0.115256015737, 0.133702082268, 0.517047295104, 0.048719785505, 0.0565171086994, 0.795851417897, 0.13075420208, 0.555285975747, 0.048500549447, 0.104630804534, 0.444345324777, 0.238600737552, 0.0663669280461, 0.281846577864, 0.517047295104, 0.028053915263, 0.119139159297, 0.795851417897, 0.0438851336894, 0.818518016421, 0.048500549447, 0.0351173176233, 0.654986204817, 0.238600737552, 0.0222747832462, 0.415455300375, 0.517047295104, 0.00941575721655, 0.175616803963, 0.795851417897, 0.601091938834, 0.0543346112272, 0.048500549447, 0.480999709065, 0.0434790928043, 0.238600737552, 0.305096316747, 0.0275786259744, 0.517047295104, 0.128967039293, 0.0116577406689, 0.795851417897, 0.461009406577, 0.263415975366, 0.048500549447, 0.368904282546, 0.210788066398, 0.238600737552, 0.233994606891, 0.133702082268, 0.517047295104, 0.0989116878988, 0.0565171086994, 0.795851417897, 0.265459272726, 0.555285975747, 0.048500549447, 0.212423133136, 0.444345324777, 0.238600737552, 0.134739198986, 0.281846577864, 0.517047295104, 0.0569555075431, 0.119139159297, 0.795851417897, 0.0890963004431, 0.818518016421, 0.048500549447, 0.0712957400079, 0.654986204817, 0.238600737552, 0.0452226212744, 0.415455300375, 0.517047295104, 0.0191160209242, 0.175616803963, 0.795851417897, 0.834873029977, 0.0543346112272, 0.048500549447, 0.668073648275, 0.0434790928043, 0.238600737552, 0.42375661682, 0.0275786259744, 0.517047295104, 0.179125847321, 0.0116577406689, 0.795851417897, 0.640308570539, 0.263415975366, 0.048500549447, 0.51238124527, 0.210788066398, 0.238600737552, 0.32500150781, 0.133702082268, 0.517047295104, 0.137381147943, 0.0565171086994, 0.795851417897, 0.368703642552, 0.555285975747, 0.048500549447, 0.295040298066, 0.444345324777, 0.238600737552, 0.187142957752, 0.281846577864, 0.517047295104, 0.079107061806, 0.119139159297, 0.795851417897, 0.123748287916, 0.818518016421, 0.048500549447, 0.0990246027926, 0.654986204817, 0.238600737552, 0.0628109352459, 0.415455300375, 0.517047295104, 0.026550764166, 0.175616803963, 0.795851417897 };
// Section for precomputed element basis function values
// Table dimensions: num_entities, num_points, num_dofs
// Definitions of 4 tables for 64 quadrature points
static const double FE0_C0_D001_Q64[1][64][4] =
    { { { -1.0, 1.11022302463e-16, 5.55111512313e-17, 1.0 },
        { -1.0, 5.55111512313e-17, 0.0, 1.0 },
        { -1.0, -2.77555756156e-16, -5.55111512313e-17, 1.0 },
        { -1.0, -3.33066907388e-16, -1.11022302463e-16, 1.0 },
        { -1.0, 1.11022302463e-16, 5.55111512313e-17, 1.0 },
        { -1.0, 5.55111512313e-17, 0.0, 1.0 },
        { -1.0, -2.77555756156e-16, -5.55111512313e-17, 1.0 },
        { -1.0, -3.33066907388e-16, -1.11022302463e-16, 1.0 },
        { -1.0, 1.11022302463e-16, 5.55111512313e-17, 1.0 },
        { -1.0, 5.55111512313e-17, 0.0, 1.0 },
        { -1.0, -2.77555756156e-16, -5.55111512313e-17, 1.0 },
        { -1.0, -3.33066907388e-16, -1.11022302463e-16, 1.0 },
        { -1.0, 1.11022302463e-16, 5.55111512313e-17, 1.0 },
        { -1.0, -5.55111512313e-17, 0.0, 1.0 },
        { -1.0, -2.77555756156e-16, -5.55111512313e-17, 1.0 },
        { -1.0, -2.77555756156e-16, -1.11022302463e-16, 1.0 },
        { -1.0, 1.11022302463e-16, 5.55111512313e-17, 1.0 },
        { -1.0, -5.55111512313e-17, 0.0, 1.0 },
        { -1.0, -2.77555756156e-16, -5.55111512313e-17, 1.0 },
        { -1.0, -3.33066907388e-16, -1.11022302463e-16, 1.0 },
        { -1.0, 1.11022302463e-16, 5.55111512313e-17, 1.0 },
        { -1.0, 5.55111512313e-17, 0.0, 1.0 },
        { -1.0, -2.77555756156e-16, -5.55111512313e-17, 1.0 },
        { -1.0, -3.33066907388e-16, -1.11022302463e-16, 1.0 },
        { -1.0, 1.11022302463e-16, 5.55111512313e-17, 1.0 },
        { -1.0, 5.55111512313e-17, 0.0, 1.0 },
        { -1.0, -2.77555756156e-16, -5.55111512313e-17, 1.0 },
        { -1.0, -3.33066907388e-16, -1.11022302463e-16, 1.0 },
        { -1.0, 1.11022302463e-16, 5.55111512313e-17, 1.0 },
        { -1.0, -5.55111512313e-17, 0.0, 1.0 },
        { -1.0, -2.77555756156e-16, -5.55111512313e-17, 1.0 },
        { -1.0, -3.33066907388e-16, -1.11022302463e-16, 1.0 },
        { -1.0, 1.11022302463e-16, 5.55111512313e-17, 1.0 },
        { -1.0, -5.55111512313e-17, 0.0, 1.0 },
        { -1.0, -2.77555756156e-16, -5.55111512313e-17, 1.0 },
        { -1.0, -3.33066907388e-16, -1.11022302463e-16, 1.0 },
        { -1.0, 1.11022302463e-16, 5.55111512313e-17, 1.0 },
        { -1.0, 5.55111512313e-17, 0.0, 1.0 },
        { -1.0, -2.77555756156e-16, -5.55111512313e-17, 1.0 },
        { -1.0, -3.33066907388e-16, -1.11022302463e-16, 1.0 },
        { -1.0, 1.11022302463e-16, 5.55111512313e-17, 1.0 },
        { -1.0, 5.55111512313e-17, 0.0, 1.0 },
        { -1.0, -2.77555756156e-16, -5.55111512313e-17, 1.0 },
        { -1.0, -3.33066907388e-16, -1.11022302463e-16, 1.0 },
        { -1.0, 1.11022302463e-16, 5.55111512313e-17, 1.0 },
        { -1.0, 5.55111512313e-17, 0.0, 1.0 },
        { -1.0, -2.77555756156e-16, -5.55111512313e-17, 1.0 },
        { -1.0, -3.33066907388e-16, -1.11022302463e-16, 1.0 },
        { -1.0, 1.11022302463e-16, 5.55111512313e-17, 1.0 },
        { -1.0, -5.55111512313e-17, 0.0, 1.0 },
        { -1.0, -2.77555756156e-16, -5.55111512313e-17, 1.0 },
        { -1.0, -3.33066907388e-16, -1.11022302463e-16, 1.0 },
        { -1.0, 1.11022302463e-16, 5.55111512313e-17, 1.0 },
        { -1.0, 5.55111512313e-17, 0.0, 1.0 },
        { -1.0, -2.77555756156e-16, -5.55111512313e-17, 1.0 },
        { -1.0, -3.33066907388e-16, -1.11022302463e-16, 1.0 },
        { -1.0, 1.11022302463e-16, 5.55111512313e-17, 1.0 },
        { -1.0, 5.55111512313e-17, 0.0, 1.0 },
        { -1.0, -2.77555756156e-16, -5.55111512313e-17, 1.0 },
        { -1.0, -3.33066907388e-16, -1.11022302463e-16, 1.0 },
        { -1.0, 1.11022302463e-16, 5.55111512313e-17, 1.0 },
        { -1.0, -5.55111512313e-17, 0.0, 1.0 },
        { -1.0, -2.77555756156e-16, -5.55111512313e-17, 1.0 },
        { -1.0, -3.33066907388e-16, -1.11022302463e-16, 1.0 } } };
static const double FE0_C0_D010_Q64[1][64][3] =
    { { { -1.0, -5.55111512313e-17, 1.0 },
        { -1.0, -1.11022302463e-16, 1.0 },
        { -1.0, -2.77555756156e-16, 1.0 },
        { -1.0, -2.77555756156e-16, 1.0 },
        { -1.0, -5.55111512313e-17, 1.0 },
        { -1.0, -1.11022302463e-16, 1.0 },
        { -1.0, -2.77555756156e-16, 1.0 },
        { -1.0, -2.77555756156e-16, 1.0 },
        { -1.0, -5.55111512313e-17, 1.0 },
        { -1.0, -1.11022302463e-16, 1.0 },
        { -1.0, -2.77555756156e-16, 1.0 },
        { -1.0, -2.77555756156e-16, 1.0 },
        { -1.0, -5.55111512313e-17, 1.0 },
        { -1.0, -1.11022302463e-16, 1.0 },
        { -1.0, -2.77555756156e-16, 1.0 },
        { -1.0, -2.77555756156e-16, 1.0 },
        { -1.0, -5.55111512313e-17, 1.0 },
        { -1.0, -1.11022302463e-16, 1.0 },
        { -1.0, -2.77555756156e-16, 1.0 },
        { -1.0, -2.77555756156e-16, 1.0 },
        { -1.0, -5.55111512313e-17, 1.0 },
        { -1.0, -1.11022302463e-16, 1.0 },
        { -1.0, -2.77555756156e-16, 1.0 },
        { -1.0, -2.77555756156e-16, 1.0 },
        { -1.0, -5.55111512313e-17, 1.0 },
        { -1.0, -1.11022302463e-16, 1.0 },
        { -1.0, -2.77555756156e-16, 1.0 },
        { -1.0, -2.77555756156e-16, 1.0 },
        { -1.0, -5.55111512313e-17, 1.0 },
        { -1.0, -1.11022302463e-16, 1.0 },
        { -1.0, -2.77555756156e-16, 1.0 },
        { -1.0, -2.77555756156e-16, 1.0 },
        { -1.0, -5.55111512313e-17, 1.0 },
        { -1.0, -1.11022302463e-16, 1.0 },
        { -1.0, -2.77555756156e-16, 1.0 },
        { -1.0, -2.77555756156e-16, 1.0 },
        { -1.0, -5.55111512313e-17, 1.0 },
        { -1.0, -1.11022302463e-16, 1.0 },
        { -1.0, -2.77555756156e-16, 1.0 },
        { -1.0, -2.77555756156e-16, 1.0 },
        { -1.0, -5.55111512313e-17, 1.0 },
        { -1.0, -1.11022302463e-16, 1.0 },
        { -1.0, -2.77555756156e-16, 1.0 },
        { -1.0, -2.77555756156e-16, 1.0 },
        { -1.0, -1.11022302463e-16, 1.0 },
        { -1.0, -1.11022302463e-16, 1.0 },
        { -1.0, -2.77555756156e-16, 1.0 },
        { -1.0, -2.77555756156e-16, 1.0 },
        { -1.0, -5.55111512313e-17, 1.0 },
        { -1.0, -1.11022302463e-16, 1.0 },
        { -1.0, -2.77555756156e-16, 1.0 },
        { -1.0, -2.77555756156e-16, 1.0 },
        { -1.0, -5.55111512313e-17, 1.0 },
        { -1.0, -1.11022302463e-16, 1.0 },
        { -1.0, -2.77555756156e-16, 1.0 },
        { -1.0, -2.77555756156e-16, 1.0 },
        { -1.0, -5.55111512313e-17, 1.0 },
        { -1.0, -1.11022302463e-16, 1.0 },
        { -1.0, -2.77555756156e-16, 1.0 },
        { -1.0, -2.77555756156e-16, 1.0 },
        { -1.0, -5.55111512313e-17, 1.0 },
        { -1.0, -1.11022302463e-16, 1.0 },
        { -1.0, -2.77555756156e-16, 1.0 },
        { -1.0, -2.77555756156e-16, 1.0 } } };
static const double FE0_C0_D100_Q64[1][64][2] =
    { { { -1.0, 1.0 },
        { -1.0, 1.0 },
        { -1.0, 1.0 },
        { -1.0, 1.0 },
        { -1.0, 1.0 },
        { -1.0, 1.0 },
        { -1.0, 1.0 },
        { -1.0, 1.0 },
        { -1.0, 1.0 },
        { -1.0, 1.0 },
        { -1.0, 1.0 },
        { -1.0, 1.0 },
        { -1.0, 1.0 },
        { -1.0, 1.0 },
        { -1.0, 1.0 },
        { -1.0, 1.0 },
        { -1.0, 1.0 },
        { -1.0, 1.0 },
        { -1.0, 1.0 },
        { -1.0, 1.0 },
        { -1.0, 1.0 },
        { -1.0, 1.0 },
        { -1.0, 1.0 },
        { -1.0, 1.0 },
        { -1.0, 1.0 },
        { -1.0, 1.0 },
        { -1.0, 1.0 },
        { -1.0, 1.0 },
        { -1.0, 1.0 },
        { -1.0, 1.0 },
        { -1.0, 1.0 },
        { -1.0, 1.0 },
        { -1.0, 1.0 },
        { -1.0, 1.0 },
        { -1.0, 1.0 },
        { -1.0, 1.0 },
        { -1.0, 1.0 },
        { -1.0, 1.0 },
        { -1.0, 1.0 },
        { -1.0, 1.0 },
        { -1.0, 1.0 },
        { -1.0, 1.0 },
        { -1.0, 1.0 },
        { -1.0, 1.0 },
        { -1.0, 1.0 },
        { -1.0, 1.0 },
        { -1.0, 1.0 },
        { -1.0, 1.0 },
        { -1.0, 1.0 },
        { -1.0, 1.0 },
        { -1.0, 1.0 },
        { -1.0, 1.0 },
        { -1.0, 1.0 },
        { -1.0, 1.0 },
        { -1.0, 1.0 },
        { -1.0, 1.0 },
        { -1.0, 1.0 },
        { -1.0, 1.0 },
        { -1.0, 1.0 },
        { -1.0, 1.0 },
        { -1.0, 1.0 },
        { -1.0, 1.0 },
        { -1.0, 1.0 },
        { -1.0, 1.0 } } };
static const double FE1_C0_Q64[1][64][20] =
    { { { 0.316942646271, 0.0459182870838, 0.0417713284262, 0.0384285806226, -0.0099256556723, -0.0101332081943, -0.0110547061626, -0.011617196823, -0.0123844609684, -0.0127480421943, 0.274161313248, -0.155700796186, 0.307139785811, -0.170857079355, 0.352119809988, -0.19029219534, 0.00443218553927, 0.0594028686805, 0.0681023032468, 0.0762942319785 },
        { 0.00141590232956, 0.0392228167323, 0.0353420251164, 0.0435405986331, -0.0405943584871, -0.0132673889695, -0.0455169618204, -0.0152103722761, -0.00829434237071, -0.00848064250992, 0.720340631624, -0.20385873716, 0.131264293206, -0.113662771759, 0.150487693607, -0.127445887443, 0.0139621042224, 0.187128683191, 0.214533314838, 0.039093399296 },
        { -0.0418846376624, 0.0272612052689, 0.0242504041834, -0.063954745244, -0.058858584842, 0.0353654205326, -0.0665869621325, 0.0405446175759, -0.00355166140663, -0.0035992047405, 0.267461209901, 0.543403829153, 0.0142660308648, -0.0482387491813, 0.0163552633343, -0.0545726978261, 0.012172889122, 0.163148525162, 0.187041309311, 0.00997653862634 },
        { 0.0606020354974, 0.0125719331417, 0.0110533069845, 0.213985565988, -0.0402900923343, 0.0579307126754, -0.0459453476252, 0.0664145528585, -0.000673013750447, -0.000676604746501, -0.296776478795, 0.890128566813, -0.0043472225451, -0.00906827174739, -0.0049838648305, -0.0103411254146, 0.00334794966816, 0.0448712746171, 0.0514425855001, 0.00075353804443 },
        { -0.0233141297876, 0.03799461325, 0.0334206393025, 0.0384285806226, -0.0120588958979, -0.0491261253148, -0.00893254555194, -0.00890984667643, -0.0485144029479, -0.0118784757749, 0.128698381602, -0.119415229212, 0.698986096122, -0.159202616933, 0.126772850606, -0.117928261408, 0.0164798161266, 0.220872602144, 0.0400589504569, 0.217567999272 },
        { -0.0636942004447, 0.0319045035068, 0.0529912643923, 0.0435405986331, -0.0832047485472, -0.0643207363968, -0.0363398789831, -0.0116656442114, -0.0321038941563, -0.0133315323092, 0.29550717883, -0.156350117797, 0.261061166329, -0.178677371706, 0.0473478205386, -0.0780377824367, 0.0519140970715, 0.695784565804, 0.126192199393, 0.111482512491 },
        { 0.00416331000853, 0.0216671920488, 0.0640143830484, -0.063954745244, -0.186307671683, 0.171452717401, -0.052316268488, 0.0310958255817, -0.013528344698, -0.00873768447279, -0.0189012088835, 0.416765324279, -0.00488762055045, -0.117107805779, -0.000886451952764, -0.0328845471247, 0.0452614117081, 0.606621196735, 0.110020927133, 0.0284500609325 },
        { 0.0641179720679, 0.00978236065603, 0.0429556497002, 0.213985565988, -0.168088205297, 0.280849993004, -0.0355809496646, 0.0509368561169, -0.00252676863369, -0.00216492522559, -0.289229785311, 0.682686983226, -0.0205395515393, -0.0290156555359, -0.00372519212222, -0.00614204058685, 0.01244839469, 0.166841019741, 0.0302594168725, 0.00214886185299 },
        { -0.0174860280988, 0.0241979596906, -0.0617731070982, 0.0384285806226, 0.0806970115889, -0.103558823235, -0.00550857447171, -0.00513048407491, -0.0630680308857, 0.0457718784119, 0.0085387974527, -0.0687618938938, 0.0977612527959, 0.613462784549, 0.00484326235995, -0.0418764631771, 0.0200039182058, 0.268104779401, 0.013282376703, 0.152070803153 },
        { 0.0188938370396, 0.0198809433019, -0.0493496614277, 0.0435405986331, 0.158889814822, -0.13558935756, -0.0220751669623, -0.0067173324103, -0.0411105067572, 0.0146593977712, -0.0363920633766, -0.0900298084357, -0.0677728132206, 0.196474238956, -0.00335758294735, -0.0272969141138, 0.0630155909246, 0.844573594527, 0.0418416436328, 0.0779215476028 },
        { 0.0590357207055, 0.0130980546488, 0.0251291929007, -0.063954745244, -0.101291343115, 0.361425647567, -0.0311273668109, 0.0179056546916, -0.0169677743151, -0.00273543287807, -0.190966113695, 0.239982565003, -0.104097141872, -0.0366619489641, -0.00515715331571, -0.0112664113074, 0.054940271829, 0.736343215736, 0.036479722577, 0.0198853858575 },
        { 0.0531740973438, 0.00574651592133, 0.0628753827384, 0.213985565988, -0.274175060593, 0.592037222446, -0.0207640128473, 0.0293305528843, -0.00310837799447, -0.00203339486296, -0.216073469396, 0.393106057016, -0.0323462532219, -0.0272528049536, -0.00160248959822, -0.00206392802816, 0.0151104033722, 0.202518892604, 0.0100331378913, 0.00150196328938 },
        { 0.06336457809, 0.00885305887263, 0.271372912375, 0.0384285806226, 0.260025387523, -0.152650645396, -0.00195933827339, -0.001721948327, -0.0330667115181, 0.0495015510215, -0.0169816512378, -0.0230786074808, -0.286590309701, 0.663450144123, -0.00323283077542, -0.00499921670053, 0.00989665381745, 0.132641023686, 0.00149623336498, 0.0252511359143 },
        { 0.0592677805712, 0.00714461813298, -0.0110736837111, 0.0435405986331, 0.678617626993, -0.199865180906, -0.00775717045766, -0.00225454345768, -0.0212943165654, 0.0210139153012, -0.0747372528782, -0.0302167740416, -0.205162272855, 0.281641379866, -0.00231429635683, -0.00321939794171, 0.0311760667119, 0.417840765115, 0.00471337808351, 0.0129387597644 },
        { 0.0461725856048, 0.00458809898064, -0.0385687396087, -0.063954745244, 0.238148410058, 0.532758645187, -0.010750763438, 0.00600968869405, -0.00863840057903, 0.00215855535295, -0.118604871591, 0.0805455333807, -0.0953008032717, 0.0289302825964, -0.00107502368123, -0.00130600336283, 0.027180917525, 0.364295325646, 0.00410936832205, 0.00330193942943 },
        { 0.0234627458143, 0.0019633890855, 0.06120422296, 0.213985565988, -0.297583634516, 0.872691107158, -0.00705250360641, 0.00984423608601, -0.00155624293108, -0.000740737938466, -0.0875131805869, 0.131938489103, -0.0193111235762, -0.00992782411644, -0.000217835678639, -0.000235281807411, 0.00747565700273, 0.100193339674, 0.00113021306382, 0.000249398821943 },
        { -0.0474934098882, 0.0183974307729, 0.0417713284262, 0.0384285806226, -0.0099256556723, -0.0101332081943, -0.00722315577599, -0.0552165235677, -0.00809201886159, -0.0605914303588, 0.105381595203, -0.112101469441, 0.118057796688, -0.123013691191, 0.643304764711, -0.0895202375931, 0.0210661729344, 0.0427688812853, 0.233050470905, 0.261083778995 },
        { -0.0593435556759, 0.0441735351627, 0.0353420251164, 0.0435405986331, -0.0405943584871, -0.0132673889695, -0.0735771805832, -0.0722948824964, -0.0134076243673, -0.0403084844093, 0.228787335175, -0.14677422694, 0.041690842537, -0.0818349298594, 0.227176166261, -0.148325620522, 0.0663618658268, 0.134728921587, 0.73414683005, 0.133780131961 },
        { 0.0140171944148, 0.0639244626451, 0.0242504041834, -0.063954745244, -0.058858584842, 0.0353654205326, -0.192017897058, 0.192708522205, -0.0102419833031, -0.0171070161251, -0.0601339611396, 0.391239924524, -0.00320746677979, -0.0347309377967, -0.0174776992285, -0.113304824717, 0.0578577284464, 0.117463685837, 0.640067415278, 0.0341403581674 },
        { 0.0637734994386, 0.0465185832699, 0.0110533069845, 0.213985565988, -0.0402900923343, 0.0579307126754, -0.184144831837, 0.315668295806, -0.00269737874031, -0.00321590160695, -0.28317425214, 0.640874823866, -0.00414797526438, -0.00652897488694, -0.0226025923432, -0.0298405119713, 0.015912801046, 0.0323064232393, 0.176039843057, 0.00257865575358 },
        { -0.054472318874, 0.0477306372653, 0.0334206393025, 0.0384285806226, -0.0120588958979, -0.0491261253148, -0.015798460732, -0.0423484913349, -0.0858045319165, -0.0564583821356, 0.0385389369754, -0.0859765845536, 0.209312508594, -0.114622710572, 0.180434929474, -0.150168175205, 0.0783285477048, 0.159023870566, 0.137084310264, 0.744531715768 },
        { -0.0175829401694, 0.0601263089174, 0.0529912643923, 0.0435405986331, -0.0832047485472, -0.0643207363968, -0.0887466324394, -0.0554467939512, -0.0784018156992, -0.0633647582254, 0.0422682922675, -0.112568968058, 0.0373412575687, -0.12864414579, 0.0321895104173, -0.137212538001, 0.246747645592, 0.500951017283, 0.431837839412, 0.381500342795 },
        { 0.0452580461212, 0.0623679922433, 0.0640143830484, -0.063954745244, -0.186307671683, 0.171452717401, -0.175443845541, 0.147798424375, -0.045367624378, -0.0415302045727, -0.162251408197, 0.300062725486, -0.0419562220559, -0.0843152856789, -0.0361677762045, -0.0793987591802, 0.215127439465, 0.436755168978, 0.376498703499, 0.0973579421179 },
        { 0.0592405099224, 0.0385588963661, 0.0429556497002, 0.213985565988, -0.168088205297, 0.280849993004, -0.148979564171, 0.242102820422, -0.0105797313832, -0.0102898871873, -0.249121428689, 0.491521018921, -0.017691270692, -0.0208906935742, -0.0152505132208, -0.0185157930529, 0.0591672061046, 0.120122208327, 0.103549674758, 0.0073535437551 },
        { 0.032529933393, 0.0638787973684, -0.0617731070982, 0.0384285806226, 0.0806970115889, -0.103558823235, -0.0173432620536, -0.024385185097, -0.198564146219, 0.21755368714, -0.0117972873895, -0.0495071928717, -0.135067918074, 0.441680975821, -0.0318046891613, -0.0949253108255, 0.0950786009643, 0.193030096643, 0.0454531491271, 0.520396089356 },
        { 0.0525008116746, 0.0605211362318, -0.0493496614277, 0.0435405986331, 0.158889814822, -0.13558935756, -0.0770790017967, -0.0319274734687, -0.143543957317, 0.0696761012884, -0.0827313861153, -0.0648196673774, -0.154070373, 0.141457535439, -0.0362792319014, -0.0686224327245, 0.299513033518, 0.608076151934, 0.143184801206, 0.266652557942 },
        { 0.0640509106927, 0.0478617966777, 0.0251291929007, -0.063954745244, -0.101291343115, 0.361425647567, -0.123672280291, 0.0851055568172, -0.0674147400182, -0.0130015094245, -0.186777439415, 0.172782662877, -0.101813862329, -0.0263958724177, -0.023974295968, -0.0322282006712, 0.261131050846, 0.530152436719, 0.124835961777, 0.0680490720179 },
        { 0.0431892417824, 0.0246116712745, 0.0628753827384, 0.213985565988, -0.274175060593, 0.592037222446, -0.0920146055848, 0.139408085209, -0.0137746098152, -0.00966472352016, -0.169123783267, 0.283028524692, -0.0253178732895, -0.0196214762964, -0.0059616458274, -0.00658507159077, 0.0718197304078, 0.145809565568, 0.0343340444999, 0.00513981517781 },
        { 0.0565572914461, 0.0355988950588, 0.271372912375, 0.0384285806226, 0.260025387523, -0.152650645396, -0.00831703837687, -0.0081844184814, -0.140362239858, 0.235280816902, -0.0142479247765, -0.0166161373264, -0.240454659982, 0.477670878242, -0.0128920618579, -0.0152785351604, 0.0470387845777, 0.0954988929254, 0.00512020700722, 0.0864110145349 },
        { 0.0500526781546, 0.0297626847873, -0.0110736837111, 0.0435405986331, 0.678617626993, -0.199865180906, -0.0337332239477, -0.0107158425447, -0.0926015424614, 0.0998791160348, -0.0601773048837, -0.0217554749546, -0.165193557012, 0.202776179132, -0.00885691113532, -0.0100797474009, 0.148179810378, 0.300837021449, 0.016129483579, 0.0442772698169 },
        { 0.0364359152038, 0.0200917703396, -0.0385687396087, -0.063954745244, 0.238148410058, 0.532758645187, -0.048363716747, 0.028564043673, -0.0388609758887, 0.0102596111897, -0.0909450732072, 0.0579911784017, -0.0730757380701, 0.0208292267596, -0.00391798160862, -0.0042300463934, 0.129190870739, 0.262285372431, 0.0140625232469, 0.0112994495376 },
        { 0.01750305516, 0.00902055949441, 0.06120422296, 0.213985565988, -0.297583634516, 0.872691107158, -0.0327684220469, 0.0467896431585, -0.00723085417875, -0.00352072659697, -0.0645347110293, 0.0949930820306, -0.014240572349, -0.00714783545794, -0.000763513336068, -0.000787083904625, 0.0355317894123, 0.0721372072641, 0.00386766194665, 0.000853458842448 },
        { 0.0183974307729, -0.0474934098882, 0.0417713284262, 0.0384285806226, -0.0099256556723, -0.0101332081943, 0.105381595203, -0.112101469441, 0.118057796688, -0.123013691191, -0.00722315577599, -0.0552165235677, -0.00809201886159, -0.0605914303588, -0.0895202375931, 0.643304764711, 0.0427688812853, 0.0210661729344, 0.233050470905, 0.261083778995 },
        { 0.0441735351627, -0.0593435556759, 0.0353420251164, 0.0435405986331, -0.0405943584871, -0.0132673889695, 0.228787335175, -0.14677422694, 0.041690842537, -0.0818349298594, -0.0735771805832, -0.0722948824964, -0.0134076243673, -0.0403084844093, -0.148325620522, 0.227176166261, 0.134728921587, 0.0663618658268, 0.73414683005, 0.133780131961 },
        { 0.0639244626451, 0.0140171944148, 0.0242504041834, -0.063954745244, -0.058858584842, 0.0353654205326, -0.0601339611396, 0.391239924524, -0.00320746677979, -0.0347309377967, -0.192017897058, 0.192708522205, -0.0102419833031, -0.0171070161251, -0.113304824717, -0.0174776992285, 0.117463685837, 0.0578577284464, 0.640067415278, 0.0341403581674 },
        { 0.0465185832699, 0.0637734994386, 0.0110533069845, 0.213985565988, -0.0402900923343, 0.0579307126754, -0.28317425214, 0.640874823866, -0.00414797526438, -0.00652897488694, -0.184144831837, 0.315668295806, -0.00269737874031, -0.00321590160695, -0.0298405119713, -0.0226025923432, 0.0323064232393, 0.015912801046, 0.176039843057, 0.00257865575358 },
        { 0.0477306372653, -0.054472318874, 0.0334206393025, 0.0384285806226, -0.0120588958979, -0.0491261253148, 0.0385389369754, -0.0859765845536, 0.209312508594, -0.114622710572, -0.015798460732, -0.0423484913349, -0.0858045319165, -0.0564583821356, -0.150168175205, 0.180434929474, 0.159023870566, 0.0783285477048, 0.137084310264, 0.744531715768 },
        { 0.0601263089174, -0.0175829401694, 0.0529912643923, 0.0435405986331, -0.0832047485472, -0.0643207363968, 0.0422682922675, -0.112568968058, 0.0373412575687, -0.12864414579, -0.0887466324394, -0.0554467939512, -0.0784018156992, -0.0633647582254, -0.137212538001, 0.0321895104173, 0.500951017283, 0.246747645592, 0.431837839412, 0.381500342795 },
        { 0.0623679922433, 0.0452580461212, 0.0640143830484, -0.063954745244, -0.186307671683, 0.171452717401, -0.162251408197, 0.300062725486, -0.0419562220559, -0.0843152856789, -0.175443845541, 0.147798424375, -0.045367624378, -0.0415302045727, -0.0793987591802, -0.0361677762045, 0.436755168978, 0.215127439465, 0.376498703499, 0.0973579421179 },
        { 0.0385588963661, 0.0592405099224, 0.0429556497002, 0.213985565988, -0.168088205297, 0.280849993004, -0.249121428689, 0.491521018921, -0.017691270692, -0.0208906935742, -0.148979564171, 0.242102820422, -0.0105797313832, -0.0102898871873, -0.0185157930529, -0.0152505132208, 0.120122208327, 0.0591672061046, 0.103549674758, 0.0073535437551 },
        { 0.0638787973684, 0.032529933393, -0.0617731070982, 0.0384285806226, 0.0806970115889, -0.103558823235, -0.0117972873895, -0.0495071928717, -0.135067918074, 0.441680975821, -0.0173432620536, -0.024385185097, -0.198564146219, 0.21755368714, -0.0949253108255, -0.0318046891613, 0.193030096643, 0.0950786009643, 0.0454531491271, 0.520396089356 },
        { 0.0605211362318, 0.0525008116746, -0.0493496614277, 0.0435405986331, 0.158889814822, -0.13558935756, -0.0827313861153, -0.0648196673774, -0.154070373, 0.141457535439, -0.0770790017967, -0.0319274734687, -0.143543957317, 0.0696761012884, -0.0686224327245, -0.0362792319014, 0.608076151934, 0.299513033518, 0.143184801206, 0.266652557942 },
        { 0.0478617966777, 0.0640509106927, 0.0251291929007, -0.063954745244, -0.101291343115, 0.361425647567, -0.186777439415, 0.172782662877, -0.101813862329, -0.0263958724177, -0.123672280291, 0.0851055568172, -0.0674147400182, -0.0130015094245, -0.0322282006712, -0.023974295968, 0.530152436719, 0.261131050846, 0.124835961777, 0.0680490720179 },
        { 0.0246116712745, 0.0431892417824, 0.0628753827384, 0.213985565988, -0.274175060593, 0.592037222446, -0.169123783267, 0.283028524692, -0.0253178732895, -0.0196214762964, -0.0920146055848, 0.139408085209, -0.0137746098152, -0.00966472352016, -0.00658507159077, -0.0059616458274, 0.145809565568, 0.0718197304078, 0.0343340444999, 0.00513981517781 },
        { 0.0355988950588, 0.0565572914461, 0.271372912375, 0.0384285806226, 0.260025387523, -0.152650645396, -0.0142479247765, -0.0166161373264, -0.240454659982, 0.477670878242, -0.00831703837687, -0.0081844184814, -0.140362239858, 0.235280816902, -0.0152785351604, -0.0128920618579, 0.0954988929254, 0.0470387845777, 0.00512020700722, 0.0864110145349 },
        { 0.0297626847873, 0.0500526781546, -0.0110736837111, 0.0435405986331, 0.678617626993, -0.199865180906, -0.0601773048837, -0.0217554749546, -0.165193557012, 0.202776179132, -0.0337332239477, -0.0107158425447, -0.0926015424614, 0.0998791160348, -0.0100797474009, -0.00885691113532, 0.300837021449, 0.148179810378, 0.016129483579, 0.0442772698169 },
        { 0.0200917703396, 0.0364359152038, -0.0385687396087, -0.063954745244, 0.238148410058, 0.532758645187, -0.0909450732072, 0.0579911784017, -0.0730757380701, 0.0208292267596, -0.048363716747, 0.028564043673, -0.0388609758887, 0.0102596111897, -0.0042300463934, -0.00391798160862, 0.262285372431, 0.129190870739, 0.0140625232469, 0.0112994495376 },
        { 0.00902055949441, 0.01750305516, 0.06120422296, 0.213985565988, -0.297583634516, 0.872691107158, -0.0645347110293, 0.0949930820306, -0.014240572349, -0.00714783545794, -0.0327684220469, 0.0467896431585, -0.00723085417875, -0.00352072659697, -0.000787083904625, -0.000763513336067, 0.0721372072641, 0.0355317894123, 0.00386766194665, 0.000853458842448 },
        { 0.0459182870838, 0.316942646271, 0.0417713284262, 0.0384285806226, -0.0099256556723, -0.0101332081943, 0.274161313248, -0.155700796186, 0.307139785811, -0.170857079355, -0.0110547061626, -0.011617196823, -0.0123844609684, -0.0127480421943, -0.19029219534, 0.352119809988, 0.0594028686805, 0.00443218553927, 0.0681023032468, 0.0762942319785 },
        { 0.0392228167323, 0.00141590232956, 0.0353420251164, 0.0435405986331, -0.0405943584871, -0.0132673889695, 0.720340631624, -0.20385873716, 0.131264293206, -0.113662771759, -0.0455169618204, -0.0152103722761, -0.00829434237071, -0.00848064250992, -0.127445887443, 0.150487693607, 0.187128683191, 0.0139621042224, 0.214533314838, 0.039093399296 },
        { 0.0272612052689, -0.0418846376624, 0.0242504041834, -0.063954745244, -0.058858584842, 0.0353654205326, 0.267461209901, 0.543403829153, 0.0142660308648, -0.0482387491813, -0.0665869621325, 0.0405446175759, -0.00355166140663, -0.0035992047405, -0.0545726978261, 0.0163552633343, 0.163148525162, 0.012172889122, 0.187041309311, 0.00997653862634 },
        { 0.0125719331417, 0.0606020354974, 0.0110533069845, 0.213985565988, -0.0402900923343, 0.0579307126754, -0.296776478795, 0.890128566813, -0.0043472225451, -0.00906827174739, -0.0459453476252, 0.0664145528585, -0.000673013750447, -0.000676604746501, -0.0103411254146, -0.0049838648305, 0.0448712746171, 0.00334794966816, 0.0514425855001, 0.00075353804443 },
        { 0.03799461325, -0.0233141297876, 0.0334206393025, 0.0384285806226, -0.0120588958979, -0.0491261253148, 0.128698381602, -0.119415229212, 0.698986096122, -0.159202616933, -0.00893254555194, -0.00890984667643, -0.0485144029479, -0.0118784757749, -0.117928261408, 0.126772850606, 0.220872602144, 0.0164798161266, 0.0400589504569, 0.217567999272 },
        { 0.0319045035068, -0.0636942004447, 0.0529912643923, 0.0435405986331, -0.0832047485472, -0.0643207363968, 0.29550717883, -0.156350117797, 0.261061166329, -0.178677371706, -0.0363398789831, -0.0116656442114, -0.0321038941563, -0.0133315323092, -0.0780377824367, 0.0473478205386, 0.695784565804, 0.0519140970715, 0.126192199393, 0.111482512491 },
        { 0.0216671920488, 0.00416331000853, 0.0640143830484, -0.063954745244, -0.186307671683, 0.171452717401, -0.0189012088835, 0.416765324279, -0.00488762055045, -0.117107805779, -0.052316268488, 0.0310958255817, -0.013528344698, -0.00873768447279, -0.0328845471247, -0.000886451952764, 0.606621196735, 0.0452614117081, 0.110020927133, 0.0284500609325 },
        { 0.00978236065603, 0.0641179720679, 0.0429556497002, 0.213985565988, -0.168088205297, 0.280849993004, -0.289229785311, 0.682686983226, -0.0205395515393, -0.0290156555359, -0.0355809496646, 0.0509368561169, -0.00252676863369, -0.00216492522559, -0.00614204058685, -0.00372519212222, 0.166841019741, 0.01244839469, 0.0302594168725, 0.00214886185299 },
        { 0.0241979596906, -0.0174860280988, -0.0617731070982, 0.0384285806226, 0.0806970115889, -0.103558823235, 0.0085387974527, -0.0687618938938, 0.0977612527959, 0.613462784549, -0.00550857447171, -0.00513048407491, -0.0630680308857, 0.0457718784119, -0.0418764631771, 0.00484326235995, 0.268104779401, 0.0200039182058, 0.013282376703, 0.152070803153 },
        { 0.0198809433019, 0.0188938370396, -0.0493496614277, 0.0435405986331, 0.158889814822, -0.13558935756, -0.0363920633766, -0.0900298084357, -0.0677728132206, 0.196474238956, -0.0220751669623, -0.0067173324103, -0.0411105067572, 0.0146593977712, -0.0272969141138, -0.00335758294735, 0.844573594527, 0.0630155909246, 0.0418416436328, 0.0779215476028 },
        { 0.0130980546488, 0.0590357207055, 0.0251291929007, -0.063954745244, -0.101291343115, 0.361425647567, -0.190966113695, 0.239982565003, -0.104097141872, -0.0366619489641, -0.0311273668109, 0.0179056546916, -0.0169677743151, -0.00273543287807, -0.0112664113074, -0.00515715331571, 0.736343215736, 0.054940271829, 0.036479722577, 0.0198853858575 },
        { 0.00574651592133, 0.0531740973438, 0.0628753827384, 0.213985565988, -0.274175060593, 0.592037222446, -0.216073469396, 0.393106057016, -0.0323462532219, -0.0272528049536, -0.0207640128473, 0.0293305528843, -0.00310837799447, -0.00203339486296, -0.00206392802816, -0.00160248959822, 0.202518892604, 0.0151104033722, 0.0100331378913, 0.00150196328938 },
        { 0.00885305887263, 0.06336457809, 0.271372912375, 0.0384285806226, 0.260025387523, -0.152650645396, -0.0169816512378, -0.0230786074808, -0.286590309701, 0.663450144123, -0.00195933827339, -0.001721948327, -0.0330667115181, 0.0495015510215, -0.00499921670053, -0.00323283077542, 0.132641023686, 0.00989665381745, 0.00149623336498, 0.0252511359143 },
        { 0.00714461813298, 0.0592677805712, -0.0110736837111, 0.0435405986331, 0.678617626993, -0.199865180906, -0.0747372528782, -0.0302167740416, -0.205162272855, 0.281641379866, -0.00775717045766, -0.00225454345768, -0.0212943165654, 0.0210139153012, -0.00321939794171, -0.00231429635683, 0.417840765115, 0.0311760667119, 0.00471337808351, 0.0129387597644 },
        { 0.00458809898064, 0.0461725856048, -0.0385687396087, -0.063954745244, 0.238148410058, 0.532758645187, -0.118604871591, 0.0805455333807, -0.0953008032717, 0.0289302825964, -0.010750763438, 0.00600968869405, -0.00863840057903, 0.00215855535295, -0.00130600336284, -0.00107502368123, 0.364295325646, 0.027180917525, 0.00410936832205, 0.00330193942943 },
        { 0.0019633890855, 0.0234627458143, 0.06120422296, 0.213985565988, -0.297583634516, 0.872691107158, -0.0875131805869, 0.131938489103, -0.0193111235762, -0.00992782411644, -0.00705250360641, 0.00984423608601, -0.00155624293108, -0.000740737938466, -0.000235281807412, -0.000217835678639, 0.100193339674, 0.00747565700273, 0.00113021306382, 0.000249398821943 } } };
// Section for piecewise constant computations
const double J_c0 = coordinate_dofs[0] * FE0_C0_D100_Q64[0][0][0 - 0] + coordinate_dofs[3] * FE0_C0_D100_Q64[0][0][1 - 0];
const double J_c4 = coordinate_dofs[1] * FE0_C0_D010_Q64[0][0][4 - 4] + coordinate_dofs[4] * FE0_C0_D010_Q64[0][0][5 - 4] + coordinate_dofs[7] * FE0_C0_D010_Q64[0][0][6 - 4];
const double J_c8 = coordinate_dofs[2] * FE0_C0_D001_Q64[0][0][8 - 8] + coordinate_dofs[5] * FE0_C0_D001_Q64[0][0][9 - 8] + coordinate_dofs[8] * FE0_C0_D001_Q64[0][0][10 - 8] + coordinate_dofs[11] * FE0_C0_D001_Q64[0][0][11 - 8];
const double J_c5 = coordinate_dofs[1] * FE0_C0_D001_Q64[0][0][4 - 4] + coordinate_dofs[4] * FE0_C0_D001_Q64[0][0][5 - 4] + coordinate_dofs[7] * FE0_C0_D001_Q64[0][0][6 - 4] + coordinate_dofs[10] * FE0_C0_D001_Q64[0][0][7 - 4];
const double J_c7 = coordinate_dofs[2] * FE0_C0_D010_Q64[0][0][8 - 8] + coordinate_dofs[5] * FE0_C0_D010_Q64[0][0][9 - 8] + coordinate_dofs[8] * FE0_C0_D010_Q64[0][0][10 - 8];
const double J_c1 = coordinate_dofs[0] * FE0_C0_D010_Q64[0][0][0 - 0] + coordinate_dofs[3] * FE0_C0_D010_Q64[0][0][1 - 0] + coordinate_dofs[6] * FE0_C0_D010_Q64[0][0][2 - 0];
const double J_c6 = coordinate_dofs[2] * FE0_C0_D100_Q64[0][0][8 - 8] + coordinate_dofs[5] * FE0_C0_D100_Q64[0][0][9 - 8];
const double J_c3 = coordinate_dofs[1] * FE0_C0_D100_Q64[0][0][4 - 4] + coordinate_dofs[4] * FE0_C0_D100_Q64[0][0][5 - 4];
const double J_c2 = coordinate_dofs[0] * FE0_C0_D001_Q64[0][0][0 - 0] + coordinate_dofs[3] * FE0_C0_D001_Q64[0][0][1 - 0] + coordinate_dofs[6] * FE0_C0_D001_Q64[0][0][2 - 0] + coordinate_dofs[9] * FE0_C0_D001_Q64[0][0][3 - 0];
double sp64[18];
sp64[0] = J_c4 * J_c8;
sp64[1] = J_c5 * J_c7;
sp64[2] = -1 * sp64[1];
sp64[3] = sp64[0] + sp64[2];
sp64[4] = J_c0 * sp64[3];
sp64[5] = J_c5 * J_c6;
sp64[6] = J_c3 * J_c8;
sp64[7] = -1 * sp64[6];
sp64[8] = sp64[5] + sp64[7];
sp64[9] = J_c1 * sp64[8];
sp64[10] = sp64[4] + sp64[9];
sp64[11] = J_c3 * J_c7;
sp64[12] = J_c4 * J_c6;
sp64[13] = -1 * sp64[12];
sp64[14] = sp64[11] + sp64[13];
sp64[15] = J_c2 * sp64[14];
sp64[16] = sp64[10] + sp64[15];
sp64[17] = fabs(sp64[16]);
for (int iq = 0; iq < 64; ++iq)
{
    // Quadrature loop body setup (num_points=64)
    // Section for geometrically varying computations
    double sv64[1];
    sv64[0] = weights64[iq] * sp64[17];
    for (int ia0 = 0; ia0 < 20; ++ia0)
    {
        for (int ia1 = 0; ia1 < 20; ++ia1)
        {
            A[ia0][ia1] += sv64[0] * FE1_C0_Q64[0][iq][ia0 - 0] * FE1_C0_Q64[0][iq][ia1 - 0];
        }
    }
}
}

            

        
        void wrap_form_cell_integral_0_otherwise(int start, int end,
                      Mat arg0_0_, int *arg0_0_map0_0, int *arg0_0_map1_0, double *arg1_0, int *arg1_0_map0_0
                      ) {
  Mat arg0_0_0 = arg0_0_;
  double *arg1_0_vec[12];
  for ( int n = start; n < end; n++ ) {
    int i = n;
    arg1_0_vec[0] = arg1_0 + (arg1_0_map0_0[i * 4 + 0])* 3;
    arg1_0_vec[1] = arg1_0 + (arg1_0_map0_0[i * 4 + 1])* 3;
    arg1_0_vec[2] = arg1_0 + (arg1_0_map0_0[i * 4 + 2])* 3;
    arg1_0_vec[3] = arg1_0 + (arg1_0_map0_0[i * 4 + 3])* 3;
    arg1_0_vec[4] = arg1_0 + (arg1_0_map0_0[i * 4 + 0])* 3 + 1;
    arg1_0_vec[5] = arg1_0 + (arg1_0_map0_0[i * 4 + 1])* 3 + 1;
    arg1_0_vec[6] = arg1_0 + (arg1_0_map0_0[i * 4 + 2])* 3 + 1;
    arg1_0_vec[7] = arg1_0 + (arg1_0_map0_0[i * 4 + 3])* 3 + 1;
    arg1_0_vec[8] = arg1_0 + (arg1_0_map0_0[i * 4 + 0])* 3 + 2;
    arg1_0_vec[9] = arg1_0 + (arg1_0_map0_0[i * 4 + 1])* 3 + 2;
    arg1_0_vec[10] = arg1_0 + (arg1_0_map0_0[i * 4 + 2])* 3 + 2;
    arg1_0_vec[11] = arg1_0 + (arg1_0_map0_0[i * 4 + 3])* 3 + 2;
    double buffer_arg0_0[20][20] __attribute__((aligned(32))) = {{0.0}};
    form_cell_integral_0_otherwise(buffer_arg0_0, arg1_0_vec);
    MatSetValuesLocal(arg0_0_0, 20, arg0_0_map0_0 + i * 20,
                                             20, arg0_0_map1_0 + i * 20,
                                             (const PetscScalar *)buffer_arg0_0,
                                             ADD_VALUES);;
  }
}
        
        