
        #include <petsc.h>
        #include <stdbool.h>
        #include <math.h>
        
        


        
            #include <immintrin.h>

            
            // This code is generated visiting a COFFEE AST

#include "firedrake_geometry.h"


void form_cell_integral_0_otherwise(double A[10][10], double *coordinate_dofs, double **w0)
{
// Section for quadrature weights and points
static const double weights64[64] = { 0.00261345900751, 0.00338108957856, 0.00161758872343, 0.000243985421621, 0.00392412678076, 0.00507672939399, 0.00242882065938, 0.000366345798555, 0.00250430944301, 0.00323988037881, 0.00155003109035, 0.000233795515279, 0.00060137292872, 0.000778009425932, 0.000372217075256, 5.6142540267e-05, 0.00489961445989, 0.00633873932659, 0.00303259438037, 0.00045741467394, 0.00735680500908, 0.00951766095289, 0.00455346144287, 0.000686811297505, 0.00469498496963, 0.00607400564032, 0.00290593987576, 0.000438311021534, 0.00112743130421, 0.00145858275269, 0.000697818545806, 0.000105253918778, 0.00489961445989, 0.00633873932659, 0.00303259438037, 0.00045741467394, 0.00735680500908, 0.00951766095289, 0.00455346144287, 0.000686811297505, 0.00469498496963, 0.00607400564032, 0.00290593987576, 0.000438311021534, 0.00112743130421, 0.00145858275269, 0.000697818545806, 0.000105253918778, 0.00261345900751, 0.00338108957856, 0.00161758872343, 0.000243985421621, 0.00392412678076, 0.00507672939399, 0.00242882065938, 0.000366345798555, 0.00250430944301, 0.00323988037881, 0.00155003109035, 0.000233795515279, 0.00060137292872, 0.000778009425932, 0.000372217075256, 5.6142540267e-05 };
static const double points64[192] = { 0.0622918093485, 0.0543346112272, 0.048500549447, 0.0498465213689, 0.0434790928043, 0.238600737552, 0.0316174621017, 0.0275786259744, 0.517047295104, 0.013364994113, 0.0116577406689, 0.795851417897, 0.0477749046478, 0.263415975366, 0.048500549447, 0.0382299507806, 0.210788066398, 0.238600737552, 0.0242491148181, 0.133702082268, 0.517047295104, 0.0102503254608, 0.0565171086994, 0.795851417897, 0.0275098322538, 0.555285975747, 0.048500549447, 0.0220136396043, 0.444345324777, 0.238600737552, 0.0139631692803, 0.281846577864, 0.517047295104, 0.00590236100006, 0.119139159297, 0.795851417897, 0.00923314621657, 0.818518016421, 0.048500549447, 0.00738845483861, 0.654986204817, 0.238600737552, 0.00468646927478, 0.415455300375, 0.517047295104, 0.0019810139747, 0.175616803963, 0.795851417897, 0.296072900492, 0.0543346112272, 0.048500549447, 0.236920460579, 0.0434790928043, 0.238600737552, 0.150277762174, 0.0275786259744, 0.517047295104, 0.0635238021415, 0.0116577406689, 0.795851417897, 0.22707406861, 0.263415975366, 0.048500549447, 0.181706913504, 0.210788066398, 0.238600737552, 0.115256015737, 0.133702082268, 0.517047295104, 0.048719785505, 0.0565171086994, 0.795851417897, 0.13075420208, 0.555285975747, 0.048500549447, 0.104630804534, 0.444345324777, 0.238600737552, 0.0663669280461, 0.281846577864, 0.517047295104, 0.028053915263, 0.119139159297, 0.795851417897, 0.0438851336894, 0.818518016421, 0.048500549447, 0.0351173176233, 0.654986204817, 0.238600737552, 0.0222747832462, 0.415455300375, 0.517047295104, 0.00941575721655, 0.175616803963, 0.795851417897, 0.601091938834, 0.0543346112272, 0.048500549447, 0.480999709065, 0.0434790928043, 0.238600737552, 0.305096316747, 0.0275786259744, 0.517047295104, 0.128967039293, 0.0116577406689, 0.795851417897, 0.461009406577, 0.263415975366, 0.048500549447, 0.368904282546, 0.210788066398, 0.238600737552, 0.233994606891, 0.133702082268, 0.517047295104, 0.0989116878988, 0.0565171086994, 0.795851417897, 0.265459272726, 0.555285975747, 0.048500549447, 0.212423133136, 0.444345324777, 0.238600737552, 0.134739198986, 0.281846577864, 0.517047295104, 0.0569555075431, 0.119139159297, 0.795851417897, 0.0890963004431, 0.818518016421, 0.048500549447, 0.0712957400079, 0.654986204817, 0.238600737552, 0.0452226212744, 0.415455300375, 0.517047295104, 0.0191160209242, 0.175616803963, 0.795851417897, 0.834873029977, 0.0543346112272, 0.048500549447, 0.668073648275, 0.0434790928043, 0.238600737552, 0.42375661682, 0.0275786259744, 0.517047295104, 0.179125847321, 0.0116577406689, 0.795851417897, 0.640308570539, 0.263415975366, 0.048500549447, 0.51238124527, 0.210788066398, 0.238600737552, 0.32500150781, 0.133702082268, 0.517047295104, 0.137381147943, 0.0565171086994, 0.795851417897, 0.368703642552, 0.555285975747, 0.048500549447, 0.295040298066, 0.444345324777, 0.238600737552, 0.187142957752, 0.281846577864, 0.517047295104, 0.079107061806, 0.119139159297, 0.795851417897, 0.123748287916, 0.818518016421, 0.048500549447, 0.0990246027926, 0.654986204817, 0.238600737552, 0.0628109352459, 0.415455300375, 0.517047295104, 0.026550764166, 0.175616803963, 0.795851417897 };
// Section for precomputed element basis function values
// Table dimensions: num_entities, num_points, num_dofs
// Definitions of 4 tables for 64 quadrature points
static const double FE0_C0_D001_Q64[1][64][4] =
    { { { -1.0, 1.11022302463e-16, 5.55111512313e-17, 1.0 },
        { -1.0, 5.55111512313e-17, 0.0, 1.0 },
        { -1.0, -2.77555756156e-16, -5.55111512313e-17, 1.0 },
        { -1.0, -3.33066907388e-16, -1.11022302463e-16, 1.0 },
        { -1.0, 1.11022302463e-16, 5.55111512313e-17, 1.0 },
        { -1.0, 5.55111512313e-17, 0.0, 1.0 },
        { -1.0, -2.77555756156e-16, -5.55111512313e-17, 1.0 },
        { -1.0, -3.33066907388e-16, -1.11022302463e-16, 1.0 },
        { -1.0, 1.11022302463e-16, 5.55111512313e-17, 1.0 },
        { -1.0, 5.55111512313e-17, 0.0, 1.0 },
        { -1.0, -2.77555756156e-16, -5.55111512313e-17, 1.0 },
        { -1.0, -3.33066907388e-16, -1.11022302463e-16, 1.0 },
        { -1.0, 1.11022302463e-16, 5.55111512313e-17, 1.0 },
        { -1.0, -5.55111512313e-17, 0.0, 1.0 },
        { -1.0, -2.77555756156e-16, -5.55111512313e-17, 1.0 },
        { -1.0, -2.77555756156e-16, -1.11022302463e-16, 1.0 },
        { -1.0, 1.11022302463e-16, 5.55111512313e-17, 1.0 },
        { -1.0, -5.55111512313e-17, 0.0, 1.0 },
        { -1.0, -2.77555756156e-16, -5.55111512313e-17, 1.0 },
        { -1.0, -3.33066907388e-16, -1.11022302463e-16, 1.0 },
        { -1.0, 1.11022302463e-16, 5.55111512313e-17, 1.0 },
        { -1.0, 5.55111512313e-17, 0.0, 1.0 },
        { -1.0, -2.77555756156e-16, -5.55111512313e-17, 1.0 },
        { -1.0, -3.33066907388e-16, -1.11022302463e-16, 1.0 },
        { -1.0, 1.11022302463e-16, 5.55111512313e-17, 1.0 },
        { -1.0, 5.55111512313e-17, 0.0, 1.0 },
        { -1.0, -2.77555756156e-16, -5.55111512313e-17, 1.0 },
        { -1.0, -3.33066907388e-16, -1.11022302463e-16, 1.0 },
        { -1.0, 1.11022302463e-16, 5.55111512313e-17, 1.0 },
        { -1.0, -5.55111512313e-17, 0.0, 1.0 },
        { -1.0, -2.77555756156e-16, -5.55111512313e-17, 1.0 },
        { -1.0, -3.33066907388e-16, -1.11022302463e-16, 1.0 },
        { -1.0, 1.11022302463e-16, 5.55111512313e-17, 1.0 },
        { -1.0, -5.55111512313e-17, 0.0, 1.0 },
        { -1.0, -2.77555756156e-16, -5.55111512313e-17, 1.0 },
        { -1.0, -3.33066907388e-16, -1.11022302463e-16, 1.0 },
        { -1.0, 1.11022302463e-16, 5.55111512313e-17, 1.0 },
        { -1.0, 5.55111512313e-17, 0.0, 1.0 },
        { -1.0, -2.77555756156e-16, -5.55111512313e-17, 1.0 },
        { -1.0, -3.33066907388e-16, -1.11022302463e-16, 1.0 },
        { -1.0, 1.11022302463e-16, 5.55111512313e-17, 1.0 },
        { -1.0, 5.55111512313e-17, 0.0, 1.0 },
        { -1.0, -2.77555756156e-16, -5.55111512313e-17, 1.0 },
        { -1.0, -3.33066907388e-16, -1.11022302463e-16, 1.0 },
        { -1.0, 1.11022302463e-16, 5.55111512313e-17, 1.0 },
        { -1.0, 5.55111512313e-17, 0.0, 1.0 },
        { -1.0, -2.77555756156e-16, -5.55111512313e-17, 1.0 },
        { -1.0, -3.33066907388e-16, -1.11022302463e-16, 1.0 },
        { -1.0, 1.11022302463e-16, 5.55111512313e-17, 1.0 },
        { -1.0, -5.55111512313e-17, 0.0, 1.0 },
        { -1.0, -2.77555756156e-16, -5.55111512313e-17, 1.0 },
        { -1.0, -3.33066907388e-16, -1.11022302463e-16, 1.0 },
        { -1.0, 1.11022302463e-16, 5.55111512313e-17, 1.0 },
        { -1.0, 5.55111512313e-17, 0.0, 1.0 },
        { -1.0, -2.77555756156e-16, -5.55111512313e-17, 1.0 },
        { -1.0, -3.33066907388e-16, -1.11022302463e-16, 1.0 },
        { -1.0, 1.11022302463e-16, 5.55111512313e-17, 1.0 },
        { -1.0, 5.55111512313e-17, 0.0, 1.0 },
        { -1.0, -2.77555756156e-16, -5.55111512313e-17, 1.0 },
        { -1.0, -3.33066907388e-16, -1.11022302463e-16, 1.0 },
        { -1.0, 1.11022302463e-16, 5.55111512313e-17, 1.0 },
        { -1.0, -5.55111512313e-17, 0.0, 1.0 },
        { -1.0, -2.77555756156e-16, -5.55111512313e-17, 1.0 },
        { -1.0, -3.33066907388e-16, -1.11022302463e-16, 1.0 } } };
static const double FE0_C0_D010_Q64[1][64][3] =
    { { { -1.0, -5.55111512313e-17, 1.0 },
        { -1.0, -1.11022302463e-16, 1.0 },
        { -1.0, -2.77555756156e-16, 1.0 },
        { -1.0, -2.77555756156e-16, 1.0 },
        { -1.0, -5.55111512313e-17, 1.0 },
        { -1.0, -1.11022302463e-16, 1.0 },
        { -1.0, -2.77555756156e-16, 1.0 },
        { -1.0, -2.77555756156e-16, 1.0 },
        { -1.0, -5.55111512313e-17, 1.0 },
        { -1.0, -1.11022302463e-16, 1.0 },
        { -1.0, -2.77555756156e-16, 1.0 },
        { -1.0, -2.77555756156e-16, 1.0 },
        { -1.0, -5.55111512313e-17, 1.0 },
        { -1.0, -1.11022302463e-16, 1.0 },
        { -1.0, -2.77555756156e-16, 1.0 },
        { -1.0, -2.77555756156e-16, 1.0 },
        { -1.0, -5.55111512313e-17, 1.0 },
        { -1.0, -1.11022302463e-16, 1.0 },
        { -1.0, -2.77555756156e-16, 1.0 },
        { -1.0, -2.77555756156e-16, 1.0 },
        { -1.0, -5.55111512313e-17, 1.0 },
        { -1.0, -1.11022302463e-16, 1.0 },
        { -1.0, -2.77555756156e-16, 1.0 },
        { -1.0, -2.77555756156e-16, 1.0 },
        { -1.0, -5.55111512313e-17, 1.0 },
        { -1.0, -1.11022302463e-16, 1.0 },
        { -1.0, -2.77555756156e-16, 1.0 },
        { -1.0, -2.77555756156e-16, 1.0 },
        { -1.0, -5.55111512313e-17, 1.0 },
        { -1.0, -1.11022302463e-16, 1.0 },
        { -1.0, -2.77555756156e-16, 1.0 },
        { -1.0, -2.77555756156e-16, 1.0 },
        { -1.0, -5.55111512313e-17, 1.0 },
        { -1.0, -1.11022302463e-16, 1.0 },
        { -1.0, -2.77555756156e-16, 1.0 },
        { -1.0, -2.77555756156e-16, 1.0 },
        { -1.0, -5.55111512313e-17, 1.0 },
        { -1.0, -1.11022302463e-16, 1.0 },
        { -1.0, -2.77555756156e-16, 1.0 },
        { -1.0, -2.77555756156e-16, 1.0 },
        { -1.0, -5.55111512313e-17, 1.0 },
        { -1.0, -1.11022302463e-16, 1.0 },
        { -1.0, -2.77555756156e-16, 1.0 },
        { -1.0, -2.77555756156e-16, 1.0 },
        { -1.0, -1.11022302463e-16, 1.0 },
        { -1.0, -1.11022302463e-16, 1.0 },
        { -1.0, -2.77555756156e-16, 1.0 },
        { -1.0, -2.77555756156e-16, 1.0 },
        { -1.0, -5.55111512313e-17, 1.0 },
        { -1.0, -1.11022302463e-16, 1.0 },
        { -1.0, -2.77555756156e-16, 1.0 },
        { -1.0, -2.77555756156e-16, 1.0 },
        { -1.0, -5.55111512313e-17, 1.0 },
        { -1.0, -1.11022302463e-16, 1.0 },
        { -1.0, -2.77555756156e-16, 1.0 },
        { -1.0, -2.77555756156e-16, 1.0 },
        { -1.0, -5.55111512313e-17, 1.0 },
        { -1.0, -1.11022302463e-16, 1.0 },
        { -1.0, -2.77555756156e-16, 1.0 },
        { -1.0, -2.77555756156e-16, 1.0 },
        { -1.0, -5.55111512313e-17, 1.0 },
        { -1.0, -1.11022302463e-16, 1.0 },
        { -1.0, -2.77555756156e-16, 1.0 },
        { -1.0, -2.77555756156e-16, 1.0 } } };
static const double FE0_C0_D100_Q64[1][64][2] =
    { { { -1.0, 1.0 },
        { -1.0, 1.0 },
        { -1.0, 1.0 },
        { -1.0, 1.0 },
        { -1.0, 1.0 },
        { -1.0, 1.0 },
        { -1.0, 1.0 },
        { -1.0, 1.0 },
        { -1.0, 1.0 },
        { -1.0, 1.0 },
        { -1.0, 1.0 },
        { -1.0, 1.0 },
        { -1.0, 1.0 },
        { -1.0, 1.0 },
        { -1.0, 1.0 },
        { -1.0, 1.0 },
        { -1.0, 1.0 },
        { -1.0, 1.0 },
        { -1.0, 1.0 },
        { -1.0, 1.0 },
        { -1.0, 1.0 },
        { -1.0, 1.0 },
        { -1.0, 1.0 },
        { -1.0, 1.0 },
        { -1.0, 1.0 },
        { -1.0, 1.0 },
        { -1.0, 1.0 },
        { -1.0, 1.0 },
        { -1.0, 1.0 },
        { -1.0, 1.0 },
        { -1.0, 1.0 },
        { -1.0, 1.0 },
        { -1.0, 1.0 },
        { -1.0, 1.0 },
        { -1.0, 1.0 },
        { -1.0, 1.0 },
        { -1.0, 1.0 },
        { -1.0, 1.0 },
        { -1.0, 1.0 },
        { -1.0, 1.0 },
        { -1.0, 1.0 },
        { -1.0, 1.0 },
        { -1.0, 1.0 },
        { -1.0, 1.0 },
        { -1.0, 1.0 },
        { -1.0, 1.0 },
        { -1.0, 1.0 },
        { -1.0, 1.0 },
        { -1.0, 1.0 },
        { -1.0, 1.0 },
        { -1.0, 1.0 },
        { -1.0, 1.0 },
        { -1.0, 1.0 },
        { -1.0, 1.0 },
        { -1.0, 1.0 },
        { -1.0, 1.0 },
        { -1.0, 1.0 },
        { -1.0, 1.0 },
        { -1.0, 1.0 },
        { -1.0, 1.0 },
        { -1.0, 1.0 },
        { -1.0, 1.0 },
        { -1.0, 1.0 },
        { -1.0, 1.0 } } };
static const double FE1_C0_Q64[1][64][10] =
    { { { 0.55915292239, -0.0545312703246, -0.0484301112728, -0.0437959428537, 0.010541033994, 0.0120847479178, 0.0135384049744, 0.16196720269, 0.181450006032, 0.208023006454 },
        { 0.224571150764, -0.0448771699837, -0.0396982297821, -0.124740113631, 0.0414965744448, 0.047573667052, 0.00866912611427, 0.637611460869, 0.116188944614, 0.133204589539 },
        { -0.0646172762229, -0.0296181342822, -0.0260574647531, 0.0176285156451, 0.057037815851, 0.0653908930311, 0.00348786464625, 0.876408850036, 0.0467465009578, 0.0535924350906 },
        { -0.114953708964, -0.0130077479777, -0.0113859348339, 0.47090754084, 0.0371113177633, 0.0425461980599, 0.000623222541643, 0.570230238291, 0.00835281070069, 0.00957606357972 },
        { 0.179681560473, -0.0432100216196, -0.12464002321, -0.0437959428537, 0.0511032781535, 0.00926843650079, 0.0503386924233, 0.124221269947, 0.674670026575, 0.122362723611 },
        { 0.0126878357384, -0.0353068925072, -0.121924848526, -0.124740113631, 0.201176752439, 0.0364867778113, 0.0322336696141, 0.489018172116, 0.432015407796, 0.0783532391502 },
        { -0.113749547653, -0.0230730756792, -0.0979495886624, 0.0176285156451, 0.276521199946, 0.0501517569014, 0.0129686285773, 0.672164602071, 0.173813513338, 0.0315239955157 },
        { -0.0996339883227, -0.0100401871167, -0.0501287415479, 0.47090754084, 0.179916884375, 0.0326309442076, 0.0023172750331, 0.437339925531, 0.0310575410862, 0.00563280591439 },
        { -0.0968188904897, -0.0259962505126, 0.0613990539756, -0.0437959428537, 0.107726699696, 0.00533696791803, 0.0611032961829, 0.0715293169876, 0.818943847664, 0.040571901432 },
        { -0.1209427431, -0.021044438947, -0.0494597894743, -0.124740113631, 0.424084488879, 0.0210098825831, 0.039126631358, 0.281587330905, 0.524399108267, 0.0259796431615 },
        { -0.11709798448, -0.0135732290876, -0.122971590957, 0.0176285156451, 0.582912042876, 0.0288784756299, 0.0157418859112, 0.387047040413, 0.210982408854, 0.0104524351948 },
        { -0.0665912073509, -0.00583268526931, -0.0907508807411, 0.47090754084, 0.379268275415, 0.0187896094833, 0.00281280930966, 0.251829869216, 0.0376989953522, 0.00186767374573 },
        { -0.0931210103917, -0.00906264423846, 0.521425469989, -0.0437959428537, 0.158794294115, 0.00179125065851, 0.030229986106, 0.0240074398282, 0.405160812641, 0.00457034414551 },
        { -0.0794128588761, -0.00727927630881, 0.203027652184, -0.124740113631, 0.625120766222, 0.00705156309545, 0.0193573439768, 0.0945093730484, 0.259438995067, 0.00292655522258 },
        { -0.054920508073, -0.00464254328626, -0.0702490871557, 0.0176285156451, 0.859240157183, 0.00969250504847, 0.00778807400101, 0.129904896687, 0.104380543878, 0.0011774460726 },
        { -0.0251408780104, -0.00197316514196, -0.113934280294, 0.47090754084, 0.55905952976, 0.00630637112255, 0.00139159737137, 0.0845218532311, 0.0186510413824, 0.000210389739407 },
        { 0.121531099028, -0.12075457568, -0.0484301112728, -0.0437959428537, 0.010541033994, 0.0574387934009, 0.0643480237726, 0.116613157206, 0.130640387233, 0.711868135172 },
        { -0.0182782688238, -0.124657851297, -0.0396982297821, -0.124740113631, 0.0414965744448, 0.226117586541, 0.041204346771, 0.459067541381, 0.0836537239571, 0.45583469044 },
        { -0.118928791762, -0.105110950566, -0.0260574647531, 0.0176285156451, 0.057037815851, 0.310802841786, 0.0165778167811, 0.630996901282, 0.0336565488229, 0.183396766913 },
        { -0.0957020448449, -0.0554532552645, -0.0113859348339, 0.47090754084, 0.0371113177633, 0.202222032018, 0.00296217604668, 0.410554404333, 0.00601385719566, 0.0327699067472 },
        { -0.0359500606719, -0.12394880334, -0.12464002321, -0.0437959428537, 0.0511032781535, 0.0440528683709, 0.239259749053, 0.0894368380769, 0.485748969946, 0.418733126475 },
        { -0.0967235431843, -0.115672108674, -0.121924848526, -0.124740113631, 0.201176752439, 0.173421614321, 0.153206595794, 0.352083335606, 0.311042481616, 0.268129834239 },
        { -0.124487654783, -0.0886881174099, -0.0979495886624, 0.0176285156451, 0.276521199946, 0.238371244725, 0.0616398771918, 0.483945114247, 0.125142264723, 0.107877144377 },
        { -0.0793446438928, -0.0439725505057, -0.0501287415479, 0.47090754084, 0.179916884375, 0.155094841495, 0.0110140056528, 0.314876028243, 0.0223608104665, 0.0192758248735 },
        { -0.124522021774, -0.0965608793566, 0.0613990539756, -0.0437959428537, 0.107726699696, 0.0253666025734, 0.290423898739, 0.0514996823321, 0.589623245108, 0.13883966156 },
        { -0.122175958153, -0.0827355940193, -0.0494597894743, -0.124740113631, 0.424084488879, 0.0998599485302, 0.18596883529, 0.202737264958, 0.377556904335, 0.088904013287 },
        { -0.0984298954991, -0.0575577897696, -0.122971590957, 0.0176285156451, 0.582912042876, 0.137259362523, 0.0748211662125, 0.27866615352, 0.151903128553, 0.0357689068963 },
        { -0.0504676478641, -0.0264798709398, -0.0907508807411, 0.47090754084, 0.379268275415, 0.0893069929584, 0.0133692795177, 0.181312485741, 0.0271425251441, 0.0063912999295 },
        { -0.0732199989378, -0.0400333237715, 0.521425469989, -0.0437959428537, 0.158794294115, 0.00851381238595, 0.143683090311, 0.0172848781007, 0.291707708436, 0.0156400122247 },
        { -0.0611295749213, -0.0326508656292, 0.203027652184, -0.124740113631, 0.625120766222, 0.0335160715431, 0.0920054343739, 0.0680448646007, 0.186790904669, 0.0100148605882 },
        { -0.0411324503246, -0.0212824513089, -0.0702490871557, 0.0176285156451, 0.859240157183, 0.046068465706, 0.0370167070574, 0.0935289360299, 0.0751519108213, 0.00402929634686 },
        { -0.0183851764122, -0.00923844424863, -0.113934280294, 0.47090754084, 0.55905952976, 0.0299741749255, 0.00661426075703, 0.0608540494282, 0.0134283779967, 0.000719967247874 },
        { -0.12075457568, 0.121531099028, -0.0484301112728, -0.0437959428537, 0.010541033994, 0.116613157206, 0.130640387233, 0.0574387934009, 0.0643480237726, 0.711868135172 },
        { -0.124657851297, -0.0182782688238, -0.0396982297821, -0.124740113631, 0.0414965744448, 0.459067541381, 0.0836537239571, 0.226117586541, 0.041204346771, 0.45583469044 },
        { -0.105110950566, -0.118928791762, -0.0260574647531, 0.0176285156451, 0.057037815851, 0.630996901282, 0.0336565488229, 0.310802841786, 0.0165778167811, 0.183396766913 },
        { -0.0554532552645, -0.0957020448449, -0.0113859348339, 0.47090754084, 0.0371113177633, 0.410554404333, 0.00601385719566, 0.202222032018, 0.00296217604668, 0.0327699067472 },
        { -0.12394880334, -0.0359500606719, -0.12464002321, -0.0437959428537, 0.0511032781535, 0.0894368380769, 0.485748969946, 0.0440528683709, 0.239259749053, 0.418733126475 },
        { -0.115672108674, -0.0967235431843, -0.121924848526, -0.124740113631, 0.201176752439, 0.352083335606, 0.311042481616, 0.173421614321, 0.153206595794, 0.268129834239 },
        { -0.0886881174099, -0.124487654783, -0.0979495886624, 0.0176285156451, 0.276521199946, 0.483945114247, 0.125142264723, 0.238371244725, 0.0616398771918, 0.107877144377 },
        { -0.0439725505057, -0.0793446438928, -0.0501287415479, 0.47090754084, 0.179916884375, 0.314876028243, 0.0223608104665, 0.155094841495, 0.0110140056528, 0.0192758248735 },
        { -0.0965608793566, -0.124522021774, 0.0613990539756, -0.0437959428537, 0.107726699696, 0.0514996823321, 0.589623245108, 0.0253666025734, 0.290423898739, 0.13883966156 },
        { -0.0827355940193, -0.122175958153, -0.0494597894743, -0.124740113631, 0.424084488879, 0.202737264958, 0.377556904335, 0.0998599485302, 0.18596883529, 0.088904013287 },
        { -0.0575577897696, -0.0984298954991, -0.122971590957, 0.0176285156451, 0.582912042876, 0.27866615352, 0.151903128553, 0.137259362523, 0.0748211662125, 0.0357689068963 },
        { -0.0264798709398, -0.0504676478641, -0.0907508807411, 0.47090754084, 0.379268275415, 0.181312485741, 0.0271425251441, 0.0893069929584, 0.0133692795177, 0.0063912999295 },
        { -0.0400333237715, -0.0732199989378, 0.521425469989, -0.0437959428537, 0.158794294115, 0.0172848781007, 0.291707708436, 0.00851381238595, 0.143683090311, 0.0156400122247 },
        { -0.0326508656292, -0.0611295749213, 0.203027652184, -0.124740113631, 0.625120766222, 0.0680448646007, 0.186790904669, 0.0335160715431, 0.0920054343739, 0.0100148605882 },
        { -0.0212824513089, -0.0411324503246, -0.0702490871557, 0.0176285156451, 0.859240157183, 0.0935289360299, 0.0751519108213, 0.046068465706, 0.0370167070574, 0.00402929634686 },
        { -0.00923844424863, -0.0183851764122, -0.113934280294, 0.47090754084, 0.55905952976, 0.0608540494282, 0.0134283779967, 0.0299741749255, 0.00661426075703, 0.000719967247874 },
        { -0.0545312703246, 0.55915292239, -0.0484301112728, -0.0437959428537, 0.010541033994, 0.16196720269, 0.181450006032, 0.0120847479178, 0.0135384049744, 0.208023006454 },
        { -0.0448771699837, 0.224571150764, -0.0396982297821, -0.124740113631, 0.0414965744448, 0.637611460869, 0.116188944614, 0.047573667052, 0.00866912611427, 0.133204589539 },
        { -0.0296181342822, -0.0646172762229, -0.0260574647531, 0.0176285156451, 0.057037815851, 0.876408850036, 0.0467465009578, 0.0653908930311, 0.00348786464625, 0.0535924350906 },
        { -0.0130077479777, -0.114953708964, -0.0113859348339, 0.47090754084, 0.0371113177633, 0.570230238291, 0.00835281070069, 0.0425461980599, 0.000623222541643, 0.00957606357972 },
        { -0.0432100216196, 0.179681560473, -0.12464002321, -0.0437959428537, 0.0511032781535, 0.124221269947, 0.674670026575, 0.00926843650079, 0.0503386924233, 0.122362723611 },
        { -0.0353068925072, 0.0126878357384, -0.121924848526, -0.124740113631, 0.201176752439, 0.489018172116, 0.432015407796, 0.0364867778113, 0.0322336696141, 0.0783532391502 },
        { -0.0230730756792, -0.113749547653, -0.0979495886624, 0.0176285156451, 0.276521199946, 0.672164602071, 0.173813513338, 0.0501517569014, 0.0129686285773, 0.0315239955157 },
        { -0.0100401871167, -0.0996339883227, -0.0501287415479, 0.47090754084, 0.179916884375, 0.437339925531, 0.0310575410862, 0.0326309442076, 0.0023172750331, 0.00563280591439 },
        { -0.0259962505126, -0.0968188904897, 0.0613990539756, -0.0437959428537, 0.107726699696, 0.0715293169876, 0.818943847664, 0.00533696791803, 0.0611032961829, 0.040571901432 },
        { -0.021044438947, -0.1209427431, -0.0494597894743, -0.124740113631, 0.424084488879, 0.281587330905, 0.524399108267, 0.0210098825831, 0.039126631358, 0.0259796431615 },
        { -0.0135732290876, -0.11709798448, -0.122971590957, 0.0176285156451, 0.582912042876, 0.387047040413, 0.210982408854, 0.0288784756299, 0.0157418859112, 0.0104524351948 },
        { -0.00583268526931, -0.0665912073509, -0.0907508807411, 0.47090754084, 0.379268275415, 0.251829869216, 0.0376989953522, 0.0187896094833, 0.00281280930966, 0.00186767374573 },
        { -0.00906264423846, -0.0931210103917, 0.521425469989, -0.0437959428537, 0.158794294115, 0.0240074398282, 0.405160812641, 0.00179125065851, 0.030229986106, 0.00457034414551 },
        { -0.00727927630881, -0.0794128588761, 0.203027652184, -0.124740113631, 0.625120766222, 0.0945093730484, 0.259438995067, 0.00705156309545, 0.0193573439768, 0.00292655522258 },
        { -0.00464254328626, -0.054920508073, -0.0702490871557, 0.0176285156451, 0.859240157183, 0.129904896687, 0.104380543878, 0.00969250504847, 0.00778807400101, 0.0011774460726 },
        { -0.00197316514196, -0.0251408780104, -0.113934280294, 0.47090754084, 0.55905952976, 0.0845218532311, 0.0186510413824, 0.00630637112255, 0.00139159737137, 0.000210389739407 } } };
// Section for piecewise constant computations
const double J_c0 = coordinate_dofs[0] * FE0_C0_D100_Q64[0][0][0 - 0] + coordinate_dofs[3] * FE0_C0_D100_Q64[0][0][1 - 0];
const double J_c4 = coordinate_dofs[1] * FE0_C0_D010_Q64[0][0][4 - 4] + coordinate_dofs[4] * FE0_C0_D010_Q64[0][0][5 - 4] + coordinate_dofs[7] * FE0_C0_D010_Q64[0][0][6 - 4];
const double J_c8 = coordinate_dofs[2] * FE0_C0_D001_Q64[0][0][8 - 8] + coordinate_dofs[5] * FE0_C0_D001_Q64[0][0][9 - 8] + coordinate_dofs[8] * FE0_C0_D001_Q64[0][0][10 - 8] + coordinate_dofs[11] * FE0_C0_D001_Q64[0][0][11 - 8];
const double J_c5 = coordinate_dofs[1] * FE0_C0_D001_Q64[0][0][4 - 4] + coordinate_dofs[4] * FE0_C0_D001_Q64[0][0][5 - 4] + coordinate_dofs[7] * FE0_C0_D001_Q64[0][0][6 - 4] + coordinate_dofs[10] * FE0_C0_D001_Q64[0][0][7 - 4];
const double J_c7 = coordinate_dofs[2] * FE0_C0_D010_Q64[0][0][8 - 8] + coordinate_dofs[5] * FE0_C0_D010_Q64[0][0][9 - 8] + coordinate_dofs[8] * FE0_C0_D010_Q64[0][0][10 - 8];
const double J_c1 = coordinate_dofs[0] * FE0_C0_D010_Q64[0][0][0 - 0] + coordinate_dofs[3] * FE0_C0_D010_Q64[0][0][1 - 0] + coordinate_dofs[6] * FE0_C0_D010_Q64[0][0][2 - 0];
const double J_c6 = coordinate_dofs[2] * FE0_C0_D100_Q64[0][0][8 - 8] + coordinate_dofs[5] * FE0_C0_D100_Q64[0][0][9 - 8];
const double J_c3 = coordinate_dofs[1] * FE0_C0_D100_Q64[0][0][4 - 4] + coordinate_dofs[4] * FE0_C0_D100_Q64[0][0][5 - 4];
const double J_c2 = coordinate_dofs[0] * FE0_C0_D001_Q64[0][0][0 - 0] + coordinate_dofs[3] * FE0_C0_D001_Q64[0][0][1 - 0] + coordinate_dofs[6] * FE0_C0_D001_Q64[0][0][2 - 0] + coordinate_dofs[9] * FE0_C0_D001_Q64[0][0][3 - 0];
double sp64[18];
sp64[0] = J_c4 * J_c8;
sp64[1] = J_c5 * J_c7;
sp64[2] = -1 * sp64[1];
sp64[3] = sp64[0] + sp64[2];
sp64[4] = J_c0 * sp64[3];
sp64[5] = J_c5 * J_c6;
sp64[6] = J_c3 * J_c8;
sp64[7] = -1 * sp64[6];
sp64[8] = sp64[5] + sp64[7];
sp64[9] = J_c1 * sp64[8];
sp64[10] = sp64[4] + sp64[9];
sp64[11] = J_c3 * J_c7;
sp64[12] = J_c4 * J_c6;
sp64[13] = -1 * sp64[12];
sp64[14] = sp64[11] + sp64[13];
sp64[15] = J_c2 * sp64[14];
sp64[16] = sp64[10] + sp64[15];
sp64[17] = fabs(sp64[16]);
for (int iq = 0; iq < 64; ++iq)
{
    // Quadrature loop body setup (num_points=64)
    // Section for geometrically varying computations
    double w_0 = 0.0;
    for (int ic = 0; ic < 10; ++ic)
    {
        w_0 += w0[0][ic] * FE1_C0_Q64[0][iq][ic - 0];
    }
    double sv64[2];
    sv64[0] = weights64[iq] * sp64[17];
    sv64[1] = sv64[0] * w_0;
    for (int ia0 = 0; ia0 < 10; ++ia0)
    {
        for (int ia1 = 0; ia1 < 10; ++ia1)
        {
            A[ia0][ia1] += sv64[1] * FE1_C0_Q64[0][iq][ia0 - 0] * FE1_C0_Q64[0][iq][ia1 - 0];
        }
    }
}
}

            

        
        void wrap_form_cell_integral_0_otherwise(int start, int end,
                      Mat arg0_0_, int *arg0_0_map0_0, int *arg0_0_map1_0, double *arg1_0, int *arg1_0_map0_0, double *arg2_0, int *arg2_0_map0_0
                      ) {
  Mat arg0_0_0 = arg0_0_;
  double *arg1_0_vec[12];
    double *arg2_0_vec[10];
  for ( int n = start; n < end; n++ ) {
    int i = n;
    arg1_0_vec[0] = arg1_0 + (arg1_0_map0_0[i * 4 + 0])* 3;
    arg1_0_vec[1] = arg1_0 + (arg1_0_map0_0[i * 4 + 1])* 3;
    arg1_0_vec[2] = arg1_0 + (arg1_0_map0_0[i * 4 + 2])* 3;
    arg1_0_vec[3] = arg1_0 + (arg1_0_map0_0[i * 4 + 3])* 3;
    arg1_0_vec[4] = arg1_0 + (arg1_0_map0_0[i * 4 + 0])* 3 + 1;
    arg1_0_vec[5] = arg1_0 + (arg1_0_map0_0[i * 4 + 1])* 3 + 1;
    arg1_0_vec[6] = arg1_0 + (arg1_0_map0_0[i * 4 + 2])* 3 + 1;
    arg1_0_vec[7] = arg1_0 + (arg1_0_map0_0[i * 4 + 3])* 3 + 1;
    arg1_0_vec[8] = arg1_0 + (arg1_0_map0_0[i * 4 + 0])* 3 + 2;
    arg1_0_vec[9] = arg1_0 + (arg1_0_map0_0[i * 4 + 1])* 3 + 2;
    arg1_0_vec[10] = arg1_0 + (arg1_0_map0_0[i * 4 + 2])* 3 + 2;
    arg1_0_vec[11] = arg1_0 + (arg1_0_map0_0[i * 4 + 3])* 3 + 2;
    arg2_0_vec[0] = arg2_0 + (arg2_0_map0_0[i * 10 + 0])* 1;
    arg2_0_vec[1] = arg2_0 + (arg2_0_map0_0[i * 10 + 1])* 1;
    arg2_0_vec[2] = arg2_0 + (arg2_0_map0_0[i * 10 + 2])* 1;
    arg2_0_vec[3] = arg2_0 + (arg2_0_map0_0[i * 10 + 3])* 1;
    arg2_0_vec[4] = arg2_0 + (arg2_0_map0_0[i * 10 + 4])* 1;
    arg2_0_vec[5] = arg2_0 + (arg2_0_map0_0[i * 10 + 5])* 1;
    arg2_0_vec[6] = arg2_0 + (arg2_0_map0_0[i * 10 + 6])* 1;
    arg2_0_vec[7] = arg2_0 + (arg2_0_map0_0[i * 10 + 7])* 1;
    arg2_0_vec[8] = arg2_0 + (arg2_0_map0_0[i * 10 + 8])* 1;
    arg2_0_vec[9] = arg2_0 + (arg2_0_map0_0[i * 10 + 9])* 1;
    double buffer_arg0_0[10][10]  = {{0.0}};
    form_cell_integral_0_otherwise(buffer_arg0_0, arg1_0_vec, arg2_0_vec);
    MatSetValuesLocal(arg0_0_0, 10, arg0_0_map0_0 + i * 10,
                                             10, arg0_0_map1_0 + i * 10,
                                             (const PetscScalar *)buffer_arg0_0,
                                             ADD_VALUES);;
  }
}
        
        